ID,SIM,interval,ETA1,ETA2,ETA3,ETA4
1,0,2,0.140337679891295,-0.0116003919489853,0.0519862495727241,-0.260105140758194
2,0,2,-0.0811415402237057,0.00906759872643651,0.0126502781862713,0.0944766523622049
3,0,2,-0.0257680070175077,0.00210717364199915,9.25701152939565e-05,0.0109931663732882
4,0,2,0.114954463899619,-0.0109285205786328,0.0297098585667562,-0.203638019195716
5,0,2,0.00289496584537187,-0.000703959649650531,-3.71036795954499e-07,-0.000749078054704229
6,0,2,0.0356365856775143,-0.0025769048708491,0.000161019033452835,-0.0128383953395727
7,0,2,0.10364144807629,-0.00889442584398806,0.0236482382540251,-0.180550518381419
8,0,2,-0.0388602751859639,0.00333592641239,0.0003715174965852,0.0192689501764941
9,0,2,0.140419238570931,-0.0116506597527241,0.0520043709034957,-0.260272309080778
10,0,2,0.000331159990321238,-0.000139180244007289,-6.96633037762084e-08,-7.80426611912564e-05
11,0,2,0.0871899032245559,-0.00828440170360126,0.0168328672828931,-0.147286404188793
12,0,2,-0.100430006218185,0.0096175515428552,0.0192668986385903,0.114201195192473
1,1,2,-0.204319450776443,0.0181042138082147,0.112803604430004,0.201615773157698
2,1,2,-0.331306313209508,0.0278224095580615,0.175780492213777,0.289186697637293
3,1,2,0.0508138981420766,-0.00468396401429756,0.0074846279134462,-0.081301682582506
4,1,2,0.017164577169739,-0.00181911365277914,1.42078322016107e-05,-0.00510983557103061
5,1,2,-0.20424701771617,0.0180370336937549,0.112738714962355,0.20166795793219
6,1,2,0.155827316435179,-0.016129781501799,0.148730057730873,-0.288234247301753
7,1,2,0.184965600441093,-0.0205509581627629,0.20062994332347,-0.350228627315683
8,1,2,-0.00173818295356685,0.00073227806354531,4.00525702995832e-07,0.000409833930142964
9,1,2,-0.24627511092711,0.0206322770898949,0.103443982490876,0.236853409298512
10,1,2,-0.204817510778473,0.0184855815057036,0.113189187358232,0.201427170463831
11,1,2,0.174799364086324,-0.0185766064685177,0.183818918288314,-0.331517186242155
12,1,2,0.337858345117251,-0.0427610596638705,0.403928013294836,-0.603882164812265
1,2,2,0.183242171137293,-0.0199739562817508,0.195064006389115,-0.342362578341766
2,2,2,0.150457209298157,-0.0128738099649649,0.123781694786587,-0.274981954501667
3,2,2,0.333013536502317,-0.0413361323647153,0.409123614270839,-0.597009528684182
4,2,2,0.162620321589079,-0.0161135876217659,0.158625868130226,-0.294698278107123
5,2,2,0.0324261772729312,-0.0023531039407769,0.000131106878809819,-0.0116240386899973
6,2,2,0.0258991216025193,-0.00189264841380615,8.01885183224201e-05,-0.00919251546255372
7,2,2,-0.121887411059623,0.0102981652236262,0.0310226265529487,0.139178564531855
8,2,2,-0.00553837894495306,0.00134693063089261,2.95298542774202e-06,0.00142098310419945
9,2,2,-0.284620552098704,0.0254700834038725,0.17575292469581,0.249320534566337
10,2,2,0.307169741924648,-0.0379365175042531,0.379836394168069,-0.565344593375575
11,2,2,-0.00852249327540541,0.00207145355337423,5.68287084078189e-06,0.00217972884005089
12,2,2,-0.191032027981216,0.0158611407717731,0.0739281355117668,0.179887940672575
1,3,2,-0.227660323430864,0.0192906427787767,0.131884613736151,0.215092025732766
2,3,2,0.11621574773532,-0.0111431969389199,0.0304765338286696,-0.206425621492771
3,3,2,0.2068297046685,-0.0232490468507613,0.232431154742588,-0.403779469166257
4,3,2,-0.22068409176592,0.018845131361928,0.0624007416107013,0.190284613367077
5,3,2,0.241528139850344,-0.0281289398271114,0.288266697118014,-0.458487547439342
6,3,2,-0.215603894179406,0.018921061656054,0.0633190478785002,0.190429126984898
7,3,2,0.0471972895657307,-0.00428593745170774,0.00626023416946484,-0.0743453434850348
8,3,2,-0.0448681264631921,0.00389885157359678,0.000539469605950181,0.0228515291269266
9,3,2,-0.151464815620817,0.0160058070993336,0.0332972338549344,0.148291176352081
10,3,2,0.139061210959973,-0.0105413993418855,0.0522650286262554,-0.257399386418154
11,3,2,0.0663243520473013,-0.00618010739962514,0.010967700879641,-0.108029200512985
12,3,2,-0.341516695409087,0.0284293930796394,0.183889790430253,0.294330150476814
1,4,2,0.300534394400532,-0.0373982458037373,0.375377600182631,-0.560816389564091
2,4,2,0.476875226706337,-0.0658082378900523,0.555844154913608,-0.795931700575551
3,4,2,-0.214429422759156,0.0189762292987808,0.0637852860459596,0.190442156731174
4,4,2,0.0654992381483252,-0.00610346731195563,0.0108900790406499,-0.10651021342841
5,4,2,0.0180693234154347,-0.00191165034840637,1.60992481608949e-05,-0.00538500727845345
6,4,2,0.296140119865113,-0.0340955102461014,0.334578082453899,-0.510026940946891
7,4,2,-0.025991712493956,0.00212819866503751,9.71474146799083e-05,0.011123524735272
8,4,2,0.0986727207217626,-0.00955526096716068,0.0226807401179957,-0.171018717612071
9,4,2,0.0741133831167143,-0.00695697678320374,0.0124175967812817,-0.122421856938996
10,4,2,-0.0396078440085946,0.00340505737277414,0.000391917615105945,0.0197329885596155
11,4,2,-0.0610282397638597,0.00546385948303223,0.00105415902440019,0.0311609755802104
12,4,2,0.695546683147927,-0.105684917847425,0.724619871765855,-1.03397251870679
1,5,2,0.242810896428484,-0.0281177394219164,0.291346151672054,-0.459711250068594
2,5,2,-0.272121617913283,0.0249285627581486,0.16097328850579,0.233308823099615
3,5,2,0.0291460976608559,-0.00212258252444979,0.000103818984431023,-0.0103959309338589
4,5,2,0.252000941479815,-0.0384292415335698,0.237957578222433,-0.487904169324603
5,5,2,-0.395122798568726,0.0318347836042117,0.232531084822899,0.31660111289573
6,5,2,0.215090088439962,-0.0240881743951966,0.248512230847405,-0.406868337145493
7,5,2,0.290070436884604,-0.0352142214319506,0.361315592313929,-0.536408987560434
8,5,2,0.0999794010001663,-0.00972230959902011,0.0234262170625307,-0.173656925780086
9,5,2,0.000428280370163602,-0.000180143873625999,-9.17609398377176e-08,-0.000100970951025752
10,5,2,-0.0618718744059475,0.00631681483746779,0.00854184561545612,0.0768384112166061
11,5,2,-0.0733468545987432,0.00805625241653628,0.0107551939638182,0.0875496764827389
12,5,2,0.230228720014698,-0.0267115644824773,0.273047709501296,-0.438359110698271
1,6,2,0.0255471356021661,-0.00186761694135398,7.78212978085122e-05,-0.00906278569159643
2,6,2,-0.081971591051495,0.00916374520141568,0.0128899440300749,0.095252668570083
3,6,2,0.128862828972872,-0.0124044261365419,0.0411445328643896,-0.233479148757141
4,6,2,-0.255324763606953,0.0217492656699263,0.110974102628341,0.244348449067969
5,6,2,0.323365948258451,-0.0403630776719663,0.400943955331604,-0.589224154472934
6,6,2,-0.038474446258712,0.00330033663964262,0.000361041411574165,0.0190274355088132
7,6,2,0.326428851027446,-0.0407993487342009,0.404721736731268,-0.592464398586571
8,6,2,0.208920994318263,-0.0234068873268451,0.239506268312095,-0.397387607462769
9,6,2,0.0701092832869325,-0.00654943712370373,0.0115212433271825,-0.115002952947123
10,6,2,0.265833173175715,-0.0309219329288141,0.319708317701822,-0.488485272264711
11,6,2,-0.157212063554126,0.0159057999585056,0.0368473222341633,0.154448104281415
12,6,2,0.110915082228212,-0.0101884342458707,0.0273947485213457,-0.194924585806153
1,7,2,0.246733291523627,-0.0287928230927295,0.297726361189767,-0.465493431084674
2,7,2,0.0565146405905519,-0.00512857022349575,0.00921677595102909,-0.0914057108279678
3,7,2,0.279128449715845,-0.0335838694675434,0.341857541709622,-0.522119825949522
4,7,2,-0.670480903414544,0.0501318614855478,0.458661664919328,0.324780235980959
5,7,2,-0.261389193563226,0.0218793217282164,0.114768821729879,0.249000634873078
6,7,2,0.215511962621998,-0.0238550680565102,0.249986175015106,-0.409278617560507
7,7,2,0.375405622346669,-0.0469252588492378,0.458486711752543,-0.654659493091634
8,7,2,0.278786384353927,-0.032810178672592,0.335458139590145,-0.53006774415223
9,7,2,0.265984578550517,-0.0306277626780588,0.32269159866773,-0.494795197497864
10,7,2,-0.0953538000136044,0.00890171606426529,0.017841931856606,0.109304808147738
11,7,2,0.175293250158751,-0.018633145143933,0.184627117805721,-0.332111309202518
12,7,2,0.369315258950297,-0.048389812003602,0.416188171252528,-0.662862022514918
1,8,2,0.52738447865531,-0.0747920582212685,0.436393431849323,-0.841522793965126
2,8,2,0.182835685938908,-0.0198421595382003,0.19827388046783,-0.351901302754201
3,8,2,-0.286048813824969,0.0239505178231791,0.18273014611674,0.252203057714026
4,8,2,0.0271946672735694,-0.00198460364061324,8.92278981792791e-05,-0.00967122748766938
5,8,2,-0.422508386435411,0.0336775678464659,0.256967931736506,0.324341714024651
6,8,2,0.145107778308115,-0.0138512702959804,0.0596433970564168,-0.271530296240133
7,8,2,-0.218562388227144,0.0188513133903301,0.0626425446656411,0.190379752436677
8,8,2,-0.0809061112979039,0.00903979996981953,0.0125843529108416,0.0942592815251358
9,8,2,0.186067734584559,-0.0201003665867677,0.198875311637204,-0.350621920898871
10,8,2,-0.188620590672246,0.0157293579061627,0.0767286244567245,0.178814478722403
11,8,2,-0.125392705821516,0.0106041738080403,0.0322424909869389,0.142220005794202
12,8,2,0.295882186258119,-0.0357280119059973,0.363130721557635,-0.548194981031013
1,9,2,-0.0637720711458474,0.00573355243950841,0.0011516074773813,0.0324264616766344
2,9,2,-0.0252546519214112,0.00205890622676186,8.20346320565848e-05,0.0107058971140531
3,9,2,-0.111715588161873,0.00949553067570407,0.026408077415233,0.129692535776268
4,9,2,0.154138709476512,-0.0135982212413584,0.132506023566185,-0.28053926469898
5,9,2,0.455959853964231,-0.0676196949783853,0.432037997617573,-0.753061895689567
6,9,2,0.115485258904643,-0.0110207430259226,0.0300274194225115,-0.204811337357461
7,9,2,0.136335877820345,-0.0112663091573975,0.0490658004589367,-0.250104420299918
8,9,2,-0.225545233942359,0.0192234518013932,0.132395753866882,0.220444839445769
9,9,2,-0.868881312526041,0.0549956924077108,0.533148756187585,0.26372933721409
10,9,2,-0.0256482854972065,0.00209592169962609,9.01201289483739e-05,0.0109246451652684
11,9,2,0.0697489086913894,-0.00651338744548399,0.011456261287612,-0.114337588987917
12,9,2,0.291518944529099,-0.0353978930139627,0.360310367207811,-0.539995923932632
1,10,2,-0.329214153731428,0.0277008020056249,0.174226815733701,0.288103391115785
2,10,2,-0.139671063532025,0.0161600728842397,0.027240756051172,0.13483608771082
3,10,2,-0.105423290177073,0.00986451961013509,0.0217226668540609,0.120661910691385
4,10,2,-0.108314666843865,0.00995818544571156,0.0234063237560849,0.124748248900722
5,10,2,-0.304091569864979,0.0265651771274772,0.19405745329429,0.262803867472231
6,10,2,0.267712343641502,-0.0319774795487839,0.327741079162737,-0.508296098453619
7,10,2,0.0871635025300948,-0.00828167170734383,0.016822288381288,-0.14723383504956
8,10,2,0.123662226103365,-0.0121409623770248,0.0356008811769024,-0.222651047582761
9,10,2,0.181704286568213,-0.0219014876993043,0.163768803041033,-0.345430205162834
10,10,2,-0.356897699499113,0.0293776825097657,0.197161360122457,0.301543152701768
11,10,2,0.197695017734284,-0.0215040502227378,0.222740430570223,-0.377223613360762
12,10,2,-0.0988419430667507,0.00947765719241469,0.0186508669858824,0.112400893302131
1,11,2,-0.286923711094844,0.0242154179605183,0.177116676310827,0.246092438165743
2,11,2,-0.227521793930993,0.0195196221321756,0.13071502040343,0.217829157224448
3,11,2,-0.0261625486687888,0.00214426308589219,0.00010064691422572,0.0112249974710815
4,11,2,-0.473212493345382,0.0363722121680993,0.308968385054539,0.336631792546693
5,11,2,-0.161214258325294,0.0158768267864786,0.0396748564884902,0.158420735270444
6,11,2,-0.400515228418178,0.0321905122515653,0.237659576378349,0.318404448966835
7,11,2,0.257922763187371,-0.0302701750500541,0.313106782476458,-0.48247919123366
8,11,2,-0.216234267578143,0.0168866016846822,0.124696585781538,0.215599999512653
9,11,2,0.387054498434905,-0.0504851092712705,0.466567156392724,-0.680328806663496
10,11,2,0.154447540814831,-0.0137444866304336,0.134084914773915,-0.281412877572916
11,11,2,0.166385918165667,-0.0172921772553749,0.171265644480867,-0.315730107466615
12,11,2,0.11644091493193,-0.0111808032268797,0.0306100649388452,-0.206920461028508
1,12,2,0.154690457851159,-0.0158255947190426,0.147241414335695,-0.282634444979244
2,12,2,-0.348107783796944,0.0288314790431106,0.189460067164693,0.297503497645806
3,12,2,0.0674938707746415,-0.00629177347070559,0.0111114337946706,-0.110180725681665
4,12,2,0.10947523018135,-0.00991352358302701,0.0266141027799524,-0.1919276007817
5,12,2,-0.0631760603905715,0.0056748953782579,0.00113020555876642,0.0321546143426301
6,12,2,0.293012336960203,-0.03512075719391,0.360645772745996,-0.541437704116228
7,12,2,-0.0361506371963087,0.00308590717250871,0.000299967569426529,0.0175548823702826
8,12,2,-0.484301290196264,0.0371607080769637,0.319343690521136,0.337529013235194
9,12,2,0.027146730784739,-0.00198120612799292,8.88842941463722e-05,-0.00965348102814969
10,12,2,-0.12662751931366,0.0107228788643069,0.0326095973154657,0.14328067357114
11,12,2,0.128982679570988,-0.0123969680685221,0.0413161401333514,-0.233727247820607
12,12,2,-0.0137729667057229,0.001100824747995,2.87995019285412e-05,0.0044603487044901
1,13,2,0.266906557476939,-0.0307853027044619,0.319404603028102,-0.4887315681841
2,13,2,-0.0739621398979035,0.00814200833520331,0.0108896156998689,0.0880906859486874
3,13,2,-0.0742098063272857,0.00817626540410354,0.0109442701606245,0.0883082127399197
4,13,2,0.106767941801979,-0.00940896091041845,0.0252014626800904,-0.186523845938955
5,13,2,0.0460508108494399,-0.00417837656890169,0.00589572251450366,-0.0721706146921206
6,13,2,0.389742575134212,-0.0503351243776309,0.472738259372705,-0.684366160624806
7,13,2,-0.0282609277794009,0.00234309347426215,0.000144128146006328,0.012563038040074
8,13,2,0.0410428271207742,-0.00289880580420294,0.000208911453236738,-0.0148742969909369
9,13,2,-0.363223826876792,0.0297763899088518,0.202844874083935,0.304313998157973
10,13,2,0.469689425953222,-0.0635554873877134,0.540649316377366,-0.788697370012234
11,13,2,0.698099024398213,-0.104400765452327,0.73595317978359,-1.03414484833133
12,13,2,-0.16225130461394,0.015879905829052,0.0404796752278647,0.159404259045223
1,14,2,0.444379308427508,-0.0600471744224697,0.528665875192814,-0.757875724811043
2,14,2,0.0253633918306548,-0.00185454212048557,7.66003573706328e-05,-0.00899511763312921
3,14,2,0.196880045551904,-0.0214246693424841,0.221069769933213,-0.372421436358525
4,14,2,0.192205767469293,-0.0214242032224419,0.214777104466587,-0.368114301719118
5,14,2,-0.0593898807226305,0.00530325763220037,0.000997313216735432,0.0303878027499502
6,14,2,0.0481877785352166,-0.00438735727998318,0.00658826965934045,-0.076246165741475
7,14,2,-0.350986897088983,0.0290092475949354,0.191952953007202,0.298851052216124
8,14,2,-0.217366756887369,0.0174770207321373,0.124643796084887,0.218088969774662
9,14,2,0.208986132290371,-0.0232007638217269,0.241216848879464,-0.399153138297174
10,14,2,0.218033939984828,-0.0247315529073013,0.254527414871321,-0.415772270291869
11,14,2,-0.364347593545215,0.0298476208554019,0.203864273742655,0.304794375012875
12,14,2,0.0654093296620735,-0.00609512422646236,0.0108799821142249,-0.106345019744098
1,15,2,0.0379833924087547,-0.00273023815029182,0.0001833827271658,-0.0137279977629194
2,15,2,-0.214563698281266,0.017471329699299,0.11919426966136,0.215083053156519
3,15,2,0.00208016123697797,-0.000877743660761674,-4.6792654429935e-07,-0.00049137049724802
4,15,2,-0.445326091891475,0.0348715716838158,0.279648367260848,0.329332546989706
5,15,2,-0.0188073252157193,0.000965996913409686,0.000179547479770948,0.0113891013868388
6,15,2,0.211469928355132,-0.0236841995019597,0.242344657584317,-0.399921514016882
7,15,2,0.314030824835624,-0.0394157437187911,0.391172414715486,-0.578428363657575
8,15,2,0.19854758356021,-0.0213477708406236,0.216854057657506,-0.368416594114819
9,15,2,-0.234796233018502,0.0197506718205478,0.0942643885494347,0.23114218835125
10,15,2,0.0430646504038845,-0.00397164307374604,0.00500028587356418,-0.0665771623823234
11,15,2,0.144186083963685,-0.0136996819418655,0.0585303223775049,-0.269431217317264
12,15,2,-0.378543341474614,0.0307559092978358,0.21693568880844,0.310561020998699
1,16,2,-0.181871279615463,0.0153987832586242,0.0699497736656694,0.173954888085044
2,16,2,0.118412284329312,-0.0114815768764549,0.0318575773731335,-0.211286101306645
3,16,2,0.178272991035784,-0.0191002363053848,0.189880046592523,-0.336766755740844
4,16,2,0.227731250666698,-0.0264896197544695,0.268683712294574,-0.428124369023717
5,16,2,0.0116840116860245,-0.00104077351616508,8.23200199527584e-06,-0.00355534059849005
6,16,2,-0.121510635948826,0.0102672801797351,0.0308757350157624,0.138846367682166
7,16,2,0.180854425761809,-0.0186856400586252,0.19399430540962,-0.337481196483765
8,16,2,-0.203901228810426,0.0177024721434651,0.112425951293539,0.201974799603055
9,16,2,-0.120191924637153,0.0101611194395403,0.0303392400254798,0.137671494590745
10,16,2,0.0521802706412091,-0.00484222041067837,0.00796075655240397,-0.0839063612736417
11,16,2,0.00778443960083469,-0.00189347345171004,1.469198201751e-07,-0.00202290534527816
12,16,2,-0.0183312243309191,0.000898151763595894,0.000170371750982467,0.011059654270081
1,17,2,0.0248817324043882,-0.00182024132448282,7.34487476528923e-05,-0.00881792084959707
2,17,2,-0.0948386102253002,0.00875907648731886,0.0178437653688337,0.109035835051737
3,17,2,0.179771521109502,-0.0193499157115016,0.193710696760537,-0.34066697516215
4,17,2,0.183386170090316,-0.0198050104558419,0.195768040218388,-0.342944443886727
5,17,2,0.123400137269835,-0.0121134024062897,0.0353929914577825,-0.222094939723728
6,17,2,0.394264906129064,-0.051836181488757,0.485222326352482,-0.695552662656543
7,17,2,-0.202420975833805,0.0169801855054654,0.10984928629636,0.202265604563226
8,17,2,-0.0528119626092453,0.00466215508136182,0.000779656224530371,0.0271389728515255
9,17,2,0.0556532177159695,-0.00511541769758337,0.0090185268445464,-0.0900670786849903
10,17,2,0.42881069366221,-0.0577799050059251,0.512537064722749,-0.737941479764701
11,17,2,0.321723906635819,-0.0400938329067499,0.398081018544461,-0.587390596618057
12,17,2,-0.146210705405451,0.0161015416679334,0.030413482941437,0.142342474607675
1,18,2,0.473765700494849,-0.0655384345889685,0.554880319692735,-0.793687593579903
2,18,2,0.155680469779499,-0.0161400258060723,0.148552854370735,-0.288154506281905
3,18,2,0.3031355181873,-0.0339663801084832,0.362639124594024,-0.53969199447336
4,18,2,-0.000897560272364851,0.000378577965236288,2.09647497812764e-07,0.000211795968858848
5,18,2,0.0375510462905358,-0.00270578134503469,0.000179846524149678,-0.0135660445488537
6,18,2,0.237632608124769,-0.027398907621896,0.28419453465405,-0.44506146579116
7,18,2,-0.0176843719153724,0.000806564359760594,0.000158399786660903,0.0106189882282105
8,18,2,0.0872602815070051,-0.00829171946666536,0.0168610238668194,-0.147426029036508
9,18,2,0.118574897603112,-0.0115039893691948,0.031969126181606,-0.211644828448994
10,18,2,0.424460127348418,-0.0568531649647571,0.509789904336728,-0.729853783073132
11,18,2,0.253780071773605,-0.030145694091119,0.312469853003928,-0.491868658787554
12,18,2,-0.550366817885027,0.0436924779800283,0.387268697363729,0.322035341000345
1,19,2,0.081669862294116,-0.00772788076990424,0.0147496230624263,-0.13660328276733
2,19,2,0.287321278870301,-0.0345042806200855,0.354262935287358,-0.533325037576823
3,19,2,0.0830771593300674,-0.0078699373908194,0.0152509352012843,-0.139294553488636
4,19,2,0.0615168845580995,-0.00554141987125767,0.0102661345630209,-0.0991584481797753
5,19,2,-0.0546057064558647,0.0048363340756683,0.000837299143924194,0.0280491981149179
6,19,2,0.110151244288494,-0.0100419973717204,0.0269797442360712,-0.193331748629047
7,19,2,0.154270259498131,-0.0159116759900797,0.146839908857445,-0.28426992225214
8,19,2,0.313248782727468,-0.0379435177116587,0.381782065551948,-0.566303392183462
9,19,2,-0.345815580217912,0.0286908373508071,0.187499592833773,0.296413740717683
10,19,2,0.176977564994936,-0.0189325743037874,0.185105205293967,-0.335062194095196
11,19,2,0.214219083867705,-0.0218167970315197,0.205561034952249,-0.411867491269624
12,19,2,0.154285468525477,-0.0136586097902635,0.133183307101096,-0.280977531888018
1,20,2,0.176040470486156,-0.018500891665198,0.184863419915531,-0.332979260515761
2,20,2,-0.570094357193622,0.0430806361842382,0.391148916642624,0.33281762224401
3,20,2,-0.529476012566816,0.0407695312183135,0.368343803774761,0.321343740631506
4,20,2,-0.155703744343766,0.0159280312143531,0.0358677697318379,0.152879537064594
5,20,2,0.473196221112141,-0.0640601504123011,0.542012586729215,-0.780488755839088
6,20,2,-0.369422889739739,0.0301706438732985,0.208499410288353,0.306919937176786
7,20,2,0.0115080416007621,-0.00101343729611469,8.14772058712022e-06,-0.00350978729961243
8,20,2,-0.166566579939886,0.0159779679418046,0.0443905197250882,0.163342620587224
9,20,2,-0.238298021738696,0.0199008733338764,0.097496087225725,0.234007704371901
10,20,2,0.235445123288145,-0.0269593610190344,0.280804846857313,-0.444384015216304
11,20,2,-0.051561379133442,0.00454104810575643,0.00074023208467629,0.0264927378157448
12,20,2,0.278746693891638,-0.032114266793433,0.338027089070261,-0.507639772008091
1,21,2,0.460600393502981,-0.0629743971304735,0.533992179765756,-0.778403895886616
2,21,2,-0.497390385057702,0.0383267378509739,0.332338511525185,0.336225478629829
3,21,2,-0.064424754198779,0.00672110767155594,0.00898904938327895,0.0793860364422663
4,21,2,0.237690977448507,-0.0276648572943475,0.284025810060258,-0.444330138720017
5,21,2,0.239871700888091,-0.0276545758664491,0.288260985683385,-0.453064736429751
6,21,2,-0.0970968743971014,0.00925331711498216,0.0181182209545461,0.110651735330527
7,21,2,-0.0456659286839539,0.0039747406412332,0.000562551095155103,0.0233032480018017
8,21,2,0.0429354008011122,-0.00299846046725929,0.000225561464897421,-0.015587447386196
9,21,2,-0.221558869732022,0.0199773705460843,0.120723799485745,0.218702126389411
10,21,2,-0.363341631582819,0.0297838515075693,0.202951614589712,0.304364523767539
11,21,2,-0.0702762082806562,0.00761497435528263,0.0101107080490472,0.0848248770371987
12,21,2,-0.0256113374324207,0.00209244875283651,8.93636081604162e-05,0.0109036802477054
1,22,2,0.190011337521016,-0.0205906554721065,0.205015551444545,-0.351418130214878
2,22,2,-0.167082782598327,0.0160040781534084,0.044955575367767,0.163809437913265
3,22,2,0.190104473054804,-0.0222808018901654,0.166800977609059,-0.395156527042702
4,22,2,-0.378665739396623,0.0307638023156629,0.217049701750829,0.310608341689427
5,22,2,-0.11554664533488,0.00752858568859568,0.0317080504917232,0.14295384046298
6,22,2,-0.0642832388884443,0.00578389180760957,0.00117006427719747,0.0326582991153382
7,22,2,-0.288164674515644,0.0236984976609105,0.144665031861805,0.259795287160535
8,22,2,-0.351970063615201,0.0290702198007977,0.192811315926342,0.299305781784571
9,22,2,-0.433130296055065,0.0343526007017836,0.267726858107095,0.326841707573844
10,22,2,-0.0169530102754049,0.00136109518924525,4.31854062076209e-05,0.00566362817746801
11,22,2,0.302640561489439,-0.0380314582728098,0.344048184855244,-0.580779757645956
12,22,2,0.0115223506551781,-0.00101561432469541,8.15495410811435e-06,-0.00351349739921919
1,23,2,0.215373563591752,-0.0243038823190288,0.25388319884556,-0.419522633481067
2,23,2,-0.113257088457036,0.00961062491470997,0.0271424082080034,0.131161214369164
3,23,2,-0.0284715622876943,0.00236305269689302,0.000148494586867022,0.012702349385467
4,23,2,0.268057148501588,-0.0282390849870828,0.318457436933896,-0.507902679110204
5,23,2,0.153694803407527,-0.013449801564588,0.130964179388352,-0.27975438151791
6,23,2,-0.334284990691921,0.0279972609323104,0.178064370618968,0.290713347416139
7,23,2,0.245655982647173,-0.0255580928996833,0.303742211325057,-0.471303121209019
8,23,2,-0.556250770352048,0.0430441422121405,0.392047769846349,0.306134322552491
9,23,2,-0.54728823643825,0.0417754453888894,0.379011889907975,0.324784314670469
10,23,2,0.164248388691404,-0.0150106527455025,0.152523697213174,-0.310118647090213
11,23,2,-0.733751158042391,0.0521472727400722,0.503897244865679,0.313033054868341
12,23,2,-0.029453622955204,0.00245556694964949,0.000168668667771577,0.0133528514960049
1,24,2,0.0940156677512979,-0.00896863321410957,0.0201400359090757,-0.161552992862761
2,24,2,0.162363963574284,-0.0164616043477671,0.158405573385624,-0.295822290158696
3,24,2,-0.0898456214280813,0.00944793727851416,0.0184063883886174,0.107869094699964
4,24,2,0.0625670719183802,-0.00552996041328022,0.0103310000522311,-0.100996974438956
5,24,2,-0.0226610288674357,0.00152466360497008,0.000265643657577015,0.0141972320686432
6,24,2,0.0649985739750591,-0.00605733535421484,0.0108397636774786,-0.105587983482227
7,24,2,0.00859286203276705,-0.00208972541471816,2.43647039949039e-07,-0.00223409245377524
8,24,2,-0.208311547114589,0.0163345855230918,0.12056765590941,0.203899079690909
9,24,2,-0.355790379489583,0.0293083333207949,0.196177342121279,0.301046435045992
10,24,2,-0.0388029536051089,0.00333063537679456,0.000369958809524891,0.0192331550140487
11,24,2,-0.30409069457864,0.0265651214436697,0.194055985879875,0.262802219237856
12,24,2,0.19612701315341,-0.0209915443868522,0.223904553490156,-0.382537557937102
1,25,2,0.211611988651658,-0.0233826569549613,0.240793137465746,-0.396104360845417
2,25,2,-0.274560164054579,0.0252481458991651,0.16263706035569,0.233613072424233
3,25,2,-0.489195188091187,0.0375531497081404,0.323966077316277,0.337495492725285
4,25,2,0.26923603373127,-0.0322452301097821,0.327674442795487,-0.506465658534714
5,25,2,-0.164844412608079,0.0159177657863684,0.0426899106526792,0.161791324909578
6,25,2,0.23928762623754,-0.0285148502418313,0.287969086636282,-0.454198191096846
7,25,2,-0.0584429962546284,0.00577494208218579,0.0079862066011931,0.0731638499275201
8,25,2,-0.0370479035997796,0.00316909117079901,0.000322631856764558,0.0181230753293177
9,25,2,0.0324618362189784,-0.00235561193248878,0.000131432916278002,-0.0116374510916959
10,25,2,-0.0614743679326368,0.00550764897753268,0.00106981404149779,0.0313691998667659
11,25,2,0.319861240614281,-0.0398731910099034,0.396495247301357,-0.584348198801035
12,25,2,0.113391195129086,-0.0106539543988388,0.0287912278769305,-0.200215213320054
1,26,2,0.05690446109405,-0.00512662842709786,0.00929592355152234,-0.0919904900156216
2,26,2,0.143623278683782,-0.0135319389205354,0.053861067350653,-0.267004082595901
3,26,2,-0.308044151031369,0.0251614353606806,0.197043041894371,0.257090793804094
4,26,2,0.0747032834492803,-0.00701773316865655,0.0125750504684832,-0.123520142216464
5,26,2,-0.29419712510419,0.0245997694377872,0.150850635520898,0.269358011099507
6,26,2,0.120767360425118,-0.011803649006579,0.0334398555402696,-0.216446911325855
7,26,2,0.20723953576429,-0.0230411631685397,0.238998894091266,-0.394353926174926
8,26,2,0.393768921380797,-0.0515920841259834,0.484152117865732,-0.696167385728126
9,26,2,0.113214134243771,-0.0106207930486562,0.0286882794308591,-0.199828731027148
10,26,2,0.201200162991698,-0.023466042089347,0.23154752369213,-0.387013626407245
11,26,2,-0.054974364088798,0.00487219635431106,0.000849306253237932,0.0282339198607809
12,26,2,0.0755698870082527,-0.00710674102346541,0.0128096311311522,-0.125133335414258
1,27,2,0.184403438291371,-0.0201936647600322,0.201245089928792,-0.348997181716614
2,27,2,-0.216645534853271,0.0171504670754382,0.124636892652446,0.216355203978316
3,27,2,-0.111721787321316,0.00949599050777857,0.0264110221971247,0.12969845343804
4,27,2,-0.250468999251499,0.0214895349957524,0.107410099260549,0.238547258351017
5,27,2,-0.0581698474039072,0.00518388499255706,0.000955651646558823,0.0298031442335015
6,27,2,-0.0653673735823776,0.00686888852744652,0.00916075298761184,0.0802944663693834
7,27,2,-0.461559678195369,0.0353892268442478,0.296407892159165,0.333742945831929
8,27,2,-0.12098877106061,0.0102249400871552,0.0306674696610909,0.13838375969083
9,27,2,-0.198214762451209,0.0160357209008083,0.0649597924481401,0.183219924790012
10,27,2,0.305927257564676,-0.0374969182096388,0.378261788803794,-0.562120783469162
11,27,2,0.0703999887812238,-0.00657864244526144,0.0115779700451898,-0.115538518921785
12,27,2,-0.217193101150626,0.017405128484942,0.124651812182249,0.217640462740657
1,28,2,0.320669557779017,-0.0418746043233439,0.394826317578084,-0.598398723889775
2,28,2,0.195427313430092,-0.0207448910990969,0.214732039751309,-0.365645050446505
3,28,2,-0.0710924513442746,0.00773437122885692,0.0102779875772437,0.0855546002811218
4,28,2,0.0752057147276834,-0.00706942385814102,0.0127103766672535,-0.124455210209048
5,28,2,0.120124797232198,-0.0117204726203119,0.0329976008837515,-0.215047999189374
6,28,2,-0.192961534478985,0.0159704171846343,0.071129543086997,0.180686743534386
7,28,2,0.340776869727944,-0.0433108385426077,0.420846953362966,-0.614120572540232
8,28,2,-0.00264633528849518,0.000644362160535617,1.00021057308797e-06,0.00068136580237857
9,28,2,0.155917706162231,-0.0157866812062177,0.149226309060099,-0.289370760550952
10,28,2,0.112222426441404,-0.0104310748724559,0.0281217848019423,-0.197703624031397
11,28,2,-0.542635924500621,0.041565365069975,0.374595984092773,0.321139526618064
12,28,2,-0.604926944358258,0.0410856079240726,0.432607017845032,0.311723965191723
1,29,2,-0.297885902248361,0.0247818008500574,0.159465324160833,0.271812742545213
2,29,2,-0.152236812079692,0.0159907977556648,0.0337476612458244,0.149144282349832
3,29,2,-0.372422345969082,0.0303624797228726,0.211260123869509,0.308142553521058
4,29,2,-0.315771372327844,0.0269466298058537,0.165770783975425,0.281036158778195
5,29,2,0.129900134694429,-0.0131696071031945,0.0935375418749834,-0.229834253152492
6,29,2,0.12636102266865,-0.0123762293822597,0.0380358522267713,-0.228305838222074
7,29,2,0.218263971759787,-0.0245385515251015,0.254554873835841,-0.41346351082736
8,29,2,0.077654238194944,-0.00732050811929372,0.0134241441838328,-0.129025278789605
9,29,2,-0.0694574082031023,0.00749375465970994,0.00994566551393867,0.0840875857556128
10,29,2,0.0247151960547963,-0.00180837256991286,7.23755074973746e-05,-0.00875671690853786
11,29,2,-0.0654312002364013,0.00687885397969447,0.00917250342642948,0.0803554269049866
12,29,2,0.258027558511312,-0.0302971292330304,0.313796887078317,-0.483332101577871
1,30,2,-0.245186350765773,0.0205989911677875,0.102692567454659,0.235777114567812
2,30,2,-0.427996899736095,0.0340459957141341,0.262626545008881,0.325763269237383
3,30,2,0.266078906208312,-0.0315644136446217,0.324415768326522,-0.498264298863917
4,30,2,0.135107260692385,-0.00906986013117445,0.0546918727266538,-0.247369038663116
5,30,2,0.126753886662321,-0.01239830651162,0.0384668090065007,-0.229122762298987
6,30,2,0.374263596510703,-0.0483296796592448,0.446237695138613,-0.663788598477984
7,30,2,0.279079815450479,-0.0335875745953606,0.342093929028825,-0.521852139603253
8,30,2,0.241291879050667,-0.0278793255427068,0.290763226001678,-0.454872506867172
9,30,2,0.15474883243752,-0.0142396450233853,0.138520868328416,-0.282723922571078
10,30,2,0.154748685637044,-0.0146358940320422,0.141209729579606,-0.283042200375733
11,30,2,0.560597639637792,-0.0800606838802204,0.62323062607303,-0.897274989019745
12,30,2,0.146506668500833,-0.0128410980568587,0.12009177601663,-0.271327359592955
1,31,2,-0.267761644018815,0.0246896386606884,0.162391812526244,0.235530970799506
2,31,2,0.283232391711308,-0.0337636735036916,0.339903132510473,-0.525286315329358
3,31,2,-0.297384879351464,0.0250719465424953,0.161687794258784,0.271576001515921
4,31,2,0.344410565087283,-0.0435840364220472,0.424292281785794,-0.620342101416616
5,31,2,0.0387265535671768,-0.00277205821817376,0.000189567336108801,-0.0140060758394712
6,31,2,-0.150635780777806,0.0160219590448062,0.0328215224033413,0.147367720582227
7,31,2,0.258514445306954,-0.0306518235421877,0.317222937740166,-0.490925596963039
8,31,2,0.249520309957123,-0.0291726340323655,0.300764291088239,-0.470916965477123
9,31,2,0.14626333007362,-0.0140283692925654,0.060983703996489,-0.274027761725953
10,31,2,-0.312628400820346,0.026832316137798,0.19556522339617,0.266764811065243
11,31,2,-0.538309572869881,0.0401147246520327,0.370078181416911,0.318853039979581
12,31,2,-0.238882616326348,0.0199241581364576,0.0980279657799001,0.234484781176578
1,32,2,-0.0456318361601827,0.00397149325852954,0.000561560489987025,0.0232840508475452
2,32,2,0.217341537363969,-0.0246020256153893,0.252802952470314,-0.40746401576286
3,32,2,0.188350763867358,-0.0200885530499354,0.206433490157053,-0.354122232866721
4,32,2,-0.546899541323327,0.0417055823859756,0.378611044428405,0.324464050942658
5,32,2,0.161712622485189,-0.0170210934427791,0.157497942699195,-0.2937495645884
6,32,2,0.179255053852077,-0.0183903582213874,0.193294809618915,-0.346315929469968
7,32,2,0.154760510115229,-0.0141880616490368,0.138114738759232,-0.282601286202246
8,32,2,-0.0616209177738267,0.00627692250287008,0.00849934062671011,0.0765800844215642
9,32,2,0.0547113751575674,-0.00507296661706514,0.00877153796930668,-0.0885243696304027
10,32,2,0.00865703758593309,-0.00210529496377477,2.49776912156455e-07,-0.00225085870586476
11,32,2,0.0907163241847536,-0.00864638558902341,0.018323848200832,-0.15430512327388
12,32,2,0.0103755276088968,-0.00252152393748764,2.67257589206324e-07,-0.00269970112736738
1,33,2,-0.530110170505951,0.0406884750865774,0.369342483687182,0.322629190178504
2,33,2,-0.546355249024433,0.0416331771179261,0.378167592500648,0.324087635772067
3,33,2,0.173160967865775,-0.0185273274221103,0.182697427324531,-0.328278776141204
4,33,2,0.154774537125974,-0.0159946130669496,0.147531239260653,-0.286690303833833
5,33,2,-0.390049964777041,0.0315024677006127,0.227729514408997,0.314832086660802
6,33,2,0.333884060890436,-0.0425810273788138,0.414972332079758,-0.609556494274927
7,33,2,0.217583043756793,-0.0246486474311404,0.253556057450713,-0.408401565814203
8,33,2,0.0314350613754571,-0.00228360397191786,0.000122461352258297,-0.011251654533174
9,33,2,-0.179574749672031,0.0152358121765837,0.0639892281061179,0.172108257347372
10,33,2,0.196473380314832,-0.0213710018736124,0.220953490252239,-0.37441849961953
11,33,2,0.198999206158062,-0.0223687114563826,0.225674595934689,-0.378003704347499
12,33,2,0.0116153466731413,-0.00102996431268393,8.20025812654146e-06,-0.00353758077751905
1,34,2,-0.131225297112157,0.011140996337601,0.0347091419371721,0.147665611121536
2,34,2,0.351795628717913,-0.0449541663721488,0.431400761500945,-0.629732954297808
3,34,2,-0.480168044795256,0.0368529235741586,0.315491417253378,0.337330717852528
4,34,2,-0.198115706097409,0.0160427513515123,0.0650310378351637,0.183163752864671
5,34,2,0.367908334094793,-0.0475222920874525,0.444608972374411,-0.657003288510314
6,34,2,-0.168505412927048,0.0161042831308795,0.0467197484944844,0.165132400814068
7,34,2,-0.320169967721258,0.0271879130534892,0.168163043438505,0.283351663896552
8,34,2,-0.124336976904467,0.0105077207271749,0.0319031544852176,0.141310203528567
9,34,2,-0.246727714256036,0.0226738692074229,0.137012487368924,0.229143929178195
10,34,2,0.317554341308206,-0.0396055483180683,0.394577236906075,-0.580686435074053
11,34,2,-0.0422898645815714,0.00365525954566708,0.000466219714504445,0.0213545599843901
12,34,2,0.0749462195525538,-0.00704272624580214,0.0126379300425899,-0.123972328123135
1,35,2,-0.110169028291525,0.010021042643483,0.0245552782225046,0.127424640858273
2,35,2,-0.042091479354557,0.00363663417315106,0.000460661617252876,0.0212369169158021
3,35,2,0.271003165566653,-0.0323921180606733,0.334182757712738,-0.506269586198462
4,35,2,0.189773564458459,-0.0203702362159512,0.208395996361142,-0.356346347896059
5,35,2,0.0887827083382671,-0.00844715649530189,0.0174893991066482,-0.150440160370046
6,35,2,0.266586521346515,-0.03166220790954,0.324078654488467,-0.499193686527534
7,35,2,0.181084244781097,-0.018510489551885,0.194980166453309,-0.336485918732433
8,35,2,0.147125210523438,-0.0127811051266995,0.120231957022268,-0.271889768300847
9,35,2,0.0525345278394006,-0.00488247468825225,0.00808548456835885,-0.0845953276308302
10,35,2,-0.306836544784641,0.0260536883998814,0.197338568339901,0.260317041357698
11,35,2,-0.78096497126871,0.0534829320278581,0.503852096163543,0.303506225549114
12,35,2,0.265821443188652,-0.0315015193664969,0.325014059520305,-0.497626129487928
1,36,2,0.615391841535861,-0.0930856500385027,0.673913238325151,-0.947767371302541
2,36,2,0.333962596560374,-0.0426468672363938,0.409322520955707,-0.601033292783133
3,36,2,0.0549489939723373,-0.00508682553809021,0.0088376374469857,-0.0889212143394694
4,36,2,-0.274796051205334,0.0252671564461726,0.162844615011409,0.233800433811276
5,36,2,-0.0658240973947074,0.00694006844708282,0.00924518976828001,0.0807292719752675
6,36,2,3.53497640818577e-05,-1.44464480567144e-05,-2.35627961864318e-09,-8.22409141123372e-06
7,36,2,0.299599554787843,-0.0361173129415467,0.354021669466209,-0.550453689794925
8,36,2,0.41870778978657,-0.0559445785639821,0.504343677989188,-0.719166425129407
9,36,2,-0.523628420381253,0.0389755549423402,0.360969478256886,0.318418120667278
10,36,2,-0.217289612112746,0.0174453094526524,0.124648979671392,0.217888073760423
11,36,2,0.365459862278105,-0.0469925924031678,0.447086506413261,-0.648015663851466
12,36,2,0.042720195161156,-0.00298725444252412,0.000223632174163685,-0.0155060925017618
1,37,2,0.302643190673504,-0.0379772698366701,0.343715953440326,-0.581057149427914
2,37,2,0.233870776782222,-0.0275470839134205,0.282208652415995,-0.444880374816213
3,37,2,-0.11906604165064,0.010072283964841,0.0298564479017938,0.136652771957795
4,37,2,0.282372798314865,-0.03373460718746,0.342549109056533,-0.522754301423508
5,37,2,0.146740007641899,-0.0140962850991727,0.0615261141258,-0.275027179724904
6,37,2,-0.0820651028252918,0.00917437946233421,0.0129177226717596,0.0953411600804962
7,37,2,-0.0803733671479848,0.00897611370450387,0.0124381140849547,0.0937711416887475
8,37,2,-0.359174534367538,0.0295207074473561,0.199195359523758,0.302553492180664
9,37,2,-0.218056039489166,0.0188576503467635,0.0627238726144408,0.190393917300071
10,37,2,0.102809912558328,-0.00877202001832551,0.0232507767852385,-0.178997035654354
11,37,2,-0.0988796164904251,0.00948156264266307,0.0186642366769125,0.112441620881894
12,37,2,0.194408412022955,-0.0209095922041789,0.219350877930271,-0.367679779923131
1,38,2,0.172574244114629,-0.0185927031899984,0.180802030699548,-0.32636035856646
2,38,2,-0.0234406655451351,0.00172570486144053,8.35409798655876e-05,0.0109938955631455
3,38,2,-0.054611907569373,0.00483693713905945,0.000837500696088965,0.0280523117308304
4,38,2,0.0926022257281632,-0.00878930561850523,0.0194306367547931,-0.158734081427267
5,38,2,-0.290260551500221,0.0236630470786858,0.146734964447174,0.264402021143517
6,38,2,0.23652596061676,-0.0274208653069455,0.22568701247388,-0.448586937598761
7,38,2,0.0600194334083945,-0.00552067871584469,0.0100994798240123,-0.0964814908508773
8,38,2,0.140502309363437,-0.0117074243833178,0.0520123236239104,-0.260464409295863
9,38,2,-0.429544290921085,0.0341434059174526,0.264187786965084,0.326114835418531
10,38,2,0.266905275563604,-0.024221627485604,0.222264920827725,-0.481503788770612
11,38,2,0.253159052312365,-0.0300529986671317,0.311479464679465,-0.492943823156363
12,38,2,0.0512025778589977,-0.00472928620958998,0.00761988372394277,-0.082037792846587
1,39,2,-0.265486876959239,0.0244734857937468,0.160496147950334,0.234478274469607
2,39,2,0.388669210176895,-0.050970768800705,0.473277745055135,-0.680528961695965
3,39,2,-0.26388662495258,0.0243594111294658,0.158997583010602,0.233059348360859
4,39,2,0.102776891890087,-0.00876777609026889,0.0232356579309899,-0.178939142944531
5,39,2,-0.115982345619357,0.00768413979069866,0.0317864689966793,0.14313206534833
6,39,2,0.184312723757315,-0.0202618449782168,0.200231299661461,-0.345773155256399
7,39,2,-0.22105643365862,0.0198088074568827,0.121161530445468,0.218952933914078
8,39,2,-0.319569385358074,0.0271546511326005,0.167809485343418,0.283034601287335
9,39,2,0.340161926634212,-0.043863135109622,0.422566675992147,-0.624860153614413
10,39,2,-0.272221683661894,0.0253039090443033,0.165344565830074,0.235097807052361
11,39,2,-0.350601886570184,0.0289854068915746,0.191617761466006,0.298672222813436
12,39,2,-0.281845863512095,0.025595029929379,0.1730928877255,0.243945144017408
1,40,2,-0.217990300173265,0.0188586228414009,0.062735251606557,0.190395533509504
2,40,2,0.0859329503486316,-0.00815729157256745,0.0163324930303335,-0.144819906842872
3,40,2,0.234516761660706,-0.0274821186815821,0.277765818112913,-0.4429148222834
4,40,2,-0.059703005809075,0.00533392601312156,0.00100809848681986,0.0305366185758886
5,40,2,-0.246331691273517,0.0206342575744669,0.103482204549735,0.23690699002435
6,40,2,0.322475750175437,-0.0409029157299747,0.398677407787667,-0.592393898813358
7,40,2,0.101436307211017,-0.00990597837481691,0.0242216978033847,-0.176503895343034
8,40,2,0.0586140895534928,-0.00506941140971458,0.009592900555927,-0.094449493526489
9,40,2,-0.202791344578175,0.0171131625963965,0.107354695264975,0.205567729372237
10,40,2,-0.0246512990914782,0.00200221476248529,6.93476909466069e-05,0.0103913285716521
11,40,2,0.392176619727973,-0.0515657639870207,0.474846122718622,-0.687549031376737
12,40,2,0.00775171039583062,-0.00188552368744113,1.42354337732758e-07,-0.00201435645195777
1,41,2,0.221882237799628,-0.0251280660585277,0.258970593414781,-0.419635376804209
2,41,2,-0.201985405113915,0.0169109974445728,0.110425464137344,0.200325456280687
3,41,2,0.0365831593883397,-0.00264244170258348,0.000170441622865793,-0.0131990461288123
4,41,2,0.240783802320992,-0.0277073360998355,0.28613890807302,-0.454467634734111
5,41,2,0.121951077375046,-0.0119498919042097,0.0342853069001607,-0.219000561389569
6,41,2,0.602495451858691,-0.0880377295889323,0.657928160809129,-0.942917108265022
7,41,2,0.45404714493863,-0.062126212891657,0.531970577625991,-0.768236884093149
8,41,2,0.345196754081558,-0.0436915411845447,0.427174233649579,-0.627141128283589
9,41,2,-0.0585471511112679,0.0057912026873109,0.00800220273518138,0.0732802950949816
10,41,2,0.0291137900689762,-0.00212030333021079,0.000103567704884064,-0.0103838973226765
11,41,2,-0.0167368123810611,0.00134320599860214,4.1873268532613e-05,0.00554964213863685
12,41,2,0.0393656112007676,-0.00280761492297331,0.00019477369066013,-0.0142451636672353
1,42,2,0.154837446357181,-0.0160129125940893,0.14764077293633,-0.286845996584857
2,42,2,0.300544164216013,-0.0372661680514887,0.374292334382713,-0.560802497731147
3,42,2,0.0542938957018814,-0.00504619839217796,0.00865329138543082,-0.087810455408655
4,42,2,0.115079735806715,-0.0109517213154643,0.0297858835370669,-0.203915293452267
5,42,2,0.179531816314053,-0.0189579779078637,0.191240809230515,-0.3360008768105
6,42,2,-0.124495140267275,0.0105218993079882,0.0319555150110618,0.141446707654703
7,42,2,0.422691897693316,-0.0569963759998701,0.482800027030335,-0.734032434393388
8,42,2,0.171728071877534,-0.018956031595248,0.177690254058526,-0.33636497133708
9,42,2,0.142153246142855,-0.0127711511689051,0.0527239648509878,-0.263929889784666
10,42,2,-0.227531905982588,0.0189647120387393,0.133198265552827,0.218229229701987
11,42,2,0.489354346495268,-0.0638320264542177,0.55886986005127,-0.814161447898862
12,42,2,0.128174282408724,-0.0142343201361893,0.0994031627353796,-0.223451957511937
1,43,2,-0.110206656044708,0.0100224013441477,0.0245790086163513,0.127479079897611
2,43,2,0.32200554563406,-0.0388572211824707,0.397135531826263,-0.575279066590487
3,43,2,0.0745770432355563,-0.00700480792129282,0.0125412028173352,-0.123283631045508
4,43,2,0.0330177014392471,-0.00239462003580938,0.00013646411232584,-0.0118467904982092
5,43,2,0.017620983108114,-0.00186583044541752,1.51467001405319e-05,-0.0052485739513721
6,43,2,-0.221777151562914,0.0200477395579479,0.120668102009858,0.218444501707335
7,43,2,0.116868462203612,-0.0112478392733972,0.0308745991889571,-0.207864095088247
8,43,2,-0.482796397219044,0.0370465219633143,0.317939388477503,0.337477593812622
9,43,2,0.0530740316588101,-0.00494003444334768,0.00827005287116609,-0.085615131858991
10,43,2,0.314186786572815,-0.0389642854933232,0.386825604944878,-0.572717037490617
11,43,2,0.0492865808704078,-0.00450795889251615,0.00696182108608083,-0.0783656008265774
12,43,2,-0.124558431535016,0.0105275987224505,0.0319763211420453,0.141501310319469
1,44,2,0.293054883683091,-0.0357540715323832,0.361706759134729,-0.548302183350354
2,44,2,-0.037594426080228,0.00321933301648984,0.000337285012902717,0.0184715977262167
3,44,2,-0.225493614329595,0.0196932418915499,0.135128930051502,0.214897314678277
4,44,2,-0.153854354407503,0.0159601436941034,0.0347160046117685,0.15090788258569
5,44,2,-0.0920650846575067,0.00759252011539542,0.019613177859726,0.110303377877082
6,44,2,0.243433715222372,-0.0291449859721365,0.284576069077859,-0.476154873558039
7,44,2,0.188926093414477,-0.0203818447511546,0.20703792013212,-0.358493868688238
8,44,2,-0.291735475559013,0.023953026199454,0.148056151177902,0.266164952327001
9,44,2,-0.410632049403304,0.0328379836649309,0.244616719063794,0.320735475988616
10,44,2,-0.0138367166774446,0.00110630067445011,2.90229677580031e-05,0.00448012705018839
11,44,2,0.0193261236533565,-0.00203966195545294,1.89318389134712e-05,-0.00576826236700054
12,44,2,0.347032988159934,-0.0438238921466445,0.429919609787344,-0.625164864041387
1,45,2,0.130577938964649,-0.012971959432745,0.107700012242836,-0.236308718174935
2,45,2,0.126854505209527,-0.0124031064939948,0.038577008430229,-0.229329259180364
3,45,2,-0.0873480994090561,0.00962107079195063,0.0150315714275897,0.101154834897739
4,45,2,0.256441107657074,-0.028867462621826,0.281280281696342,-0.479941612874618
5,45,2,-0.221328309411884,0.0199005896434775,0.120874409080732,0.218879793744108
6,45,2,-0.0537108538898959,0.00474937420852253,0.00080838098720802,0.027597513035568
7,45,2,0.130819546020838,-0.0131931944874552,0.107484168410009,-0.236895607760638
8,45,2,-0.0578200301744397,0.00567808356777952,0.00789195786588802,0.0724611794232038
9,45,2,-0.17661316266536,0.0148129104452964,0.0579709657877878,0.170243637922636
10,45,2,0.14676482729336,-0.012817885039988,0.120215142426997,-0.271617989481492
11,45,2,-0.250485322265537,0.0214915423366326,0.107423705807328,0.238569782825602
12,45,2,0.107700342793692,-0.0095787510286323,0.0256771350754007,-0.188354778310993
1,46,2,-0.204361285883998,0.0181418944876375,0.11284030957399,0.201588498338496
2,46,2,-0.622119454257826,0.0514554796493542,0.424641604274147,0.286534214163045
3,46,2,0.0336617999335634,-0.00243950433049268,0.00014231399481486,-0.0120899416618526
4,46,2,-0.257226742828974,0.0217797118762104,0.112176757675349,0.246010444305255
5,46,2,0.301013015241636,-0.0367182750293467,0.360936293558808,-0.54526183207444
6,46,2,-0.318404639221426,0.027090436282131,0.167146353416584,0.282420201041884
7,46,2,0.145600348198276,-0.0139295954564324,0.0602167550151175,-0.272605017158326
8,46,2,0.090111382154194,-0.00858358212121484,0.0180585039585542,-0.153091095133393
9,46,2,0.0526238543076755,-0.00489242083150224,0.0081145367162285,-0.0847676320218708
10,46,2,0.143059398483534,-0.0132569681784182,0.0533868082988244,-0.26582398754401
11,46,2,-0.00579000026328601,0.00140800460368462,3.16790740900293e-06,0.00148509151675582
12,46,2,-0.0251953335482516,0.00205332573063147,8.08082862014181e-05,0.0106738397459659
1,47,2,0.17672597106928,-0.0188514975479529,0.187285991688978,-0.333125531811448
2,47,2,0.0691963092637833,-0.00645847890676464,0.0113607438845916,-0.113317310231082
3,47,2,0.0393021806844679,-0.00325950430000108,0.00381961517886103,-0.0599494991112897
4,47,2,0.282369028616832,-0.03374658257919,0.34261338567009,-0.522785839908208
5,47,2,0.0561519814996636,-0.00512695205511281,0.00913644455475172,-0.0908500145130255
6,47,2,0.372367145675765,-0.047808244406364,0.45353214183049,-0.662995008815839
7,47,2,-0.0240680732899524,0.00178248965668772,0.000100337930706296,0.0112863888131849
8,47,2,-0.363099653795602,0.029768525832816,0.202732398896555,0.304260699368827
9,47,2,-0.241448707064087,0.0206614791187948,0.100654738805138,0.231274568641332
10,47,2,0.115660030706925,-0.0110507390809061,0.0301381679997091,-0.2051980276614
11,47,2,-0.202566073166948,0.0164353236359089,0.100293427714661,0.198160442076443
12,47,2,0.0244974004798446,-0.00179284429726425,7.0984244147116e-05,-0.00867671672749746
1,48,2,0.174466648992634,-0.0184631782023312,0.182972056071925,-0.330749494632322
2,48,2,0.10226613458518,-0.00869579110660161,0.0229951885031567,-0.177997504109628
3,48,2,-0.0569426745922635,0.00506401458361423,0.000914332913329152,0.0292071363870987
4,48,2,0.258471775811561,-0.0306456981066171,0.317192575725653,-0.490897969694381
5,48,2,0.343494426418028,-0.0415950631888875,0.406999496437079,-0.60965842490155
6,48,2,-0.169765059982993,0.0143353076027914,0.076605610964194,0.181680825995779
7,48,2,0.10439065938545,-0.00900957676810633,0.0240140991476458,-0.181952821864831
8,48,2,0.215171755019619,-0.0240708434913299,0.248465664914432,-0.407023167063995
9,48,2,0.250808602856316,-0.0293045748535723,0.302428952118903,-0.471012298732892
10,48,2,-0.0577859997369622,0.00567281310798025,0.00788688404702428,0.0724224970826495
11,48,2,0.199168380789539,-0.0219517449394641,0.224355842893969,-0.376543677992816
12,48,2,-0.450293750803487,0.0349706507984364,0.284726743486082,0.330671689965984
1,49,2,-0.203148125786694,0.0172028628685774,0.105383346826046,0.206812480632336
2,49,2,-0.143131915831975,0.0161412386157422,0.0288624768174655,0.138798442474809
3,49,2,0.049250648241454,-0.00450405280951049,0.00695083727372216,-0.0783048797979247
4,49,2,-0.0233250112555079,0.0017151784210235,8.01365068730325e-05,0.0109414039736653
5,49,2,-0.259914921464249,0.0218363624495114,0.113841879188298,0.248006471745338
6,49,2,0.2470621758347,-0.0287956602706771,0.298204697200088,-0.465350624009772
7,49,2,-0.0898121709138804,0.00946763492521357,0.0183920378237502,0.107845117958595
8,49,2,0.0918889042221334,-0.00876950565697854,0.0188448359595209,-0.156675071480966
9,49,2,-0.436717686833897,0.0345375147378368,0.271182227034414,0.327493260239271
10,49,2,-0.279661789537621,0.0258147753900003,0.17067266710275,0.239071853406039
11,49,2,-0.0916676497319372,0.00800162898940576,0.0193513650184503,0.109702382737254
12,49,2,0.118823252498468,-0.0115393408201224,0.0321247287999371,-0.212190654933792
1,50,2,-0.349554115557019,0.0289206321032675,0.190708370032562,0.298183408025725
2,50,2,0.155906253733306,-0.015773500833801,0.149238014159445,-0.289413114098184
3,50,2,0.154119154361232,-0.015955280624871,0.146742698468983,-0.285148641089596
4,50,2,-0.0485540193461493,0.00425109472270503,0.000647958031642239,0.0248968121417483
5,50,2,-0.0923590099783422,0.00727582385019815,0.0198216232037679,0.110807304292237
6,50,2,0.317649739374599,-0.0396161410206571,0.394704228806094,-0.58075884376003
7,50,2,0.223180667951675,-0.0252255277306161,0.261790252107582,-0.420707796668043
8,50,2,0.237842677812383,-0.0274632244255155,0.286223772675362,-0.452790545500894
9,50,2,0.332898519231801,-0.0417668994769682,0.408418636821414,-0.599951032308896
10,50,2,-0.28608607290862,0.0239945915116859,0.179808481627573,0.248753803182646
11,50,2,0.126725344120393,-0.0123968527346588,0.0384329897622116,-0.229061637456228
12,50,2,0.280526077039871,-0.0322509811334831,0.337963805159328,-0.506521308624212
1,51,2,-0.20467193409606,0.0183899347492721,0.113088748219738,0.201452862969557
2,51,2,-0.0855660732485788,0.00952529550291092,0.0141399497634959,0.0989222585362276
3,51,2,-0.197773246034181,0.0160627095211306,0.0652971369502047,0.182973353203151
4,51,2,-0.348641053247322,0.0288643146311668,0.189919343202286,0.297754878000456
5,51,2,-0.0492093708099597,0.0043141105609357,0.000667766496273095,0.025249852395681
6,51,2,0.145875378315548,-0.0129286647647066,0.119981260264454,-0.270641972317937
7,51,2,-0.0772864015838159,0.00858879176627645,0.0116530182062682,0.0910109833209569
8,51,2,0.2153806971828,-0.0243063295779297,0.253888744198147,-0.419501211635535
9,51,2,0.142055742420892,-0.0127127562307492,0.0526632182881186,-0.263726518995732
10,51,2,0.0704230063418617,-0.00658088708632443,0.0115811105486068,-0.115581377648645
11,51,2,0.224855709110747,-0.0259309001596994,0.267481437535655,-0.428773185264225
12,51,2,0.480728628436413,-0.0674377386703974,0.544778222986471,-0.798978102189537
1,52,2,0.0594444798646933,-0.00549588738600333,0.0100035978157468,-0.0954326464828395
2,52,2,0.0428999445733575,-0.0029965844355291,0.000225240845517425,-0.015574018927552
3,52,2,-0.47451349603694,0.0364586435499472,0.31019866922223,0.336795368555954
4,52,2,0.161220356535888,-0.0169701245602431,0.0610820144810135,-0.30152829815622
5,52,2,-0.0902840913199352,0.00916808579220336,0.0186025139693068,0.108206939327716
6,52,2,-0.0279150508336626,0.00231025310281003,0.000136939756451771,0.0123351393049886
7,52,2,-0.122572809549657,0.0103551384884249,0.0312821351837429,0.139779366793238
8,52,2,0.165678322574649,-0.0173122246276382,0.119950699902978,-0.295066859216139
9,52,2,-0.156873804237794,0.0159103918552041,0.036624204787582,0.154099586746232
10,52,2,0.0179337640533547,-0.00189780433567113,1.58080545654572e-05,-0.00534373995890023
11,52,2,-0.0244505770352649,0.00198346302284677,6.49644837122869e-05,0.0102923024871707
12,52,2,-0.0448320450554943,0.00389542460702283,0.000538430663964381,0.0228309761692545
1,53,2,0.278673631668217,-0.0329152363070048,0.344956477304394,-0.521483299562951
2,53,2,0.0886268870093781,-0.0084311847328366,0.0174237935050118,-0.150130824256063
3,53,2,0.205692318421756,-0.022625720082203,0.228344752159084,-0.383075518653865
4,53,2,0.336166375947475,-0.0417223759783131,0.417903056816942,-0.611325169866142
5,53,2,-0.0966208564914345,0.00917328938967491,0.0180100883908631,0.110233083616471
6,53,2,0.174530284956584,-0.0184754670387532,0.183104042848831,-0.330881173640489
7,53,2,0.295511951658611,-0.0362067386986399,0.361375131792972,-0.54539939472329
8,53,2,0.0818526874842943,-0.0077465788632299,0.0148124465705077,-0.136951003371262
9,53,2,0.0469508842086626,-0.0042617662284053,0.0061827177219805,-0.0738783019557708
10,53,2,0.11747562565679,-0.0113421299361632,0.0312584888718205,-0.209214636851515
11,53,2,-0.33361646629172,0.0279578482314462,0.177545053215266,0.290372435065288
12,53,2,0.192927073882713,-0.0136923395897001,0.156658523530532,-0.361810146433469
1,54,2,0.299720082264513,-0.0367142996506189,0.370774710550987,-0.552729326040953
2,54,2,0.324685636588926,-0.0400868378649268,0.404424865970633,-0.589080943490961
3,54,2,0.13951980410826,-0.0109428967683813,0.0520930884721541,-0.258330208658116
4,54,2,0.34179312104964,-0.0435606826659337,0.421881353543055,-0.618927151500274
5,54,2,0.0649231174476207,-0.00605046489169731,0.0108329512450435,-0.105449907071074
6,54,2,0.146303894973151,-0.0140357921941797,0.0610153658341221,-0.274103577555372
7,54,2,0.206535115392307,-0.0229867028102732,0.238612049264291,-0.394879748248536
8,54,2,-0.128057758931861,0.010869055480522,0.0329968657914365,0.144502336437054
9,54,2,-0.153995759327701,0.0159575516525342,0.0348023182688584,0.151060395133957
10,54,2,0.109295822833819,-0.00988029053854375,0.0265167352122814,-0.191562338007588
11,54,2,-0.154550876404575,0.0159475665692362,0.0351438834561643,0.151656380276741
12,54,2,0.168746912736263,-0.017759526501999,0.171604731527434,-0.316926974016947
1,55,2,-0.000467620034991208,0.000197513105994363,1.11959992559995e-07,0.000110429029222341
2,55,2,0.058211939505578,-0.00508797039903702,0.00952692797247043,-0.0938801476510322
3,55,2,-0.148855303505042,0.0160559348053994,0.0318266687082305,0.145362332276692
4,55,2,-0.200244381772063,0.0156799171203993,0.0644501509306218,0.184596618076393
5,55,2,-0.0842210765507154,0.00940467650714632,0.0136173327792848,0.0974669027073867
6,55,2,-0.0800708327244916,0.00893949040858318,0.0123567438149549,0.0934959964926421
7,55,2,0.241013602396321,-0.0277587342893875,0.288434726018039,-0.456197724939801
8,55,2,-0.307527778800673,0.0254436069017019,0.197072604679761,0.258143831906334
9,55,2,0.102384237319691,-0.00871238040535423,0.0230497567797987,-0.178211746964125
10,55,2,0.458406118356799,-0.0628030844180212,0.544373881996263,-0.774916165036734
11,55,2,-0.037537323877749,0.00321408256819113,0.000335750312953553,0.0184352989973616
12,55,2,0.155598036884346,-0.016133060942893,0.148451184468444,-0.288105737635289
1,56,2,-0.441035758487942,0.0347309547642213,0.275362845949961,0.328329793068318
2,56,2,0.457335860625471,-0.0627759179781617,0.543684092710302,-0.774420856223259
3,56,2,-0.489980513716368,0.0376198311288881,0.324722333767911,0.337454933661032
4,56,2,0.0632103203322003,-0.00552161116180999,0.0103700090960244,-0.102119474789784
5,56,2,0.194612651452678,-0.0213380659633659,0.220120344749135,-0.382872303542987
6,56,2,-0.362375136483388,0.0297226708402758,0.20207681326293,0.303948852627279
7,56,2,0.372526540625935,-0.0478089282423108,0.454725277101601,-0.662149322846707
8,56,2,-0.806272629092097,0.0551933874862932,0.504266790346122,0.293869804017476
9,56,2,-0.068671350025942,0.00737607002128063,0.00978975467748176,0.083374005826292
10,56,2,0.16441416338906,-0.0172668833181294,0.164990274881312,-0.307553840146024
11,56,2,0.291257566167951,-0.0353762085965901,0.360881052903058,-0.539167999001573
12,56,2,-0.145476690726122,0.0161125684516829,0.03003455640225,0.141498772411158
1,57,2,-0.40741918483361,0.0326092074041929,0.241328282507364,0.319700973130503
2,57,2,0.364729006994019,-0.0462220718354175,0.439208253484329,-0.634524041347609
3,57,2,0.0708290940104134,-0.00662187313981436,0.0116603046016266,-0.116332826774597
4,57,2,-0.334096923324791,0.0279861637234839,0.177917904386835,0.290617548735582
5,57,2,0.206743964040009,-0.0232765484794732,0.234070168600278,-0.3911666916171
6,57,2,-0.112872889278623,0.00958178778298695,0.0269591521838479,0.130795707779672
7,57,2,0.0720373099234978,-0.00674443306229798,0.0119115982418024,-0.118570141202769
8,57,2,-0.119318707484609,0.0100921048620683,0.0299665696649235,0.13688262153358
9,57,2,0.217460660557902,-0.0246089796568377,0.253673661965975,-0.409569073165245
10,57,2,0.0165061625196703,-0.00175157051112145,1.29082208630002e-05,-0.00490996257049458
11,57,2,0.353007185472123,-0.0450949068403301,0.435622732347041,-0.637100490048434
12,57,2,0.0832399905245215,-0.00788617596087007,0.0153101549055857,-0.139606619430037
1,58,2,-0.00933954664592519,0.00227082449427796,6.16589618813228e-06,0.00238799598173379
2,58,2,0.143006968927658,-0.0132287873966284,0.0533465565756274,-0.265712854577422
3,58,2,0.117954885464862,-0.0114149242544868,0.0315606732717542,-0.210272889801378
4,58,2,0.237577887215172,-0.0270747261036062,0.284285492700201,-0.446795505322464
5,58,2,-0.161751711136323,0.0158777228746071,0.0400873450109882,0.158932733497687
6,58,2,0.0512170901473226,-0.0047310156385105,0.00762527279666566,-0.0820663447457269
7,58,2,0.065226774410403,-0.00607815362086875,0.0108589109082846,-0.106009351953964
8,58,2,0.324985231929054,-0.0410642054494391,0.395030785141186,-0.596141410330401
9,58,2,-0.161086178210462,0.0158768204347915,0.0395779297715059,0.158297982720104
10,58,2,0.205304656852234,-0.0227572119032331,0.231701807255741,-0.387797478173863
11,58,2,-0.175008494246702,0.0143232027812496,0.0567558704537182,0.169843401450859
12,58,2,-0.144572140892643,0.0161249015151803,0.029575470575307,0.140457404669407
1,59,2,-0.419293453747744,0.0334527924658938,0.253611806475289,0.323414654621951
2,59,2,-0.0256869683064581,0.00209955746594291,9.09119031957147e-05,0.0109466870038608
3,59,2,0.0417210167829222,-0.00392966461613904,0.00462431523200699,-0.0641315018045695
4,59,2,0.0814038394033895,-0.00770106927074099,0.0146556417459705,-0.136094574752192
5,59,2,-0.0134829764948052,0.00107612715223527,2.77384553870325e-05,0.004366873849149
6,59,2,0.350610737021541,-0.0444432505553558,0.432369594480268,-0.631233003508587
7,59,2,0.015341384314022,-0.00163166081716969,1.07660297001403e-05,-0.0045571523582034
8,59,2,-0.193307878879731,0.015988774293472,0.0706265519263678,0.180833320308012
9,59,2,0.234517424345704,-0.0271865933131594,0.28049282996693,-0.443422222174347
10,59,2,0.0938844778952973,-0.00895214424425009,0.0200739016363856,-0.161290207877257
11,59,2,-0.104134343046846,0.00981718968754193,0.0210268177681858,0.118904521743357
12,59,2,-0.153554483361342,0.0159656978296622,0.0345338704359826,0.150583535431748
1,60,2,0.0406982463958161,-0.00392528690308322,0.00435472251439007,-0.0623359895696544
2,60,2,-0.043537649418949,0.00377280948905321,0.000501426318549128,0.0220863225852486
3,60,2,0.195979030742427,-0.0184691506191309,0.179769924737554,-0.355223602152522
4,60,2,0.375290172364855,-0.0469004691313592,0.458574882566482,-0.654626295157049
5,60,2,0.127228972749581,-0.0124192216273236,0.0389832313680782,-0.230106248294931
6,60,2,0.109832355971601,-0.00998116631298548,0.0268080776520341,-0.192669330665405
7,60,2,-0.241514888046495,0.0206556336225759,0.100655246539754,0.231361718751674
8,60,2,0.0719307021414375,-0.0067336136653392,0.0118913979611549,-0.118373218605171
9,60,2,0.425335357635381,-0.0570012820131106,0.506541961770328,-0.732167220359391
10,60,2,0.24293570670557,-0.0282237223372896,0.290000440763436,-0.458260992129947
11,60,2,-0.572365514534974,0.043359774804829,0.403333495418759,0.285706122402493
12,60,2,0.245253745068897,-0.0288234477630871,0.2985235265009,-0.464812224638213
1,61,2,0.209193983530206,-0.0236986378688975,0.236691612048641,-0.402999777142333
2,61,2,0.136416540988123,-0.0113147613855797,0.0489779064061294,-0.250301855220536
3,61,2,0.136672987607208,-0.0113922847846857,0.0490033229510962,-0.250829299002221
4,61,2,-0.459587083752985,0.0352852602273416,0.294367547762805,0.333244831336157
5,61,2,0.289392220963826,-0.0351064513989818,0.360567898586211,-0.535237343153558
6,61,2,0.212960307473189,-0.0225790290486002,0.193751156427851,-0.423836308812666
7,61,2,0.0133743711042805,-0.00136514745047395,8.48704707944677e-06,-0.00398744519755134
8,61,2,-0.291521820132952,0.023914187450494,0.147912471022475,0.265959902941336
9,61,2,-0.101626569501934,0.00969677353703473,0.0197916835116872,0.11565371561262
10,61,2,0.397197149183908,-0.0552610344198404,0.473745493993277,-0.712373326150856
11,61,2,-0.123542502179321,0.0104378167808468,0.0316318952194415,0.140622998361412
12,61,2,0.0126929875343884,-0.00122141389476117,8.51102204064632e-06,-0.00381416829383448
1,62,2,0.237912800080328,-0.0267683576551308,0.286479269408926,-0.450210240643018
2,62,2,-0.200826912218497,0.0168307485178229,0.109596774716625,0.199465368159779
3,62,2,-0.253142047758954,0.0216933307542627,0.109488334015324,0.242028153999948
4,62,2,0.203554517999051,-0.0223493847710431,0.22983411339293,-0.383298513015134
5,62,2,-0.121520861794133,0.0102681149221433,0.0308797587394581,0.138855402849037
6,62,2,-0.242595143438044,0.0205928136186055,0.10098155664926,0.232780564338273
7,62,2,-0.107706202783686,0.00993871559320132,0.0230396914530886,0.123876222462084
8,62,2,0.242035028745,-0.0280232504260635,0.291574323906966,-0.456118157091733
9,62,2,0.170841966862661,-0.0180924531649331,0.176499094537792,-0.320540185750014
10,62,2,0.154684111655423,-0.0140051621299682,0.136614021690927,-0.282329265249512
11,62,2,-0.325344313247623,0.0274786836016353,0.171484869447622,0.286080148991414
12,62,2,0.177583914469829,-0.0187980015239849,0.18650225803069,-0.332811170168672
1,63,2,0.0538060801260228,-0.00500797411883246,0.00850605941458352,-0.0869560950637521
2,63,2,-0.108757302331793,0.00997259337371233,0.023676545571685,0.125385183895924
3,63,2,0.375394760081103,-0.0485104551140808,0.457778839597552,-0.66222253121845
4,63,2,0.271355254523745,-0.0323916814979539,0.333980342967239,-0.506893898883363
5,63,2,-0.0837374631640981,0.00935602338436585,0.013448614362252,0.0969726693313368
6,63,2,0.351253318386152,-0.0466368285723177,0.433326906569324,-0.631816046875187
7,63,2,0.266150729020106,-0.031565052873598,0.323929593338897,-0.498463672808802
8,63,2,0.301370679517091,-0.0370864060329086,0.37309954746892,-0.55710527736137
9,63,2,-0.216900336469093,0.0172768091243917,0.124644516285707,0.216923188109355
10,63,2,0.155786803335748,-0.0161329020718173,0.148681887827264,-0.288201712419625
11,63,2,0.206736399576365,-0.0232764367150515,0.234091185546634,-0.391203683475676
12,63,2,-0.269780286753293,0.0249389162295821,0.163843000530947,0.235633999709142
1,64,2,0.222937395982771,-0.0264471375069538,0.26608171085285,-0.430759155395864
2,64,2,-0.479089017255058,0.0367754040520095,0.314485873272182,0.337250961516499
3,64,2,0.0987787333206884,-0.00956937182418631,0.0227443316531614,-0.171239226574539
4,64,2,-0.228773866079437,0.0196812332477288,0.13122214099575,0.219496540900071
5,64,2,-0.283959120950775,0.025503849437678,0.175133734117129,0.247905966331689
6,64,2,0.469932444470644,-0.0660128143205601,0.553672213922492,-0.791177190737354
7,64,2,-0.320332214282076,0.0271969168708631,0.168259835500454,0.283437329632422
8,64,2,-0.0736177668432836,0.00809412455244343,0.0108141458598961,0.0877880057197124
9,64,2,-0.180992971053446,0.015344642829163,0.0676458222499413,0.173219904704623
10,64,2,0.154612894254318,-0.0139064806335498,0.135751970306655,-0.282169087322522
11,64,2,-0.34725101529274,0.028778815749993,0.188724628280405,0.297097918753251
12,64,2,0.397641141389747,-0.0523055537207889,0.478513614815747,-0.695260951953743
1,65,2,-0.0658039047928745,0.0069369280095269,0.00924143915919892,0.0807101169161733
2,65,2,-0.267711054529322,0.0246841134387067,0.162352592850564,0.235518892689756
3,65,2,-0.159494547418334,0.0158825755137249,0.0384126691105887,0.156748376609007
4,65,2,-0.0630118012353268,0.00649784454522316,0.00873825271899267,0.0779931780675149
5,65,2,0.339308097361707,-0.0428926384259888,0.418296352052577,-0.612689782227284
6,65,2,-0.0174545854417805,0.00140262772712314,4.63151100414893e-05,0.00592963650362657
7,65,2,0.0982304198998494,-0.00949950063086748,0.0224275989993774,-0.170118015114085
8,65,2,0.0228575755151588,-0.00167567800992468,6.0967511745241e-05,-0.00807610526464376
9,65,2,-0.215921010192416,0.0165888395336207,0.12491313524671,0.215217694942774
10,65,2,0.358999283444195,-0.0374146697912727,0.352017640513788,-0.637731738884653
11,65,2,0.0504173539510448,-0.00463776466692816,0.00734908793961372,-0.0805380684933545
12,65,2,0.147291959270686,-0.0127708314708434,0.120321224651449,-0.272056210324291
1,66,2,0.171929515454171,-0.018227055610885,0.178446542546516,-0.322829930324353
2,66,2,0.0904890033002941,-0.00862273036861733,0.0182219602123091,-0.153850558164044
3,66,2,-0.091941465871132,0.00772251666820632,0.0195292658651348,0.110106698587867
4,66,2,0.154670044956468,-0.0159531260945995,0.14729410016317,-0.286390327005033
5,66,2,0.174882457971749,-0.0186006904610522,0.18401051833199,-0.331669829442276
6,66,2,-0.369249264236269,0.0301595597849603,0.20834006119443,0.306848403261964
7,66,2,0.117477537543641,-0.0113413203717027,0.0312589494999985,-0.209216894810966
8,66,2,0.0922500501929718,-0.00874441444054441,0.0192563729208145,-0.158037210586563
9,66,2,0.135958601812993,-0.00864539904066311,0.055302405158555,-0.249663633279283
10,66,2,0.407852906248583,-0.0539670947643873,0.490606192941486,-0.709064915670095
11,66,2,0.0766059939900795,-0.00721325483978371,0.0131090413442326,-0.127065711987426
12,66,2,-0.0718071055408925,0.00783768432596678,0.0104267817052663,0.0861898532202283
1,67,2,-0.0176136636755207,0.000796602206758199,0.000157125096605015,0.0105713097157378
2,67,2,-0.382481648014535,0.0310103823887059,0.220613320349768,0.312063193669377
3,67,2,0.0829574784051291,-0.00785795043275868,0.0152070901726928,-0.139060005688121
4,67,2,0.289295954277081,-0.0350905040683361,0.360510262336929,-0.535044711615722
5,67,2,-0.30066336353207,0.0266407619891603,0.182370413289631,0.256486244250876
6,67,2,0.259815845415083,-0.041709566586906,0.241281481335085,-0.504316586683669
7,67,2,-0.00755513157175107,0.00183637953800552,4.8111355034242e-06,0.0019339485934555
8,67,2,-0.303376934455199,0.0266233123401087,0.191420535764757,0.256945465025833
9,67,2,0.0782223571306278,-0.00737854101968566,0.0136020690556346,-0.130090122314372
10,67,2,0.190370298076193,-0.0242630884581704,0.17831102146093,-0.369171308106597
11,67,2,0.293556645582887,-0.0356527799194867,0.361198755018807,-0.547025495077229
12,67,2,0.177384708488464,-0.0187709925013277,0.189761907354471,-0.336184645800768
1,68,2,0.122143860020731,-0.0119729843708187,0.0344265849506534,-0.219417319813218
2,68,2,-0.0171388430522369,0.00137647850251656,4.43309623449185e-05,0.00576193033397396
3,68,2,0.243127697501638,-0.0304134043519368,0.285618856076191,-0.475876078273852
4,68,2,-0.21925035780812,0.0191204775327691,0.124807982457798,0.216108266418927
5,68,2,0.0896677552620625,-0.00853776662389869,0.0178663807545957,-0.152203566219874
6,68,2,0.00606085608231636,-0.00147447995913728,-1.14647549697764e-07,-0.00157297396705356
7,68,2,0.0267481789564624,-0.00195294426187294,8.60545624472516e-05,-0.00950603154583851
8,68,2,0.0686636481681926,-0.00640579746499983,0.0112756619509044,-0.112336305001301
9,68,2,0.0757030968078895,-0.00712037966745632,0.0128467435853007,-0.125382284703283
10,68,2,0.197096018150123,-0.0225114519325228,0.178028506903796,-0.35063700338094
11,68,2,0.145493096041643,-0.0139116450568803,0.0601067807018423,-0.272378465987887
12,68,2,-0.272039291757095,0.0249154051191806,0.160926963194317,0.233333037612758
1,69,2,0.0290375956316335,-0.00211492727418116,0.000102975240513274,-0.0103555245438346
2,69,2,-0.17677934149813,0.0148491367202002,0.0582131569324523,0.170323261834095
3,69,2,0.00860374872443399,-0.00209236662695882,2.44667731231124e-07,-0.00223693653658798
4,69,2,0.273343709202599,-0.032896217361444,0.332429905613702,-0.509480740523219
5,69,2,-0.142608963557921,0.0161460491805495,0.0286090711576449,0.138196624772167
6,69,2,0.408610618351986,-0.0542952422927674,0.490055832250706,-0.709685946362416
7,69,2,-0.103382820246594,0.00978594198684556,0.0206392495862829,0.117904696054113
8,69,2,-0.10302719698623,0.00976991624675261,0.0204608333677603,0.11743873373357
9,69,2,0.0222274193395772,-0.0016305367256091,5.73315347802151e-05,-0.00784609778355557
10,69,2,-0.294119634086625,0.0245886906581337,0.150803409808774,0.269312984164329
11,69,2,-0.310059474790186,0.0264386101350238,0.195426106151283,0.264737502229286
12,69,2,-0.126934036951489,0.0107534069219465,0.032695903194792,0.143543275459284
1,70,2,0.274403124320075,-0.0325543699141432,0.333858845434689,-0.514292307218204
2,70,2,0.233774637518283,-0.0267994723416969,0.268345959113466,-0.441459031024769
3,70,2,-0.261154918982528,0.0218719166881889,0.114620290360273,0.2488458236553
4,70,2,0.244283693175589,-0.0283297977935344,0.295272303729824,-0.461460130149914
5,70,2,-0.0528489380621068,0.00466574007175332,0.000780831392576329,0.0271579316276599
6,70,2,-0.238285764956811,0.0199003801447989,0.0974848754891366,0.233997697147645
7,70,2,-0.375114845129203,0.0305352270520051,0.213750202755364,0.30921899258194
8,70,2,-0.229662674490174,0.0197893387565595,0.131526937136916,0.220021145910368
9,70,2,0.035241658019163,-0.00254939366812083,0.000157180975313452,-0.0126884541278064
10,70,2,0.152409343677382,-0.0131770721497492,0.127702931047289,-0.277186786811885
11,70,2,-0.0255141956614671,0.00208331650275944,8.73730375395105e-05,0.0108489792653569
12,70,2,0.224413232789993,-0.0253754121620983,0.263270200790014,-0.424447675225911
1,71,2,0.277515988026983,-0.0332939242881433,0.341028869620998,-0.51707366802562
2,71,2,0.164270220841016,-0.015699687515672,0.153198039294056,-0.322066812270288
3,71,2,-0.0577508257679653,0.00566736697511745,0.00788165014599386,0.0723824874391839
4,71,2,0.374715352953334,-0.0490018360923734,0.458244739540259,-0.667206088431431
5,71,2,0.652941931249394,-0.100482026753795,0.687536678080189,-0.999929600650492
6,71,2,0.287988291956609,-0.0348655552340824,0.356317861648639,-0.53398046643118
7,71,2,-0.309420064100466,0.0262976249908994,0.195503687331346,0.263991104552419
8,71,2,0.290806470544638,-0.0367278660566405,0.361162543180701,-0.55277732874788
9,71,2,0.396076063530701,-0.0497281997070105,0.48042041153743,-0.696035794694037
10,71,2,0.48019675135636,-0.0673458495391012,0.542045837380111,-0.798978104311715
11,71,2,0.00357700131994885,-0.000869985241304389,-3.65394115996275e-07,-0.000926211114379987
12,71,2,0.0397598304723517,-0.00331945006476458,0.00393604042868785,-0.0607179150982931
1,72,2,-0.111647011017231,0.00949044627206769,0.0263754999459208,0.129627070670699
2,72,2,0.171971011447232,-0.0192695400108892,0.182912165157441,-0.330786953405713
3,72,2,0.0308818033768544,-0.00224476693205633,0.000117804417596105,-0.0110442485861992
4,72,2,0.294592302149929,-0.0377577328478666,0.364771020612985,-0.550208486727642
5,72,2,0.0404935685062575,-0.003420413173537,0.00413142093808391,-0.0619679821455878
6,72,2,-0.27064571361614,0.0250619485838424,0.164400741361823,0.235492860128631
7,72,2,-0.197223441675713,0.016082652452372,0.0657815470675805,0.182678184123987
8,72,2,-0.0826982235739683,0.00924518662274017,0.0131105697596356,0.0959470145899723
9,72,2,-0.217478124382378,0.0175224154588108,0.124630870514623,0.218382755013428
10,72,2,-0.249860398957371,0.0214066342767677,0.106896191778435,0.237707024935538
11,72,2,0.309877653969433,-0.0369496344530538,0.379868453885727,-0.566821204062854
12,72,2,0.228918935074747,-0.0261012288261584,0.270625957264135,-0.432998023012145
1,73,2,0.241737549384652,-0.0278130653477636,0.292182470639849,-0.457593343857868
2,73,2,0.285749422086741,-0.0348481575246052,0.34643662373359,-0.527222930403547
3,73,2,0.315990789301067,-0.0389884384160064,0.35779591872059,-0.566880885808306
4,73,2,0.305022231274843,-0.0374549884969657,0.372735703376203,-0.559720792428709
5,73,2,-0.319870926537584,0.0271713390193994,0.167986044785308,0.283193774560685
6,73,2,0.0362541895668884,-0.00261971485156963,0.000167199748438157,-0.0130735246071714
7,73,2,-0.345933087318663,0.0286980272234657,0.187599530242481,0.296469968917245
8,73,2,0.179151777145839,-0.0190265765541219,0.194397189262911,-0.32259573243441
9,73,2,-0.352419002210006,0.0290981043901827,0.193204393843775,0.299512500663023
10,73,2,0.126510555638912,-0.0123854104647053,0.0381892856875429,-0.228616579202198
11,73,2,0.0596761215649188,-0.00550574808403156,0.0100390540314667,-0.0958569689639802
12,73,2,-0.00832026174939963,0.00202225789905083,5.51482980906196e-06,0.00212831793673258
1,74,2,-0.252055173758322,0.021636919826226,0.108680815975626,0.240682065912462
2,74,2,-0.0670866334616186,0.00713515832894072,0.00948279394231102,0.0819149699135908
3,74,2,0.221283331175077,-0.0244027054674915,0.250747405928487,-0.418011767823088
4,74,2,0.443964785550487,-0.0614443177839739,0.537128284536987,-0.751429731727271
5,74,2,0.331558058457449,-0.041376788431736,0.404576817464658,-0.596960049244535
6,74,2,0.34237693301802,-0.0437643983194402,0.422603957631419,-0.618977999255378
7,74,2,0.129292382130413,-0.0123693874400374,0.0418089977258902,-0.234364292503996
8,74,2,-0.543484801823853,0.0416742228115494,0.37551827393731,0.321865930795932
9,74,2,-0.0789814569245492,0.0088050875897709,0.0120725425119193,0.092515237230855
10,74,2,0.32276885965542,-0.040115654465147,0.402667665240552,-0.589208729291626
11,74,2,0.0426986663347079,-0.00395739340842653,0.00489638416389114,-0.0659015558811973
12,74,2,-0.486492971595325,0.0373320438741355,0.321399305152365,0.337555712685468
1,75,2,0.382857013423294,-0.0487408200029832,0.466551823091086,-0.677754262939842
2,75,2,0.0138865211882244,-0.00148112763329815,8.36823653081197e-06,-0.00411786058452048
3,75,2,-0.033314090913542,0.00281659901960522,0.000244852319876034,0.0158315292235345
4,75,2,-0.264338457215885,0.0243885483891977,0.159435319849195,0.23352094443725
5,75,2,0.0336566136456131,-0.00243921698266338,0.000142264498679018,-0.0120879386414364
6,75,2,0.130181309979648,-0.0109006149338857,0.0899358208788905,-0.228170262044035
7,75,2,0.0251336264214669,-0.00183818430736946,7.50882573779047e-05,-0.00891055807047009
8,75,2,0.0830388296174072,-0.00786603566705519,0.0152379157858971,-0.139221994352029
9,75,2,0.201448113161227,-0.0222859888665344,0.227573027162633,-0.380660211648437
10,75,2,0.0810426096277179,-0.0076647578206619,0.0145296733598743,-0.135409539707741
11,75,2,0.124524055673421,-0.0122272827345609,0.0363184045552861,-0.224468987082847
12,75,2,0.00648142330960321,-0.00157677249445622,-5.040760580536e-08,-0.00168269811850923
1,76,2,-0.180631302453961,0.0153198834938053,0.0666937552778099,0.172926341595577
2,76,2,0.0221616648325955,-0.00162582285480906,5.69588042822547e-05,-0.00782212111608415
3,76,2,-0.28305391081891,0.025533625426433,0.174297545781835,0.246291155041792
4,76,2,-0.339826937982365,0.0283275169520006,0.182498109835688,0.2934972397571
5,76,2,-0.19989595080701,0.0157840429640897,0.0643365291570032,0.184306800677403
6,76,2,0.178384090347945,-0.0190784106778587,0.190015128552603,-0.33670654784338
7,76,2,0.171627034984815,-0.018185951841487,0.178003760000618,-0.322262855744892
8,76,2,0.0187205428485493,-0.00197805333625417,1.75370858708919e-05,-0.00558344808098862
9,76,2,-0.104921533948859,0.00984685312352341,0.0214473192765666,0.119971921868976
10,76,2,0.210040118606242,-0.0234097073029214,0.240793529152245,-0.397201183058577
11,76,2,0.534317992993593,-0.0746883183610528,0.606633442309302,-0.856677740888148
12,76,2,0.154170215776411,-0.013607651917802,0.132616916382163,-0.280639384754072
1,77,2,0.049103054879638,-0.00448751601108111,0.00689732281582281,-0.0780197728512601
2,77,2,0.319127571863172,-0.0401727190661581,0.395898445368215,-0.586463633875656
3,77,2,-0.0166774679790195,0.00133829717003624,4.15169437991968e-05,0.00551842574605496
4,77,2,-0.0112429907925497,0.00121406562337602,1.10323847025757e-05,0.00325479487584071
5,77,2,-0.215432100225407,0.0189279374591238,0.0633777350313949,0.190430597052244
6,77,2,0.0817751955504007,-0.00773856182888155,0.0147863232755403,-0.136801944527377
7,77,2,-0.297286918711561,0.0251285802625093,0.162073408702801,0.271526841747459
8,77,2,0.00924644290733653,-0.00224821089941159,2.90688494325086e-07,-0.00240483886672273
9,77,2,-0.0940510605898312,0.0084913179803818,0.0179687271613005,0.108812553668827
10,77,2,-0.364214002383042,0.0298391468177865,0.203742954248934,0.304737453691354
11,77,2,0.113548067367031,-0.0106816996489438,0.0288826590858735,-0.20055719177208
12,77,2,0.191454851682057,-0.0240252126620819,0.157765477203777,-0.341243953257559
1,78,2,-0.14959796274177,0.0160419552532333,0.0322372789619086,0.146202149920853
2,78,2,0.116059990069655,-0.0111164992700005,0.0303789734377133,-0.206078502290513
3,78,2,0.145176562508514,-0.0138640246942698,0.0597059019881903,-0.271668949306793
4,78,2,0.195106992697776,-0.0202686085897801,0.185055863803658,-0.35371130371629
5,78,2,-0.0437950526705124,0.0037971406959155,0.000508744437528385,0.0222355539031125
6,78,2,-0.00663731179531986,0.00161362830969762,3.93499168243643e-06,0.0017007180219247
7,78,2,-0.171743873998113,0.0143582747739209,0.083340280688044,0.181247072815976
8,78,2,0.139389978369235,-0.0108322615480859,0.052102635437478,-0.258111255728087
9,78,2,0.0926795849325613,-0.00879932526189907,0.0194684762172408,-0.158889391943544
10,78,2,-0.217514568810513,0.0175372190210547,0.124625079232205,0.218479662111402
11,78,2,-0.0553139433859099,0.00490524846736837,0.000860414539190994,0.0284033793554788
12,78,2,0.342468400407673,-0.0438787380185359,0.422670793487695,-0.618271108905646
1,79,2,-0.509135530061562,0.0394433662409096,0.348621001863775,0.326726985272407
2,79,2,-0.306800647057677,0.0261280115347326,0.197413539392249,0.260568862742821
3,79,2,0.239064830229621,-0.0278460126188748,0.287026703601693,-0.452884069746479
4,79,2,0.253605164597097,-0.0301175034279561,0.312240314934728,-0.492252205092622
5,79,2,-0.375334760163073,0.0305493587798808,0.213954047005546,0.309306035684667
6,79,2,0.352895416618803,-0.0450050766391897,0.431268706975367,-0.634709368888025
7,79,2,0.349138711654699,-0.0445727878162127,0.43419349461317,-0.634507946238863
8,79,2,0.190591349165848,-0.0202245643806632,0.198448064055576,-0.34551093231746
9,79,2,0.154604407486008,-0.0138814491469605,0.135451061843983,-0.281984566506423
10,79,2,-0.443477022811441,0.034819322009214,0.277785602667049,0.328878480383087
11,79,2,0.199182788175291,-0.0221381391692832,0.225473367327904,-0.37691218934017
12,79,2,0.68308615520525,-0.100698860027729,0.714901938165442,-1.02417449177378
1,80,2,0.223329032820715,-0.0259596935417992,0.260213958330676,-0.426079117739475
2,80,2,-0.0196500018386437,0.00108677270076115,0.000196562361966073,0.0119824845706332
3,80,2,0.238986531102629,-0.0273539546539923,0.286248939557086,-0.449492576069832
4,80,2,0.316957234836562,-0.0395388123860951,0.383778402737333,-0.582479453679599
5,80,2,0.0316427287628383,-0.00229816804914411,0.000124234664108481,-0.0113295697725649
6,80,2,0.000609750484342888,-0.000256699842199642,-1.33055997856431e-07,-0.00014381999357685
7,80,2,0.275296825661567,-0.0333526786996119,0.345980695177466,-0.527430228259098
8,80,2,-0.203369583200328,0.017260560330831,0.112102582851144,0.202064284407876
9,80,2,-0.473459878493443,0.0363885149985557,0.309202833150106,0.336664068200928
10,80,2,-0.28219713944812,0.0255723387803619,0.17345910944827,0.244673728041469
11,80,2,0.128574876517941,-0.0124208446488521,0.0407188771393899,-0.232881248127665
12,80,2,-0.219183795861968,0.0190883048261031,0.124943914658367,0.215929392606095
1,81,2,0.0565542163249786,-0.00512881024996636,0.00922527879563318,-0.0914654081302092
2,81,2,0.333993668544142,-0.0439922397048025,0.416132155311583,-0.618182683138975
3,81,2,0.243843135084209,-0.0282807283251216,0.294622328214093,-0.46071970180167
4,81,2,-0.0633230888132926,0.00654717149623966,0.00879281763959291,0.078303509573062
5,81,2,-0.398508420969134,0.0320578123220249,0.235748265355906,0.317742692382114
6,81,2,-0.0662443885809971,0.00700529670878059,0.00932360516634994,0.0811265396067268
7,81,2,0.378182342733363,-0.0502111007259076,0.459599501378358,-0.667815861723611
8,81,2,-0.82819296898839,0.0533194835781482,0.51021288633074,0.282819308225478
9,81,2,0.0407752421565325,-0.00392327239245247,0.00437488071496228,-0.0624697523049431
10,81,2,-0.366520213873461,0.0299856439643262,0.205842486182723,0.305713068765369
11,81,2,0.0213576540475952,-0.0015681259796793,5.2505691871043e-05,-0.00752935124353167
12,81,2,0.242651605485351,-0.0281741354079986,0.29111091119057,-0.457479538454625
1,82,2,-0.235128730144778,0.0197658092336581,0.0945685403544331,0.231414621167983
2,82,2,0.204423836114758,-0.0225887723947358,0.232145308399732,-0.386032206583265
3,82,2,0.208115319332241,-0.0232760418296457,0.236759568694553,-0.399591239806224
4,82,2,0.0912103427616153,-0.00869825491099125,0.0185430206240541,-0.155304614693298
5,82,2,0.303000913296044,-0.0367989966490893,0.371843707238319,-0.558315613886495
6,82,2,0.115591701632833,-0.0110388149326291,0.0300929528928126,-0.205042227802862
7,82,2,0.352173980810399,-0.0451984310478578,0.427256580989663,-0.634755684752195
8,82,2,-0.388264162914066,0.0313859751259803,0.226045020391862,0.314192714063418
9,82,2,0.107278260647223,-0.00950221126203581,0.0254622252650706,-0.187518236298339
10,82,2,0.382229864750676,-0.0498237753140906,0.460822807882733,-0.670677641078822
11,82,2,0.074108664418779,-0.00695649110117159,0.0124160670670097,-0.122413219626177
12,82,2,-0.0626843683965959,0.00562653578242221,0.00111264655746216,0.0319290935922987
1,83,2,0.25314119463112,-0.0298167288496077,0.310408859776398,-0.488863247706685
2,83,2,-0.155423324637088,0.0159326110474701,0.0356898188619229,0.152583886400751
3,83,2,-0.166508745137589,0.0159753121654793,0.0443290982948526,0.163290494563877
4,83,2,0.023500838127245,-0.00172169169722787,6.4800938709933e-05,-0.00831135214944302
5,83,2,-0.0685150510811356,0.00735252155140422,0.00975904434987619,0.0832313749695884
6,83,2,-0.540840796876749,0.0410826556544961,0.372758606527089,0.319892013117085
7,83,2,0.0342506462989717,-0.00248043613764528,0.000147716101488813,-0.0123126934987983
8,83,2,-0.0912372022952402,0.0084107533920967,0.0190932073867426,0.10914833393255
9,83,2,-0.122341555814255,0.01033579295177,0.0311957067555839,0.13957712992296
10,83,2,0.10924616918961,-0.00987121382241417,0.0264933440179647,-0.191461452407366
11,83,2,-0.37449887001008,0.0304956627915343,0.213179596229103,0.308974479189942
12,83,2,-0.13624755939033,0.0116154967800595,0.0366597660423394,0.151959457026468
1,84,2,-0.0282793291597244,0.00234483854511269,0.00014451001506498,0.0125751962466533
2,84,2,0.131384441609411,-0.0136941594676712,0.105377350109642,-0.238124828559053
3,84,2,0.29742958754923,-0.0374548360359137,0.370172543940042,-0.552809604620844
4,84,2,0.279038852204833,-0.0335835761737439,0.342199524916155,-0.521715747933918
5,84,2,0.175431892878823,-0.0186277242389879,0.18477643890494,-0.332217257591181
6,84,2,-0.147953108665127,0.0160723489787564,0.0313360533260219,0.144336621867287
7,84,2,-0.067263248731683,0.00716223632544366,0.00951652279967689,0.0820790860230601
8,84,2,-0.0937631021635497,0.00837735015186982,0.0180621482756376,0.108803913807261
9,84,2,-0.0405106700562965,0.00348889042705094,0.000416732174765145,0.0202864029067081
10,84,2,-0.0555164181957412,0.00492496417871514,0.000867059757830889,0.028504106847576
11,84,2,0.361962743101422,-0.0470788943092619,0.444480690298146,-0.648560068687778
12,84,2,-0.124235981519925,0.0104987144544454,0.0318694313562678,0.141222991746854
1,85,2,-0.0587534801517224,0.00582346878552932,0.00803407824851186,0.0735100718942506
2,85,2,-0.433111052851789,0.0343515449811429,0.267708146051279,0.326838086709587
3,85,2,0.106703528525853,-0.00939776907828778,0.0251661429938252,-0.186393810430902
4,85,2,-0.0340915300416835,0.00288999306290877,0.000259900787948259,0.0163112352843886
5,85,2,0.687145334378154,-0.103611534933199,0.715878095725353,-1.02923173606981
6,85,2,-0.0529843414672654,0.00467887025378543,0.000785139559395264,0.027227286697764
7,85,2,-0.285999921483007,0.0246533062146208,0.187234236076995,0.255086425091425
8,85,2,-0.264864599450502,0.0244251261851699,0.159931120834616,0.234002249154588
9,85,2,0.0518644111897365,-0.00480596499399517,0.0078506829235892,-0.083301771131364
10,85,2,0.00538634291644253,-0.00131037055382775,-2.09638655537895e-07,-0.00139710891165749
11,85,2,0.285586093411978,-0.0345076646747487,0.351872416804278,-0.529402029766556
12,85,2,0.0333115869831018,-0.00241503671910234,0.000139037840052347,-0.0119577644860173
1,86,2,0.193419139310902,-0.0213522227785411,0.209592546469613,-0.361238287968837
2,86,2,-0.114989209450461,0.00974197917165178,0.0279671728256726,0.132803592879369
3,86,2,0.204244347928069,-0.0220498704991211,0.23212816577617,-0.388039176791461
4,86,2,-0.131780599439869,0.011193819490159,0.0349131904549776,0.148148755966563
5,86,2,0.127895982170585,-0.0124329971383641,0.0397988191640929,-0.231481859062745
6,86,2,-0.159731810122173,0.0158810898503909,0.0385820910462496,0.156982229755759
7,86,2,-0.384278363861131,0.0311268292991313,0.22229715178522,0.31273455302315
8,86,2,0.153697151390902,-0.013451194473838,0.130981214669264,-0.279759434106486
9,86,2,0.385945940323354,-0.0505300617562898,0.469556923132149,-0.678835864240668
10,86,2,0.16561189316554,-0.0174719412854889,0.120207533837131,-0.295144285027185
11,86,2,0.0380180300125838,-0.00311221855188453,0.00351666155982538,-0.0578280182388023
12,86,2,-0.116004026625851,0.00769188051089442,0.0317902640519022,0.143140724138272
1,87,2,0.130448466882396,-0.0129429884200088,0.107523914879961,-0.235953488554185
2,87,2,-0.0647560914469172,0.00677317811019248,0.009049008641364,0.0797071259402721
3,87,2,0.100000701831477,-0.00972467518943028,0.0234353565794354,-0.173698489803422
4,87,2,-0.571692230994413,0.0433221360070364,0.402978324646809,0.285318099927718
5,87,2,-0.037302685667245,0.0031925115343415,0.000329453124591162,0.0182858577639705
6,87,2,-0.288329461575011,0.0236379432588523,0.144690089869837,0.26013734087904
7,87,2,-0.0356021092948899,0.00303351727092156,0.00028923702549287,0.0172271042706729
8,87,2,0.136336886081334,-0.0112669675241389,0.0490644616608588,-0.250107551323398
9,87,2,-0.328134259207457,0.0276384413639786,0.173443278214291,0.287541096986087
10,87,2,-0.29308571865339,0.0244657388155813,0.150363964030219,0.268689991687014
11,87,2,0.0472700587409448,-0.00429286114378465,0.00628539214212985,-0.0744918514536337
12,87,2,-0.0364068157543482,0.00311012929474375,0.000305546344318455,0.0177112343732258
1,88,2,0.173016906961194,-0.0185765677550487,0.182813051970503,-0.327813208168627
2,88,2,0.255051352241867,-0.0293377154656819,0.288545721560403,-0.481789144401339
3,88,2,0.0266733154921817,-0.0019476327287824,8.55284074280308e-05,-0.00947835414745504
4,88,2,0.181822673999321,-0.0197034125348471,0.196244966019054,-0.342508396583147
5,88,2,0.171993280933851,-0.019258875148178,0.18289409334019,-0.33076721566707
6,88,2,-0.54828563288406,0.0419226179376157,0.380137736618111,0.325613199501913
7,88,2,0.041613781767596,-0.00392767658057212,0.00459597955278699,-0.0639406882113377
8,88,2,-0.303471156550781,0.0265471485216207,0.192533961691075,0.259940341447255
9,88,2,0.0946334871219649,-0.00904674060996483,0.0204599939642464,-0.16279522217947
10,88,2,0.014769078503875,-0.00157254607276412,9.78622486491265e-06,-0.00438416347993596
11,88,2,0.387568672023317,-0.0511279211327015,0.471405214070924,-0.685962772241777
12,88,2,-0.21638701245557,0.0188941853232923,0.0630845592609343,0.190422031831774
1,89,2,0.0198033420511649,-0.0020881129381771,2.0070447665048e-05,-0.00591409499946005
2,89,2,-0.0811122385179571,0.00906415079209835,0.0126420273932704,0.094449538440354
3,89,2,-0.223868450200965,0.0210263262163337,0.12642533003591,0.207244525420574
4,89,2,-0.568447409821754,0.0433439249086776,0.38886807447762,0.334642245691797
5,89,2,0.259901946025716,-0.0414507930459975,0.242716053767892,-0.503178940680879
6,89,2,-0.0640548337290633,0.00666283004420009,0.00892261998622344,0.0790251766855869
7,89,2,-0.0467879769323948,0.0040818230542781,0.000595377524310236,0.0239299130750684
8,89,2,-0.241673804230058,0.0206426180511772,0.100667707238818,0.231571684542556
9,89,2,0.0510346663061984,-0.00470983901209102,0.00756407534207362,-0.081723922199419
10,89,2,-0.175150137754879,0.0143783858570981,0.056754227798821,0.169839792550939
11,89,2,0.3073677619017,-0.0380451809384107,0.37956488048128,-0.565465092418246
12,89,2,-0.288969473415229,0.0235115535525496,0.145116571837703,0.261690088541437
1,90,2,0.0576204052048674,-0.00511320305501083,0.00943111319037544,-0.0930384203581287
2,90,2,0.0348752799970925,-0.0025239224840141,0.000153649818928571,-0.0125494331319289
3,90,2,0.312885861731542,-0.0388034951703519,0.38812427790975,-0.573360222097994
4,90,2,0.165611249023429,-0.0170786776029986,0.120625481783755,-0.294397317350495
5,90,2,0.151068256076709,-0.0129509908104446,0.124860860855958,-0.275553741401028
6,90,2,-0.637644499775483,0.0496115548158032,0.452138847495192,0.322542904961067
7,90,2,0.16072398368196,-0.0171170913096204,0.0611249036742807,-0.299698116999675
8,90,2,0.222534465046121,-0.0260861969746566,0.260377118384667,-0.427837005630109
9,90,2,0.18644095572274,-0.0200345329146736,0.200903380766435,-0.347710519758189
10,90,2,0.130444630726446,-0.0129353072832207,0.107521746621831,-0.235944610307207
11,90,2,-0.00951340954611525,0.00231345909538019,6.19798861940296e-06,0.00243252990526142
12,90,2,0.162577770525723,-0.0165429630688141,0.154264520905124,-0.288380781450932
1,91,2,0.257553402322926,-0.0302867198657168,0.313379477700703,-0.483485333158315
2,91,2,0.315505165641328,-0.039507624455067,0.356944068783342,-0.56486154294652
3,91,2,0.15279997246378,-0.0132572871216421,0.128597778088564,-0.277718000978141
4,91,2,0.434688774928335,-0.0585868264720638,0.517155701460332,-0.744023891649716
5,91,2,0.0750122727187301,-0.0070495431626307,0.0126559102307973,-0.124093259027502
6,91,2,0.0748450095075077,-0.00703231732732826,0.0126118695133361,-0.123783198548234
7,91,2,0.16214718464967,-0.0169999161733498,0.161197917808899,-0.302698831837854
8,91,2,0.0988431307398114,-0.00957759134119203,0.0227799108461391,-0.17136923249672
9,91,2,0.218374857420393,-0.0250614851415177,0.257679000015793,-0.413122124111844
10,91,2,0.231283329778077,-0.0263930710194407,0.274697309248992,-0.436296767439699
11,91,2,-0.297144452782511,0.0152882661984739,0.154415377004033,0.270000682524619
12,91,2,-0.227744061553005,0.0195457943177139,0.130827891662359,0.2183138324533
1,92,2,0.183453146432039,-0.0198894730720482,0.198934905373877,-0.350434518134021
2,92,2,-0.0794707809689648,0.0088659319195564,0.0121985965909398,0.0929540304417117
3,92,2,-0.057876311655035,0.00515519371579374,0.000945714596084254,0.0296613138663004
4,92,2,-0.167227821233198,0.0160122549509088,0.0451202884571574,0.163941314940801
5,92,2,-0.165254388465584,0.015928936128458,0.0430734938052857,0.162161553099379
6,92,2,-0.0414521347154395,0.00357673504241113,0.000442818999056283,0.0208553069040751
7,92,2,0.0677281398494595,-0.00631454063445779,0.0111474032039768,-0.110612033826608
8,92,2,0.169236469023921,-0.0178769677356276,0.175442131737173,-0.318984461200878
9,92,2,-0.109149862078602,0.00998563010382287,0.0239184629594003,0.125951392169463
10,92,2,0.0950392422335886,-0.00909773641132216,0.0206746781905741,-0.163612086395274
11,92,2,-0.112213098248111,0.00953250378075559,0.0266447200044565,0.130167157121568
12,92,2,0.541354616431687,-0.0752147657851924,0.604555473538936,-0.864932029675468
1,93,2,0.0610418697539085,-0.00553845203217074,0.0102165821139671,-0.0983160937283622
2,93,2,-0.0644148505302548,0.0057968575811313,0.00117483154598307,0.0327177965333075
3,93,2,-0.334230960125248,0.0279940717146223,0.178022265850462,0.290685835506545
4,93,2,0.0493139640495309,-0.00451104644741722,0.00697173165462526,-0.0784164142760788
5,93,2,0.145838016858812,-0.013967036020016,0.060471365581074,-0.273106473606724
6,93,2,0.417393442899095,-0.0558507563689208,0.501334518231484,-0.722386084274015
7,93,2,-0.0648220513836789,0.00678352827789516,0.00906099641969828,0.0797708122095271
8,93,2,0.138810770791241,-0.0103088183123704,0.0524247194954077,-0.256863514014963
9,93,2,-0.0808052112257847,0.00902781981745376,0.0125563507577029,0.0941664437234189
10,93,2,0.164528810409956,-0.0149379694153344,0.148284765607373,-0.31315762987762
11,93,2,0.403222920804379,-0.0540227220563012,0.493191681121719,-0.706434340863913
12,93,2,-0.0274673048308082,0.00226768687579439,0.000127620726633398,0.0120427826008745
1,94,2,0.0423607055572432,-0.0039452694155957,0.00480113606522399,-0.0652855696575344
2,94,2,0.00798742390917262,-0.00194276984077043,1.74191070162409e-07,-0.00207592715053912
3,94,2,0.113875133203837,-0.0107397086307197,0.0290754131029112,-0.201277801474556
4,94,2,0.289836927892948,-0.0351792799236138,0.361231967039738,-0.53594158038891
5,94,2,-0.0941908867150325,0.00854392325069286,0.0179331079507175,0.108831555773557
6,94,2,-0.0097902016355616,0.00238159383899325,6.15904659326308e-06,0.00250371519460747
7,94,2,0.154763544584188,-0.0143430314572993,0.139283147319376,-0.282809488282968
8,94,2,0.227651356071743,-0.0258286744130106,0.2683647374559,-0.430804815872984
9,94,2,-0.260943293927561,0.0218654127666712,0.114486551917589,0.248705052112172
10,94,2,0.220057345193416,-0.0250400384038515,0.256536602039712,-0.416428075030975
11,94,2,0.253036235947566,-0.0379164295241546,0.241429864131884,-0.484546256283903
12,94,2,-0.0640503758689616,0.00576095597394425,0.00116164469587571,0.0325528346280428
1,95,2,0.126129105692912,-0.0123605896834293,0.0377975069596908,-0.227821855614118
2,95,2,-0.225710811751023,0.0191473038657482,0.131850419912911,0.221473973716076
3,95,2,-0.310476278937441,0.0265196181387335,0.195403586066434,0.265157205276171
4,95,2,0.125957647810347,-0.0123483559827221,0.0376381307962314,-0.227464752586704
5,95,2,-0.107365150002255,0.00992788330621422,0.0228368232591355,0.123389679536699
6,95,2,0.0359026441896165,-0.00290760778369468,0.00306663414038506,-0.0544501126414665
7,95,2,0.217167524750763,-0.0245253557046464,0.253699130568064,-0.41155190656928
8,95,2,-0.262686090599205,0.0242909917252902,0.157779475000722,0.231622226235586
9,95,2,0.128950897721126,-0.0123983764356965,0.0412752124908858,-0.233662606815712
10,95,2,0.0345422179453871,-0.00250070568100646,0.000150419153890293,-0.0124231294775447
11,95,2,0.217065722343419,-0.0245266864185275,0.252620048465262,-0.408112931200873
12,95,2,-0.179495789934067,0.0152286574176907,0.0637944800524596,0.172049718211069
1,96,2,0.302968587601357,-0.0371202683807206,0.374147026059682,-0.558141851669981
2,96,2,0.00938266102387383,-0.00228121873505739,2.95678497715865e-07,-0.00244042227026688
3,96,2,0.305124720308305,-0.0369082530004979,0.372536149441275,-0.558892700354194
4,96,2,0.0879182672210434,-0.00835867781006901,0.0171315876384274,-0.14872454288384
5,96,2,-0.0449738258095709,0.00390889339117649,0.000542515505262046,0.0229116764163867
6,96,2,0.164568333971308,-0.017280469309011,0.165278783486012,-0.307966089784063
7,96,2,-0.328584355660739,0.0276643986499333,0.173768237947852,0.287775698102441
8,96,2,-0.0097849133816729,0.00238028841309506,6.16107333620834e-06,0.00250235103708034
9,96,2,0.0236326968432037,-0.00173111527542092,6.56020922994848e-05,-0.00835963282769451
10,96,2,0.0709354203815808,-0.006632513740167,0.0116785371392097,-0.116527859599191
11,96,2,0.0494410081412342,-0.0045254415940067,0.00701416723718035,-0.0786637542024308
12,96,2,-0.354643898199942,0.0292366837699581,0.195162335590615,0.300528453912923
1,97,2,0.370609749014156,-0.0482908873037711,0.451564799726705,-0.662407234356353
2,97,2,-0.308849404546193,0.0247612469023345,0.196964096984784,0.255615943909813
3,97,2,0.201549308851954,-0.023173476885291,0.232881166859643,-0.384394142183775
4,97,2,0.201063144931937,-0.0227782168231324,0.228128590606112,-0.384097732416854
5,97,2,0.149345699583493,-0.0127757110183097,0.122090474754226,-0.273887834075884
6,97,2,0.304916972902049,-0.0368923227114121,0.372289295462999,-0.559039283822358
7,97,2,-0.176364575392969,0.0147544504207868,0.0576402111834926,0.17013388329874
8,97,2,-0.0194305546480916,0.00105524510410501,0.000192034993554351,0.0118267211660249
9,97,2,0.121751072054208,-0.0119255374443856,0.0341414399617188,-0.218574866629711
10,97,2,0.0369526405146989,-0.00266805724204643,0.000174325974085193,-0.0133399538043141
11,97,2,-0.31731648657246,0.0270307861736971,0.166555844187395,0.281847196040283
12,97,2,0.114200214008124,-0.0107976051655904,0.0292614272218775,-0.201979968952834
1,98,2,0.201145004040084,-0.0220165492602721,0.225276990078761,-0.381867452830023
2,98,2,0.0284626730687623,-0.00207433282475987,9.85756325396633e-05,-0.0101416274230914
3,98,2,0.0968996103870537,-0.00933146938391782,0.0216802409044107,-0.167394545460042
4,98,2,0.0881529120172235,-0.00838265902974988,0.0172254389751864,-0.149183919224846
5,98,2,0.060116785214487,-0.00552162010659877,0.0101049378255317,-0.0966576975560999
6,98,2,-0.153856987845647,0.0159600954641317,0.0347176090639747,0.150910725061849
7,98,2,0.0670577149307674,-0.00625003708880227,0.0110599863069127,-0.109377106743432
8,98,2,-0.237821200155618,0.0198815372622521,0.0970583964473598,0.233618244798954
9,98,2,0.0793372917735197,-0.0074921463330702,0.0139593479067958,-0.132185192440339
10,98,2,0.00740881927588392,-0.00180221984663173,9.28139266780456e-08,-0.00192480241124424
11,98,2,0.174839952696055,-0.0185894252255637,0.183918725304986,-0.331590722608028
12,98,2,0.0758660627170862,-0.00713718717954578,0.0128951764896375,-0.125685047682024
1,99,2,0.0604400473438928,-0.00553045837292311,0.0101484481907085,-0.0972418244954714
2,99,2,-0.431433265666605,0.0342566960678455,0.266065828061582,0.326511901468378
3,99,2,-0.316969005117485,0.0270118060252029,0.166373609143916,0.281664497827695
4,99,2,0.411279820763083,-0.0544718906391292,0.497562519214215,-0.711493802329366
5,99,2,0.191662491658712,-0.0239012505552306,0.159107523425805,-0.341338783219539
6,99,2,0.204379106155083,-0.0238536298419264,0.233992986281617,-0.393670357863977
7,99,2,-0.380296568552764,0.0308690643669249,0.218570546483764,0.311234939417405
8,99,2,-0.0880142099832228,0.00961870691596501,0.0154646885327862,0.102141805073118
9,99,2,-0.287933323466738,0.024434548657453,0.175323393970982,0.244391879331844
10,99,2,0.0466594453521585,-0.00423373326989421,0.00608868501117137,-0.073326890910103
11,99,2,-0.119694867322205,0.010121731116853,0.0301286653512553,0.137223506606256
12,99,2,-0.200859961578023,0.0153965830003827,0.0652005563525352,0.185275444446856
1,100,2,0.0264455127285199,-0.00193146420476951,8.39381445292407e-05,-0.00939417652848164
2,100,2,0.142468704529376,-0.0129428408747891,0.0529399686691152,-0.264587873719133
