ID,SIM,interval,ETA1,ETA2,ETA3,ETA4
1,0,4,-0.0265929970190046,0.00101372527639565,-0.0155175648171723,0.0470885851865398
2,0,4,-0.025917001201747,-0.00155429803967273,-0.151378117100049,0.29554511001967
3,0,4,-0.225218210180988,0.0162781545111246,0.193344356578873,0.220979862810025
4,0,4,-0.106806237386307,0.0131034755759371,-0.181759443358819,0.10976752899913
5,0,4,0.017632249446222,-0.00312728703684978,-0.0218321681881724,0.0476029010304453
6,0,4,-0.115908010488803,-0.00191223877541546,-0.383517587488687,0.696338877780668
7,0,4,0.185998406876081,-0.0185980552625957,-0.403680588798979,0.0447411050851839
8,0,4,-0.00941379820284852,0.00179793767322898,0.00824712045603845,0.0303345301894461
9,0,4,-0.300772704509602,0.026819005290655,0.20843261940595,0.244628988789871
10,0,4,0.16246247523193,-0.015932925472091,0.102374511882052,-0.223565800595145
11,0,4,-0.0524820040303969,0.00372930355017853,0.0174413784271747,-0.0268720358346312
12,0,4,-0.175050664853958,0.0133467684279185,0.214585285520935,-0.0313648029583822
1,1,4,0.101273322516423,-0.00845241996150142,0.180437169871792,-0.180469579756406
2,1,4,-0.436957682628063,0.0299461748346735,0.162148771536096,0.619312330821045
3,1,4,0.014935280863376,-0.0037907700426949,0.0128459288657709,-0.0257310355263437
4,1,4,-0.0622887032068846,0.00758113201796606,-0.0317331459451346,0.0448262434836268
5,1,4,-0.412304498150923,0.0327473676760419,0.254012292974172,0.339190990848756
6,1,4,0.0217805857881385,-0.0102898046587812,-0.501207802323964,0.43788933533756
7,1,4,-0.138153918638225,0.0102713921906345,0.0959397678912478,0.221062938972217
8,1,4,-0.283810923819259,0.0215706875985596,0.178340476907697,0.275262176405763
9,1,4,-0.518037381814153,0.0401310485590472,0.138765770719173,0.504905808611735
10,1,4,0.0401625667535274,-0.00582032488339207,-0.158538755221465,0.140998702059636
11,1,4,0.354975350888923,-0.0459720799382366,0.44163975387505,-0.633223057086057
12,1,4,0.366505875900707,-0.0467109462319364,0.432933859157546,-0.628646825607759
1,2,4,0.0719299590331567,-0.00607562746920137,-0.0165870020796369,-0.0917644558743868
2,2,4,-0.0568000988424071,0.00300362964753729,-0.0347422443504845,0.128445282853906
3,2,4,0.324155282752765,-0.0395595588528022,0.487060623451103,-0.66205247793088
4,2,4,0.190859231411829,-0.0222713818352466,0.0544753012130696,-0.0946929338360389
5,2,4,0.188038624839019,-0.0149874154844184,0.00111408572494336,-0.184334726186366
6,2,4,-0.313175129865866,0.0257030070789927,0.233298111607746,0.246934581239884
7,2,4,0.232241174057187,-0.0234887808741957,0.129002320725525,-0.286705201458492
8,2,4,0.22685563371559,-0.0266166740220459,0.270896920264865,-0.422316233407522
9,2,4,-0.457136178271098,0.033876318595748,0.303899217145326,0.331067998421142
10,2,4,0.521503438593683,-0.068101394595793,0.54506076385892,-0.789952834031933
11,2,4,-0.162492428269802,0.0142897085215708,0.044114945659437,0.149469263413607
12,2,4,-0.322090541966985,0.0262595137707434,0.252580121300131,0.156080074586891
1,3,4,0.0300818991216376,-0.00607807118544824,-0.221489759049568,0.138174903291811
2,3,4,-0.0778629184800452,0.00324015203158518,-0.0777719392045905,0.235791934038288
3,3,4,-0.159368253532632,0.00857549635720815,0.0143986491684291,0.286305954659323
4,3,4,-0.0933113509491343,0.0022434502195293,-0.301829443386116,0.581785051258839
5,3,4,0.116416931296191,-0.00915363576716409,0.113240524648818,-0.384593388098191
6,3,4,-0.41707752314102,0.0262258868872104,0.0773944221085008,0.806530873681661
7,3,4,0.426850596608202,-0.0485083629321687,0.443903484850521,-0.64084462502979
8,3,4,0.0970053577703529,-0.00856422468497854,-0.0107784023665211,-0.0104111520966707
9,3,4,-0.233789456540737,0.0202566269739095,0.138172044444702,0.144381368410479
10,3,4,0.228315282570295,-0.0203284815068822,-0.302619481563724,-0.0370612921607877
11,3,4,0.255291810359295,-0.0232970075332411,-0.423781096153467,-0.086417198186998
12,3,4,-0.690016603355758,0.0549993998672507,0.303351277618463,0.557275481884952
1,4,4,0.265331700728044,-0.0269182385783257,0.377623594062277,-0.467806826999361
2,4,4,0.143954555282516,-0.012981885593811,-0.195626648534616,-0.134300749328434
3,4,4,-0.434596668185123,0.0302550681529019,0.168650118677178,0.635924642161219
4,4,4,-0.0424949137017607,0.00219545860654711,-0.0573821695579809,0.195590301966746
5,4,4,0.215318158599719,-0.0285358943963773,-0.0512607419269482,-0.113127274617519
6,4,4,-0.00919094956727435,-0.0077847323407992,-0.380231289258442,0.57222145535427
7,4,4,0.496429491472227,-0.0555565495044638,0.385594915296397,-0.627654368265181
8,4,4,0.257516446761587,-0.0253669183437005,0.0562147355636462,-0.291067102839512
9,4,4,0.0191795579248944,-0.00544526869283776,0.113448079606627,-0.153114949469779
10,4,4,0.168704876507642,-0.0174556633239248,-0.354977776733964,0.012829420151886
11,4,4,-0.578521145353534,0.0402155476816317,0.260706460276133,0.624501893595775
12,4,4,0.53701656914825,-0.0766385143594096,0.589523262442217,-0.863083712936228
1,5,4,0.331436729511872,-0.0208165956082398,-0.793793259657722,-0.164564617687617
2,5,4,-0.335408426186505,0.0235847587133695,0.257507478286122,0.394260528407751
3,5,4,0.169384396823258,-0.0151714262041164,-0.437371053598674,0.0379665523611351
4,5,4,0.261690144045319,-0.0289954376667757,-0.00748040144742979,-0.20183725290824
5,5,4,-0.598327775795668,0.0207077819035484,0.0505474426066003,1.53816236385631
6,5,4,0.470582877325001,-0.0609455763969777,-0.115771119848127,-0.428862452154802
7,5,4,0.286083850153611,-0.0313619747656026,0.306731399872288,-0.469197852032656
8,5,4,0.0261285113157241,-0.00139236825662276,-0.133709709254008,0.111280454573553
9,5,4,0.0883395403504073,-0.00926720762085398,0.0319363917906948,-0.186028529757207
10,5,4,0.0842353389611201,-0.00849107230652028,-0.248611514945964,0.0922251738048872
11,5,4,0.139094862009641,-0.0129174007902304,-0.322519674878432,0.0808669870619039
12,5,4,-0.130736625311486,0.00347445263848653,0.11773101631376,-0.0796117703620937
1,6,4,0.26289604224541,-0.0240310838524493,-0.0241142844281943,-0.324674216544593
2,6,4,0.0559087125187312,-0.0101622157350635,-0.311330586288481,0.188669728174105
3,6,4,-0.0728578634740164,0.00529203913619992,-0.0680277687185352,0.164227702468633
4,6,4,-0.00209486001978988,-0.00662929969125297,-0.379253026414993,0.441902039341553
5,6,4,-0.0290136102410735,0.000279238059049438,0.00288530358381178,0.0266991770204295
6,6,4,0.0760521738238533,-0.0257509571937362,-0.666176973262837,0.622601463529489
7,6,4,0.240616528500145,-0.0202367816754663,0.0297818307015069,-0.206297849679285
8,6,4,0.142633666786922,-0.0205506856472566,0.357086471425024,-0.496963680295824
9,6,4,0.315163262402804,-0.0409457693088448,0.442255716952401,-0.627205831622619
10,6,4,0.283515046325089,-0.0234164260681479,-0.524690274998914,-0.0451132115231125
11,6,4,-0.0864705158792995,0.00543646716161041,0.0578865609664038,0.160470790622993
12,6,4,-0.289588680036588,0.0255135893260302,0.121874744355586,0.254004918396011
1,7,4,0.322076535240952,-0.0343016338271101,0.451605534469949,-0.569604638367121
2,7,4,-0.297814021405584,0.0211242088053667,0.213822192676499,0.382114868120769
3,7,4,0.0847518884593235,-0.00867636658741285,-0.0384094114807315,-0.022164677536759
4,7,4,-1.04669093716859,0.0536555772332094,0.56453325005963,1.11880653515109
5,7,4,-0.308844221539003,0.0184734368001576,-0.108432098039197,0.726178657894589
6,7,4,0.367723364581311,-0.0491603537406849,-0.10024929016032,-0.257714332366909
7,7,4,0.254247981347536,-0.0284394081857036,0.338158027512085,-0.496726880921825
8,7,4,0.383626452212269,-0.0382812155431495,0.37801326036344,-0.614777682873542
9,7,4,0.429292108840316,-0.0576785586993133,0.508484157862918,-0.729131095193262
10,7,4,0.329502882727088,-0.03027478364058,0.205830839527229,-0.353174348512072
11,7,4,0.290918948190071,-0.0341110907377977,0.3217834069636,-0.480800968194033
12,7,4,0.319575432783368,-0.032721984163579,0.479865134481648,-0.670846595661512
1,8,4,0.454914795031292,-0.046837167647322,0.43435658412749,-0.608443246534955
2,8,4,0.297801407301013,-0.0322393220900249,0.347087522396974,-0.503278855650429
3,8,4,-0.493344721585333,0.0372808764581596,0.361186364742839,0.386937258265637
4,8,4,-0.28714785943987,0.0190351076474066,0.0624862278558335,0.571813582404047
5,8,4,-0.423011105541355,0.0387393301886864,0.22783341205164,0.402786901257363
6,8,4,-0.0693169278996594,-0.00281663725399038,-0.377943894533209,0.561522074785753
7,8,4,-0.397935200118279,0.0323033231492112,0.22538159054995,0.323344453416564
8,8,4,-0.180148787505509,0.0150864087425573,0.0758419800415276,0.176762719591711
9,8,4,0.132524019899704,-0.0135453120910638,0.0560347929127292,-0.250163280730509
10,8,4,-0.218578392426838,0.0163671991729996,0.142645935274988,0.324935258106512
11,8,4,0.0683103709225616,-0.00705288592021343,0.142687187733994,-0.230210981210145
12,8,4,0.308232491292909,-0.0382463371043016,0.374182493882518,-0.580571081360148
1,9,4,0.171086362131819,-0.0122453459553866,-0.447969239412361,-0.00785853278586037
2,9,4,-0.16363605672822,0.0109566204303642,0.0588130385420885,0.250857677403825
3,9,4,-0.226147182962767,0.0165303019859144,0.110273813945696,0.239220499790087
4,9,4,0.195197483539356,-0.0245450278733183,0.0882251863612814,-0.116823236403607
5,9,4,0.228120270585658,-0.025859114092883,-0.111279914050823,-0.142376360760459
6,9,4,0.170106591026698,-0.0228739484028013,-0.0187227972631255,0.0310335636615976
7,9,4,0.102044194905435,-0.0103268363182515,-0.271039305765313,0.167523116124297
8,9,4,-0.00103282619789693,-0.0022400891929607,0.00241065234716321,0.00198065857919159
9,9,4,-0.735472828262479,0.0530870962390294,0.4288165686689,0.32665411806513
10,9,4,-0.0122242892812309,0.000796924455360353,0.0043644293655359,0.0268168256604389
11,9,4,0.0285355874212318,-0.00499620054025009,0.014685678667224,-0.0784881437860401
12,9,4,0.292060081362213,-0.0367741546717336,0.402651311992449,-0.588202693230969
1,10,4,-0.334580327628107,0.0221585916808455,0.202604307491352,0.470874207194031
2,10,4,0.172537287174208,-0.0151512209804001,0.0568875773131185,-0.249556531176728
3,10,4,0.0952921166397015,-0.00762393682537377,-0.166073955155026,-0.0811739887715691
4,10,4,0.26802207060164,-0.035474752792393,0.493447708130845,-0.716951548422628
5,10,4,-0.211565937301121,0.0160062254654314,0.0249497171034218,0.36834784953923
6,10,4,0.0442804820432642,-0.0105462074310443,-0.00953649308747177,0.118087384037896
7,10,4,-0.0963132166151051,0.00847186415984936,0.125138144176281,0.114569109071703
8,10,4,0.13970941711523,-0.0166527284721168,0.0366752539089506,-0.226196035070647
9,10,4,-0.0755096925854179,0.00495284602803128,0.0204216290164691,0.110302255433693
10,10,4,-0.436477060017358,0.032950555942448,0.357919998784747,0.302130707030197
11,10,4,-0.198946530543101,0.014603352686618,0.155602331485071,0.226666863778477
12,10,4,-0.224819100196524,0.0173026732752547,0.103555470699522,0.238878661410464
1,11,4,-0.220049063478227,0.015619086476342,0.07132578439592,0.393437471355305
2,11,4,-0.0628476694909553,0.00364684100568582,0.0553673246542856,0.0415716326556325
3,11,4,0.293697538979236,-0.0186979467588412,0.352751961182612,-0.520118542004676
4,11,4,-0.0882010869340836,0.00561981316851526,-0.224036370464984,0.405061574300529
5,11,4,-0.32975257728038,0.0132752849208682,-0.140436513035914,1.00748145097108
6,11,4,-0.0845837354519404,-0.00714248963455272,-0.553700485921855,0.764573716290664
7,11,4,0.321321503244801,-0.0338640544056727,0.271979148512255,-0.433894446762459
8,11,4,-0.185354575144186,0.0141013854997655,0.133571479511528,0.166562528577501
9,11,4,0.0588087530586522,-0.00610728003124083,0.158806327516174,-0.253120590513748
10,11,4,0.0082412842560151,-0.00233501310609764,-0.113671803802575,0.136767844522838
11,11,4,0.117988267695629,-0.0155727415969624,0.26929147615749,-0.394842965476763
12,11,4,-0.187782927884363,0.0167806480029131,0.154360623932146,0.057463048884715
1,12,4,0.141554752164301,-0.0108195891836751,-0.395289357212313,-0.0179828969594466
2,12,4,0.00581587690382751,-0.00429188513667207,-0.185037663126648,0.210305379689913
3,12,4,0.0570543100698227,-0.00778106252225381,0.164236712250734,-0.17170927944052
4,12,4,0.13583372928684,-0.0197208251427139,0.556783869857803,-0.536967492504086
5,12,4,-0.152874713463695,0.00801270004177569,0.0391220612567576,0.254722317548484
6,12,4,0.0264274140474345,-0.00255482156276367,-0.131767283422292,0.192713086305196
7,12,4,0.245945514880372,-0.0219953311505341,-0.344224266230513,-0.0584395173048458
8,12,4,-0.272514536458557,0.0231843812508717,0.131247407563536,0.208566482982547
9,12,4,0.145153013708294,-0.0124672222886719,-0.251503043729251,-0.0477385296096776
10,12,4,-0.102399596770592,0.00720939652248538,0.0298304359796883,0.141286708034491
11,12,4,0.0375415406828139,-0.00434210554119639,-0.036078153175059,0.0453850459908017
12,12,4,0.0574559060237561,-0.00867624764288492,0.15977607520731,-0.288310308008233
1,13,4,0.271449203012826,-0.0310643834751846,0.406362923102088,-0.56271745223987
2,13,4,-0.145101786906612,0.0106500090176016,-0.0101402970717953,0.319766831128707
3,13,4,-0.223744528044211,0.0129443267459256,0.0721462864632777,0.407748016936917
4,13,4,0.197003327060387,-0.0223766169766579,0.375159340470679,-0.676844554433454
5,13,4,0.127019088011334,-0.00930104910790819,0.0877726727942379,-0.317062877585701
6,13,4,0.311862506053579,-0.0379437033048916,-0.0347067559879168,-0.288917599455513
7,13,4,-0.0115958169900191,0.00287346709459233,0.00345353530631684,-1.61486479073454e-05
8,13,4,-0.267457658865566,0.0213618486741885,0.18392127439374,0.236922966184821
9,13,4,-0.527976635572864,0.0364433751338033,0.160716645718304,0.661404340667423
10,13,4,0.305219452741764,-0.0302682412689536,0.299739009843769,-0.454242492889043
11,13,4,0.0886233975010571,-0.00945362495913097,0.122145880168572,-0.252955883803697
12,13,4,-0.487559567561498,0.0319528931285054,-0.0654035505388463,0.857366208240716
1,14,4,0.538645169437378,-0.0573375015063321,0.568130885760795,-0.772497359051089
2,14,4,-0.0739164749284742,0.00188093770565349,-0.0525270459842507,0.240864461407246
3,14,4,-0.118510587390929,0.0101349074453285,0.115023537815867,0.044853174135257
4,14,4,0.367070406465081,-0.0445503754375063,0.00941699422114192,-0.402679680983525
5,14,4,-0.0236047524519919,0.0016379922727995,-0.0869575805442255,0.181407759925467
6,14,4,-0.485245540652191,0.0264978921242413,0.0626918110606563,0.864945606026213
7,14,4,0.0418989296798568,-0.00433159306306643,0.117410263909236,-0.132761193809724
8,14,4,-0.250745193495462,0.0179961999796373,0.105722287544369,0.235625196883477
9,14,4,0.126812162209573,-0.0106229737644305,0.0245356468153493,-0.187806385759907
10,14,4,0.100759550984789,-0.0104243913237523,-0.12086198932151,0.0626235980553791
11,14,4,-0.53850025062296,0.0366120712159278,0.11274734665936,0.711962259192642
12,14,4,0.15896985948218,-0.015041064410542,-0.183625524140823,-0.0885762466923814
1,15,4,0.0926767646258419,-0.00686288786363889,0.104167704790697,-0.0964589224264879
2,15,4,-0.370587106772197,0.0260614264302978,0.287024387517413,0.413972251136602
3,15,4,-0.342449460469087,0.0269731809756654,0.167919663365978,0.35198501834522
4,15,4,-0.454444971026679,0.0276262122471546,-0.0319797466781953,0.782024121762121
5,15,4,0.149895640220174,-0.0202529043478644,0.0230171626899274,-0.0249563546728007
6,15,4,0.129332705449392,-0.0169060126982263,0.00145513904951476,-0.050815478514217
7,15,4,0.54173645139232,-0.0541010442309877,0.460970922785704,-0.647613521156352
8,15,4,0.203856947636892,-0.0229578990742866,0.236249162134872,-0.401827312865723
9,15,4,0.183763579379669,-0.0224645031955025,0.298972028140043,-0.443075281888432
10,15,4,-0.0823328742977237,0.00424743792784057,0.0491409206957383,0.26333760729287
11,15,4,0.00972494742706812,-0.00275186727328974,0.249544363845785,-0.226962044111498
12,15,4,-0.683209307522337,0.0413769072896148,0.061613642016977,0.962349441693501
1,16,4,-0.0919840142478724,0.00282766866253292,-0.0321704757683019,0.264086928086198
2,16,4,0.076539297141383,-0.0106106539826304,0.28128033940036,-0.298748651203561
3,16,4,0.312854865478416,-0.0175962930986052,-0.753941775908773,-0.216206988744447
4,16,4,0.0676395445699686,-0.00791314436319352,0.504586271455663,-0.491644832226336
5,16,4,-0.0941129578571794,0.00601476475795771,-0.011606299877317,0.190887947327716
6,16,4,-0.44692067001565,0.0362572542706464,0.252608258503764,0.388512368220794
7,16,4,0.509297419177005,-0.0671334110294631,0.493205791531227,-0.747240292072574
8,16,4,-0.192112888473871,0.01698580720647,0.146434719085769,0.0798990998779666
9,16,4,-0.203017993616705,0.0172874744023659,0.165193030170238,-0.0244338124963726
10,16,4,-0.107995732718738,0.00892333147756878,0.0537208937441644,0.16164249473512
11,16,4,-0.156820945492147,0.0186869046669399,0.232389393629638,-0.0492844939852162
12,16,4,0.0233023897278728,-0.00347837606705874,0.19287951834316,-0.271158226754366
1,17,4,0.423804376230461,-0.0200746704728263,-0.965807511550263,-0.223620455315136
2,17,4,-0.179634753604941,0.0130207901832456,0.0932451368832385,0.295523414834268
3,17,4,0.269222129919001,-0.0311186579611035,0.415072511248161,-0.578585427470899
4,17,4,-0.0100101487974197,-0.00376032433660943,-0.339573945330469,0.351464397756353
5,17,4,0.0025661439666082,-0.00463493585456796,-0.0799797485370678,0.257388708935978
6,17,4,0.0244406238155878,-0.00414407883178545,0.0802350142015972,-0.047109007972759
7,17,4,-0.218571378557181,0.0183151474752792,0.164133816144405,0.203221454195377
8,17,4,-0.111351020378302,0.00732480454560986,0.113530033391627,0.19908918304709
9,17,4,-0.0137240793801031,-0.00118184199356041,0.00137467563430187,0.00757630372989317
10,17,4,0.105579298873612,-0.0123776821336704,0.0142313466153285,-0.139231577994092
11,17,4,0.201011737797077,-0.0153220073665183,-0.288250941585278,-0.0937417815983766
12,17,4,-0.446893334221107,0.0343185349530392,-0.0229984278413739,0.677233724685895
1,18,4,0.309623419176258,-0.0315438408635065,0.441848739576757,-0.602512587070175
2,18,4,-0.348484692758587,0.0291628955156162,0.24887397179763,0.251008942609008
3,18,4,0.355078291562585,-0.046263104882368,0.52960514167783,-0.721278199193002
4,18,4,0.0477122158574307,-0.00696447822488246,-0.359585450585035,0.224397140012085
5,18,4,-0.140310462680989,0.000902986535047472,-0.340384960038291,0.716995524827029
6,18,4,-0.0132780526865516,-0.00235394749245667,-0.0317990917281757,0.177865468830711
7,18,4,0.185652373459369,-0.0209716822009862,0.23990969536709,-0.387459154216351
8,18,4,0.190061988982057,-0.021191248956373,0.225096139942989,-0.370515636599538
9,18,4,-0.0556935301835252,0.00496921097057085,0.0113164479095892,0.00697866400795145
10,18,4,0.416367133480512,-0.0423245673149134,0.433086378963749,-0.676273266372596
11,18,4,0.0635020852360137,-0.0101463270156906,0.231792552845205,-0.343319907373552
12,18,4,-0.509160030793809,0.0406296266146394,0.206720252354184,0.340384374609517
1,19,4,0.30336480220437,-0.014697519919289,-0.786807756035,-0.14332291974571
2,19,4,0.303751491622973,-0.0315915990594314,0.320299878730795,-0.458922841392757
3,19,4,0.0101770734856436,-0.00532922447827207,0.106877428701427,-0.100054732237168
4,19,4,-0.00665736824763248,-0.000898392363304561,-0.00259070006200753,0.0153350447015013
5,19,4,0.103197009950654,-0.0155971069277712,0.0053132066703175,0.0435734717157638
6,19,4,0.380464322206041,-0.0482458931807214,0.250668189371621,-0.379644418679463
7,19,4,0.170989751745182,-0.0165680950119621,-0.312316692649733,0.0429292683449613
8,19,4,0.15967440380342,-0.0185647001545064,0.0283357565763518,-0.207626292951962
9,19,4,-0.538244229158296,0.0406330897993482,0.180029127128874,0.512102544884764
10,19,4,0.265821301458622,-0.0245366602836474,0.188376044864927,-0.339405744251395
11,19,4,0.0116847987252284,-0.00169647721264911,0.135888961812496,-0.181778174241801
12,19,4,0.313378600213173,-0.0404379780586334,0.438814029344826,-0.61567079260835
1,20,4,0.038122905804144,-0.00412085217215066,-0.267763577815144,0.202889876229301
2,20,4,-0.369472488881109,0.0322747294042056,0.189312156711051,0.391946636120253
3,20,4,-0.569282375071406,0.0414851062729375,0.312963675779972,0.523229572232852
4,20,4,-0.483435544804696,0.0217741409601186,0.0643534400886202,1.16711723545714
5,20,4,0.280499740690314,-0.0334686425954369,0.330637133877213,-0.46059132647586
6,20,4,-0.468094257665274,0.0321143864593325,0.144701436581424,0.596785518038129
7,20,4,0.192481785764568,-0.0175415805110847,0.183427031700693,-0.336176589745128
8,20,4,-0.0586691449131784,0.00687189401231798,0.00910716550674393,0.0840358040850194
9,20,4,-0.309348407500476,0.0245962250906575,0.197009208423509,0.261010153295952
10,20,4,0.282738433315549,-0.031629193011008,0.258121661814677,-0.431498070745567
11,20,4,0.0114551790552779,-0.000309299774153736,-0.00386235650437027,0.0295972141757534
12,20,4,-0.0438432188230984,-0.000543028698763791,0.229903561371479,-0.357196897960994
1,21,4,0.336078408087683,-0.0372744880560696,0.343796881810128,-0.513349346033822
2,21,4,-0.620067051293628,0.0454367132286777,0.375700993050164,0.500517087524729
3,21,4,-0.141691055996271,0.00787271141285235,0.00777067878295325,0.24447322905292
4,21,4,0.295860274523617,-0.0347480929440496,0.128922003778183,-0.214130760859097
5,21,4,0.253202117033935,-0.0272425629232485,-0.00248375513596547,-0.13033474671656
6,21,4,-0.242288784993404,0.0155818883311574,-0.0899604079217942,0.576487711827239
7,21,4,0.043328278798788,-0.00499465248974363,0.0356699443690741,-0.161622545130673
8,21,4,-0.462372712463076,0.0367918127062577,0.216505781683853,0.331929174890539
9,21,4,-0.0619740706051852,0.00341606165132094,-0.0394104786677573,0.167398414514738
10,21,4,-0.317884604481154,0.0228002170817435,0.173781797846023,0.284772835030471
11,21,4,-0.122514786415044,0.0101665066418022,0.0234521586880039,0.0980650853631979
12,21,4,-0.0927819196597582,0.00183671004048127,0.329222592163155,-0.216747500491795
1,22,4,0.285728894605795,-0.0203569883715495,-0.60309334453324,-0.134880498909348
2,22,4,-0.444385685217124,0.0317259252061556,0.276195067115568,0.329802033445211
3,22,4,0.0460357686540988,-0.00446095104600438,0.20611078252621,-0.225667522825994
4,22,4,-0.312409782114801,0.0241157370560531,0.213407517238071,0.1686886723954
5,22,4,-0.301229820092525,0.0225221487203425,0.057573518218371,0.497095599004506
6,22,4,-0.298636198176999,0.0173820182047432,-0.176746959847693,0.708223038039726
7,22,4,-0.231396772437793,0.0207305426153552,0.183303233174261,0.179403717725333
8,22,4,-0.278909366754874,0.0230788389050435,0.130557845947417,0.231882051874634
9,22,4,-0.664911024903956,0.0382327368729513,-0.176641912262563,1.14486682949882
10,22,4,-0.196688651533627,0.017360417436679,0.119694656755854,0.244139541388037
11,22,4,0.161722840290867,-0.0165066843949262,0.122676420041925,-0.277034936779369
12,22,4,-0.241375073730445,0.0201246619106838,0.0615483069673654,0.176662095359479
1,23,4,-0.0714680571046779,0.00208866805221268,-0.110094192216595,0.287655130710731
2,23,4,-0.0550828258383571,0.00303681283588525,-0.112416260104582,0.218642994044636
3,23,4,-0.043016056021898,0.000250706368834159,-0.0736051121265954,0.209672559601688
4,23,4,0.569371515645555,-0.0764346144887652,0.379544944422223,-0.593482760958618
5,23,4,0.0972855450304919,-0.0152762889598136,-0.0165406185065888,0.083043776912608
6,23,4,-0.140705261209998,0.00445341855033406,-0.277996095452701,0.599656555822094
7,23,4,0.508180884554065,-0.0506900789577455,0.430203714649358,-0.609387690393257
8,23,4,-0.525304616021836,0.0410002838749422,0.263302259161541,0.359524386555118
9,23,4,-0.874645490504978,0.0494255729051783,0.541327952176581,0.0398967793878089
10,23,4,0.385029962432691,-0.045598658639414,0.403613165981066,-0.642382514076168
11,23,4,-0.468057213157018,0.0366260887536832,0.15790242527481,0.383940093705414
12,23,4,-0.219551968370799,0.0192379098629173,0.155234778296579,0.0549202075784134
1,24,4,0.194801848683713,-0.0151324727977549,-0.569617953890369,0.00234265684602722
2,24,4,0.428022619984486,-0.0418825062730505,0.357361957322077,-0.595433641329836
3,24,4,-0.232573769339571,0.0207299422041703,0.209248615162225,0.0468721846353693
4,24,4,-0.0188465972072374,0.00324200573836445,-0.0925465852898725,0.0501873779625005
5,24,4,0.242573804691646,-0.0203491329887725,0.0673043638296838,-0.268694919739827
6,24,4,0.0781067379150919,-0.0128160217308855,-0.324624516884096,0.313419208914103
7,24,4,0.131367653050179,-0.0134763216438941,-0.174948578565882,0.0502319478114937
8,24,4,-0.321079845554809,0.0259961881732127,0.287723118459093,0.270979859521829
9,24,4,-0.537965724351138,0.0356551675467024,-0.234122521095757,0.954510328920695
10,24,4,-0.111921114776914,0.0099686094846385,0.116859847593917,0.0558409968461686
11,24,4,-0.214544617395736,0.019279523127012,0.144698917532838,0.1093145331987
12,24,4,0.16786927738578,-0.0162873481782615,0.325016112123638,-0.467905781158565
1,25,4,0.192460394716758,-0.0160387533090426,-0.458763636165776,0.0391428113204842
2,25,4,0.00696867063733218,-0.00448658034608084,-0.268822800384602,0.251295826600454
3,25,4,-0.484643809968764,0.0394919882411793,0.258058112557908,0.407891827687386
4,25,4,0.349108472445436,-0.042304433748609,0.0980149452083964,-0.439074020641143
5,25,4,-0.288031933007032,0.0226350524463103,0.109581659794521,0.377668324091976
6,25,4,0.2135704513545,-0.023432119757271,0.243321766907513,-0.381136316672983
7,25,4,-0.0521366438263877,0.00195898549351126,0.022577447279149,0.128981529287752
8,25,4,-0.134490152188287,0.0128156033178165,0.0592744967785303,0.215873577256686
9,25,4,-0.147525307478601,0.0140365126413149,0.0311571828467192,0.134071104779484
10,25,4,0.417713232546009,-0.0323392285967726,-0.807072714501366,-0.228289533602145
11,25,4,0.418092467901184,-0.057097229417203,0.469232318091919,-0.67959365775451
12,25,4,-0.275880447935008,0.0213350103290208,0.207800874084068,0.12129353350952
1,26,4,0.0761529233255279,-0.00766179572532393,-0.325883368355452,0.0965771021224071
2,26,4,0.0769297642575205,-0.0084298435123996,-0.308850967894085,0.0477310934264143
3,26,4,-0.317687256016531,0.0266813813697321,0.216047060696633,0.219388216489286
4,26,4,0.299916660296411,-0.0409934000404426,-0.0330747586597718,-0.120920523624136
5,26,4,-0.381734832991983,0.0189079479716433,-0.0801330429840716,0.968636150680835
6,26,4,-0.00814675250324899,-0.0088196236859328,-0.0239834812320523,0.400971131236744
7,26,4,0.167828289627645,-0.019897284967956,0.194425047231818,-0.328835474687528
8,26,4,0.139211283653765,-0.0158285593435804,0.178963090209406,-0.328682454453573
9,26,4,0.196439622449746,-0.0252823924369977,0.30160531468081,-0.448378436499236
10,26,4,0.292782523556705,-0.0242598392838563,-0.510356366632473,-0.141857286257103
11,26,4,-0.197220549899328,0.0170654369063103,0.0736518266494978,0.175062168653769
12,26,4,0.266203617130619,-0.0307317654787255,0.28786777638158,-0.441502633204899
1,27,4,0.182187132742857,-0.00968869105297407,-0.438110088776499,-0.0654028121471039
2,27,4,-0.335305770211951,0.0258390370920616,0.177157631980944,0.370540388265247
3,27,4,0.262842728167874,-0.0278870494863574,0.338545625942675,-0.499591760907752
4,27,4,-0.00933676394260972,-0.000982638644861831,-0.0401697041775192,0.126555177352447
5,27,4,-0.226848981835554,0.0202877232828928,0.127386282305621,0.0801263393319696
6,27,4,-0.341395522743733,0.0250401146257887,0.107109982766577,0.511726742257457
7,27,4,-0.356479613844189,0.0270365109055138,0.219195374681237,0.311215694365139
8,27,4,-0.129892981884772,0.0116729627635634,0.107101904098457,0.0630953528041069
9,27,4,-0.332810204315419,0.0271346027560364,0.116240482879057,0.258143642943283
10,27,4,0.280147718021194,-0.0279239391932716,0.197340353334089,-0.345862993608476
11,27,4,0.232924882731447,-0.0234974204892061,0.125281995726318,-0.284553585587975
12,27,4,-0.162064899879593,0.0142279164264044,0.0456480136435322,0.152287472351817
1,28,4,0.24015597276971,-0.0225721062770109,-0.0908477542915346,-0.328413704267824
2,28,4,-0.302982532864054,0.0225224371977931,0.160221681155334,0.393710661168612
3,28,4,0.0911439006184705,-0.0108630930821781,0.287351586684137,-0.324194325287784
4,28,4,-0.0496360021522349,-0.00295698994875528,-0.356671027426097,0.509486189762059
5,28,4,-0.383342813961218,0.0285859288517906,0.160222872308818,0.512825111585094
6,28,4,-0.394161042231366,0.0216400900931975,-0.0452590057375247,0.861580988405932
7,28,4,0.413137083360407,-0.0578324888810236,0.548899492674109,-0.769830360263826
8,28,4,0.0551129398940465,-0.0072611109924064,-0.00203908953007144,-0.0124615497435368
9,28,4,0.0803985129541394,-0.0115929718362458,0.232013124122267,-0.344530383356139
10,28,4,0.410048259949918,-0.0463395915733575,0.470621954076309,-0.678287816134584
11,28,4,-0.67582496871611,0.0480365443783708,0.483104436435974,0.214616123382347
12,28,4,-0.822314021278315,0.0507319747988956,0.339269838290616,0.894403092998063
1,29,4,-0.0453843636992251,-3.61421214994285e-05,-0.176249606550573,0.350142907784956
2,29,4,-0.00180763419332803,-0.000903618089476395,0.16795765466585,-0.144139129395602
3,29,4,-0.39051480030688,0.0398275757194693,0.261235921111442,0.263481910212362
4,29,4,-0.368622324016006,0.0249669105482854,0.0650464741282486,0.648004783950759
5,29,4,0.0112836762753302,-0.00541658674100776,-0.374934688241899,0.371778613269268
6,29,4,-0.118155304944181,0.0109489285376815,0.0482201250274468,0.0956993850744236
7,29,4,0.192300113928141,-0.017672364454271,-0.342142177607254,-0.00320298440584741
8,29,4,-0.0744252797988997,0.0100389962238504,0.127847386403336,-0.100215147929616
9,29,4,0.267746647217024,-0.0283575922983692,0.187383758396145,-0.336865162561627
10,29,4,0.155091908465445,-0.013247914348826,0.0228102680783992,-0.15156897447245
11,29,4,0.200615926028019,-0.0217773450099923,0.205072965823517,-0.345838535935623
12,29,4,0.419233553939263,-0.0567124682715662,0.515729641635643,-0.732273745352018
1,30,4,0.300431219933364,-0.0187733540760507,-0.802625853186336,-0.136725747126635
2,30,4,-0.375502371641522,0.0261440637681933,0.206316121296649,0.441142652971793
3,30,4,0.181172364506425,-0.0195895005196726,0.272857962566305,-0.357068246093272
4,30,4,0.247039023525957,-0.029762425401918,0.0665546610246639,-0.110940346717736
5,30,4,0.453623030004673,-0.0570000654505872,-0.00430785487892547,-0.489696151770032
6,30,4,0.0619776691321518,-0.00525141319900572,0.112963060404665,-0.180088291832782
7,30,4,0.0786061979764409,-0.0084607775975315,0.030214106337274,-0.169067812994461
8,30,4,-0.0836543360638776,0.0084821353881794,0.179195818104161,-0.0811089352390598
9,30,4,0.162149113206526,-0.0135849138033254,0.208952134522801,-0.348791398318619
10,30,4,-0.239727624586271,0.0202993232499333,0.0477315599863721,0.174525408456786
11,30,4,0.510380324062502,-0.0609460564344391,0.529251626984504,-0.798268959950753
12,30,4,-0.000303624278255688,-0.000958166221896122,-0.0287376637746957,0.0512547603713904
1,31,4,0.243504477285858,-0.0190100635483912,-0.67229683012075,-0.0210064619216163
2,31,4,0.176631844711714,-0.0176552238431686,-0.0060543376562153,-0.318882805055718
3,31,4,-0.250599801555305,0.0165735623109886,0.118614370000126,0.323958785137571
4,31,4,0.0175411433590314,-0.00069847059272031,-0.00994445627801571,0.0136039022734878
5,31,4,-0.141298679642325,0.00567890349215154,-0.282893564398766,0.580768614664444
6,31,4,-0.305397632682747,0.0269267671006448,0.147777747336284,0.335867021271679
7,31,4,0.0438942562418654,-0.00242848786468283,0.00816538608952163,-0.080714057046905
8,31,4,0.211774766016388,-0.0195923719816215,0.121999858805691,-0.278242945892758
9,31,4,0.0820293014235026,-0.00860371488102108,0.029284181049925,-0.169505959123979
10,31,4,0.0332161016795018,-0.00311101122353288,0.0698226896841622,-0.102972925203605
11,31,4,-0.750139576235019,0.0502962160931174,0.512567819251699,0.191576650312966
12,31,4,-0.282349660198984,0.0248961554924291,0.20023912759016,0.126102105334894
1,32,4,-0.115873677717183,0.0061675703784514,-0.0586039817601733,0.260115558144552
2,32,4,0.299203650950838,-0.0306279075248638,0.415384966052431,-0.562566096479591
3,32,4,0.059157396095339,-0.00718333152730342,-0.0909182536125576,0.0544206543359354
4,32,4,-0.0975420907175656,-0.00308050643869835,-0.330773600670082,0.747825130735644
5,32,4,0.161983958632049,-0.0163314504227883,0.168300320226364,-0.329577877085435
6,32,4,-0.324619281006152,0.011450245979731,-0.332624983322579,1.20778589329765
7,32,4,0.128376389363665,-0.0126564047217935,-0.310273448513628,0.082768662881341
8,32,4,-0.134957562688729,0.0119056262553391,0.112176991278865,0.0568528535934249
9,32,4,0.0615137958770483,-0.00747094317944013,0.121412911688737,-0.235480153825476
10,32,4,-0.0224204792291837,0.00421031108419135,0.0166446910444292,0.100047935915444
11,32,4,0.107268747898767,-0.0110220372050931,-0.336703982491711,0.0311203012731328
12,32,4,0.164864162922281,-0.0204355230195454,0.29996365803971,-0.441530117912662
1,33,4,-0.543986750655362,0.0362191406873487,-0.0243260936764713,0.903908446292172
2,33,4,-0.363783346544744,0.0278469952231797,0.214287269305148,0.377214456322515
3,33,4,-0.215334139797289,0.014245698416793,0.112859009672155,0.30756844452397
4,33,4,0.0192098153127231,-0.00437468050365109,-0.224095110613678,0.201856613047035
5,33,4,-0.0065974824682498,0.0031107195790035,-0.0993803722997151,-0.0225313815275812
6,33,4,0.74429423636762,-0.103803526086391,0.186868421947992,-0.89265213603399
7,33,4,0.357935507248287,-0.0449440988275164,0.388480243527847,-0.590640097673638
8,33,4,-0.0261166658458312,0.00316418732743297,0.0722883965336282,-0.0448785965342238
9,33,4,-0.0706225124890852,0.00582464328120093,0.133288421099404,-0.149173758036113
10,33,4,0.0933625466848847,-0.00583101383369551,-0.189320525805356,-0.00999989059862249
11,33,4,-0.179277067656643,0.0146581899510451,0.198247361239015,-0.0288448104974909
12,33,4,0.201419207793102,-0.0210457407728292,0.269303185833584,-0.401895507864098
1,34,4,0.0903193247766103,-0.00926803141495744,-0.411040455977311,0.130782775646991
2,34,4,0.268704135672879,-0.0209872908954648,-0.0225888448072463,-0.244015014615945
3,34,4,-0.312386067162096,0.0204793164735974,0.212415125978759,0.362456410530749
4,34,4,0.0914288174069816,-0.00654468428958208,-0.0851897171602054,-0.0348588276337481
5,34,4,0.565169648737417,-0.0721990308181929,0.358895795044538,-0.565571436210353
6,34,4,-0.504385757085103,0.0401642663817268,0.366976230346897,0.257213789314732
7,34,4,-0.112377431459121,0.00796434794419165,0.0261252290221265,0.119109622174777
8,34,4,0.0503687954484223,-0.00697642366947059,0.120601310603951,-0.178345255157058
9,34,4,-0.0386819292116385,0.00332399629258185,0.00279321106594743,0.016966139198346
10,34,4,0.448826056511667,-0.0617850181024598,0.541919983067338,-0.763528995357833
11,34,4,0.0748659069553071,-0.0076166862733243,-0.00999332188846723,-0.0100471309798724
12,34,4,0.230001581113218,-0.0326474978347052,0.431199863385379,-0.599273830077059
1,35,4,0.0321467135879653,-0.0067021817650135,-0.160853634444603,0.224691969357009
2,35,4,-0.039596110463821,-0.00107709858208207,-0.178237035367965,0.387767830404181
3,35,4,0.0931341373088327,-0.00858292787368557,-0.104836869121576,-0.110848514365855
4,35,4,0.167396483072365,-0.020611793143824,-0.063947963060167,0.0578853496709291
5,35,4,-0.0243102848876026,-0.0014952579463224,-0.0355463122268084,0.20949891703992
6,35,4,0.45675876798299,-0.0576921043636766,-0.112419306731506,-0.410313647595055
7,35,4,0.432939075146725,-0.0478013599505696,0.412893425314035,-0.589072692190415
8,35,4,0.228472996802584,-0.0233546825353354,0.150755607849874,-0.300325988308795
9,35,4,0.00521692323980903,-0.00175498844549594,0.162308013490121,-0.218816703618383
10,35,4,-0.556515585876914,0.0380223274972486,-0.0493283588202304,0.910857904586889
11,35,4,-0.7046640431566,0.0474209989547875,0.119124005579799,0.837064219485387
12,35,4,0.0379387685219192,-0.00542376580595519,0.123877740593592,-0.244906731576119
1,36,4,0.289389071227473,-0.0312275859987762,0.398619873443858,-0.523513308092611
2,36,4,0.292721304651824,-0.0332674604239662,0.371412184455556,-0.533270205064181
3,36,4,-0.582472879278847,0.0393082822707022,0.352498485597691,0.650908309472915
4,36,4,0.00666513148407853,0.00149068050058896,0.371575769249516,-0.352722892989857
5,36,4,-0.31795893144664,0.02667301894771,0.149268883346084,0.39363867850162
6,36,4,-0.188311107438117,0.0103881079084256,-0.143771368206473,0.524937094223355
7,36,4,0.337501650161538,-0.0396707972910844,0.349050858776289,-0.5319319161065
8,36,4,0.197741403689062,-0.0241187786133875,0.305755179234022,-0.456793877807886
9,36,4,-0.534041640660609,0.0348111880421127,-0.214535761305384,0.95908828130452
10,36,4,0.000467051369341117,-0.00274204992632785,-0.11148689940569,0.160736991619397
11,36,4,0.600811271621946,-0.0869979528052205,0.65128803311943,-0.936413006840156
12,36,4,0.0272669428987535,-0.0036923021855785,-0.1522772538138,0.0948923050878726
1,37,4,0.158407119067554,-0.0156443946310336,0.14274716537058,-0.1961596352476
2,37,4,0.336777561572392,-0.0233474983548227,-0.803602916200841,-0.124513298037686
3,37,4,-0.27751324157535,0.0195679052565383,0.16297238818737,0.337576845831651
4,37,4,-0.0745904244867495,0.00580683074230783,-0.0429303707230136,0.183502209115407
5,37,4,0.375841935016957,-0.0454685960991273,0.0194115546714397,-0.40897454271509
6,37,4,0.127819147254011,-0.0176140373752632,0.033358680713671,-0.010957154499537
7,37,4,-0.0976601896149279,0.00813334078532562,0.0243009295927418,0.133492406201666
8,37,4,-0.200772054576935,0.0163591481946566,0.153121134952338,0.234757599690351
9,37,4,-0.308879571989389,0.0286696895617427,0.0493417232050931,0.127466753368585
10,37,4,-0.0563265321074273,0.00435769158917087,0.125905436614917,0.0376156019464231
11,37,4,-0.104528440810098,0.00523064298832585,0.0304963717746486,0.186521994424779
12,37,4,-0.0454253351569975,0.00420440507230296,0.067460965365548,-0.0706654212271318
1,38,4,0.243356380137174,-0.0231391260893119,0.321790478440037,-0.405037570314062
2,38,4,-0.0849973790371484,0.00587857773650574,0.0785028749512742,0.127177209115194
3,38,4,0.00447049202703696,-0.00295781682456909,0.20100217796824,-0.15731892782237
4,38,4,0.488698926303278,-0.0669845060983404,-0.137176366138364,-0.414338618723645
5,38,4,-0.563452821062868,0.0372518136129667,0.548904501654548,0.0421488179065142
6,38,4,-0.132459444521854,0.00486604303374166,-0.262081397169431,0.542400411087308
7,38,4,-0.0167100650461292,-0.000558601658384821,0.174587411256189,-0.236452150434918
8,38,4,0.100869394808706,-0.0115166030937178,0.0243658097883055,-0.155630424618272
9,38,4,-0.322286910085225,0.0242436213822342,0.153760938194974,0.359837272375027
10,38,4,0.286311674685302,-0.0266091577857984,0.243980649541886,-0.391650288249471
11,38,4,0.296321039450809,-0.0348657140049763,0.291934544706682,-0.454603872214343
12,38,4,0.173234099713397,-0.0198005451993676,0.233324125774061,-0.36914332352946
1,39,4,-0.133294500721537,0.00908601949630929,0.115620123114329,0.164065872023787
2,39,4,0.23111434527266,-0.0277763646855132,0.416063046399148,-0.508500543159592
3,39,4,-0.107352161006968,0.00809698407847599,0.00823884375557947,0.164707087448878
4,39,4,0.307018506594709,-0.0357861102814344,0.269510601154575,-0.410345662822752
5,39,4,-0.293987510620568,0.0239950720375382,0.0843022416322542,0.384276570612582
6,39,4,-0.126313757004599,0.00851063178831556,0.133718824123261,0.152166943514126
7,39,4,0.338989669741095,-0.0224602982992919,-0.691930338204005,-0.193670550160074
8,39,4,-0.246646762000487,0.0268915247500919,0.19083631231806,0.0846752446823382
9,39,4,0.234421606212704,-0.0294129111634498,0.379113633063825,-0.538162390169343
10,39,4,-0.160202295661539,0.0117590060562595,0.0877382886699636,0.163875892053111
11,39,4,-0.156830908813205,0.0132363803941136,0.106598131086444,0.208689015828389
12,39,4,0.00465554967141036,-0.00123375526022108,0.128477454350445,-0.194519791758446
1,40,4,-0.330475856183363,0.0237375578391906,0.26073183253637,0.410885158765388
2,40,4,-0.0175355526476461,0.000315396766472045,-0.0870783386890571,0.0728458047131121
3,40,4,0.104669702869749,-0.0024023445279,-0.40469905564283,0.0265604112120165
4,40,4,0.10551771727125,-0.0100248118305693,0.094978588171086,-0.383682057176401
5,40,4,-0.257740749253583,0.0149125455073482,-0.0722592099876106,0.684654394949233
6,40,4,-0.0216055968694639,-0.0120701276445151,-0.60285643487974,0.80160754525892
7,40,4,0.418165974216792,-0.0318929546310189,-0.70380378000823,-0.222840561741326
8,40,4,0.288933287682644,-0.0324662419935411,0.26611555351371,-0.42975989146798
9,40,4,-0.0636322473285826,0.00484528701273191,-0.0335220887312673,0.121979794840184
10,40,4,-0.13913353639042,0.0093007303918811,0.151691035224821,0.21882172812355
11,40,4,0.131939351733514,-0.0167235392113159,0.263725392292797,-0.391485378017784
12,40,4,0.441325109589308,-0.059751153433016,0.517260502633868,-0.735570305235347
1,41,4,0.316337936484797,-0.0323351136564348,0.393714353592832,-0.548514168995364
2,41,4,-0.0645858439895821,0.00288248768759997,0.0195837683566364,0.0960589661926745
3,41,4,-0.35304383640954,0.0251824730879936,0.196299284664574,0.406471468976194
4,41,4,0.0483069270659489,-0.00522438254743181,0.482166392630289,-0.46220863494643
5,41,4,0.115536492504102,-0.0130205363502122,0.13906686858115,-0.271715358192614
6,41,4,0.806790139558257,-0.101265654921741,-0.148493609665663,-0.878876835460579
7,41,4,0.253687015360708,-0.0251485008708061,0.210453352486224,-0.356178059513498
8,41,4,0.253553563654881,-0.0320116651433552,0.384482889140991,-0.551473399758516
9,41,4,0.108976379155604,-0.0105084980161766,0.0255069963979297,-0.180149602069643
10,41,4,0.336033889924483,-0.0441852681638896,0.481837585482299,-0.675360039147065
11,41,4,-0.177930368831582,0.0128099617775361,0.0637766855382667,0.185547392566248
12,41,4,-0.205940877679606,0.0195794314914412,0.145868391949438,0.0869779541946878
1,42,4,0.346753606997977,-0.0199787977008435,-0.676364312085484,-0.139057540912267
2,42,4,0.244081169027639,-0.02603999218803,0.363827128170055,-0.551501017846428
3,42,4,-0.164277755576576,0.0125794456374369,0.050669225000211,0.203497212302956
4,42,4,0.010294674523044,0.00437576535967537,-0.124208977883665,-0.12797180963042
5,42,4,0.242979466932046,-0.0350510514455146,-0.0390992169389065,0.0131588858262842
6,42,4,-0.117281108612344,0.00934095305466802,0.0238589297937691,0.145583097838799
7,42,4,0.336558730868397,-0.0398321748833949,0.252283651973673,-0.504072765838
8,42,4,0.0711275985835587,-0.0065004095541314,0.00362405144905815,-0.0780466343069893
9,42,4,-0.0895332584963485,0.0117443304075131,0.267965853675481,-0.169186683867377
10,42,4,-0.081280525192329,0.00683900997746016,0.02185453489292,0.0984511068401467
11,42,4,0.161169328504858,-0.0199488788610903,0.254615992102405,-0.396273147287749
12,42,4,0.234661215060426,-0.0201697623829205,-0.502710986264306,-0.0955261048447822
1,43,4,-0.153255267693589,0.0111637939294262,0.0167366544531218,0.230254079715153
2,43,4,0.0157749612511204,-0.00262836094217653,0.139386601974873,-0.0966387183808578
3,43,4,-0.155702193037968,0.0142184909285913,0.171874727337739,0.0158762143448024
4,43,4,-0.398743597131723,0.0313106024246988,0.216034317136598,0.405125800449118
5,43,4,0.13083325140766,-0.0137223544339158,-0.00593078809858906,-0.0865980807428658
6,43,4,-0.291163414905044,-0.00556180336164763,-0.308485099114031,1.29472592861468
7,43,4,-0.0366152158068136,0.00122150347051367,0.00359656574048472,0.0331464369162491
8,43,4,-0.771271877166372,0.0519463698970225,0.485443261731605,0.261578714454729
9,43,4,-0.0320340073124238,0.00271650971201466,0.0242914837590425,-0.0964334794301913
10,43,4,0.0412622169349968,-0.00624570171959564,0.145160919169008,-0.194248382779335
11,43,4,0.165241255254484,-0.0209111948796794,0.241729861924008,-0.37992502169591
12,43,4,0.0643952230730745,-0.0127541162644961,0.340235758256594,-0.452627043048661
1,44,4,0.259058247976102,-0.0172686686234349,-0.51580050589104,-0.0470758909529362
2,44,4,-0.277784690991335,0.0234779880443717,0.195307131399391,0.198681042424705
3,44,4,-0.45072800021937,0.0344194208608995,0.330059065745141,0.28262152087364
4,44,4,-0.18832916669824,0.0165463264751457,0.16494459535772,0.0182321239116181
5,44,4,0.0916243904149072,-0.0116209558720863,-0.0623517284296468,0.0691642994948756
6,44,4,0.125243350960532,-0.0128515624252933,-0.0113939662762396,-0.0959637101668333
7,44,4,0.362730583342581,-0.039434922352869,0.343562740148466,-0.514270855450752
8,44,4,-0.131207075987019,0.010000336728584,0.0400319863170546,0.151594483678419
9,44,4,-0.632919861388825,0.0450989362937525,0.189042833689234,0.680289980397179
10,44,4,-0.176221882638427,0.0136138630616012,0.101516170103837,0.227235804297901
11,44,4,-0.0813499327750425,0.0052704645139229,0.133363630454549,-0.0433137266185624
12,44,4,0.439632265013211,-0.0598847523529222,0.530635090618343,-0.74969387820479
1,45,4,-0.177006647825096,0.0143040800196588,0.169651697567364,0.249978313389109
2,45,4,0.266021418813006,-0.0231686156505375,-0.106712270775635,-0.287246662906048
3,45,4,-0.366648837046914,0.0313693923652612,0.332934493517641,0.148402186549068
4,45,4,0.325458999232554,-0.036143733986428,0.37056783151216,-0.542784303411563
5,45,4,-0.241740103591281,0.0230466761485416,0.0954076158725919,0.32010845255507
6,45,4,0.205902352139286,-0.0194697247433235,0.00794142795384166,-0.160320651521019
7,45,4,0.170747813541246,-0.0164637968355845,-0.365612316661812,0.0805264691524886
8,45,4,-0.1177448532722,0.0099060971246563,0.0256962738034899,0.114388491911501
9,45,4,-0.0383624982728138,0.00347775220362907,0.00145582754981792,0.0206271555032153
10,45,4,0.193154231410115,-0.0190833485426068,0.0197842866603702,-0.17528628884049
11,45,4,-0.406668122368745,0.0335539116618071,0.178170594127378,0.281489061522653
12,45,4,0.115177257215114,-0.0141528855914686,0.0677321866284518,-0.260988366826632
1,46,4,-0.311338827423144,0.0216741071620343,0.17313164485969,0.377369934961809
2,46,4,-0.506371848609649,0.0313008717572207,0.176736250406191,0.784085366647325
3,46,4,0.153229286988682,-0.0124424892837228,-0.526925825577278,0.00305418475136471
4,46,4,-0.368761114758393,0.0250156173576185,0.0215124640756531,0.647941468779087
5,46,4,0.402779869946394,-0.0490875142379793,0.236724820432352,-0.365474785069439
6,46,4,-0.164157651451111,0.0105567215711108,0.00323472158413549,0.413618029450478
7,46,4,0.366896850521227,-0.0390692953163291,0.323812835867888,-0.493179235494263
8,46,4,0.257898372373824,-0.0223753477325064,0.0362185151581688,-0.227913817578751
9,46,4,0.240615668291192,-0.0269372431216794,0.185953261498448,-0.340040521547225
10,46,4,0.296758141093373,-0.0252137762411143,0.29200520211432,-0.427838680183391
11,46,4,-0.0816360621560093,0.00736632625519946,0.107572148342955,-0.0170124002183747
12,46,4,0.00277807077158898,-0.00087414400561011,0.123300608173037,-0.161326941269051
1,47,4,0.177006057890137,-0.0149773929064759,-0.418888131069378,0.0932441677640914
2,47,4,-0.0258635179718646,0.000727316846230036,-0.136059808553251,0.196187663895594
3,47,4,0.0519190603099651,-0.00660568780959053,-0.323395725214266,0.19888734939783
4,47,4,0.212173528157446,-0.0235337500905023,0.223625713962432,-0.362817538077488
5,47,4,0.0722046506926632,-0.00815438310816765,-0.00457511322419489,-0.0721698422546866
6,47,4,0.231867737844602,-0.0345238179110274,-0.0299052821948954,-0.0310707061458604
7,47,4,-0.0433054605562097,0.00248455481528428,0.000801493985276139,0.025722830756463
8,47,4,-0.435050908522134,0.0348802426140656,0.189149475898518,0.306300156616464
9,47,4,-0.0550572410465968,0.00471672088944865,0.0118039311002618,-0.01760465165263
10,47,4,0.390195719208722,-0.0295469117816747,-0.759856196152539,-0.194215878440722
11,47,4,-0.123030617965239,0.00838595287327767,0.0666833777463629,0.172091962044858
12,47,4,0.0216290901706714,-0.00291358783542109,0.180942753882398,-0.24694954170925
1,48,4,0.222273184253282,-0.0323465388469712,-0.666564782822144,0.00407843397977159
2,48,4,0.282008405017585,-0.0243007263689723,-0.253689787779116,-0.306190993781085
3,48,4,0.198102720765868,-0.00944880928600461,-0.398639470450403,-0.191852305472626
4,48,4,-0.00893893464522977,0.0011184899434411,0.490446267587855,-0.442651954800898
5,48,4,0.178770729693518,-0.0196613228815281,0.0622285878188158,-0.243081035495214
6,48,4,0.00643038026566615,0.00155296397484742,0.14309738029036,-0.208226631740104
7,48,4,0.364972884661005,-0.0410382504950762,0.355033515513581,-0.533973971895819
8,48,4,0.356940921111085,-0.0468154648406915,0.443806177264248,-0.648703830426572
9,48,4,0.0202159232106799,-0.00255800826142552,0.122191086873252,-0.177949502004809
10,48,4,0.200387529076248,-0.025196151682649,0.276586545620829,-0.424280632366922
11,48,4,0.201956034148033,-0.0166063845905134,-0.541680921146672,-0.048370042052165
12,48,4,-0.342499547436396,0.0310007893304253,0.218973254017622,0.213350084394738
1,49,4,-0.124559572638112,0.00471973536596194,-0.0118045426003138,0.418822674246556
2,49,4,0.0376981491479325,-0.0035814902162153,0.160844187238351,-0.181731616858158
3,49,4,-0.399014550542202,0.0308031619963902,0.278502737731319,0.386631133197905
4,49,4,-0.011822650147971,0.0029836966130908,-0.0927978726588464,0.0292462560603817
5,49,4,-0.337834690002677,0.0278475205043476,0.227363881987736,0.252610851313
6,49,4,0.24924783830805,-0.0284728406897485,0.117561393152017,-0.188805555283128
7,49,4,-0.248359139063322,0.0196151365655837,0.221641647154805,0.19187040326046
8,49,4,0.0963118431772484,-0.0120652252262058,0.195021859722175,-0.309970636585353
9,49,4,-0.121769699671386,0.0105961462214151,0.194130397509907,-0.0433132147909266
10,49,4,0.0780135806513413,-0.00752149305803957,-0.212388240576228,0.000956136192219601
11,49,4,-0.211123297656333,0.0172050161268797,0.124559232005751,0.215703865176168
12,49,4,-0.24678872195854,0.0234380907445923,0.122530476118496,0.166264525624421
1,50,4,-0.328571738794286,0.0224898857105788,0.224080930925726,0.365945631688112
2,50,4,0.182774210995965,-0.0204521828799681,0.296588606839168,-0.373133671651976
3,50,4,0.175891721650236,-0.0101805232736813,-0.482064254053337,-0.0687118640702357
4,50,4,-0.00872346430448217,7.23317389067534e-05,0.00366677071250132,0.0716366729798405
5,50,4,-0.174061577963922,0.01184323930486,-0.0666571812800968,0.446416329556956
6,50,4,-0.0671606158284504,-0.0395605123182258,-0.586131578591415,1.39770012798054
7,50,4,0.540195872796,-0.0580605431858005,0.46594045701766,-0.687708712473694
8,50,4,0.130559073095348,-0.0150893607211943,0.0311988758588516,-0.209001605212547
9,50,4,0.190409822300942,-0.0233472417654556,0.318298456695248,-0.472389793582519
10,50,4,0.0867858791265141,-0.00854857089638809,0.0105486436381153,-0.0862686378705058
11,50,4,0.0890576913380025,-0.00205841350961406,-0.15981602561837,-0.075006715121822
12,50,4,0.371705188334473,-0.0437014845994355,0.37373490644266,-0.556027423960042
1,51,4,0.0629167034743586,-0.00591458577997862,-0.27806001383345,0.0821191177941157
2,51,4,0.00117803570233686,-0.0020306163959752,-0.200360808396694,0.191327504785165
3,51,4,-0.311046269064597,0.0249633589853299,0.192665528066357,0.279829852902733
4,51,4,-0.514803330659753,0.0318457373747296,-0.0241670076680213,0.895338519411978
5,51,4,0.282607345799851,-0.0348690650938131,0.40937900578488,-0.610044891344639
6,51,4,-0.096628293073934,0.00875711346913927,0.0527799567430372,0.175578560778836
7,51,4,-0.620249565156184,0.0495153691208849,0.359813614006246,0.405502454078085
8,51,4,0.573551032838256,-0.0839598344376891,0.632265603076363,-0.892440072052387
9,51,4,-0.131443517139433,0.00471249807656459,0.0571010633659798,-0.00034254372770755
10,51,4,0.0575034472024513,-0.0071656982829661,0.142168932073355,-0.222761767466927
11,51,4,0.530735861650993,-0.0635275834469461,0.50017492033477,-0.73773666770853
12,51,4,0.156252711719563,-0.0179648146793557,0.224853584400834,-0.360051112301327
1,52,4,0.307230108534089,-0.0271316989363433,0.210324919051687,-0.42466282382208
2,52,4,0.0398967698538783,-0.00604846711843188,0.164027388771461,-0.160465498572001
3,52,4,-0.597299050559665,0.0415211733683894,0.212913495199536,0.757570265913704
4,52,4,0.378785229447693,-0.0584550858433345,0.606983418323099,-0.894124771703363
5,52,4,0.139309672140292,-0.0146829429684071,0.0478212789508664,-0.226133986806856
6,52,4,-0.0625351866874258,0.00896749937706633,-0.00930389870879548,0.147642662907231
7,52,4,0.0173600566191012,-0.000540844747367977,0.0423209810482322,-0.0596449705123568
8,52,4,0.249213678849584,-0.0265681844505735,0.276109539957254,-0.43863415288979
9,52,4,-0.194068698360994,0.0233018385950636,0.121506511262579,0.0849579261560429
10,52,4,0.0444336179926342,-0.00490175519701659,-0.00496553172894431,0.0090125804779567
11,52,4,-0.497519017814743,0.0384782167198595,0.208843371587772,0.432962453284306
12,52,4,-0.155331098783545,0.0134491586596542,0.113746654613724,0.12672196551816
1,53,4,0.335935608885291,-0.0358697466162885,0.413767735364313,-0.582857281874968
2,53,4,-0.0992885694963752,0.00378915335162909,-0.0762544715551727,0.26146853125431
3,53,4,-0.0489505847763487,0.00271172748577077,0.16008370582976,-0.118639500004135
4,53,4,0.140828970167824,-0.0163291651639913,-0.0179549878705925,0.0414140523340277
5,53,4,-0.118011707198331,0.0104960208990908,0.021400165074478,0.149923014663325
6,53,4,-0.346121133290452,0.0173573551591952,-0.144163756382608,0.888751458256125
7,53,4,0.190895264294051,-0.0195776012857063,0.057026700775312,-0.260908054268464
8,53,4,-0.118505611020109,0.00927964632918231,0.0375335745597166,0.154238638657343
9,53,4,0.0919525108491672,-0.011242470809586,0.160158863428269,-0.277323736765256
10,53,4,0.137660070174086,-0.0147072494046725,0.0281924841634761,-0.199076588540043
11,53,4,-0.288279130021622,0.0273211841294652,0.0432927843051577,0.0738997531208079
12,53,4,0.128291371246773,-0.0169195705087148,0.299023431180477,-0.42918686326405
1,54,4,0.502728603415431,-0.0496314365447076,0.523947922681135,-0.714699454816136
2,54,4,0.188411067662755,-0.0138891023259911,-0.455900195287943,-0.0269939145456389
3,54,4,0.0133383937714445,-0.00177244198721559,-0.247159047513109,0.148796969826109
4,54,4,0.457051934701966,-0.0573495803392692,0.0696354289512959,-0.541715146191361
5,54,4,-0.0565020345601801,0.00636371767246524,0.124738721305988,-0.0587567307872587
6,54,4,-0.056859616826704,0.00379396793217106,-0.0050168935347042,0.186156259608988
7,54,4,0.253449141999585,-0.0306526361253926,0.323719598999439,-0.48325954257355
8,54,4,-0.0265431653267282,0.00443633169214945,0.138715137607905,0.00957867150109647
9,54,4,-0.261247678363725,0.0221011983131222,0.163408228119629,0.199500646003124
10,54,4,0.0116230704502297,-0.0105925068352138,-0.181392311414199,0.185991424714614
11,54,4,-0.260403203472184,0.019799372711837,0.176290568768291,0.251588827646922
12,54,4,0.0646398474440295,-0.00752417652605137,0.175331581807905,-0.265635452742981
1,55,4,0.130783411148077,-0.0119453394935029,-0.131628567486489,-0.126304498684679
2,55,4,-0.167190117459994,0.0106837961533944,0.0593112217353003,0.25492866759567
3,55,4,-0.364823223066509,0.0253881799483371,0.195108330487634,0.407516374793811
4,55,4,-0.380128885580179,0.0289502380687032,0.172684406843872,0.467370228037755
5,55,4,-0.353584038753284,0.0225582448034415,-0.0621615268398868,0.716720736591519
6,55,4,-0.0572871133821478,-0.0299888331586262,-0.605037164690896,1.18384752734516
7,55,4,0.646264741366012,-0.0802773236164615,0.595262589909483,-0.873093580221973
8,55,4,-0.278501219969006,0.0237376162323786,0.0829522303233775,0.197230254503352
9,55,4,-0.0218143965616346,8.48720408171126e-05,0.0960608247927444,-0.0784566399178458
10,55,4,0.495225718636887,-0.0555962456233189,0.47565170096211,-0.674814611955346
11,55,4,0.0152475468449736,-0.00563554388105797,0.245828997326917,-0.341493841089084
12,55,4,0.012890532924386,-0.00447228089679264,0.198225221209701,-0.291476227506887
1,56,4,-0.00808887393840175,-0.00342867895261083,-0.0936335283441995,0.258424606837825
2,56,4,0.231231885704814,-0.0168823089085935,-0.141756946337413,-0.308446343036212
3,56,4,-0.393370983464434,0.0290290507923181,0.202568948893502,0.437679448199296
4,56,4,0.269933475974769,-0.031978960851702,0.320474955803797,-0.452737668035808
5,56,4,-0.0762585389191221,0.000568812531427618,-0.328387290179867,0.471209830561415
6,56,4,-0.529340194142116,0.0314200144840981,0.0428092115894969,0.901460772506132
7,56,4,0.103566609988601,-0.0086103909218627,-0.196504888124297,-0.0224498683450944
8,56,4,-0.547357457213679,0.0384247742117068,-0.0625906063561424,0.86380087635466
9,56,4,-0.220467580425196,0.014849405320267,0.267100970268474,0.0345508514685615
10,56,4,0.204387772505523,-0.0173957370397839,0.0544290069570281,-0.259543010894491
11,56,4,0.149021890014878,-0.0172572048153178,0.220407142101458,-0.355029039422149
12,56,4,-0.0455826806469692,-0.00278472149681561,0.157032375124434,-0.196750629252844
1,57,4,-0.39590870323376,0.031317111667224,0.23977950956249,0.384970499083288
2,57,4,0.28440940082447,-0.028593343163579,0.355604150450024,-0.49442577001777
3,57,4,0.32382380191956,-0.0271663100284695,-0.146248518765369,-0.357789992142331
4,57,4,-0.400779706489963,0.0304797486713151,0.181818373780709,0.41573243478148
5,57,4,0.378169870335728,-0.0478390193681759,0.0751998695887781,-0.468258205713875
6,57,4,-0.168393830442458,0.0115039519036256,-0.184370384554157,0.451240913604699
7,57,4,0.364341044825241,-0.0368350070134312,0.290361412094852,-0.448367821893171
8,57,4,0.0202114628408481,-0.00417434451096629,-0.0767716966636428,0.0794780572308043
9,57,4,0.173496054747389,-0.0206304775811049,0.340295246895108,-0.489672516524425
10,57,4,0.317012440582387,-0.0298554747944907,-0.151529148426857,-0.354703908502453
11,57,4,0.195857621634104,-0.0180122601985807,0.122924450135006,-0.276930509394475
12,57,4,0.0764266720357566,-0.00871885304405995,-0.00377921842978524,-0.0195424629508087
1,58,4,0.11783723928543,-0.00971872369290554,-0.343693383530221,0.027039216715842
2,58,4,0.273299865313595,-0.020226059878986,-0.603341670890949,-0.150961059631661
3,58,4,-0.103754910893543,0.00868485859735291,0.0517553719910845,0.113121273035592
4,58,4,0.205240190984383,-0.0220044129521887,0.294955618500048,-0.48604496750025
5,58,4,-0.233649546014116,0.0193347580331001,0.12658369977176,0.22987447538545
6,58,4,-0.190859553619689,0.0145328972851863,0.0767369698686718,0.229538757936104
7,58,4,-0.000464940238578798,-0.000628373366397786,0.170702226932545,-0.141025383217158
8,58,4,0.278626017530486,-0.0358407094638258,0.402340420927458,-0.577717153681307
9,58,4,-0.34792524872412,0.0291488754377421,0.22742126238896,0.211942800645736
10,58,4,0.379155038272214,-0.0402363546533218,0.348156000461306,-0.514240904295379
11,58,4,-0.358310552347846,0.0332595436687494,0.225334671812865,0.177098209382045
12,58,4,-0.219327425647436,0.0177755172789917,0.157918940844474,0.0518291482141304
1,59,4,0.187692795153658,-0.0154398463660115,-0.551584189351162,0.0338082097828718
2,59,4,-0.321753469021627,0.0271446322824569,0.224011067737903,0.227344391069945
3,59,4,-0.00981337522289598,-0.00157100381659959,-0.00643281055661559,0.0458947261032456
4,59,4,-0.046120335986174,0.00569517794951327,0.0551525295848348,-0.0248364932702346
5,59,4,0.00458115081976283,-0.00203879704634336,-0.330068817014211,0.253656394086746
6,59,4,0.10751411867427,-0.0135032460666681,0.00446294502717,-0.0441521962478566
7,59,4,-0.123458834646036,0.0128062265951728,0.0299146206497247,0.135583696050173
8,59,4,-0.435669668544119,0.035586242763227,0.16596028643301,0.302125001040559
9,59,4,0.0318315487401341,-0.00388380638564485,0.134934718584386,-0.216245685582206
10,59,4,-0.169807612275305,0.0131525301474927,0.0380002112591925,0.141200331029117
11,59,4,-0.359694906452771,0.0275643533335434,0.199555009041427,0.312349850840876
12,59,4,-0.00911469130293437,0.000345436118219507,-0.0616575638736976,0.0669031215692685
1,60,4,-0.000775641201560826,-0.00112496779974009,-0.194312043954575,0.226679916853313
2,60,4,0.136895956786338,-0.0116293739104761,-0.453651152110704,0.0604301689982912
3,60,4,0.0478839954781923,-0.0059567621610533,0.00164710862995829,-0.0299149433304398
4,60,4,0.359639894971312,-0.0446235255306009,-0.0177637040867256,-0.360289219395021
5,60,4,0.261034393626444,-0.0313390961968949,0.0527140050925143,-0.1127170620563
6,60,4,0.119790129699792,-0.0145255674133265,-0.00525093807900083,-0.058492912518162
7,60,4,-0.181351362363482,0.0152165029295912,0.0528477989988003,0.168008225744905
8,60,4,0.27109310002794,-0.0327918559438943,0.275618614946651,-0.441595052087328
9,60,4,0.472741758386064,-0.0689663931765463,0.614628854882921,-0.86239302093096
10,60,4,0.542795054358179,-0.0715555134696246,0.573360029481835,-0.811972490707582
11,60,4,-0.445949344467804,0.0337567068246683,0.0443297723606679,0.674362346354024
12,60,4,0.207292894143137,-0.0245391252712817,0.289075545704482,-0.432779913849415
1,61,4,0.406662702041147,-0.02101448442512,-1.15871231205847,-0.279821437302653
2,61,4,0.146748375682332,-0.0126549949839524,-0.139880687632192,-0.185076885039622
3,61,4,-0.125608845240473,0.00974763806444933,0.0954222734409188,0.11079314539986
4,61,4,-0.512261404985071,0.0378018933596888,0.297436813691363,0.423191756410846
5,61,4,0.131061567966328,-0.0126021087674635,-0.0304077126634479,-0.0813165609842412
6,61,4,0.0989870374079301,-0.0125160213393511,-0.0387961087093928,0.0177141654751176
7,61,4,-0.0558683290701988,0.00312214510048831,0.0128462709880734,0.0841588550581784
8,61,4,-0.455218004221149,0.0330311706373323,0.238197638721741,0.415625834755866
9,61,4,-0.133748268400946,0.0102761118067973,0.029994247861142,0.123378063377537
10,61,4,0.514242658757381,-0.0673662137944185,0.54167528343399,-0.776324144245699
11,61,4,-0.13704473462644,0.0115282374233795,0.032508936468615,0.140659977886172
12,61,4,0.153168368011631,-0.0175367942469222,0.211795170303679,-0.349907049937345
1,62,4,-0.0569233307147955,4.81448834522473e-05,-0.0663205616928312,0.25658676232738
2,62,4,-0.401911607234377,0.0298615629419592,0.243787693797022,0.404025584475141
3,62,4,-0.299355745203672,0.0232740987709742,0.181362733529598,0.310923683712257
4,62,4,0.221877325367628,-0.0244925305729024,0.125822518460972,-0.199780069911516
5,62,4,-0.0364731568329394,0.00414340871297711,-0.000753322120737627,0.0823520050948167
6,62,4,-0.197242899442968,0.0023394188106735,-0.30536828216339,0.989746063657663
7,62,4,0.148782529142078,-0.0153119627474209,0.0400171425639097,-0.231855737890765
8,62,4,0.0735996652238331,-0.0081444696061571,0.165557214717331,-0.260123057091601
9,62,4,0.106936182491905,-0.0105256583840232,0.0202313862220553,-0.160275723598299
10,62,4,0.267174446442837,-0.0241829810400063,-0.443365392513257,-0.0352473153785741
11,62,4,-0.0554083537254537,0.00241783818136264,0.0250264859460379,0.128529973602618
12,62,4,0.106318706524371,-0.0096823399804523,0.130723572002976,-0.199404981549011
1,63,4,0.196402755014629,-0.0141744533058083,-0.289849333243832,-0.18354313120277
2,63,4,-0.0795879034753835,0.00343700886039362,0.00678830819885413,0.134248166246563
3,63,4,0.16777643659131,-0.0154904345351312,-0.0121960717842082,-0.243404439970532
4,63,4,0.615380682344798,-0.0802838451067672,0.152739383591508,-0.741261283945381
5,63,4,-0.659638405111711,0.0463650973167352,0.369668707852396,0.488545121071657
6,63,4,0.197035388124034,-0.0175140789774455,-0.0418701735792031,-0.0990571817587177
7,63,4,0.0796080975971496,-0.00538810522182423,0.0289122205121286,-0.172977910448184
8,63,4,0.460619107682307,-0.0638596425001172,0.551714244989284,-0.788802547535808
9,63,4,-0.141362906539215,0.0127436697656228,0.0624051787891072,0.199087122919923
10,63,4,-0.112923464492937,0.00939020328537074,0.163825932766244,0.0200101600382343
11,63,4,0.208397917284987,-0.0222963263260626,0.19785927646929,-0.351029711076828
12,63,4,-0.249464651811702,0.02957166033694,0.188800712010263,0.0900032641940184
1,64,4,0.187817491206194,-0.0220182555632587,0.322875116273811,-0.409542484601515
2,64,4,-0.461276113820477,0.0338736373905223,0.2354168834819,0.426488285734984
3,64,4,-0.0690364996959654,0.00467296575097925,0.266560593708819,-0.0369061341504629
4,64,4,-0.0797384816825798,0.00443865338273691,-0.262086907790781,0.444721044380151
5,64,4,-0.170008090298459,0.00373754454434506,-0.279627596459957,0.723412941402501
6,64,4,0.542646885306585,-0.0710840660317357,0.332736731958023,-0.514189182296913
7,64,4,-0.36830879105034,0.0305499052587799,0.152918810627293,0.285444922636864
8,64,4,0.139797914795289,-0.0123269535150535,0.0264912265139635,-0.196653944344026
9,64,4,-0.523236740567854,0.0408994522858879,0.144317055371122,0.487131207092267
10,64,4,0.116503778614712,-0.0104754434350509,-0.00738609251796689,-0.0316349346883175
11,64,4,0.00600163964091711,-0.00145543635405473,0.0144790438562116,0.127440005865658
12,64,4,0.1786700839834,-0.0226013268895379,0.313965048629015,-0.467279483948381
1,65,4,0.262247575558198,-0.0141624638477427,-0.618883953627243,-0.0901354763644787
2,65,4,-0.565740367258084,0.0419319788540912,0.400405537180844,0.466544503130656
3,65,4,-0.0473951041436245,0.000902388889339738,-0.0695412041517412,0.229930085815837
4,65,4,0.0891725879567808,-0.00885642743625418,-0.00258146857423491,-0.0235688449082448
5,65,4,0.446813111548354,-0.0470416977904557,0.513276479668564,-0.726223383641665
6,65,4,-0.335441661164722,0.0137465376119808,-0.167957342027364,0.938848346169889
7,65,4,0.213515060788225,-0.0186108509343546,-0.347671989756933,-0.0486885263700588
8,65,4,-0.0985031042516998,0.00825614994328177,0.122489674900368,-0.0786927802851627
9,65,4,-0.0897294311040505,0.0113638447521627,0.105375103608152,-0.0208474150100223
10,65,4,0.238015420317758,-0.0226354754862428,0.310434494678926,-0.472375627034277
11,65,4,-0.0980755168127024,0.00854974989007072,0.192188893875959,-0.0572935119038657
12,65,4,0.0209973631898402,-0.0079987405653662,0.410775925496863,-0.398700826130522
1,66,4,0.182023272185794,-0.0151809819125264,-0.407605814224638,-0.00555481813821061
2,66,4,0.202599840855294,-0.0145175159701831,-0.599225187794818,-0.0729322675615567
3,66,4,-0.484762079123028,0.0331742260265203,0.232451517264729,0.491332774685285
4,66,4,0.180242881668849,-0.0208441415028144,0.553448355799483,-0.603408982175988
5,66,4,0.346268383055634,-0.0402336440805687,-0.0593140245450762,-0.221457680067514
6,66,4,-0.343077313154178,0.0256146059700114,0.18921717952768,0.374371310461743
7,66,4,0.0497860083847015,-0.0058783981667394,0.00957443694306928,-0.0623169416349694
8,66,4,0.116365358075804,-0.0133382400793134,0.0341084854936775,-0.193878545928867
9,66,4,0.0685538873539586,-0.00674697725213407,0.0164262975736905,-0.128200256924558
10,66,4,0.540885026485711,-0.0552999609753297,0.466817625162239,-0.665564792669293
11,66,4,-0.0869713598390517,0.00779863948401515,0.0970419146614028,0.0420419283717735
12,66,4,0.076269645296753,-0.0121807500240339,0.302760571008675,-0.42731741339155
1,67,4,0.268616431539707,-0.0201346297059756,-0.210254642690265,-0.201375967795318
2,67,4,-0.718778181279688,0.0491965613549995,0.406608182612233,0.660778722130264
3,67,4,0.231084103158616,-0.0154055252020555,-0.659085302983669,-0.121737980367038
4,67,4,0.0842843005396743,-0.00894577218344138,0.524754660841241,-0.51929209549122
5,67,4,-0.152080439192272,0.0069951359375996,-0.01008363424616,0.468895598838976
6,67,4,0.171006403971048,-0.0204134028572678,0.0739612779162616,-0.114278309208599
7,67,4,0.211857863167398,-0.019674406411375,-0.443549021309677,0.0428833294883298
8,67,4,-3.50150673365109e-05,0.00380262213306427,-0.0732701865594178,0.107272767795306
9,67,4,-0.0514902681586691,0.00781430578095646,0.0802786439283312,-0.0497380066462981
10,67,4,0.444195923966672,-0.053206071120721,0.456681190699548,-0.655620585316233
11,67,4,0.648622279469836,-0.0854931469551051,0.63760743825185,-0.914604917878132
12,67,4,-0.00622029775568041,-0.00245168380146239,0.185068453572523,-0.311805579868344
1,68,4,0.0300065687265241,-0.00809337840954348,-0.313389392569984,0.212336326481611
2,68,4,-0.204912338452758,0.0153831074276312,0.123233481254762,0.199326301385917
3,68,4,-0.201447002649828,0.0125271646653803,0.0531017956196146,0.295599251934213
4,68,4,0.0547238533368249,-0.000390659806475407,-0.147281162530955,-0.132705522094867
5,68,4,0.0726077586863206,-0.00575402447902488,0.0859737782589307,-0.17574263613152
6,68,4,0.149630163341161,-0.02208030185199,-0.0560277531498302,0.0986053664303783
7,68,4,0.464949582191629,-0.0497090967388851,0.429520319906957,-0.610415757232546
8,68,4,-0.256464643118513,0.0220270794359618,0.260811511223662,-0.111759226636685
9,68,4,-0.227166270349842,0.0197897362815522,0.0942101625734305,0.189721940948459
10,68,4,0.287579805920918,-0.028501005656068,0.191579968843241,-0.362295904286441
11,68,4,0.105220697361219,-0.00910011640904498,-0.243620324515792,0.0832858075396169
12,68,4,-0.183632542639726,0.0168482251969611,0.0358526090161594,0.115502040102521
1,69,4,-0.318156147803286,0.0224419628096425,0.167994187491463,0.363327120373096
2,69,4,-0.280486486791919,0.0197525630358129,0.142342684917173,0.339318731584649
3,69,4,0.0167666400199599,-0.00404375481096591,-0.233050025421984,0.191545428544285
4,69,4,0.278681442062742,-0.0344372206021958,0.387160034537764,-0.587242057691564
5,69,4,-0.0782581694246463,0.000368433038805024,-0.31465323944342,0.442830690265015
6,69,4,0.175281469374869,-0.0243556160310256,-0.0120893944694589,0.0296928879855197
7,69,4,0.0160038622293789,-0.00135660427708055,0.0134191723684663,-0.0675525364120317
8,69,4,0.271922791033893,-0.0245911423990213,-0.451394048502577,-0.0484757524531827
9,69,4,-0.106235523242171,0.00895794854128973,0.183432502106155,-0.159792806648022
10,69,4,-0.475042645027932,0.0335607108008346,0.150978469719617,0.63705764606846
11,69,4,-0.478276739040107,0.0351042651083653,0.235732825197465,0.530811367578328
12,69,4,0.0387235740638021,-0.00339310861494523,0.0175155253553203,-0.104069587660117
1,70,4,0.352018525189881,-0.0400101495432457,0.53623078537791,-0.673233304342373
2,70,4,0.157287944923112,-0.0128606350216627,-0.446990646035855,0.0583906489690994
3,70,4,-0.300242003723074,0.0258760238595207,0.23277687372178,0.170829619634716
4,70,4,0.299569012152179,-0.035550898957064,0.161067895103269,-0.42794244174274
5,70,4,0.191597510822083,-0.0203150115876517,0.166987386684401,-0.344043638938564
6,70,4,-0.357575311900166,0.0217785195237432,-0.0470064750860394,0.828831853073679
7,70,4,-0.416908989414317,0.0341972803614716,0.191699899190816,0.288112094741435
8,70,4,-0.182862277916619,0.0176899531026916,0.0643805161411763,0.186358574660848
9,70,4,-0.253482275119919,0.021117530160644,0.116588394177418,0.21150044472698
10,70,4,0.220079258469924,-0.0198209867213567,-0.35548667185986,-0.0546345810768111
11,70,4,0.0931500894730149,-0.00693071999384771,0.0460682503548812,-0.218358076223603
12,70,4,0.256547451441188,-0.0315462201857898,0.35417429963662,-0.523453664305703
1,71,4,0.53473854906085,-0.0218202474801075,-1.32931839565094,-0.552568227314871
2,71,4,0.308697669434619,-0.0210626751615083,-0.70866080197543,-0.138848522970149
3,71,4,-0.028387064286366,-0.00159840477347219,0.27486556371032,-0.256698067458757
4,71,4,0.397497041118614,-0.053576839622972,0.513130409096366,-0.744800814997772
5,71,4,0.388213922608836,-0.0458862327963513,0.28228059407757,-0.425959148550769
6,71,4,0.247663821126099,-0.027557974063364,0.163686706125315,-0.25956112701551
7,71,4,0.0972372987050623,-0.00952161018900039,-0.205756038468182,0.0441076269664442
8,71,4,0.195393823956192,-0.0221115916480301,0.0639642986780372,-0.284554020179322
9,71,4,0.33273305949431,-0.0345069972645193,0.303475492249129,-0.532881353743082
10,71,4,0.382264916617756,-0.0354136785382191,0.27133723919068,-0.427796069878594
11,71,4,0.0748997878028159,-0.00924881080324598,-0.113300710445858,0.0408093394107482
12,71,4,-0.147308209263239,0.0200611966950493,0.123387429818828,0.0447707197551091
1,72,4,-0.298586961866369,0.0234276373324072,0.124335415797018,0.328726376801355
2,72,4,-0.010436503038919,-0.00132876119363061,0.015394565034809,0.0191436066356555
3,72,4,0.368358945996013,-0.0213914607868668,-0.88874756900967,-0.343282121371039
4,72,4,0.00641970465590769,0.000111754095158848,0.489942845347119,-0.450180791309785
5,72,4,-0.0626041753292739,0.0118799634779287,-0.00359730140186527,-0.215507305218033
6,72,4,-0.308228196476214,0.0208955327835193,-0.0626050745237076,0.615019819286893
7,72,4,-0.278650608040055,0.0212286780266305,0.148515031889289,0.262043747161317
8,72,4,-0.207148908078511,0.0222376135578441,0.193307043680925,0.050144827249711
9,72,4,-0.128913661516644,0.00909744833697957,0.151104880952296,0.0586689401245022
10,72,4,-0.457475472390643,0.0338871765670276,0.141855539398035,0.530042622938791
11,72,4,0.0620253879042602,-0.00634345575179636,0.0258757470893019,-0.156128761903164
12,72,4,-0.0441884293132828,0.00429007439680064,0.0779125822682115,-0.0448874356061256
1,73,4,0.141170812336626,-0.0143688882690981,-0.453519786964813,0.112546040677993
2,73,4,0.227190229221954,-0.0243326598988783,0.136643886542527,-0.385455531061374
3,73,4,0.174849053561402,-0.0147659300581007,-0.456646137229187,-0.0240394408894431
4,73,4,0.381914801347114,-0.0490936904961832,-0.0983785887611241,-0.299766912137845
5,73,4,-0.354325328542092,0.0253334037046138,0.198346286815739,0.525241835159318
6,73,4,-0.287686892634746,0.00945617022226691,-0.188472874157547,1.01432858956614
7,73,4,0.275065813971407,-0.0248221498637216,-0.445411710913796,-0.133616416260683
8,73,4,0.111023055309028,-0.0115228869117029,0.0522907380680649,-0.238961397281957
9,73,4,-0.219905531819185,0.0191907925854136,0.092778692350131,0.163085891087591
10,73,4,0.0429480265522612,-0.00521527934019336,-0.149002825391215,0.106839189221603
11,73,4,0.0239529738602142,-0.00324371929439953,0.126021230000983,-0.11699421546479
12,73,4,0.361862296768256,-0.0458279240080404,0.384248560232229,-0.567117943048224
1,74,4,-0.0860573326667918,0.00554396013660677,-0.0602699991915294,0.234815318489788
2,74,4,0.177384528046483,-0.0142292891726937,-0.312233236582426,-0.12786808615995
3,74,4,0.246177332913112,-0.0195717183170236,0.296887631498304,-0.427412090295001
4,74,4,0.558290755520363,-0.0712544800284413,-0.0861604481252298,-0.574670938658556
5,74,4,0.341309652162601,-0.0424360116748627,-0.060197484990322,-0.257072147941491
6,74,4,0.344210999186033,-0.0394142137784351,0.252042617320839,-0.377230240272936
7,74,4,0.258273614021934,-0.0248077944518056,0.246949856013716,-0.402164410519275
8,74,4,-0.0330564544090986,0.00476384227550106,0.157075719101285,-0.179999562966181
9,74,4,-0.0101543177418128,-0.00253853364167891,0.220279601396044,-0.313669752054278
10,74,4,0.0509739739223255,-0.00401046339032931,0.130354888717607,-0.191562066326394
11,74,4,0.179562244301329,-0.0191919220869894,0.183165495280843,-0.327146911010703
12,74,4,-0.273465459498507,0.0255090338939109,0.178218382838129,0.167385063480751
1,75,4,0.354640517025263,-0.0237733954620126,0.309812000062692,-0.456243101210093
2,75,4,0.0921892089035891,-0.00742768728492441,0.0479799706772819,-0.0812096800715787
3,75,4,-0.085797712532897,0.00513870224779793,0.245316084531537,-0.0154608457616849
4,75,4,-0.319090670367056,0.0229302521177643,0.0337955450598946,0.538007563304485
5,75,4,-0.128047627107791,0.00987760604854734,0.026706382619933,0.22346533372305
6,75,4,-0.00943639876659144,-0.00896377453631617,-0.0125690186211637,0.247792053070725
7,75,4,0.176053381013186,-0.0178116328898011,0.0214809249305982,-0.199065793661843
8,75,4,-0.0292925634751156,0.000474983153838798,0.131063250231998,-0.102852621180706
9,75,4,0.349166902067725,-0.0415587365525043,0.440791936707973,-0.627519110432627
10,75,4,0.291023109982567,-0.0341660855308688,0.289171927219373,-0.455521341493108
11,75,4,0.347988418863836,-0.042487818512444,0.376178453405746,-0.566033624492133
12,75,4,-0.00728961383665117,-0.00251694265459349,0.131703633790912,-0.230470131845075
1,76,4,0.0636138496309632,-0.00749602357881214,-0.304987964942505,0.199125102195478
2,76,4,-0.202753208912501,0.0154783750814649,0.121963009966036,0.200120910035073
3,76,4,-0.723602658267184,0.0519982420054038,0.508746128626693,0.315199242475811
4,76,4,-0.513311443345647,0.0371582204614086,0.182629058706072,0.51949417184706
5,76,4,-0.182793721515897,0.013653665474045,-0.169103681561704,0.504759608558508
6,76,4,0.198994019146988,-0.0275680247199858,0.0324934801949519,-0.053872092044574
7,76,4,0.333132357495145,-0.038789434047797,0.333897721646641,-0.516413269965167
8,76,4,0.0946265691457097,-0.00983322676369754,0.216073353727033,-0.310149796354689
9,76,4,0.113334997697021,-0.0151768935235345,0.278654840000479,-0.402895934403131
10,76,4,0.0880403700289922,-0.00849738942345341,0.167701322764314,-0.270492484113035
11,76,4,0.380960518517158,-0.0514126217216891,0.508244624220163,-0.72358126707966
12,76,4,0.1713372431419,-0.0152323382134098,-0.34027138483559,-0.0807897272940973
1,77,4,0.0863826630495705,-0.0131230898433563,0.374415242082538,-0.34907630589862
2,77,4,0.245490294056129,-0.0181473206281098,-0.0468599832957529,-0.352990404015246
3,77,4,0.192548284606945,-0.0191107212402378,0.0401968391860277,-0.33900229075033
4,77,4,-0.0730766729714585,0.00835053219051718,0.0145894831887051,0.111998011752675
5,77,4,-0.214918424847724,0.0187629038004248,0.114058572435517,0.12461761687273
6,77,4,-0.177444877886601,0.00863747803310413,-0.260085553861307,0.632141002795076
7,77,4,-0.271381599767405,0.0210322417538644,0.217042310288152,0.246115075645451
8,77,4,0.0761764479179958,-0.00910412307938415,-0.223789195234363,0.153826855856317
9,77,4,-0.0458510240527516,0.00228862540295069,0.0869543788368751,-0.0422772297491217
10,77,4,-0.298868680939795,0.0251135811951764,0.126633121362251,0.224978282021305
11,77,4,-0.196486448925371,0.0198073894072168,0.101202400321927,0.181785251113275
12,77,4,0.464289994252396,-0.0632317486264481,0.488003101471453,-0.69787239277091
1,78,4,-0.109702122334038,0.010112553796514,0.2691565187312,0.0696590184906648
2,78,4,0.422407625872352,-0.0218103202593583,-1.00144792309615,-0.379649021410653
3,78,4,-0.305796282776836,0.0259344167837748,0.169053630893401,0.23763086376707
4,78,4,0.469962351651798,-0.0591780051891385,-0.0226494323498097,-0.502199358408987
5,78,4,0.0064258552871571,-0.000643345592173251,0.084726407262875,-0.0636793863021871
6,78,4,0.137234560649326,-0.0172810573420064,-0.0241260178953856,-0.0888401146818143
7,78,4,0.18683383286891,-0.0200348837249431,0.0311146005840606,-0.216708491150033
8,78,4,0.0538048697983012,-0.00535903066990329,-0.0643240341704352,0.0486200477519323
9,78,4,0.26443019779549,-0.0287811792895815,0.268970267028076,-0.434061473644425
10,78,4,-0.378801844262477,0.0285865821644945,0.251720705377559,0.317589401070146
11,78,4,-0.226674877150305,0.0199331794951009,0.214630877981009,-0.0568280799279248
12,78,4,0.188410692251623,-0.0250089522351707,0.381507620129841,-0.528304193628316
1,79,4,-0.680659128173222,0.0512715436710762,0.484100974621783,0.399083082432998
2,79,4,-0.205337135385484,0.0130621876415228,0.0845006626581719,0.28473011015422
3,79,4,0.219768116869005,-0.0261804334789259,0.353352012469234,-0.458850098732534
4,79,4,0.0948801228731639,-0.0103156243353423,0.00298216734624167,-0.0787378809168672
5,79,4,-0.154757824585311,-0.00372277672362839,-0.46748692646492,0.937246963859716
6,79,4,0.0783109435264581,-0.00956941167342098,-0.00477356205592278,-0.0344380606224461
7,79,4,0.50441588654462,-0.0583654038194239,0.5330691742864,-0.753670042518429
8,79,4,0.184301447167808,-0.0211893057674558,0.251161381203898,-0.396939498776973
9,79,4,-0.287875484271742,0.0253677983233967,0.233596942693448,0.13639522353774
10,79,4,-0.44471386021203,0.0395623582367985,0.217742721652276,0.421609946471195
11,79,4,-0.0378905965924514,0.00335380868897093,0.00681181171537807,0.00953396790641752
12,79,4,0.468250131113226,-0.0594011625637089,0.510121060645355,-0.731602345406625
1,80,4,0.26387992756572,-0.0188036142346334,-0.715905699301337,-0.085628761586813
2,80,4,-0.159060681266283,0.0140286241785259,0.160709851853655,-0.0149748440948788
3,80,4,0.0951372191948064,-0.0090282584128044,-0.390925478027153,0.105965486863113
4,80,4,0.198193960538244,-0.021791365325129,0.125508535475307,-0.210431828975622
5,80,4,0.0242184710858723,-0.0101009590134956,-0.00597065600159893,0.223570192941618
6,80,4,-0.0906959587996679,0.0047222616166115,0.0429315807736137,0.090924340283451
7,80,4,0.13693360943854,-0.0126027975852499,-0.297531483104384,0.0477102054425042
8,80,4,0.0179823941669831,0.00042311506000878,0.129412962817716,-0.184894337534819
9,80,4,-0.414972417524698,0.0335841956441403,0.10888363827612,0.408978993223672
10,80,4,-0.501563075919723,0.043397502513162,0.333286195899129,0.282595679064905
11,80,4,0.0474375790527493,-0.00462997336627288,0.178729792088521,-0.189832582946158
12,80,4,-0.435749329158458,0.0343612459661712,0.187897305317143,0.328860931453958
1,81,4,-0.120860915470238,0.00519521430865768,-0.0283193857987206,0.367868572911328
2,81,4,0.455606513546383,-0.0272977767416163,-1.07993916978836,-0.451640730511631
3,81,4,-0.0187918149317662,0.000625708867414629,0.265478906037974,-0.0851520070158066
4,81,4,0.211334151148652,-0.0247778971054188,-0.017980384451359,-0.192105912349033
5,81,4,-0.359037844659514,0.0204700252125051,-0.113657751668694,0.805688794873457
6,81,4,-0.34164278992313,0.0175212785718708,-0.147770718470583,0.857354547500837
7,81,4,-0.0129295929037708,-0.00100334365897581,0.0587455208394775,-0.0234283259655875
8,81,4,-0.760580057882897,0.0535520870223677,0.43592756394291,0.476743601366613
9,81,4,-0.281011477163265,0.024240029572226,0.236396456134751,0.239500996358393
10,81,4,-0.38781965548445,0.0296370645038197,0.236269145294507,0.324545750684448
11,81,4,0.0994256966389886,-0.0102535657855027,0.042829159655883,-0.218600126690424
12,81,4,0.311206587684264,-0.0411078522908587,0.456355600463778,-0.643538343666074
1,82,4,-0.464126314177956,0.0342933052184134,0.307194015175237,0.419686635765958
2,82,4,0.241383948758108,-0.0219730898680577,0.170257599670176,-0.352528663946692
3,82,4,0.0397891198504598,0.000694806277918551,-0.126408158904393,0.112314519022692
4,82,4,0.513237712993867,-0.0662225235358845,0.3622350353526,-0.541889280531134
5,82,4,0.239028214707453,-0.0249483918324701,0.10106578804602,-0.233238875879505
6,82,4,-0.166465985699375,0.0124295196185456,-0.126179535174089,0.417429986987638
7,82,4,0.378695176472593,-0.0466136957132516,0.440939432366613,-0.635434356699874
8,82,4,-0.504166978333018,0.0373287183742859,0.0669517855179163,0.656520358129271
9,82,4,-0.0735683433426817,0.00637124896130148,-0.0152806885381275,0.140160100127212
10,82,4,-0.12749548641358,0.00980647789911067,0.12247164730314,0.067504470910358
11,82,4,-0.0922559459604536,0.0069129854689377,0.0967963412230353,0.192864650454484
12,82,4,0.307997667750579,-0.0335671660090949,0.223962259271257,-0.454220524051248
1,83,4,0.0339737346855466,-0.0041404532046754,-0.235868450767408,0.116730601811652
2,83,4,0.393137357525631,-0.0316509152170655,-0.141237104512107,-0.444380735126834
3,83,4,-0.146147228125384,0.010802313144826,0.00617989287722522,0.233293134836972
4,83,4,0.165073412919535,-0.0223575030448183,-0.0326503319659102,0.082590962373679
5,83,4,0.0188524194281154,-0.00110388295583761,-0.305487325918445,0.155323048914009
6,83,4,-0.449804287338057,0.0315691425801006,0.185174966123492,0.664335201314155
7,83,4,0.284483595196547,-0.023349249177609,-0.419310087851798,-0.00218645074771838
8,83,4,0.0384413533607547,-0.00520076620551333,0.0165628435962495,-0.0966735524723043
9,83,4,0.00475473259952902,-0.000920793463503979,0.0127710645453775,-0.0575758941520267
10,83,4,0.128596416125476,-0.0123123436329042,-0.306751261171255,0.0906828988933127
11,83,4,-0.729428215977016,0.0532372905327666,0.168872450732882,0.785755992652904
12,83,4,-0.190578854019246,0.0163757984608765,0.0737780453632777,0.185255852471887
1,84,4,0.0137665860367747,-0.00629609436920029,-0.142580718630512,0.239224317651517
2,84,4,0.114737758367257,-0.0106214212734873,-0.185968540094725,-0.21235557723597
3,84,4,0.266735874914079,-0.0202118961080035,-0.366526631636068,-0.185915213248133
4,84,4,0.241470865450615,-0.0274458302461617,0.121982265411344,-0.205876522477314
5,84,4,0.0783368761120988,-0.00939466334006916,-0.368075529292289,0.281539650730558
6,84,4,0.0123168164139241,-0.00585199736410282,-0.368291353594243,0.383301897134912
7,84,4,-0.161625837712138,0.012841707004549,0.0729257994379716,0.176287824251652
8,84,4,0.125111046374886,-0.0163268716357757,0.280388224597219,-0.409157011324092
9,84,4,-0.0661612658937613,0.00294017272384492,0.106086420631431,-0.0213915888149656
10,84,4,0.140269027549254,-0.0144507981910828,0.063533443439171,-0.281281510216175
11,84,4,0.420230471972168,-0.0556323551973278,0.487392669162076,-0.701926048033209
12,84,4,-0.103408391349829,0.0142884033620485,0.0907304462598544,0.0352809748206205
1,85,4,0.11196187982976,-0.0107434690017089,-0.40043729400305,0.0902438502943783
2,85,4,-0.562690569914202,0.0422679513394802,0.39664295981315,0.397045427523413
3,85,4,0.327690620561001,-0.0259422497926806,0.442733534378894,-0.629627538494105
4,85,4,-0.302847188215884,0.0222820351144881,-0.029736423110164,0.508840422762054
5,85,4,0.541975443268693,-0.0686874124672736,0.303531895487181,-0.509771926603209
6,85,4,-0.171362778670635,0.0145191986281916,0.0578038128478319,0.184219598905195
7,85,4,-0.173737665393274,0.0132846687755606,0.0424668494753019,0.154168419011508
8,85,4,-0.22768838676296,0.0189211241900454,0.131951923271612,0.143407903311993
9,85,4,-0.209804687889068,0.0194965518245585,0.0260461596199486,0.0502879222631392
10,85,4,0.237286951282214,-0.02361483594172,0.111635364514421,-0.249195367523801
11,85,4,0.261075601871969,-0.0336234851279594,0.403099291583176,-0.571705471236439
12,85,4,-0.309454840161918,0.0270898133130091,0.0501363546403059,0.158479405119373
1,86,4,0.448150111773201,-0.0435992673481282,0.394770502892841,-0.557937039900308
2,86,4,-0.336360308048969,0.0221565398454274,0.252387987814341,0.372642101934633
3,86,4,0.247304794015199,-0.0278865209677252,0.416841922704629,-0.581903696905114
4,86,4,-0.0259638364927657,-0.0018054286767648,-0.0339548616785273,0.225973056617971
5,86,4,0.114285120601703,-0.012762152255585,0.443585539502221,-0.471543339626742
6,86,4,-0.543559666545708,0.0359870669469827,0.0912372963568249,0.798010956876179
7,86,4,-0.423570551387969,0.0326466617831828,0.191028215479558,0.437988745912444
8,86,4,0.294829636289685,-0.0273028241712928,0.261006594941415,-0.408621762674391
9,86,4,0.116850691382212,-0.0154837242396295,0.170487873018856,-0.296812032288476
10,86,4,0.143133325556201,-0.0138893430152002,0.036173038696581,-0.217788959682133
11,86,4,-0.173181297775852,0.0125015878315764,0.148617060974964,0.212874191465054
12,86,4,-0.26764852292072,0.0228630702181397,0.143171275683655,0.206879545154784
1,87,4,0.0943376314737752,-0.0084434895273032,-0.404590702981405,0.10646019256547
2,87,4,-0.109181343857938,0.00467744602004887,-0.0239046135949618,0.343515203088193
3,87,4,-0.0723068469631901,0.00539531896522286,-0.0413896533106399,0.148036916750436
4,87,4,-0.303202986578392,0.0203168112907013,-0.130394301806506,0.637575246820962
5,87,4,-0.387411862559658,0.0266976754203927,0.124441679775968,0.647112597857687
6,87,4,-0.298193719385326,0.0208417154376571,-0.0366222067934458,0.579450470277237
7,87,4,0.27662113084775,-0.0242261569112795,-0.430986808838632,-0.0609454582329304
8,87,4,0.00724312240702198,0.000270859474549008,-0.0445733193633435,-0.0280108892823284
9,87,4,-0.330586982520281,0.0257431874052069,0.239061646509955,0.176526834390086
10,87,4,-0.243067380937294,0.021299753811181,0.163713727502727,0.14214671296868
11,87,4,-0.0430066442603123,0.00608351533287823,0.0680795817485889,-0.0581047745405632
12,87,4,0.119412711576273,-0.014940171346668,0.223682210332381,-0.348390022840971
1,88,4,0.314509307919899,-0.0212033848884541,-0.822945241910806,-0.121831431101823
2,88,4,0.236873385240611,-0.0205345160123091,0.0590271220065334,-0.291468496900749
3,88,4,0.0469318966300632,-0.00825718636853587,-0.189676886600432,0.215820799670772
4,88,4,0.032401500639659,-0.00326072602285706,-0.00725298334051165,0.0070297494162916
5,88,4,0.785109739273419,-0.110783820472381,0.224274835991882,-0.994852661570315
6,88,4,-0.459924929605421,0.0352601280107311,0.236630509603195,0.485313500689769
7,88,4,-0.0667036366078778,0.00877002505837807,0.225739658523617,-0.0546990090760657
8,88,4,-0.416659419597755,0.0325091731703487,0.31412826818638,0.28037844189342
9,88,4,0.234847482161198,-0.0272997446984308,0.289870680188544,-0.445901609327249
10,88,4,0.124477608799403,-0.0129075604469263,0.165540507671711,-0.256784537372049
11,88,4,0.502782252644414,-0.0516354684879316,0.437691766296255,-0.620614734710017
12,88,4,-0.224065291368705,0.0251118257036955,0.121778725753714,0.134636703605985
1,89,4,0.156851457678445,-0.0150464623584191,0.0911597411646998,-0.28077152057566
2,89,4,-0.471772691998839,0.0351567618544217,0.375390509432049,0.38525910292397
3,89,4,-0.37258744567597,0.0289550440021365,0.257565112231841,0.319988295191847
4,89,4,-0.504580844485061,0.0367609247238931,0.183149795590879,0.586992442144086
5,89,4,0.319608889240823,-0.0431128212495835,0.00415047497474792,-0.0605109087993448
6,89,4,-0.363697288585244,0.0185586385867222,-0.152721084335971,0.912511442877877
7,89,4,-0.121757846949661,0.00704791343544057,0.0872630498446842,0.213432369111752
8,89,4,-0.582457194533494,0.0410775506643096,0.348667397038985,0.431059058646938
9,89,4,-0.0259636659433656,-0.00125693196544763,0.135670848940336,-0.127180529324518
10,89,4,0.209364971916486,-0.021964282083606,0.255260830860172,-0.386809529219903
11,89,4,-0.0232794194954819,0.00156513627643585,0.009813651886421,0.0811078657619157
12,89,4,-0.382547619131738,0.0308554548578443,0.16277094144636,0.39153287509409
1,90,4,0.0760035522715739,-0.00768275380903684,-0.336882762501909,0.148369038696439
2,90,4,-0.0385659587100415,0.00139492900800421,-0.0277123373451002,0.146199739565895
3,90,4,-0.0147909553316824,0.00054299101586257,-0.151769351157526,0.0628905413786694
4,90,4,0.10434039715869,-0.0158128035850995,0.660341254155838,-0.665557384308287
5,90,4,0.205976358941588,-0.023956298752922,0.436677648650584,-0.526950950757392
6,90,4,-0.718440267465029,0.0496343707729337,0.332522617154782,0.683725450080457
7,90,4,0.227015461306218,-0.0215471489694653,0.0320850456232475,-0.218894277426071
8,90,4,0.325921736017625,-0.0432018670100134,0.460498779595456,-0.654999071009574
9,90,4,0.203029930907215,-0.0242023949230919,0.282662622078373,-0.453708633163495
10,90,4,0.0954484988569986,-0.0106776403879459,0.000825516504678379,-0.0637406218081655
11,90,4,0.0840064432885006,-0.00996375892525659,0.129963147736314,-0.255385009486563
12,90,4,-0.0952387807354066,0.00793459299672469,0.0316292205744987,0.147496615603163
1,91,4,0.289011673196365,-0.0335815348559359,0.420703803242685,-0.553999858999926
2,91,4,0.535889749138906,-0.0684137475424717,0.608405994301311,-0.856094831092637
3,91,4,0.204588010645532,-0.0151076880743073,-0.559823948962239,-0.0541524001926204
4,91,4,0.171556139779882,-0.0177161695079866,0.217173495840726,-0.398242287210408
5,91,4,-0.023548543065698,0.00563471409140758,-0.0894878507574291,-0.0250864710459745
6,91,4,0.272389703678768,-0.0367755084703743,-0.000678790788237316,-0.033938795507967
7,91,4,0.454024758316633,-0.0416451822747133,0.248437743768413,-0.494640577624497
8,91,4,0.0437404185970209,-0.00405415540729907,-0.00477488412795633,-0.00805598474352772
9,91,4,-0.0299168104422146,0.00207574965619688,0.14125355913468,-0.170613834395587
10,91,4,0.134854841824873,-0.0126573799021591,-0.277248450795983,-0.0136547508601825
11,91,4,-0.0732516458722904,0.00629222154154629,0.134569351982708,-0.101587563633513
12,91,4,-0.0897462091789404,0.00692575504103768,0.0189175554798783,0.0861979338569957
1,92,4,0.415811528504382,-0.0202032497293644,-0.889784361811846,-0.218417698537078
2,92,4,0.0265928610170285,-0.00221211412334421,-0.0866480096669097,0.0127246597176457
3,92,4,-0.292255885958207,0.0211049326607352,0.121931735707563,0.321910882809385
4,92,4,-0.0497068255982954,0.00171159273341166,-0.361270550185697,0.451881407362426
5,92,4,-0.0164288106631853,0.00263967769312316,-0.00731825520948184,0.0276067865869322
6,92,4,-0.33979793455229,0.0220970358509411,0.0557259076243769,0.667322488406315
7,92,4,0.199410239562647,-0.0195118326499177,0.021814257883532,-0.181689613237949
8,92,4,-0.282919201569803,0.0248381037316089,0.0391353035536637,0.14902881233248
9,92,4,0.0910040014686606,-0.0100050966374316,0.184696149111208,-0.28377650517032
10,92,4,0.211426222031991,-0.0251166720205817,0.293355123367813,-0.452732033612945
11,92,4,0.160702859080865,-0.0160340960811599,0.237570179159001,-0.373700190207528
12,92,4,0.420116344848877,-0.0557976543101813,0.491877536333039,-0.702729072377544
1,93,4,0.185458633653415,-0.0137689734833341,-0.467611407261578,-0.0664240201254215
2,93,4,-0.110739039069705,0.0120994412199667,0.047517018797255,0.101842275902085
3,93,4,-0.71498388444209,0.0498796979293392,0.454530568974621,0.477857336541243
4,93,4,-0.0173474485820725,-0.00340401367116976,-0.00212259703392257,0.0700155522147685
5,93,4,0.217581604129068,-0.0153893993022993,0.0696584237531014,-0.275628492024007
6,93,4,0.212590534894842,-0.0234156885848334,0.154008283197533,-0.257617344896118
7,93,4,-0.0840450328770562,0.0078096106553399,0.0255175984709656,0.129081999280009
8,93,4,0.0116197862964635,-0.00309412432546032,0.22561734051831,-0.262461963507045
9,93,4,-0.210040673488826,0.0184090317490392,0.141517455208852,0.101960444401405
10,93,4,0.211724609659825,-0.0255090631910036,0.258996195193145,-0.416324860282608
11,93,4,0.163009649019923,-0.0205166806353382,0.295307827032051,-0.436372453825416
12,93,4,-0.294666839889267,0.0253216132715256,0.141931380801346,0.2215222608964
1,94,4,0.064618160594432,-0.00537091155058405,-0.211992161565447,0.00425818614585913
2,94,4,0.207053296462834,-0.0149000893605972,-0.465512520535248,-0.15050675916895
3,94,4,-0.260889779975161,0.0208210518466713,0.102871982069033,0.313299042866523
4,94,4,0.295491371337534,-0.0338736030467307,0.192675397085067,-0.305066595060678
5,94,4,0.187240223857269,-0.0261948638424013,-0.0700901034690363,0.0419357388803185
6,94,4,0.106013576665667,-0.0127347500323007,0.00973728157851166,-0.0815946416124579
7,94,4,0.293998447961302,-0.0284469809706613,0.162679937308642,-0.303755840650001
8,94,4,0.00802783069316681,-0.00114556347220821,0.107701948145761,-0.144426797052741
9,94,4,-0.136499920102815,0.0140126657453679,0.0984827410800178,0.0460295830599486
10,94,4,0.247728264915963,-0.0213399430318571,0.191568742247386,-0.322412628357308
11,94,4,0.267421283700491,-0.0290569788769473,0.227661074053859,-0.385676205907088
12,94,4,-0.185789600760514,0.0215625335272996,0.109789113600121,0.0840484605545486
1,95,4,0.396795775488368,-0.0226132197759331,-0.676568921855293,-0.269654245606307
2,95,4,0.00274476674980805,-0.00318692442978209,-0.173678866375919,0.204889251924896
3,95,4,-0.477314220012177,0.0384877024164675,0.332538893884502,0.504730518744238
4,95,4,-0.0116752026070966,0.00260208129069671,0.475157341161623,-0.440069885255512
5,95,4,-0.21276147876433,0.0140755233637359,0.0448217099379941,0.439318860458465
6,95,4,-0.295689726770566,-0.0145868136142386,-0.249260865451046,1.55261904291311
7,95,4,0.565244710624854,-0.0705447687343488,0.494871452006824,-0.750974249212995
8,95,4,-0.288922123143686,0.0237956553118764,0.113255611802816,0.247927385242163
9,95,4,0.233728714947988,-0.026059703083012,0.243059442971524,-0.383669719396636
10,95,4,-0.423686359439986,0.0332232975128747,0.190054738950441,0.417008031119116
11,95,4,0.362546635323387,-0.0419767148862243,0.339493652984527,-0.595604916577067
12,95,4,-0.512308677266586,0.0383831840890204,0.299020252106047,0.358405781670146
1,96,4,-0.0655438038086418,0.00288082659940953,-0.161275984754621,0.280121785449447
2,96,4,-0.124055425446185,0.0102993449216289,0.074217506501997,0.135382356771597
3,96,4,0.18412594351267,-0.0198843064072566,0.395150877475719,-0.484596832029133
4,96,4,-0.0351957520477419,0.00437293124012679,0.0349778821668431,-0.00187555085087223
5,96,4,0.0442875386411484,-0.0028982237653716,-0.00348129351869296,0.00751018357064554
6,96,4,0.170638867356504,-0.0194640894783487,0.0310094459116583,-0.0829131562858109
7,96,4,-0.115387964251903,0.00949201639838163,0.130374401142531,0.107433884637853
8,96,4,0.133282717424914,-0.0134599338871785,0.0374913936312265,-0.224291080036107
9,96,4,-0.0735311473900209,0.00573648487843079,0.211433504601837,-0.113399686836175
10,96,4,0.14319118485214,-0.0119337635599815,-0.302066052962573,0.0668343204814057
11,96,4,-0.0996072381470353,0.00623334316110739,0.119375946710698,0.205640361526249
12,96,4,-0.171606614453769,0.0215640404356449,0.1166798916258,0.0754891587499731
1,97,4,0.293729601987031,-0.0285234575182014,0.436247023828983,-0.576413787277963
2,97,4,-0.153972272046933,0.0107126489882011,0.0818397135455248,0.216715279045815
3,97,4,0.603171956670687,-0.0794116765644114,0.729768103952087,-1.04412341389139
4,97,4,0.101813729027612,-0.0109858339433928,-0.0215761899581619,-0.0298166218429176
5,97,4,0.14179149978181,-0.0153426305581867,0.010594331504547,-0.121394274555515
6,97,4,0.0156594590897223,-0.0233745807125268,-0.709571884615854,0.890469095679736
7,97,4,-0.133614213754139,0.00977268785361839,0.123247318404165,0.2074060722887
8,97,4,0.000508833683782037,0.000482531791615414,-0.0750621370896623,0.0486566967374169
9,97,4,-0.180800523986162,0.0133556760505994,0.0461969878848324,0.157668849418897
10,97,4,-0.173392080907215,0.0140675179125616,0.156039456518628,0.228218630945497
11,97,4,-0.260521532297417,0.0250910450622794,0.191627588088594,0.149604854943292
12,97,4,0.194242748168755,-0.0230801429303822,0.284263560481153,-0.433682506505773
1,98,4,0.42643322986623,-0.04173995532148,0.395660202559773,-0.561860935599933
2,98,4,-0.248794464085341,0.0156105867382675,0.00842245271221739,0.513205416627796
3,98,4,0.14621757554418,-0.0156362930198955,0.195305461390035,-0.323379435248026
4,98,4,-0.0402765318267956,0.00382067120934096,-0.0534887434871367,0.0899151008695009
5,98,4,0.0292690314258312,-0.00503374084995397,-0.0402287526318947,0.08985529712912
6,98,4,-0.439180776784778,0.0317626640092386,0.126223518493445,0.590082893196781
7,98,4,0.0750601445073586,-0.00680855161806799,-0.00691021516014453,-0.00338836633172697
8,98,4,-0.164908555977143,0.0136482612009042,0.0444933591242277,0.162569830213256
9,98,4,0.00110611880089232,-0.00135184428280468,0.172892791967952,-0.245347378107841
10,98,4,0.0321919019850924,-0.00171148352046131,0.00445120275667641,-0.059025897432719
11,98,4,-0.268124081962874,0.0232723609474543,0.193875339008375,0.1346838122016
12,98,4,-0.441133969152833,0.0389673743874425,0.265381440882698,0.259906222202685
1,99,4,-0.0712976329261595,0.00181943675599742,-0.113726788029125,0.31500030334938
2,99,4,-0.354140673836514,0.0290955022318436,0.241663665077784,0.294735334995982
3,99,4,-0.0419391112165769,0.00405544099831893,0.0010302412313253,0.0489651898674513
4,99,4,0.110196247592944,-0.0119029013922408,0.440448051445703,-0.456295128058139
5,99,4,0.178712411785032,-0.0170200299232542,0.566948552244881,-0.626042481085795
6,99,4,0.502356228268974,-0.0571666880544792,-0.111845735984055,-0.451096600668966
7,99,4,0.0390892759419774,-0.00384965768693083,0.0403233584321302,-0.0353903723033437
8,99,4,-0.127191597206263,0.0112426149869025,0.124735888175797,0.0439339965266227
9,99,4,-0.130540458407236,0.014766625583868,0.026261498359718,0.11811478313942
10,99,4,-0.054944569216602,0.00459836173659983,0.0738121290827749,-0.0500453265625547
11,99,4,0.055097866369036,-0.0069284408770533,0.192062765214879,-0.298483935689879
12,99,4,0.00758057221247862,-0.000805492477194845,0.267869417541388,-0.260763640316148
1,100,4,-0.0910459657528391,0.00240046652788742,-0.0432886729466626,0.259218245831499
2,100,4,0.381478764257895,-0.0226254217944936,-0.907216006912842,-0.175909759856796
3,100,4,0.198437757608243,-0.0167426851658423,-0.501084051432308,-0.0117590287251175
4,100,4,0.202934763118415,-0.0231717655573062,-0.100781558852473,0.0353810353245599
5,100,4,-0.0261497558318339,0.00336550308988455,-0.0270816533940752,0.0677182781870858
6,100,4,-0.473326280410034,0.0181746635682617,-0.054745849316823,1.29046441897162
7,100,4,-0.0978981110458907,0.00976567062572202,0.0891628910813252,-0.0358887736965686
