ID,SIM,interval,ETA1,ETA2,ETA3,ETA4
1,0,3,0.142281171627521,-0.011716589822199,-0.242802537374305,-0.072746301710592
2,0,3,0.151408812552976,-0.0175963168079128,-0.346178337802232,0.116119727128537
3,0,3,0.136266933710699,-0.0140110239511876,-0.0975372007145242,-0.0969485819282602
4,0,3,-0.018584517800822,0.00199068813496251,-0.0447990734735557,0.0865076543884854
5,0,3,0.00936939463622563,-0.00179705548344284,4.39969149747946e-05,-0.00274205504136783
6,0,3,-0.129782364081246,0.0107437015540067,0.0909009312397178,0.0512455875571633
7,0,3,0.0347670490065477,-0.00265663915593309,0.189380253375022,-0.176227778981934
8,0,3,-0.0296740750624561,-0.000854972623538586,-0.0753918208070825,0.238514222829658
9,0,3,0.0774400600497878,-0.00545562106677891,0.0220415479683676,-0.14982111630666
10,0,3,-0.00481178339515347,-0.00165457648676386,-0.114387504411084,0.160647784696448
11,0,3,-0.0111676026138579,0.00098570663937362,0.212100836534259,-0.162076755832273
12,0,3,0.159295782409125,-0.0156111951714638,-0.266682743273707,-0.0207115971430424
1,1,3,0.0810938973896791,-0.00823021246501079,-0.266744000627799,0.10127542507695
2,1,3,0.314592810222038,-0.0258258916019943,-0.669358032683755,-0.092242948297177
3,1,3,0.0111443864391545,-0.00367524580362699,-0.103775065492067,0.195734641753263
4,1,3,0.279789815970714,-0.0357361492110753,0.457477267100216,-0.603751249161069
5,1,3,-0.364441294320915,0.0294968075445801,0.174455408271961,0.307396625712
6,1,3,-0.320762454682993,0.0245561716845342,0.238423598914566,0.326240540905853
7,1,3,-0.203346182992832,0.0172608091265115,0.127532404662647,0.178648904629677
8,1,3,-0.221065301321155,0.0190391680248764,0.13721183649387,0.0842700918524759
9,1,3,0.0457949954122071,-0.00664519725876417,-0.132958826279913,0.156230890511855
10,1,3,-0.0191894867198823,-0.000672583549237143,-0.105989190009269,0.183864228721775
11,1,3,0.270745138507021,-0.0238258226861967,-0.439378715281867,-0.148884537972166
12,1,3,0.155067525715668,-0.0186393127267669,0.356222831738365,-0.510574714985289
1,2,3,0.0728128781822841,-0.0091686385160718,-0.278735752271129,0.132556600945541
2,2,3,0.0946107051511513,-0.00999861328632799,0.227883163389858,-0.282037964957045
3,2,3,0.0562021444880896,-0.00768770763842669,-0.134923448304383,0.13510466893263
4,2,3,-0.230645897762622,0.0203309619075162,0.169929761300355,0.0984906964033964
5,2,3,-0.29448413999338,0.0239867708285888,0.152078550558826,0.272701914770614
6,2,3,0.398721123180796,-0.0451496906705312,-0.839374741195295,0.000525793622805938
7,2,3,0.308024204300578,-0.0330931539315923,0.369820023898303,-0.495497185691057
8,2,3,0.248424823668414,-0.023623716956862,-0.0828883263270137,-0.277528679399146
9,2,3,0.267071606773821,-0.0335320013224936,0.329365229326636,-0.493585699269103
10,2,3,0.220803308014982,-0.0227302596828705,0.244650445358526,-0.356313237174205
11,2,3,0.0589658767956029,-0.00687430866792741,0.0147378697290169,-0.0906236592726992
12,2,3,0.255029614290303,-0.0257312526555436,-0.326147615578814,-0.145991862413277
1,3,3,0.17285806904996,-0.0146355394322837,-0.437768692039844,-0.00787379284392019
2,3,3,0.6079390938228,-0.0704929257218284,-0.108223488660976,-0.686093323493461
3,3,3,-0.234092182009499,0.0180402727534691,0.186732474997816,0.306355463505709
4,3,3,-0.0426406955392706,0.00150988829080379,-0.0811703991529978,0.205087567175692
5,3,3,-0.067979402049354,0.00239976298729416,-0.0410201621478947,0.251764419296515
6,3,3,-0.236358001266663,0.0182672783153748,0.19322687234848,0.310099111703403
7,3,3,-0.0156074577986105,-0.00151635980738452,-0.143213772027552,0.187909605206048
8,3,3,0.0101421637274742,-0.00644584955684085,-0.0985713035406147,0.288340393631945
9,3,3,-0.0164383309234857,0.000475245737839096,0.00542011343499306,-0.00194397333237578
10,3,3,0.224163003859166,-0.0278932298667571,0.335676880409922,-0.467450748633302
11,3,3,0.205911979918623,-0.0235502776690081,0.23265367355524,-0.362933257417508
12,3,3,0.371170978666196,-0.0328344658523977,-0.751032694955595,-0.118186794439428
1,4,3,0.700913207595498,-0.0902099693858303,0.343621465374783,-1.13607535033596
2,4,3,0.410334496329998,-0.0560925709965266,0.521405137476047,-0.730581325463257
3,4,3,0.485236521042351,-0.0455760813939451,-1.38996779598474,0.0614098747804045
4,4,3,-0.0638202212049316,0.0054280823737841,0.00142378454229132,0.0380527328753684
5,4,3,-0.00779051831132286,0.000924981449894147,-0.000316447853310733,0.00282843315445956
6,4,3,0.179209498518349,-0.0206482203776495,0.0666299005349291,-0.307952008688063
7,4,3,-0.199731879234736,0.0151515844303386,0.0430935221053667,0.215073826878765
8,4,3,0.0823476226271889,-0.00912437347739242,-0.123824783216693,0.0126274850409672
9,4,3,0.159496081839679,-0.0175156192875509,0.136415603845126,-0.285024203763647
10,4,3,-0.201672700798782,0.0168664226690021,0.108341560154952,0.20606626374533
11,4,3,0.573751568919133,-0.0750338024169206,0.631659739014533,-0.852439148326106
12,4,3,0.339986078693138,-0.0316174200193284,-0.670126062644416,-0.0804503492852033
1,5,3,0.35940224586599,-0.0264479114345559,-0.90047873414986,-0.180256390114121
2,5,3,-0.275954557855885,0.0167953166312207,0.309336232131108,0.37890552960406
3,5,3,0.266845383459166,-0.0326563656974444,-0.551696199271512,0.0690156492670585
4,5,3,-0.114948242622439,0.0151674528062393,0.0569611547999513,0.0805818760701874
5,5,3,-0.0765541338550106,0.00603921275701125,-0.0182578283067903,0.178864563889116
6,5,3,-0.25512325351872,0.0184214896914118,0.14225468704604,0.237821788126954
7,5,3,0.153846637331685,-0.0135883952966922,-0.168917373513534,-0.140164069891129
8,5,3,-0.251049766070551,0.018567286793212,0.168178619869262,0.293062637310044
9,5,3,-0.329776243765092,0.031482667367034,0.200048833869576,0.0556651163646305
10,5,3,0.0558063067072593,-0.00767986216544898,-0.249125985986096,0.136835559848619
11,5,3,-0.137763639037739,0.0109931004927254,0.0253321832828677,0.17284413267973
12,5,3,0.163356507381902,-0.0194600455518428,0.0668976525187227,-0.305121847348439
1,6,3,0.395883082314732,-0.0249673082645223,-0.713895987753048,-0.294199750862859
2,6,3,-0.221339321780297,0.0164010176671707,0.157232731775314,0.284005290689116
3,6,3,0.0589009258199056,-0.00740356990472458,0.0111020796180485,-0.0884682909096559
4,6,3,0.374968447803255,-0.0460018995807404,0.348834771763873,-0.480355760198
5,6,3,-0.242577238899314,0.0209931478346233,0.156488585616277,0.0563575583278816
6,6,3,0.177337202978897,-0.0207362015115166,0.177144595438015,-0.314523577498657
7,6,3,0.122110571188394,-0.0119524685846725,0.0738462666956204,-0.267476169659034
8,6,3,-0.30386677482626,0.0279999739705274,0.170059372235829,0.229309855064864
9,6,3,-0.351829914503587,0.0274581332671265,0.193471287428226,0.31598668346476
10,6,3,-0.137815999026305,0.0138468983369176,0.0140360239593124,0.174957479178831
11,6,3,0.105224475793194,-0.0119480894381709,0.318191687845452,-0.363597755442457
12,6,3,0.224109964404163,-0.0293117960202802,0.330827663795639,-0.490936070427888
1,7,3,0.37930802413637,-0.0315723626675673,-0.254502628478155,-0.396801504739836
2,7,3,0.151551638493062,-0.0186344522462288,-0.326217421816608,0.14432843231873
3,7,3,-0.314487639639144,0.0242355397311614,0.186066861009229,-0.0315099136209099
4,7,3,0.15471281139187,-0.0173642771211671,0.0756729609501985,-0.276427867487015
5,7,3,-0.249844869407928,0.0204504221119831,0.126163385497866,0.248030517432457
6,7,3,0.113579827744684,-0.0121796350483951,-0.158571961703261,-0.0220250174593946
7,7,3,0.133855025439697,-0.0156326871892596,0.0760835319077881,-0.276631769814425
8,7,3,0.151694294365411,-0.017937537128603,0.07137461194281,-0.282138845119194
9,7,3,0.210420084336013,-0.0255561430478926,0.242056286621402,-0.392980978731806
10,7,3,0.162584985491479,-0.0191606380989798,0.0888788948908826,-0.358424078164182
11,7,3,0.0404654287969177,-0.00514838892165229,0.297284580640785,-0.287617892564397
12,7,3,-0.304435467083565,0.0278673531238993,0.16553376639051,0.199384212454777
1,8,3,0.369156765190258,-0.0345574960413657,0.378321266365263,-0.497293103716273
2,8,3,0.259104419246964,-0.0258737704440238,-0.0297093644774256,-0.325248838469964
3,8,3,0.8807573121525,-0.113367051679143,-0.136216453187283,-0.936699431154969
4,8,3,0.128571519541595,-0.0120800236821922,-0.293432258321124,-0.0147548888160251
5,8,3,0.165743149040455,-0.0191467268171163,0.210485262893884,-0.336365987864017
6,8,3,0.037185815972969,-0.00704528125524072,-0.134328304078139,0.219422659503214
7,8,3,-0.966205143547928,0.0489929586641798,0.498751397814765,1.20324535984738
8,8,3,-0.306761671175806,0.0250076157718896,0.152151836304513,0.274989850565956
9,8,3,0.0486454325485325,-0.00489110343848775,0.152284471229692,-0.185348496424941
10,8,3,0.0790413805592472,-0.00838299989941512,0.245122302840527,-0.270363088066569
11,8,3,-0.0869808555500816,0.00737128050893505,0.185063666197042,-0.0536994344516706
12,8,3,-0.307704655508378,0.0251464520490336,0.177155568848543,0.000972082524744537
1,9,3,-0.285693316278212,0.0211269778240589,0.264518700145017,0.364811528055973
2,9,3,-0.442534774697188,0.034117103513637,0.274827526761277,0.369100167943078
3,9,3,-0.241143423604956,0.0193243056172461,0.286461924148324,0.345638386451376
4,9,3,0.0186945408482393,-0.00308303080441701,-0.125139282068155,0.123632476280953
5,9,3,-0.062859088555247,0.00597495242076225,0.14875844931682,-0.0500019408009741
6,9,3,-0.443453530779804,0.0349001508523097,0.280097235002736,0.328018636578781
7,9,3,0.328232769533776,-0.0321086631595527,0.362901802174178,-0.482574355261327
8,9,3,0.0781424426052763,-0.00725736232972744,0.183887600004043,-0.232695313126469
9,9,3,-0.285730249994021,0.0240868509435092,0.163154543295026,0.259510650133939
10,9,3,0.38481655779561,-0.0484961283106703,0.482517069542631,-0.678993893134001
11,9,3,0.0575874021034773,-0.00749578485038097,-0.00118314126946383,-0.0179030626214728
12,9,3,-0.0408235820740152,-0.00188320134976183,-0.0558116657327711,0.24865065965622
1,10,3,-0.192006347463534,0.0133428970185116,0.14805001994462,0.28310095411199
2,10,3,0.196744749761453,-0.0194473676207999,-0.453209668433462,0.0320630445650702
3,10,3,-0.262870692539964,0.0210277167141709,0.267550899533509,0.337686646145115
4,10,3,0.325262614098399,-0.0411476055767064,0.489870009138169,-0.648791896906
5,10,3,0.00314218462097212,-0.000990813098460679,-0.000166208370153949,-0.000539972483035103
6,10,3,0.0128948828948989,-0.00263145733859835,-0.000168149068014244,-0.00328862115510567
7,10,3,0.119000436772974,-0.0123723511044504,-0.130140189397359,-0.087468959397645
8,10,3,0.415960552386841,-0.0389538707279641,-0.332962092648328,-0.41697549966727
9,10,3,-0.520645749555569,0.0414563223043869,0.399802948839975,0.337169581304199
10,10,3,-0.178432986978396,0.0140432353054366,0.0524165964857847,0.230694085997189
11,10,3,-0.345299704476847,0.031954277059205,0.17653503472574,0.262885232658762
12,10,3,-0.156685461587987,0.0130207691623739,0.103384493904779,0.0467224006331423
1,11,3,-0.0219422489776435,-0.0022545284231025,-0.144611086335792,0.228513744490292
2,11,3,0.15805377482709,-0.0210200779991505,-0.351533287649456,0.150414071242737
3,11,3,0.473130944766122,-0.0486620119452931,-0.221840578267867,-0.473331412846081
4,11,3,-0.345612415001758,0.0271329137275723,0.381604027196133,0.376037525042664
5,11,3,0.471188398771717,-0.0642455485620028,0.581178775854619,-0.781774885398696
6,11,3,-0.111550168742599,0.0100176749773176,0.107230567245097,-0.0703051444374291
7,11,3,0.159483740093503,-0.0167125166866097,-0.450220417812345,0.085479023492706
8,11,3,0.320891158813544,-0.0323999798233489,-0.720518214559731,0.00625193556572386
9,11,3,0.0256461797382405,-0.00662887020883003,-0.122469589034462,0.243086601572754
10,11,3,-0.0303429431745868,0.00297672288587025,-0.0835200426260916,0.165683469678909
11,11,3,-0.240469596599181,0.0197699197287922,0.0997898859706393,0.229620500463511
12,11,3,-0.315019860757158,0.0260904039052615,0.187290295433052,0.304639077695011
1,12,3,-0.377243838015348,0.0282403606842673,0.333349732588676,0.362316394159689
2,12,3,0.183439641829413,-0.0223702866151014,-0.391007409918493,0.118613980461507
3,12,3,-0.17717955671433,0.0153593079015476,0.101247155490312,0.137005691841587
4,12,3,0.120857383078818,-0.0131268005603666,0.0377689557611894,-0.175897308563335
5,12,3,0.156921087946408,-0.0182213490091931,-0.353048055720383,0.117790224615094
6,12,3,-0.066334652454731,0.00697850207875196,0.00628171387889064,0.0815315707990898
7,12,3,-0.212754604133371,0.0150746447838444,0.1673112328685,0.298245085729425
8,12,3,-0.262082550887683,0.0207823420546788,0.161485359988309,0.274005003173843
9,12,3,0.490069528937429,-0.0533929751130044,-0.149055196181032,-0.510195111870855
10,12,3,-0.259584602793762,0.0205116157150905,0.166332859104042,0.30099437632465
11,12,3,0.577815961736379,-0.0780228448852146,0.248705545970233,-0.736676787498748
12,12,3,0.11679837802797,-0.00868446915369879,0.0974472824527896,-0.223308237747051
1,13,3,0.401765904245369,-0.0408952459946484,0.451412756289401,-0.587424897321745
2,13,3,0.463942802547848,-0.0480517118603821,-0.221851587973823,-0.511028903147707
3,13,3,-0.30639100752016,0.0236900985100113,0.24667949402455,0.329665025433153
4,13,3,0.00685623235797723,0.000685365867858239,-0.0569358193873848,0.0654116921477925
5,13,3,-0.472620810967855,0.0370158625100496,0.2880692622028,0.366243012884545
6,13,3,0.0927136492109715,-0.0115244559069741,-0.193914203380055,0.171872666161691
7,13,3,0.0619321883972145,-0.00812653502584241,0.0151644886211944,-0.0820953768171265
8,13,3,0.273314670097646,-0.0278703073198841,-0.0569711244096961,-0.316888151636339
9,13,3,0.534745600334454,-0.0533781226306321,-1.55830212340296,0.109688384905663
10,13,3,-0.287574054909803,0.0230789489401571,0.165575569022046,0.29509985546183
11,13,3,0.592700996159993,-0.0787168749564185,0.263162468992115,-0.747238355382413
12,13,3,0.284858633326797,-0.027600968913269,-0.153662277259067,-0.269849262293067
1,14,3,0.311535094274015,-0.0300124643501944,0.333360870874968,-0.451435678683408
2,14,3,0.0283954648310886,-0.00892164289452343,-0.12642479329145,0.281114000953899
3,14,3,-0.350839416095271,0.0269923861262394,0.278885168478597,0.335677138342509
4,14,3,0.223451040779645,-0.0181488437417914,-0.390151806066439,-0.143151243739139
5,14,3,0.180921959776242,-0.0173975527338348,-0.380665372618944,-0.00874266186159853
6,14,3,0.0384295996123403,-0.0050186940852966,-0.0987977792235043,0.0800350434920545
7,14,3,-0.356051568256138,0.0289873879946562,0.172467021654698,0.317571614752281
8,14,3,0.080787895065815,-0.0169926326299078,0.425833986904011,-0.464843634911898
9,14,3,0.314153472588833,-0.0326648247255112,-0.0333600889057962,-0.354964524832352
10,14,3,-0.592202391746322,0.0527917784791112,0.301956108851432,0.560532135611853
11,14,3,0.265062522566937,-0.0237342713107006,-0.241137090301991,-0.231961478530217
12,14,3,-0.25823253387274,0.0208639383814411,0.154031393411455,0.280824775772337
1,15,3,-0.128628767716972,0.010504255132672,0.0244939542315541,0.302915903614457
2,15,3,0.46811471067214,-0.03941021560673,-1.51845811200718,0.0673799547599233
3,15,3,0.0697187959980719,-0.0127234689990152,-0.172783899300436,0.251808833595718
4,15,3,0.0358403314287496,-0.0030265187056732,0.121320864614898,-0.16865944913683
5,15,3,0.234554828741614,-0.0232248129999784,-0.52897972788678,0.00474090913381978
6,15,3,-0.165985729630953,0.0128520761805023,0.0464437918534599,0.177472859664439
7,15,3,-0.00666173645552388,-0.00124421664797127,-0.147708394509478,0.17602908638065
8,15,3,-0.302759608555132,0.0248006235996483,0.149943085686088,0.267098797898195
9,15,3,0.0755915668042468,-0.00789154546613048,0.0165691954522147,-0.127221607254697
10,15,3,0.0799395449318537,-0.00981537995113181,0.0226597679094863,-0.121424391705975
11,15,3,-0.0626556653420007,0.00159237020789275,-0.0440789737242286,0.258233518301542
12,15,3,-0.394680549073136,0.0306005035191657,0.33952432290576,0.340387433427567
1,16,3,0.248616927459939,-0.0191700355376962,-0.6171462545024,-0.0555127917409242
2,16,3,0.169988153620485,-0.0240129047186822,-0.347742552667022,0.199732704808879
3,16,3,0.0974065396598157,-0.0116652881038758,-0.195435955425134,0.164142772252387
4,16,3,0.132893947966474,-0.0135167417452537,0.0405762215557858,-0.189554543243565
5,16,3,0.124687344388682,-0.0153180944623707,0.268918569956845,-0.385233791741478
6,16,3,-0.0788090456335485,0.00820461901247994,0.00885615104542079,0.0963744267469554
7,16,3,0.259139321038946,-0.0264413020447016,0.39591920892465,-0.549699407718529
8,16,3,0.463187069960926,-0.0653066584379966,0.587588503751119,-0.803966212244094
9,16,3,0.50353935172214,-0.065311481294789,0.568873010126628,-0.811396414429622
10,16,3,-0.126116273776411,0.00917246298158309,0.0140834131785681,0.176136260277068
11,16,3,-0.342999380340118,0.0290891550810918,0.174134150009937,0.325369003510376
12,16,3,0.436516946553178,-0.03893983599055,-0.555002711407529,-0.339781538295196
1,17,3,0.263512232829427,-0.0233733073935916,-0.576725853994794,-0.127215566306712
2,17,3,-0.116662835074593,0.00790045701321174,0.0228103871962551,0.172913946427597
3,17,3,0.152897834216203,-0.0155291541155298,-0.31053034343205,0.0391581687716314
4,17,3,-0.155704720943859,0.0113663628285107,0.0340762574996616,0.255303514180821
5,17,3,-0.421653643045105,0.0334673533014498,0.324036497427904,0.342909724800662
6,17,3,-0.0533859021501805,0.00337963246455862,-0.0313167330500473,0.156767974933521
7,17,3,0.319364442383297,-0.0239617663921747,-0.79351483231352,-0.141088176017129
8,17,3,0.0968373212006801,-0.0167452354068296,0.409189123054601,-0.548318769829275
9,17,3,-0.133757150098556,0.0112981287876883,0.144351429312012,-0.180040797988506
10,17,3,0.0716131392321327,-0.00710343666542064,0.172781585349196,-0.275648546597851
11,17,3,-0.0633020523765193,0.00396937388068082,0.00384587747400712,0.0979782615307072
12,17,3,0.14936578216998,-0.0165952677632618,-0.349108500851783,0.120824405393522
1,18,3,0.622026112837209,-0.0646253368651956,0.609338060623421,-0.787206950681249
2,18,3,0.354836914471053,-0.0349328567919336,-0.119565641034862,-0.390119499707289
3,18,3,0.142513411631596,-0.0164198530284662,-0.253655019260314,0.161127983905475
4,18,3,0.347377084990834,-0.04397544699523,0.476062614900177,-0.628309146227379
5,18,3,0.168731415799523,-0.0161550571016528,0.188200278499605,-0.355554680363293
6,18,3,0.508546076782251,-0.0369559581033641,-0.955929203280631,-0.35643858541282
7,18,3,0.189750059547713,-0.0226260885575321,0.265420671712107,-0.384040420606826
8,18,3,-0.247241283306996,0.0212471266526588,0.175447458203521,-0.0175723233519413
9,18,3,0.536050140327093,-0.0625664541078897,-0.0563911723976404,-0.584088080811617
10,18,3,-0.0189154729675001,0.000948946698890884,-0.00131014383428676,0.0111483972335895
11,18,3,-0.110617586762403,0.0102867952415487,0.0617872565042712,0.0699241472717814
12,18,3,-0.0917654394297917,0.0027532130568248,0.216433416685124,-0.165312600844606
1,19,3,0.27225031198019,-0.016920752928076,-0.367124801056886,-0.228101337776451
2,19,3,0.439202231575244,-0.0344717382901424,-1.34252673461911,-0.0169707687270641
3,19,3,-0.0181149355114965,-0.00996848075268552,0.00721001239916019,0.351045168190165
4,19,3,0.341439953587348,-0.0369485320905218,0.409051925819799,-0.543896563536733
5,19,3,0.231938168682777,-0.0221456841697516,-0.512200504403689,-0.0193287871361397
6,19,3,-0.507469690245142,0.0390719228625292,0.330399618409988,0.355142451315169
7,19,3,0.268885513799467,-0.0201349608439007,-0.258555947029729,-0.263853728211046
8,19,3,-0.116987716581541,0.00920280809846958,0.128372181045885,0.0428582781495647
9,19,3,-0.134704900705981,0.00823835022158797,0.0921673537447589,0.313922010783987
10,19,3,0.319334085637855,-0.0251429529695808,-0.800021322676129,-0.127778415724419
11,19,3,0.406587323055798,-0.0572401314595166,0.567054109020819,-0.767669087163118
12,19,3,0.344384328495671,-0.0364827095684984,0.206454663458325,-0.41858740212409
1,20,3,-0.199176185166301,0.0121997439204835,0.137317085690223,0.349182767977724
2,20,3,0.336482178719895,-0.0358551855743187,-0.738806683517685,-0.0046699156375207
3,20,3,0.572846184933483,-0.0602892403621174,-1.65765201362305,0.156034441678124
4,20,3,0.0174611679047977,-0.00328477596695022,-0.168460554463197,0.15018804576147
5,20,3,0.14807429939142,-0.0160959192048052,0.149603579287011,-0.285610127941008
6,20,3,0.204104527602397,-0.023985925538357,-0.331669412160216,0.174561190182903
7,20,3,-0.680783420117225,0.0439716020568054,0.0945672594458822,0.911154284522689
8,20,3,-0.648509266492819,0.0477349185400981,0.408953927081229,0.451166260899006
9,20,3,0.325544025850229,-0.0336797624824448,-0.0675964425827345,-0.353582228262117
10,20,3,0.219582675375363,-0.0267146106551296,0.336999729814048,-0.466112417372313
11,20,3,-0.607148223312997,0.0451482491646091,0.439701925762715,0.363428961914213
12,20,3,-0.594597014845926,0.0448145913492159,0.429672304224214,0.288221450346995
1,21,3,0.169495362658668,-0.0156300342610705,0.263084728969479,-0.375706553477889
2,21,3,-0.335174216676723,0.0251697932459904,0.278334392639823,0.338550258858026
3,21,3,-0.0288571440989449,-0.000783032761889521,-0.0696160489895494,0.24417284540129
4,21,3,0.284209394342896,-0.0272338727256632,0.2976029149579,-0.411340575006701
5,21,3,-0.0774421557846466,0.00720900847947995,0.142281619880292,-0.0399939854776324
6,21,3,0.15770450040175,-0.0177522960737362,0.246469236297115,-0.387109294734775
7,21,3,-0.40464686130125,0.0303742923031066,0.350384137079453,0.360699344157788
8,21,3,-0.163315309618167,0.0124297438251053,0.0365213392654929,0.189479233214262
9,21,3,-0.323256883981946,0.0275543999795783,0.208050265291972,0.283522332000669
10,21,3,0.381414439548982,-0.0417489210744644,0.460652745132765,-0.60449563766042
11,21,3,-0.000915899898133709,0.000832758074178122,0.0495846168151985,-0.0621922148155891
12,21,3,-0.213555370458291,0.0231313459970247,0.101316508897268,0.140446165145476
1,22,3,-0.0716499869687663,0.00120772215453672,-0.0555912435506135,0.275009279544758
2,22,3,-0.223113397797207,0.0174557353469278,0.103202294624351,0.273499134634496
3,22,3,0.438698493872252,-0.0378765713390622,-1.07742710111541,-0.0776135021643833
4,22,3,0.0548788355788501,-0.00617494321340533,-0.215355945948897,0.0929793519551968
5,22,3,-0.365761238775647,0.0277180323630999,0.313933332441446,0.375755951193541
6,22,3,0.0167651555963016,-0.00279202663978262,0.0419564690292016,-0.0992864095926276
7,22,3,0.142460154692713,-0.0153093098583541,0.223019477137211,-0.331705003032976
8,22,3,0.0275763726607617,-0.00442936860482204,-0.118778382063082,0.102409063182334
9,22,3,0.348857476923687,-0.0393790602937314,0.144954892406155,-0.467133643455277
10,22,3,0.264470464144489,-0.0206165390025609,-0.484531437693065,-0.173437542249182
11,22,3,-0.158934867253029,0.0145792421690766,0.156126463708769,-0.125807484247864
12,22,3,-0.0618540527769565,0.00484825569046718,0.0872067562615489,-0.0618573401989428
1,23,3,-0.00575945112641696,-0.00321282450728635,-0.114491338615195,0.262481629428469
2,23,3,0.17727231178308,-0.024119249158105,-0.360309486051421,0.169830882356297
3,23,3,0.285084241565796,-0.0332007454130252,-0.589283996959173,0.0698341769701586
4,23,3,-0.114976262228307,0.00923945228677923,0.0899469517458919,0.0596216309811241
5,23,3,-0.195877136601795,0.0147289648631237,0.100363134842493,0.279436989988973
6,23,3,0.0894119804597352,-0.0110379790993377,-0.188812622379704,0.161028952361766
7,23,3,-0.0394037745353419,0.00338155016211727,0.10643499523336,-0.113150384960937
8,23,3,-0.128233033004362,0.00964235834444188,0.0213935459573512,0.237747896098507
9,23,3,-0.280795051913571,0.0279885757825387,0.140459436356345,0.158950029653998
10,23,3,0.241861045163382,-0.023404149956999,0.242035856613625,-0.35335838982456
11,23,3,-0.390023614440803,0.0307774811602224,0.36794042282675,0.325728367977503
12,23,3,0.18970869721216,-0.0183033815663834,-0.125099234793408,-0.161414550812354
1,24,3,0.201388428619046,-0.0194680626960483,-0.521439979621998,0.0102663235055106
2,24,3,-0.177020301661947,0.0155011585705271,0.132267911160136,-0.00843349257728718
3,24,3,0.392033859709633,-0.0358732596115152,-0.859576040864674,-0.0856492855814272
4,24,3,-0.237668074147314,0.0176788883721885,0.235172598094524,0.352023637137718
5,24,3,0.0717286329994969,-0.00491531377900885,0.0267659461230458,-0.149170049928256
6,24,3,-0.112786419741643,0.00748285145084314,0.0257748865438737,0.145686359445329
7,24,3,-0.096115029596928,0.00878035040110472,0.0534155634574752,0.0776832703692365
8,24,3,-0.0488460787293976,0.00613477230793201,0.0778225846598319,-0.0383728847900245
9,24,3,-0.544318462993517,0.0424081024890705,0.395769685862789,0.290638936397344
10,24,3,-0.252503092446441,0.0219610281211208,0.133441394751007,0.278651053364081
11,24,3,-0.615421294847885,0.0426158865054235,0.564415788760787,0.138567882288056
12,24,3,-0.297363549562572,0.0242536764935706,0.152424894307661,0.258100856323928
1,25,3,-0.156270957381941,0.010690940373595,0.0548923973533968,0.29778989414521
2,25,3,-0.241920489266173,0.01802962421014,0.182651941806948,0.328496919240065
3,25,3,-0.175465707568141,0.0156643164723736,0.0403979550651895,0.172676243372419
4,25,3,-0.504078752823166,0.0387251058569737,0.349981607438028,0.379508416960995
5,25,3,-0.0348497573751234,0.00301176392716231,0.148097644476312,-0.0813717207180674
6,25,3,0.00365259112588387,-0.00250630639679251,-0.0879703937074351,0.170707493900175
7,25,3,-0.472980948333459,0.0363949937573181,0.32327051441923,0.400291817895563
8,25,3,-0.2242372354057,0.0159366355553714,0.283960373619522,0.378639836599419
9,25,3,-0.0891758620602495,0.00645216685502232,0.19337142670226,-0.0794006341017734
10,25,3,-0.388645410836703,0.0301228800842414,0.293584439777636,0.379376177386235
11,25,3,0.0457268914867559,-0.00430432032371919,0.10037735773403,-0.202021756084734
12,25,3,-0.0553357507243625,0.00287543733590097,0.286654529327201,-0.212351337294374
1,26,3,0.0872366672172752,-0.0102227161714929,-0.294709455424657,0.113859918785096
2,26,3,-0.428735726623745,0.0327873291410968,0.385599616045135,0.365257860313462
3,26,3,0.0888723727077977,-0.0123036101083374,-0.200434830821957,0.198422450543546
4,26,3,0.0494115054395647,-0.00332830987111606,0.0216421366107663,-0.106940802030569
5,26,3,-0.0711842806407637,0.00599353608273192,0.166157977522844,-0.251592316714655
6,26,3,0.226306022543737,-0.0215082108350778,-0.0842503698288596,-0.222734073160269
7,26,3,-0.327414226101592,0.0275895140965347,0.268226515671528,0.161356498082198
8,26,3,0.271689256690849,-0.0275736487261941,-0.0424421406920513,-0.32278653133986
9,26,3,-0.433786333902563,0.0330166151573286,0.337210935539247,0.341070439935205
10,26,3,0.286283501143015,-0.0331088714067587,0.385542479921286,-0.519035325627383
11,26,3,0.174592684360563,-0.0167352081618335,-0.368311251229733,-0.00359184029151125
12,26,3,-0.0982457497920956,0.00453034098848273,0.201586249101315,-0.131033171357576
1,27,3,0.179444755772926,-0.0201379467254531,-0.432625857503494,0.0782153108950729
2,27,3,-0.0798009957068727,0.0010536311573551,0.280918686457192,-0.248916547266514
3,27,3,0.0032259019848663,-0.00109617846706523,-2.50096660866854e-05,-0.000753590503059325
4,27,3,-0.00484671963415802,0.00116905423278871,-0.00010853479939118,0.00149968609708079
5,27,3,-0.511894475870275,0.0396690760250098,0.214918718396079,0.471869411658861
6,27,3,0.174222271072173,-0.0172873565186197,0.213226723973142,-0.351249100890174
7,27,3,-0.135816253881925,0.0122416371520289,0.0160205689179697,0.26020236853313
8,27,3,0.39213901232659,-0.0333710336265942,-0.958051411633383,-0.0807648436146889
9,27,3,-0.32924142083279,0.0272522387217575,0.206340642806776,0.292155036630809
10,27,3,-0.191661022622533,0.0149947906111545,0.085124705532443,0.281056204390947
11,27,3,-0.148704356550988,0.0123807543411904,0.151096908132465,-0.104200645648115
12,27,3,-0.0756716957832033,0.00625653237915811,0.00911606420786616,0.0981761904245989
1,28,3,0.373405438892418,-0.0492387707513869,0.531930336377872,-0.707120172341424
2,28,3,-0.00224802718760526,0.000775134199819066,0.0641040263361384,-0.100835001451645
3,28,3,-0.408715184455756,0.031443539000666,0.341473729696045,0.341035107069065
4,28,3,-0.0112837655307283,0.00436593867237024,0.214195801055216,-0.273032174914406
5,28,3,-0.609887468338504,0.0435745325328381,0.216889435961194,0.637428668484146
6,28,3,-0.457709917548089,0.03638213341697,0.196594003279167,0.303449634199736
7,28,3,-0.350300410036965,0.0275990552247714,0.258402426467868,0.346919890849801
8,28,3,-0.229585980630645,0.0188300049448899,0.0984257438502603,0.230486171517714
9,28,3,-0.299754434528901,0.024495696538559,0.14620973460321,0.247912791538742
10,28,3,-0.417550842897212,0.0319959462488653,0.301016688398116,0.383930001351037
11,28,3,-0.355047368558694,0.0285410390293553,0.214003387502499,0.309279568390111
12,28,3,-0.0148326434246509,-0.00376831621538337,-0.0747398356887517,0.264809298909078
1,29,3,-0.23576874102411,0.0175260259538708,0.16422107192382,0.340693207106675
2,29,3,0.356584376988266,-0.0444022147153394,-0.795703223056757,-0.00873750395484203
3,29,3,-0.1850882224699,0.0133877205507556,0.144254109627378,0.316582997205645
4,29,3,0.163120927749348,-0.0182564002817352,0.0793744879710765,-0.299537520437658
5,29,3,0.0672910912089186,-0.00560464597211573,0.227815329476031,-0.268659798202205
6,29,3,-0.190935139195997,0.0161681807907263,0.116533874768808,0.127004006614043
7,29,3,0.0657241347748309,-0.00745234811319343,-0.249300534537809,0.12156011708149
8,29,3,-0.0541276072579242,0.00562354395603223,-0.000792327431477039,0.0312848364676021
9,29,3,-0.321294284034651,0.0294516697569431,0.160466675626878,0.22520164397972
10,29,3,0.216996496489342,-0.0171151068641185,-0.193165823829344,-0.224965063999773
11,29,3,0.118739280062323,-0.0134863043615198,0.0453278590179438,-0.218950069731469
12,29,3,-0.393083805740194,0.0320782138091584,0.0858429231773378,0.21897080888179
1,30,3,-0.178739374764505,0.0131262555573747,0.06876673033789,0.285710152820641
2,30,3,-0.299636150023191,0.0304621926524009,0.152689332474005,0.198326344228636
3,30,3,0.130767408200573,-0.0159276757189526,-0.241544938513991,0.171749767816287
4,30,3,-0.15756504700342,0.0108562902499664,0.0474409063730991,0.278949707218087
5,30,3,0.2149143994882,-0.0247614920860173,0.249386341944493,-0.381944152380321
6,30,3,0.43975099807098,-0.0610246083224423,0.539963044395096,-0.760645577607613
7,30,3,-0.383686980989215,0.030801780351824,0.206502680747757,0.343961968110458
8,30,3,-0.354609636373888,0.02664984682117,0.281491208404722,0.344735000979834
9,30,3,0.423969998487619,-0.0468017099817523,0.146289350382639,-0.546209097408222
10,30,3,0.240616027396738,-0.0294086724666902,0.397747893048212,-0.529625212947475
11,30,3,-0.0138000516685275,0.00135521558193465,0.11432585959635,-0.0782909856451427
12,30,3,-0.385160720716055,0.0304113307918394,0.193681264367849,0.316970195585099
1,31,3,0.209822855474269,-0.021286894388084,-0.530517430350773,-0.0189108140472626
2,31,3,0.104350619786553,-0.014566998878377,-0.296340621052413,0.15825498441614
3,31,3,0.11790800317578,-0.0145529560075399,-0.225779880600113,0.170189700810805
4,31,3,-0.0344220301843696,0.00289843910639306,0.00241748309095493,0.0145091169494457
5,31,3,-0.0661811545577422,0.0062211237775328,0.00322152230104762,0.0919313930304879
6,31,3,-0.334377103119536,0.0277232267804022,0.20814516125379,0.315342056206209
7,31,3,-0.0150466987740164,-0.000958748251788268,-0.105553285072851,0.167648413027892
8,31,3,-0.551616893602582,0.0486568806084985,0.209855100270323,0.550074838697245
9,31,3,0.396849875724014,-0.0441252957461627,0.0414886411560828,-0.470183923396667
10,31,3,0.231726372488389,-0.0277369852523825,0.361370751939057,-0.490953254409583
11,31,3,0.271444376500983,-0.0277562912099218,0.0118087442629076,-0.345523872960564
12,31,3,0.154543763436357,-0.0177655161401581,0.0604912946002425,-0.271990200010862
1,32,3,-0.214564397056212,0.0151905945862659,0.153345896198238,0.28769776716846
2,32,3,-0.192275672501399,0.0141341538793545,0.172171944421478,0.309222196008257
3,32,3,0.321059394838675,-0.0352083376180689,-0.661896137878654,0.0511731764077726
4,32,3,0.00735542938312014,0.00087986207638258,0.00095273165131052,-0.00430027004128215
5,32,3,-0.122153761064332,0.00855977177574818,0.0240291659633967,0.170455276660146
6,32,3,0.234922359195273,-0.0328398264310576,0.518932181003744,-0.62641603891741
7,32,3,-0.0893463605299589,0.0082838570460765,0.00134339704919661,0.12625206281368
8,32,3,0.532967143554689,-0.0897251529284957,0.294973309724284,-0.516147187949211
9,32,3,-0.022837466645268,-0.00376396365294807,-0.0383859428957434,0.295222553436128
10,32,3,-0.332911784873703,0.0243978871806882,0.283441759094832,0.361783754581486
11,32,3,-0.0278732993703164,-0.000478186751525484,-0.0774648038368822,0.221358829461247
12,32,3,0.00671840998200381,-0.00364368058566077,-0.0997027278272096,0.201265029500259
1,33,3,-0.390103579275384,0.0306362450836739,0.230504969958766,0.362657760291079
2,33,3,0.17550959679898,-0.020930012837121,-0.426745670269763,0.119661496817792
3,33,3,0.19639632422042,-0.0214684855149202,-0.4201979221488,0.12821680012479
4,33,3,-0.069956928422556,0.00582523849847511,0.000290295644591438,0.0440577754693016
5,33,3,0.520925244450564,-0.0520509809724477,-0.0338684119430849,-0.605375295324099
6,33,3,-0.927194908087341,0.0594716926485554,0.231136932541983,0.773118950282369
7,33,3,0.154727381372514,-0.0179959435797538,0.196957533161726,-0.308303899349887
8,33,3,0.23199834921333,-0.0218500576740663,-0.526193525872187,0.0524237349044625
9,33,3,0.225834285190865,-0.0213852445016682,-0.199060458297821,-0.171110602550279
10,33,3,-0.123675126136358,0.00854041110460805,0.0145721432579229,0.182049708428439
11,33,3,-0.104630370920985,0.0113135510557916,0.00977235508850783,0.12661750265427
12,33,3,0.278300683729758,-0.0292851825374732,-0.577725693755899,0.038803288424744
1,34,3,-0.356414300508721,0.0272129997123976,0.407506438936984,0.405846601355605
2,34,3,0.171719666272974,-0.0203178514002163,-0.421093834731584,0.119433879983622
3,34,3,0.125884325849947,-0.0174288092071994,-0.251188227350231,0.204118592329937
4,34,3,-0.0231223455931131,0.00292409530686459,0.0670224135061515,-0.0410472389908729
5,34,3,0.350684665659634,-0.0384886295086741,0.259116930875266,-0.43268129415324
6,34,3,0.0315978929157701,-0.000665148508608422,0.00119426446088602,-0.0150226874937444
7,34,3,-0.239913513138934,0.0190046088744039,0.151782622605322,0.289482628549096
8,34,3,0.145937731541761,-0.0157556566474955,-0.368841623770076,0.0792573119938648
9,34,3,-0.0237875451377168,5.60694957955407e-05,-0.0624860331676931,0.182742831477468
10,34,3,-0.238972359503429,0.0179002943199849,0.241705901061645,0.344389745330673
11,34,3,0.3285514788478,-0.0419402719794926,0.437062306721258,-0.603220814159935
12,34,3,0.0958729691960436,-0.0106310655444008,0.0249517697305379,-0.164644238945257
1,35,3,-0.163183147148891,0.00957153817660218,0.0912918648311755,0.3354361161053
2,35,3,-0.032421141757968,0.000895489591714182,-0.065538075444514,0.181518680309122
3,35,3,0.0352446545000101,-0.00513569932917462,-0.105921375515511,0.124403660189565
4,35,3,-0.0274489840631411,0.00230949941214409,0.0025192953350585,0.00899301002583061
5,35,3,-0.209398984347206,0.0161704050270761,0.123359363483762,0.248043345528434
6,35,3,0.328807719334252,-0.042640762390891,0.413558600632921,-0.59959470030622
7,35,3,0.245934727244241,-0.0192516967642554,-0.490431017773805,-0.133656388739577
8,35,3,-0.194528725581166,0.0167306381455646,0.061829053981989,0.202046492788394
9,35,3,-0.117399195909802,0.00175742556162932,0.11996223083755,0.351615617607274
10,35,3,0.106071485815366,-0.00943983827457376,-0.179297476114119,-0.0492746974995541
11,35,3,0.0803406201677792,-0.00884020330149137,-0.144954192977732,0.0385589147974222
12,35,3,-0.121003968307427,0.0103399699398959,0.0257694983333155,0.145039887145912
1,36,3,0.162511087011568,-0.0164853753538058,0.0666260218864225,-0.255179890310968
2,36,3,0.352335306772941,-0.0347967630136322,-0.793696289448089,-0.019226034271697
3,36,3,0.689476259198671,-0.0803522155921429,-0.149083196471993,-0.75650320045823
4,36,3,0.127919645973752,-0.0109354288557562,0.189157498188014,-0.292352408123672
5,36,3,-0.230829381858187,0.0200576527907679,0.121832079219118,0.244304510457564
6,36,3,-0.774296414914975,0.0536341318429851,0.466237208096591,0.448216653289446
7,36,3,-0.590375373203818,0.0519906993210874,0.310856508505173,0.547873141071842
8,36,3,-0.395195691712586,0.031706367820276,0.273342088337543,0.359695000464369
9,36,3,0.128818250740609,-0.0151195886653794,-0.279099299785966,0.127400102016019
10,36,3,-0.200995394837807,0.0169638912844079,0.0541860043640556,0.219898427918069
11,36,3,-0.203246630138327,0.0151186095130833,0.130412543531925,0.245114148875207
12,36,3,0.119301323116059,-0.0135331242693277,0.0304547977696474,-0.192840404574898
1,37,3,0.336339878454955,-0.0347916451928728,0.39615122452238,-0.520820706679756
2,37,3,0.123985574023797,-0.015071277870512,-0.258185777631332,0.208056031086708
3,37,3,0.00578928051547515,6.12024013375477e-05,-0.0344954046406312,0.0521005136925985
4,37,3,-0.345801512570098,0.0254810296593055,0.226985801509628,0.352977539317311
5,37,3,-0.0128920598960777,-0.00401597263158923,-0.0697223854620235,0.29467968877214
6,37,3,0.167757938709469,-0.0192002459475812,0.169837146224246,-0.30447980405782
7,37,3,0.175079833332852,-0.0194079882883965,0.209377779473759,-0.318688651579565
8,37,3,-0.182889672309623,0.0139063991817661,0.0550988097929503,0.198784569403598
9,37,3,-0.200064051329313,0.0167710963944058,0.140836569450262,-0.0554665633604944
10,37,3,-0.192485818950375,0.0168617922562721,0.111601386811716,0.154794677508145
11,37,3,0.29692550789864,-0.025267496048787,-0.525193212532884,-0.154829648963231
12,37,3,-0.123903918469109,0.0110216868434037,0.105234527402067,-0.0173481955805197
1,38,3,0.249376820045881,-0.0249738653996254,0.270737991711877,-0.384537913456832
2,38,3,0.0590096151096793,-0.00812979380617587,-0.200942809468145,0.105529154698771
3,38,3,-0.0404968216113012,0.00142530451767976,-0.0483804558561462,0.199552761674832
4,38,3,0.162618871147198,-0.0169183163291744,0.0687526950856318,-0.260906364559137
5,38,3,0.335546135383958,-0.0280137326976438,-0.693739358550338,-0.144252509958858
6,38,3,0.174737434849662,-0.0255346526998027,0.470274851702892,-0.652636979779831
7,38,3,0.15274245354014,-0.0173468198842782,0.264992675971958,-0.375442646906007
8,38,3,0.258192607972226,-0.0256655476748516,0.0284151114441062,-0.325495966442978
9,38,3,-0.201538065077574,0.0136480448169758,0.323703037143252,-0.138825299726234
10,38,3,-0.317773840821596,0.025904026315183,0.145872592171618,0.295979247011572
11,38,3,0.0223372386354274,-0.0017765389625554,0.0712118616036355,-0.115102204237961
12,38,3,0.159913507703866,-0.0184508666849677,-0.35645571936852,0.108885944155634
1,39,3,-0.303415049305265,0.0226278865398353,0.3137800531305,0.381801669910688
2,39,3,-0.0088426154555582,-0.00247160081326108,-0.0993544915696003,0.208663124153131
3,39,3,0.155336794722743,-0.0151245139487118,-0.279723312910872,-0.00180032289699204
4,39,3,-0.01630094514832,0.000739913358932338,0.0889271652498893,-0.0427826293638219
5,39,3,0.0947372571914143,-0.00766028742286736,-0.00887526596168963,-0.0975505772903884
6,39,3,-0.0527701460795862,0.000192716897550353,-0.0334756452397061,0.265250002864657
7,39,3,0.108813913383244,-0.0113624282786248,-0.36463982698109,0.104626810123107
8,39,3,-0.135563517851251,0.0174608454453176,0.0675799655782071,0.074702057723486
9,39,3,0.191621456069415,-0.0182046374090146,-0.00870856859341962,-0.178352759503429
10,39,3,-0.359977152514935,0.0297389886449978,0.234748349715339,0.265237921475511
11,39,3,-0.0956883987479861,0.010086111092595,0.00738863728615584,0.116978946557517
12,39,3,-0.0436252430300739,0.00265043709110954,0.285042110901298,-0.22312510092184
1,40,3,-0.398099357639945,0.0296558847967736,0.36408433570601,0.396571411220582
2,40,3,0.19084484639896,-0.020666431994592,-0.355479061156899,0.1647786111022
3,40,3,-0.236609780871458,0.0181260435219259,0.178764203611209,0.300721271836755
4,40,3,-0.0463731542992217,0.00311177505877826,-0.00313908396229974,0.0339874638377245
5,40,3,-0.148348980914008,0.0129734474908885,0.14028052179708,-0.0420914478256297
6,40,3,-0.31618424904436,0.0257733309278098,0.167409399283157,0.265012182368046
7,40,3,-0.270572715375414,0.0233331226265373,0.190921171463498,0.187104231368898
8,40,3,-0.286417691043454,0.0216409841129494,0.261316939343299,0.364906682044279
9,40,3,-0.359124787515083,0.0275111760344237,0.260295475600004,0.334337138854184
10,40,3,-0.288856695771869,0.0227137272467488,0.199993681580762,0.323966648290808
11,40,3,0.0684173509190923,-0.00947171087027305,-0.232060984059491,0.17006026454433
12,40,3,-0.00250618597682385,-0.00161224076408995,-0.0765877105990775,0.158359886008888
1,41,3,0.335594059317242,-0.0403313135139555,0.451773590401241,-0.599886789945284
2,41,3,0.311164254855822,-0.0292206546382119,-0.71171189822862,-0.0353043295392403
3,41,3,-0.0259230516133987,0.00268163385628477,-0.0343857580630042,0.111165362747751
4,41,3,-0.179428312532765,0.014143581064715,0.0925329124315872,0.248706778041906
5,41,3,-0.310321855601609,0.0249777947712579,0.168967800935201,0.280920819499072
6,41,3,0.314976540309519,-0.0321114099256102,0.11085656202275,-0.396960433416574
7,41,3,0.42398032665531,-0.0533612043177817,0.439755484326227,-0.577747778498071
8,41,3,0.255178463843919,-0.0292019727647772,0.367234689344982,-0.517490120697326
9,41,3,0.194986746199229,-0.0228964708863373,0.201839344375799,-0.344575371718548
10,41,3,-0.300408022280437,0.0243303364438863,0.142840089094687,0.291060698111657
11,41,3,0.125241891711151,-0.0125447768429045,0.195898147566696,-0.293353072228069
12,41,3,-0.0759875210727144,0.0046352530552101,-0.02174641002249,0.214470422368944
1,42,3,0.124393035022593,-0.0138657489335758,-0.356771903258079,0.100703228771909
2,42,3,-0.0161456129856196,-0.0013960831267788,-0.0890085325636178,0.211486882571361
3,42,3,-0.210697950661708,0.0185694708619705,0.107714387498546,0.216220319729186
4,42,3,-0.0205283244765658,-0.00116648111266554,-0.106206258007415,0.234344972524383
5,42,3,-0.315144619847875,0.0248216576122462,0.175974510996567,0.29483069054001
6,42,3,-0.244905045233979,0.0182739929957271,0.155607072211987,0.282130982097052
7,42,3,-0.122758836276092,0.00697910051438535,0.0386900807156616,0.31481469654573
8,42,3,-0.472329097325836,0.0365253682129997,0.274947298563878,0.381592006530586
9,42,3,-0.333546142224111,0.026998196591548,0.339263293348254,0.342919424947868
10,42,3,-0.189275499077898,0.0132662389094263,0.0998796039999415,0.316815773628051
11,42,3,-0.367148078544093,0.0308248824532141,0.21546348149893,0.227502211984163
12,42,3,0.0593820481483224,-0.00517015634491161,-0.00316064184945346,-0.0187726460470032
1,43,3,-0.275185487375345,0.0201875833685715,0.234490457267192,0.351908799050466
2,43,3,0.215150274812942,-0.02217545886126,-0.42086905675286,-0.0477999591845972
3,43,3,0.287496345636839,-0.0342260169041749,-0.572198522494562,0.100954901160658
4,43,3,0.298689530793363,-0.0342689471056682,0.400460060306293,-0.538737748612498
5,43,3,0.209566570475513,-0.0246038184540901,0.25352459122615,-0.38467924021481
6,43,3,0.163934244375157,-0.028196593264515,0.514667451348694,-0.596926513856576
7,43,3,-0.180009247734891,0.0163653035585913,0.176753822576069,-0.0338307294613385
8,43,3,-0.49921711515489,0.0341709992986588,0.516101212962463,0.247973133756868
9,43,3,-0.0306846495241661,0.000110399570005886,0.343456239449306,-0.291234644949641
10,43,3,0.266696666678718,-0.0266051202660617,0.298472968492008,-0.411371073415182
11,43,3,0.350470662375371,-0.0308253057222565,-0.81300732739577,-0.0783582224560613
12,43,3,-0.240651031372909,0.0195264182879866,0.123452785719447,0.230072590911877
1,44,3,0.258524888282977,-0.0227453851589217,-0.660690141972201,-0.0212323432358389
2,44,3,0.253040765288224,-0.0307650919380933,0.324776930533372,-0.472013595551873
3,44,3,0.856498822760291,-0.094717047614382,-0.469702355013834,-0.910483422339508
4,44,3,0.125869405485312,-0.0145429898228312,0.130632047152711,-0.233452212991474
5,44,3,-0.199701242030478,0.0149469748446116,0.157922843632069,0.285869729240565
6,44,3,-0.321352735555466,0.0262157021318265,0.165484000372479,0.262469229884848
7,44,3,-0.100101632329312,0.00905263787935157,0.112814131896853,-0.0137477828746347
8,44,3,0.483063504140838,-0.0598202736567481,0.611060697574991,-0.835315058631843
9,44,3,0.234772050552903,-0.0227499714660973,-0.440279413608298,-0.0248379615172678
10,44,3,0.25175396919926,-0.0239310853438234,0.244472152681578,-0.357764337436289
11,44,3,0.845052895927128,-0.113881448975419,0.49417592573748,-0.779225104742734
12,44,3,-0.432918746949319,0.0320082093196425,0.277770329370296,0.347243015473417
1,45,3,-0.0442199293405217,0.00374904943803507,0.00167879623904512,0.0224720292364717
2,45,3,-0.131421587481567,0.00800268933471053,0.128680188175526,0.371779864105889
3,45,3,0.299156683293944,-0.0344616099928953,-0.602831273049593,0.0815239355820751
4,45,3,0.336253881714559,-0.0411173780592699,0.325907288920549,-0.459204161715279
5,45,3,0.133714467158697,-0.0126028393743501,-0.255457585273971,-0.0141397879398486
6,45,3,0.186119490145101,-0.0178029010979207,-0.282442180317917,-0.0573725683885488
7,45,3,0.391090136371999,-0.0465957422011056,0.498361066943004,-0.659101813466867
8,45,3,0.0556453560835453,-0.0056439061439218,0.140435064586603,-0.267876700553618
9,45,3,-0.304508835132664,0.0258829637630155,0.170854758756413,0.158242864496781
10,45,3,-0.246901004392334,0.0182433289153961,0.234122532670616,0.352780327839075
11,45,3,-0.115947454970515,0.00752510756808204,0.0225314962076342,0.25952710756184
12,45,3,-0.282677345610324,0.0231538557939038,0.147771296559391,0.247426537067872
1,46,3,-0.0335542105029084,0.00504816635507797,-0.0749583536575752,0.169190565309116
2,46,3,0.101569630199593,-0.012093882798655,0.0254128814450419,-0.153566198697227
3,46,3,0.163577921874384,-0.0182666735778114,-0.359108874846576,0.0893213805827417
4,46,3,-0.300762175033196,0.0240619777213438,0.16472550100076,0.303843850571303
5,46,3,-0.217787153248577,0.0176250202466091,0.137186842514732,0.261683977704051
6,46,3,-0.233442745079525,0.019461505864644,0.0832382521157259,0.194650171875615
7,46,3,0.277618521735282,-0.017212189915419,-0.377681105528991,-0.102658145738184
8,46,3,-0.232299041953178,0.0190621878056552,0.0989770460937895,0.230574479638961
9,46,3,0.209797882308145,-0.0202013006925505,-0.337468219893782,-0.05977735858832
10,46,3,0.112953821481355,-0.0120890624462659,-0.14092994810344,-0.071005418779382
11,46,3,-0.171031551039453,0.0157859406575058,0.0900319259424907,0.286135644537498
12,46,3,-0.495168971349936,0.0381951085698072,0.291282970444788,0.362371623765951
1,47,3,0.0775708664445139,-0.00666612622839117,-0.26498413840107,0.179022341422479
2,47,3,-0.144576977935525,0.0107795898676601,0.0353771643293923,0.249489866479056
3,47,3,-0.0317424214938205,0.00171286591158222,-0.000535861630613597,0.0191862237154907
4,47,3,0.131027124588798,-0.0124115544515156,-0.163943157850511,-0.0954791670867689
5,47,3,0.127628981863519,-0.0197929644006441,-0.316251154565011,0.119177225516312
6,47,3,0.455320571032442,-0.0402587688152496,-1.27888377609455,0.011806372786784
7,47,3,0.331432509431053,-0.0225948885047763,-0.837416005158376,-0.129637667384923
8,47,3,-0.241976304102766,0.0206902603112725,0.135344191428472,0.24954438870103
9,47,3,0.244328687060371,-0.0298093960551983,0.284978714807827,-0.439138218685322
10,47,3,0.143793626721494,-0.0149883040245963,0.0495757802281988,-0.214681878776447
11,47,3,-0.140007914643239,0.0127607992074464,0.106709772055622,-0.00355512245582571
12,47,3,0.274926285050591,-0.0337293302404052,0.343763901399464,-0.502837829860023
1,48,3,0.143653330216671,-0.0124747053710654,-0.350671668838337,-0.00651801027646995
2,48,3,-0.0453653984094773,0.00359017847978802,-0.00255361980813612,0.0651099008039721
3,48,3,0.49353876060343,-0.0466200852506003,-0.50539895809506,-0.429415838488517
4,48,3,-0.19153884345795,0.0152252529036284,0.111083292032964,0.25876298062523
5,48,3,-0.253560131326465,0.0205418201715749,0.128822403911882,0.261562774483847
6,48,3,-0.232235152143182,0.0180330936676301,0.19872387341134,0.280634850387944
7,48,3,-0.252276163012262,0.0200162376266709,0.13977794236526,0.293992644952468
8,48,3,-0.0153918599846598,-0.000753796143463258,-0.0822118339525523,0.180255254469684
9,48,3,0.310021025361546,-0.0324153415901926,-0.00608949758388289,-0.361678790700267
10,48,3,-0.158976441182955,0.0121188247753458,0.0256038501316109,0.191241380055268
11,48,3,0.379778579668456,-0.039363111609385,-0.0867161557545828,-0.434702602777323
12,48,3,0.257939775626139,-0.0284559858381244,0.223088449889732,-0.485339157923901
1,49,3,-0.409154784108616,0.0313522260790931,0.292412620503054,0.382965881375208
2,49,3,0.215732956152172,-0.0232925938008645,-0.499304263571004,0.0440569507623082
3,49,3,-0.0117565728709892,-0.0099551498641934,-0.0180593513120424,0.333529130985701
4,49,3,-0.0293135085248132,0.00288048916161297,-0.00149763002231169,0.0169053750293893
5,49,3,-0.154292881992263,0.0124995570890239,0.0219775949735632,0.161162761023672
6,49,3,-0.241052606723298,0.0199221942270815,0.11582926599928,0.218993453027365
7,49,3,0.159542600200987,-0.0176262941355998,0.0763676247478088,-0.27758884665183
8,49,3,-0.32969519047607,0.0275609331663565,0.154461556400637,0.277344295509349
9,49,3,0.268019771928508,-0.0276180068659647,0.0382491012482122,-0.336945949490831
10,49,3,0.230353190900508,-0.0285094385883587,0.397955280591119,-0.525989341695955
11,49,3,-0.680904980213603,0.0459587542964552,0.181451979650268,0.762361010377338
12,49,3,0.333718569925244,-0.0312723436537716,-0.668012916785868,-0.0816696559275037
1,50,3,-0.477727200966795,0.0353002384334043,0.434619398766198,0.401877769429771
2,50,3,-0.191893252987054,0.014226349676539,0.109400414785528,0.301344367855465
3,50,3,0.337741932399429,-0.0387466799851663,-0.623757489995844,0.117987322405008
4,50,3,-0.684767769022269,0.0436954502327332,0.0665975382849114,0.942789327246503
5,50,3,0.28396026996479,-0.0305786817513118,0.409243307408584,-0.565561201820191
6,50,3,-0.248032042443265,0.0188055381859722,0.171706636052983,0.294556205988086
7,50,3,-0.233589154395519,0.0170825080889402,0.218993758728691,0.351791413335474
8,50,3,0.302543249166504,-0.0296986773753933,-0.165935734730283,-0.311445584301911
9,50,3,0.249307797868286,-0.0295987726358016,-0.504835260953464,0.11438309294841
10,50,3,-0.307735037732186,0.0252139979594322,0.182682193815587,0.332596064718279
11,50,3,0.323476258553593,-0.0424812846379367,0.444136971938672,-0.617298839445361
12,50,3,0.0648104201295381,-0.00941221386455427,-0.165267664672293,0.208818603389982
1,51,3,-0.0207628116701463,-0.00192883324307488,-0.143694101106803,0.212053619595943
2,51,3,0.152111348849046,-0.0162269701170031,-0.171411178557638,-0.0837338462621934
3,51,3,0.091244107850993,-0.015122780161659,-0.187322054774968,0.262184189337753
4,51,3,0.124927743521526,-0.0126993726525626,0.183842374862507,-0.281194757458608
5,51,3,0.00908972216103336,-0.00252344657482099,-0.00151846741081162,0.000101106237787847
6,51,3,-0.0566167126159264,0.00377893003517533,-0.0272203422615321,0.156122551376047
7,51,3,-0.214780020097829,0.0151746511676352,0.167041312210905,0.296319786547829
8,51,3,0.220886316725419,-0.0206666274177725,0.419794054996008,-0.565070924553163
9,51,3,0.431373817749155,-0.0389677811903811,-0.542924873941301,-0.33362152648149
10,51,3,0.126624101977284,-0.0108376141919203,0.18327702450262,-0.288153809905944
11,51,3,-0.142123467651042,0.0108996786404067,0.0541375405104497,0.277076778271824
12,51,3,-0.0972605199304367,0.00949494228359214,0.0857985545983811,0.0130456673675772
1,52,3,0.263827267669714,-0.0236403254979049,-0.670929614844391,-0.0454244341799513
2,52,3,0.547597905160273,-0.0450413276669066,-1.28898126091212,-0.159559656649037
3,52,3,-0.162049713341981,0.00199109006285936,0.127586598943199,0.327120774830312
4,52,3,-0.272985933524859,0.0197803945651726,0.208231866937368,0.328881539878881
5,52,3,0.143796678999508,-0.0177035599141737,0.348474286067247,-0.481072677250307
6,52,3,-0.406287001670788,0.0326354211189872,0.236529013867304,0.336625398405589
7,52,3,0.195058702530466,-0.0192725695312006,0.0818142676983992,-0.289470563521087
8,52,3,0.54942430191168,-0.0354084818307666,-1.05270909063496,-0.489128305641888
9,52,3,0.112174391654949,-0.0115102672005717,0.0347197195455173,-0.204152927212381
10,52,3,0.387082009109714,-0.0304509332107198,-0.965251775247274,-0.220635085458912
11,52,3,0.0279247510768568,-0.00436768824957877,-0.108951137490823,0.120364831994948
12,52,3,-0.100101788961949,0.00307947711369393,0.227298232695878,-0.170609108286472
1,53,3,0.305695100687576,-0.0227828576176951,-0.674492428720017,-0.168949328470813
2,53,3,-0.509664824045897,0.0424019732194735,0.175584303823909,0.522599738983442
3,53,3,0.244844372805756,-0.0273756305428586,-0.506137772723199,0.091852505304722
4,53,3,0.421355434532353,-0.0431292694780293,-1.27295878911461,-0.182597236846386
5,53,3,-0.212381365660787,0.0184159147091914,0.137849151816035,0.0564791237519505
6,53,3,0.0318981746231114,-0.00795951793271672,-0.12949774047884,0.255590887464673
7,53,3,0.294969468349786,-0.0260181894004058,-0.20956034234782,-0.32992558278206
8,53,3,-0.383019666774421,0.030267794621205,0.276847121080283,0.348050710912684
9,53,3,0.0382155098755837,-0.00807539002987643,-0.136563165240517,0.244292979403375
10,53,3,-0.301102017644154,0.0232652985453426,0.182382059877199,0.331531592954858
11,53,3,-0.014003771452401,0.0017639115871345,0.0797314984498345,-0.104967477145499
12,53,3,-0.0687409696044279,0.00607769557034127,0.00660009175875527,0.026905985654692
1,54,3,0.0838358320615187,-0.0102629998418999,0.0272876036093858,-0.139034586337484
2,54,3,0.264600824512421,-0.0265121077545792,-0.606071228433609,0.0242821956082947
3,54,3,0.469529422992831,-0.0497615300194086,-0.168524454510685,-0.482273223131058
4,54,3,-0.929713309729869,0.0628918443998995,0.525664342959065,0.561021347738716
5,54,3,0.218055046790034,-0.018191455702878,-0.270119031465038,-0.138184333796366
6,54,3,-0.0914717414744431,0.00613189334017705,-0.00422585299710222,0.229833092509761
7,54,3,0.211516273197484,-0.024995273669243,0.295558283980221,-0.419631987648977
8,54,3,-0.429429683233677,0.0338636546466178,0.27546319974121,0.34582490229421
9,54,3,0.323206300699554,-0.0422516467284551,0.476316270159223,-0.669581704503096
10,54,3,-0.231328637735129,0.016593793512466,0.17259292987424,0.320583751937623
11,54,3,0.0606912521775029,-0.00762246198752303,0.216884026484311,-0.240256594733834
12,54,3,-0.00416930699828506,-0.000729195341179206,-0.0549995778722607,0.0903939187033999
1,55,3,-0.0570108329956974,0.000976910602466824,-0.0883440309466392,0.25433011499139
2,55,3,0.240313738486465,-0.0213937649296606,-0.429746940973787,-0.0980777533517429
3,55,3,-0.159806961522378,0.0110921344831713,0.107497703412417,0.305052530040575
4,55,3,0.0735008901501705,-0.0086833944979565,0.0247528758085127,-0.127118500726128
5,55,3,-0.131680672977436,0.0108072301157204,0.130425579112596,0.0547445048516221
6,55,3,-0.0491658952526438,0.00400816567176338,-0.0249686771613956,0.139656255621429
7,55,3,0.0836267736797857,-0.00858747318000608,-0.273162157600406,0.0622985984742599
8,55,3,-0.0628307687709826,0.00609212388995308,0.00212487274894381,0.0852156410629559
9,55,3,0.598879638458073,-0.0513789371812328,-0.708637883050186,-0.566545855519554
10,55,3,0.430846046659046,-0.0510163612009989,0.528627883658479,-0.695824727970047
11,55,3,-0.0272264100566518,0.00102805836583307,0.174641138611894,-0.302687618678258
12,55,3,-0.136763305625148,0.00977007633383367,0.0672758990985131,0.277460936132135
1,56,3,-0.212108783224739,0.0157932901372011,0.105421617682742,0.296630253620198
2,56,3,0.0662052656272874,-0.00723715603169438,0.01872247934286,-0.115889677528984
3,56,3,0.456912399295539,-0.0456341396042191,-1.01993741865929,-0.00775872888292095
4,56,3,0.385111213797117,-0.0419141436567919,0.461444274059786,-0.606650809529706
5,56,3,0.0122554211967759,-0.00306529632367942,-0.100845848844467,0.134319065896389
6,56,3,0.359883217199376,-0.0358610200651685,-0.219770176938383,-0.337048829643535
7,56,3,-0.022090248046611,0.00119966331261373,-0.00152705105990462,0.0137143408614824
8,56,3,-0.015157148232337,0.00156666781089315,0.133123676326805,-0.092037585569275
9,56,3,-0.536000147109054,0.0405380862422875,0.390507719279975,0.307635197741405
10,56,3,0.144220824013092,-0.0162245448055869,0.20855913963688,-0.357884454951205
11,56,3,-0.286408160175709,0.0245972503513067,0.185888889034223,0.0160121956817429
12,56,3,0.156494536763081,-0.0175585026403871,-0.177069313509786,-0.085573935284049
1,57,3,-0.196021819196134,0.0141267036596609,0.165120623941943,0.296245406138859
2,57,3,-0.324144902292478,0.0263000481354361,0.202131268172861,0.338654163858335
3,57,3,-0.0353244153323121,-0.00410023975287245,0.0429587372983527,0.355175569447303
4,57,3,0.211246692361329,-0.0217850489355757,0.0928439395821573,-0.366046094098831
5,57,3,0.272807520926033,-0.0358045378553065,0.430415503545074,-0.586895941392676
6,57,3,-0.0896941770384119,0.00794151037510067,0.0890365088850213,0.0081649091551685
7,57,3,-0.326021960318108,0.02623293736812,0.149264449370959,0.313445210179143
8,57,3,0.0366381317794447,-0.0039884311376956,0.0243475723675182,-0.100458232271459
9,57,3,0.221057377921215,-0.0265012727557255,0.250490556883399,-0.414955881437353
10,57,3,0.375032699741528,-0.0408422068104825,0.424321966369757,-0.6962842357078
11,57,3,0.135687862113871,-0.0158166597045208,-0.358148663669973,0.107533861703982
12,57,3,0.422779948976508,-0.0346452269202304,-0.884199092347645,-0.165224385645504
1,58,3,0.121715939931754,-0.0132748081115317,0.0655146208785396,-0.251803857738847
2,58,3,0.0878508564496761,-0.0119811041656867,-0.206543252561395,0.218985043599934
3,58,3,-0.400815544723779,0.0301707069870803,0.223684406404342,0.325615381157396
4,58,3,0.474242384534921,-0.0661139276505868,0.624534585653373,-0.832729000583421
5,58,3,0.0557543396865615,-0.00662670608487429,0.19192024884639,-0.21890835593569
6,58,3,-0.221867759747511,0.0191681951507908,0.129034734288892,0.0679419103893787
7,58,3,0.287365343949643,-0.0362401296806431,0.44123303467676,-0.584654461399089
8,58,3,0.351775499290673,-0.0299895045520413,-0.811853013675877,-0.0934633687198124
9,58,3,-0.157404420723058,0.0133555063595562,0.0629247461025581,0.185730925338281
10,58,3,-0.0276835214664648,-0.000901909982953487,-0.132757558560982,0.239394618113305
11,58,3,-0.253836567350951,0.0199484618282873,0.159383472965138,0.211058549576639
12,58,3,-0.0160222885852402,0.00194260109211702,0.0553760916590686,-0.0676179739432307
1,59,3,0.145053539483922,-0.0149013751791857,-0.426446767838618,0.0775807554086588
2,59,3,0.139305868801284,-0.0199880400434536,-0.316402493456663,0.183852702659095
3,59,3,0.0564715570279106,-0.00997466272709327,-0.160198861568347,0.236348496871602
4,59,3,-0.179832502078871,0.0136757189867159,0.0266233413317723,0.196706180204157
5,59,3,0.0463959799848151,-0.00521073199623989,0.0123082967327398,-0.0772004135767909
6,59,3,-0.156823437863556,0.0127669660087539,0.105708022662265,0.105601137847081
7,59,3,0.199941497480681,-0.0241244948939615,0.285043908048293,-0.407006696934192
8,59,3,-0.160321831821204,0.0140041284748879,0.148359731195028,-0.0388579304492539
9,59,3,-0.208504227251694,0.016936563870574,0.0690671264030638,0.186203913206031
10,59,3,0.0761898308846579,-0.00838501438154927,0.0286160947609404,-0.141070520572388
11,59,3,-0.179167181578273,0.0156058513114194,0.120008415945623,0.0436346648213676
12,59,3,-0.0928847572317689,0.00454702461232726,0.251048101916526,-0.205911840121151
1,60,3,-0.384785180640965,0.0305836223015622,0.231139113305512,0.320536414043724
2,60,3,0.0193662600387063,-0.007212280818957,-0.0993758068613336,0.295981950754259
3,60,3,-0.396410142530863,0.0298017588879623,0.238193620872585,0.336922028663704
4,60,3,0.331598009710611,-0.0300198855464462,-0.0072100357638579,-0.389712101068075
5,60,3,-0.0626185621097654,0.00349840004444524,0.00490843748516053,0.107263849782885
6,60,3,0.0574283685464828,-0.00805539246609834,-0.140958814650123,0.141903296369441
7,60,3,0.280997801152052,-0.031643848149253,0.361037464624134,-0.488793527861232
8,60,3,0.129951073654934,-0.0129314874328955,-0.291632210519315,0.0300015676269135
9,60,3,-0.057938002074347,0.00508859273301244,0.00632716368479856,0.0193337737586057
10,60,3,-0.0106248989869954,-0.000791917721339129,-0.0978792446726882,0.135496715277174
11,60,3,-0.621405657030471,0.0462712774147154,0.376778185794645,0.456037186699482
12,60,3,-0.0400509944600423,0.000912929274780985,-0.0512720644223129,0.218567477219028
1,61,3,0.123141025220727,-0.0135913283084905,0.0709654376717232,-0.264997287978751
2,61,3,0.464252529135284,-0.0374221780932304,-1.10625467681575,-0.0258776440978734
3,61,3,-0.18068817534075,0.0152210237751347,0.103365510397525,0.138363584864198
4,61,3,-0.196947863827102,0.0156908097496028,0.11831074269815,0.263814433131589
5,61,3,0.169349644387303,-0.0158288311342791,-0.184369893113553,-0.121638409428524
6,61,3,0.297407693481606,-0.0302500333841026,-0.0750546976148199,-0.3184174854192
7,61,3,0.203652105305134,-0.0224515442637628,0.251246854763868,-0.367947545078402
8,61,3,0.154317373234523,-0.018226571664354,-0.391010352104741,0.120252521090642
9,61,3,-0.0526178433622557,0.000782980155147718,0.226875711034533,-0.166804358598042
10,61,3,0.142732273957923,-0.0127629753706343,-0.307325962021601,-0.0377723755701451
11,61,3,-0.41141133572942,0.0335637238633866,0.177039672092985,0.300651875111738
12,61,3,0.0743025557555744,-0.00281871394696105,-0.0880344711300208,0.019397765428684
1,62,3,0.132214594285804,-0.0137440340642144,-0.171851223779018,-0.0897742985626407
2,62,3,0.34423770248273,-0.0278894881077767,-0.672268306966709,-0.178509400147002
3,62,3,0.615348833832466,-0.0683968663743107,-1.83843780281443,0.260873348488486
4,62,3,-0.0617117144628539,0.00511245354080141,0.143028001000238,-0.159385912129572
5,62,3,-0.465762979579682,0.0362973545954978,0.232408863394192,0.398303539590992
6,62,3,0.166694037544436,-0.0212686609420694,0.412719232739185,-0.493179025915043
7,62,3,0.379897826089626,-0.0439456250850606,0.482640243142455,-0.63298355250156
8,62,3,-0.152107915475967,0.00942630656570242,0.0964271040052036,0.331104027325323
9,62,3,0.16916544666375,-0.0179448118655318,0.195156483464144,-0.333185810232003
10,62,3,0.587455883398875,-0.0766162105669124,0.67672647528648,-0.882413695301737
11,62,3,0.37170585787035,-0.0305389711182398,-0.873619705030065,-0.105334752274773
12,62,3,0.125380566873561,-0.0124956872590515,-0.228834093618979,0.00676273660796571
1,63,3,0.0391033312266022,-0.00496795725687824,-0.182222287931248,0.0714035067055108
2,63,3,-0.179320189895694,0.0143615077635076,0.0846135581125539,0.257650769986315
3,63,3,0.127960554624663,-0.0134046054731707,-0.117173867369189,-0.0748684256382644
4,63,3,0.0176226951499945,-0.00145371311200986,0.104868715096293,-0.167890758875351
5,63,3,0.347848119159885,-0.0356759513660613,-0.039057663740075,-0.411765803593068
6,63,3,-0.420961307326952,0.0335269367871149,0.178748594617243,0.29543855013434
7,63,3,0.189181361494684,-0.0233523588986699,0.356374995641863,-0.472743020023908
8,63,3,0.0336183627309245,-0.00493029558782246,-0.000794445367493209,-0.00938810768228486
9,63,3,0.244107435690937,-0.0247462436560577,0.0957907364536965,-0.338484228121094
10,63,3,0.347616899495758,-0.0450976776983288,0.493791837633975,-0.663455450709479
11,63,3,0.0370283342566272,-0.009146959959599,-0.145647856371415,0.232173012050452
12,63,3,0.408424461218679,-0.0455430160775172,0.0307418049798612,-0.47694766236032
1,64,3,0.125992773850268,-0.0136250579535529,-0.354839521245683,0.0815386054098438
2,64,3,0.438235174809448,-0.0522404179324657,0.192351175985003,-0.585508305837711
3,64,3,0.0555891058214304,-0.00824236422841742,-0.152683561903407,0.198996568048594
4,64,3,-0.0192931342393744,0.00134777274466166,0.00452121464586412,0.00398024799657708
5,64,3,0.494149352443389,-0.0477079352655426,-0.337119953918425,-0.523974427054446
6,64,3,-0.0359782103256542,0.000514211107676938,-0.0596497639448064,0.223390451493548
7,64,3,-0.0387375944459376,0.00174510056858849,-0.0811226543895995,0.188466776758298
8,64,3,-0.00976013051029813,0.00215188560847974,0.0938955038984354,-0.0694345861753369
9,64,3,-0.252769149444474,0.0208583408739005,0.123516032435375,0.224406832564504
10,64,3,0.00558732984717347,-0.00252192362410461,-0.126469847351945,0.153507236471616
11,64,3,-0.00361595284815738,0.00167241206072826,0.000462366483994905,6.19640787502707e-05
12,64,3,0.0786971302742505,-0.00751798566877316,0.117440222904433,-0.261021833835329
1,65,3,0.071491790189203,-0.00704026410787737,0.175285347761823,-0.275982659006541
2,65,3,-0.267191144911445,0.0201767186665826,0.262270413628358,0.3672923768719
3,65,3,-0.191701399502336,0.0142005638558596,0.145161082245733,0.274638755154892
4,65,3,0.0330354139338918,-0.00279283640851013,0.0915467091130685,-0.15243437599208
5,65,3,-0.101927625522443,0.00800458826087117,0.309866310380297,-0.165752781596021
6,65,3,-0.374312862899063,0.0316494576429083,0.230889242005629,0.325515942973597
7,65,3,0.251319239900226,-0.0291141819731597,0.395063633394624,-0.53436041288089
8,65,3,-0.210435819098549,0.0171063784613693,0.13874756210505,0.260471994046632
9,65,3,-0.410567507918798,0.0336111217410649,0.289299418280754,0.340650981513499
10,65,3,-0.0169508245997121,0.00162504996423638,-0.0884777400944522,0.140143645257538
11,65,3,-0.0350034721629913,0.00259977820482233,0.154543940417006,-0.253475135369842
12,65,3,0.456071746862006,-0.0415122416750017,-1.27175959662883,-0.00486287039040113
1,66,3,-0.016202703321827,-0.00231755930845067,-0.151470770477213,0.218319788475884
2,66,3,-0.161839413235125,0.0119642816060016,0.0676642041059606,0.272539107995003
3,66,3,-0.35465218921463,0.0281731539758111,0.334615331312725,0.338802831447673
4,66,3,0.417963767500973,-0.0504376167532851,0.523308927751173,-0.683428522172745
5,66,3,0.189543780065576,-0.022483934078709,0.251377722249125,-0.38482421956907
6,66,3,0.141559639424295,-0.0134431969002735,-0.0275368337377286,-0.118942096299503
7,66,3,-0.30244375398377,0.023743806614268,0.220964567366524,0.333220966688411
8,66,3,-0.266182567178945,0.021798839322115,0.138425648140929,0.256057194419474
9,66,3,-0.339061557121242,0.0259462444956445,0.239596646683941,0.328253041258015
10,66,3,0.344428917516669,-0.0334356365796824,-0.000226198337598606,-0.420860615530211
11,66,3,0.153259066394025,-0.0213621044513479,0.341186157173156,-0.477744545494108
12,66,3,0.564474856214655,-0.0620952921248448,-0.196150404433609,-0.584283248426545
1,67,3,0.188837472547517,-0.0219879828197807,0.286500274378273,-0.406056476642543
2,67,3,-0.0384337906230607,-0.00123683358089121,-0.0696217129163698,0.261683414987579
3,67,3,0.535418257400798,-0.0483790086724692,-0.606919022445031,-0.487082076686054
4,67,3,-0.382107983465317,0.0295402129080191,0.297760092646311,0.377259759263191
5,67,3,-0.245811588123314,0.0201786596430216,0.120775494332476,0.243142088938389
6,67,3,0.0464998367484308,-0.00691906450443185,-0.131094076529037,0.147067407811493
7,67,3,-0.232182339105892,0.0234375128599725,0.123849914405148,0.203449395835043
8,67,3,0.323104825972529,-0.0419250489645621,0.444479230316969,-0.610366184048176
9,67,3,0.0581898833142754,-0.00736990991386875,-0.129242360906024,0.123020913193008
10,67,3,-0.059583358937566,0.00359332419775548,0.342703296283606,-0.230657870532839
11,67,3,0.156205565681367,-0.0147407338042552,-0.298345084452836,-0.0334848188808203
12,67,3,-0.288373661701413,0.0249932546422511,0.162129630188026,0.268823173655003
1,68,3,-0.230549072084495,0.0185669758367686,0.0961703289037269,0.25090581929426
2,68,3,0.113128378245016,-0.0123000740619433,-0.30368389776455,0.0831240847217308
3,68,3,0.108838168935496,-0.0108682646996844,-0.173635794587006,-0.0116714286908032
4,68,3,0.141529113958578,-0.0121331401146397,-0.307583603461019,-0.0332058795244328
5,68,3,-0.121844430578627,0.0116107906435755,0.127959232938768,0.0458597579317334
6,68,3,0.287157026645423,-0.026754027597405,-0.37539288943758,-0.16948101997798
7,68,3,0.470704650477545,-0.0549912342191758,0.570229991996444,-0.733914881413601
8,68,3,0.107601558447677,-0.00969326481339307,0.118534369584264,-0.222786275733151
9,68,3,0.202947959766809,-0.0190017222745941,-0.246746716534375,-0.105369096234758
10,68,3,0.305870310111073,-0.0371889904908255,0.469832802918237,-0.620050041115925
11,68,3,-0.25471776516474,0.0217643099498113,0.181044549081128,-0.0197351269767201
12,68,3,0.168508986341582,-0.0175315389268413,-0.0985483396013381,-0.150510978121467
1,69,3,0.0540705544763747,-0.00648494345029954,-0.231371956364612,0.105801209016015
2,69,3,0.0820163068597766,-0.0122944032306642,-0.128293656280736,0.311378648051889
3,69,3,-0.549607890230032,0.0418204725557431,0.34896978646138,0.368681807287149
4,69,3,-0.275169428703262,0.0211218662627621,0.172211494059021,0.304076015113964
5,69,3,-0.205026739710571,0.0157417154946009,0.112654178122331,0.230164269086003
6,69,3,-0.0759697571976281,0.00237860532258474,0.254710966415089,-0.22268180645064
7,69,3,-0.250222530106185,0.0180186949369374,0.16649315795789,0.301840741433371
8,69,3,-0.252702016685041,0.0186141779623161,0.178671936259363,0.29826813602305
9,69,3,-0.111712019922377,0.00801515452653889,0.0230468515147392,0.147966575874251
10,69,3,0.465286624832762,-0.0272484058151228,-0.823370792070042,-0.238126194450109
11,69,3,0.144031845595647,-0.0165372423367582,0.121698009614294,-0.237673362964002
12,69,3,0.110322921654813,-0.012981115723205,-0.210230223258361,0.154562219143048
1,70,3,0.290330316711722,-0.0228247773584321,-0.72369546030943,-0.0858326258024807
2,70,3,0.0526552580486449,-0.00942094964858432,-0.164678845325984,0.244473513307126
3,70,3,0.163378795973696,-0.020082172767681,-0.331745116936479,0.140757229234158
4,70,3,0.0799630227456878,-0.00863692877459467,-0.271679488439611,0.104201945258858
5,70,3,0.156465983851863,-0.0165640275297353,-0.0694092270188003,-0.152242163264427
6,70,3,-0.206215233884086,0.016800412797361,0.12781010968977,0.221688381678311
7,70,3,-0.249662255850396,0.0213765547153783,0.169616370299993,0.152451467644494
8,70,3,-0.0441188958703584,5.86360913993673e-06,-0.0686494658458108,0.2387878763009
9,70,3,-0.209577078271689,0.0174030844700862,0.130211020312878,0.23634872585678
10,70,3,0.306467239995974,-0.0373436107155963,0.435411049759198,-0.573465070942238
11,70,3,0.0856962896948683,-0.00847666170224911,0.245987371286066,-0.286115335376408
12,70,3,-0.0829662303010342,0.00512180750944876,-0.0129858808050932,0.229929789109873
1,71,3,0.446986246829712,-0.0564311392352085,0.396781621336735,-0.521929915377063
2,71,3,-0.227038489593367,0.017871523502197,0.10348052237821,0.273372209462652
3,71,3,0.22360228105549,-0.0207983265152989,-0.072463727024747,-0.223951147645864
4,71,3,0.239010315309526,-0.0308303090454986,0.362158399086905,-0.493327919028787
5,71,3,0.168575755265457,-0.0201417911198289,-0.376013032521363,0.106492660765982
6,71,3,-0.0941966126452782,0.00698481502417677,-0.00318390680119937,0.203877292262707
7,71,3,-0.181698972451694,0.0158584746952217,0.14391670927859,0.0514341730157308
8,71,3,-0.424515938785559,0.0334554229401339,0.201789173904737,0.341033968422143
9,71,3,0.160693714601216,-0.0142282101551591,0.195160769502619,-0.328935840071038
10,71,3,-0.652232335805336,0.0405447045127236,0.0251888669426651,1.03919305974366
11,71,3,0.420493216690365,-0.0340726906400187,-1.09158639927214,-0.127036214125003
12,71,3,-0.144274771960038,0.0113716095361417,0.0501249119295684,0.221103615156447
1,72,3,-0.604528975634454,0.0457057814484148,0.405320141364568,0.431670508875786
2,72,3,0.146980771080031,-0.0149302424056896,-0.360105447296376,0.0679081186763388
3,72,3,0.0310168769535913,-0.00956384324026647,-0.113316239748697,0.280532749527169
4,72,3,-0.452565733746469,0.0355700401747259,0.277620609705023,0.38070308412463
5,72,3,0.117855116296124,-0.0136912775167334,0.0394726276735068,-0.203722512384566
6,72,3,0.0378676743114447,-0.0047191257569829,-0.000831510166818274,-0.0120434304406776
7,72,3,0.0769078928582012,-0.00741447249349816,-0.282662661384935,0.0725265634297927
8,72,3,0.154028403015912,-0.0139326712964427,0.210090227524604,-0.333265905958616
9,72,3,-0.263558696954126,0.0259839586472287,0.141533407022968,0.156701345127955
10,72,3,-0.113365726826936,0.00869489216956612,0.0166694702782247,0.187223918555805
11,72,3,0.415565043150088,-0.0491246990496183,0.199944812127737,-0.567642509104398
12,72,3,0.0799791207247234,-0.00729205152331995,0.0198953175710949,-0.143059656085533
1,73,3,0.0429915965523801,-0.00654908097593195,-0.231884409051379,0.148389469211714
2,73,3,0.445293437392976,-0.0347057099909397,-0.629662862243129,-0.385177009980848
3,73,3,0.748704487796503,-0.087397067660865,-0.205424083807348,-0.790949416467082
4,73,3,-0.810282033421088,0.0515439462690514,0.303971083540878,0.81119931652695
5,73,3,-0.12744965538596,0.0085060508612377,0.0291261028789602,0.182309115888443
6,73,3,0.106418361186291,-0.0138375370730012,-0.219866827587128,0.193874683498022
7,73,3,-0.454597622072418,0.0348429545784755,0.355741064165655,0.365989222054559
8,73,3,0.208774974178945,-0.0190233676091684,-0.215925804337992,-0.162796874994379
9,73,3,-0.707651057667547,0.0461882211740013,0.0887578974385074,0.826222553385036
10,73,3,0.185589708706467,-0.021680043601354,0.318901943475286,-0.435873677654701
11,73,3,-0.250238270302542,0.0266858357663841,0.127407335494367,0.162250584353855
12,73,3,-0.249377920287284,0.0193378916912497,0.207068453010857,0.316502065647256
1,74,3,-0.453904528740008,0.0341765614294363,0.367198119609837,0.374713020160624
2,74,3,0.426896479642628,-0.0506047999665909,0.349732538660652,-0.537458432746281
3,74,3,-0.0746698253965119,0.0034395237460298,0.00125222863154935,0.269196112986851
4,74,3,-0.272648271380893,0.023518253462493,0.190462858751424,0.191317514470354
5,74,3,0.0714410007493947,-0.00675293254821933,0.126038015100859,-0.221189598435732
6,74,3,-0.182077725638667,0.0152855263234499,0.136015430867792,-0.0677430891944869
7,74,3,-0.170460098541985,0.0125427611754312,0.0605952051569177,0.267637101397183
8,74,3,0.367843235394161,-0.0469618303651921,0.506974288689453,-0.684604375630847
9,74,3,-0.303427316199958,0.0240758699527386,0.191065617851584,0.281870297192124
10,74,3,0.0623996353295641,-0.00728646574440336,0.0207403656459696,-0.105856436683786
11,74,3,0.0868418302298186,-0.00912738322556022,-0.152223269191637,-0.00606527212940783
12,74,3,0.540301092585611,-0.0711689054838112,0.485368744632748,-0.709884355765293
1,75,3,0.581690683105953,-0.0783192206580473,0.510742659883621,-0.660496400897843
2,75,3,0.61321261715001,-0.0710685806543212,-0.109487898167869,-0.691634957401266
3,75,3,-0.191420955383775,0.011450910417888,0.219704586281558,0.362295484523435
4,75,3,-0.427614107023467,0.0337702521438574,0.181771502966094,0.335879840641099
5,75,3,0.337603890803185,-0.0417696251251303,0.462204275282986,-0.631925225809277
6,75,3,0.183203911452338,-0.0198592857559784,-0.388394985924685,0.0681288336427398
7,75,3,0.0539997015516587,9.52740169610053e-06,-0.0931398542971413,0.0322552163372478
8,75,3,-0.0160820156698437,0.00148028604098322,0.169493244419854,-0.122109201119631
9,75,3,-0.421990001244808,0.0336078927656715,0.182318330797956,0.296123378522423
10,75,3,-0.49253979182274,0.0358911000031461,0.409906879731429,0.402273118370132
11,75,3,0.0712289081904909,-0.0086426682850172,-0.178766844565162,0.152086480646711
12,75,3,0.0054412985155111,-0.00757063574066487,-0.0336131827818719,0.325750851190116
1,76,3,-0.14396890799402,0.0127520739255777,0.0174838533774998,0.185120315907563
2,76,3,0.0769175892376444,-0.0139648103622465,-0.229527300827644,0.230005796554177
3,76,3,0.332755166411406,-0.0362250234644099,-0.684365988367499,0.0462438680133793
4,76,3,0.0342776940449881,-0.00399286187056977,0.212811865000633,-0.199391348264573
5,76,3,-0.160621959243664,0.0120751812438044,0.0490229632945124,0.245644794220256
6,76,3,-0.174176206888299,0.0148104988343435,0.10784715709383,0.216026215990119
7,76,3,-0.187509557477168,0.0159787699175543,0.112638138061669,0.140193593081004
8,76,3,0.193610549305896,-0.0189507258548431,-0.378727356038424,-0.0388385499601708
9,76,3,0.0443419496498393,-0.00146145109714356,0.0125086213107703,-0.0888665603491968
10,76,3,0.0341187024545559,-0.00424407312920915,0.29028822845751,-0.26447367865954
11,76,3,-0.162705032660622,0.0193224348592706,0.0819883280757641,0.103453798503017
12,76,3,-0.144391718140262,0.0119215160865512,0.0912270176933841,0.0732776575536283
1,77,3,0.0608626797296405,-0.00571990965230334,0.0242801027433086,-0.122262324582229
2,77,3,-0.379488426141657,0.030703438118029,0.280155217698129,0.364228936321259
3,77,3,-0.016830829201769,-0.00108418399486689,-0.0737994184154499,0.197368970031672
4,77,3,0.0334627019765679,-0.00609724281557869,-0.222879700914084,0.174448106302828
5,77,3,-0.427415918059467,0.0328741003922808,0.268156598285578,0.371966305153668
6,77,3,-0.0603606079269559,0.00196895924724646,-0.0321571304213605,0.249471673173735
7,77,3,-0.183602624818191,0.0152647149895655,0.0984012887385145,0.190249969379393
8,77,3,-0.0746266886847413,0.00569033000396217,0.0902748024580418,0.00329135482003353
9,77,3,0.534135421269441,-0.0617991805132659,-0.0676199029518678,-0.578503738563526
10,77,3,0.203665883618051,-0.0236096747761421,0.272688805719138,-0.391273817555025
11,77,3,-0.00150717566946615,-0.000902059496887811,-0.0761540140671155,0.116453041084455
12,77,3,0.239918903081621,-0.0255681056291945,-0.498148717386506,0.0502280593562739
1,78,3,-0.248906285644131,0.0184846146920665,0.237420841667592,0.343226238796685
2,78,3,0.149485880509236,-0.0158875405263019,-0.122189002371643,-0.119967051370226
3,78,3,-0.27973845494692,0.0216841634118343,0.228873118540254,0.324357047453102
4,78,3,0.260318118714645,-0.0222127219285501,-0.589063472794552,-0.0933722764899993
5,78,3,0.256271410066935,-0.0272333939891257,0.215580330495625,-0.369331815682481
6,78,3,0.115402369331196,-0.0109165340413911,-0.0187876967670922,-0.110198057595595
7,78,3,0.373347683036547,-0.0459597169774916,0.319540737491832,-0.458645975482329
8,78,3,0.134280552926143,-0.0152371080325552,0.0425263405701025,-0.216082190079383
9,78,3,-0.425943429585069,0.0339961049678724,0.155283721038398,0.265628537281361
10,78,3,-0.218314031774673,0.0247470198853214,0.110932653713229,0.166350204004581
11,78,3,0.0432447817212366,-0.00841986419333583,-0.155450722587251,0.252054050047496
12,78,3,0.0391215612442043,-0.00160414378746759,-0.0512104294814957,0.0329819390731319
1,79,3,-0.478997565620131,0.0349518902122203,0.40322912214331,0.399335272004779
2,79,3,0.0910129210131978,-0.0158737044547921,-0.144822778828708,0.305491639399044
3,79,3,0.0773695036346847,-0.0138698960222802,-0.179570104877601,0.25683839122345
4,79,3,0.407725417073615,-0.0454046052160936,0.489243641495203,-0.640266902687198
5,79,3,0.515683856454463,-0.0518959569919276,-0.314604256463866,-0.556914668327848
6,79,3,-0.103009000605737,0.0059758051537647,0.0412208789277864,0.287167872526609
7,79,3,0.124739828559888,-0.0148021260499433,0.119959697297621,-0.2190183733301
8,79,3,-0.198689078317179,0.0172016576823192,0.149607464245723,-0.0281646444900466
9,79,3,-0.214610811807218,0.0173456751794025,0.0742514901385561,0.195112385588759
10,79,3,0.331030132477853,-0.0365559931536563,0.496914376023773,-0.657951421012641
11,79,3,-0.512002086408223,0.0457166414897527,0.206191885047381,0.486711745644153
12,79,3,-0.518010275621297,0.0393975080902676,0.378906844460597,0.343425869745525
1,80,3,0.298941314239445,-0.0231846003261757,-0.505109352057646,-0.231526262813825
2,80,3,0.501472582634206,-0.0506458772340806,0.0263006336399164,-0.593539315919736
3,80,3,0.0039291155813368,-0.00425334667818567,-0.0990988400323587,0.2406150947151
4,80,3,-0.493178371304315,0.0363787977744393,0.194225256712804,0.623076374904792
5,80,3,-0.145512019767494,0.0106025899662026,0.0457977031034213,0.248075377031087
6,80,3,-0.0068929017015022,0.00120647182524864,0.117323528315486,-0.218626186065023
7,80,3,-0.301726823476639,0.0255787809638077,0.174801078439056,0.300178786751937
8,80,3,0.074461050358568,-0.00916409853676994,0.296348578451084,-0.4150281262617
9,80,3,-0.307297624542438,0.0252779801176003,0.177203750955694,0.0741737364134493
10,80,3,0.419940234225013,-0.0396779332406,0.428496734190485,-0.56523509085315
11,80,3,-0.25325768710749,0.0201784440997967,0.128613540847625,0.259658246997008
12,80,3,0.0742292330297865,-0.00832309896133456,-0.180880060539259,0.0700942779306304
1,81,3,-0.158949750390694,0.0125034749032163,0.0165968134916224,0.182756513255166
2,81,3,0.584901267570838,-0.059140603316233,-1.92793515001485,0.208737346898046
3,81,3,0.149026717409951,-0.0149832016831592,0.225594078658979,-0.344994799036419
4,81,3,-0.0291678549942476,0.00333912315682465,-0.0700372016071873,0.143116737633699
5,81,3,-0.0700894146263679,0.00618271682009534,0.0967656969765919,-0.0745521402896432
6,81,3,0.120059693692943,-0.012647159436886,0.0402321223987972,-0.221196882326263
7,81,3,-0.563003879405729,0.0426642099585096,0.367530823253832,0.453239269570065
8,81,3,-0.257196398476251,0.0198662876488074,0.158741854546991,0.27336564961795
9,81,3,0.0759709853512685,-0.00958381248098709,0.299281683762404,-0.329804457416816
10,81,3,-0.010002935581263,0.00315078579416728,-0.071183773171374,0.111364226266241
11,81,3,0.0671139575141268,-0.00418970455710802,-0.0490213893066511,-0.019469507922872
12,81,3,0.0502459248401274,-0.00670507839833826,-0.11965921776724,0.107824668274848
1,82,3,0.0138682669091042,0.000344345523127087,-0.0615403560890382,0.0605693057360244
2,82,3,0.381409329005614,-0.0306899272232536,-0.743059306394287,-0.224171023034169
3,82,3,-0.106434426188899,0.00268462350508935,0.376122195020387,0.449026152725493
4,82,3,0.339241441522675,-0.0400869049974806,0.449210617164514,-0.596052287023347
5,82,3,0.16975690931322,-0.0151516974547583,-0.311879454397282,-0.0278843147134239
6,82,3,-0.19389823246344,0.0159683474688931,0.0625144167823234,0.196349612394232
7,82,3,0.0876366334486156,-0.0104071744398677,0.0326872022625723,-0.157254023486806
8,82,3,-0.136199140478241,0.0117104191586777,0.0999180515434554,0.0227952575408967
9,82,3,-0.284305333194617,0.0231863282430437,0.202712473947649,0.284855078115095
10,82,3,-0.412512888563488,0.0330261914594343,0.222434871570922,0.354527208797988
11,82,3,0.248345389127865,-0.0220047649020653,-0.39437119307423,-0.132649172064268
12,82,3,-0.0975204619450226,-0.00224372329002915,0.332931243174539,-0.323321138314667
1,83,3,0.16008274751956,-0.0189458661523108,0.20751306586988,-0.318832096782812
2,83,3,0.435619343658751,-0.0338812741734964,-1.3380252014317,-0.0146078265613486
3,83,3,-0.152407723044797,0.00622308404945791,0.135903823045058,0.333999379678729
4,83,3,0.181256049627416,-0.0127218796744082,-0.224527576767824,-0.137155642129125
5,83,3,-0.0521804860549915,0.0031287083941852,-0.0447193858204042,0.165145276446846
6,83,3,-0.126981472115615,0.0100597197633167,0.0278677884646985,0.136674507006706
7,83,3,-0.153379935512014,0.0108384510225029,0.0400917711509354,0.27601684899241
8,83,3,0.0655130625064692,-0.00707262165441692,-0.122435580814675,0.0456686401560842
9,83,3,-0.229108746410587,0.0213773673691556,0.12149102922659,0.226865909446661
10,83,3,-0.0830583729499305,0.00506859333214886,-0.0486029070691172,0.255218373552522
11,83,3,-0.255484653338023,0.0190997468233671,0.163527417252877,0.290559108842927
12,83,3,0.14799092274253,-0.0185420746191495,0.378602115124581,-0.537127714660203
1,84,3,-0.343046362085999,0.0253035463366823,0.268278957017093,0.352906181721342
2,84,3,-0.1194416715484,0.0124632462805018,0.0159665929420096,0.144708456395723
3,84,3,0.474401991817414,-0.0445709500261585,-1.41546120890382,0.0865050869515103
4,84,3,0.247654440087799,-0.031135890771274,0.423140912153881,-0.556609753546732
5,84,3,-0.678800544831261,0.0474103032569675,0.29400590528192,0.629429399166013
6,84,3,-0.0091462809405989,0.00132538307012875,0.110583221450187,-0.133709645526969
7,84,3,-0.390174066109078,0.0312807023006459,0.21221643844909,0.3478158852574
8,84,3,-0.553005831806334,0.0420310714516934,0.400060821329498,0.362997379679342
9,84,3,0.337659451255196,-0.0385097052599633,0.441032523470339,-0.629503708053357
10,84,3,-0.340125498448425,0.0271173502943098,0.176504090267906,0.326242684207174
11,84,3,0.210114828339562,-0.0195174862469523,-0.392421264236617,-0.064115400988185
12,84,3,-0.395512271557681,0.0308063895284172,0.127349777857281,0.274295810569087
1,85,3,0.169720532723438,-0.0168980584367468,-0.474795835316802,0.0649242320386748
2,85,3,0.178719762458454,-0.0185065045780928,-0.426532321036275,0.0562512169460722
3,85,3,0.0426989060689579,-0.00750194623530501,-0.141583920512976,0.216498022796781
4,85,3,0.140647706449936,-0.0121390057047002,-0.21768889824985,-0.0836261600285249
5,85,3,-0.179840674001093,0.0156145518507475,0.161417523798496,-0.0506875067682528
6,85,3,0.278071554427485,-0.0207004858566311,-0.255097715692623,-0.186866719619485
7,85,3,-0.184837976237217,0.0157571611725207,0.111307422370993,0.13709920487892
8,85,3,-0.0872585079147858,0.00324274298073179,-0.0214548829047179,0.251406780562655
9,85,3,0.160219611063196,-0.0196052924980487,-0.356511380730221,0.134013661875386
10,85,3,-0.403416286290133,0.031895844772636,0.247879545925806,0.353639897595238
11,85,3,0.193513186862804,-0.0225876707492001,0.225615632564136,-0.356540014982796
12,85,3,-0.294870430405578,0.0239651116326925,0.167410833309813,0.259078648861038
1,86,3,0.452102611305163,-0.0570786376369174,0.40957436844202,-0.539177146476558
2,86,3,0.610709030815033,-0.0431443863692132,-0.755579229188855,-0.643114992004571
3,86,3,-0.0658087720823018,0.000387208487659793,0.0428751912473454,0.330945411420678
4,86,3,0.0819053336745619,-0.00793152234277487,-0.193635656462814,0.0154404587328507
5,86,3,0.257860174827702,-0.0299448240891886,0.373724280219047,-0.529209481113841
6,86,3,0.315402122175656,-0.0320063541929783,-0.100488640680435,-0.328339919947648
7,86,3,0.137590110549028,-0.0148549503174371,0.052310509525903,-0.220891023384081
8,86,3,0.126846469974133,-0.0130282625201118,-0.141631471263006,-0.0836378617373973
9,86,3,0.185223839205507,-0.0174903093353314,-0.276691805307392,-0.0602481621943125
10,86,3,0.01167560730173,-0.00658035574583153,-0.166228652128764,0.238741696308958
11,86,3,-0.037353606292639,0.000616575721746413,-0.0656498071434388,0.216942777274142
12,86,3,-0.38326253613679,0.0297916848447753,0.218307936680214,0.32912820783305
1,87,3,0.221624298025879,-0.0171329369831375,-0.249484098071882,-0.19488047776081
2,87,3,0.406835494193876,-0.0329123358725702,-1.00295138341857,-0.110365335799699
3,87,3,0.79609000837312,-0.100777260767789,-0.129846568724911,-0.850987192614409
4,87,3,-0.400596080430603,0.0324802319077584,0.19744797962435,0.336631049989305
5,87,3,-0.0225272771629746,0.00213092790248034,-0.000709965141000853,0.0154339310466175
6,87,3,-0.551717438644626,0.0404148763983795,0.232728476960222,0.490632002088614
7,87,3,0.135195433470511,-0.0156602267404856,0.0777704676015664,-0.280912179667223
8,87,3,-0.217558920438174,0.0188778683947331,0.129047208226424,0.167734171660589
9,87,3,0.209072827184029,-0.0246513049569845,0.27994624159994,-0.425224188963501
10,87,3,-0.302163153457019,0.0246181743509423,0.137427036821074,0.286297935088612
11,87,3,-0.0443274499463602,-0.000252545502622765,-0.0673910128068267,0.249117831200306
12,87,3,-0.384590284675537,0.0309344789396833,0.149025535492986,0.258962633040412
1,88,3,0.0176800891416719,0.000134807848916611,-0.046862354282672,0.0390012765328765
2,88,3,0.0841141539506112,-0.00928116806386384,-0.246353392218153,0.0841095383402708
3,88,3,0.103483047845326,-0.0135906452650819,-0.212480431280407,0.183172476288431
4,88,3,-0.133696144705235,0.00948675932275066,0.018589533296861,0.161987823634347
5,88,3,-0.0288961402636222,0.000593940451935289,-0.0681825581523957,0.178383289952782
6,88,3,-0.906989860052636,0.0507583176577831,0.427375296148472,0.992008785073476
7,88,3,-0.447136239145674,0.0349006899888978,0.287444037173251,0.382940136835465
8,88,3,-0.0628714586302874,0.0024777978486702,-0.0486600505927134,0.228417597680899
9,88,3,-0.106901887023216,0.00943567502217811,0.0971374485658301,-0.033331162974121
10,88,3,-0.0896926688532353,0.00698616545343771,0.00802807967021293,0.165861966544809
11,88,3,-0.368469786622267,0.027418651542834,0.267622078365463,0.365138055726418
12,88,3,-0.033037321709697,-0.000895202527314747,-0.0650936493025748,0.24359364443585
1,89,3,0.134438463516306,-0.0120754010377126,-0.191271836719992,-0.0901438549260301
2,89,3,-0.587458570672814,0.0462558816350288,0.315822556584468,0.430049432137405
3,89,3,-0.028616986670635,-0.00326296501646924,-0.0528422815021427,0.275493062611872
4,89,3,-0.556128713836556,0.0409297788759513,0.426164036486874,0.409151759822714
5,89,3,0.0677502793329104,-0.0104518363963332,-0.181621047540039,0.23340771134802
6,89,3,-0.317033727032832,0.0257845587371133,0.180134106676724,0.272492644064187
7,89,3,-0.324929780369473,0.0294951411103201,0.0308077003816834,0.17953592543116
8,89,3,0.140044567844471,-0.0131273847543975,-0.261433169692556,-0.0213072639143452
9,89,3,0.221857757236261,-0.0261869842945103,0.348498191817555,-0.508487045409691
10,89,3,0.0257818250745805,-0.00417740684870603,-0.131430773822849,0.0924782407029539
11,89,3,-0.247100462484463,0.0212289363366623,0.181064416231638,-0.0568019369085566
12,89,3,-0.0728228074529446,0.00646013531607791,0.204599781066124,-0.111135672631641
1,90,3,-0.0663571780896885,0.00354505642074359,-0.0546014356998358,0.218801659772111
2,90,3,-0.0262395902156079,-0.00305125750114553,-0.0654844831037908,0.287589516143449
3,90,3,0.575160503639121,-0.0632702567012772,-0.191609492041227,-0.598597249354569
4,90,3,-0.174466403080954,0.0136926325885832,0.0286374982118202,0.205196172430642
5,90,3,0.25600090325325,-0.0242612732194731,-0.57204172720657,-0.0111167260683986
6,90,3,-0.0441243721529716,0.00385455696362244,0.161447894147442,-0.095852815161282
7,90,3,-0.205100185818959,0.0176058471273988,0.123725230218231,0.154352957550303
8,90,3,-0.0178509282661798,-0.000883781606762671,-0.0837191718795246,0.198762120673984
9,90,3,-0.127517340816078,0.0109437312638779,0.0277167466897669,0.150836454105596
10,90,3,-0.313052947988177,0.0250140350327411,0.174450272346548,0.311520712117348
11,90,3,-0.274642927643343,0.0269838572685211,0.141451799111368,0.19672558977006
12,90,3,0.290738463567312,-0.0347813652446153,0.346490612880994,-0.507037853280599
1,91,3,0.413002211090606,-0.0258723975605962,-1.09499025693922,-0.25057065494009
2,91,3,0.43105579194543,-0.033204704705312,-1.13051181436843,-0.120068241868288
3,91,3,0.612311902406249,-0.0707847543320983,-1.83758063940638,0.231456383915131
4,91,3,-0.174367729369738,0.0152317516632493,0.141964814833742,0.0373784078713734
5,91,3,-0.495723561888274,0.0380277146909778,0.288799569229462,0.390780688673836
6,91,3,-0.0500046504922445,-0.00205726544166088,-0.0508603545841406,0.240480240134363
7,91,3,0.0134028617714279,-0.00285640041198444,-0.166907694452135,0.15455102924701
8,91,3,0.00743751425517165,-0.00370416765069771,-0.116299309537812,0.210022463797195
9,91,3,0.0553121556232508,-0.00673906945462081,-0.110280387573759,0.0941504330633753
10,91,3,-0.671364962631613,0.0466602757477615,0.338668464073803,0.640884572599119
11,91,3,0.406852590020805,-0.0483790354680749,0.258110652910774,-0.540790896476425
12,91,3,0.0144387741433607,-0.00804342803192565,-0.0773712964100269,0.298101508809134
1,92,3,0.102290743813279,-0.0107265532900389,-0.342996500359137,0.0876006368501616
2,92,3,0.191453189309089,-0.0211591978778637,-0.459366841289052,0.0913370907261726
3,92,3,0.678371923855832,-0.0682188184349223,-0.533593464963156,-0.70715275021904
4,92,3,-0.24531283940474,0.0189058068290183,0.13096777382335,0.289403109877585
5,92,3,-0.125900460779421,0.0105117507780539,0.0170008886915793,0.13417189672491
6,92,3,0.068282801783268,-0.00441830769178556,0.0182093569777933,-0.131857071359332
7,92,3,-0.228455836554574,0.0167963710781685,0.211991358813122,0.335107465486687
8,92,3,-0.166875235153741,0.0115666895653985,0.0979047096619594,0.2723621066653
9,92,3,-0.12608256032823,0.0117343610433725,0.0263784971241565,0.145579866590642
10,92,3,0.0144866526055587,-0.00494204297751514,-0.192956714429458,0.194486928953401
11,92,3,0.0677105317764171,-0.00905740823410255,0.0803052607368251,-0.189721476772339
12,92,3,-0.155023088688007,0.013111313126542,0.0874243756637931,0.203869672644702
1,93,3,0.169860645935289,-0.0184001535955387,-0.42503898329344,0.0682284931946062
2,93,3,-0.151310345746989,0.012209986655618,0.0729081470776709,0.211737029672177
3,93,3,0.134172209773481,-0.0156673480875173,-0.308071373291073,0.101844814900235
4,93,3,0.0301055325142065,-0.00237316356157581,0.239310851140547,-0.215206443683121
5,93,3,-0.00990295104904569,0.000245436075819652,0.155484474197156,-0.271599418276035
6,93,3,0.375706600438343,-0.0350967619111313,-0.806779414806648,-0.0724464158745921
7,93,3,0.211770235571616,-0.0257942928802422,0.371964833446578,-0.494213103324668
8,93,3,0.0229697444495584,-0.00526363387870355,-0.131584748563977,0.210860318778221
9,93,3,0.266014435950853,-0.0315986878561397,0.204965740972618,-0.405878928969764
10,93,3,-0.129458542715701,0.00885926842132358,0.0159137008298349,0.267838647088452
11,93,3,0.268847830656794,-0.0237472611774131,-0.520649599714326,-0.0947027616132772
12,93,3,0.38899686183302,-0.0403779617804473,0.193025973885808,-0.470836410348176
1,94,3,0.358801086309657,-0.0229545227509977,-0.905276516359857,-0.10855972681287
2,94,3,-0.337602716256033,0.0252589659163107,0.277986596574207,0.367744424362105
3,94,3,0.103913194164823,-0.0165906296338581,-0.200415993073728,0.260280269279495
4,94,3,0.329220266770135,-0.0350293926830813,0.401485054831097,-0.531669825065811
5,94,3,0.0278830338742435,-0.00242295729033516,0.000844359418690511,-0.0114860574103255
6,94,3,0.347414914770269,-0.0342392456121713,-0.740498192795885,-0.0330769756125136
7,94,3,0.100829074764714,-0.00907617773612535,-0.200201615854898,-0.0271527865229476
8,94,3,-0.210454051152636,0.0168244196362056,0.123874526109706,0.260135700486365
9,94,3,-0.153321641274003,0.0134881718188488,0.0306887447751696,0.159481674762698
10,94,3,-0.0905750058913612,0.00664498971210726,0.00663733308806962,0.113520587569514
11,94,3,0.0835731593443359,-0.00827966335391723,0.228542920361881,-0.270448260273853
12,94,3,0.0373221469690162,-0.0022869092990939,0.0088725172587537,-0.071405047601377
1,95,3,0.0877359076759581,-0.0117440418292356,-0.300460111019897,0.149064953964652
2,95,3,0.354602904403833,-0.0340790503258073,-0.814034726069116,-0.0415463077675529
3,95,3,0.356237663211054,-0.0335216374611574,-0.750923623414322,-0.061190635678247
4,95,3,0.0811090451744307,-0.00333278996370497,-0.0697583038685426,-0.0253928819893266
5,95,3,-0.0267216842869573,0.00234033754536793,0.0789668133023393,-0.081946843488675
6,95,3,-0.314021850930408,0.0266368027140733,0.167281207270874,0.292027078820612
7,95,3,-0.179925993367794,0.0141368931330432,0.0890248613016078,0.246835205976041
8,95,3,-0.371061146729509,0.0296083579075515,0.237027163660923,0.32408027856006
9,95,3,-0.248092721867759,0.0197359409074373,0.161759753600031,0.257560664517956
10,95,3,-0.0603152622256621,0.00359722829909539,0.157907915654561,-0.0287978046943063
11,95,3,0.00109143389710108,-0.00155475678512117,-0.000665848203657451,0.00104189607779301
12,95,3,-0.576836345433297,0.0416928752709155,0.160631411857236,0.597460030667476
1,96,3,0.367334589323854,-0.0251319415702818,-0.826121183861064,-0.235559762105532
2,96,3,-0.205519722532655,0.015398860290055,0.0588744625425201,0.213030475253923
3,96,3,0.180912418746957,-0.0216397851726719,-0.307941001637392,0.174911923137458
4,96,3,-0.339438159888243,0.0263529299447592,0.24086656045762,0.357378228256219
5,96,3,-0.0941482348291689,0.00600354434869582,-0.0156078863902521,0.236788228649107
6,96,3,-0.215856009608033,0.018302518834277,0.137977956930637,0.000498582607507443
7,96,3,0.103190782176514,-0.00986120926309879,-0.307252307429325,0.0453768490975113
8,96,3,-0.554604599331188,0.0424239470501415,0.313813673499706,0.412936208307199
9,96,3,-0.561407826444979,0.0424660281305302,0.364289294902228,0.372568092739366
10,96,3,-0.607939449513461,0.0424014578538638,0.225993049104729,0.699650475018254
11,96,3,0.0184306458008504,-0.00440030024524192,0.202534086062835,-0.373868915699926
12,96,3,-0.0817959856692936,0.00235474601015755,0.0324436582070299,0.312020929724133
1,97,3,0.386087895429397,-0.0402604621177365,0.0126428154099264,-0.519306688644519
2,97,3,0.506830926780912,-0.0500887710467623,-0.246925741062953,-0.550369324648944
3,97,3,0.0177489526782654,-0.00915684979999152,-0.0712440008290289,0.307577722454527
4,97,3,0.0164954193943043,-0.00302738813849564,-0.127483968108694,0.125004978679897
5,97,3,-0.329864809826966,0.0277632866582733,0.139620436118871,0.272170173021025
6,97,3,-0.131576026929653,0.00762466290612532,0.0994384862196034,0.324354151754404
7,97,3,-0.00911318934902081,0.00196819475015644,-0.000248751939982659,0.00291446877809477
8,97,3,-0.560154591583732,0.0445146682984311,0.273922004185717,0.415465108544915
9,97,3,-0.354565229918997,0.028746239108457,0.172235838491423,0.272838932454214
10,97,3,0.150300265114605,-0.0205647415052124,0.363872650272391,-0.47367560496894
11,97,3,-0.0165422145844657,0.00303167371224237,0.0497065133221989,-0.0633745322913787
12,97,3,0.200661717667028,-0.0196909121904764,-0.0136862596177801,-0.177488496850103
1,98,3,0.162471977631944,-0.0194114034040461,0.216095534786462,-0.332943145243514
2,98,3,0.545086469659167,-0.0671668943215577,0.169773823567573,-0.67573821344412
3,98,3,0.159642696103939,-0.0286858390261153,-0.234740926883957,0.289162564126425
4,98,3,0.369173503265024,-0.0472370373875958,0.507823330521959,-0.669371341135833
5,98,3,0.175277535356129,-0.0211924425557939,0.348299849006662,-0.488047528248794
6,98,3,0.317726361167285,-0.0325286605066191,-0.0916065329624214,-0.334854663415962
7,98,3,-0.132233382172168,0.0114477626812773,0.113634490786832,0.0233652608224912
8,98,3,0.226614255259533,-0.0280523541998536,0.355838634209025,-0.499744984492068
9,98,3,-0.0866854987676192,0.00579326972657434,0.136862223691428,-0.0441791254131685
10,98,3,0.43513767863679,-0.057477612811124,0.568542631193858,-0.753711664534354
11,98,3,-0.0272488650482136,-0.00216346105955761,-0.0862556525210709,0.245348407061516
12,98,3,-0.00651085724105187,-0.00315815586326887,-0.0901575864109482,0.24245778487881
1,99,3,0.06209379560677,-0.00816674108850142,0.0166148394718291,-0.0865199521652443
2,99,3,0.493144608199996,-0.0405415626877107,-1.52250540203379,0.0400397379854068
3,99,3,0.369500833901396,-0.0345764235640164,-0.799685858658989,-0.0556433540756851
4,99,3,-0.174160945023136,0.0148662650192647,0.106213889419826,0.124833627504432
5,99,3,0.441514938778985,-0.0320811570467563,-1.27099296881352,-0.0704866533601236
6,99,3,0.187901363908242,-0.0179780854700957,-0.276869203858375,-0.0645913361005035
7,99,3,-0.0300701623925985,0.00236163766703777,-0.07980659981482,0.155697826300833
8,99,3,0.315963818849804,-0.0416900140723317,0.470558475412497,-0.64153628499217
9,99,3,0.66085512669912,-0.0757554321147038,-0.176942897875596,-0.698586220480107
10,99,3,-0.122669884707216,0.0107944166715496,0.130509958063997,0.0202026469677822
11,99,3,-0.0295788587055958,0.00425047302206788,-0.000232089881963099,0.0122019244385158
12,99,3,-0.141839391322178,0.0118538660104212,0.145548063283311,-0.175685508874156
1,100,3,-0.21672650813305,0.0153086969683734,0.164726120894682,0.295404454914345
2,100,3,0.363871696020683,-0.0297941833396371,-0.827712993415878,-0.132699871833462
3,100,3,0.47634569984166,-0.0443565510041766,-1.45068061907341,0.109757144912343
4,100,3,-0.398613091557913,0.0301302718819369,0.350937750983997,0.359337033494006
5,100,3,-0.000361217099800238,-0.00213229702444007,-0.0975342322148675,0.176518128890569
6,100,3,0.688971512505226,-0.0894795694446652,0.438214041666945,-0.710732429648521
7,100,3,0.281885093653757,-0.0352580306115018,0.403526139130826,-0.546037463152809
8,100,3,0.138022709679358,-0.0157060782841309,0.0468744169764516,-0.226547701733962
