ID,SIM,interval,ETA1,ETA2,ETA3,ETA4
1,0,4,0.0506616223547857,-0.00449671572370149,-0.0660880876578301,0.0115433457195813
2,0,4,0.176086696791594,-0.0344428533136428,-0.219493235325385,0.390927756577416
3,0,4,0.0561378283781279,-0.0116867072175738,-0.174168419710659,0.309657140131584
4,0,4,-0.032856096121665,-0.00213841280519337,-0.0822826058263018,0.395632912568251
5,0,4,0.165672616052631,-0.0240800788790948,-0.340263840658475,0.206609851337107
6,0,4,0.0996076873810218,-0.0131814783426353,-0.16357520788333,0.206642510042473
7,0,4,0.10618089771997,-0.0126424881016184,-0.325179003431996,0.167829853218561
8,0,4,0.0295703701606131,-0.0104000688793965,-0.172700855752915,0.333401231901684
9,0,4,-0.196596644210608,0.0136720717686353,0.155425433482355,0.400679758909605
10,0,4,0.087955460377373,-0.0101741819306541,-0.0875304625632606,-0.0991914245058695
11,0,4,-0.0399546439118031,0.00357319347232589,-0.0817185499667108,0.034222296096963
12,0,4,-0.0841697365719983,0.00486995082731862,0.140670049278367,-0.088127404054919
1,1,4,0.164733266302418,-0.014354866665609,0.161480665138267,-0.263875304023167
2,1,4,-0.268188149854457,0.0183860872481419,0.116470843388371,0.516084835120875
3,1,4,0.327689183246216,-0.0419663114679224,-0.525986906986776,0.150227516649185
4,1,4,-0.0057358315658667,-0.00348852767163556,-0.163001838469362,0.269957766725798
5,1,4,-0.281990485867001,0.0221330080533016,0.21895632704336,0.411454108648867
6,1,4,0.250298534683616,-0.030355167542553,-0.308196139847559,0.16826083962233
7,1,4,-0.225875820876427,0.0164578041817851,0.146571266267026,0.335676898314048
8,1,4,-0.269086498662503,0.0197104404599958,0.16973111459995,0.409530456611038
9,1,4,-0.421801596664382,0.0326478958167996,0.223572256651188,0.19524954246931
10,1,4,-0.0473837736857343,0.000586570953120752,-0.0971768503986531,0.252822330618903
11,1,4,0.480421581560482,-0.0414695763058205,0.0286364963675309,-0.470443350471227
12,1,4,0.61771806395397,-0.055771214301333,-0.380340724588184,-0.584356137784713
1,2,4,0.149923164010363,-0.0123548120423112,-0.153757718266398,-0.142498540635626
2,2,4,0.132923558162854,-0.0182871331030718,-0.307012912406421,0.17500688091898
3,2,4,0.841125058726347,-0.0633839444761841,-2.02327207407121,-0.425311647246909
4,2,4,0.158374088882903,-0.0163012704979645,0.0717908963824819,-0.265478599971107
5,2,4,0.370816626994189,-0.0417661365693772,-0.628786653283973,-0.00576147495327398
6,2,4,-0.0718920862820806,-0.00592598134709721,0.107194713832699,0.518152871126629
7,2,4,0.191701497005923,-0.0162252653466097,-0.323765546904089,-0.113210489653837
8,2,4,0.327549878301315,-0.0296183420603551,-0.278705293211412,-0.250102375016141
9,2,4,-0.362405178688695,0.0299662566766765,0.283926770821137,0.443931516957437
10,2,4,0.427269147689632,-0.0536968203223781,0.542272357022074,-0.720889624693353
11,2,4,-0.156288406213837,0.0125242311787447,0.0345759212903754,0.187838071496323
12,2,4,-0.242375125909509,0.0197516601075993,0.167514902458149,0.00481959937146721
1,3,4,0.100344427433822,-0.012352695004425,-0.256920997222815,0.0856893709563844
2,3,4,0.109089875847126,-0.0192912176605913,-0.256491144919879,0.262977659807789
3,3,4,0.13567266752735,-0.0300236769049115,-0.162818000028192,0.41029805122408
4,3,4,-0.119329904666557,0.0126133699535657,0.198858519056279,0.0213360677883759
5,3,4,0.394583925846173,-0.0506653172530047,-0.66305683088973,0.112446186862863
6,3,4,-0.236953118291877,0.0189285950628401,0.116010054968139,0.375387581008637
7,3,4,0.341955350808482,-0.0351781476318647,0.417347968435673,-0.559669913254485
8,3,4,0.139267211418662,-0.0214663295939947,-0.288705153211742,0.276826703391321
9,3,4,-0.136380247810186,0.0142848399098414,0.0681018178914945,0.161211531239819
10,3,4,0.139576306229139,-0.0150167488351183,-0.323493146575904,0.0711627861900557
11,3,4,0.280023412701223,-0.0361917563952702,-0.566274672318414,0.0955203545841059
12,3,4,-0.621019898954758,0.0445050159120794,0.320331354903572,0.387798658983947
1,4,4,0.333061118601509,-0.035867218257499,0.394421293212019,-0.524055662381102
2,4,4,0.335955775877259,-0.0310029890078824,-0.729012364246983,-0.0830732968189559
3,4,4,-0.157457353831701,0.00306689180773517,0.204045044313663,0.680081782604862
4,4,4,-0.0190878176662202,-7.92871428576942e-06,-0.128373803434591,0.217226216292821
5,4,4,0.31351489090577,-0.0302235113402354,-0.181767382193729,-0.278303604012901
6,4,4,0.194222556424116,-0.0269527844929168,-0.250674176740968,0.189308972373193
7,4,4,0.579674941214831,-0.0469588981648662,-0.251915030848214,-0.519322987243868
8,4,4,0.317057640169434,-0.0249276275252607,-0.753754114895528,-0.0452849926077747
9,4,4,0.175637384623053,-0.020907351780779,-0.242205477339803,0.18799357129771
10,4,4,0.0846375264851594,-0.011513512243855,-0.286963769349581,0.125436440908855
11,4,4,-0.578668296627683,0.0398447797652138,0.34866790844457,0.6889385559976
12,4,4,0.822776004880678,-0.103858800820294,-0.200103741228379,-0.8315363316985
1,5,4,0.39555064268831,-0.0289965805843291,-0.858262271400926,-0.218795385904549
2,5,4,-0.137710426138308,0.00333732968277577,0.211105446275145,0.492072988938809
3,5,4,0.463565877667508,-0.0636029673645594,-0.689609133302443,0.157123206843516
4,5,4,0.190507852653269,-0.0219267215605676,0.262803367960185,-0.380514776373085
5,5,4,-0.512956875748357,0.0398213530322167,0.189691343906625,0.324699205139559
6,5,4,0.707175944650475,-0.0790679967044151,-0.44099912740223,-0.593067691048736
7,5,4,0.209553130581809,-0.0211174323781166,0.253648536324216,-0.369228909206229
8,5,4,0.0436380777947974,-0.0117583665973646,-0.152214911194264,0.221435647816683
9,5,4,0.242943175736895,-0.0260230431159093,-0.359174508233983,0.119957981233058
10,5,4,0.00426382904020093,-0.0020114668948598,-0.17531361362382,0.227749328327872
11,5,4,0.182225180621775,-0.0306168830917196,-0.308296502488347,0.329119135435556
12,5,4,-0.0428728587117454,0.00179677870247125,0.0168393549933691,-0.188475433781066
1,6,4,0.310197934842987,-0.0290197251157702,0.106685864781068,-0.379701357929708
2,6,4,0.270164715321009,-0.039521648942908,-0.36992673091335,0.303138792137109
3,6,4,0.213712494686618,-0.0302277269712398,-0.344270930355197,0.23227875090422
4,6,4,-0.0290878906804743,0.00296376850565089,0.125793810457318,-0.0586956615095016
5,6,4,0.149372305145442,-0.0366971614321607,-0.321660346171414,0.375142788407345
6,6,4,0.267243384224788,-0.027281414556283,-0.12579891530184,-0.130525038674395
7,6,4,0.182115194565479,-0.014623940979487,-0.409261412955396,-0.0306778763002291
8,6,4,0.125787685124895,-0.0197215786042059,0.422110847611339,-0.563513981189828
9,6,4,0.501767833879475,-0.0570342849844272,0.00541010575308307,-0.532083652022879
10,6,4,0.190501896246428,-0.0184547179915544,-0.494176099339366,0.0359149610458352
11,6,4,-0.0592227313182292,-0.00254011612137609,-0.0338242361474933,0.376963145198789
12,6,4,-0.194737059783526,0.0164678965395343,0.0874183178929868,0.290021189047054
1,7,4,0.391731218525125,-0.0439344099449061,0.468191535831983,-0.618064633663617
2,7,4,-0.11654394965716,0.00375789387861639,0.0106350370373878,0.412768827099821
3,7,4,0.391343747033458,-0.0526478065549065,-0.611853828584642,0.145577218936185
4,7,4,-1.04734428000205,0.0505781168185083,0.64394288038157,1.14001022800014
5,7,4,-0.195624750761547,0.0105169597714728,0.0334351650827848,0.46692158054685
6,7,4,0.545320978002358,-0.0606565892493087,-0.223036435916766,-0.471736531182601
7,7,4,0.157164980913187,-0.0156091186440489,0.355804082220259,-0.434602702164698
8,7,4,0.507957363202171,-0.046243284308878,-1.58861521167,0.0740987186105631
9,7,4,0.746854484787465,-0.0808079529115698,-0.506600426401286,-0.689980528274759
10,7,4,0.320330728356753,-0.0244691873443202,-0.630594219154199,-0.208632078355235
11,7,4,0.35780690213113,-0.0351280619234608,-0.175513226470049,-0.460177872641409
12,7,4,0.492853910588072,-0.0589955764202524,0.126056073600509,-0.542691487968661
1,8,4,0.58422699127247,-0.0646547499162352,0.41804366880522,-0.538055143349304
2,8,4,0.665829203959551,-0.0453117753886992,-1.52785481509263,-0.455186275746593
3,8,4,-0.229230191835261,0.0183997762248802,0.168894601983525,0.352237490022977
4,8,4,-0.292588394690956,0.0218676484238912,0.147223608984002,0.30597673435015
5,8,4,-0.301123185996043,0.0212743541298651,0.220051209538942,0.472672323646252
6,8,4,0.14797815161359,-0.0210859076201502,-0.235007633371224,0.240832944518297
7,8,4,-0.480716736932731,0.0388000309685812,0.331200180965753,0.401490004724085
8,8,4,-0.166472865267284,0.0100726635289739,0.0812057986501984,0.271321562794752
9,8,4,0.298767821920047,-0.0321481133089492,-0.464689300470445,0.0775501410535986
10,8,4,-0.304726559217507,0.0220044451795659,0.222888983081129,0.451474646243423
11,8,4,0.10971375782199,-0.011268845790386,-0.0330790825945466,-0.0804548850180805
12,8,4,0.562324578281997,-0.056210305382931,-0.516358879149483,-0.45643836313614
1,9,4,0.244592214091037,-0.0190898661200675,-0.531434841533623,-0.0391299206281323
2,9,4,0.0299988313354274,-0.0119051027696378,-0.15745533153558,0.342415717522285
3,9,4,0.0578244587866265,-0.0121187301523487,-0.157274882090297,0.292211382144958
4,9,4,0.166795432815523,-0.0166521820701701,0.0775594086917833,-0.27979015991583
5,9,4,0.377113286898167,-0.0400238794680446,-0.480558635806729,-0.13775059360028
6,9,4,0.399519323742311,-0.0485552541576111,-0.511176082462904,0.0521258748510451
7,9,4,0.0107298431635199,-0.00543095373583071,-0.221128850034591,0.25134937653609
8,9,4,0.0309886426303158,-0.00638979619700252,-0.136938109142627,0.220569949165114
9,9,4,-0.656908399439044,0.0460818866527436,0.406265535204715,0.259428607894207
10,9,4,-0.102005558974805,0.00828575941173166,0.0963527600062695,0.123681888886453
11,9,4,0.0691523835762278,-0.00819157598664826,-0.124934046854396,0.118043124495613
12,9,4,0.454488813382907,-0.0530005187824949,0.0440801925410104,-0.525216906349227
1,10,4,-0.261920605327293,0.0179262955240002,0.170734235067536,0.422508204228357
2,10,4,0.400468446279568,-0.0286791019182024,-0.989670014282049,-0.145065095352764
3,10,4,0.394111890349809,-0.0466987597671437,-0.709137069292837,0.0654587301024149
4,10,4,0.421447734702305,-0.0338492490247467,0.328858482061567,-0.42696380942948
5,10,4,-0.0820738304636812,-0.000456939056277242,-0.0164941043189143,0.405348150887752
6,10,4,0.245355748598595,-0.0248743502217816,-0.40827431098369,0.0253616448639618
7,10,4,-0.189470332473432,0.0178327946386052,0.129420588213186,0.205549564986958
8,10,4,0.198745306206402,-0.0210495339593489,-0.372200284086347,0.0200008772079556
9,10,4,0.0462853733063963,-0.0147159695192685,-0.141992497220231,0.375698760303638
10,10,4,-0.522950040776277,0.0430326969891432,0.38652566859024,0.425273069572218
11,10,4,-0.178055450329415,0.0101787781504045,0.0882805499201327,0.413681864411282
12,10,4,-0.12198185421116,0.00736863079547483,0.00865372814586988,0.39291113238558
1,11,4,-0.144522311093475,0.00947059708868449,0.0402148620480439,0.363555856642494
2,11,4,0.136460322516039,-0.0160161739706406,-0.280380951824012,0.0839962239017651
3,11,4,0.694115613516197,-0.0706565635762865,-1.7559059182861,0.0810807803279654
4,11,4,-0.069735706761173,0.00213021471005141,-0.0941274734633852,0.299812047248141
5,11,4,-0.23507854154926,0.0208106659676755,0.15793601896953,0.210926767191541
6,11,4,0.142177369774157,-0.013861083931473,-0.207168084283453,0.0562773297935077
7,11,4,0.254754087613009,-0.0236182089828857,0.226857846433173,-0.310814236238438
8,11,4,-0.169663520796795,0.0127584491907915,0.0626462762540718,0.297922064136964
9,11,4,0.209247517228434,-0.0200672439394782,-0.237714715460384,-0.048965838684592
10,11,4,-0.0786219493244876,0.00399161646062608,-0.0558292801559274,0.25045211803034
11,11,4,0.129207047144257,-0.014565325791748,0.281878409863399,-0.353426628953418
12,11,4,-0.0866392167347491,0.0066387863879464,0.00476261290486313,0.112675902763933
1,12,4,0.219443152981822,-0.0183699428179456,-0.481335766404387,-0.0303965385352117
2,12,4,0.195859187913851,-0.0219302623867771,-0.352987581855959,0.239115293987006
3,12,4,0.41061988627249,-0.0465415383087632,-0.638846219793241,0.0296695121871221
4,12,4,0.367154378096514,-0.0282079496727796,-0.828206530603377,-0.178372152122229
5,12,4,-0.0366607876449898,-0.00046998653826818,-0.0512512930172318,0.163903329196505
6,12,4,0.264941794891019,-0.0470977755628439,-0.370703378081999,0.372832849522982
7,12,4,0.159621856309173,-0.015731461636905,-0.340464103923461,0.0511778517350289
8,12,4,-0.271171641558296,0.0239239573603215,0.152428719880195,0.188552126580774
9,12,4,0.280010558892842,-0.0413737583199907,-0.446805587565758,0.2417169397271
10,12,4,-0.187121012418394,0.0127241953009303,0.117936652888763,0.261330146888023
11,12,4,0.0708559629342029,-0.01352881599328,-0.202820074273913,0.280992299150011
12,12,4,0.200665335083758,-0.0206992506751072,0.0764035033288237,-0.117038192252715
1,13,4,0.377541564767049,-0.0389734977032536,0.403150548278013,-0.529332581596597
2,13,4,0.0401883714525073,-0.0135473416513804,-0.166003105098312,0.347801458435237
3,13,4,0.0587479427164752,-0.0243808501293584,-0.0595191127359629,0.5027605052415
4,13,4,0.45756438113103,-0.0289139527218535,-0.883892615491119,-0.38356078481178
5,13,4,0.371810148471704,-0.0488520965267366,-0.663001886898522,0.0871225609721903
6,13,4,0.609310458325738,-0.0624058677871242,-0.892804009038763,-0.215695186826426
7,13,4,-0.100877498186947,0.0108238249762159,0.00480847090541538,0.11056678079553
8,13,4,-0.249521185414545,0.019832954295608,0.169625927938035,0.366110990425853
9,13,4,-0.444498591374639,0.0323356474813718,0.171146383966033,0.681684538760993
10,13,4,0.232271544457663,-0.0207840884837122,0.246653931109959,-0.345649658065118
11,13,4,0.088082915119612,-0.00752987945470596,-0.0474058888690399,-0.299246299438295
12,13,4,-0.404747858846026,0.0345383802886497,0.16914858186054,0.286478977002275
1,14,4,0.655262991168668,-0.0597126793384173,0.581454009568431,-0.722937543582483
2,14,4,0.116918481281536,-0.0221071472129738,-0.252493572651635,0.29896802683693
3,14,4,0.175891361440005,-0.0203333401745359,-0.338169334921402,0.123143112620259
4,14,4,0.291918750452974,-0.0304180400673009,0.380769780284751,-0.505024396779993
5,14,4,0.118072841524367,-0.0227439178453868,-0.258233231951153,0.33118514156047
6,14,4,-0.297031820699352,0.022793306152813,0.132494266302365,0.505897984390315
7,14,4,-0.0497936260514438,0.00405918564344286,0.127397856637784,-0.0431073362426126
8,14,4,-0.230617292051745,0.0209827130542499,0.115886132814465,0.363968519667508
9,14,4,0.276140482798342,-0.0335493151568768,-0.480030271671466,0.132833349029842
10,14,4,0.0149390577823908,-0.00333955213536955,-0.0901218600914818,0.179927380961709
11,14,4,-0.541607889726438,0.0380650161028788,0.217022277536733,0.632878941598579
12,14,4,0.295156556030792,-0.0408070765534127,-0.484036615576711,0.202993030342715
1,15,4,0.189520014694125,-0.0159780387950678,-0.293496925500595,-0.122988306551146
2,15,4,-0.190042659066233,0.00897777821551446,0.112399282043332,0.441424014491217
3,15,4,-0.0658202280758503,-0.00210628583016089,0.00712597983707484,0.403700729748553
4,15,4,-0.437313482151142,0.0252771893889316,0.111123887929493,0.792754003138904
5,15,4,0.27277610508248,-0.0257770392863531,-0.418738390381022,-0.0999613176100182
6,15,4,0.37847211433586,-0.0451414233098871,-0.599449566313075,0.101446280097153
7,15,4,0.466460966062369,-0.0417715388738439,0.436614403010447,-0.553552662324269
8,15,4,0.278202402405187,-0.0234697024403988,-0.11011740347311,-0.255413751306413
9,15,4,0.359734550831751,-0.0378688688308878,-0.13162962054072,-0.2972886153243
10,15,4,-0.167418000756869,0.00695204063215335,0.119775855344586,0.39053153173729
11,15,4,0.0146267835726125,-0.00398009546289113,0.253739498199909,-0.214884476487272
12,15,4,-0.61206728313283,0.0410343362931169,0.0552016052117466,0.794061747810487
1,16,4,-0.0089445541922332,-0.00379816553709259,-0.0611841817265394,0.265582113438313
2,16,4,0.311745751466625,-0.0318463480086412,-0.0845756588797402,-0.307565128799865
3,16,4,0.606353774820105,-0.0625643124981075,-1.05267775064714,-0.0418159872961997
4,16,4,0.292156638488134,-0.0249139548350524,-0.563122641178479,0.0329225817482036
5,16,4,0.0429842122622832,-0.010164919370059,-0.168359582105408,0.276137027111113
6,16,4,-0.222866431085584,0.0126912435305609,0.24891941856194,0.556092281744325
7,16,4,0.467080481896511,-0.0540446085131021,0.438133901438283,-0.571373669531604
8,16,4,-0.183717481862005,0.013339165522971,0.119031403674629,0.0814957108033178
9,16,4,-0.108613781282872,0.0108478418709467,0.171799826173521,-0.064680638600396
10,16,4,-0.194433798177197,0.0149341919573538,0.130248699851025,0.287487763683772
11,16,4,-0.152962358951255,0.0140048981797006,0.244726250890541,-0.0132868948874782
12,16,4,0.153994507008397,-0.0143906054549196,-0.00420030675505112,-0.161944784842657
1,17,4,0.472109344669591,-0.0304229951431503,-1.09650095866375,-0.318293549668038
2,17,4,0.00918043033978118,-0.0114747137907817,-0.138601944662408,0.377147841237302
3,17,4,0.738565654447361,-0.0641323477185933,-1.72153479327644,-0.27592336555594
4,17,4,-0.00398998256648149,0.000157954617267104,-0.0144816741891274,0.0963082750275444
5,17,4,0.122415818194262,-0.0194627243525388,-0.235605181095138,0.227218115890942
6,17,4,0.27165749560182,-0.0344488706935088,-0.520708310554406,0.131554990243332
7,17,4,-0.303923798043225,0.0232441892704458,0.241187841333613,0.339456807109808
8,17,4,-0.0897193092129394,0.00121285602681667,0.0021468239835939,0.381248935744277
9,17,4,0.117516328766436,-0.0198449621458375,-0.230120758018778,0.295572783606313
10,17,4,0.0278307058404987,-0.00518213040706687,-0.00117866813528172,-0.00627046978439484
11,17,4,0.222702445059131,-0.0257178721093099,-0.454145581010618,0.0476923536955504
12,17,4,-0.364733949600225,0.031238961298395,0.170385991522248,0.277796695146836
1,18,4,0.411079060690896,-0.0420250932015799,0.444470119569746,-0.576549304946526
2,18,4,-0.177586001639717,0.0155171807550214,0.0893035382200836,0.131660474240077
3,18,4,0.869511987926227,-0.0944125335656245,-0.552502754035065,-0.902484331757935
4,18,4,0.0605154104894884,-0.00628046419535048,-0.186634492522864,0.0457882110377239
5,18,4,-0.0257134920780279,-0.00103372245547537,-0.0242674327303576,0.185986855824044
6,18,4,0.207537677602724,-0.0314508572833435,-0.352618866908064,0.253154098818486
7,18,4,0.0988536099688073,-0.0107069345283837,0.211212236771594,-0.301545247789158
8,18,4,0.221193580217234,-0.022110204229885,0.0402412501630791,-0.318325082323895
9,18,4,0.0523015884580269,-0.00733182456484766,-0.101629509385062,0.0819896455657083
10,18,4,0.369368325669457,-0.0364547121695899,0.363614545818952,-0.490992005655883
11,18,4,0.0461438663057862,-0.0034650515736151,0.356075810502655,-0.420820382537757
12,18,4,-0.410895572858498,0.0342327974245899,0.241861668346003,0.307036230465954
1,19,4,0.372334653156324,-0.0260114562495097,-0.822142331633517,-0.202204270270922
2,19,4,0.655212124935186,-0.0400658692980553,-1.4921127303593,-0.423419908997656
3,19,4,0.314595587482644,-0.0312987155892277,-0.635573422170033,-0.0367414766801141
4,19,4,0.0538696036336937,-0.00685606368032881,-0.258580132273005,0.248022986718324
5,19,4,0.213004660121124,-0.0177978537718631,-0.316015227086008,-0.0752887776640236
6,19,4,0.629614145583085,-0.0611243524970933,-1.69156183173193,-0.0199827930381487
7,19,4,0.079466386680344,-0.0111337668525942,-0.269622437492678,0.124901901761772
8,19,4,0.219664925743006,-0.0234235154761071,-0.440849336730099,0.0619858226490121
9,19,4,-0.457253495376249,0.0370120146035641,0.216266044084848,0.341350893622656
10,19,4,0.235113594944905,-0.0204274492829314,-0.298877912745129,-0.199162641287124
11,19,4,0.0528694653188999,-0.0060517832709361,0.0419765514127297,-0.00389548663651076
12,19,4,0.431407440842595,-0.0523242392288397,0.13504327585235,-0.676445387222987
1,20,4,0.105290495168245,-0.0115067223750883,-0.344314140204461,0.147741582315168
2,20,4,-0.204214042941356,0.0146655462243818,0.0979099540442155,0.228363688311191
3,20,4,-0.312021391581443,0.0241439121190057,0.209870161888381,0.466048828722353
4,20,4,-0.493684957302945,0.0344851426606924,0.0306338532238385,0.75670085865332
5,20,4,0.563740780215022,-0.0463943824906367,-1.2537034734399,-0.318430529453666
6,20,4,-0.261050958640953,0.0193053395192282,0.280158539329859,0.628721148673966
7,20,4,0.117674193226546,-0.0100637310957283,0.119532724348238,-0.216003616218125
8,20,4,-0.0381597430272283,0.00122274740467716,-0.0769085786075767,0.232660132258687
9,20,4,-0.206339400735872,0.0155146527810376,0.130533395458715,0.418159053475642
10,20,4,0.213727019630622,-0.0227845300695423,0.196915231431625,-0.311692534109364
11,20,4,0.0517639584046428,-0.0140063127248036,-0.186235139746657,0.333052068540794
12,20,4,0.0195563662302185,-0.0102291613123763,0.364801266775683,-0.529733559229659
1,21,4,0.601319915953705,-0.0295813383356041,-1.65085306051314,-0.562006820227159
2,21,4,-0.449794242870672,0.0358734424507122,0.314697410399566,0.44260501045422
3,21,4,0.147987188112675,-0.0279375400393276,-0.230512323971033,0.357616875725012
4,21,4,0.222621876118925,-0.026719650252934,0.288982559385809,-0.414352592337235
5,21,4,0.416139146958004,-0.0456277315243169,-0.523625259516976,-0.116759296846183
6,21,4,-0.0233455519869539,-0.00808079675306125,-0.0374252492737008,0.500541037479602
7,21,4,-0.052528431611662,0.00388321380495379,0.118849130196456,-0.101864591603794
8,21,4,-0.455922698502816,0.0358325681869508,0.282883691099795,0.363370950712324
9,21,4,0.0626646966581081,-0.0177795386557761,-0.0762447442361191,0.38410820139832
10,21,4,-0.409113261533802,0.0281836664922765,0.269992878887204,0.381391262095424
11,21,4,-0.111432042764902,0.00715445316690091,0.0181804221009008,0.154895239375078
12,21,4,-0.0228744758086984,0.00210922550543561,0.212313233270924,-0.41363899076221
1,22,4,0.359380312752715,-0.0272520537912385,-0.732466836878949,-0.14574351584818
2,22,4,-0.248169647235629,0.0171075986552954,0.249406271877201,0.399091312979208
3,22,4,0.385092291972998,-0.0365428956869404,-0.582995745751961,-0.179731674602879
4,22,4,-0.256691535863792,0.0172892767831297,0.216500413629054,0.423235605178797
5,22,4,-0.183890509707806,0.0100909794703185,0.0738042916303992,0.43559809627313
6,22,4,-0.063511810692453,-0.00574203122713524,0.053427474595165,0.652774255508405
7,22,4,-0.31668703902029,0.0254222378228851,0.228954070253594,0.333115560285253
8,22,4,-0.272834444939321,0.0225280202913688,0.148528946036723,0.196523197176983
9,22,4,-0.571691121876844,0.0370102273884949,-0.0805580406001192,0.745248520361154
10,22,4,-0.288065808849589,0.0212876547758957,0.182260421326731,0.358622924951143
11,22,4,0.228227490868605,-0.0220504648803464,-0.383071661311953,-0.0577501583372341
12,22,4,-0.135355713418831,0.0102103918141357,0.0326709673461717,0.277436278770854
1,23,4,0.00444299902042716,-0.00556084764465467,-0.175273546081999,0.257012711892042
2,23,4,0.133887666115823,-0.0206393906342478,-0.277180631678957,0.246598415966528
3,23,4,0.250899333337293,-0.0435530875611202,-0.337391580789833,0.346307615776604
4,23,4,0.493515077632226,-0.0576687877339386,0.576051421802614,-0.754165318885695
5,23,4,0.197845887070772,-0.0197075049640888,-0.256316406325778,-0.0692239245980809
6,23,4,0.0710263651200112,-0.0150510237142336,-0.196966937563218,0.318822710133046
7,23,4,0.432686953248711,-0.0392047963933285,0.400645181676242,-0.515901051207573
8,23,4,-0.519491856064197,0.0402372328153557,0.301092549610147,0.400152865110661
9,23,4,-0.796568895406855,0.0398367649354317,0.514650462978266,0.000284696333324962
10,23,4,0.328193392090714,-0.0317677822340006,0.344230285252135,-0.492853339397449
11,23,4,-0.458400026739467,0.0402178257949898,0.24286584248115,0.234647848276954
12,23,4,-0.12308195590465,0.0154050807258745,0.124772784496229,0.0369460178026326
1,24,4,0.264690588678273,-0.0244555784410347,-0.639295798494138,-0.0353318604256453
2,24,4,0.868598029348015,-0.0429242407282817,-1.89769798652494,-0.943514373407089
3,24,4,0.0448450031403124,-0.00556848709240293,-0.109660151931092,-0.0227974801673717
4,24,4,0.0241536956247478,-0.00570589254778373,-0.241308129164692,0.196304385052535
5,24,4,0.448520727995537,-0.0463246734094961,-0.731914358915729,-0.133020467253758
6,24,4,0.31085433905364,-0.0500522333992668,-0.291435357696695,0.278820392202229
7,24,4,0.0471779294986062,-0.00737515343514246,-0.12860384823878,0.167518179812712
8,24,4,-0.298399928844228,0.019953534082453,0.228397472253134,0.492885473256206
9,24,4,-0.439021098586462,0.0331291643536303,0.164723198825571,0.270438358843816
10,24,4,-0.210070744249098,0.0181737484115559,0.130030931819552,0.123834026429963
11,24,4,-0.206766457917814,0.0175012255624309,0.0996235267611577,0.15968100433894
12,24,4,0.31837138763354,-0.0339984378753705,0.223827830697363,-0.285963869223538
1,25,4,0.266867223394015,-0.0229424572807697,-0.53968687711665,0.0231922466329465
2,25,4,0.217729625610189,-0.0395337306141889,-0.298277371548184,0.372818668801653
3,25,4,-0.260825638880899,0.0211662367899683,0.167386709992822,-0.0569883845549381
4,25,4,0.306568445192362,-0.0343894301610484,0.369483945904928,-0.496937871557995
5,25,4,-0.157050061361744,0.00673568867043496,0.0755619420692549,0.436814417025834
6,25,4,0.598477767826716,-0.0741282053428039,-0.90245461959478,-0.0404321520284491
7,25,4,-0.135900905442209,0.00796895482385671,0.0631454468292404,0.267175023637338
8,25,4,-0.115951485971461,0.00421213982531055,0.0411928841007483,0.376277222729201
9,25,4,-0.0328991084808692,-0.00110467407854202,-0.0643971352140625,0.306087528612389
10,25,4,0.335974663384698,-0.0281158699658403,-0.762377227701367,-0.113787694567662
11,25,4,0.570477883274387,-0.063682477244796,-0.189001108630962,-0.596099658059331
12,25,4,-0.187633030061384,0.01606886495967,0.13196328357198,0.0335747367481277
1,26,4,0.148056623366317,-0.0150178595298039,-0.411037663325824,0.0608970947375862
2,26,4,0.265825599139457,-0.0311978041131585,-0.505362688183673,0.0668089311179388
3,26,4,-0.0407842672049793,0.00253920051864052,-0.0524075432697637,0.199507003414372
4,26,4,0.168950492299147,-0.0213203231866143,0.331157060096312,-0.456149001493885
5,26,4,-0.292469814990835,0.0244631338326173,0.183103221816833,0.224797929462726
6,26,4,0.111106801660006,-0.011330040929754,0.00784635726465324,-0.214535915131155
7,26,4,0.0809226106845942,-0.00867901722343608,0.18451546775249,-0.238851462286152
8,26,4,0.16067492170249,-0.0139319189810973,-0.0370900200601033,-0.313623018509662
9,26,4,0.407926677125334,-0.0437576548870797,-0.308019369386629,-0.224807556030151
10,26,4,0.208960288086757,-0.0172718109819856,-0.491454573831571,-0.0243661089317998
11,26,4,-0.188188638047882,0.0150028617893997,0.0896842373290665,0.232465714832391
12,26,4,0.444257982698015,-0.0374473210548541,-1.18497806159808,-0.0278303282314699
1,27,4,0.260969043530197,-0.021923449099892,-0.51985835011463,-0.0691966372698378
2,27,4,-0.155088400505641,0.00932133483572096,0.0701432528300976,0.351081414951695
3,27,4,0.755472187667447,-0.0628904936223808,-1.3835491510364,-0.386651717323867
4,27,4,0.00975230825602098,-0.00298732799509263,-0.184767773639784,0.14105056036527
5,27,4,-0.0541040751540287,-0.00499092485922452,0.02732458491408,0.395217794983651
6,27,4,-0.137244911730511,0.00596240376702351,0.066837650657718,0.460751376973364
7,27,4,-0.440242357497972,0.0325947655000736,0.323805163587096,0.395708388950403
8,27,4,-0.110949669778426,0.00886552560280461,0.0352955061448244,0.194780151587721
9,27,4,-0.231521151047903,0.0189253164731341,0.124360210069048,0.332537352640903
10,27,4,0.258426572451947,-0.020744422574307,-0.398419766625108,-0.195270159906267
11,27,4,0.317226940856315,-0.0329416791052934,-0.609879960386516,0.0140868930895674
12,27,4,-0.055995075322378,0.00359538788291808,-0.0357343919081768,0.257619036302968
1,28,4,0.338981357274372,-0.0296592523420876,-0.178104380781838,-0.333265395883148
2,28,4,-0.117407594436365,0.00128553022925278,-0.0183662108550908,0.47233923244013
3,28,4,0.461341887272104,-0.0467870764070961,-0.418627978832103,-0.324014009451738
4,28,4,-0.0589824106803957,0.00606081585733108,0.15221674970854,-0.0156100147877193
5,28,4,-0.271180736836955,0.0201525208779698,0.163253453448512,0.39399871278111
6,28,4,-0.203978591331522,0.0149215850356296,0.0634908118415861,0.447477820136498
7,28,4,0.317136556573333,-0.0434986704150576,0.533653085844996,-0.709540922658647
8,28,4,0.0924081937996597,-0.0137497754114301,-0.229984953034193,0.23008286395681
9,28,4,0.182915980669707,-0.0176810047177671,0.218039630101409,-0.354190534102578
10,28,4,0.320817542236219,-0.0375368301652709,0.446535968730327,-0.595639708627035
11,28,4,-0.673786536377467,0.0475908204787514,0.446552788602387,0.284590260671893
12,28,4,-0.772510646596298,0.0503285242832073,0.268431318695305,0.734137402994432
1,29,4,0.0283179129730383,-0.0255323777805696,-0.19579675367341,0.338145542220322
2,29,4,0.20738233753106,-0.0212022713839682,-0.0292271594689439,-0.160741759644321
3,29,4,-0.103688100711951,0.00436953449158635,0.106321086862075,0.301991849604725
4,29,4,-0.371595859346382,0.027383865133988,0.22781447301452,0.36024261532497
5,29,4,0.14539744696966,-0.0242396426979342,-0.258597728636068,0.280516420493182
6,29,4,0.143616199313939,-0.0310725021392304,-0.186860482791775,0.404846276456924
7,29,4,0.1062024365889,-0.0113647221387838,-0.315471328326914,0.110511523707017
8,29,4,-0.0551448956681018,0.00496180797550801,0.104043029104246,0.0098907603462993
9,29,4,0.46671968572261,-0.0536685141765043,-0.824150035529185,0.0206993287150275
10,29,4,0.0837852472746331,-0.00720362945104536,-0.178592834826944,0.00410449732962894
11,29,4,0.270100633952871,-0.0214864333534632,-0.31014797290195,-0.217272390200961
12,29,4,0.64963063350657,-0.0770706538965719,0.069773712511086,-0.581023871157965
1,30,4,0.372104227982274,-0.0285986714641937,-0.845556832796265,-0.178063173776584
2,30,4,-0.201347320369034,0.0146380359084427,0.0729579690307329,0.388815388025597
3,30,4,0.59148610947565,-0.0561390315008121,-1.06988912722004,-0.185520621398693
4,30,4,0.180436367548316,-0.017939379275059,0.227634556580126,-0.324028169557779
5,30,4,0.629186912400448,-0.0684213375422167,-0.376376740747842,-0.602582927624062
6,30,4,0.36542657571665,-0.0519409266237374,-0.568071797742975,0.202047665826759
7,30,4,-0.00845591059402739,0.000886285988670856,0.0873560729560871,-0.0625939965096733
8,30,4,-0.0416405581104292,0.0014878291528109,-0.00747436258054754,0.19798707451815
9,30,4,0.342153979990768,-0.0343262650582888,-0.432648454226068,-0.108349708234267
10,30,4,-0.325329931533492,0.0235218533616211,0.236713787928612,0.268837261080786
11,30,4,0.608274689379518,-0.0778379653403178,0.114607747034302,-0.711182960801528
12,30,4,0.12278192462908,-0.0216150182837924,-0.227571754023302,0.303720421171005
1,31,4,0.319476785888199,-0.0273891281557556,-0.72405177202862,-0.0326152962116637
2,31,4,0.409825502624705,-0.0271724377235614,-0.923103328990726,-0.301983427427713
3,31,4,0.0395832187344253,-0.0168291978758782,-0.00981873938382336,0.416080132538286
4,31,4,0.0560179754066882,-0.00683118344204351,-0.271518685362307,0.131119570810281
5,31,4,-0.016452655328516,-0.0117254199995636,-0.148504217810529,0.402384359510933
6,31,4,-0.0831698480779903,-0.00196932097569709,0.050249574555273,0.467484874894933
7,31,4,-0.0454285296289035,0.00371967591637507,0.000439921839304351,0.0258013232423981
8,31,4,0.28062168186517,-0.0296223400097317,-0.499986235849468,-0.0651519207222292
9,31,4,0.189705146311335,-0.0138037199459262,-0.411356451707724,-0.145525017084534
10,31,4,-0.0563056574556642,0.00330617657535095,0.0998247192045225,-0.00447517321924196
11,31,4,-0.749888829276953,0.0504879476592008,0.538883673806757,0.259599251927182
12,31,4,-0.191780369366353,0.016041484163951,0.0878610535532186,0.104486785300998
1,32,4,-0.040561549729601,0.00184812646579308,-0.134982939495081,0.232407203920751
2,32,4,0.716581890078077,-0.0456871720368513,-1.55160069512284,-0.592372792033352
3,32,4,0.352073386383953,-0.0532246290636913,-0.56977182206539,0.183686716414129
4,32,4,-0.139170692947034,0.0113906118950745,0.16317732040378,-0.0524273465734502
5,32,4,0.418479241700439,-0.0440306665232705,-0.712647231646013,0.020420392479721
6,32,4,-0.110588144729184,0.0128640996915319,0.0538992604247188,0.0491816618746322
7,32,4,0.0402206871394372,-0.00754621030809682,-0.260064272415849,0.193397023458538
8,32,4,-0.122837131632913,0.00838592228973914,0.0224787263002659,0.149532135029489
9,32,4,0.170130913272586,-0.0165389999030928,-0.0186684094312487,-0.227998887119876
10,32,4,-0.105749812979219,0.00195814206867271,-0.0556362573618383,0.283548306647993
11,32,4,0.134844156607046,-0.0131026404677155,-0.331679846609318,0.15851525798281
12,32,4,0.282872973646198,-0.0313065491570575,0.151721316209305,-0.426888246961591
1,33,4,-0.46842527709119,0.0330781290192986,0.210485140427628,0.481737957239466
2,33,4,-0.187944534580476,0.0171869631892115,0.0966001291581947,0.302374271711544
3,33,4,0.0679098350556754,-0.018736565206692,-0.141381662655253,0.408012761727455
4,33,4,0.0333062957880281,-0.00293543936178628,-0.109068974220829,0.10207945698138
5,33,4,0.181173823184697,-0.0306874838263277,-0.300887444472014,0.332008662621604
6,33,4,1.13672189022993,-0.143180515737721,-0.445647022876189,-1.15937761710813
7,33,4,0.279307919436054,-0.0328958070322314,0.357982883709978,-0.489376739851132
8,33,4,0.00213492883303757,-0.00183296570773839,-0.0602797181977712,0.121135141997725
9,33,4,0.0267296585652128,-0.00224670033468784,0.076193303732569,-0.178179506950239
10,33,4,0.0117953901517274,0.000772518814655793,-0.132970972082774,0.128551461935512
11,33,4,-0.190792221088063,0.0167977463128873,0.135752675761798,-0.123191311657263
12,33,4,0.433116686784041,-0.0475352181416471,-0.46719020303309,-0.0578308937109808
1,34,4,0.162963928231494,-0.0185461262313679,-0.469859543683924,0.102496842959717
2,34,4,0.513170795736486,-0.0505858217066872,-0.944952927303916,-0.166206392809034
3,34,4,-0.0282622640300987,-0.023439278762124,0.0380613621014801,0.482277115806474
4,34,4,0.127890328987635,-0.0131731039587379,-0.359899876723242,0.0582899006357783
5,34,4,0.789095843203153,-0.0922925115639589,-0.323504706532099,-0.827378888792748
6,34,4,-0.28809201731504,0.0231721667038861,0.229758326384858,0.323830181681946
7,34,4,-0.203252644798295,0.0170332302028518,0.122646240255974,0.204754960325977
8,34,4,0.105549658285948,-0.0114546604913666,-0.19213732799444,0.0716670339018685
9,34,4,0.0853367448405693,-0.0137078718717324,-0.192014670977782,0.249624506554184
10,34,4,0.358975698357074,-0.0477693964880087,0.521154272770277,-0.681807433861539
11,34,4,0.113743977733596,-0.017491627032674,-0.257333501153477,0.255736697357932
12,34,4,0.392775521951438,-0.0488473482941283,0.303022816770565,-0.406278367558489
1,35,4,0.106374638205127,-0.0130221273411885,-0.21576820602193,0.189500209255017
2,35,4,0.153136864252279,-0.0339372918334399,-0.224481057635894,0.447718985066119
3,35,4,0.394127411716867,-0.0437945226275925,-0.721691989518509,0.0250443470525721
4,35,4,0.0796199981507161,-0.00680313974478702,0.206293299160109,-0.319072683179152
5,35,4,0.10077534012803,-0.0140089029007501,-0.234399822480069,0.214979781611037
6,35,4,0.699633193447136,-0.0777138846817545,-0.484323773036595,-0.571376631538404
7,35,4,0.355238784507098,-0.0362830985168805,0.374686606142756,-0.496318378098418
8,35,4,0.299521734684297,-0.0237712759581896,-0.685388132609321,-0.0634450428162677
9,35,4,0.15353996994506,-0.0141527261305189,-0.065117141771145,-0.0104147087007637
10,35,4,-0.640786887556083,0.0431502367212076,0.0824887310960694,0.972335529992156
11,35,4,-0.705197621415241,0.0472806444325971,0.194924469468757,0.752089626327058
12,35,4,0.133754993273138,-0.0136435152812375,0.122928786222109,-0.276820865406755
1,36,4,0.366203309830414,-0.0416316973108329,0.367201257458834,-0.575216679637313
2,36,4,0.679561972627355,-0.0441380389175096,-1.59042651977249,-0.512099653247614
3,36,4,-0.336531589600427,0.0244930478343661,0.259708792422644,0.572345536254747
4,36,4,0.163750922202964,-0.0191269310077026,-0.452404627353923,0.125751543661166
5,36,4,-0.20170812201316,0.0183174320547929,0.109092606362977,0.304128262383453
6,36,4,0.0234827957317962,-0.0111755213364622,-0.12046014714227,0.371737630768889
7,36,4,0.261884099726836,-0.0292307324717277,0.3096794213107,-0.426148543043365
8,36,4,0.211202992034683,-0.0242024476018406,0.284833990385245,-0.421520027081618
9,36,4,-0.440949190634674,0.0326574298188896,0.155419148237479,0.273910369984306
10,36,4,-0.0876393710720422,0.0038719805419875,0.00637004132660102,0.256473067935288
11,36,4,0.73453023706195,-0.099059110876825,0.149923876868042,-0.823739744319857
12,36,4,0.152707606444052,-0.0264289215200361,-0.200963214572876,0.286119009428466
1,37,4,0.213776095773438,-0.0216686702946414,0.169959483924047,-0.281288687802461
2,37,4,0.529536807504884,-0.049011605548425,-0.929844287172585,-0.0823781421762548
3,37,4,-0.00629528901909981,-0.00749365945663693,-0.102784096072079,0.375552599081508
4,37,4,-0.0448876630446905,0.000514012186903358,-0.106345094377421,0.248846329376737
5,37,4,0.482632558998435,-0.0536644874072588,-0.113105312435377,-0.529522707666392
6,37,4,0.35802462237589,-0.0380367295731227,-0.573836565073216,0.0353995293900395
7,37,4,-0.183937316557106,0.0135444733409436,0.0547039946769038,0.272193878396595
8,37,4,-0.174596415313586,0.00830195995479308,0.0610198575254546,0.464559390967649
9,37,4,-0.229552738628845,0.0183339660180691,0.153483994709012,-0.0508839894698062
10,37,4,-0.147999471759037,0.0146556455143382,0.10152660688524,0.133331992946196
11,37,4,-0.0782753293490713,-0.00710059196136608,0.0367234893187755,0.381985885089324
12,37,4,0.0802279934288125,-0.00971143632378048,-0.110417881852462,0.0968724416992916
1,38,4,0.306624744431173,-0.0321557583890328,0.337959908206837,-0.468427188258094
2,38,4,0.117744691372168,-0.0166423515404502,-0.238568452326705,0.231678574218532
3,38,4,0.352702611496351,-0.0401859891266916,-0.490447201791219,0.00954200339309637
4,38,4,0.302616223373965,-0.040228666009273,0.497628831264297,-0.655413318488153
5,38,4,-0.432358841829415,0.0354849934170273,0.474142141558006,0.267016753800418
6,38,4,0.082447313528042,-0.0186868626166897,-0.200988542736164,0.354439391304695
7,38,4,-0.102519063772432,0.00847829888788294,0.278373442541866,-0.108931671019367
8,38,4,0.147768658664445,-0.0196809274704562,-0.298348753227156,0.0750939727677363
9,38,4,-0.226603375093659,0.0163927751521158,0.086542456526239,0.470443122188348
10,38,4,0.203262965325084,-0.0165156729610065,0.190708241780269,-0.312679604024987
11,38,4,0.438010601057544,-0.0377995846434514,-0.76817547272295,-0.238315833588086
12,38,4,0.320730483786743,-0.027810081893527,-0.431743108014065,-0.342186770019473
1,39,4,-0.068701776437358,0.00441715825076552,0.0659859152496229,0.0687517856536365
2,39,4,0.528115134239288,-0.0591878818950157,-0.157540675438214,-0.541231857416318
3,39,4,0.17649564698728,-0.0264558458456679,-0.322176723582619,0.238382374854278
4,39,4,0.317365565019035,-0.0278796577244703,0.318536073203549,-0.435169062789533
5,39,4,-0.161397076943514,0.0062251546340675,0.0810215648017861,0.467057216882775
6,39,4,0.0998395584943181,-0.0153005568585987,-0.205216331848611,0.220479867311591
7,39,4,0.257976013214658,-0.0184097916258242,-0.676020351234902,-0.0458007664384431
8,39,4,-0.254174105664217,0.0219059098538659,0.170339193321888,0.0255793632562457
9,39,4,0.323308435514997,-0.0397006522255516,0.0881094344192231,-0.692456858950134
10,39,4,-0.250212638737064,0.0188361334627894,0.126788734681083,0.271601004600601
11,39,4,-0.133322043793938,0.00481071805279547,0.00292333020416141,0.443070054938487
12,39,4,0.134264208798385,-0.0124994422980426,-0.0482570725626793,-0.0627710853528885
1,40,4,-0.256005370881518,0.0192400543772952,0.142993245519527,0.40218275574845
2,40,4,0.16337288427885,-0.0203597613695915,-0.406218428143974,0.0679152741328268
3,40,4,0.370040962901756,-0.0483722165991919,-0.733962119804538,0.0576086928742785
4,40,4,0.264755605147869,-0.0176927207542663,-0.523318024478764,0.030056920735606
5,40,4,-0.151857876837442,0.00786319124786856,0.0185381678608071,0.395354250675198
6,40,4,0.194150582642294,-0.0215228290106189,-0.210915901410879,-0.0282611462280915
7,40,4,0.338580348439562,-0.0266107542895363,-0.707317800912904,-0.0836208399065579
8,40,4,0.424218798047669,-0.0388977450477427,-0.757880561665696,-0.177696377511631
9,40,4,0.0509676823305169,-0.0117369351738389,-0.147092251942381,0.294440947612347
10,40,4,-0.220611468516734,0.0188299695105549,0.135349302851893,0.354992607795692
11,40,4,0.126221580133535,-0.0155599098955442,0.281755393290217,-0.414719204543817
12,40,4,0.682423199928848,-0.0812635779952689,-0.0357891509696014,-0.62178014008629
1,41,4,0.428441506427295,-0.0395376091427429,0.389011822129331,-0.505955987156121
2,41,4,0.133450901453846,-0.0163956749241404,-0.304640036324891,0.169069297954709
3,41,4,-0.089503155412487,0.00381881011053738,-0.029838211491217,0.377360621966389
4,41,4,0.246760279278369,-0.0234931762873645,-0.58990467826542,0.0242259395491767
5,41,4,0.341429991714184,-0.0416435229443895,-0.644182216506442,0.0710250960147542
6,41,4,1.02261153452841,-0.134595889874655,-0.296113665049414,-1.01568491691215
7,41,4,0.18380459937128,-0.0166751251277033,0.0698147567125527,-0.258511601653501
8,41,4,0.242318046345852,-0.0310675808479961,0.419422742364344,-0.599862808912945
9,41,4,0.249947858488705,-0.0279290641876172,-0.460913275728018,0.0826770376434831
10,41,4,0.245749757908949,-0.0317933379416932,0.464629264039708,-0.594205419867488
11,41,4,-0.154969295255214,0.00935839808999437,0.0478372964092304,0.357840696564794
12,41,4,-0.106300303407599,0.00981195509454671,0.0758320712651635,0.141292521005047
1,42,4,0.419346392017312,-0.0268975652986857,-0.797696317691152,-0.147815917708365
2,42,4,0.627040448395928,-0.0560644588082809,-0.71094778395867,-0.595471115277621
3,42,4,0.11949261671292,-0.0191631394185061,-0.22889224766231,0.264545361865969
4,42,4,0.0919824858698945,-0.0118171282688951,-0.30556958478441,0.190345960323548
5,42,4,0.218604814485993,-0.0250112323137375,0.315517049540436,-0.415405507854001
6,42,4,0.130150360652692,-0.0272290534564019,-0.199094731051654,0.369488482299816
7,42,4,0.299505357221183,-0.0311325871882654,-0.0629593895133095,-0.404443930399959
8,42,4,0.0973986784516225,-0.0116793582767739,-0.253920487685479,0.0757268454964445
9,42,4,-0.00441031433343695,-0.00165047915512259,0.268826896685498,-0.234360203921753
10,42,4,-0.173109762115572,0.0160641919606643,0.113952923715596,0.180635801988205
11,42,4,0.209894976847766,-0.0202883460548267,0.160444647469067,-0.255312853218565
12,42,4,0.352326227654838,-0.0437899905680593,-0.650309904817404,0.0755412040923737
1,43,4,-0.0737504790851347,0.0043083882567069,-0.0599351872867797,0.224934878409048
2,43,4,0.245208676318108,-0.0248460210209835,-0.401065650728608,-0.00197168726043201
3,43,4,0.140245439265572,-0.0149880194667788,-0.253841638885962,0.0636456073631546
4,43,4,-0.380727788767518,0.0261561718997277,0.300926677220096,0.373985873313934
5,43,4,0.29277637594896,-0.0344498425770412,-0.530844045909618,0.0696033548188279
6,43,4,-0.115172932525492,0.00731276977243557,0.29324230247468,-0.20583514196875
7,43,4,-0.12245895891627,0.00826958210042847,0.0721796501736138,0.154525217397753
8,43,4,-0.772484264334189,0.0530346961160483,0.489259868020585,0.281528991457636
9,43,4,0.0561907813831178,-0.00597248948102944,0.035888360901571,-0.179227721512041
10,43,4,-0.04268161439017,0.00109161374465419,0.181855220432411,-0.0783817385900905
11,43,4,0.236716032434421,-0.0236971753588734,0.0854141555753288,-0.174567362891977
12,43,4,0.132000771567629,-0.0222789636454393,0.41854025319068,-0.601713643541937
1,44,4,0.332266797019475,-0.0254490211432577,-0.636090113653729,-0.0628632646910665
2,44,4,-0.0997027413362686,0.00825325887066485,0.0130476639520066,0.135406710454036
3,44,4,-0.164222905545459,0.0132268081019046,0.159368788961427,0.351823164241723
4,44,4,-0.108413208597129,0.00304625453106364,0.0471793357151623,0.379188898718705
5,44,4,0.224036719776379,-0.0231106540795565,-0.376396570138583,0.115123158755971
6,44,4,0.401325571742137,-0.0568923144733203,-0.577914798566726,0.179881509291888
7,44,4,0.287762075474135,-0.0289523882972591,0.295822149726548,-0.414723705975186
8,44,4,-0.105697902803843,0.00396869366641741,-0.0187477057765661,0.350947839410742
9,44,4,-0.561151199845028,0.0411615780500154,0.270882593291429,0.48426836431231
10,44,4,-0.264259024819407,0.019779722513644,0.185817678658336,0.337683383980506
11,44,4,-0.0469878605712339,0.00312851344008476,0.00732066643751161,0.161350672824698
12,44,4,0.706344214356307,-0.0820495820994278,0.0460388488288006,-0.553385045495521
1,45,4,-0.119372307041436,0.0107328290973176,0.139809696498205,0.123297601498126
2,45,4,0.506021694140529,-0.0456608522117958,-0.99484537081151,-0.181621070161856
3,45,4,-0.103604057151169,0.0102345486463606,0.145585640227073,0.000767244302672747
4,45,4,0.396699917062734,-0.029364142786511,0.344522128088038,-0.444449189869193
5,45,4,-0.116210392434842,0.00327860375208354,0.0114817528688741,0.396392872470075
6,45,4,0.524053737831337,-0.0604811795842891,-0.598796337881633,0.16571849380094
7,45,4,0.0803917246217491,-0.0114465216333441,-0.329226366727941,0.172462168257429
8,45,4,-0.0989260178936006,0.00748646919410217,-0.00757256193963211,0.213465737583102
9,45,4,0.0818642842382728,-0.0119440805644183,-0.189950839328447,0.221795502766082
10,45,4,0.145179369637228,-0.0133965322863058,-0.292044871898864,0.0628057638621004
11,45,4,-0.394980277394489,0.0318727980782298,0.220484729042669,0.321147398289927
12,45,4,0.281451803431069,-0.031985273360128,-0.420872425236975,0.0571349043094344
1,46,4,-0.244630060349408,0.0176056788437557,0.138422098150797,0.282883664396106
2,46,4,-0.339768992949898,0.0245123872248897,0.0976410615008252,0.603282599782899
3,46,4,0.437674418393491,-0.0531258605704663,-0.750360129123614,0.0490885769444143
4,46,4,-0.36707552413753,0.0276520243823319,0.245228096433823,0.365759055430238
5,46,4,0.642344784783483,-0.0607276583283996,-0.719585848416765,-0.548970077225686
6,46,4,0.0416922804951265,-0.0129943177105807,-0.137118304347382,0.357639139577149
7,46,4,0.295793678414494,-0.0292385202924888,0.274804605503952,-0.387184838130078
8,46,4,0.348869030411257,-0.0416019057727673,-0.546001466649101,0.142663123006333
9,46,4,0.4462382645142,-0.0527934046508851,-0.736002051892101,0.0404515092393567
10,46,4,0.197867092911787,-0.0138697388547879,0.305039545745953,-0.373199207901831
11,46,4,-0.0709314381314935,0.00616734761743362,0.011192250802868,0.0482839755233662
12,46,4,0.130839705262914,-0.0152365615120351,-0.19604548149683,-0.00689236358516999
1,47,4,0.236632487257766,-0.0237745331466096,-0.54658555923026,0.0243394722623037
2,47,4,0.168650910553695,-0.0247846806111772,-0.3252278148092,0.272440633962498
3,47,4,0.362052594002873,-0.0635063822226349,-0.424917626875527,0.365075391218067
4,47,4,0.343085713018025,-0.024789063263476,-0.624606137447882,-0.264874028105645
5,47,4,0.243553745467587,-0.0320638874690525,-0.456227763665119,0.166441455671818
6,47,4,0.344761789075879,-0.0371828695868748,0.162846251769178,-0.384332092890382
7,47,4,-0.127399457882991,0.00865302335049271,0.0171453060039894,0.168814349693603
8,47,4,-0.433853767191727,0.0368132692377163,0.268727679635616,0.286674389740229
9,47,4,0.0567127373663541,-0.00753474851407029,-0.184863916933904,0.11417976790856
10,47,4,0.306187588413121,-0.0234453734445003,-0.717089685341759,-0.093288104069564
11,47,4,-0.0956722497649967,0.00213350081035061,0.00289864685439962,0.377549726017241
12,47,4,0.17150058466075,-0.0178914339628393,-0.14973714128147,-0.0187097710967407
1,48,4,0.304078378967935,-0.0282145596485355,-0.708837000726281,-0.0419361671904544
2,48,4,0.496982191336749,-0.0438370518176036,-1.06120229322919,-0.210490471575162
3,48,4,0.481522984767646,-0.0514560232924398,-0.965564288905004,-0.0458740613556014
4,48,4,0.18029853251367,-0.0215989268766148,-0.458744260948683,0.118315238275789
5,48,4,0.385189814442684,-0.0412726806489074,-0.69048679055948,-0.0258639833008652
6,48,4,0.351741169612872,-0.0599029957672046,-0.403319472015758,0.362960877752537
7,48,4,0.288709361628904,-0.0295013533050152,0.317036608938347,-0.435271190788962
8,48,4,0.451483335194199,-0.0527061705770553,0.0619649088223955,-0.526995557951819
9,48,4,0.158678815198342,-0.0163549365884901,-0.230607941559584,0.032106935899553
10,48,4,0.120749664540566,-0.0152426734498339,0.226185214507674,-0.321976680695071
11,48,4,0.221734665265039,-0.0219309015083711,-0.584013926285435,0.0773065603963708
12,48,4,-0.248269331645097,0.0211200205369982,0.183012743476786,0.269373852520632
1,49,4,-0.0636393364880648,-0.00144852289188557,-0.0862877731059112,0.345479712191575
2,49,4,0.259939219086318,-0.0312865456209817,-0.258247936209071,-0.174905050427965
3,49,4,-0.12164896008618,0.00246428436107762,0.116533558574859,0.467975211912943
4,49,4,0.0325812643491206,-0.00666305447373583,-0.253852158757665,0.188567622756011
5,49,4,-0.191036892717651,0.00996492850526179,0.165680353409611,0.454909580521028
6,49,4,0.537961227908554,-0.0612242766858547,-0.813820018477221,-0.0633062958601682
7,49,4,-0.336015048884819,0.0295233950960427,0.298081638024462,0.321030819027974
8,49,4,0.100682674196594,-0.0117439691269856,0.179354110931094,-0.306395622341084
9,49,4,-0.00693896012955684,0.000873349266394943,0.047642044845124,0.078701633298504
10,49,4,-0.00967120636393447,0.00455617166165925,-0.169760971339183,0.118417481476919
11,49,4,-0.200295218984421,0.0143615813700404,0.117779950257891,0.293487599241076
12,49,4,-0.15396193382236,0.0138346409526973,0.0911169737424683,0.18564311897635
1,50,4,-0.247230237399606,0.0191975279370811,0.169010380375898,0.35677083623722
2,50,4,0.487096303235643,-0.0447646680119945,-0.571696739357737,-0.404093087379329
3,50,4,0.455711692159366,-0.0549722395009683,-0.814570409355531,0.00210598037945132
4,50,4,0.0392269792175216,-0.00601017010917024,-0.226455706930195,0.244970797185712
5,50,4,-0.0541329687456811,-0.00397584194995162,-0.0777631731979868,0.392216645814091
6,50,4,0.105205718340432,-0.0116134813060054,0.347314391026455,-0.411986989053399
7,50,4,0.460074334061741,-0.0444889964839053,0.461130907255576,-0.59469759548073
8,50,4,0.185945376375764,-0.0193562030478471,-0.357057946901856,0.0290497318622669
9,50,4,0.301867719054041,-0.0325211817983548,0.130742814319796,-0.502138868454134
10,50,4,-0.00201575056880275,-0.000648890579955289,0.0646891478926327,0.0135691672407009
11,50,4,0.107508640161028,-0.0113394577912357,-0.342496390463943,0.0899087247357622
12,50,4,0.663779832056406,-0.0616070441855383,-1.21420487815261,-0.270456054653687
1,51,4,0.137330312386351,-0.0141175070892189,-0.273944354750061,0.0370608520295896
2,51,4,0.192230688310427,-0.0278309629380515,-0.367601602445146,0.237285934033663
3,51,4,-0.040067754785833,0.00209227305775167,-0.0284471344078082,0.220520259724938
4,51,4,-0.494422325353102,0.0331930528040875,0.201023844891651,0.698039978633096
5,51,4,0.660085321123426,-0.0501549945009832,-1.2695688472261,-0.464403824077121
6,51,4,0.198370546551226,-0.0432649904566358,-0.0711131524331785,0.651746624051808
7,51,4,-0.70975645802578,0.0489856677389819,0.398650522729596,0.540916774074426
8,51,4,0.738302571431381,-0.0714565440943264,0.097931871082394,-0.77231733145895
9,51,4,-0.0322753771048536,0.00196578771751832,-0.0937436140623971,-0.0324360116506714
10,51,4,-0.0291927464021849,0.00250979555726749,0.112805807129979,-0.124820213708088
11,51,4,0.778963286430232,-0.0777661765273654,-0.652769143844803,-0.834161900757582
12,51,4,0.299977650569113,-0.0306991771947297,-0.166973621511601,-0.29648069819304
1,52,4,0.374025362919227,-0.0337227199986366,0.326099831289264,-0.433138109189732
2,52,4,0.275224304167988,-0.0271051420559659,-0.381909119315537,-0.112044378707241
3,52,4,-0.364325705628251,0.0277791862226307,0.177015158164753,0.28073328109967
4,52,4,0.525205323895438,-0.0459489639171802,0.48162242033688,-0.606211261853116
5,52,4,0.345573858138292,-0.0386496196759154,-0.621441464097054,0.061432755161709
6,52,4,0.172823238641993,-0.0287922624043483,-0.281861580075984,0.311388469408337
7,52,4,-0.0756971034145754,0.00478579104757067,0.110768555475385,0.0303553738457372
8,52,4,0.348369544753542,-0.0330979486937279,-0.318169398529751,-0.294006098820406
9,52,4,-0.0989385888712363,0.00843265125365084,0.00205393983764936,0.116674454782604
10,52,4,-0.0328151718227259,0.000928530019824056,-0.104899879104333,0.202605681379235
11,52,4,-0.497952433944428,0.0395055128347872,0.286000630449632,0.377352383880292
12,52,4,-0.0448832735827882,0.000613734908894294,-0.0453934218401207,0.323831677041902
1,53,4,0.445644179517464,-0.0517469224039094,0.410527079980248,-0.534199116441716
2,53,4,0.0951196173587299,-0.0192529829118432,-0.154370958650836,0.289245774137313
3,53,4,0.252115832947733,-0.023947531909983,-0.183416705484599,-0.175947502291849
4,53,4,0.0875847710428242,-0.0059387731953302,0.140266052129492,-0.202894298231248
5,53,4,0.0333534412829599,-0.012719756286065,-0.144736908468674,0.345758704800602
6,53,4,-0.146099184943615,0.00971185411557526,0.0278581801939104,0.406557250637836
7,53,4,0.140285873132061,-0.0168274688703137,-0.163826743566317,-0.0699007085128314
8,53,4,-0.0924021689663099,0.0016210786673707,-0.0429782737024304,0.373399649320374
9,53,4,0.216277371424257,-0.0196951085872409,-0.149346391955534,-0.234560335075398
10,53,4,0.0596526837814698,-0.00680849953134632,0.0119221439227,-0.0691393300624681
11,53,4,-0.291937113609752,0.0238428632759658,0.19449430563461,-0.0163762821268209
12,53,4,0.234993897679233,-0.0262141597853605,0.274879993427445,-0.411158171033435
1,54,4,0.620968692165154,-0.053707442007086,0.533671597129917,-0.662010263426794
2,54,4,0.382280267590188,-0.0433229278990351,-0.680707794537347,0.0489727504038046
3,54,4,0.305543717916694,-0.04576869103607,-0.452452690981314,0.229381274070056
4,54,4,0.374572889974642,-0.0384265150050396,0.477871165015194,-0.62116454891226
5,54,4,0.119250570883138,-0.0207411799082193,-0.270769251438402,0.213774680129258
6,54,4,0.162986282234071,-0.0240456071465381,-0.30174778395085,0.241919349805257
7,54,4,0.173965418707494,-0.0203262293702519,0.276754022047629,-0.385382829850078
8,54,4,0.00988414783924507,-0.00725655747987885,-0.141879251741344,0.303169456939596
9,54,4,-0.152339964672262,0.0122708824593279,0.0864241112621203,0.341902737968501
10,54,4,-0.0713428984819339,0.00309762692858909,-0.0923632576735896,0.304179182488022
11,54,4,-0.24102722289013,0.0164411217866638,0.130362955867827,0.425626792952878
12,54,4,0.210699560551869,-0.0229928158626,-0.196093061606407,-0.091412478057697
1,55,4,0.209040781171301,-0.0191637295972945,-0.22747371143068,-0.164143640585047
2,55,4,0.0256370709122753,-0.0108618942421175,-0.150507242166867,0.331754096175125
3,55,4,-0.096195798138514,0.00341251702808681,0.0132581684209219,0.403767811102415
4,55,4,-0.36788169089832,0.02723181963749,0.244164540857515,0.363503855938724
5,55,4,-0.241045803942517,0.0143741830254779,0.0762707916780309,0.498757973151168
6,55,4,0.104871419621136,-0.0131900273562204,0.25362631598567,-0.359933600982337
7,55,4,0.558839978544084,-0.0642819539399562,0.607543934112483,-0.785336548709092
8,55,4,-0.264548531863793,0.0229953858935445,0.130496433182769,0.256587576924556
9,55,4,0.120959262037298,-0.019112284475103,-0.244481930751741,0.282922463487685
10,55,4,0.409953169495013,-0.0431732658627538,0.448475562039155,-0.598123041862314
11,55,4,-0.00643925589854842,4.93957149067277e-05,0.41228316122609,-0.432740496570573
12,55,4,0.107486699900784,-0.0111122500694195,0.244213995552441,-0.312960846643974
1,56,4,0.0735809067938081,-0.0107025755446247,-0.135654404363708,0.260313731028709
2,56,4,0.455136463892654,-0.0380161791079777,-1.06127579783675,-0.15481300880942
3,56,4,-0.133403237686339,0.00890908143420623,0.0293616946932436,0.354877091057541
4,56,4,0.315881268169635,-0.030926370314843,0.291479156989907,-0.404829705724974
5,56,4,0.0549361847261493,-0.0107414325403818,-0.215061346614723,0.329326916869551
6,56,4,-0.343226946060486,0.0250253173960471,0.130141248898953,0.589904977385304
7,56,4,0.0192178655283751,-0.00128686923052834,-0.169049654368562,0.100502491106426
8,56,4,-0.543317054830693,0.0351479579604164,0.03674149620493,0.75782160435698
9,56,4,-0.147570783493129,0.0101409193353163,0.14150035406827,-0.107667696709906
10,56,4,0.152262799064589,-0.0111284002723469,-0.286452338408928,-0.0747802083584495
11,56,4,0.181381922002686,-0.0189745565398386,0.137755811941837,-0.263739499641837
12,56,4,0.0579785954179554,-0.00461071054755404,-0.0661155627329644,-0.236043546837536
1,57,4,-0.320241481013473,0.0219101578046756,0.255338612495973,0.357006301940666
2,57,4,0.671000261303915,-0.0526995157577422,-1.04534872221066,-0.612945737481567
3,57,4,0.678161694177895,-0.0688335420615213,-1.18441278088035,-0.213560576674338
4,57,4,-0.375013690658324,0.027147925315292,0.267286118244466,0.460228898215446
5,57,4,0.567224882590523,-0.0586952223377119,-0.393499725954575,-0.560830894141024
6,57,4,0.0895642877263442,-0.0273414950721965,-0.0281658071577561,0.614162458195619
7,57,4,0.397543671021202,-0.0278601715280523,-0.781777631640183,-0.315975824948653
8,57,4,0.0472231118580489,-0.0107478835844551,-0.176423736934717,0.264769731823351
9,57,4,0.340791218781469,-0.0344172624388106,0.185733765582345,-0.298518483042893
10,57,4,0.275953818878201,-0.0202245134360572,-0.610914632683866,-0.140802374216702
11,57,4,0.276887284714908,-0.0304026507625654,-0.494684470826629,0.0207562424161847
12,57,4,0.204162265503363,-0.0306252688501834,-0.354564776424241,0.239990588496462
1,58,4,0.190286703997615,-0.0173172808748881,-0.314900920930253,-0.025168146350704
2,58,4,0.458318230898226,-0.0426909496589831,-0.90272541587256,-0.0888505419943846
3,58,4,0.184466769205678,-0.0256164161024899,-0.344832754377251,0.209774170773167
4,58,4,0.388944183933939,-0.0282109479764702,-0.726477965048067,-0.311807355468894
5,58,4,-0.0903212194691817,0.00181413103138299,0.0143253416198675,0.37846432393679
6,58,4,0.0487941660360541,-0.0173060214077136,-0.0939243192308624,0.420460869509648
7,58,4,-0.0893091536618403,0.00721345577477365,0.198368906694294,-0.04228681258697
8,58,4,0.332809203730363,-0.0383833616823625,0.300402770384318,-0.434596551123644
9,58,4,-0.25184783809046,0.0188093858262268,0.185147503368577,0.273707921003186
10,58,4,0.302090823163811,-0.030049832986962,0.304479233661382,-0.421759660387974
11,58,4,-0.360309002851608,0.0295177358276328,0.225119072130134,0.135438658758909
12,58,4,-0.133725626884245,0.0117898011775784,0.124465384781778,-0.0532850139572472
1,59,4,0.256524369315095,-0.021117433247406,-0.623113080919398,-0.00850983163588788
2,59,4,-0.1427257581043,0.0108418378100791,0.0528487593272005,0.13799645224342
3,59,4,0.293046788204215,-0.0417247216946064,-0.468439540598488,0.210963745517861
4,59,4,0.0206477401150492,-0.00656300830502257,-0.132651166097465,0.220522877976252
5,59,4,0.147786437671968,-0.0251331611426674,-0.332545461240927,0.302897277502501
6,59,4,0.351977806312824,-0.0438109644411944,-0.592334532681003,0.110668113458339
7,59,4,-0.212620701212794,0.018100216162374,0.206069001952363,0.221450181215478
8,59,4,-0.428930376802203,0.0328644836632387,0.232706890758623,0.322386021473384
9,59,4,0.17186114486295,-0.0131531906555699,-0.164381867671872,-0.0501438309531888
10,59,4,-0.257091415082457,0.0197168993808487,0.179536924835696,0.22178427066418
11,59,4,-0.34389501975141,0.0256190208244188,0.19906048366582,0.464726628313191
12,59,4,0.105109473738494,-0.0173465073832916,-0.220118358940895,0.250528810542513
1,60,4,0.0747526510807723,-0.00867305945284588,-0.260439070417026,0.195009855741593
2,60,4,0.333457959067797,-0.0453588490071594,-0.605482667208913,0.133725855382483
3,60,4,0.36098422863024,-0.0484376009992824,-0.571589065840529,0.153559085563839
4,60,4,0.263881569817104,-0.03168395355046,0.374802759858636,-0.509276324450719
5,60,4,0.364158844244237,-0.0372116150425376,-0.261953933641725,-0.297191550979783
6,60,4,0.373048960350022,-0.0467954767658032,-0.590648219409363,0.125174290928478
7,60,4,-0.27046488989454,0.0223084578915764,0.163260240385667,0.26457109479836
8,60,4,0.40507465387651,-0.0373475741363535,-0.634965635379039,-0.220003273765934
9,60,4,0.634732329413205,-0.087330393984669,0.475645025053974,-0.702090674504279
10,60,4,0.455034419270063,-0.0561093947768282,0.555380533928245,-0.733358917703
11,60,4,-0.4514562752067,0.035430790831469,0.205987966943358,0.420325717614403
12,60,4,0.341714673095791,-0.0364470300400941,-0.0218630340935758,-0.419351127503902
1,61,4,0.467516268031049,-0.0312314965848871,-1.25722396319948,-0.300994347886295
2,61,4,0.356488568040147,-0.0333490444276307,-0.631141650232003,-0.167681208982762
3,61,4,0.162728009894673,-0.0220038250441515,-0.315190726520693,0.196426882548769
4,61,4,-0.489085147810003,0.0408479069776013,0.373042930464054,0.466944729728094
5,61,4,0.299178115731367,-0.0375705531035775,-0.513690099719129,0.110246051278452
6,61,4,0.343363007498943,-0.0455905812251028,-0.501356874961574,0.170830539996085
7,61,4,-0.145736859202449,0.010566862162718,0.0987359464695541,0.180527249620369
8,61,4,-0.445419192717934,0.033939697503659,0.251574789961365,0.499009792827959
9,61,4,-0.0191178200194613,-0.00329047608666455,-0.0801736148197157,0.318445832697339
10,61,4,0.427433747122432,-0.0516654796672964,0.530739765925178,-0.695099620522086
11,61,4,-0.118647869800743,0.00868214893958998,0.0210451138401927,0.258230819686868
12,61,4,0.325194323579495,-0.0277517856602361,-0.335550257270656,-0.180155655339353
1,62,4,0.0182327723053826,-0.00680045104614557,-0.130318285989944,0.231100366006579
2,62,4,-0.217587747303523,0.0141496301720603,0.133585361989571,0.428705527027789
3,62,4,-0.0213401612550007,-0.0117218653680974,-0.00823963396696652,0.36944676968158
4,62,4,0.213003129430034,-0.0205289645323982,0.082907087002825,-0.305055471156496
5,62,4,0.12513109078141,-0.0232155673192598,-0.24911443011368,0.324383615888834
6,62,4,0.00914236927711231,-0.00134433218719888,-0.0283269952167726,0.176971718297587
7,62,4,0.071335441305231,-0.00699040696612361,0.0206061200840145,-0.102482522728379
8,62,4,0.10046194411353,-0.0121828802985477,0.0312287227517154,-0.169848590271207
9,62,4,0.263298100907282,-0.0344999766368552,-0.40420818501451,0.198860556699603
10,62,4,0.177975713384176,-0.0189288017387825,-0.439357591765958,0.0705720047026728
11,62,4,-0.0297021082997942,-0.0035621519404824,-0.0846650820523248,0.32770666768349
12,62,4,0.283492413234851,-0.0415911029780093,-0.39648244262464,0.235120212787047
1,63,4,0.27749878847092,-0.0228695820701188,-0.453173546427983,-0.208893929484068
2,63,4,0.119769772527239,-0.016465561518102,-0.257827061903523,0.210173972276363
3,63,4,0.486702876590442,-0.0511017131298877,-0.978010667573747,-0.112384906244585
4,63,4,0.512413358297557,-0.0657707756191412,0.608134018076567,-0.807906954602022
5,63,4,-0.562885248246083,0.0424300417054958,0.360528916961811,0.461888947465253
6,63,4,0.450559023334661,-0.055389450842037,-0.69020379480356,0.049420185261345
7,63,4,-0.00158498485178974,0.00251713142371083,0.0140934609860219,-0.0431795809298728
8,63,4,0.556256165154121,-0.069203392350102,0.183448197492884,-0.671347970121033
9,63,4,-0.00183486091903146,-0.0121448243427877,0.0278608147352037,0.606219835066637
10,63,4,-0.211125447782317,0.0167063211360492,0.190964807192357,0.0894528428992135
11,63,4,0.293677582835077,-0.0247351092136793,-0.420557888241849,-0.169206921099483
12,63,4,-0.167936550676192,0.0142612417747292,0.115556875343607,0.00645083170885258
1,64,4,0.252718209866132,-0.0309054895238814,0.338108717443181,-0.470074242223672
2,64,4,-0.285585550043041,0.0238649570307382,0.191941629933419,0.308073428298329
3,64,4,0.275301195479969,-0.0353291321992356,-0.333441372112616,0.204162796419888
4,64,4,-0.0617489908230153,0.00247551878158069,-0.093603223422534,0.293787268251459
5,64,4,-0.0532866253032662,0.00187000766088668,-0.0382070005833419,0.263686998598982
6,64,4,0.97291297034787,-0.0903372121292808,-1.08506489690668,-0.974849684558442
7,64,4,-0.45119634958963,0.0362844314483566,0.207035877579954,0.343980726912737
8,64,4,0.193860514449658,-0.0202070174802305,-0.361545560471173,0.053642592142178
9,64,4,-0.436543328486375,0.0332971401935096,0.229558396326426,0.185206907590205
10,64,4,0.0302705871531752,-0.00400429027657365,-0.0465989373317538,0.0804018165694786
11,64,4,0.032432709627309,-0.0128836895523823,-0.141414650594572,0.346525310805421
12,64,4,0.317431281213631,-0.0329206535550249,0.21819645122699,-0.376153513941661
1,65,4,0.333616620829712,-0.0230707414781161,-0.684418621330382,-0.126074752293487
2,65,4,-0.386885364649438,0.0299545863075525,0.283376547695694,0.487209567166031
3,65,4,0.247863191603792,-0.0443835050470083,-0.317418524400805,0.36496782152546
4,65,4,0.151368808765471,-0.012957289016586,-0.396838316594048,0.189479564341567
5,65,4,0.884772249496811,-0.0783544646119428,-0.946866818111953,-0.968926890911348
6,65,4,-0.134696795646525,0.01087145253164,0.0439690784923834,0.275917130474258
7,65,4,0.126119595893696,-0.00662470622929408,-0.339642479452841,0.0913304169666141
8,65,4,-0.0821480661372252,0.00780055879527541,0.125558296508289,-0.00270804080997861
9,65,4,0.0154054507039084,-0.00312222840058335,-0.109100504780395,0.0673354801018002
10,65,4,0.156591310626947,-0.0133792301895493,0.263560303337185,-0.37302533831579
11,65,4,-0.071075654351233,0.00587649009595939,0.0776501709289165,0.0983553046872408
12,65,4,0.0916766892166255,-0.0136648970346814,0.40144098686697,-0.577023859772906
1,66,4,0.255377367877322,-0.0223647734143404,-0.51277716141206,-0.028318336287386
2,66,4,0.378595781874065,-0.0371870253045083,-0.834492021621251,-0.0513602075491213
3,66,4,-0.219439756684675,0.0155363486443072,0.112788866850227,0.448159316952297
4,66,4,0.436731954096653,-0.0295203848977547,-0.960556212243736,-0.290117107691884
5,66,4,0.452708927190406,-0.0483942463860278,-0.306037752966784,-0.376036411328161
6,66,4,-0.131848535355845,0.00744761502101269,0.0690057699976074,0.373816492088706
7,66,4,-0.0439367798193512,0.00278624449856871,0.0957750086541791,0.0181764408176462
8,66,4,0.170676539727278,-0.0190760525120379,-0.312120485196939,0.0512564805615145
9,66,4,0.192336043119173,-0.0173763140289459,-0.42122735443711,0.0599330527910609
10,66,4,0.46348285552774,-0.0429136062849691,0.449678795143986,-0.571407781143643
11,66,4,-0.071764637979008,0.00457740211180204,-0.0270948622905141,0.148265570017283
12,66,4,0.148702073381309,-0.0244659932467533,0.389327201044439,-0.537468111628436
1,67,4,0.362949130579842,-0.0250662901540968,-0.738873803749573,-0.197062412534238
2,67,4,-0.560982536885821,0.0413972417741285,0.389918984682606,0.580858021278595
3,67,4,0.505436483585426,-0.0544582912307646,-0.995032318464217,-0.00298374351096052
4,67,4,0.30271817006283,-0.0284502526262026,-0.695079579468596,-0.047735925767
5,67,4,-0.0503722976779487,0.00178056132425996,-0.0628141451369979,0.264872468307762
6,67,4,0.435147411995991,-0.0491650509421834,-0.690831713070296,0.041785053349899
7,67,4,0.123482838754187,-0.0153133854959068,-0.395047469304853,0.138238763209198
8,67,4,0.0222872230659201,-0.00854069486349364,-0.143508383374758,0.286009984511917
9,67,4,0.0576447302548463,-0.00618358817493365,-0.176621322395644,0.0499714705295373
10,67,4,0.363644075667009,-0.0411608492176732,0.426242191615907,-0.563628485597998
11,67,4,0.863943534664815,-0.108357226246203,-0.196408582039012,-0.927863758647642
12,67,4,0.0649923305448395,-0.0119625498027078,0.294310085811123,-0.437924953280006
1,68,4,0.106725511546594,-0.0153597456454635,-0.349069951972968,0.188124936375577
2,68,4,-0.0258598986670243,-0.00194113176991162,-0.0588754611216596,0.156520209704379
3,68,4,0.0865044572842349,-0.020700474443878,-0.14613940394854,0.39109669943431
4,68,4,0.126382338985887,-0.0156210861849587,-0.415004474125336,0.14961303690058
5,68,4,0.273746384570613,-0.0352685944796273,-0.518022068467773,0.154219382955844
6,68,4,0.346718178197033,-0.0380983031666788,-0.401927505977851,-0.0424074617083777
7,68,4,0.385953350339644,-0.0382261315398122,0.398670932141718,-0.520912368961688
8,68,4,-0.253421654213248,0.0236067626085421,0.345373512756408,-0.152669989791288
9,68,4,-0.129093915466132,0.00933226322914507,0.0380533927613293,0.239990919980821
10,68,4,0.218130095515889,-0.020231558230812,0.0730434564646534,-0.264885416832671
11,68,4,0.137293542400757,-0.0265979324201819,-0.286989039197134,0.331473475291718
12,68,4,-0.0870466518919671,0.00510494389752028,0.0156551686153073,0.123849943364456
1,69,4,-0.242944791440267,0.0181821139245128,0.172728029859209,0.308340943278043
2,69,4,-0.100453988708375,0.00479551697343683,-0.00875267506275086,0.315968222836375
3,69,4,0.301323825522079,-0.0447292332181499,-0.440642060142441,0.22630912856972
4,69,4,0.369947746322675,-0.0332686775604276,0.326808241402372,-0.435344159384653
5,69,4,0.0546150287920281,-0.0142102545799483,-0.214002013011096,0.337044537478491
6,69,4,0.373346893483529,-0.0395798538118549,-0.4448060432918,-0.12700539383546
7,69,4,-0.0782704667221591,0.00590020450893068,0.0848042065274852,0.0136778471059793
8,69,4,0.298395160382669,-0.0383905844277839,-0.567227814124503,0.133840127881895
9,69,4,0.00307663135698174,9.21554589166136e-05,0.186720315620128,-0.102249132773782
10,69,4,-0.563697572087509,0.0378580551570127,0.249877339620927,0.712475305074408
11,69,4,-0.473299851157221,0.0336690316028574,0.280089783748563,0.607625522685403
12,69,4,0.181395382557528,-0.0213499482947723,-0.272390693744459,0.186813936701537
1,70,4,0.418436177459307,-0.0527415258067054,0.565273518421706,-0.736460614535395
2,70,4,0.354613548035534,-0.0433322205339808,-0.590343629158908,0.131491167680524
3,70,4,-0.0319273353955022,0.00150981671585446,-0.0556389851124812,0.103248555088155
4,70,4,0.299776281595854,-0.0311730286593347,0.314966166381397,-0.429148718152339
5,70,4,0.448045043368202,-0.0481622258127937,-0.76179810424855,-0.068816196039595
6,70,4,-0.169490889780742,0.013789604744707,0.0626903150853126,0.287398063342432
7,70,4,-0.508627379886717,0.039773289131629,0.264473295030232,0.388505956681412
8,70,4,-0.169969827169678,0.0107997994114244,0.0987815174817374,0.286916052887813
9,70,4,-0.149976229578943,0.0107477831948059,0.0631199004871559,0.324393389205009
10,70,4,0.134893439062891,-0.0123124242940186,-0.341874583784554,0.0602278473533288
11,70,4,0.134995305545193,-0.0140390365800944,-0.0694851623322798,-0.0536973695922195
12,70,4,0.467354477024421,-0.049387429486767,-0.27470380105437,-0.390679472659902
1,71,4,0.607582700232022,-0.033239527071717,-1.37318509721699,-0.585845700804747
2,71,4,0.492783682371324,-0.0455344024738958,-0.939363876259621,-0.0880009109920412
3,71,4,0.229292106371904,-0.0250264930609858,0.28229449103455,-0.436389626564157
4,71,4,0.479571350498262,-0.047443649548572,0.479477746213271,-0.614328167293666
5,71,4,0.669254157953447,-0.0584693875762543,-0.914704331987439,-0.593488924851524
6,71,4,0.573075424245037,-0.0695904194593855,-0.866874401307482,-0.0541449345207187
7,71,4,0.00673927446299165,-0.00235240210909728,-0.187668292120417,0.150477410658084
8,71,4,0.276858749344396,-0.0255939577585406,-0.520177908875302,0.020161958828428
9,71,4,0.590276482749794,-0.0574630649911031,-1.15270515705319,-0.15230184408773
10,71,4,0.405881765744724,-0.0280499726198291,-0.80554030184844,-0.323688081836034
11,71,4,0.103218877122316,-0.0162061871925623,-0.247127368945673,0.245354619613426
12,71,4,-0.0527984505950685,0.00330598167825761,0.00530107695270287,0.0861283202799816
1,72,4,-0.222547026733544,0.0155279643789945,0.149494174468886,0.288538299002134
2,72,4,0.196359029586326,-0.0209607771518503,-0.39172030931258,0.110999425490164
3,72,4,0.694265330644564,-0.0780734095830175,-1.07862851441275,-0.164988773594392
4,72,4,0.197389296388022,-0.0226428743007142,-0.495508943713766,0.0975755761529249
5,72,4,0.184657250975767,-0.0382328717222237,-0.200312943430223,0.404518738240274
6,72,4,-0.0773503885603364,-0.00315958959078305,0.10263657996129,0.616386727908305
7,72,4,-0.367284174661167,0.0280822835882671,0.248533371752721,0.349647379037999
8,72,4,-0.212177913025896,0.0172949085911609,0.198039243398835,0.0124070043411866
9,72,4,-0.0123654087585721,-0.00176754862260265,-0.0682559464357904,0.262608602466451
10,72,4,-0.550715773542911,0.0435855533684665,0.268913551753423,0.545349130646347
11,72,4,0.0705733006848854,-0.00373080504907018,-0.16438815897383,-0.141633871066657
12,72,4,0.0797091949802351,-0.010220551836642,-0.168413336639286,0.162903152848842
1,73,4,0.210411485325807,-0.0221734337843797,-0.502163125744958,0.0602797204779588
2,73,4,0.520375650570903,-0.0394138842379783,-1.0949578464464,-0.327541883111315
3,73,4,0.466329214762422,-0.0614155373858323,-0.761938314458244,0.093664826174506
4,73,4,0.241486940437793,-0.0307222340459506,0.405571182570075,-0.534769937843224
5,73,4,-0.264693412487373,0.0222091549391868,0.160050553704194,0.195827394022682
6,73,4,-0.0993381328487367,0.00846724698723981,0.0429606658227882,0.197349253675624
7,73,4,0.192437928579519,-0.0187361594419688,-0.476596487532559,-0.0033606931940741
8,73,4,0.144538511324823,-0.0154336146551122,-0.0964894394035738,-0.123343667760427
9,73,4,-0.119452762992226,0.00838094453655224,0.0251557167074817,0.201713798983599
10,73,4,-0.0452527314904892,6.37452768882091e-05,-0.0520024501228647,0.206529141793436
11,73,4,0.0929382025884366,-0.0152059249337051,-0.158866279449879,0.244671492864271
12,73,4,0.600106921207895,-0.0547721081640324,-1.47665260282719,-0.102587176851408
1,74,4,-0.0120625747848301,-0.00081061601694516,-0.134390889554587,0.202792978670307
2,74,4,0.371814184971481,-0.0355525554142326,-0.705053342901222,-0.0902082575094166
3,74,4,0.650673376407773,-0.0584906036002953,-1.44142603102948,-0.231216235809735
4,74,4,0.387536650197007,-0.0494331237021536,0.541457382874721,-0.723811885235888
5,74,4,0.458896923895142,-0.0482493874492466,-0.312614748900766,-0.386836959512961
6,74,4,0.734175186903486,-0.0770434855274212,-1.07986355040869,-0.316292827358153
7,74,4,0.185072032858038,-0.0164311410765285,0.185768907726906,-0.294833819903447
8,74,4,0.00440417501654153,-0.000797805048375407,0.129395357604829,-0.0339383366434371
9,74,4,0.0534713412314945,-0.0110744695104552,0.352846357697775,-0.495758114652227
10,74,4,-0.0380977286376043,0.00323250569080466,0.0947310243530023,-0.0968363294958357
11,74,4,0.23394831747545,-0.024173091922425,-0.173273351093743,-0.210934520777076
12,74,4,-0.17474782730358,0.012520450392467,0.0842624652641245,0.257049327821099
1,75,4,0.608068984561778,-0.0311719502314203,-1.31731762230809,-0.632511346763629
2,75,4,0.295624310446006,-0.0295475395227311,-0.58520729410661,-0.0468986618731571
3,75,4,0.243820291790788,-0.0299315282675185,-0.303321631762924,0.171176773362965
4,75,4,-0.311127502395883,0.02375277578314,0.240063668751548,0.34238911934854
5,75,4,0.0036940843197735,-0.00605403063132679,-0.123415342814897,0.276195841105867
6,75,4,0.174271884266175,-0.0195838019627624,-0.304056813073599,0.037878269535129
7,75,4,0.113802048589527,-0.00988118722068235,-0.27687590502878,-0.0172318580355074
8,75,4,0.0173691945017048,-0.00270131510342643,-0.0190595598071818,0.13360223061463
9,75,4,0.664312855722384,-0.0710411632284604,-0.637432749202199,-0.46331851034628
10,75,4,0.221488960108695,-0.024900676667358,0.100618436814208,-0.38118556532272
11,75,4,0.511792298357384,-0.0473149273773154,-0.526772363411648,-0.464016680833837
12,75,4,0.0448030222621861,-0.0143081266364936,0.360699658390083,-0.465624599837279
1,76,4,0.134825555864904,-0.0163376860030416,-0.357190953765597,0.156271144939
2,76,4,-0.0235171723935236,-0.00232757830046455,-0.0590590407648856,0.155432786100432
3,76,4,-0.457030389931638,0.039928579308825,0.389678153640612,0.298571393782582
4,76,4,-0.502183557086147,0.0343969774218744,0.306354287333448,0.579878034750475
5,76,4,-0.0565159583246409,-0.00221093157515375,-0.0677485226155185,0.383162541062568
6,76,4,0.414875690709235,-0.0406947916659582,-0.646891208855289,-0.144626278754462
7,76,4,0.258880140095724,-0.0281067633832402,0.291728107362003,-0.409073783520305
8,76,4,0.136221133933261,-0.0132278355483463,0.0767625490686746,-0.184247350951732
9,76,4,0.211686347199735,-0.0234035114876626,0.272400380697116,-0.42074082935091
10,76,4,0.00650082336672851,-0.000429224111600295,0.179552244980386,-0.144247085959271
11,76,4,0.393341459275086,-0.0498464783854383,0.504812963779512,-0.692105810641405
12,76,4,0.283135991600418,-0.0351931021790464,-0.567265897765174,0.067673399878513
1,77,4,0.145857009043937,-0.0194917950918624,0.357726311866499,-0.457362902086692
2,77,4,0.47089954454459,-0.0402321178896737,-1.2720733322927,-0.0672080424186535
3,77,4,0.505118720200371,-0.0512430744179977,-1.31716847256654,-0.00461718647005207
4,77,4,-0.0303966394689848,-0.000467696167174859,-0.143724627182418,0.269910024822593
5,77,4,-0.0366089164401807,-0.0106369326242867,0.0259575123328256,0.493743383062602
6,77,4,0.0416707931378071,-0.0139052754648574,-0.161328807607066,0.382324102937799
7,77,4,-0.358459643368881,0.0259555086609902,0.298105040177605,0.374112271107751
8,77,4,0.115931257248593,-0.0246476749109538,-0.196615647768345,0.38031398053042
9,77,4,0.0895907850455998,-0.0135633850980193,-0.194630702310792,0.260999602377372
10,77,4,-0.390872994311162,0.031217537474467,0.192071868957779,0.327264678623648
11,77,4,-0.184516503461614,0.0143116412387864,0.0809464309928685,0.284148442657527
12,77,4,0.792450490046492,-0.0717020444925203,-0.837468656323994,-0.820201501345977
1,78,4,-0.051193343309617,0.00654155032292878,0.158983506333551,-0.0579274100517247
2,78,4,0.628525004554311,-0.0568000128533416,-1.14245469436836,-0.307745951335709
3,78,4,-0.0287422582857011,-0.00134457020412976,-0.0599953600351792,0.241663403456682
4,78,4,0.345258648023252,-0.0392766530435611,0.480940765516902,-0.632790119282414
5,78,4,0.207925467193091,-0.0371191451082784,-0.385178743937956,0.364782982992847
6,78,4,0.386596582946185,-0.0459553533774536,-0.637652295111217,0.0746151905907606
7,78,4,0.128315569486911,-0.0104036877746764,-0.068697168025977,-0.043471010542483
8,78,4,0.0817790832162795,-0.014475306302375,-0.215069495173315,0.272058391673554
9,78,4,0.489367615034042,-0.049552071553707,-0.887505936630881,-0.063469265017623
10,78,4,-0.463994540557027,0.038916230720205,0.3253609991669,0.427883983755582
11,78,4,-0.22941881212627,0.0169320976951741,0.286301599103654,-0.0843941036265698
12,78,4,0.299745633353776,-0.0356340428300196,0.361414801567849,-0.490424409087278
1,79,4,-0.603946395074449,0.0462567826545391,0.463331995530691,0.353220779025646
2,79,4,-0.0197796752277211,-0.00423869125965526,-0.105874803906358,0.303357248664651
3,79,4,0.668807799964094,-0.0580458154516512,-1.30122873698165,-0.364686337434485
4,79,4,0.145992781417612,-0.0160455977531653,-0.420784182828986,0.0774518534632707
5,79,4,-0.0440937445466831,0.00240772859378618,0.127467366488444,-0.0452439895800718
6,79,4,0.329660435205065,-0.045108426853534,-0.541659558887798,0.171212545828737
7,79,4,0.415887473000412,-0.0478672897606324,0.507583007856513,-0.673481285193274
8,79,4,0.232324841580152,-0.0246120171074333,0.115279404203007,-0.273027244682429
9,79,4,-0.205154469997657,0.0210032116368667,0.120035738537564,0.0464222048226858
10,79,4,-0.540476776251992,0.039599613908431,0.334225701295828,0.498463856893731
11,79,4,-0.0126198703161965,-0.000651555156562152,-0.0660966761581537,0.160103559567901
12,79,4,0.809533462335775,-0.0814530126149753,-0.698397866293526,-0.785783546514903
1,80,4,0.336836878925725,-0.027992730232661,-0.797135564129979,-0.0937438458536523
2,80,4,0.0192387353534885,-0.00100366789296264,-0.0587112409411376,-0.128439207723159
3,80,4,0.396785136989559,-0.0572812868156339,-0.538811938130788,0.190735683672365
4,80,4,0.20861187538373,-0.0204870903895962,0.0707631546768062,-0.263689862856224
5,80,4,0.0807861484477041,-0.00830440190047718,0.0319309813679542,-0.159687580942254
6,80,4,0.166339682318629,-0.0311945630789515,-0.240359261565169,0.356503048051411
7,80,4,0.0586200344542143,-0.00664312826197623,-0.237215284118912,0.192540899915715
8,80,4,0.0550883238605237,-0.00611312831420086,0.029588547125707,-0.0244593105321215
9,80,4,-0.341715171118415,0.0260606512496558,0.196283919211642,0.147645811864313
10,80,4,-0.590157874729617,0.0441723609996552,0.382109830492873,0.39694049607565
11,80,4,0.0685752793305492,-0.00765526603943584,0.0186540129241344,-0.116267808492384
12,80,4,-0.335545691851166,0.0267109446425777,0.195367986573335,0.399533323713488
1,81,4,-0.0465425356393952,-0.000666345439715259,-0.0816879763590423,0.335202555889717
2,81,4,0.644882055771362,-0.0508632175812462,-1.28871734753034,-0.393227436349291
3,81,4,0.337434743260371,-0.0431126019035571,-0.404599704143691,0.166636750367548
4,81,4,0.179314769223395,-0.0204978057020482,0.184600478665044,-0.296554290276009
5,81,4,-0.242109264082074,0.0147785655560177,0.0350159372049129,0.539055254995956
6,81,4,-0.141806237940314,0.00950788020683686,0.0144291797093066,0.424202145241517
7,81,4,-0.101628284723783,0.00872493355860395,0.0570722587735965,0.0918454096065034
8,81,4,-0.761615670778292,0.0533835725120286,0.446352224342892,0.522438187728716
9,81,4,-0.173989049652678,0.00933036368048131,0.182533879407439,0.421414090179273
10,81,4,-0.472061370699426,0.0360140841768714,0.292789668965102,0.465176483563071
11,81,4,0.126466319009916,-0.011298600801372,-0.0849147595106803,-0.132103031103101
12,81,4,0.43630151858666,-0.0550305868407025,0.380823811318073,-0.586632430650263
1,82,4,-0.389944255550751,0.0298708503782314,0.272894135885038,0.364229541840106
2,82,4,0.543602227238263,-0.0470074263975649,-1.02358842733093,-0.295469707000853
3,82,4,0.337015882038265,-0.0595587039355244,-0.453987059361517,0.281295411430173
4,82,4,0.443909444488485,-0.0589143685380252,0.52985117294733,-0.68606141710148
5,82,4,0.438054224856569,-0.0450736980951982,-0.712950918364298,-0.134318778219224
6,82,4,0.0624859363925984,-0.0258891165241932,-0.118870088549406,0.506654315269402
7,82,4,0.294157848228928,-0.0340369275468696,0.411400193529931,-0.549159632032931
8,82,4,-0.510604662399778,0.0395871387028163,0.2016448188275,0.35629493939936
9,82,4,0.041615280292022,-0.0140559903377325,-0.0733264036275385,0.303495579452202
10,82,4,-0.214943946022058,0.01818714572148,0.116786910887045,0.176536125349793
11,82,4,-0.0674781011661414,-0.00279556882726519,-0.021542997747387,0.413596270335884
12,82,4,0.511281281876488,-0.052943736019268,-1.14079849181003,-0.0835195963215008
1,83,4,0.106707772271902,-0.0116569901540814,-0.235765188029411,0.062793398166934
2,83,4,0.65133433922067,-0.0489097481122949,-1.35106104676169,-0.441780697703653
3,83,4,0.138811984451736,-0.0239532630970447,-0.237244922283452,0.299375430622218
4,83,4,0.0637032928024408,-0.0105485139410234,0.298963617211671,-0.282290405840525
5,83,4,0.174448879759656,-0.0318668721923679,-0.344867680793239,0.330329644877477
6,83,4,-0.261601144874802,0.0209205213440224,0.153074178641541,0.356114377015965
7,83,4,0.187232041719159,-0.0187671729175591,-0.447344702779866,0.0825553676194001
8,83,4,0.079072081019796,-0.00815405115122837,-0.120842410055557,0.0990949981756379
9,83,4,0.134400361367516,-0.0156057957155684,-0.236590112477826,0.169691234038465
10,83,4,0.0399406612838754,-0.00761326950220684,-0.261248967653441,0.195930271899363
11,83,4,-0.737264660007983,0.0479240214178905,0.235023053681413,0.739924397667708
12,83,4,-0.0864497698866025,0.00226391015597797,0.0399203887693057,0.292852966565178
1,84,4,0.0864339059026581,-0.0136834084233537,-0.231791824160141,0.207225592415427
2,84,4,0.32985419850953,-0.0257480638014725,-0.742640779630294,-0.106717196564024
3,84,4,0.567378696970226,-0.0662064555528303,-0.942092047310947,-0.0334725313122209
4,84,4,0.230762937405339,-0.0216020476526445,0.0827867405905799,-0.322063828485606
5,84,4,0.209812096258088,-0.0300571537539772,-0.302136936385002,0.20399125329113
6,84,4,0.23249548001628,-0.0378623543067999,-0.348444943438058,0.269609870486758
7,84,4,-0.24919009675606,0.018667159927037,0.157275066225522,0.293245628381563
8,84,4,0.126393914734338,-0.0113834662615321,0.299158157032085,-0.423557762106568
9,84,4,0.0645769266879204,-0.0107127303183546,-0.165917280858523,0.261855241273286
10,84,4,0.039143316544555,-0.00413366014998607,-0.00662830200634271,-0.250407920142957
11,84,4,0.509709439441242,-0.0609670147651464,0.0922246120545364,-0.612769830201973
12,84,4,0.00302171655665059,-0.00268578212503287,-0.078025821445475,0.149669409727853
1,85,4,0.192598733130024,-0.0172809244446687,-0.351549444068874,0.0607063380659422
2,85,4,-0.395848872618748,0.0314493433633398,0.258784691200641,0.282717155819123
3,85,4,0.784544166693317,-0.067703632256518,-2.03759711282205,-0.0998333934168393
4,85,4,-0.285407977200163,0.0144278659571661,0.139451700032432,0.456343065450549
5,85,4,0.727566891538196,-0.0839491267718064,-0.297724653073035,-0.770777908759447
6,85,4,0.0763284503040691,-0.0227911684755878,-0.115240735674329,0.430837663471973
7,85,4,-0.26215890268339,0.0190936202169543,0.126359591408646,0.273937183630299
8,85,4,-0.220251772158798,0.019341262232923,0.154092179095112,0.170464384835637
9,85,4,-0.134445299853338,0.0101285804017925,0.0673287747606584,-0.144391036040437
10,85,4,0.192463046169979,-0.0172232322827124,-0.234856402697518,-0.0795213404076231
11,85,4,0.262886968847531,-0.0364966717544484,0.39490080612983,-0.567812423771493
12,85,4,-0.215900081323329,0.0206638347235681,0.167726273602918,0.0962601319603483
1,86,4,0.757274611577329,-0.0308213143540721,-1.76938358189823,-1.07771803350299
2,86,4,-0.147963989245833,0.00619886967260415,0.121495955421896,0.413792855562073
3,86,4,0.686135052978728,-0.0641297347111449,-1.75033768511587,-0.223162771430108
4,86,4,-0.0394263831985355,0.000585209252193291,-0.000841768733622117,0.0399098250734913
5,86,4,0.442613318297007,-0.0507251985681023,-0.784827854566277,0.0278378489007812
6,86,4,-0.34428823851292,0.022675550179639,0.276952980716412,0.728797819252122
7,86,4,-0.517830195827389,0.0376070647616241,0.328537418736597,0.483790030140548
8,86,4,0.435670763695664,-0.0460167145169236,-0.696671608954108,-0.125186479535244
9,86,4,0.291035745384108,-0.0308250033124191,-0.355028930852533,-0.0279501155106027
10,86,4,0.0599966389389294,-0.00564089125142599,-0.0800915779611048,-0.115935813207603
11,86,4,-0.153843851852227,0.000511711341659158,0.127836619946757,0.391428914497694
12,86,4,-0.177261017238515,0.0159767964528088,0.10672677270797,0.206628184006303
1,87,4,0.166090941493059,-0.0168573374703441,-0.455192922061743,0.0657184629452503
2,87,4,0.0909355732284789,-0.024208726647007,-0.102744423146977,0.425204610012458
3,87,4,0.213548452271149,-0.0309645870025128,-0.367987267239878,0.222656235667346
4,87,4,-0.284054909914507,0.0191621961978394,0.0895082279196901,0.468167850302884
5,87,4,-0.283943476323217,0.0223159946112253,0.157729977914679,0.348570764085573
6,87,4,-0.0724226622258901,-0.00064138261547454,0.0818378711981199,0.58629807189355
7,87,4,0.189591970690816,-0.0190243260393599,-0.427679155079518,0.048823155071254
8,87,4,0.0296233774923853,-0.00506729494949871,-0.152125132261643,0.106503592721136
9,87,4,-0.227699652366229,0.0214697038898971,0.194214303001994,0.277667295738747
10,87,4,-0.33036671501579,0.0312920616419186,0.203309364928636,0.252254943249359
11,87,4,-0.0398188947719695,0.00328468427077353,0.00339357595256667,0.0178187616257238
12,87,4,0.259670445630378,-0.0250577324011916,0.0518250665342794,-0.239794266503072
1,88,4,0.383452111788667,-0.0292430001655129,-0.87023797153475,-0.167205419846401
2,88,4,0.500355812670512,-0.0454942438715575,-0.966440457739568,-0.209248385633025
3,88,4,0.34711476299508,-0.057973613457551,-0.388204984894494,0.342545029770463
4,88,4,0.0742827690834287,-0.00929451154516427,-0.274543604676624,0.126835330543144
5,88,4,1.06347510652796,-0.142518870748217,-0.246687797303378,-1.15204587991202
6,88,4,-0.2594526085305,0.0202851473766171,0.183088532329927,0.434950854773887
7,88,4,-0.162425261887793,0.0176198163366859,0.26183647584988,0.0219551296609672
8,88,4,-0.40437731222057,0.0322297579954364,0.317990657119824,0.401281117344814
9,88,4,0.437895578756574,-0.040605279924331,-0.553290372460504,-0.310955646438496
10,88,4,0.041517182334141,-0.00556601714884059,0.127339959088249,-0.163558686340041
11,88,4,0.744534055983108,-0.0475179960794313,-1.57225558505312,-0.641416732743266
12,88,4,-0.125960761134052,0.00979898078741586,0.0360423814920299,0.198616159084152
1,89,4,0.230427281657434,-0.0239328368278439,0.0374368669343431,-0.339794270465366
2,89,4,-0.288180603781487,0.0210225930515537,0.276158914421762,0.408298830606506
3,89,4,-0.0986984313174923,0.00569329328603475,0.0410795898735338,0.319049474124529
4,89,4,-0.493529108226648,0.0373935176436056,0.304307770035652,0.522804308510778
5,89,4,0.297338161878001,-0.0343972162744201,0.312685600328174,-0.408581522744266
6,89,4,-0.160833363311356,0.0139915608627404,0.0531249280846633,0.397097771357942
7,89,4,-0.208599225752838,0.0143536827011274,0.107474711592221,0.340614799680555
8,89,4,-0.573002511069422,0.0464393769968081,0.368776585457456,0.50873060208257
9,89,4,0.122906445912607,-0.015045587439357,-0.1711155710851,0.192945658286354
10,89,4,0.109732478304238,-0.0101859718334666,0.264069022704253,-0.336398703456082
11,89,4,0.00698297373157448,-0.00824476214562779,-0.136697957506753,0.324882728300122
12,89,4,-0.287255715787453,0.022988646748426,0.14412225012157,0.412315424030321
1,90,4,0.142353239415392,-0.015438372568559,-0.377370962219597,0.115887832232
2,90,4,0.160853849655506,-0.0230985509254194,-0.317305988990781,0.257522855288766
3,90,4,0.26746811158968,-0.0351390179393639,-0.507056120441714,0.116025134815828
4,90,4,0.386961319203067,-0.0299584371816628,-0.82468657112535,-0.121278448940913
5,90,4,0.535002829237513,-0.0472850035896819,-1.1176148373697,-0.214710268243405
6,90,4,-0.548996293013236,0.0431937452426844,0.33820254681045,0.590192096122218
7,90,4,0.17086146207269,-0.0134825286886065,-0.38700601588153,-0.0343299676384846
8,90,4,0.342235388333618,-0.0387327153391019,0.457765046202936,-0.617971459194994
9,90,4,0.391625052134032,-0.0395814101338945,-0.271741051113936,-0.307479679527365
10,90,4,0.0180945332648445,-0.00260947295520919,-0.153634022388026,0.0930341742769021
11,90,4,0.0923860411942747,-0.00890993205260768,0.0863682101529702,-0.239468288067413
12,90,4,0.0243648308244694,-0.0120802500291121,-0.0897573250058353,0.383651864431817
1,91,4,0.370229838895564,-0.0405890633777753,0.441546674578907,-0.578482468268286
2,91,4,1.01182934943008,-0.119945669895387,-0.481111373543243,-1.10896679134029
3,91,4,0.483686417904696,-0.0589095397941087,-0.83282720583398,0.0158532405918123
4,91,4,0.319786001969665,-0.0232288711179493,-0.678162163636876,-0.180748291067162
5,91,4,0.167437622228033,-0.0304027277281375,-0.271496421561271,0.351372658679063
6,91,4,0.440816747572814,-0.0467466473912258,-0.224118224347793,-0.298694660919285
7,91,4,0.518782721712083,-0.0303892893024932,-0.994508574991088,-0.421334283582764
8,91,4,0.0616807654515543,-0.00954919777484162,-0.139230403850721,0.123930802685355
9,91,4,0.0930511001267446,-0.0086563247706283,0.00126068994760699,-0.0575038982271451
10,91,4,0.059151435476525,-0.00378082135853181,-0.258773207880873,0.183853851943997
11,91,4,-0.0633835403296805,0.0027135230481472,0.166990855007451,-0.0525246421913519
12,91,4,0.0266744223422915,-0.00809380692583859,-0.128815958946656,0.28517038817628
1,92,4,0.462382105468004,-0.0294319356202838,-1.03458540972267,-0.320778589756893
2,92,4,0.213553043936005,-0.0238319368033373,-0.421806181141256,0.00677009749849766
3,92,4,-0.014217611898399,-0.00666944908020348,-0.0775876307605986,0.377401491944079
4,92,4,-0.0308363429183448,-0.00714972397348012,-0.192025277310177,0.291347343305071
5,92,4,0.152267775606269,-0.0241598141818057,-0.298472775873251,0.294033426546328
6,92,4,-0.149972900972053,0.009673509480608,0.0401001097603278,0.408081682520781
7,92,4,0.137419910601492,-0.0123864761055402,-0.337387865571065,0.00420443821766327
8,92,4,-0.285774421950218,0.0244238021996429,0.221007567831191,0.0587840612937068
9,92,4,0.263098577248103,-0.0244410288318072,-0.337835424318732,0.000679097654032024
10,92,4,0.131705382704095,-0.0151211895062719,0.252525674587465,-0.346587513025579
11,92,4,0.207715599706911,-0.02166243979765,0.0298946679058081,-0.254386760714213
12,92,4,0.672395709539837,-0.0756999408148137,-0.269325721914616,-0.670489609126109
1,93,4,0.258758303362576,-0.0230060252821362,-0.584726852701931,-0.0722228904954579
2,93,4,0.0756449565461974,-0.00930851189542342,-0.196143391463674,0.0959886924345264
3,93,4,-0.461549125747377,0.0378590879680618,0.350783349947736,0.475220250579158
4,93,4,0.0116549734623894,-0.0031165530698261,-0.114403856586136,0.121421179242399
5,93,4,0.495458031927751,-0.0493897558519125,-0.617567672633578,0.149677275346075
6,93,4,0.536622484949083,-0.0618582211038517,-0.826278183343054,-0.00724617945834183
7,93,4,-0.170956337252323,0.0146605252551542,0.0815829041706641,0.23980288664479
8,93,4,0.012326799273668,-0.00204380667296074,0.284366142272702,-0.296302272658391
9,93,4,-0.105970082258457,0.00659911232700545,-0.00183354251578362,0.202953183729435
10,93,4,0.128680425376832,-0.014360209358066,0.233511248700247,-0.32902984922358
11,93,4,0.175907354938227,-0.019518764299732,0.278480880876452,-0.406824258848442
12,93,4,-0.195463285579672,0.0164624040703811,0.105838826793491,0.261157432420789
1,94,4,0.139082236188434,-0.0124897954074506,-0.320320779979904,-0.0331003264777788
2,94,4,0.387555424631668,-0.0357049067022369,-0.856682147834455,-0.0965789876126523
3,94,4,0.0254335309308477,-0.0127262401095938,-0.0541229157130903,0.402613677717069
4,94,4,0.274098894161647,-0.023675391977752,0.290277209650632,-0.393397839777681
5,94,4,0.273963652976526,-0.0282144819402888,0.013780355627687,-0.124435811958738
6,94,4,0.361370433688411,-0.0465260813559916,-0.614893074047229,0.122852027842325
7,94,4,0.2721407089792,-0.0232447940653054,-0.437646852974403,-0.130706099728518
8,94,4,0.0465905581807845,-0.00555370346812968,-0.0106925452170356,0.0322601534062941
9,94,4,-0.0334619531060007,0.00150441102833009,-0.0770903850643814,0.124210719269571
10,94,4,0.159187324948591,-0.0111243163778905,0.191897088348086,-0.240787906039648
11,94,4,0.369702730766635,-0.0338315805631901,-0.679608383342587,-0.195382105018371
12,94,4,-0.0918464221951362,0.00856234416019457,0.0148397145146587,0.12169196466495
1,95,4,0.448586784667261,-0.0291056893795145,-0.972797419516105,-0.3386368683114
2,95,4,0.187528077504256,-0.0274818626076892,-0.358249340138062,0.21704810372678
3,95,4,-0.212231581748273,0.0129936449607807,0.214930743883134,0.537000123444509
4,95,4,0.176993380125089,-0.022301957267315,-0.476289326184762,0.153758062871003
5,95,4,-0.104142219219195,0.00545937166921047,-0.0170214956778941,0.293397580524234
6,95,4,-0.119522438622351,0.00766755734379372,0.304281440893158,-0.234622704085875
7,95,4,0.550893911300008,-0.0583197425753748,0.400173420385434,-0.550512531694842
8,95,4,-0.27586170697498,0.0219157852891084,0.15383322619522,0.342754035919199
9,95,4,0.404239542855015,-0.0325940754277386,-0.956806330318141,-0.106899851079509
10,95,4,-0.516718411392659,0.0388716803897097,0.283615215977243,0.488711899344703
11,95,4,0.526730407163606,-0.0483561602225222,-0.535890373700638,-0.503826990462707
12,95,4,-0.418576956450971,0.0332161839426912,0.276429313931147,0.475010484989729
1,96,4,0.00109640743321806,-0.00485042496189223,-0.221199931952903,0.223486606386563
2,96,4,0.0588605499570093,-0.00751664447613556,-0.174566361015217,0.143369093057303
3,96,4,0.59577208664963,-0.0652680103053279,-0.332030943495294,-0.513778663533119
4,96,4,0.0192329761318877,-0.00619019042394764,-0.143469107700526,0.183027465845563
5,96,4,0.229334652797731,-0.042719824538154,-0.371314911353638,0.369098212748169
6,96,4,0.429330331425345,-0.0513630602259982,-0.650470488343822,0.0827214113894601
7,96,4,-0.208280602121224,0.016573167498416,0.181625048109109,0.191953641875563
8,96,4,0.190981610285763,-0.0200522686793888,-0.340061503213666,0.0216470979647767
9,96,4,0.0336369825035955,-0.00293468971707627,0.0765656580572116,-0.0715095683264116
10,96,4,0.0628298527456174,-0.00701063444269878,-0.246259107796979,0.208391947375742
11,96,4,-0.0808111706579507,0.000517838719363566,0.0184352536945564,0.359955741828771
12,96,4,-0.0703821507564599,0.00591323280725859,-0.0034212224647282,0.159927456464452
1,97,4,0.393016297894815,-0.0400447956433485,0.430282185106074,-0.557357039307492
2,97,4,0.0326110619866786,-0.00866813301563049,-0.161384167776024,0.282152642647225
3,97,4,1.15168022226362,-0.159374538102305,-0.278009222053051,-1.21498985375515
4,97,4,0.124033526740186,-0.0119212005237894,-0.233026201898509,-0.041640158178602
5,97,4,0.308515295097102,-0.0353272128899226,-0.568701167710416,0.0303891286227164
6,97,4,0.235707690505345,-0.0242736574282952,0.0258287098750362,-0.13183467664276
7,97,4,-0.222707100501397,0.0157755479321578,0.189422622760292,0.316273342441004
8,97,4,0.0245654228226614,-0.00684201921225993,-0.123081002176901,0.193995275895675
9,97,4,-0.0682904961748331,0.00217688851425727,-0.0245080807254371,0.334418883516783
10,97,4,-0.261722988858017,0.0199259133044262,0.213130588922294,0.345474870769314
11,97,4,-0.253165642550539,0.0262679975922277,0.15285508682527,0.196706755000543
12,97,4,0.338649534639517,-0.0373058583334638,-0.0344426786803371,-0.372610276099439
1,98,4,0.568150054077026,-0.0586572317516264,0.364263627918452,-0.47826085551203
2,98,4,-0.0645416681976852,-0.00845824912269337,-0.0319161043180024,0.523385084249021
3,98,4,0.496869632464663,-0.0426675313762971,-1.14252619240753,-0.137253324550121
4,98,4,-0.00594596160541886,-0.00244316428628377,-0.18914682449966,0.197694989609426
5,98,4,0.170604322939444,-0.0217259968044344,-0.332941530449015,0.195354345894574
6,98,4,-0.235667009575247,0.0156526398613135,0.167672499804139,0.547890692868156
7,98,4,-0.000125343227959862,-0.00188234147202556,-0.142012559441751,0.191002929149926
8,98,4,-0.143187444526019,0.00931899344123407,0.0421032935436195,0.310599162807713
9,98,4,0.0973528044392197,-0.0120171338670589,0.0961215846109381,-0.269583140723942
10,98,4,-0.0586830831826947,0.00588194587195857,-0.00140000013370694,0.0370292322846691
11,98,4,-0.259043481015665,0.0270910861028003,0.143034823849457,0.159741672144657
12,98,4,-0.35018746849831,0.0303553508660991,0.199477005848788,0.309287092763602
1,99,4,-0.00189264526214855,-0.00411951157850207,-0.177169384846282,0.268651804401443
2,99,4,-0.180376640441932,0.0148790262225906,0.0398898571936835,0.192025892702164
3,99,4,0.255834998367387,-0.0334686247923515,-0.433291873048723,0.180566529916028
4,99,4,0.307233180158385,-0.0256836336887626,-0.704172161730505,-0.0673479865956129
5,99,4,0.565437505563753,-0.0555297231244105,-1.05423875013894,-0.196687068058547
6,99,4,0.689787804685975,-0.0751100851662871,-0.268038989488944,-0.627508250275518
7,99,4,-0.0476972651253976,0.00329311547527906,0.0622774634452772,0.0784998844842333
8,99,4,-0.113666517050538,0.0111139331826296,0.0788513089147018,0.11009265314233
9,99,4,-0.0205292212797213,-0.00229280655864734,-0.073305188336445,0.284369889840916
10,99,4,-0.148156452524361,0.0126079914216204,0.108498921376082,0.04896265676802
11,99,4,0.0692811603269486,-0.00880462028801436,0.210015643608124,-0.239888960545213
12,99,4,0.131768625830804,-0.0127536196982508,0.109550473195861,-0.160069722722536
1,100,4,-0.00733587943416516,-0.00453566715949364,-0.0762495748566843,0.256457925862157
2,100,4,0.54287058899952,-0.0656994007431293,-1.11256778635378,-0.208424541108447
3,100,4,0.489749319647885,-0.0637591953503066,-0.772447926200561,0.100163258252675
4,100,4,0.0993812823626094,-0.00594311853514302,0.382531350144688,-0.2791280969804
5,100,4,0.141094292097684,-0.0265983918208489,-0.271153374699819,0.348558353870938
6,100,4,-0.308289958874015,0.0282444566286033,0.188019933644988,0.110823692844107
7,100,4,-0.189990449881728,0.0200036897042235,0.182920167211603,0.0478879206712499
8,100,4,-0.346185245115881,0.0268480874649958,0.18064152021895,0.312760678754975
9,100,4,-0.559130955293579,0.0415549411603788,0.26657877233615,0.388574936183577
10,100,4,0.230326355436109,-0.0242705035575258,0.0975053239343351,-0.348661719101834
