ID,SIM,interval,ETA1,ETA2,ETA3,ETA4
1,0,4,0.0506616223547857,-0.00449671572370149,-0.0660880876578301,0.0115433457195813
2,0,4,0.176086696791594,-0.0344428533136428,-0.219493235325385,0.390927756577416
3,0,4,0.0556899859714792,-0.011213711060014,-0.140699419675425,0.281583184838461
4,0,4,-0.032856096121665,-0.00213841280519337,-0.0822826058263018,0.395632912568251
5,0,4,0.165672616052631,-0.0240800788790948,-0.340263840658475,0.206609851337107
6,0,4,0.0992391129785599,-0.0130914728340696,-0.156102797016417,0.199041475799403
7,0,4,0.104562271262311,-0.0131023471326613,-0.338853931963678,0.16864483342569
8,0,4,0.0280568877174974,-0.00934080028012747,-0.137983329255889,0.305729317497402
9,0,4,-0.196596644210608,0.0136720717686353,0.155425433482355,0.400679758909605
10,0,4,0.087955460377373,-0.0101741819306541,-0.0875304625632606,-0.0991914245058695
11,0,4,-0.0379623584327234,0.00212200360438621,-0.0986470422742214,0.0472786469146077
12,0,4,-0.0837932433299322,0.00515835589410972,0.144640118126919,-0.0883649322350842
1,1,4,0.16282341158117,-0.0142971376384523,0.161403786528863,-0.263915008294864
2,1,4,-0.268649702613521,0.0186052553238239,0.127185771431951,0.503728583726237
3,1,4,0.32713696007501,-0.0418183940801515,-0.521475090388096,0.146208675000648
4,1,4,-0.0057358315658667,-0.00348852767163556,-0.163001838469362,0.269957766725798
5,1,4,-0.281990485867001,0.0221330080533016,0.21895632704336,0.411454108648867
6,1,4,0.249535304319998,-0.0306020856563556,-0.296481234679137,0.160235891333043
7,1,4,-0.225875820876427,0.0164578041817851,0.146571266267026,0.335676898314048
8,1,4,-0.269044659273423,0.019715330896551,0.170653710239699,0.408231943148774
9,1,4,-0.450429335285317,0.0336474571483785,0.227785952636759,0.163198255458549
10,1,4,-0.0470809910529398,0.000592372376941541,-0.0984975017077259,0.252477375216843
11,1,4,0.480705313263141,-0.0415077582534115,0.0286967790357197,-0.46997907458207
12,1,4,0.61771806395397,-0.055771214301333,-0.380340724588184,-0.584356137784713
1,2,4,0.149923164010363,-0.0123548120423112,-0.153757718266398,-0.142498540635626
2,2,4,0.132923558162854,-0.0182871331030718,-0.307012912406421,0.17500688091898
3,2,4,0.841125058726347,-0.0633839444761841,-2.02327207407121,-0.425311647246909
4,2,4,0.158203460658459,-0.0162957053547971,0.0717843190487002,-0.265480619568717
5,2,4,0.371250073258379,-0.0412576389429893,-0.617437104384019,-0.012764726178747
6,2,4,-0.0718920862820806,-0.00592598134709721,0.107194713832699,0.518152871126629
7,2,4,0.191701497005923,-0.0162252653466097,-0.323765546904089,-0.113210489653837
8,2,4,0.323598475434808,-0.0325349775030862,-0.258757083865516,-0.24449691065477
9,2,4,-0.362392343054119,0.0300237367914547,0.286024703257107,0.440389454758811
10,2,4,0.427269147689632,-0.0536968203223781,0.542272357022074,-0.720889624693353
11,2,4,-0.156223657132665,0.0125230378810092,0.0345407861334314,0.187889777394926
12,2,4,-0.24375880226788,0.0193766835408478,0.16583784095604,0.00483623220169414
1,3,4,0.104004290546814,-0.0131120763389104,-0.29851337023649,0.104887864768117
2,3,4,0.113680167315821,-0.0195287068875422,-0.245821758415015,0.281599563613271
3,3,4,0.13567266752735,-0.0300236769049115,-0.162818000028192,0.41029805122408
4,3,4,-0.123471972722059,0.0129161835659053,0.193084336221775,0.00193820497881208
5,3,4,0.394583925846173,-0.0506653172530047,-0.66305683088973,0.112446186862863
6,3,4,-0.237180775158539,0.0190419910150233,0.121608814714692,0.367236435325106
7,3,4,0.341956919871425,-0.035178075967522,0.41734821552882,-0.559669874398701
8,3,4,0.138061436701088,-0.0212845440959095,-0.278861460530955,0.269166887842858
9,3,4,-0.13656798299066,0.0142174792984758,0.0677336116325054,0.161009496956444
10,3,4,0.139576306229139,-0.0150167488351183,-0.323493146575904,0.0711627861900557
11,3,4,0.280023412701223,-0.0361917563952702,-0.566274672318414,0.0955203545841059
12,3,4,-0.617430542153819,0.0427358655730186,0.299354164874186,0.45357866769433
1,4,4,0.333061118601509,-0.035867218257499,0.394421293212019,-0.524055662381102
2,4,4,0.335955775877259,-0.0310029890078824,-0.729012364246983,-0.0830732968189559
3,4,4,-0.15832555418629,0.00303206360462676,0.215208600071879,0.657722535064744
4,4,4,-0.0202769747990674,0.00133909410789654,-0.116081984947359,0.209511467017275
5,4,4,0.305871091401124,-0.0306020414772519,-0.146916253826367,-0.284859951015392
6,4,4,0.194222556424116,-0.0269527844929168,-0.250674176740968,0.189308972373193
7,4,4,0.579674941214831,-0.0469588981648662,-0.251915030848214,-0.519322987243868
8,4,4,0.317057640169434,-0.0249276275252607,-0.753754114895528,-0.0452849926077747
9,4,4,0.175283901750981,-0.0208339913113469,-0.233921582662611,0.180958745168412
10,4,4,0.0858026458882652,-0.0120402810633658,-0.312183920227936,0.14413059286642
11,4,4,-0.575858456478379,0.0388524549553029,0.336658053782244,0.714189681082098
12,4,4,0.815085500955708,-0.100414058003424,-0.186950730146937,-0.832298904805158
1,5,4,0.39555064268831,-0.0289965805843291,-0.858262271400926,-0.218795385904549
2,5,4,-0.137710426138308,0.00333732968277577,0.211105446275145,0.492072988938809
3,5,4,0.463565877667508,-0.0636029673645594,-0.689609133302443,0.157123206843516
4,5,4,0.190507852653269,-0.0219267215605676,0.262803367960185,-0.380514776373085
5,5,4,-0.512956875748357,0.0398213530322167,0.189691343906625,0.324699205139559
6,5,4,0.707175944650475,-0.0790679967044151,-0.44099912740223,-0.593067691048736
7,5,4,0.20898787965637,-0.0211032673646385,0.253601191555191,-0.369233621365502
8,5,4,0.0436858157300501,-0.011830380241111,-0.156521927332557,0.227918668057244
9,5,4,0.24288041621325,-0.0261059667898945,-0.355365384629997,0.116786103812676
10,5,4,-0.000695006277246536,-0.00239641505467395,-0.182319870972847,0.206155134232405
11,5,4,0.182159848751337,-0.0306366213001447,-0.305160455406545,0.326547056756441
12,5,4,-0.037357170619221,0.00210707627208353,0.168355923643617,-0.171937490318081
1,6,4,0.310197934842987,-0.0290197251157702,0.106685864781068,-0.379701357929708
2,6,4,0.269209220833555,-0.0393341936575058,-0.367919990220674,0.303966215344372
3,6,4,0.212929858030412,-0.0306341503078606,-0.35873012660203,0.244130087455266
4,6,4,-0.0355834760340572,0.00321231203366597,0.126044416612518,-0.0588651594510841
5,6,4,0.150057903710164,-0.0291170997556685,-0.273655044918813,0.343112996107851
6,6,4,0.267243384224788,-0.027281414556283,-0.12579891530184,-0.130525038674395
7,6,4,0.181734317399112,-0.0150895893023538,-0.409635289578104,-0.0308729838758636
8,6,4,0.125787685124895,-0.0197215786042059,0.422110847611339,-0.563513981189828
9,6,4,0.501992852792363,-0.0570581932879388,0.0047850872042463,-0.531974364416011
10,6,4,0.190501896246428,-0.0184547179915544,-0.494176099339366,0.0359149610458352
11,6,4,-0.0592227313182292,-0.00254011612137609,-0.0338242361474933,0.376963145198789
12,6,4,-0.195469449291837,0.0165924026260479,0.0938589715870036,0.279529690374405
1,7,4,0.391731218525125,-0.0439344099449061,0.468191535831983,-0.618064633663617
2,7,4,-0.116690669396578,0.00385081346563635,0.0144510841847024,0.408944797197204
3,7,4,0.391343747033458,-0.0526478065549065,-0.611853828584642,0.145577218936185
4,7,4,-1.04734428000205,0.0505781168185083,0.64394288038157,1.14001022800014
5,7,4,-0.195854744514228,0.0108103161899856,0.0479158711191384,0.449416881736615
6,7,4,0.529984945882378,-0.0595002069565693,-0.174037799512231,-0.474699501582079
7,7,4,0.157063965975799,-0.0156069674454326,0.35579717901477,-0.43460298389711
8,7,4,0.507957363202171,-0.046243284308878,-1.58861521167,0.0740987186105631
9,7,4,0.746546253811864,-0.0808927493924474,-0.505818099349674,-0.689882833002117
10,7,4,0.320330728356753,-0.0244691873443202,-0.630594219154199,-0.208632078355235
11,7,4,0.35780690213113,-0.0351280619234608,-0.175513226470049,-0.460177872641409
12,7,4,0.492853910588072,-0.0589955764202524,0.126056073600509,-0.542691487968661
1,8,4,0.58422699127247,-0.0646547499162352,0.41804366880522,-0.538055143349304
2,8,4,0.665829203959551,-0.0453117753886992,-1.52785481509263,-0.455186275746593
3,8,4,-0.229117512720118,0.0184549376448236,0.169209456030747,0.351582876330781
4,8,4,-0.292680194638539,0.0218816281840944,0.147251483592889,0.305961856483066
5,8,4,-0.301183223086414,0.0213132833084228,0.221443881814724,0.47085730969372
6,8,4,0.147141067384478,-0.0210604309791843,-0.225118869570665,0.232535029063491
7,8,4,-0.487773719838567,0.0341159312479394,0.335599940499944,0.396008685378195
8,8,4,-0.166550940618133,0.0100961545132231,0.0812184114297068,0.271321257644003
9,8,4,0.298765620116298,-0.0321802559067535,-0.462189088062103,0.0752085337720243
10,8,4,-0.304726559217507,0.0220044451795659,0.222888983081129,0.451474646243423
11,8,4,0.109768832449869,-0.0112699860739129,-0.0331163252243203,-0.080400630422678
12,8,4,0.562427136316803,-0.056216479868564,-0.516507668395478,-0.456446048551894
1,9,4,0.244592214091037,-0.0190898661200675,-0.531434841533623,-0.0391299206281323
2,9,4,0.0303045806043496,-0.0117903465252619,-0.152288600405419,0.337319211221187
3,9,4,0.0577325383843177,-0.0120646772269617,-0.154680443056027,0.289683709413829
4,9,4,0.166795432815523,-0.0166521820701701,0.0775594086917833,-0.27979015991583
5,9,4,0.377755027333187,-0.038230859197144,-0.462548023239227,-0.151133292124021
6,9,4,0.387589917915358,-0.0458193923453456,-0.501441649776063,0.017723422805444
7,9,4,0.0107298431635199,-0.00543095373583071,-0.221128850034591,0.25134937653609
8,9,4,0.0304520512781712,-0.00673667308609546,-0.127474021080353,0.205781615401116
9,9,4,-0.656364660426832,0.0437981003553379,0.404906040345101,0.267235027479916
10,9,4,-0.100875282785158,0.0106879336163713,0.0764360459545109,0.127913922599775
11,9,4,0.0668735775174321,-0.00863212164105792,-0.113940129484238,0.115184103627823
12,9,4,0.45450189666858,-0.0530071322433873,0.0440802591009435,-0.52521927682403
1,10,4,-0.261920605327293,0.0179262955240002,0.170734235067536,0.422508204228357
2,10,4,0.400468446279568,-0.0286791019182024,-0.989670014282049,-0.145065095352764
3,10,4,0.394111890349809,-0.0466987597671437,-0.709137069292837,0.0654587301024149
4,10,4,0.421447734702305,-0.0338492490247467,0.328858482061567,-0.42696380942948
5,10,4,-0.0820213634104609,-0.000405562768190158,-0.013831963431459,0.402784639583711
6,10,4,0.230220037124442,-0.0250814105765609,-0.351670215558084,-0.0550885755519151
7,10,4,-0.189892508995982,0.0180644594072925,0.132095335436605,0.198121568123179
8,10,4,0.198473689466772,-0.0208601647540052,-0.370480522865532,0.0183035668602293
9,10,4,0.0461430771078943,-0.0144341622265999,-0.135377008427848,0.369539450324933
10,10,4,-0.522950040776277,0.0430326969891432,0.38652566859024,0.425273069572218
11,10,4,-0.17805423588455,0.0102024928920211,0.0897740746918896,0.412051753169581
12,10,4,-0.12198185421116,0.00736863079547483,0.00865372814586988,0.39291113238558
1,11,4,-0.144522311093475,0.00947059708868449,0.0402148620480439,0.363555856642494
2,11,4,0.135813090461221,-0.0156240806875558,-0.271339065086257,0.0793809338127997
3,11,4,0.694115613516197,-0.0706565635762865,-1.7559059182861,0.0810807803279654
4,11,4,-0.0706573925102178,0.00352162178970054,-0.081996464391356,0.286688871069633
5,11,4,-0.23507854154926,0.0208106659676755,0.15793601896953,0.210926767191541
6,11,4,0.140200385421842,-0.0147335739474192,-0.209626302652847,0.052619738886678
7,11,4,0.254754087613009,-0.0236182089828857,0.226857846433173,-0.310814236238438
8,11,4,-0.170141911957441,0.0128408554476993,0.0672269007309874,0.292247789454875
9,11,4,0.205770443011047,-0.0197719546719607,-0.23048043828814,-0.0572077840602345
10,11,4,-0.0789991405658124,0.00400933250895897,-0.0565283741034375,0.251836700810182
11,11,4,0.129207047144257,-0.014565325791748,0.281878409863399,-0.353426628953418
12,11,4,-0.0830540366005833,0.00555707348290987,-0.00795662528879678,0.145807623370593
1,12,4,0.219443152981822,-0.0183699428179456,-0.481335766404387,-0.0303965385352117
2,12,4,0.1949823652415,-0.0227482072439437,-0.36267410363933,0.243873227703426
3,12,4,0.409574920899322,-0.0470117661339306,-0.627884516775265,0.0173463191421248
4,12,4,0.367154378096514,-0.0282079496727796,-0.828206530603377,-0.178372152122229
5,12,4,-0.035873743924466,-0.000505529953871998,-0.0581603237894824,0.168752435807752
6,12,4,0.262450213769624,-0.0464574812726196,-0.344077150328453,0.344924228556691
7,12,4,0.159621856309173,-0.015731461636905,-0.340464103923461,0.0511778517350289
8,12,4,-0.271081033407447,0.0238967434138904,0.152431212046648,0.188529930501369
9,12,4,0.280010558892842,-0.0413737583199907,-0.446805587565758,0.2417169397271
10,12,4,-0.187185691217885,0.0127271067618491,0.117955381837397,0.261323328669211
11,12,4,0.0698778542928423,-0.013504107961855,-0.199571173933581,0.278553857435015
12,12,4,0.200665335083758,-0.0206992506751072,0.0764035033288237,-0.117038192252715
1,13,4,0.377541564767049,-0.0389734977032536,0.403150548278013,-0.529332581596597
2,13,4,0.0386157899607231,-0.0131817529407661,-0.159991018171847,0.342951381193677
3,13,4,0.0587479427164752,-0.0243808501293584,-0.0595191127359629,0.5027605052415
4,13,4,0.45756438113103,-0.0289139527218535,-0.883892615491119,-0.38356078481178
5,13,4,0.371810148471704,-0.0488520965267366,-0.663001886898522,0.0871225609721903
6,13,4,0.608281136357926,-0.0652621790668788,-0.858014146323041,-0.236906647550476
7,13,4,-0.105501662309663,0.0112468024947598,0.0537288623583665,0.0838953960235868
8,13,4,-0.249521185414545,0.019832954295608,0.169625927938035,0.366110990425853
9,13,4,-0.444599516182377,0.0330807167284151,0.200121586786212,0.638107119893984
10,13,4,0.232286656685378,-0.0207845546183695,0.24665553717585,-0.345649514539383
11,13,4,0.0880228912341535,-0.00753065433617976,-0.0473790803632398,-0.299310400817512
12,13,4,-0.404747858846026,0.0345383802886497,0.16914858186054,0.286478977002275
1,14,4,0.655262991168668,-0.0597126793384173,0.581454009568431,-0.722937543582483
2,14,4,0.117764093064054,-0.021971787227786,-0.245604057619773,0.306469494107908
3,14,4,0.17557234946793,-0.0202689644868705,-0.336942721709116,0.121787437776694
4,14,4,0.291392225595366,-0.030408237006295,0.380712967276904,-0.505026883904605
5,14,4,0.120101480679724,-0.0226620738408796,-0.249948119792011,0.320571571019909
6,14,4,-0.305703032082245,0.0241300569115803,0.154135538074828,0.470906421159232
7,14,4,-0.0496542032918932,0.00405392866423136,0.127400130472226,-0.043108519680789
8,14,4,-0.230783760738154,0.0207998800536751,0.117493063803852,0.361861460278
9,14,4,0.274808436347012,-0.033258140320971,-0.476737622793812,0.129350669270642
10,14,4,0.0155768827181532,-0.00449782712974283,-0.0985763404553936,0.184090505230283
11,14,4,-0.541607889726438,0.0380650161028788,0.217022277536733,0.632878941598579
12,14,4,0.295156556030792,-0.0408070765534127,-0.484036615576711,0.202993030342715
1,15,4,0.188915557285472,-0.015983085861706,-0.291232373056442,-0.123321176713443
2,15,4,-0.190042659066233,0.00897777821551446,0.112399282043332,0.441424014491217
3,15,4,-0.0656270010754615,-0.00204719745527896,0.00877872791820546,0.402131595048163
4,15,4,-0.437509289542452,0.0256942719874692,0.132845353602696,0.774656131514892
5,15,4,0.27277376489096,-0.0257590043003089,-0.416261101517295,-0.100869040297281
6,15,4,0.377590245073585,-0.0450053963502101,-0.594541352184233,0.0974203319554759
7,15,4,0.466460966062369,-0.0417715388738439,0.436614403010447,-0.553552662324269
8,15,4,0.278137078815855,-0.0235043384182571,-0.110795288781277,-0.255815354452309
9,15,4,0.359968279947755,-0.0380306444454027,-0.13182722390707,-0.297451402247899
10,15,4,-0.167418000756869,0.00695204063215335,0.119775855344586,0.39053153173729
11,15,4,0.0146478518358634,-0.00394906620315727,0.253665581459307,-0.214858326650835
12,15,4,-0.61206728313283,0.0410343362931169,0.0552016052117466,0.794061747810487
1,16,4,-0.0089445541922332,-0.00379816553709259,-0.0611841817265394,0.265582113438313
2,16,4,0.31179358281627,-0.0318535057302109,-0.0846436620002323,-0.307511990423343
3,16,4,0.606353774820105,-0.0625643124981075,-1.05267775064714,-0.0418159872961997
4,16,4,0.292156638488134,-0.0249139548350524,-0.563122641178479,0.0329225817482036
5,16,4,0.0427810002742901,-0.0102249139341048,-0.169234507473137,0.276839930276789
6,16,4,-0.222866431085584,0.0126912435305609,0.24891941856194,0.556092281744325
7,16,4,0.467080481896511,-0.0540446085131021,0.438133901438283,-0.571373669531604
8,16,4,-0.191656728134445,0.01717804998052,0.12199633816861,0.079833403386608
9,16,4,-0.120247718719765,0.00983945228547775,0.203788944152569,-0.115030816185146
10,16,4,-0.194433798177197,0.0149341919573538,0.130248699851025,0.287487763683772
11,16,4,-0.165845420130022,0.0107756406446533,0.30664846242691,-0.0813938052191068
12,16,4,0.154040609291495,-0.0144088599967871,-0.00420325413122666,-0.161949295258647
1,17,4,0.472109344669591,-0.0304229951431503,-1.09650095866375,-0.318293549668038
2,17,4,0.00929167944169002,-0.0113637740899405,-0.134034007697417,0.37305167803843
3,17,4,0.738565654447361,-0.0641323477185933,-1.72153479327644,-0.27592336555594
4,17,4,-0.00426319478674558,0.000179241185861878,-0.0126035925014059,0.0949786120083806
5,17,4,0.117704490617837,-0.0161929455677728,-0.225654844654625,0.200520066509458
6,17,4,0.27165749560182,-0.0344488706935088,-0.520708310554406,0.131554990243332
7,17,4,-0.303923798043225,0.0232441892704458,0.241187841333613,0.339456807109808
8,17,4,-0.0897193092129394,0.00121285602681667,0.0021468239835939,0.381248935744277
9,17,4,0.117038314431559,-0.0196035748769897,-0.220740832945099,0.28697197320898
10,17,4,0.0271757315266171,-0.00514575105234834,-0.00114491942067301,-0.00613584861939925
11,17,4,0.222702445059131,-0.0257178721093099,-0.454145581010618,0.0476923536955504
12,17,4,-0.364733949600225,0.031238961298395,0.170385991522248,0.277796695146836
1,18,4,0.411079060690896,-0.0420250932015799,0.444470119569746,-0.576549304946526
2,18,4,-0.177295753049365,0.0152076884747132,0.089053691433408,0.131851760207332
3,18,4,0.869511987926227,-0.0944125335656245,-0.552502754035065,-0.902484331757935
4,18,4,0.0523564818907892,-0.00305970844685274,-0.155177106521982,0.0364228414904322
5,18,4,-0.0295820298719177,-0.000525451871210241,0.00450141880314529,0.153655486415808
6,18,4,0.207583113757178,-0.0313707255372071,-0.347876062791646,0.248684169773858
7,18,4,0.098867800938452,-0.0107139939649193,0.211213270279247,-0.301549436908077
8,18,4,0.221193580217234,-0.022110204229885,0.0402412501630791,-0.318325082323895
9,18,4,0.0522293071266397,-0.0073555404668306,-0.107925218844859,0.0864508135778347
10,18,4,0.369368325669457,-0.0364547121695899,0.363614545818952,-0.490992005655883
11,18,4,0.0450984704115386,-0.00799716880684201,0.355723217082425,-0.421286568795386
12,18,4,-0.425830755626946,0.0333428818877231,0.258104552110456,0.277278953650966
1,19,4,0.372334653156324,-0.0260114562495097,-0.822142331633517,-0.202204270270922
2,19,4,0.655212124935186,-0.0400658692980553,-1.4921127303593,-0.423419908997656
3,19,4,0.314595587482644,-0.0312987155892277,-0.635573422170033,-0.0367414766801141
4,19,4,0.0509435181480721,-0.00626178337921511,-0.237107497715902,0.221035791279942
5,19,4,0.213022046015076,-0.0178755674705237,-0.315580800709253,-0.0754511428891891
6,19,4,0.629614145583085,-0.0611243524970933,-1.69156183173193,-0.0199827930381487
7,19,4,0.080099068984243,-0.0106720775231455,-0.300923826469949,0.142793909746916
8,19,4,0.219664925743006,-0.0234235154761071,-0.440849336730099,0.0619858226490121
9,19,4,-0.45881317048951,0.0373703207996052,0.216329614761,0.341492490799749
10,19,4,0.232459343521819,-0.0197201312897907,-0.293677841500702,-0.200737486694473
11,19,4,0.0528353257441299,-0.00604551583279269,0.0423105794470873,-0.0042936190451185
12,19,4,0.431343607904972,-0.0523222882192949,0.135108057262206,-0.676544991748134
1,20,4,0.101452979305872,-0.0116122523242068,-0.350991406860888,0.134510779905956
2,20,4,-0.210377666924538,0.0153078172039212,0.0986426239379486,0.228643915191909
3,20,4,-0.311971556051324,0.0242380656843286,0.214145052584498,0.45962968840646
4,20,4,-0.493684957302945,0.0344851426606924,0.0306338532238385,0.75670085865332
5,20,4,0.563740780215022,-0.0463943824906367,-1.2537034734399,-0.318430529453666
6,20,4,-0.271693273438454,0.0180264179466703,0.215691610956712,0.570701295637449
7,20,4,0.117674193226546,-0.0100637310957283,0.119532724348238,-0.216003616218125
8,20,4,-0.0386492312561773,0.00120505058463719,-0.0779503120983353,0.233425112916021
9,20,4,-0.206289642514772,0.0155336575854669,0.13349573192548,0.414165357863965
10,20,4,0.213727019630622,-0.0227845300695423,0.196915231431625,-0.311692534109364
11,20,4,0.0504592581205099,-0.0135942747667676,-0.174555438804426,0.323670063352116
12,20,4,0.0195563662302185,-0.0102291613123763,0.364801266775683,-0.529733559229659
1,21,4,0.601319915953705,-0.0295813383356041,-1.65085306051314,-0.562006820227159
2,21,4,-0.449666384014759,0.0359181204974257,0.315907299055454,0.440730277325163
3,21,4,0.147447721952178,-0.0276999173229919,-0.22901490099312,0.355813700869512
4,21,4,0.222162508288242,-0.0267064129081645,0.288935603374372,-0.414349811188599
5,21,4,0.416139146958004,-0.0456277315243169,-0.523625259516976,-0.116759296846183
6,21,4,-0.0294264314688762,-0.00855892844060091,-0.0217202788795774,0.4819755269045
7,21,4,-0.0496377009795412,0.00403476082819881,0.175290569076823,-0.0750023061793334
8,21,4,-0.456127928955228,0.0359067968499175,0.282896096812454,0.363389357257097
9,21,4,0.0626646966581081,-0.0177795386557761,-0.0762447442361191,0.38410820139832
10,21,4,-0.409066919337165,0.0281693460502827,0.269997872252767,0.381372627126601
11,21,4,-0.112979010738115,0.00756557527787964,0.0183648075832401,0.154872619055132
12,21,4,-0.0228744758086984,0.00210922550543561,0.212313233270924,-0.41363899076221
1,22,4,0.359380312752715,-0.0272520537912385,-0.732466836878949,-0.14574351584818
2,22,4,-0.248169647235629,0.0171075986552954,0.249406271877201,0.399091312979208
3,22,4,0.378087257645358,-0.0357971046645064,-0.532250985127262,-0.197442359864222
4,22,4,-0.256691535863792,0.0172892767831297,0.216500413629054,0.423235605178797
5,22,4,-0.184156666275737,0.0102154353471445,0.0777715567660136,0.431265630739859
6,22,4,-0.0637176534204811,-0.00462910862151207,0.0777116743291412,0.61136226712136
7,22,4,-0.31668703902029,0.0254222378228851,0.228954070253594,0.333115560285253
8,22,4,-0.281586118531523,0.0230984720186085,0.149204578844099,0.197205437998991
9,22,4,-0.571691121876844,0.0370102273884949,-0.0805580406001192,0.745248520361154
10,22,4,-0.288065808849589,0.0212876547758957,0.182260421326731,0.358622924951143
11,22,4,0.228223040882729,-0.0220541422066257,-0.382293597577989,-0.0580644471276316
12,22,4,-0.135979787756607,0.0103085162275944,0.0355469826849349,0.273314163455551
1,23,4,0.00444299902042716,-0.00556084764465467,-0.175273546081999,0.257012711892042
2,23,4,0.132681004761181,-0.0205343872676752,-0.288282337721341,0.249508800236504
3,23,4,0.251529226021429,-0.0436619044381177,-0.3394438778083,0.347058017817114
4,23,4,0.493546640115647,-0.0576689159026617,0.576055545185176,-0.754165343226385
5,23,4,0.197315781682693,-0.0196177772739971,-0.253001334321271,-0.0707131877999957
6,23,4,0.069696386709407,-0.0142900372403045,-0.171571543409824,0.294494551945624
7,23,4,0.432686953248711,-0.0392047963933285,0.400645181676242,-0.515901051207573
8,23,4,-0.519660371819178,0.040296970825892,0.30109715739189,0.400173109528743
9,23,4,-0.796490690038695,0.0399288763207416,0.514111495223901,0.00219204725297305
10,23,4,0.328193392090714,-0.0317677822340006,0.344230285252135,-0.492853339397449
11,23,4,-0.467325103522595,0.0359216194518519,0.193955946054439,0.304828414581554
12,23,4,-0.123978044449589,0.0149926916313862,0.130426069440517,0.0308499489662954
1,24,4,0.264690588678273,-0.0244555784410347,-0.639295798494138,-0.0353318604256453
2,24,4,0.868598029348015,-0.0429242407282817,-1.89769798652494,-0.943514373407089
3,24,4,0.0439400796771823,-0.00575553891598556,-0.11020717433741,-0.0230297810351603
4,24,4,0.0224303107774345,-0.00529543303457074,-0.233884244922493,0.1939273296042
5,24,4,0.44829731818102,-0.0461981331969717,-0.724468319280188,-0.139842403834648
6,24,4,0.31085433905364,-0.0500522333992668,-0.291435357696695,0.278820392202229
7,24,4,0.048061594647747,-0.00769839771888926,-0.142865345774074,0.177999565006947
8,24,4,-0.298399928844228,0.019953534082453,0.228397472253134,0.492885473256206
9,24,4,-0.439021098586462,0.0331291643536303,0.164723198825571,0.270438358843816
10,24,4,-0.197740757569408,0.0221354302332599,0.092997680700318,0.149814938542442
11,24,4,-0.206607489760677,0.017555358662551,0.0991759793695288,0.16032357432207
12,24,4,0.31837138763354,-0.0339984378753705,0.223827830697363,-0.285963869223538
1,25,4,0.266867223394015,-0.0229424572807697,-0.53968687711665,0.0231922466329465
2,25,4,0.217588263413739,-0.0396041496196557,-0.298890908784448,0.375771855086381
3,25,4,-0.259795104201057,0.0207557738542297,0.169206000096949,-0.061275753586099
4,25,4,0.306568445192362,-0.0343894301610484,0.369483945904928,-0.496937871557995
5,25,4,-0.158329292528925,0.00680017408739571,0.0781623461635215,0.434301644161254
6,25,4,0.598477767826716,-0.0741282053428039,-0.90245461959478,-0.0404321520284491
7,25,4,-0.135900905442209,0.00796895482385671,0.0631454468292404,0.267175023637338
8,25,4,-0.115951485971461,0.00421213982531055,0.0411928841007483,0.376277222729201
9,25,4,-0.0382027927850628,-0.000839377593443847,-0.0536464033913012,0.295917139078479
10,25,4,0.335974663384698,-0.0281158699658403,-0.762377227701367,-0.113787694567662
11,25,4,0.570488453385286,-0.063680049257589,-0.189041838532516,-0.596105879631876
12,25,4,-0.18865169515045,0.0145751778501279,0.136271212574833,0.0318154409996518
1,26,4,0.148056623366317,-0.0150178595298039,-0.411037663325824,0.0608970947375862
2,26,4,0.265825599139457,-0.0311978041131585,-0.505362688183673,0.0668089311179388
3,26,4,-0.0426205065381107,0.00299207601412534,-0.0522569290406261,0.200193692430203
4,26,4,0.165586395198361,-0.0208861520329228,0.329606214133665,-0.453932244420831
5,26,4,-0.292254008611677,0.0244283540311709,0.183234735998423,0.224536456236944
6,26,4,0.11216108007607,-0.0105178159999233,0.00648054877248099,-0.214555667411109
7,26,4,0.0809354161130341,-0.00867973936530272,0.184515693217471,-0.23885167124313
8,26,4,0.160657105818853,-0.0139313733232833,-0.0372318067782162,-0.313680654993861
9,26,4,0.407926677125334,-0.0437576548870797,-0.308019369386629,-0.224807556030151
10,26,4,0.208960288086757,-0.0172718109819856,-0.491454573831571,-0.0243661089317998
11,26,4,-0.188188638047882,0.0150028617893997,0.0896842373290665,0.232465714832391
12,26,4,0.444257982698015,-0.0374473210548541,-1.18497806159808,-0.0278303282314699
1,27,4,0.260969043530197,-0.021923449099892,-0.51985835011463,-0.0691966372698378
2,27,4,-0.155088400505641,0.00932133483572096,0.0701432528300976,0.351081414951695
3,27,4,0.755472187667447,-0.0628904936223808,-1.3835491510364,-0.386651717323867
4,27,4,0.0162416790228812,-0.00294431769633966,-0.145948101370134,0.161557989172386
5,27,4,-0.0541040751540287,-0.00499092485922452,0.02732458491408,0.395217794983651
6,27,4,-0.13617899793994,0.00618432692036102,0.0728010006397954,0.455400134844813
7,27,4,-0.442509823558665,0.0327665116130862,0.324072606283966,0.395875675942489
8,27,4,-0.111807276488325,0.0088014066769279,0.0444307101086256,0.186210062937589
9,27,4,-0.23198641704898,0.0190077313996403,0.128063409359059,0.327457898019339
10,27,4,0.258426572451947,-0.020744422574307,-0.398419766625108,-0.195270159906267
11,27,4,0.317226940856315,-0.0329416791052934,-0.609879960386516,0.0140868930895674
12,27,4,-0.0559055608853573,0.0035529377249237,-0.0353942515562676,0.257286900592883
1,28,4,0.338981357274372,-0.0296592523420876,-0.178104380781838,-0.333265395883148
2,28,4,-0.117420465823872,0.00159200898279452,-0.00614766871612856,0.460656977577945
3,28,4,0.461284299347545,-0.0468051678482396,-0.417452554630409,-0.324133888827697
4,28,4,-0.0723357095000718,0.00659462530779515,0.152853620871669,-0.0159653898849544
5,28,4,-0.271612633676816,0.0202316262362459,0.165214525568834,0.391527176906776
6,28,4,-0.204081281335282,0.0152145161918922,0.0794522705612147,0.42315445344214
7,28,4,0.317164962339175,-0.0435015206535237,0.533655244164033,-0.709550705094508
8,28,4,0.0927825066517383,-0.0138430605927555,-0.21932405342851,0.222516610766185
9,28,4,0.182814746394962,-0.0175368358926767,0.218039670884644,-0.354132479395961
10,28,4,0.320694051197386,-0.0375345486434188,0.44652172464307,-0.595639485091672
11,28,4,-0.673775275830179,0.0475818424242483,0.446570121262993,0.284548779698776
12,28,4,-0.772510646596298,0.0503285242832073,0.268431318695305,0.734137402994432
1,29,4,0.0283179129730383,-0.0255323777805696,-0.19579675367341,0.338145542220322
2,29,4,0.202024024402971,-0.0205500137064696,-0.0186207517520797,-0.167271137383589
3,29,4,-0.103688100711951,0.00436953449158635,0.106321086862075,0.301991849604725
4,29,4,-0.371182722154382,0.0273334994631337,0.227826800973476,0.36011712609402
5,29,4,0.143158292304594,-0.0248745619793681,-0.231291186297598,0.26471248644649
6,29,4,0.143616199313939,-0.0310725021392304,-0.186860482791775,0.404846276456924
7,29,4,0.1062024365889,-0.0113647221387838,-0.315471328326914,0.110511523707017
8,29,4,-0.0551553125239707,0.00497598150280231,0.104449075279912,0.00931956595712414
9,29,4,0.46671968572261,-0.0536685141765043,-0.824150035529185,0.0206993287150275
10,29,4,0.0839625339142113,-0.00707930568404737,-0.176075248979277,0.00431976884912001
11,29,4,0.270100633952871,-0.0214864333534632,-0.31014797290195,-0.217272390200961
12,29,4,0.649704098503248,-0.0770767080492922,0.0697014898742512,-0.580960510882365
1,30,4,0.372104227982274,-0.0285986714641937,-0.845556832796265,-0.178063173776584
2,30,4,-0.197341013277659,0.0203565910529425,0.0713114619063353,0.391492356368875
3,30,4,0.59225378158808,-0.0558421758916005,-1.05997334387885,-0.192634392816272
4,30,4,0.180366445256295,-0.0179375253887449,0.227629968565643,-0.324029139631598
5,30,4,0.62950253554685,-0.0684371869292281,-0.377388234483857,-0.602825694028866
6,30,4,0.36542657571665,-0.0519409266237374,-0.568071797742975,0.202047665826759
7,30,4,-0.00858902814348044,0.000944157163981312,0.0873552269013732,-0.0625621860248277
8,30,4,-0.0475159717011355,0.000738101677348312,0.0304280439138275,0.149025550152031
9,30,4,0.342309186250639,-0.0342277283282178,-0.425835204561773,-0.109589203781042
10,30,4,-0.325329931533492,0.0235218533616211,0.236713787928612,0.268837261080786
11,30,4,0.60763875423317,-0.0782822319358767,0.113894968879743,-0.710402015569171
12,30,4,0.1236697533436,-0.0217253257864625,-0.22955426680032,0.303245823955973
1,31,4,0.319476785888199,-0.0273891281557556,-0.72405177202862,-0.0326152962116637
2,31,4,0.409825502624705,-0.0271724377235614,-0.923103328990726,-0.301983427427713
3,31,4,0.0395832187344253,-0.0168291978758782,-0.00981873938382336,0.416080132538286
4,31,4,0.0620193840638572,-0.00667035850304878,-0.239932635687657,0.149714507691059
5,31,4,-0.0168585069592364,-0.0108119988983918,-0.12434645111064,0.382007772124664
6,31,4,-0.0840086884153269,-0.00166584341765391,0.0536461653318552,0.463302705519702
7,31,4,-0.045440574562009,0.00372729450088322,0.000450707499402231,0.0258093125161102
8,31,4,0.28062168186517,-0.0296223400097317,-0.499986235849468,-0.0651519207222292
9,31,4,0.189705146311335,-0.0138037199459262,-0.411356451707724,-0.145525017084534
10,31,4,-0.0566829048177378,0.00332339277442152,0.0998453349202663,-0.00447900088133743
11,31,4,-0.749888829276953,0.0504879476592008,0.538883673806757,0.259599251927182
12,31,4,-0.19189945603772,0.0159769097356317,0.0868304509024586,0.104927356619922
1,32,4,-0.040561549729601,0.00184812646579308,-0.134982939495081,0.232407203920751
2,32,4,0.716581890078077,-0.0456871720368513,-1.55160069512284,-0.592372792033352
3,32,4,0.352073386383953,-0.0532246290636913,-0.56977182206539,0.183686716414129
4,32,4,-0.13940447247672,0.0114004456789637,0.163192853905792,-0.0524333825671371
5,32,4,0.418479241700439,-0.0440306665232705,-0.712647231646013,0.020420392479721
6,32,4,-0.121672016477017,0.00910139508029096,0.0907855391284058,0.00684139503183837
7,32,4,0.0398531254216998,-0.00809837202484601,-0.262874242985477,0.189951402252765
8,32,4,-0.123200535892962,0.00839557300453675,0.0230221256347623,0.149097735516776
9,32,4,0.169427362833854,-0.0164667370777516,-0.0157738209543,-0.229108419876806
10,32,4,-0.107654829958684,0.00269880096024396,-0.0140573438651135,0.251625169676262
11,32,4,0.135975309509419,-0.013292967277724,-0.355173806270684,0.176561115339258
12,32,4,0.271679569174684,-0.0331910285533312,0.163149343371246,-0.445094885512573
1,33,4,-0.46842527709119,0.0330781290192986,0.210485140427628,0.481737957239466
2,33,4,-0.187902785331779,0.0171495801585144,0.0969254874829272,0.301981069994006
3,33,4,0.0663638171767098,-0.0183697575373395,-0.136125468843977,0.402069597314771
4,33,4,0.0322885284739415,-0.00287339086317009,-0.105450467276322,0.10084929322827
5,33,4,0.18024305254587,-0.0306534014313226,-0.300134108917153,0.330775084792515
6,33,4,1.13672189022993,-0.143180515737721,-0.445647022876189,-1.15937761710813
7,33,4,0.279307919436054,-0.0328958070322314,0.357982883709978,-0.489376739851132
8,33,4,0.000893112442577708,-0.00129413121498857,-0.0521950226614598,0.109923562042748
9,33,4,0.0212207006066343,-0.00214963756010858,0.0801106604881664,-0.190038139304559
10,33,4,0.0141853025504199,0.000777843713470212,-0.152274804117891,0.142203455128786
11,33,4,-0.18622091621744,0.0165475584682153,0.122250156602128,-0.112460610573552
12,33,4,0.433116686784041,-0.0475352181416471,-0.46719020303309,-0.0578308937109808
1,34,4,0.167346394734992,-0.0159377561336211,-0.443917037893598,0.103271064517935
2,34,4,0.513170795736486,-0.0505858217066872,-0.944952927303916,-0.166206392809034
3,34,4,-0.0282622640300987,-0.023439278762124,0.0380613621014801,0.482277115806474
4,34,4,0.134427928055584,-0.00282322983688363,-0.339486180979879,0.0776417885749229
5,34,4,0.788854348508537,-0.0923151915905249,-0.322907041784512,-0.827201343619579
6,34,4,-0.28809201731504,0.0231721667038861,0.229758326384858,0.323830181681946
7,34,4,-0.204092491117306,0.0170858258963741,0.129872710758611,0.197830218759675
8,34,4,0.10414383792593,-0.0110573913716833,-0.185636067680642,0.0663449151998043
9,34,4,0.0842743662634321,-0.0135480240279018,-0.189804147350195,0.247177750132089
10,34,4,0.358975698357074,-0.0477693964880087,0.521154272770277,-0.681807433861539
11,34,4,0.111043920532736,-0.0173981819337617,-0.265664772654716,0.239048464132271
12,34,4,0.392775521951438,-0.0488473482941283,0.303022816770565,-0.406278367558489
1,35,4,0.102041884525615,-0.0139669731643564,-0.252452786005717,0.185978696858039
2,35,4,0.153136864252279,-0.0339372918334399,-0.224481057635894,0.447718985066119
3,35,4,0.394127411716867,-0.0437945226275925,-0.721691989518509,0.0250443470525721
4,35,4,0.067411415114895,-0.00646075915415388,0.205873925355968,-0.319259993781515
5,35,4,0.0992466887124215,-0.0137276222919521,-0.218235283334697,0.202930921606023
6,35,4,0.699633193447136,-0.0777138846817545,-0.484323773036595,-0.571376631538404
7,35,4,0.355238784507098,-0.0362830985168805,0.374686606142756,-0.496318378098418
8,35,4,0.299521734684297,-0.0237712759581896,-0.685388132609321,-0.0634450428162677
9,35,4,0.142620145647225,-0.0134298737726126,-0.0381560130142439,-0.033136952455757
10,35,4,-0.640786887556083,0.0431502367212076,0.0824887310960694,0.972335529992156
11,35,4,-0.705197621415241,0.0472806444325971,0.194924469468757,0.752089626327058
12,35,4,0.134246110519516,-0.0130754618434904,0.123732785872669,-0.27504425773853
1,36,4,0.366203309830414,-0.0416316973108329,0.367201257458834,-0.575216679637313
2,36,4,0.679561972627355,-0.0441380389175096,-1.59042651977249,-0.512099653247614
3,36,4,-0.339158705742471,0.025177798337184,0.267795400481852,0.55873455655151
4,36,4,0.16266251434051,-0.0193796025106911,-0.451530406799221,0.128272386951744
5,36,4,-0.20090470066206,0.0183528079780829,0.108817848674529,0.304504402699745
6,36,4,0.0226895941356429,-0.0107965209296241,-0.112890930541219,0.364924796502429
7,36,4,0.261884099726836,-0.0292307324717277,0.3096794213107,-0.426148543043365
8,36,4,0.209805675088323,-0.0241405060520218,0.284788945173007,-0.421226577140241
9,36,4,-0.440949190634674,0.0326574298188896,0.155419148237479,0.273910369984306
10,36,4,-0.0876393710720422,0.0038719805419875,0.00637004132660102,0.256473067935288
11,36,4,0.733976425995709,-0.0937531869766599,0.157352365945262,-0.824315756947521
12,36,4,0.15472398785417,-0.0273332316278322,-0.223486811413997,0.325513768548465
1,37,4,0.213776095773438,-0.0216686702946414,0.169959483924047,-0.281288687802461
2,37,4,0.529536807504884,-0.049011605548425,-0.929844287172585,-0.0823781421762548
3,37,4,-0.00664567855821069,-0.00715485325395128,-0.0932770649591933,0.365997440015748
4,37,4,-0.0452186140918085,0.000617032030309541,-0.103387449749452,0.246545155931055
5,37,4,0.482632558998435,-0.0536644874072588,-0.113105312435377,-0.529522707666392
6,37,4,0.358027681321972,-0.0380922908528785,-0.571881636309778,0.0336347450727916
7,37,4,-0.183937316557106,0.0135444733409436,0.0547039946769038,0.272193878396595
8,37,4,-0.178289663154095,0.00950269027926182,0.0707697797060602,0.455559928263186
9,37,4,-0.230342551467578,0.0183055332449977,0.156790175658454,-0.0579010188860286
10,37,4,-0.154340078010191,0.0121319317389064,0.140827542625284,0.103636210015883
11,37,4,-0.0782753293490713,-0.00710059196136608,0.0367234893187755,0.381985885089324
12,37,4,0.0775551952441191,-0.00903809835318566,-0.103910729417239,0.0898693499023653
1,38,4,0.306624744431173,-0.0321557583890328,0.337959908206837,-0.468427188258094
2,38,4,0.116768155219402,-0.016476497780786,-0.231468808342678,0.226175138766789
3,38,4,0.352048464589087,-0.0399308176100392,-0.476218600714965,0.00075806556357598
4,38,4,0.297102983255921,-0.039557515148488,0.49715605414312,-0.653265789533971
5,38,4,-0.432358841829415,0.0354849934170273,0.474142141558006,0.267016753800418
6,38,4,0.0819527949566573,-0.0179743130278456,-0.180101451341739,0.331752571948406
7,38,4,-0.102844901110748,0.00850600852070627,0.278382386614388,-0.108803718683967
8,38,4,0.151819947631809,-0.0170680272891804,-0.271404573441489,0.0850224333959318
9,38,4,-0.226794512857914,0.0167403756801407,0.101271946757214,0.448250181412939
10,38,4,0.203268934321823,-0.0165159747714245,0.190708719578937,-0.312679366878647
11,38,4,0.438010601057544,-0.0377995846434514,-0.76817547272295,-0.238315833588086
12,38,4,0.320730483786743,-0.027810081893527,-0.431743108014065,-0.342186770019473
1,39,4,-0.0711068682198208,0.00448296255958597,0.0752807776511484,0.0616197572736316
2,39,4,0.528099002760513,-0.0591865809487786,-0.157451623611008,-0.541211321196198
3,39,4,0.179750968534849,-0.0265524911214495,-0.309764613777916,0.254099499728766
4,39,4,0.316862207288264,-0.0278673505934166,0.318482386912023,-0.435175304337349
5,39,4,-0.161369526582914,0.00627976710797051,0.0829944070346608,0.46508266279046
6,39,4,0.0993641366827243,-0.0153133005429979,-0.215214737756427,0.22424934548696
7,39,4,0.257976013214658,-0.0184097916258242,-0.676020351234902,-0.0458007664384431
8,39,4,-0.254316489336093,0.0212410484403589,0.172442131625301,0.0284525403685023
9,39,4,0.323314453990889,-0.0396992855383497,0.0881028375556046,-0.692447166294305
10,39,4,-0.250216550901693,0.0188371083892882,0.126791292916059,0.271598519629893
11,39,4,-0.133776610778984,0.00506831720610133,0.0125765155303455,0.432960011669185
12,39,4,0.134515354744174,-0.0125455044353105,-0.0487181513934918,-0.0623566585220873
1,40,4,-0.256005370881518,0.0192400543772952,0.142993245519527,0.40218275574845
2,40,4,0.16337288427885,-0.0203597613695915,-0.406218428143974,0.0679152741328268
3,40,4,0.370040962901756,-0.0483722165991919,-0.733962119804538,0.0576086928742785
4,40,4,0.264755605147869,-0.0176927207542663,-0.523318024478764,0.030056920735606
5,40,4,-0.15294141513382,0.00814572457627971,0.0276030204494585,0.384844466480321
6,40,4,0.193670329084296,-0.0201696962824338,-0.207204324451586,-0.0283621410378137
7,40,4,0.338580348439562,-0.0266107542895363,-0.707317800912904,-0.0836208399065579
8,40,4,0.424218798047669,-0.0388977450477427,-0.757880561665696,-0.177696377511631
9,40,4,0.0491723029882497,-0.0114671693310673,-0.143988833447034,0.292078151651818
10,40,4,-0.220611468516734,0.0188299695105549,0.135349302851893,0.354992607795692
11,40,4,0.126069400493764,-0.0155538155041897,0.281759550886267,-0.414733969993699
12,40,4,0.682423199928848,-0.0812635779952689,-0.0357891509696014,-0.62178014008629
1,41,4,0.428441506427295,-0.0395376091427429,0.389011822129331,-0.505955987156121
2,41,4,0.133327167973217,-0.0166176701302458,-0.30260267675713,0.167010635337125
3,41,4,-0.0904767629452834,0.00455511305585442,-0.0134575833808871,0.358093419391902
4,41,4,0.244669050784205,-0.0246094405713026,-0.59781065248438,0.0305819927155742
5,41,4,0.341429991714184,-0.0416435229443895,-0.644182216506442,0.0710250960147542
6,41,4,1.02261153452841,-0.134595889874655,-0.296113665049414,-1.01568491691215
7,41,4,0.183805744657792,-0.0166755217533136,0.0698152531174891,-0.258511863445171
8,41,4,0.242327564547464,-0.0310699858637966,0.419401536338687,-0.599852872788929
9,41,4,0.249947858488705,-0.0279290641876172,-0.460913275728018,0.0826770376434831
10,41,4,0.245749757908949,-0.0317933379416932,0.464629264039708,-0.594205419867488
11,41,4,-0.1549842818755,0.00936623670076708,0.0487631134702182,0.356690030385354
12,41,4,-0.107409779663319,0.00994997415917332,0.0830248295562352,0.132904264599287
1,42,4,0.419346392017312,-0.0268975652986857,-0.797696317691152,-0.147815917708365
2,42,4,0.627040448395928,-0.0560644588082809,-0.71094778395867,-0.595471115277621
3,42,4,0.119065478349792,-0.0192507863868868,-0.233939268356518,0.268782727173768
4,42,4,0.0909997535223478,-0.0119159901996754,-0.310361662996777,0.193073165932907
5,42,4,0.21862271362839,-0.0250130839553184,0.315494932210101,-0.415381527847529
6,42,4,0.130457598809221,-0.0270032381927737,-0.194581392132206,0.368025597857975
7,42,4,0.299505357221183,-0.0311325871882654,-0.0629593895133095,-0.404443930399959
8,42,4,0.0973986784516225,-0.0116793582767739,-0.253920487685479,0.0757268454964445
9,42,4,-0.00441031433343695,-0.00165047915512259,0.268826896685498,-0.234360203921753
10,42,4,-0.174414764521182,0.0166493682658202,0.117620940860824,0.170757028779651
11,42,4,0.209600720838548,-0.0203761587463105,0.160818416765987,-0.255673404223208
12,42,4,0.352326227654838,-0.0437899905680593,-0.650309904817404,0.0755412040923737
1,43,4,-0.0722121118975377,0.00424405533328677,-0.0616929975279491,0.225729719480931
2,43,4,0.244574999104719,-0.024485604152952,-0.392963750168462,-0.00570725062468677
3,43,4,0.140076435496514,-0.0150890567369976,-0.251265816623625,0.0624936112813758
4,43,4,-0.380727788767518,0.0261561718997277,0.300926677220096,0.373985873313934
5,43,4,0.291847114255085,-0.0350758091267834,-0.526392663750075,0.0649603054240052
6,43,4,-0.115172932525492,0.00731276977243557,0.29324230247468,-0.20583514196875
7,43,4,-0.123171079663982,0.00833069611237609,0.0759996771869566,0.151182520905594
8,43,4,-0.773245053722307,0.0530679145598298,0.489436424903277,0.281040482694516
9,43,4,0.0557481757856714,-0.00555976065649535,0.0427682912236836,-0.180233138752861
10,43,4,-0.0446932828623852,0.00117569992280341,0.181884506894949,-0.0783909857470507
11,43,4,0.237697901257542,-0.0237865711048298,0.0835708235011271,-0.173342877189254
12,43,4,0.132000771567629,-0.0222789636454393,0.41854025319068,-0.601713643541937
1,44,4,0.332266797019475,-0.0254490211432577,-0.636090113653729,-0.0628632646910665
2,44,4,-0.0990661305681189,0.00954363323306923,0.0123813454801672,0.136196267231348
3,44,4,-0.164222905545459,0.0132268081019046,0.159368788961427,0.351823164241723
4,44,4,-0.108413208597129,0.00304625453106364,0.0471793357151623,0.379188898718705
5,44,4,0.221173276129103,-0.0252209512685374,-0.384061251458901,0.0965739286766432
6,44,4,0.401792059119567,-0.0568465823214565,-0.571470374683919,0.174725997963219
7,44,4,0.287762075474135,-0.0289523882972591,0.295822149726548,-0.414723705975186
8,44,4,-0.108283224584425,0.00445263563863337,-0.00928741556945021,0.341303344269151
9,44,4,-0.561151199845028,0.0411615780500154,0.270882593291429,0.48426836431231
10,44,4,-0.264134047549384,0.0197729952304676,0.185832933999591,0.337666902319523
11,44,4,-0.0490088027556747,0.00332317572875745,0.0249800813192415,0.142449930015424
12,44,4,0.706339904626066,-0.0820483554375117,0.0460471275567252,-0.553386613186527
1,45,4,-0.119304054218082,0.0106769393784565,0.138420292269443,0.111963898260563
2,45,4,0.506021694140529,-0.0456608522117958,-0.99484537081151,-0.181621070161856
3,45,4,-0.104663210715457,0.0102993603786581,0.152610054045237,-0.0108377889939499
4,45,4,0.396734773512361,-0.0293664968088326,0.34452489449677,-0.444449270650606
5,45,4,-0.115878930568463,0.00326541374568642,0.0127231489173066,0.394973700415389
6,45,4,0.502661595839416,-0.0659758997720282,-0.638085174564634,0.0741761388372887
7,45,4,0.0799789068519813,-0.0107025471677112,-0.324463920528976,0.166706162122679
8,45,4,-0.0988651049828761,0.00749123061291106,-0.00764338848420907,0.213570818875339
9,45,4,0.0821427939890928,-0.0120550185305895,-0.195007186756587,0.22423983887829
10,45,4,0.145179369637228,-0.0133965322863058,-0.292044871898864,0.0628057638621004
11,45,4,-0.398197347568574,0.0326483752803568,0.220870779874862,0.321378566530424
12,45,4,0.282127487292392,-0.0330472918676596,-0.401748851015313,0.0528371919043163
1,46,4,-0.244700418070615,0.0176087411842085,0.138462857737104,0.282847729395288
2,46,4,-0.354839221713142,0.0256648994644472,0.139306253569163,0.549121139985238
3,46,4,0.437674418393491,-0.0531258605704663,-0.750360129123614,0.0490885769444143
4,46,4,-0.367106336257606,0.0276452922087512,0.245324914234108,0.365629028841824
5,46,4,0.642063941351387,-0.0619427086704971,-0.704588774837091,-0.546009357731806
6,46,4,0.042182648005654,-0.0129553148695616,-0.130651999592757,0.356291028043688
7,46,4,0.295793678414494,-0.0292385202924888,0.274804605503952,-0.387184838130078
8,46,4,0.348913790855052,-0.0416824881116321,-0.542971230150851,0.140833443470665
9,46,4,0.4462382645142,-0.0527934046508851,-0.736002051892101,0.0404515092393567
10,46,4,0.198028758032113,-0.0138734891766649,0.305049184056292,-0.373195646541289
11,46,4,-0.067549683592438,0.00576193978090999,0.00467499977875207,0.0557221795151504
12,46,4,0.130729950828415,-0.0151934417054721,-0.196032656475706,-0.00688761225057586
1,47,4,0.251469046580774,-0.023029223956332,-0.484828997535764,0.074644528859666
2,47,4,0.167383513479066,-0.0245973086080175,-0.313494477380483,0.262923725230519
3,47,4,0.36248023466161,-0.0635786029384622,-0.422209039712467,0.365069801741696
4,47,4,0.343085713018025,-0.024789063263476,-0.624606137447882,-0.264874028105645
5,47,4,0.243553745467587,-0.0320638874690525,-0.456227763665119,0.166441455671818
6,47,4,0.344776412476939,-0.0371832073807692,0.162810361867867,-0.384314862708591
7,47,4,-0.126428159518695,0.00985592200460253,0.0130599490824336,0.169858023224779
8,47,4,-0.434441680333068,0.0333433936276024,0.260966135073221,0.2950206906895
9,47,4,0.0582441483900183,-0.00799716687099397,-0.202824006667486,0.123900326762869
10,47,4,0.306187588413121,-0.0234453734445003,-0.717089685341759,-0.093288104069564
11,47,4,-0.0962331996322141,0.00228199194134132,0.00466999819807229,0.375872082477315
12,47,4,0.172085050591349,-0.0214285382126317,-0.105894169349477,-0.029020365070829
1,48,4,0.304078378967935,-0.0282145596485355,-0.708837000726281,-0.0419361671904544
2,48,4,0.496982191336749,-0.0438370518176036,-1.06120229322919,-0.210490471575162
3,48,4,0.481522984767646,-0.0514560232924398,-0.965564288905004,-0.0458740613556014
4,48,4,0.179714253935395,-0.0208507949209294,-0.461587845200172,0.126643181732169
5,48,4,0.385189814442684,-0.0412726806489074,-0.69048679055948,-0.0258639833008652
6,48,4,0.350937244094812,-0.0599181609633288,-0.403354917966854,0.365339949638883
7,48,4,0.288711168559162,-0.029501324795534,0.317036799293428,-0.435271162582752
8,48,4,0.457600788508412,-0.0497029484575689,0.0522382674113273,-0.519505833957919
9,48,4,0.158313321870531,-0.0166706162770952,-0.223605145761342,0.0293611028861577
10,48,4,0.120285002277676,-0.0152226895897917,0.226154553091175,-0.321970023149341
11,48,4,0.221734665265039,-0.0219309015083711,-0.584013926285435,0.0773065603963708
12,48,4,-0.248233360084833,0.0211114940027916,0.183004732113789,0.269380107129353
1,49,4,-0.0636393364880648,-0.00144852289188557,-0.0862877731059112,0.345479712191575
2,49,4,0.262625881668654,-0.0256493385713749,-0.254206729338851,-0.174791047122526
3,49,4,-0.12164896008618,0.00246428436107762,0.116533558574859,0.467975211912943
4,49,4,0.0404843264206413,-0.00607163588565596,-0.222984704090071,0.218166283634834
5,49,4,-0.191036892717651,0.00996492850526179,0.165680353409611,0.454909580521028
6,49,4,0.540892848405623,-0.0596008943294595,-0.795589580671364,-0.0725166437604718
7,49,4,-0.336015048884819,0.0295233950960427,0.298081638024462,0.321030819027974
8,49,4,0.100499027101865,-0.0115052988025061,0.179347353114915,-0.306333245725665
9,49,4,-0.0176144212480455,0.00186803809135291,0.0585776340149755,0.0324921339685172
10,49,4,-0.00699104830723102,0.000175083761351752,-0.181574877478688,0.133708183764949
11,49,4,-0.200295218984421,0.0143615813700404,0.117779950257891,0.293487599241076
12,49,4,-0.154488513795929,0.0138646502134462,0.0914209507960928,0.190291266390685
1,50,4,-0.247230237399606,0.0191975279370811,0.169010380375898,0.35677083623722
2,50,4,0.487048583604514,-0.0447815046091874,-0.570806695343485,-0.404153221221935
3,50,4,0.455711692159366,-0.0549722395009683,-0.814570409355531,0.00210598037945132
4,50,4,0.0376501446317053,-0.00562829874805346,-0.22462407489993,0.235896174300925
5,50,4,-0.0540450139918524,-0.00386044173393913,-0.0728163522644213,0.387188685096284
6,50,4,0.0844662911984416,-0.0123076588000355,0.325093245091887,-0.463975451235134
7,50,4,0.460074334061741,-0.0444889964839053,0.461130907255576,-0.59469759548073
8,50,4,0.185335594692088,-0.0187717773062281,-0.353931883113944,0.0275432304636424
9,50,4,0.301623602859528,-0.0325324971566449,0.131362544391169,-0.502898786288462
10,50,4,-0.00200074744826628,-0.000649419726680262,0.0646941474640602,0.0135662057020633
11,50,4,0.107508640161028,-0.0113394577912357,-0.342496390463943,0.0899087247357622
12,50,4,0.663779832056406,-0.0616070441855383,-1.21420487815261,-0.270456054653687
1,51,4,0.137330312386351,-0.0141175070892189,-0.273944354750061,0.0370608520295896
2,51,4,0.190306313178668,-0.027960845684441,-0.371031850682784,0.236245524075877
3,51,4,-0.0518169166614424,0.00372562059560555,0.0041928791327023,0.187205593545122
4,51,4,-0.494422325353102,0.0331930528040875,0.201023844891651,0.698039978633096
5,51,4,0.660085321123426,-0.0501549945009832,-1.2695688472261,-0.464403824077121
6,51,4,0.198256662852887,-0.0431027952046324,-0.0669721258005456,0.645471057694591
7,51,4,-0.709632103831055,0.0491469995181555,0.397970881899865,0.542105209266892
8,51,4,0.738401249249136,-0.0714452350411485,0.0981492580914416,-0.771988785338862
9,51,4,-0.0313467398033466,0.00180681275927066,-0.108319956679325,-0.021445199395673
10,51,4,-0.0297902547331333,0.00258451453931387,0.11289038046825,-0.124655657268934
11,51,4,0.778963286430232,-0.0777661765273654,-0.652769143844803,-0.834161900757582
12,51,4,0.298117680900977,-0.0293128911579099,-0.159174275685351,-0.302764892117451
1,52,4,0.374025362919227,-0.0337227199986366,0.326099831289264,-0.433138109189732
2,52,4,0.275142128531296,-0.0271427385193577,-0.379206972988931,-0.112882934766137
3,52,4,-0.363558369490041,0.0275746806355763,0.177004932673227,0.280618705230095
4,52,4,0.525205323895438,-0.0459489639171802,0.48162242033688,-0.606211261853116
5,52,4,0.345573858138292,-0.0386496196759154,-0.621441464097054,0.061432755161709
6,52,4,0.172130168608351,-0.0287271523257887,-0.279768481679339,0.310050382028373
7,52,4,-0.0761409683411275,0.00480681242332672,0.110795340827726,0.0304313804064937
8,52,4,0.348384619245154,-0.0330981705120373,-0.318151655244928,-0.294005719654038
9,52,4,-0.0987015081500874,0.00788987859204539,0.00190325316820053,0.120454916499394
10,52,4,-0.0383593539546193,0.00135970787714326,0.0012647207573346,0.147083285218131
11,52,4,-0.497876152631077,0.0394798945291027,0.285990501440826,0.377354834479882
12,52,4,-0.0446498365597318,0.000356194743189166,-0.0517649545079187,0.331593042679789
1,53,4,0.445644179517464,-0.0517469224039094,0.410527079980248,-0.534199116441716
2,53,4,0.0951196173587299,-0.0192529829118432,-0.154370958650836,0.289245774137313
3,53,4,0.250126634327367,-0.0254108499978403,-0.181200188235338,-0.176018164632249
4,53,4,0.0875605407622296,-0.00593691652268304,0.140267408316014,-0.202895962535545
5,53,4,0.0333534412829599,-0.012719756286065,-0.144736908468674,0.345758704800602
6,53,4,-0.146099184943615,0.00971185411557526,0.0278581801939104,0.406557250637836
7,53,4,0.140285873132061,-0.0168274688703137,-0.163826743566317,-0.0699007085128314
8,53,4,-0.0932301836181299,0.00185283917546623,-0.0372803061271365,0.367046302927818
9,53,4,0.213025096063733,-0.0191983103866425,-0.142174829326419,-0.241653299951447
10,53,4,0.0597330856791986,-0.00681178474967303,0.0119207565683544,-0.0691397767901812
11,53,4,-0.284902774729493,0.0227010786292082,0.282866885723997,0.0179427100784866
12,53,4,0.234993897679233,-0.0262141597853605,0.274879993427445,-0.411158171033435
1,54,4,0.620968692165154,-0.053707442007086,0.533671597129917,-0.662010263426794
2,54,4,0.382280267590188,-0.0433229278990351,-0.680707794537347,0.0489727504038046
3,54,4,0.305041660401279,-0.0473842633571466,-0.468834306745492,0.245583689724916
4,54,4,0.374557665291154,-0.0384264532519187,0.477869255785982,-0.621164329996181
5,54,4,0.119502075875318,-0.0206179711515291,-0.280349835940146,0.220605168331407
6,54,4,0.162280816079325,-0.0239382835496503,-0.300410282046873,0.239185033486626
7,54,4,0.173066335224724,-0.0202996165498929,0.276676823448756,-0.385377802008015
8,54,4,0.0109599174037432,-0.00463955524673227,-0.103535858094015,0.266419636696662
9,54,4,-0.156613280155056,0.012079700398154,0.0901233186304705,0.335348219111001
10,54,4,-0.0718449099703684,0.00320855222636256,-0.0890110462470913,0.301700101327381
11,54,4,-0.241058812133946,0.0165049158787569,0.133146984258884,0.422256843091386
12,54,4,0.210767303318408,-0.0230401103186965,-0.194766599440571,-0.0917591953242654
1,55,4,0.209040781171301,-0.0191637295972945,-0.22747371143068,-0.164143640585047
2,55,4,0.025457036442415,-0.0102182590211578,-0.145203161018107,0.329703583399916
3,55,4,-0.0966310898048712,0.00359143351410775,0.0191628417120118,0.39703520409614
4,55,4,-0.369483377979372,0.0274280355153386,0.244345265880851,0.363658603911995
5,55,4,-0.241082589788253,0.0147108623712144,0.088990489040547,0.483054310930988
6,55,4,0.104871419621136,-0.0131900273562204,0.25362631598567,-0.359933600982337
7,55,4,0.558839978544084,-0.0642819539399562,0.607543934112483,-0.785336548709092
8,55,4,-0.265781731545283,0.0233571198155057,0.130589981231062,0.256700510799069
9,55,4,0.119634532456003,-0.0179818600695736,-0.202551292266965,0.245431241564353
10,55,4,0.409953169495013,-0.0431732658627538,0.448475562039155,-0.598123041862314
11,55,4,-0.00643925589854842,4.93957149067277e-05,0.41228316122609,-0.432740496570573
12,55,4,0.107486699900784,-0.0111122500694195,0.244213995552441,-0.312960846643974
1,56,4,0.0735809067938081,-0.0107025755446247,-0.135654404363708,0.260313731028709
2,56,4,0.455136463892654,-0.0380161791079777,-1.06127579783675,-0.15481300880942
3,56,4,-0.133350449052204,0.0090839036996095,0.0376587337621358,0.343938752551904
4,56,4,0.315881268169635,-0.030926370314843,0.291479156989907,-0.404829705724974
5,56,4,0.0539976423830666,-0.0119435367233473,-0.163714605327263,0.281198950677719
6,56,4,-0.343593726233017,0.0263150165482097,0.152836075623164,0.551167648383594
7,56,4,0.019404701729431,-0.00190557684730737,-0.18650304306171,0.111461765699851
8,56,4,-0.543317054830693,0.0351479579604164,0.03674149620493,0.75782160435698
9,56,4,-0.147631681142455,0.0100396155809796,0.143371190495908,-0.11156202660422
10,56,4,0.152262799064589,-0.0111284002723469,-0.286452338408928,-0.0747802083584495
11,56,4,0.181393939617303,-0.0189736561529848,0.137740171891246,-0.263723983855526
12,56,4,0.0527452764887891,-0.00452817118316544,-0.0630751777930453,-0.248105993135696
1,57,4,-0.320241481013473,0.0219101578046756,0.255338612495973,0.357006301940666
2,57,4,0.670836409603428,-0.0526573396419287,-1.04049211893181,-0.61464919777334
3,57,4,0.678161694177895,-0.0688335420615213,-1.18441278088035,-0.213560576674338
4,57,4,-0.375013690658324,0.027147925315292,0.267286118244466,0.460228898215446
5,57,4,0.567224882590523,-0.0586952223377119,-0.393499725954575,-0.560830894141024
6,57,4,0.0885381471064123,-0.0265358437374972,-0.0187481255175479,0.597019261622988
7,57,4,0.397543671021202,-0.0278601715280523,-0.781777631640183,-0.315975824948653
8,57,4,0.0469438028495215,-0.01074870409552,-0.17915613295949,0.26744373713688
9,57,4,0.340791218781469,-0.0344172624388106,0.185733765582345,-0.298518483042893
10,57,4,0.275953818878201,-0.0202245134360572,-0.610914632683866,-0.140802374216702
11,57,4,0.276828286162072,-0.0306015844226377,-0.48916421987216,0.0178918066088791
12,57,4,0.202789802416775,-0.0306886019899029,-0.362858920011882,0.243360871498024
1,58,4,0.190286703997615,-0.0173172808748881,-0.314900920930253,-0.025168146350704
2,58,4,0.458318230898226,-0.0426909496589831,-0.90272541587256,-0.0888505419943846
3,58,4,0.184514451732422,-0.0256135393130061,-0.34298496784125,0.20779536671669
4,58,4,0.388944183933939,-0.0282109479764702,-0.726477965048067,-0.311807355468894
5,58,4,-0.0903212194691817,0.00181413103138299,0.0143253416198675,0.37846432393679
6,58,4,0.0487941660360541,-0.0173060214077136,-0.0939243192308624,0.420460869509648
7,58,4,-0.100719804812071,0.00971288821375228,0.129744781502856,-0.0957532740200318
8,58,4,0.332514330933267,-0.0383459842776807,0.300775855636468,-0.434990905908744
9,58,4,-0.252210302308379,0.0189055222888728,0.185187921469655,0.273709680894012
10,58,4,0.302090823163811,-0.030049832986962,0.304479233661382,-0.421759660387974
11,58,4,-0.360799464274415,0.0294838010579824,0.224027582283621,0.136763201222674
12,58,4,-0.134271181169563,0.0117620559979467,0.126136687119711,-0.0555255176811176
1,59,4,0.256524369315095,-0.021117433247406,-0.623113080919398,-0.00850983163588788
2,59,4,-0.14906411931884,0.0133351951524214,0.0545055931864857,0.135713037037925
3,59,4,0.293178542884769,-0.0416791280289973,-0.464402646778948,0.207347897292602
4,59,4,0.0215343453654983,-0.00681750495853157,-0.137192424799379,0.229416233930601
5,59,4,0.146127094019815,-0.0242936438905219,-0.283624966834755,0.266884977209909
6,59,4,0.351977806312824,-0.0438109644411944,-0.592334532681003,0.110668113458339
7,59,4,-0.217144240642771,0.0201436566798093,0.254174928106209,0.184711506505704
8,59,4,-0.427618389970177,0.0332693511195019,0.230076371744105,0.325736037137043
9,59,4,0.17146808900257,-0.0131742560266373,-0.162016861060237,-0.0513543373096126
10,59,4,-0.258170704190398,0.0200531519694438,0.179611101642732,0.221939745943487
11,59,4,-0.344383065724389,0.0257644958461125,0.203669944850171,0.458415328589006
12,59,4,0.105899759098715,-0.0180444210802154,-0.225399872698552,0.254515811084526
1,60,4,0.0702143369590407,-0.00823308091992541,-0.248147495967534,0.181011653452999
2,60,4,0.333457959067797,-0.0453588490071594,-0.605482667208913,0.133725855382483
3,60,4,0.361131969237795,-0.0484176232147541,-0.56787447218483,0.150245608173312
4,60,4,0.263881569817104,-0.03168395355046,0.374802759858636,-0.509276324450719
5,60,4,0.361369637141711,-0.0370697065529424,-0.250606092989669,-0.298825667409205
6,60,4,0.373210096979796,-0.0468085489960108,-0.586798976618606,0.121858842266527
7,60,4,-0.27052990802842,0.022316516272568,0.163275655289381,0.264674962903931
8,60,4,0.405078154675493,-0.0373863177519478,-0.629701782653176,-0.220957413985972
9,60,4,0.634732329413205,-0.087330393984669,0.475645025053974,-0.702090674504279
10,60,4,0.455034419270063,-0.0561093947768282,0.555380533928245,-0.733358917703
11,60,4,-0.4514562752067,0.035430790831469,0.205987966943358,0.420325717614403
12,60,4,0.341714673095791,-0.0364470300400941,-0.0218630340935758,-0.419351127503902
1,61,4,0.467516268031049,-0.0312314965848871,-1.25722396319948,-0.300994347886295
2,61,4,0.356488568040147,-0.0333490444276307,-0.631141650232003,-0.167681208982762
3,61,4,0.162717692728953,-0.0219934166466358,-0.313601544770418,0.194688730674033
4,61,4,-0.489085147810003,0.0408479069776013,0.373042930464054,0.466944729728094
5,61,4,0.300854934457015,-0.0344132623792207,-0.512021423048822,0.106814718081067
6,61,4,0.343173739499712,-0.0456408643677343,-0.493680758356189,0.16546814320157
7,61,4,-0.145771432918089,0.0103087179175032,0.105258453861193,0.177406815280501
8,61,4,-0.446570580204143,0.0339168532027848,0.257855275087789,0.490431084581592
9,61,4,-0.0190367055862319,-0.00321170588473,-0.0753433065162288,0.31289598593106
10,61,4,0.427433747122432,-0.0516654796672964,0.530739765925178,-0.695099620522086
11,61,4,-0.118647869800743,0.00868214893958998,0.0210451138401927,0.258230819686868
12,61,4,0.325375224455508,-0.0273567194331154,-0.330879276309433,-0.181976459626841
1,62,4,0.0182327723053826,-0.00680045104614557,-0.130318285989944,0.231100366006579
2,62,4,-0.217538583683239,0.0141622352511723,0.13487923392609,0.427232354446443
3,62,4,-0.0213401612550007,-0.0117218653680974,-0.00823963396696652,0.36944676968158
4,62,4,0.213007666631571,-0.020529234753438,0.0829069808338027,-0.305055388444058
5,62,4,0.124975271025203,-0.0228861369147194,-0.246946304884834,0.326138107946356
6,62,4,-0.0129781588246892,0.00103212060308644,0.0389364934745809,0.0984377005753063
7,62,4,0.0713440781452177,-0.00699079917627091,0.0206069530140275,-0.102483012278549
8,62,4,0.100442479704568,-0.0121799633943912,0.031230974670764,-0.169847487533044
9,62,4,0.263423834247943,-0.0345558107541865,-0.397579765316179,0.193474889503673
10,62,4,0.177975713384176,-0.0189288017387825,-0.439357591765958,0.0705720047026728
11,62,4,-0.0298133957694978,-0.00354467510794225,-0.0835874907032189,0.326613297028233
12,62,4,0.282434776888265,-0.0418246487708995,-0.380029466775492,0.224751514105026
1,63,4,0.27749878847092,-0.0228695820701188,-0.453173546427983,-0.208893929484068
2,63,4,0.119752023559257,-0.0164502844118328,-0.256004345545706,0.208694247429583
3,63,4,0.486702876590442,-0.0511017131298877,-0.978010667573747,-0.112384906244585
4,63,4,0.512413358297557,-0.0657707756191412,0.608134018076567,-0.807906954602022
5,63,4,-0.562805397791033,0.0424226151382634,0.360473116636826,0.461968663276022
6,63,4,0.449653746706396,-0.0540815787351537,-0.677194952911221,0.0313436733710179
7,63,4,-0.00156924013758137,0.00259776842942678,0.014054619077543,-0.0431450000649665
8,63,4,0.55636414672461,-0.0691928750140317,0.183186688319051,-0.671320071943258
9,63,4,-0.00182312185462287,-0.0122016070042445,0.0398261222342711,0.586403156097289
10,63,4,-0.214279749231674,0.0169569253622931,0.19034113745998,0.0677617274581223
11,63,4,0.293677582835077,-0.0247351092136793,-0.420557888241849,-0.169206921099483
12,63,4,-0.167672823880536,0.0143312956102578,0.114592475954317,0.00842359621221512
1,64,4,0.252718209866132,-0.0309054895238814,0.338108717443181,-0.470074242223672
2,64,4,-0.290047218402474,0.0239498930164317,0.192840786430925,0.30758662562231
3,64,4,0.262440018029808,-0.0332352075801419,-0.290634220874886,0.172031787279978
4,64,4,-0.0650214716461527,0.00379805189394371,-0.0767220916260304,0.26618338621252
5,64,4,-0.0597368131405232,0.00301562737449754,0.0168304254826641,0.198956780488345
6,64,4,0.972652276193057,-0.0903293278518569,-1.08243675678072,-0.976437601138291
7,64,4,-0.462107669329347,0.037281832151294,0.207927548876905,0.346064473735868
8,64,4,0.193860514449658,-0.0202070174802305,-0.361545560471173,0.053642592142178
9,64,4,-0.448526955541536,0.0338161023445056,0.225321450183612,0.178827163667569
10,64,4,0.0302705871531752,-0.00400429027657365,-0.0465989373317538,0.0804018165694786
11,64,4,0.032432709627309,-0.0128836895523823,-0.141414650594572,0.346525310805421
12,64,4,0.289682842011262,-0.0329136048459935,0.249729592357421,-0.421371901148032
1,65,4,0.333616620829712,-0.0230707414781161,-0.684418621330382,-0.126074752293487
2,65,4,-0.387087271344255,0.0299907788672179,0.28505968331174,0.484974325132021
3,65,4,0.247334947254941,-0.0444284323937784,-0.318505547293684,0.366744607978655
4,65,4,0.130054432676312,-0.0133435644714277,-0.39891469567478,0.103928127843156
5,65,4,0.884914870436373,-0.0784639125258423,-0.948980395996355,-0.97005430216904
6,65,4,-0.140515195246595,0.0116005913610003,0.0573589849028954,0.256770268770311
7,65,4,0.126119595893696,-0.00662470622929408,-0.339642479452841,0.0913304169666141
8,65,4,-0.0820996276122601,0.0077982941514593,0.12564573839497,-0.00283033903071581
9,65,4,0.0157279537946887,-0.00127331669219567,-0.118919622425113,0.0713553916763809
10,65,4,0.156593671667449,-0.0133806898500445,0.263560698320972,-0.373027509797804
11,65,4,-0.0749760643013235,0.00639156225269668,0.0949968457111806,0.0728894752604283
12,65,4,0.0916766892166255,-0.0136648970346814,0.40144098686697,-0.577023859772906
1,66,4,0.255377367877322,-0.0223647734143404,-0.51277716141206,-0.028318336287386
2,66,4,0.378595781874065,-0.0371870253045083,-0.834492021621251,-0.0513602075491213
3,66,4,-0.224514151298236,0.016494069944146,0.123305380505158,0.431388758037852
4,66,4,0.436731954096653,-0.0295203848977547,-0.960556212243736,-0.290117107691884
5,66,4,0.452602846076392,-0.0484026357276399,-0.305171805074022,-0.37609069332481
6,66,4,-0.131785717863139,0.00745552992309011,0.0702088982492912,0.372304591677121
7,66,4,-0.0439067915795766,0.0027847207585977,0.0957798507596362,0.0181733328104029
8,66,4,0.170505988195989,-0.0190382837976694,-0.308516384652943,0.0501394887210038
9,66,4,0.192336043119173,-0.0173763140289459,-0.42122735443711,0.0599330527910609
10,66,4,0.46348285552774,-0.0429136062849691,0.449678795143986,-0.571407781143643
11,66,4,-0.0708896115547387,0.00450720655821154,-0.032514795534793,0.15252772131437
12,66,4,0.148702073381309,-0.0244659932467533,0.389327201044439,-0.537468111628436
1,67,4,0.362949130579842,-0.0250662901540968,-0.738873803749573,-0.197062412534238
2,67,4,-0.560509805444267,0.0412324157015733,0.385276924256793,0.588481951197816
3,67,4,0.505436483585426,-0.0544582912307646,-0.995032318464217,-0.00298374351096052
4,67,4,0.30271817006283,-0.0284502526262026,-0.695079579468596,-0.047735925767
5,67,4,-0.0519697081276219,0.00126516831018871,-0.0521587007431435,0.250882560208704
6,67,4,0.435147411995991,-0.0491650509421834,-0.690831713070296,0.041785053349899
7,67,4,0.125489609831398,-0.014459001403536,-0.386899110626478,0.142673387314788
8,67,4,0.0222623404892464,-0.00858460673073412,-0.144831870848404,0.287438651590516
9,67,4,0.0581281122062538,-0.00607350163759107,-0.198515948522728,0.0625604267394157
10,67,4,0.363644075667009,-0.0411608492176732,0.426242191615907,-0.563628485597998
11,67,4,0.863943534664815,-0.108357226246203,-0.196408582039012,-0.927863758647642
12,67,4,0.0649923305448395,-0.0119625498027078,0.294310085811123,-0.437924953280006
1,68,4,0.116611229741372,-0.027892838932654,-0.321044005242257,0.242076625701345
2,68,4,-0.0250895521506618,-0.00185951468651238,-0.0636211519075628,0.161161253480482
3,68,4,0.0865044572842349,-0.020700474443878,-0.14613940394854,0.39109669943431
4,68,4,0.129941164109536,-0.0120785494749374,-0.397847155907408,0.14133555530741
5,68,4,0.273746384570613,-0.0352685944796273,-0.518022068467773,0.154219382955844
6,68,4,0.346014446692801,-0.0410193097176057,-0.396081043972847,-0.0505076543474998
7,68,4,0.385953350339644,-0.0382261315398122,0.398670932141718,-0.520912368961688
8,68,4,-0.253421654213248,0.0236067626085421,0.345373512756408,-0.152669989791288
9,68,4,-0.129059480784731,0.00933223523298812,0.0380543093321315,0.239984981186762
10,68,4,0.218117482844779,-0.0202307045667325,0.0730425708192118,-0.264886325557478
11,68,4,0.141400850086675,-0.025172185023591,-0.272626264843047,0.315438661692986
12,68,4,-0.0873469228284744,0.00520218329609741,0.0156631522535937,0.123898686809861
1,69,4,-0.242907702980578,0.0181793562882205,0.172771633537777,0.308311526683492
2,69,4,-0.10050356507551,0.0048306183669031,-0.00656820205139045,0.313539765285348
3,69,4,0.303322671921684,-0.0454764168809897,-0.442283053957971,0.251613959681316
4,69,4,0.369947746322675,-0.0332686775604276,0.326808241402372,-0.435344159384653
5,69,4,0.0567415488632275,-0.013325906275126,-0.160494183635847,0.307712972817343
6,69,4,0.373946308830942,-0.0394689902987126,-0.443003541411715,-0.129064772827745
7,69,4,-0.0782111319867835,0.00587906280288312,0.0848024534314949,0.0136656071984369
8,69,4,0.298395160382669,-0.0383905844277839,-0.567227814124503,0.133840127881895
9,69,4,0.00307663135698174,9.21554589166136e-05,0.186720315620128,-0.102249132773782
10,69,4,-0.564286890054745,0.0395544388874004,0.258474468093644,0.702555271103963
11,69,4,-0.474225977246399,0.0339586498421385,0.286175965768827,0.599819413249312
12,69,4,0.18072514143124,-0.0212190671626217,-0.265906973570148,0.181139580523787
1,70,4,0.418441277457551,-0.0527415978514371,0.565274124941288,-0.736460588970361
2,70,4,0.354613548035534,-0.0433322205339808,-0.590343629158908,0.131491167680524
3,70,4,-0.0367714376830017,0.00227596137420632,-0.0555613978620624,0.0948830615714084
4,70,4,0.299776281595854,-0.0311730286593347,0.314966166381397,-0.429148718152339
5,70,4,0.447855654246913,-0.0489801389023335,-0.755222572882375,-0.0715356615158191
6,70,4,-0.174522989109353,0.0142341703213195,0.0714556567930683,0.276251131421644
7,70,4,-0.508501704734506,0.0398100945485489,0.264113798535565,0.389023572499001
8,70,4,-0.169969827169678,0.0107997994114244,0.0987815174817374,0.286916052887813
9,70,4,-0.150540555627888,0.0108505760901016,0.0657651553783588,0.320839088241653
10,70,4,0.134893439062891,-0.0123124242940186,-0.341874583784554,0.0602278473533288
11,70,4,0.134978652257406,-0.0140290961650909,-0.0690944099819712,-0.0538442915337415
12,70,4,0.467436790214582,-0.0493863361120855,-0.274914749976772,-0.390707941475059
1,71,4,0.607582700232022,-0.033239527071717,-1.37318509721699,-0.585845700804747
2,71,4,0.492783682371324,-0.0455344024738958,-0.939363876259621,-0.0880009109920412
3,71,4,0.229346287496408,-0.0251083973539737,0.282296676508391,-0.436420916533257
4,71,4,0.479571350498262,-0.047443649548572,0.479477746213271,-0.614328167293666
5,71,4,0.667562916186566,-0.0586125976699935,-0.920281126499771,-0.598567019681267
6,71,4,0.573498833817903,-0.0689675267715002,-0.847064572385501,-0.0726868323251561
7,71,4,0.0129130932813633,-0.00264802779259234,-0.0708334218059388,0.1455664418194
8,71,4,0.276547968415634,-0.0261128838213627,-0.521216639818803,0.0204643096109446
9,71,4,0.590276482749794,-0.0574630649911031,-1.15270515705319,-0.15230184408773
10,71,4,0.405881765744724,-0.0280499726198291,-0.80554030184844,-0.323688081836034
11,71,4,0.104389102131043,-0.0170934622033575,-0.254430127579598,0.246904100937164
12,71,4,-0.0584043810944225,0.0035900556184466,0.00613189749868337,0.0859097307713129
1,72,4,-0.222547026733544,0.0155279643789945,0.149494174468886,0.288538299002134
2,72,4,0.195959478740256,-0.0209138533986429,-0.388129397067211,0.109356490292365
3,72,4,0.694265330644564,-0.0780734095830175,-1.07862851441275,-0.164988773594392
4,72,4,0.192915786210204,-0.0242372893689238,-0.515043977604546,0.0989215350997707
5,72,4,0.184657250975767,-0.0382328717222237,-0.200312943430223,0.404518738240274
6,72,4,-0.0791396659145429,-0.00228270893153867,0.117104302754245,0.59223127842557
7,72,4,-0.367622568245858,0.0281875288638978,0.24855779295195,0.349691839285437
8,72,4,-0.213115132692328,0.0187385406746931,0.183269025433113,0.00492857174340508
9,72,4,-0.0133733961401422,-0.00150394860971538,-0.0496769342805313,0.243238967798214
10,72,4,-0.550417767639538,0.0432982288649802,0.268871118570671,0.545355700704634
11,72,4,0.0705733006848854,-0.00373080504907018,-0.16438815897383,-0.141633871066657
12,72,4,0.0799963190647679,-0.010291083510765,-0.173163332951665,0.161018162001514
1,73,4,0.223100044385168,-0.0213790968722874,-0.416882212052209,0.101501995047031
2,73,4,0.520375650570903,-0.0394138842379783,-1.0949578464464,-0.327541883111315
3,73,4,0.466329214762422,-0.0614155373858323,-0.761938314458244,0.093664826174506
4,73,4,0.238834924956834,-0.0306500548905539,0.405284674337182,-0.534715177946971
5,73,4,-0.26471416661922,0.021496950852881,0.158649065581394,0.196646712272816
6,73,4,-0.0989558732103553,0.00846765430171732,0.0456724345436334,0.194161560561026
7,73,4,0.192437928579519,-0.0187361594419688,-0.476596487532559,-0.0033606931940741
8,73,4,0.144795928731525,-0.0155176865390744,-0.0965121550809959,-0.123370646064148
9,73,4,-0.124395568813813,0.0099965908146619,0.0255631033580519,0.202019162152173
10,73,4,-0.0444041789247592,-0.00055678343584438,-0.0606953405555775,0.212240182618482
11,73,4,0.0843555657389773,-0.0114307246652808,-0.11618459450137,0.204525437305873
12,73,4,0.600106921207895,-0.0547721081640324,-1.47665260282719,-0.102587176851408
1,74,4,-0.0133361520307161,-0.000672357787587426,-0.119539403274098,0.190664603306194
2,74,4,0.371814184971481,-0.0355525554142326,-0.705053342901222,-0.0902082575094166
3,74,4,0.650673376407773,-0.0584906036002953,-1.44142603102948,-0.231216235809735
4,74,4,0.38126400532443,-0.0492420676710023,0.540772334598951,-0.723809388176342
5,74,4,0.458254574146837,-0.0482361595298321,-0.310039561249016,-0.386975736196931
6,74,4,0.736154124199803,-0.077367235632192,-1.03820113922102,-0.339781363151294
7,74,4,0.182858506622606,-0.0163656273551263,0.185636179753283,-0.29486370764289
8,74,4,-0.0104230424756945,0.000727663399045038,0.157231867795422,-0.0581014904678204
9,74,4,0.0534713412314945,-0.0110744695104552,0.352846357697775,-0.495758114652227
10,74,4,-0.037773164163699,0.00329191111067546,0.0942075586569736,-0.0963400811855191
11,74,4,0.233755844395517,-0.0241078017538141,-0.173256519311794,-0.210912011325824
12,74,4,-0.17471027095994,0.0125470118301939,0.0841685887892935,0.257199892468518
1,75,4,0.608068984561778,-0.0311719502314203,-1.31731762230809,-0.632511346763629
2,75,4,0.295624310446006,-0.0295475395227311,-0.58520729410661,-0.0468986618731571
3,75,4,0.238927689415347,-0.0292550836619067,-0.281424928076085,0.160491611016706
4,75,4,-0.311412622043068,0.0237645468604447,0.240153655383534,0.342341282950258
5,75,4,0.00408780076083083,-0.00605694505816993,-0.124458886721879,0.276255282895104
6,75,4,0.173349366165183,-0.0183286022263632,-0.297862633244859,0.0322914765447092
7,75,4,0.113802048589527,-0.00988118722068235,-0.27687590502878,-0.0172318580355074
8,75,4,0.0164627651571286,-0.00266537549387675,-0.01459477239756,0.129438093053385
9,75,4,0.664312855722384,-0.0710411632284604,-0.637432749202199,-0.46331851034628
10,75,4,0.221488960108695,-0.024900676667358,0.100618436814208,-0.38118556532272
11,75,4,0.507473112237657,-0.0472391927834204,-0.50286715400054,-0.4631180599726
12,75,4,0.0448030222621861,-0.0143081266364936,0.360699658390083,-0.465624599837279
1,76,4,0.137668970178096,-0.0152451472617235,-0.298850419377905,0.158826011462474
2,76,4,-0.0224233239489101,-0.00225571109802175,-0.064447423963168,0.160479144228537
3,76,4,-0.457030389931638,0.039928579308825,0.389678153640612,0.298571393782582
4,76,4,-0.502183557086147,0.0343969774218744,0.306354287333448,0.579878034750475
5,76,4,-0.0569085518107107,-0.00201715650208231,-0.0604214718311015,0.375881006926822
6,76,4,0.415212580578792,-0.0409423429024289,-0.640343428762603,-0.150187234084351
7,76,4,0.258880140095724,-0.0281067633832402,0.291728107362003,-0.409073783520305
8,76,4,0.137684450005051,-0.0124961364442884,0.0856782927963109,-0.17493582471023
9,76,4,0.211693891850808,-0.0234055025012505,0.272399400589031,-0.420740406265128
10,76,4,0.00642324334614727,-0.000398601947326756,0.179550449651301,-0.144227917266251
11,76,4,0.393343212297195,-0.0498476509465971,0.504813176651158,-0.69210665052754
12,76,4,0.283135991600418,-0.0351931021790464,-0.567265897765174,0.067673399878513
1,77,4,0.145863159417212,-0.0194919458952609,0.357726897262788,-0.457362973318348
2,77,4,0.47089954454459,-0.0402321178896737,-1.2720733322927,-0.0672080424186535
3,77,4,0.505118720200371,-0.0512430744179977,-1.31716847256654,-0.00461718647005207
4,77,4,-0.0302288919753546,-0.000555215857104156,-0.141060025192043,0.269131597507602
5,77,4,-0.0366089164401807,-0.0106369326242867,0.0259575123328256,0.493743383062602
6,77,4,0.0347546044032628,-0.0121168227309194,-0.12664585571622,0.347001604926509
7,77,4,-0.358459643368881,0.0259555086609902,0.298105040177605,0.374112271107751
8,77,4,0.115931257248593,-0.0246476749109538,-0.196615647768345,0.38031398053042
9,77,4,0.0883892002645883,-0.0130917600106792,-0.171869458897877,0.238766509755456
10,77,4,-0.390810684938733,0.0312419455450923,0.191871877766792,0.327523197834008
11,77,4,-0.184560001609165,0.0143405475002703,0.081708383154015,0.28331972368805
12,77,4,0.792450490046492,-0.0717020444925203,-0.837468656323994,-0.820201501345977
1,78,4,-0.0511364145655867,0.00653970522744376,0.158995808924339,-0.0579326751078153
2,78,4,0.628525004554311,-0.0568000128533416,-1.14245469436836,-0.307745951335709
3,78,4,-0.0287422582857011,-0.00134457020412976,-0.0599953600351792,0.241663403456682
4,78,4,0.345225270448079,-0.0392759748026853,0.480936897971587,-0.632790033676056
5,78,4,0.195968044176376,-0.0304655650268578,-0.247810006774985,0.283824024131643
6,78,4,0.386596582946185,-0.0459553533774536,-0.637652295111217,0.0746151905907606
7,78,4,0.128315569486911,-0.0104036877746764,-0.068697168025977,-0.043471010542483
8,78,4,0.0844523090675635,-0.0148537960534905,-0.219245038902781,0.268987487321535
9,78,4,0.489367615034042,-0.049552071553707,-0.887505936630881,-0.063469265017623
10,78,4,-0.464264568312209,0.0388902916608538,0.32586261548325,0.427343774812027
11,78,4,-0.22913550944431,0.0177768768382642,0.290017151992285,-0.0971598862438058
12,78,4,0.299745633353776,-0.0356340428300196,0.361414801567849,-0.490424409087278
1,79,4,-0.603946395074449,0.0462567826545391,0.463331995530691,0.353220779025646
2,79,4,-0.0199162964470741,-0.00419931028117797,-0.104307793692868,0.301811740308861
3,79,4,0.672745936260879,-0.0569294720170213,-1.2711769953804,-0.385031711043133
4,79,4,0.145992781417612,-0.0160455977531653,-0.420784182828986,0.0774518534632707
5,79,4,-0.0481647171919131,0.00391484748409418,0.127655342546967,-0.044711778059118
6,79,4,0.329660435205065,-0.045108426853534,-0.541659558887798,0.171212545828737
7,79,4,0.415900579229834,-0.04786739173387,0.507584539920702,-0.673481247716441
8,79,4,0.232345529610586,-0.0246178342748712,0.115708626718042,-0.272818064139547
9,79,4,-0.206230239204985,0.0203773981506289,0.122477982765376,0.0417085147269166
10,79,4,-0.540698143220409,0.0395426188961147,0.334380358704808,0.498281202404855
11,79,4,-0.0137937682404833,-0.000508132954389667,-0.0594680842607609,0.153723007207221
12,79,4,0.809533462335775,-0.0814530126149753,-0.698397866293526,-0.785783546514903
1,80,4,0.336836878925725,-0.027992730232661,-0.797135564129979,-0.0937438458536523
2,80,4,0.0156948158335479,-0.000644766636582832,-0.0577034799619217,-0.136049614163609
3,80,4,0.394208558475505,-0.0562438617046521,-0.558730626985823,0.209884111626289
4,80,4,0.20861187538373,-0.0204870903895962,0.0707631546768062,-0.263689862856224
5,80,4,0.0627306091890616,-0.00534097141128683,0.0825400562258992,-0.210071971447276
6,80,4,0.166340981892421,-0.0318053688892032,-0.239413374353708,0.357233113839721
7,80,4,0.0574867952707279,-0.00591535415081035,-0.22036105281293,0.176433378725874
8,80,4,0.0533810699165415,-0.00593301221112065,0.0303260590061807,-0.028320210169463
9,80,4,-0.341715171118415,0.0260606512496558,0.196283919211642,0.147645811864313
10,80,4,-0.590423269846638,0.0442120311892082,0.3820355739358,0.397166297595092
11,80,4,0.0684121673708645,-0.00759004732689702,0.0186610765154482,-0.116242752309065
12,80,4,-0.349172243702925,0.0301881196583853,0.193594550103396,0.32228036482912
1,81,4,-0.0465425356393952,-0.000666345439715259,-0.0816879763590423,0.335202555889717
2,81,4,0.644882055771362,-0.0508632175812462,-1.28871734753034,-0.393227436349291
3,81,4,0.33137684024719,-0.0422560719359093,-0.373731761807141,0.152202148794494
4,81,4,0.178520161192188,-0.0204735381032995,0.184546001186597,-0.2965567091612
5,81,4,-0.242173151638119,0.0155670511494051,0.0648953049885323,0.501253341025016
6,81,4,-0.141806237940314,0.00950788020683686,0.0144291797093066,0.424202145241517
7,81,4,-0.10225392602534,0.00631099250805929,0.0777680353519368,0.0807404723892951
8,81,4,-0.761852399175457,0.0534602932028751,0.446358161777655,0.52244751499022
9,81,4,-0.173989049652678,0.00933036368048131,0.182533879407439,0.421414090179273
10,81,4,-0.472213334083388,0.0359971191110961,0.293892878529058,0.463731529899225
11,81,4,0.126539371621534,-0.011308207724209,-0.0852040596130861,-0.131852050683008
12,81,4,0.429194400677761,-0.0541968932369339,0.380671279748292,-0.585483185080161
1,82,4,-0.389944255550751,0.0298708503782314,0.272894135885038,0.364229541840106
2,82,4,0.543602227238263,-0.0470074263975649,-1.02358842733093,-0.295469707000853
3,82,4,0.337037526684774,-0.0597344778680848,-0.433946166632698,0.270404891173215
4,82,4,0.443909444488485,-0.0589143685380252,0.52985117294733,-0.68606141710148
5,82,4,0.438229301262969,-0.0451823098415268,-0.699187472061304,-0.139644417404844
6,82,4,0.0632948708252373,-0.0255974331616458,-0.110127355227776,0.497808623161602
7,82,4,0.29414752774821,-0.0340367300571501,0.411398977424248,-0.549159567859034
8,82,4,-0.510604662399778,0.0395871387028163,0.2016448188275,0.35629493939936
9,82,4,0.041615280292022,-0.0140559903377325,-0.0733264036275385,0.303495579452202
10,82,4,-0.213797865249537,0.018056412967177,0.116240786206129,0.177207439053068
11,82,4,-0.0679214484631307,-0.00269099630568363,-0.0197542128053743,0.411787183089443
12,82,4,0.511281281876488,-0.052943736019268,-1.14079849181003,-0.0835195963215008
1,83,4,0.106707772271902,-0.0116569901540814,-0.235765188029411,0.062793398166934
2,83,4,0.65133433922067,-0.0489097481122949,-1.35106104676169,-0.441780697703653
3,83,4,0.138810963572476,-0.0240579708548323,-0.239135188583477,0.301768038999083
4,83,4,0.0636620838396941,-0.0105470358101838,0.298961876516252,-0.282290656319977
5,83,4,0.175302591938818,-0.0310198078923617,-0.31074759721898,0.306526294097392
6,83,4,-0.278318302894145,0.0242440991063398,0.157023675748428,0.291058883087153
7,83,4,0.195610909882616,-0.0201303288548152,-0.413355142862777,0.0978938765401423
8,83,4,0.0784534898627624,-0.00813355368282839,-0.117804829492188,0.0970677004445963
9,83,4,0.134163831810064,-0.0155500875977658,-0.233850696702688,0.166973165067548
10,83,4,0.0396949119432174,-0.00719222555563275,-0.25453926039674,0.19614442413624
11,83,4,-0.737264660007983,0.0479240214178905,0.235023053681413,0.739924397667708
12,83,4,-0.0864497698866025,0.00226391015597797,0.0399203887693057,0.292852966565178
1,84,4,0.0864339059026581,-0.0136834084233537,-0.231791824160141,0.207225592415427
2,84,4,0.32985419850953,-0.0257480638014725,-0.742640779630294,-0.106717196564024
3,84,4,0.567378696970226,-0.0662064555528303,-0.942092047310947,-0.0334725313122209
4,84,4,0.230762937405339,-0.0216020476526445,0.0827867405905799,-0.322063828485606
5,84,4,0.210973581503486,-0.0294640055186766,-0.271419338091572,0.181242967546587
6,84,4,0.232253175490627,-0.03807108362595,-0.331206273784732,0.257842591375179
7,84,4,-0.24919009675606,0.018667159927037,0.157275066225522,0.293245628381563
8,84,4,0.12648422342494,-0.0115013003669427,0.299157825552624,-0.423618693644924
9,84,4,0.0612219435521452,-0.00997977701275265,-0.140453586123835,0.234969728115168
10,84,4,0.039143316544555,-0.00413366014998607,-0.00662830200634271,-0.250407920142957
11,84,4,0.509709439441242,-0.0609670147651464,0.0922246120545364,-0.612769830201973
12,84,4,0.00291160624901254,-0.00273370255976521,-0.0812971644307481,0.153061751480265
1,85,4,0.192598733130024,-0.0172809244446687,-0.351549444068874,0.0607063380659422
2,85,4,-0.395349930856122,0.0328180310460607,0.259158915034569,0.28483364815847
3,85,4,0.784544166693317,-0.067703632256518,-2.03759711282205,-0.0998333934168393
4,85,4,-0.285411257469851,0.0144838914270889,0.141307408701518,0.454749744650078
5,85,4,0.73074361976833,-0.0851111794145657,-0.287188715951908,-0.759570952336825
6,85,4,0.0763284503040691,-0.0227911684755878,-0.115240735674329,0.430837663471973
7,85,4,-0.262029678461816,0.0190831093298809,0.126381499237097,0.273874063150459
8,85,4,-0.221455487803591,0.0192875430023418,0.161090164498887,0.164004207884289
9,85,4,-0.133981483393423,0.00853019115882306,0.077035682723068,-0.140007575916628
10,85,4,0.192463046169979,-0.0172232322827124,-0.234856402697518,-0.0795213404076231
11,85,4,0.262146661396329,-0.0364700843626287,0.394867357245301,-0.567728110807512
12,85,4,-0.215641333170258,0.0207337772769898,0.169465167918755,0.0956752580287861
1,86,4,0.757274611577329,-0.0308213143540721,-1.76938358189823,-1.07771803350299
2,86,4,-0.147963989245833,0.00619886967260415,0.121495955421896,0.413792855562073
3,86,4,0.686135052978728,-0.0641297347111449,-1.75033768511587,-0.223162771430108
4,86,4,-0.0393495507986915,0.00058074212107325,-0.000843449853834453,0.039891813129347
5,86,4,0.442613318297007,-0.0507251985681023,-0.784827854566277,0.0278378489007812
6,86,4,-0.357828442304467,0.0253056624084099,0.205712930014723,0.636805730613484
7,86,4,-0.517640094288804,0.03752298574628,0.328656843913138,0.483561150842905
8,86,4,0.436896288060847,-0.0439139902791904,-0.680896406094839,-0.132833679927678
9,86,4,0.290868247240975,-0.0307836420226442,-0.345889114159376,-0.031655249707546
10,86,4,0.0599966389389294,-0.00564089125142599,-0.0800915779611048,-0.115935813207603
11,86,4,-0.153843851852227,0.000511711341659158,0.127836619946757,0.391428914497694
12,86,4,-0.177261017238515,0.0159767964528088,0.10672677270797,0.206628184006303
1,87,4,0.166090941493059,-0.0168573374703441,-0.455192922061743,0.0657184629452503
2,87,4,0.0909355732284789,-0.024208726647007,-0.102744423146977,0.425204610012458
3,87,4,0.211907899496685,-0.0310421303187867,-0.381001270739281,0.230381463071685
4,87,4,-0.283904693111578,0.019300648304567,0.0983399162731771,0.461844933125018
5,87,4,-0.294081456864339,0.0243581423604888,0.17408736674465,0.304490892616659
6,87,4,-0.0727387907433447,-0.000361312137018287,0.0897754558185001,0.571848751097827
7,87,4,0.189591970690816,-0.0190243260393599,-0.427679155079518,0.048823155071254
8,87,4,0.0297108799747472,-0.00538327805374573,-0.168611560844354,0.118106279138282
9,87,4,-0.227849901138582,0.0215947884496616,0.194229641670814,0.277729056253903
10,87,4,-0.330231950242209,0.0312975552632866,0.202576112531718,0.253278905954626
11,87,4,-0.0360014570944735,0.00386455152831828,-0.00581138131026658,-0.0038389360798377
12,87,4,0.258807701445365,-0.0250071368312165,0.0538741866978964,-0.241156322408586
1,88,4,0.383452111788667,-0.0292430001655129,-0.87023797153475,-0.167205419846401
2,88,4,0.500355812670512,-0.0454942438715575,-0.966440457739568,-0.209248385633025
3,88,4,0.346994751160258,-0.0578333931976067,-0.387949901448426,0.343806564238354
4,88,4,0.0723107991774797,-0.00794275345563181,-0.276738051011767,0.124374514234538
5,88,4,1.06048003025266,-0.142182118878367,-0.239543172075246,-1.14896054235371
6,88,4,-0.259690107206832,0.0203490368258747,0.185655415680071,0.43104005972052
7,88,4,-0.170485783849672,0.0183608267753123,0.22942494261022,-0.0205942372532473
8,88,4,-0.404177637775833,0.0322552489480908,0.318248004103863,0.400853725085716
9,88,4,0.437638022477747,-0.0405384657437455,-0.549801021517684,-0.31141281132926
10,88,4,0.0371087738788482,-0.00541582293655401,0.127332988397747,-0.163621820891287
11,88,4,0.744534055983108,-0.0475179960794313,-1.57225558505312,-0.641416732743266
12,88,4,-0.125771451749318,0.00978171115152175,0.0360757684478016,0.199253778463259
1,89,4,0.230427281657434,-0.0239328368278439,0.0374368669343431,-0.339794270465366
2,89,4,-0.288180603781487,0.0210225930515537,0.276158914421762,0.408298830606506
3,89,4,-0.0986984313174923,0.00569329328603475,0.0410795898735338,0.319049474124529
4,89,4,-0.493679922982209,0.0374033684070494,0.305769853917583,0.521110118629727
5,89,4,0.297338161878001,-0.0343972162744201,0.312685600328174,-0.408581522744266
6,89,4,-0.160833363311356,0.0139915608627404,0.0531249280846633,0.397097771357942
7,89,4,-0.208599225752838,0.0143536827011274,0.107474711592221,0.340614799680555
8,89,4,-0.574168648603201,0.0463599553419094,0.371375763206561,0.50457466039909
9,89,4,0.122122741215678,-0.0149719874541221,-0.161350409163397,0.183803774280134
10,89,4,0.109749075727506,-0.0101866401056914,0.26407024271564,-0.33639890604678
11,89,4,0.00679935395335145,-0.00791032817566296,-0.126347464187622,0.314861472913772
12,89,4,-0.295676249699974,0.0237114778551851,0.15747647974425,0.390075720560491
1,90,4,0.152536546257896,-0.0152373977862908,-0.326505717111308,0.109443924950181
2,90,4,0.160035307069454,-0.0231329040591607,-0.309442249831515,0.249630566679944
3,90,4,0.26746811158968,-0.0351390179393639,-0.507056120441714,0.116025134815828
4,90,4,0.386961319203067,-0.0299584371816628,-0.82468657112535,-0.121278448940913
5,90,4,0.535002829237513,-0.0472850035896819,-1.1176148373697,-0.214710268243405
6,90,4,-0.54954372266268,0.0433274062981648,0.342537320176253,0.582763238254222
7,90,4,0.17086146207269,-0.0134825286886065,-0.38700601588153,-0.0343299676384846
8,90,4,0.337868070882332,-0.038603797109258,0.45752937977818,-0.617996839853378
9,90,4,0.391445164410667,-0.0419399871171827,-0.278469951055806,-0.308968165806646
10,90,4,0.0175187698903565,-0.00247457991152013,-0.1459031699334,0.0916901308256427
11,90,4,0.0923372859197176,-0.00890411295564578,0.0863941184116351,-0.239520754046008
12,90,4,0.0244478922229567,-0.0120559678601045,-0.0884006160847827,0.382227687124907
1,91,4,0.370229838895564,-0.0405890633777753,0.441546674578907,-0.578482468268286
2,91,4,1.01182934943008,-0.119945669895387,-0.481111373543243,-1.10896679134029
3,91,4,0.483686417904696,-0.0589095397941087,-0.83282720583398,0.0158532405918123
4,91,4,0.319786001969665,-0.0232288711179493,-0.678162163636876,-0.180748291067162
5,91,4,0.164062912047676,-0.0306225659438072,-0.282737253378098,0.341802409185782
6,91,4,0.440816747572814,-0.0467466473912258,-0.224118224347793,-0.298694660919285
7,91,4,0.518782721712083,-0.0303892893024932,-0.994508574991088,-0.421334283582764
8,91,4,0.0613006986545006,-0.00944163536769302,-0.204404597883675,0.114777106134274
9,91,4,0.0930257704229421,-0.00865925996946715,0.00152798815439089,-0.0577987138882993
10,91,4,0.0501576368477649,-0.00626838640075078,-0.232755090069039,0.107861772938999
11,91,4,-0.0632938530601393,0.00267960151017272,0.166989147739381,-0.0525393779781625
12,91,4,0.026032068568057,-0.00805485703568445,-0.125564918564689,0.281929502344464
1,92,4,0.462382105468004,-0.0294319356202838,-1.03458540972267,-0.320778589756893
2,92,4,0.213553043936005,-0.0238319368033373,-0.421806181141256,0.00677009749849766
3,92,4,-0.0139209170235126,-0.00659977685645413,-0.0735264585799026,0.373008580337156
4,92,4,-0.03168151910857,0.000909889314677736,-0.0894159694742815,0.219354528181508
5,92,4,0.151359476444156,-0.0239778610685701,-0.289979633014646,0.287359998890735
6,92,4,-0.150179630830362,0.00982506239721326,0.0464906825470238,0.399037002070641
7,92,4,0.137419910601492,-0.0123864761055402,-0.337387865571065,0.00420443821766327
8,92,4,-0.286538471508059,0.0217245974969489,0.212118837042264,0.0602095936492684
9,92,4,0.257229262840402,-0.0270785902981748,-0.317465442464218,-0.0220696924657659
10,92,4,0.131705382704095,-0.0151211895062719,0.252525674587465,-0.346587513025579
11,92,4,0.205140636178486,-0.0204426163942426,0.0499492169267899,-0.259925179167343
12,92,4,0.672395709539837,-0.0756999408148137,-0.269325721914616,-0.670489609126109
1,93,4,0.258758303362576,-0.0230060252821362,-0.584726852701931,-0.0722228904954579
2,93,4,0.0756843039697753,-0.00934769150394088,-0.194896174373222,0.0953538525031264
3,93,4,-0.461555826515223,0.0378693111264401,0.351053668183881,0.474735658903963
4,93,4,0.0159718152091101,-0.00299963287148225,-0.136752382476285,0.134651839253231
5,93,4,0.463350992263892,-0.0547671456026323,-0.691346181466465,0.0358687991698978
6,93,4,0.536622484949083,-0.0618582211038517,-0.826278183343054,-0.00724617945834183
7,93,4,-0.170956337252323,0.0146605252551542,0.0815829041706641,0.23980288664479
8,93,4,7.64899914335268e-05,-0.000902125268959104,0.297769368887116,-0.311667322668191
9,93,4,-0.105880144966116,0.00663281751367151,-0.00197276886448259,0.20315037532478
10,93,4,0.124974528096479,-0.014863457936094,0.233538303672365,-0.329586707029711
11,93,4,0.164144385423058,-0.0193238449864161,0.308328472683434,-0.437677264878528
12,93,4,-0.200324612300192,0.018540207673901,0.106481328113967,0.261580959254534
1,94,4,0.139082236188434,-0.0124897954074506,-0.320320779979904,-0.0331003264777788
2,94,4,0.387555424631668,-0.0357049067022369,-0.856682147834455,-0.0965789876126523
3,94,4,0.0254335309308477,-0.0127262401095938,-0.0541229157130903,0.402613677717069
4,94,4,0.274393037410262,-0.0236823154469182,0.290303355496301,-0.393393615513594
5,94,4,0.273963652976526,-0.0282144819402888,0.013780355627687,-0.124435811958738
6,94,4,0.361370433688411,-0.0465260813559916,-0.614893074047229,0.122852027842325
7,94,4,0.2721407089792,-0.0232447940653054,-0.437646852974403,-0.130706099728518
8,94,4,0.0465197713223742,-0.00550103317399762,-0.00990797403573599,0.0317049304061799
9,94,4,-0.0330962333708876,0.00141369401184721,-0.0817844121085703,0.129274639331047
10,94,4,0.159237067889703,-0.011126264449716,0.191899307183497,-0.240786935130518
11,94,4,0.369702730766635,-0.0338315805631901,-0.679608383342587,-0.195382105018371
12,94,4,-0.0917844582877728,0.00855228927485125,0.0147709501623835,0.121786140766481
1,95,4,0.448586784667261,-0.0291056893795145,-0.972797419516105,-0.3386368683114
2,95,4,0.186881366005734,-0.0289873662696293,-0.373626512945487,0.22867261350142
3,95,4,-0.212399012324523,0.0131046541303268,0.216498681852617,0.532921622806355
4,95,4,0.175540764757539,-0.022130254230231,-0.473218098844358,0.152455016826872
5,95,4,-0.10546079822043,0.00565312999389064,-0.0140961696257155,0.289997749540384
6,95,4,-0.119522438622351,0.00766755734379372,0.304281440893158,-0.234622704085875
7,95,4,0.550893911300008,-0.0583197425753748,0.400173420385434,-0.550512531694842
8,95,4,-0.276210350230074,0.0216538597356434,0.154939546287464,0.341965050852236
9,95,4,0.404239542855015,-0.0325940754277386,-0.956806330318141,-0.106899851079509
10,95,4,-0.516582587967012,0.038865729513021,0.283764558631457,0.488492324985795
11,95,4,0.526730407163606,-0.0483561602225222,-0.535890373700638,-0.503826990462707
12,95,4,-0.418541727793191,0.0349427211071157,0.279316071498732,0.467131231426754
1,96,4,0.00332130779479615,-0.00427710167294545,-0.212693935970602,0.21765903320658
2,96,4,0.0622245130420275,-0.00798391568020428,-0.201194258644038,0.136185778806684
3,96,4,0.585682298049161,-0.065036752707168,-0.296683518548341,-0.512839933255807
4,96,4,0.0182701202120142,-0.00584285292030561,-0.163558265534517,0.18585721123508
5,96,4,0.229336765295405,-0.0406703968685801,-0.350847444516327,0.353967428022959
6,96,4,0.429922014517038,-0.0518196598047993,-0.638980295822184,0.077877008676509
7,96,4,-0.211286826866576,0.0168491163761052,0.185897162248571,0.179918841462779
8,96,4,0.191037183767493,-0.0201992805346837,-0.336790953923174,0.020516928502732
9,96,4,0.0336369825035955,-0.00293468971707627,0.0765656580572116,-0.0715095683264116
10,96,4,0.0597436141383079,-0.00728636019911648,-0.239683289637962,0.197335282521308
11,96,4,-0.0808111706579507,0.000517838719363566,0.0184352536945564,0.359955741828771
12,96,4,-0.0729902778543762,0.00588610751993462,-0.00168923039935867,0.159372507836056
1,97,4,0.393016297894815,-0.0400447956433485,0.430282185106074,-0.557357039307492
2,97,4,0.0333291961268488,-0.00833906359895699,-0.14795183041344,0.265056003987047
3,97,4,1.15168022226362,-0.159374538102305,-0.278009222053051,-1.21498985375515
4,97,4,0.124033526740186,-0.0119212005237894,-0.233026201898509,-0.041640158178602
5,97,4,0.30902452298198,-0.0350984549419926,-0.567497831177904,0.0360042182756986
6,97,4,0.229448854267703,-0.0237152858301406,0.0379248842989932,-0.143850051056327
7,97,4,-0.222707100501397,0.0157755479321578,0.189422622760292,0.316273342441004
8,97,4,0.0242178588005291,-0.00692293974706613,-0.131562503606696,0.201178625093911
9,97,4,-0.0684040509294294,0.00229159801207866,-0.017868531965033,0.326363815771287
10,97,4,-0.26163524885398,0.0199215325827663,0.213156283811031,0.345453854864555
11,97,4,-0.253165642550539,0.0262679975922277,0.15285508682527,0.196706755000543
12,97,4,0.338656368925776,-0.0373067173225386,-0.0344429496773406,-0.372611157857131
1,98,4,0.568150054077026,-0.0586572317516264,0.364263627918452,-0.47826085551203
2,98,4,-0.0646620607410631,-0.00810695395895402,-0.0244977231849742,0.51667048874318
3,98,4,0.496869632464663,-0.0426675313762971,-1.14252619240753,-0.137253324550121
4,98,4,0.00234845947697832,-0.00252262601268614,-0.162801810890493,0.221815923612143
5,98,4,0.17063814125971,-0.0216905016607956,-0.329714657701816,0.193817687961585
6,98,4,-0.23574742567903,0.0161622313257698,0.176089753055177,0.537431817428007
7,98,4,-0.00160790993102486,-0.00166104117566465,-0.130262560436752,0.182023021565471
8,98,4,-0.143885658553351,0.00942121776911418,0.0437205644240482,0.30874842715084
9,98,4,0.0975815522523035,-0.0119421604871311,0.0965538443182045,-0.269178131083869
10,98,4,-0.0586969188046499,0.00585706187374187,-0.00139041289542118,0.0370424904203948
11,98,4,-0.258522383496587,0.0273336773562627,0.141023202037223,0.162938535386523
12,98,4,-0.354691047212406,0.028785279748392,0.233357047585671,0.275298410796561
1,99,4,-0.00189264526214855,-0.00411951157850207,-0.177169384846282,0.268651804401443
2,99,4,-0.190267728473803,0.0181960580397852,0.0395439552846265,0.192294953646704
3,99,4,0.255902309090336,-0.0334689193296163,-0.430351478725324,0.177634233200997
4,99,4,0.307233180158385,-0.0256836336887626,-0.704172161730505,-0.0673479865956129
5,99,4,0.565437505563753,-0.0555297231244105,-1.05423875013894,-0.196687068058547
6,99,4,0.689680214719843,-0.075300516826747,-0.26888196733617,-0.627723886649534
7,99,4,-0.0477774608398586,0.00286742569279533,0.0808590579245674,0.0790166023228557
8,99,4,-0.115740972089998,0.0102423526447026,0.0777581570095584,0.107019986711652
9,99,4,-0.0203121973530122,-0.00177225147191519,-0.0730222213206409,0.28397516073857
10,99,4,-0.140371360264205,0.0121062896418324,0.1348115943314,0.0735631185143344
11,99,4,0.0693154088250323,-0.00881935271749455,0.210015578642952,-0.239894971058387
12,99,4,0.131768625830804,-0.0127536196982508,0.109550473195861,-0.160069722722536
1,100,4,-0.00733587943416516,-0.00453566715949364,-0.0762495748566843,0.256457925862157
2,100,4,0.54287058899952,-0.0656994007431293,-1.11256778635378,-0.208424541108447
3,100,4,0.489749319647885,-0.0637591953503066,-0.772447926200561,0.100163258252675
4,100,4,0.0993812823626094,-0.00594311853514302,0.382531350144688,-0.2791280969804
5,100,4,0.142126670392609,-0.027240563612268,-0.264984517263392,0.344899582497811
6,100,4,-0.308289958874015,0.0282444566286033,0.188019933644988,0.110823692844107
7,100,4,-0.189045423249246,0.0173482240910302,0.115518938615628,0.0607957885932072
8,100,4,-0.353932846374408,0.0274608969723062,0.181678802308666,0.312791962801903
9,100,4,-0.561627623704114,0.0417253236086899,0.265731672752668,0.390776834528869
10,100,4,0.230326355436109,-0.0242705035575258,0.0975053239343351,-0.348661719101834
