ID,SIM,interval,ETA1,ETA2,ETA3,ETA4
1,0,4,0.28647973340914,-0.023878818485511,-0.689902762151827,-0.109408400721883
2,0,4,0.205637078967666,-0.0384290295748564,-0.36045359760265,0.315860711129345
3,0,4,0.154076457235264,-0.0269135543118219,-0.281815491111783,0.290487045989224
4,0,4,0.120001637741658,-0.00904204143064062,-0.00491119166227957,-0.00676143084736338
5,0,4,0.167192411955725,-0.0282248877749618,-0.324688898785852,0.276078657638958
6,0,4,0.173504325347561,-0.0268894647249491,-0.277904384052162,0.269558968261298
7,0,4,0.0582355182694801,-0.00551938758916,-0.00104290645506618,-0.00656233799425068
8,0,4,-0.0473748122899434,0.00295856108429556,-0.0456907748341688,0.154222364359973
9,0,4,-0.00505127904267656,-0.00115667737870638,0.300712193655571,-0.224464067153097
10,0,4,-0.0143124302882867,0.000172058728599107,-0.0863060542699402,0.157355964128167
11,0,4,-0.0329344800154624,0.00488118720835406,0.0980871402358202,-0.131810515316166
12,0,4,-0.0345941707085604,-0.000893882141311442,-0.0716633121857973,0.293669531727869
1,1,4,-0.247155222176225,0.0212493561052442,0.121196210389536,0.302837680500867
2,1,4,-0.323957146670915,0.0245103729194779,0.138357779815799,0.355520450600448
3,1,4,0.394695107324621,-0.0518720229671797,-0.559612210296373,0.234760215707732
4,1,4,-0.0754009003265817,0.00628284923671048,0.00853890930081635,0.0928744436688453
5,1,4,-0.186986854193741,0.0136157459645385,-0.0141910384512484,0.341204091939372
6,1,4,0.116914410924114,-0.0107765446430121,0.0777359148042129,-0.17920260830459
7,1,4,0.375985951369073,-0.0262528577624532,-0.824078578112823,-0.231549419109749
8,1,4,0.0421201931424633,-0.00785636794290137,-0.161190543252495,0.204074579837274
9,1,4,-0.321561872158771,0.0243126423530674,0.211031285434851,0.101116279349804
10,1,4,-0.167825833584161,0.0109585860566271,-0.0398871425197318,0.257871396502881
11,1,4,0.359283191769185,-0.0355730042526202,-0.710028346495609,-0.0564895393859082
12,1,4,0.495334491576042,-0.0565411026332398,0.0288507045616872,-0.438892460245699
1,2,4,0.337074715619604,-0.024755478589557,-0.708540418550238,-0.208372337702971
2,2,4,0.389146261262168,-0.0362262203776681,-0.845933176553741,-0.0188543317946564
3,2,4,0.702609807577328,-0.0619803220694626,-1.1792813356549,-0.425177405147053
4,2,4,0.473184509927262,-0.0300586752882786,-0.993568867013253,-0.27817197723465
5,2,4,0.121328360016883,-0.0153740767958438,-0.256314525700066,0.207765767145324
6,2,4,-0.0278377299912694,0.00290978839889586,0.00417922228313569,0.0144749010488705
7,2,4,-0.0205989904164524,-0.00319079106605245,-0.169757561055419,0.263668437815843
8,2,4,0.134436509214687,-0.0169990347314116,-0.293171877021235,0.19923739334503
9,2,4,-0.585076726053176,0.0404847899375232,-0.194681915230305,0.774689223099344
10,2,4,0.341703040592141,-0.0382946874668098,0.18516156951578,-0.510872066023278
11,2,4,-0.0925258415394161,0.00883325639224472,0.0655637814673009,0.0961858249775378
12,2,4,-0.176468019233363,0.0131247483962684,0.0199647359703724,0.379249956484451
1,3,4,-0.08561785966453,0.0129678270230252,-0.112566116729417,0.264413357196621
2,3,4,0.16759901189047,-0.0178675705408799,-0.288443588314894,0.0232338712239457
3,3,4,0.417132354805039,-0.0409189933509655,-0.72470175440352,-0.112844318878581
4,3,4,-0.128272370330524,0.00495046716580781,-0.0775175186122956,0.276153507000932
5,3,4,0.451492980637571,-0.0431802575280674,-0.711477733839514,-0.222977496016519
6,3,4,-0.247306219735505,0.0192528224302648,0.0733138590122538,0.377950105134635
7,3,4,0.107161058246294,-0.0113373964060893,-0.358160298502972,0.0865161088778709
8,3,4,0.160080112493265,-0.0249328879725382,-0.317762674292632,0.260195725382259
9,3,4,-0.107445988697524,0.00559743323269903,-0.0301497187574808,0.341298861624911
10,3,4,0.178925303491692,-0.0151188197340903,-0.343404460674034,-0.0764706333264202
11,3,4,-0.0687642727135592,0.00641530988304469,0.104627201022969,-0.100726473867383
12,3,4,-0.50014435788415,0.0377177485177775,0.210804235813419,0.327384336869683
1,4,4,0.286114893827084,-0.0305795574204775,0.24846577861016,-0.486041470507385
2,4,4,0.802067400380786,-0.0921039573368258,-0.302302462024884,-0.872302604018732
3,4,4,-0.291814369210462,0.0239494431216811,0.138324104385226,0.199984510349848
4,4,4,0.178910441891437,-0.0167668159497878,-0.471843122473574,0.0422210644347198
5,4,4,0.135642319971998,-0.0263157963485506,-0.26542135949767,0.28755338546764
6,4,4,0.374671614730624,-0.0407568269864687,0.0119890781625896,-0.305531143152016
7,4,4,0.125085399979549,-0.0152537096429456,-0.316998575499701,0.173998708982824
8,4,4,0.0991628564323884,-0.00729227841362,-0.125028393617282,0.031354621115026
9,4,4,0.190347145694176,-0.0221305528247478,-0.319626327436522,0.153005246767583
10,4,4,0.00402772848239668,-0.0028605411432858,-0.152798192041227,0.206091413253288
11,4,4,-0.0290462748633716,7.06525491238449e-05,-0.0861182885988264,0.215392466081873
12,4,4,0.830702804780716,-0.117919332267181,0.222756909926625,-0.954641749078405
1,5,4,0.645420756146073,-0.0295028813018296,-1.66553998218135,-0.581298714030224
2,5,4,-0.322166528790577,0.0263093234842132,0.196655358708571,0.293575373761438
3,5,4,0.310283356841136,-0.0445127836297194,-0.465492848359512,0.252775001424265
4,5,4,0.401320757376389,-0.0364136023522307,-0.167675931477728,-0.419460321115023
5,5,4,-0.33809663411463,0.0237907736681858,0.216952976174159,0.441626953903042
6,5,4,0.494535481164227,-0.0522121825931494,-0.933262593619759,-0.0897460354606774
7,5,4,0.168863341199284,-0.0209800637389892,0.347691695417199,-0.43149921350552
8,5,4,0.225964466279084,-0.0264455269273699,-0.455653028132772,0.100331774016587
9,5,4,0.0189167185525404,-0.00307548581526341,-0.0627873947373147,0.125263718788985
10,5,4,-0.0367671138290447,0.000534296226206224,-0.105512128733203,0.210545748356582
11,5,4,0.0301234268217268,-0.0103708397459544,-0.182941375388168,0.275937184125257
12,5,4,0.450716299883814,-0.0399199187555184,-1.1043084523063,-0.0721938229652453
1,6,4,0.211287913967281,-0.0206616095238706,-0.540449867015263,0.0564252015328383
2,6,4,0.0452121206446069,-0.00826392477294421,-0.191959045218382,0.187434786638788
3,6,4,-0.0260684234497894,-0.00520124376368609,0.383098733324084,-0.384900673358802
4,6,4,-0.118076755589935,0.00229658844351471,-0.131285207515453,0.335685437434232
5,6,4,0.554394363338997,-0.0534986931903953,-0.561873413171986,-0.477987104520378
6,6,4,0.138358421572432,-0.028073395092196,-0.131487851185366,0.427016658050691
7,6,4,0.152208383542811,-0.0195008479813863,0.424236606001289,-0.476018659909019
8,6,4,0.301547745979607,-0.0321167093163197,-0.289349218140633,-0.145571266766775
9,6,4,0.28512887608643,-0.0404127522762199,-0.606388732008707,0.0880747776165799
10,6,4,0.31059171770952,-0.0306621133733383,-0.0468664624363548,-0.432310296183843
11,6,4,-0.102720943244559,-0.000778859922107363,-0.0256257894620418,0.32998219139615
12,6,4,0.0172771275309591,-0.00310294958988408,0.234704127662512,-0.228696415642806
1,7,4,0.349924147096003,-0.033150726642096,-0.152802504507704,-0.394219148667832
2,7,4,0.135381155050202,-0.0192607604507306,-0.22685675889387,0.22297495054906
3,7,4,0.605179558241472,-0.0538061039765283,-1.26460372392068,-0.22199714841933
4,7,4,-0.98189449757685,0.0506816216546345,0.556872276383269,1.10786236577782
5,7,4,-0.013745113313135,-0.0110152175687969,-0.0149474445543655,0.456566315617442
6,7,4,0.491349554942967,-0.0480210326653993,-1.04859826566388,-0.0715155081608797
7,7,4,0.217697658827154,-0.0281483660032275,0.463111285753586,-0.555465316504939
8,7,4,0.381899631912414,-0.0401803316920922,-0.0309602210458639,-0.414628278712366
9,7,4,0.58489283007463,-0.0544875791457055,-1.18184201593383,-0.186309831852042
10,7,4,-0.230873250834199,0.0181523070749945,0.103987268441488,0.222584029628363
11,7,4,0.173641324651513,-0.0171639605944021,0.0138057896141842,-0.206591411739557
12,7,4,0.655868208822258,-0.065643079084337,-1.99519770765212,0.209456631845457
1,8,4,0.717524681192068,-0.0883455459566874,0.195458437957064,-0.976949212352665
2,8,4,0.396067684474445,-0.0409519972823045,-0.7583278435313,-0.0775175239945153
3,8,4,-0.189908426435122,0.0106747519389739,0.125314414423104,0.516545343427244
4,8,4,-0.0286063205120516,0.0073741524652112,-0.0298609525892908,0.0900148487918444
5,8,4,-0.444039922872406,0.0324207016117439,0.198113795950456,0.465890706294162
6,8,4,0.452051172130921,-0.055332015982855,-0.633319433310099,0.192725404830646
7,8,4,-0.326702433056516,0.0255707975763374,0.149493778895431,0.345690486072081
8,8,4,-0.120356973018093,0.00890183901227848,-0.00181526863018563,0.186984193258526
9,8,4,0.254495267181232,-0.0248563277065558,-0.0466218160544862,-0.135756485276755
10,8,4,-0.166735276948885,0.0148309349457616,0.017004871758654,0.296120088288279
11,8,4,-0.110732285773503,0.00489326664810772,-0.0493592078527763,0.314765432544972
12,8,4,0.371530658937158,-0.0409483454586371,0.0616469641842371,-0.409497056967367
1,9,4,0.230114789373006,-0.027747285450074,-0.546219292221939,0.0740729647942214
2,9,4,0.218338314904429,-0.0349331377926503,-0.36936619647051,0.290216572967001
3,9,4,0.0797684592441403,-0.0184785069194804,-0.196263958321011,0.298601875170705
4,9,4,0.331620278830071,-0.0257590760390511,-0.756391812021643,-0.160449948306575
5,9,4,0.862222704821406,-0.0849073073207322,-0.711759146243863,-0.942006788473253
6,9,4,0.479022269957302,-0.0633417037421234,-0.594842354456256,0.247549539581406
7,9,4,0.314006489307732,-0.0230024259354101,-0.708462659569282,-0.122382191841823
8,9,4,-0.396598838562006,0.0319983601620892,0.198957723943728,0.310288472222638
9,9,4,-0.852207163426084,0.060146588332265,0.230759665230703,-0.112163693869892
10,9,4,-0.0310290356086668,0.000888452567450186,-0.0871647638635148,0.182385054884199
11,9,4,0.0196225561417261,-0.00378383989908531,0.000226211100600665,-0.005678588574517
12,9,4,0.49606153159533,-0.0511180180795826,-0.374199092547819,-0.464227769381863
1,10,4,-0.116879971884877,0.00406384756551507,0.0109968530072013,0.34150795691513
2,10,4,0.0142444188003292,-0.00874106022387009,-0.153955168397061,0.26740840218191
3,10,4,0.184433767693357,-0.0333782919874934,-0.187212283736623,0.438411977494204
4,10,4,-0.0276120850898207,-0.00091398374267145,-0.14687294632084,0.256793801802157
5,10,4,-0.257984167738449,0.00972821036984505,0.0891633195522248,0.710759922096046
6,10,4,0.207496550730533,-0.0232578830445251,0.340100082542002,-0.435835017678073
7,10,4,0.0431869892914272,-0.00508425455677358,-0.00154032339889046,-0.00561483211591236
8,10,4,0.217427554020529,-0.024106019016105,-0.418250947687804,0.0402882060673419
9,10,4,0.124799858610129,-0.0145568250468006,0.300331112947891,-0.386860897637479
10,10,4,-0.391967207770172,0.0311704990603585,0.146904180257903,0.482672398999075
11,10,4,0.269167356711267,-0.0217788431234179,-0.219482348736487,-0.215521668544781
12,10,4,-0.0274189498865677,-0.00166008814391867,-0.0871467051859385,0.278805032209841
1,11,4,-0.137071259532615,0.00327717341977398,-0.0916882260082046,0.307437405618118
2,11,4,-0.0615540408808501,-0.00438385234264087,0.00181700198343814,0.431343446195092
3,11,4,0.278076822077424,-0.0492553886979325,-0.397332014347317,0.3017149564846
4,11,4,-0.346192357292355,0.0252270765540642,0.1686017730952,0.457730450021009
5,11,4,-0.0912326456602368,-0.00189973094132003,-0.0350202579938391,0.326434417931803
6,11,4,-0.172301409034565,0.00986013123167118,0.226843372200364,0.492506439093728
7,11,4,0.3411352713231,-0.0325728720187159,-0.0985307978263577,-0.419763756045715
8,11,4,-0.300892306654797,0.0238447113276978,0.118470426577594,0.350163918869276
9,11,4,0.404144847443977,-0.0439765640206803,0.287599772634249,-0.669840306218537
10,11,4,0.221195929543842,-0.0207006760205284,-0.460424677255948,-0.0957442519030669
11,11,4,0.198149053358646,-0.0178757694215307,-0.130024658105286,-0.180995058695961
12,11,4,0.0573365677673914,-0.00599412625835337,0.0896285685774332,-0.22235543990043
1,12,4,0.436050802471874,-0.0318639329577394,-0.958589606435506,-0.277712154830905
2,12,4,-0.212766918977419,0.0139492855238067,0.172439709474893,0.392906207898067
3,12,4,0.252515974521184,-0.0327189969539403,-0.386008435122075,0.238230551133253
4,12,4,0.253995398150472,-0.0179773459218691,-0.49823522059808,0.00119312098317181
5,12,4,0.0230265657547085,-0.00882676956646859,-0.159421131459961,0.28180175761337
6,12,4,0.460977721979325,-0.0511544788045718,-0.274859504308083,-0.280577131389079
7,12,4,-0.0709043086035532,0.00494246499116315,-0.0442286078810327,0.171858522842615
8,12,4,-0.488979986434656,0.0367088791593555,0.31239552052513,0.438666052358581
9,12,4,0.0507242726734425,-0.00626492556517681,-0.0990900529144214,0.0793064895908313
10,12,4,-0.152052369308022,0.0104378647595556,-0.0373148754505237,0.271059369950621
11,12,4,0.214793184878955,-0.0202344285024865,-0.423569044759451,-0.00163232663314251
12,12,4,-0.0641876804253896,0.00492955136556576,0.0373821848522372,-0.0937237366186912
1,13,4,0.589129565238319,-0.0302838185093855,-1.28790094118828,-0.596470015840566
2,13,4,0.0919457691154055,-0.0214615102274572,-0.251730763994203,0.28812057114639
3,13,4,0.187534743313262,-0.0313640635941064,-0.28949375025369,0.294919955855584
4,13,4,0.411739084727345,-0.0318172044721616,-0.930110106683219,-0.207355093153525
5,13,4,-0.134629695067755,0.00850094982808009,0.236306226294099,-0.0971822614908162
6,13,4,0.874186110355912,-0.0678497030334737,-1.74138792252602,-0.690803244602165
7,13,4,-0.00701660150320652,-0.00136275056101668,-0.124529624314836,0.192996485934462
8,13,4,-0.0233901066086526,0.00210592672334746,0.000943516159636226,0.0109574414015363
9,13,4,-0.456855191570514,0.0341041107266407,0.282624356237357,0.113243615582516
10,13,4,0.493523683985379,-0.0660971962477057,0.201923681540603,-0.84667481165528
11,13,4,0.806306217491937,-0.114174067824646,0.195020848891547,-0.963051419854038
12,13,4,-0.2579598533852,0.0199582432233674,0.174304283428562,0.0942007030412929
1,14,4,0.374474652172597,-0.0502660956260624,0.483000294695737,-0.690432603501456
2,14,4,0.118201602656062,-0.0139247779213517,-0.25810264902607,0.200227040489589
3,14,4,0.512454150297614,-0.0498381000921498,-1.00677547698586,-0.0232907430825682
4,14,4,0.316676894902759,-0.0250453583710684,-0.529065475490471,-0.249196229583156
5,14,4,-0.0428210748508078,-0.00086021992785568,-0.0749711051124401,0.27929544253576
6,14,4,0.116113170025121,-0.0159123677386813,-0.147779175979375,0.217240138567783
7,14,4,-0.323026516848638,0.0252311417139791,0.259568190625452,0.310810444947753
8,14,4,-0.205614246337017,0.0199245962829087,0.0870107939237846,0.350150121144354
9,14,4,0.418371300431566,-0.0404951606720993,-0.753022717877435,-0.1198510516778
10,14,4,0.209163649189017,-0.0202670697974153,0.0285581569840275,-0.309174372104569
11,14,4,-0.517839443665693,0.0383646731431323,0.18984337197612,0.546464520548469
12,14,4,0.279778767478586,-0.0353831669801566,-0.4036008662843,0.254499866003191
1,15,4,0.123896330700909,-0.0139503997257332,-0.38988187478853,0.103238138242431
2,15,4,-0.150133221473785,0.0132090822849043,-0.0290813793352162,0.236950253701384
3,15,4,0.0746673683206243,-0.00878448089165519,-0.164430551652681,0.165257443154111
4,15,4,-0.606375216751166,0.0425730311799272,0.0413859557604952,0.72327980529942
5,15,4,0.0124479588989444,-0.00661226233786372,-0.117651475002916,0.256620882799434
6,15,4,0.358764357670349,-0.037656218734023,-0.366682830938379,-0.144568303654104
7,15,4,0.241322287298685,-0.0292848021479532,0.333114927175792,-0.487595865927618
8,15,4,0.194065316512366,-0.0195937146267331,0.034675755291488,-0.256919126303607
9,15,4,-0.0599796952142693,-0.00125014809502738,0.0418448701230601,0.393876849022215
10,15,4,0.0238473778133953,-0.00328473397581497,-0.10257652359503,0.107857868535637
11,15,4,0.107779033246243,-0.0111005277224045,0.0273686616133655,-0.165314776438281
12,15,4,-0.43009478008356,0.0334742064022844,0.166618724650059,0.502827544495383
1,16,4,-0.0114224739985943,-0.00582752490474278,-0.193121908548799,0.28610358649418
2,16,4,0.348295202729232,-0.0414998968094211,-0.668270681934717,0.0612207067191289
3,16,4,0.419057266045798,-0.042881648441623,-0.842813454940931,-0.0207541474008133
4,16,4,0.468800433504473,-0.0301623274228499,-0.985770423474519,-0.3954958243153
5,16,4,0.0532149748652248,-0.0082216701966667,-0.168508652917359,0.22175732845637
6,16,4,-0.14303861224668,0.0150131044027588,0.0223784752673181,0.256460697535088
7,16,4,0.276407217950476,-0.0220212550994218,-0.525882760531937,-0.186707750889789
8,16,4,-0.218355207483596,0.0158840834322958,0.0139889710501461,0.363917805008015
9,16,4,-0.310905265499687,0.0293007807706769,0.0230585028899844,0.0550903710038899
10,16,4,-0.133173509943574,0.0109545065158742,0.21936689131656,0.00324509837255804
11,16,4,0.157215186668776,-0.0205249180236362,-0.380794087969325,0.165896763131011
12,16,4,-0.0187726767178048,0.000863607874105146,-0.0249899525681605,0.146868062704546
1,17,4,0.210916411623706,-0.028723226241723,-0.533342082736575,0.0451205940315147
2,17,4,0.117651417357716,-0.0267483130706413,-0.271699453982481,0.318634923772702
3,17,4,0.518600200078964,-0.0570240451459028,-0.970316802994969,-0.0294879785440844
4,17,4,-0.00689170760564096,-0.00102519367053145,0.158537943362016,-0.282851556135511
5,17,4,-0.136721798866344,0.0104264440095314,0.190974745472157,-0.277577755596984
6,17,4,0.680384341317078,-0.0682946116962482,-0.433021669508334,-0.52397746853629
7,17,4,-0.156870186984047,0.0114421342265566,-0.0451668372007062,0.249151226352603
8,17,4,0.0274448331524769,-0.0103315372380706,-0.158222317880594,0.306516620083222
9,17,4,0.044164242540439,-0.00553238521779553,-0.00146256489623098,-0.0066961354888586
10,17,4,0.333385114036659,-0.0432464734790299,0.484565718466108,-0.647100830194889
11,17,4,0.254615713300104,-0.030002869224705,0.343427915682237,-0.49217125458098
12,17,4,-0.224955497650157,0.0187430031562182,0.133156026103496,0.11518542617652
1,18,4,0.597461356809758,-0.0749404526853491,0.165550240379142,-0.900789270246547
2,18,4,0.284840830686202,-0.0268741691206196,-0.599275787430683,-0.0684033157530932
3,18,4,0.540226879572822,-0.05221536988627,-0.559867372877015,-0.431825506817314
4,18,4,0.156200651284039,-0.0141370740905916,-0.387424015674461,0.14007903362543
5,18,4,0.0566450145103567,-0.0105662847448131,-0.147099731929888,0.226474549205788
6,18,4,0.53749585044463,-0.0669003019008715,-0.66475011192073,-0.0495419454011579
7,18,4,0.00706313655234747,-0.00293264637730343,-0.143165213671418,0.19227174313065
8,18,4,0.105656435007469,-0.00875236702348168,-0.195595584525619,-0.00216680711024366
9,18,4,0.334274279534716,-0.0414292089262391,-0.568630525113677,0.128122925404619
10,18,4,0.38809343213139,-0.0531811440559736,0.275354597701429,-0.766971253665592
11,18,4,0.562261039945692,-0.0477449542712976,-1.02081657079635,-0.289833558877201
12,18,4,-0.498179688401877,0.038898793726921,0.394695806576834,0.377671759554669
1,19,4,0.344065146666777,-0.0298057735845412,-0.802600593465354,-0.104521873744159
2,19,4,0.356941124526729,-0.0389452107173559,-0.0145500318799928,-0.319030111131807
3,19,4,0.244605271388947,-0.0310515563399026,-0.347356862336443,0.222891425916234
4,19,4,0.233842670041671,-0.0259418700258237,-0.560558107489125,0.0235612820099764
5,19,4,0.173778903614852,-0.0295459738070148,-0.328969921907306,0.283424895462282
6,19,4,0.354398185955635,-0.0441987735844116,-0.597795359683019,0.137654413338387
7,19,4,0.221426738267794,-0.0179319200619974,-0.435035779229107,-0.114478769582797
8,19,4,0.284960733602703,-0.0338962728841032,0.341176151274039,-0.525484945633027
9,19,4,-0.396019862190589,0.030838613495183,0.136986862188707,0.560564575259716
10,19,4,0.392195571925262,-0.0290470428946444,-0.995515912168796,-0.176398814406611
11,19,4,0.183795244724647,-0.0198179696762287,0.154252842735351,-0.337877301356803
12,19,4,0.235671525125386,-0.0225820259040209,-0.267936059297692,-0.141188239721392
1,20,4,0.422189309597684,-0.0296137872981819,-0.931582081065716,-0.282699489959493
2,20,4,-0.577343996997548,0.0434174777456217,0.341355821824083,0.747353292352895
3,20,4,-0.380486572685972,0.0322140127991202,0.356326623290777,0.429042625891573
4,20,4,-0.0111250010936157,-0.00680199941641566,-0.194050922204695,0.283474464960807
5,20,4,0.708528999873866,-0.0841042066629562,-0.22283753849591,-0.741350216887141
6,20,4,-0.343436436886163,0.027277060483651,0.239195631390763,0.421257092895821
7,20,4,-0.0628891925715479,0.00505126207576961,-0.0103814251518044,0.110781623677923
8,20,4,-0.189734403868789,0.0138554851069991,0.0079753581319585,0.333040698468379
9,20,4,-0.127346296663693,0.00368049517674918,0.031399998534134,0.243440887656449
10,20,4,0.073345562677813,-0.00778958712043591,0.158552373611761,-0.385130079902101
11,20,4,0.00792075109573081,-0.00668402699150832,-0.134108118757114,0.240981978216408
12,20,4,0.425821734489947,-0.0451696743864922,-0.205574018750972,-0.388265329428448
1,21,4,0.4513265497312,-0.0641579140277637,0.44888950602268,-0.730620595949945
2,21,4,-0.590619064506019,0.0438985349914152,0.176767194129343,0.643072071010423
3,21,4,0.133503047373476,-0.023521895007575,-0.259905544457338,0.277656442702458
4,21,4,0.488856604306927,-0.0318927184004822,-0.901687795758699,-0.46606308141942
5,21,4,0.513802588767288,-0.0475724137959147,-0.985206117544213,-0.2309210992785
6,21,4,0.017437111696126,-0.00856388861226969,-0.129320739504326,0.32571092355032
7,21,4,-0.160722541340555,0.0135787322588462,0.0631721583159618,0.163096536462698
8,21,4,-0.212284009461512,0.0124495071656956,0.330127830988352,-0.216568976718791
9,21,4,-0.124442435885465,0.00378068325200099,0.0457350892637514,0.316132278117086
10,21,4,-0.333048588767437,0.0222816873468588,0.0154094742930187,0.4705741929782
11,21,4,-0.144881860460022,0.0113786986749445,0.0366280282747296,0.200496548992876
12,21,4,-0.0725076489287079,0.00673517730814198,0.0657261554737203,0.0693033762362493
1,22,4,0.358488075998268,-0.0258221999614828,-0.723392495520164,-0.240456438541918
2,22,4,-0.323347236800099,0.0267530118303878,0.206830839255075,0.210219829387527
3,22,4,0.449369266765501,-0.0462897876370518,-0.88959753099718,-0.0652853410668434
4,22,4,-0.400931065040156,0.0328414866465721,0.153223634144514,0.470818148641883
5,22,4,0.0385822562208764,-0.0178353070881217,-0.216507928902532,0.356236225410464
6,22,4,0.0236265005682048,-0.00663097295924005,-0.131243230902783,0.246327789798333
7,22,4,-0.503085442104059,0.0383561982660991,0.27630437220299,0.439703992928783
8,22,4,-0.277866305559959,0.018332830811542,0.191353106556772,0.472328856577387
9,22,4,-0.228162259689416,0.0152101556679353,0.269151009995183,0.564593728429283
10,22,4,-0.00603226609461591,-0.00149976139267721,-0.114254990171876,0.181459133791643
11,22,4,0.491387160361084,-0.0480274309284471,-0.377994584392768,-0.47995455492519
12,22,4,-0.0679143072745986,0.00582865113139186,0.105815951573743,-0.0174253415772895
1,23,4,0.621555557150022,-0.0313209741315133,-1.42977710559214,-0.619255316899639
2,23,4,0.084674755407263,-0.0225594904922889,-0.238606258685043,0.31921154418337
3,23,4,0.102516067326029,-0.0154918412820628,-0.224628581296942,0.232876945218584
4,23,4,0.332769625087673,-0.0328202101976047,-0.0581423515341176,-0.442234851185106
5,23,4,0.501633596013814,-0.054067412532561,-0.91096426126109,-0.073597014422365
6,23,4,-0.252435792276565,0.0193191568756764,0.20232951168676,0.38295482966157
7,23,4,0.193533556270236,-0.0192249818728497,0.0303134140665232,-0.402966401560904
8,23,4,-0.569065220701201,0.0425365144883236,0.236912222570886,0.528403832065503
9,23,4,-0.709894042251813,0.0474141061698302,0.301092743951451,0.717810901108907
10,23,4,0.140982012342236,-0.0127753275929293,-0.0105859578460969,-0.170961333803976
11,23,4,-0.778278181384034,0.0631224355085352,0.0276645857373242,0.119031016377082
12,23,4,-0.0310094304684669,0.00200384535975529,-0.0177286245127989,0.156282845093294
1,24,4,0.17359436778512,-0.0156422841228278,-0.469122220461679,0.0231706425662045
2,24,4,0.399499519022008,-0.0369291170794584,-0.931478989120154,-0.0789986944266075
3,24,4,0.239478003289533,-0.0430301258861,-0.260037057842618,0.406656881886742
4,24,4,0.0914842474526067,-0.00916506523306758,-0.280763710238229,0.0591706158702939
5,24,4,0.14103366818793,-0.0279726236605905,-0.303070866648971,0.301837109606477
6,24,4,0.266755398799651,-0.0351945550182548,-0.358208345093725,0.293901319907282
7,24,4,0.00869295581796614,-0.00269746415850701,-0.119883860243148,0.158237206820031
8,24,4,-0.252294958659686,0.0189900535269863,0.0498742287739375,0.37784650862799
9,24,4,-0.478366807705427,0.0359455033425525,0.238260059437176,0.295106271900517
10,24,4,-0.273525581976847,0.0234941323623273,0.273951735513815,0.118369244037373
11,24,4,-0.23989937343398,0.0221072996028345,0.142020739759519,0.253718995620123
12,24,4,0.346050997574377,-0.0342285052205011,-0.435937460126084,-0.173636421107382
1,25,4,0.333805167746115,-0.0210989411929883,-0.573763177912489,-0.278283883840171
2,25,4,-0.0276854596180778,-0.0169261309827602,-0.0109080671436155,0.478364699733681
3,25,4,-0.247249258505539,0.00650902586226004,0.282598119706888,0.708642416197882
4,25,4,0.309719708461679,-0.0310410027251372,-0.0267953313299377,-0.44525416335893
5,25,4,-0.173542724992632,0.011071273488085,-0.0142131296853311,0.341709381751451
6,25,4,0.561958681392021,-0.0651235922114402,-0.789627941310098,-0.0886378632660361
7,25,4,-0.120171823849315,0.00697560470763128,-0.0168662911325869,0.17828623830626
8,25,4,-0.0528465024174017,0.0030644411761359,-0.0368480224937072,0.173844805894122
9,25,4,-0.0119519021710545,0.000686205809070549,0.0291296840529625,0.12516704283852
10,25,4,-0.118745276904771,0.00705298608453723,-0.0127028129946093,0.166532774378509
11,25,4,0.425301924628197,-0.0437791472673592,-0.0740250984630041,-0.450169182653774
12,25,4,-0.039265913673476,0.00268950081967535,0.303531668197358,-0.217362500555296
1,26,4,0.103594554310741,-0.0108425948485974,-0.319914859926237,0.0710809615631957
2,26,4,0.318364906312247,-0.0351648203640769,-0.582380831081655,0.0433403602559224
3,26,4,-0.153765323876155,0.00693666855905521,0.150433594148468,0.483889361403818
4,26,4,0.160094407042807,-0.0155721580412899,-0.428787892176789,0.0393186517576896
5,26,4,-0.187117881548819,0.0125578741775083,0.121292362501019,0.489744735819912
6,26,4,0.240836476621687,-0.0277742856631524,-0.371739401668792,0.0780059242765658
7,26,4,0.354668832230235,-0.0262853546932931,-0.713668927754274,-0.261173178877712
8,26,4,0.660818536365408,-0.0726267588359752,-0.454089327070761,-0.693153402026586
9,26,4,0.2161440483499,-0.0254090780198456,-0.330558560586856,0.0693882670126002
10,26,4,0.260193360528111,-0.0226626182241666,-0.195610875056533,-0.265360031711894
11,26,4,-0.104366732862175,0.0105123044135598,0.00507758045260536,0.180765610121026
12,26,4,0.0683148476499138,-0.00674819340001721,-0.00229196357906775,-0.00630411439272902
1,27,4,0.486210478986559,-0.0305707165544246,-1.10712672541984,-0.369110050931641
2,27,4,-0.175808484793886,0.0144515367574908,0.0312316247334413,0.424233382669553
3,27,4,0.284817538888328,-0.0495335514827021,-0.348549069609705,0.315237505233691
4,27,4,-0.450526646801341,0.0346866720899263,0.209366925239334,0.456566745479762
5,27,4,-0.0394337948381995,0.00175718005160962,-0.0684923324359599,0.1707851678225
6,27,4,-0.0261646302128737,-0.00191270974863021,-0.0418333255749233,0.340217159416754
7,27,4,-0.482464532690972,0.0344488230034902,0.28281771164539,0.473851374360051
8,27,4,-0.0140156114387577,-0.00571603269863429,-0.138989114954019,0.283760615059071
9,27,4,-0.178123442446629,0.0137612546416382,0.0140444869083839,0.282806847895115
10,27,4,0.214000254885061,-0.0248915894830878,0.340609628485806,-0.461634420795719
11,27,4,0.15951782116052,-0.0192241453220954,-0.359215149971382,0.121075091645452
12,27,4,-0.170964197264518,0.0120319806927547,0.0954943082435202,0.367162603758738
1,28,4,0.504711952169281,-0.0551935033776237,0.00133441213912519,-0.63838310504261
2,28,4,0.518549708506245,-0.0496180506936923,-0.993907576557088,-0.159366047797025
3,28,4,0.33320489576063,-0.0526538087382873,-0.355978613337417,0.403566617137203
4,28,4,0.166671366912892,-0.0181234226817862,-0.348977807199995,0.0962096875832021
5,28,4,0.254531582742386,-0.0303964598532275,-0.454247748036469,0.0986651302234448
6,28,4,-0.221532525290126,0.0185389825108555,0.0618194102786229,0.270439642495466
7,28,4,0.368465866239754,-0.042477336345061,0.261372866380497,-0.570818740660716
8,28,4,-0.110080610280306,0.0105550365698793,0.0113429201171354,0.0299625977793848
9,28,4,0.418905612433679,-0.0554349809030939,-0.595048498746382,0.113475832112423
10,28,4,0.0679900465933392,-0.0058374068655726,-0.000692900558688289,-0.00713482435752902
11,28,4,-0.605505507617773,0.0427695491419773,0.391864642561198,0.429943838631299
12,28,4,-0.696626554408124,0.0371821050637863,0.256766433986465,0.136293480752971
1,29,4,-0.0960424959201899,-0.000199009492511113,-0.122809537475111,0.30765931236659
2,29,4,-0.063277549865951,-0.00474084092987358,-0.130161720968934,0.405159864530242
3,29,4,-0.242210866268057,0.0183695529101165,0.218078967613843,0.331620897408531
4,29,4,-0.435408386628767,0.0317275798551933,-0.154100785470291,0.66107118735163
5,29,4,0.281257494487001,-0.0268535293018002,-0.619022185937297,0.0126662548287586
6,29,4,0.111704164666066,-0.0105366954673916,0.0267490540757121,-0.128572963075477
7,29,4,0.164557312960054,-0.0157738134551507,0.0681223560999386,-0.323347178427877
8,29,4,0.146836980785747,-0.0146612848575468,-0.366331144092443,0.0411823865761624
9,29,4,0.111343689734089,-0.021878126044903,-0.16802400995028,0.371420826719864
10,29,4,0.0257050378944259,-0.00323125127584364,-0.195080159387386,0.119110434679432
11,29,4,0.0250486234099403,-0.0119439495834414,-0.160693815494059,0.339387068031374
12,29,4,0.431413995773076,-0.0424573028002767,-0.379289114671838,-0.31581115025866
1,30,4,0.0185127039187702,-0.0106866415033407,-0.205821921282048,0.289789563034898
2,30,4,-0.254389839934606,0.0149318334386932,0.227883981736022,0.524995471722133
3,30,4,0.455945097379169,-0.0437930979342019,-0.387532222166487,-0.383065499904669
4,30,4,0.104284062760896,-0.00798722066097797,-0.000158990329555367,-0.011515692212231
5,30,4,0.286418874622248,-0.029004336060935,-0.642371684439859,0.0251633200819922
6,30,4,0.746822714475139,-0.0718237535116912,-0.926579707784344,-0.558466074757907
7,30,4,0.420635477981034,-0.0386506248694966,-0.099306968120962,-0.497307869216883
8,30,4,0.221575576982639,-0.0232867366462518,0.162448615682445,-0.382607922544792
9,30,4,0.206801413923776,-0.0195506351155181,-0.0296575252698232,-0.190892797629002
10,30,4,0.0918834872599564,-0.00803935382807305,0.0236921300010815,-0.159749371382223
11,30,4,0.665282371313821,-0.0862869730525064,0.1455236806122,-0.713999466570424
12,30,4,0.261233604281093,-0.0246781017495859,-0.437607467846503,-0.0813853314726142
1,31,4,-0.165564378477546,0.00777731322477341,-0.10698211495864,0.359669006162256
2,31,4,0.522440643915887,-0.0338782099315491,-1.2947612487367,-0.206880534687159
3,31,4,0.0719620418477091,-0.0144430385835342,0.0123768467249697,0.440769883428442
4,31,4,0.359854434158953,-0.038933402704752,0.0812138963518312,-0.59867820633577
5,31,4,-0.0668193606300577,0.00497233871258622,0.08171575932014,0.101549368034563
6,31,4,-0.170656496092881,0.0145096625997977,0.0369066328865586,0.215539842416873
7,31,4,0.20503031069196,-0.0216261258466604,0.224267087699362,-0.392105701567107
8,31,4,0.301410529254298,-0.0318483968509952,-0.0603117347002865,-0.289114606473957
9,31,4,0.254692483053356,-0.0248814872793586,-0.240712750219772,0.0623336410061275
10,31,4,-0.245137504927844,0.0211207855754933,0.0762865230679283,0.406573736622709
11,31,4,-0.488328034333695,0.0372696365851311,0.390816995783528,0.394810363340544
12,31,4,-0.191460179286651,0.0183873998127929,0.0986579407933952,0.377609389590733
1,32,4,0.0405163120113897,-0.00613824737910727,-0.219877874386843,0.205390381834116
2,32,4,0.512076125043841,-0.047200729830783,-1.05793579747217,-0.199859983641431
3,32,4,0.358227472562161,-0.0347668974487643,-0.59686772288554,-0.105459569851418
4,32,4,-0.269363292615279,0.0171459644355287,0.214926425851688,0.363650716107603
5,32,4,0.393506800561256,-0.0453134369191265,-0.661899853623626,0.0108150262402303
6,32,4,0.214190811485845,-0.0214254478111697,0.0183576919843924,-0.214500808195645
7,32,4,-0.0125889253573801,-0.000222275841219725,0.12896788994621,-0.212785967487668
8,32,4,-0.140881397591132,0.01225841176562,0.0496745423552006,0.131059511199671
9,32,4,0.0592901744914319,-0.00624663901917726,-0.00267445236207391,-0.00670807899445754
10,32,4,-0.0287904945357126,0.00156745301813376,-0.0583143910263017,0.135568019374513
11,32,4,-0.038721314428041,0.00398965442337109,0.195978234252486,-0.103637639259167
12,32,4,0.123915975126559,-0.0181454086664893,-0.228803694280026,0.246534372769154
1,33,4,-0.769313982438162,0.0443242541575041,0.342335149561541,1.01592601713286
2,33,4,-0.396419176359882,0.0282411386276408,0.266595044061876,0.523869491895461
3,33,4,0.456383448457391,-0.0480809204118006,-0.874856416241483,0.0313579268260062
4,33,4,0.279727936809427,-0.0222595562803332,-0.62161744601573,-0.121573429975876
5,33,4,-0.232405428325888,0.0144813900202906,0.203029223994126,0.464657171072094
6,33,4,0.515979563686261,-0.0570043529517864,-0.280156506825866,-0.354054710393662
7,33,4,0.102222463212221,-0.0103078961062999,0.117057199730616,-0.33653085267209
8,33,4,0.0434423068305864,-0.00705250960541176,-0.163726781915304,0.133344902603352
9,33,4,-0.138936096597686,0.007472655162776,0.0201127217997237,0.310430019544606
10,33,4,0.27847348862353,-0.0225604059220736,-0.397900694290051,-0.236443182314305
11,33,4,0.388555004260147,-0.0435793743021733,-0.673287407666997,-0.104281010122556
12,33,4,0.170515907583914,-0.0273843674758749,-0.291105764179,0.275567331135028
1,34,4,-0.0626204061050702,0.00115538979382237,-0.125269679851611,0.265693687821264
2,34,4,0.747496297679132,-0.0477629695448102,-1.51514142046241,-0.675444713601754
3,34,4,-0.174831079529053,0.00964300173745912,0.288082058826798,0.535712077705636
4,34,4,0.0478882115982626,-0.0132502813471775,-0.262737800414228,0.261937753719802
5,34,4,0.721415468745334,-0.0548884288473659,-1.06252759775475,-0.716282323624925
6,34,4,-0.0923696736539942,-0.0028141294315475,0.0194375790994056,0.366509105278027
7,34,4,-0.264142285578139,0.0186570175606854,-0.0222242323934486,0.382281109792493
8,34,4,-0.149271818732855,0.0117117867207792,0.00157309211616218,0.201322173256173
9,34,4,-0.0968759761982361,-0.00217319723255684,0.0459337309632286,0.336467227763747
10,34,4,0.436842616091367,-0.0455049956085785,-0.0307395292649669,-0.598566130417232
11,34,4,-0.0630777964371416,0.00959206748123912,-0.0169915837891265,0.0928933270410884
12,34,4,0.221893078486723,-0.0298427535701913,-0.375594572875105,0.173240213210102
1,35,4,0.231570166716974,-0.0204381223355154,-0.514405597186368,0.103974425337818
2,35,4,0.236735996725715,-0.0377812570824297,-0.379457831964126,0.28638457242341
3,35,4,0.481942620047077,-0.0468055793583987,-0.503617693712372,-0.418454468966486
4,35,4,0.181532739123733,-0.0172636963030161,0.00612328871760501,-0.232407550874447
5,35,4,0.0999703604448713,-0.0110493282155269,-0.112241381301857,0.0895067755259127
6,35,4,0.636017893650715,-0.069758412859434,-0.952935283337767,-0.18805422149541
7,35,4,0.526005265414109,-0.0323013250365522,-1.21611501804881,-0.419826621000147
8,35,4,0.335466115831334,-0.0333082958937668,-0.642895384332938,0.0386025177396893
9,35,4,0.16073483279041,-0.0178902193180264,-0.379606532486031,0.0631746743192655
10,35,4,-0.258400905458825,0.0183001068302419,0.129698736752372,0.378348625540549
11,35,4,-0.849142785308511,0.054258631120006,0.545183442375394,0.821332518656301
12,35,4,0.218990997497332,-0.0275652181359847,0.363324602417085,-0.49481937658927
1,36,4,0.794990614503623,-0.114590173891719,0.195077000968155,-1.0751520831643
2,36,4,0.521729203537026,-0.057815069468367,-0.0458877297181962,-0.456492797332495
3,36,4,0.170183777370744,-0.0225847087324103,-0.239702322125632,0.2313873647675
4,36,4,-0.318571867574751,0.0241849326302474,0.0925398898126407,0.382341636071995
5,36,4,-0.140576238119384,0.00676438428341582,0.0157187753540242,0.168780804795402
6,36,4,0.246231185215333,-0.0469801014321528,-0.366868204910364,0.322705810485591
7,36,4,0.288027253333858,-0.0310558892484575,0.229082004560985,-0.473202091792406
8,36,4,0.649016730260514,-0.0723052612997346,-0.311701900761682,-0.65561361168095
9,36,4,-0.655391197938995,0.0479052603072653,0.109856588559667,0.62240950590842
10,36,4,-0.244349056649154,0.0216545360492248,0.110625600502982,0.319222555956124
11,36,4,0.459300123479839,-0.0530867205484823,0.0688545658157384,-0.568581894593534
12,36,4,-0.0728743840072876,0.00845880708363116,0.0150653596385339,0.0213236525156625
1,37,4,0.40335529622185,-0.0434527870098525,-0.0390086493748459,-0.569084192367782
2,37,4,0.460651387827498,-0.0377455668357477,-1.00791355459369,-0.199850237368283
3,37,4,0.113270759639725,-0.0250229220210694,-0.109242145690753,0.47082870528565
4,37,4,0.328530072396508,-0.0334694840632061,-0.0377940886315388,-0.487502037141072
5,37,4,0.45217384442768,-0.0516906499531403,-0.850170615579748,-0.0353486563324184
6,37,4,0.194702582704137,-0.0372075656982144,-0.172195420040298,0.491950758052746
7,37,4,-0.213116989639461,0.0171805718355459,0.0907518440603008,0.210153888279727
8,37,4,-0.327803727176544,0.0247781777011704,0.15686121975792,0.358412457190809
9,37,4,-0.336131112416571,0.0265720944921886,0.151607125623856,0.23585191335349
10,37,4,-0.0488659622536888,0.00486069996611093,0.181453213672745,-0.0716172731177818
11,37,4,-0.0347531789622869,0.000116222199175373,-0.0974585010717748,0.203903303924843
12,37,4,0.298524953620567,-0.0331759309909831,-0.231063627427218,-0.110304536516136
1,38,4,0.227583873609501,-0.0146090508643528,-0.274284008561969,-0.187417305426878
2,38,4,0.0985812884074005,-0.0109676104406569,-0.246416419696064,0.181764592763923
3,38,4,0.107753890997896,-0.0210505164497273,-0.228994488019509,0.306541320603122
4,38,4,0.0415090549131568,-0.0050162785383497,-0.000628142741961329,-0.00625761665474653
5,38,4,-0.187573293165176,0.00961687124066531,0.0952869161216014,0.520930113290397
6,38,4,0.459534356933762,-0.0447077745840003,-0.742852279967882,-0.174216367289718
7,38,4,0.170834207071622,-0.0176723456867234,-0.45951534422447,0.0521322414930284
8,38,4,0.192567951488203,-0.0183221763448571,-0.29215101613721,-0.0667418501879881
9,38,4,-0.550523752353104,0.037642846962289,0.187112216619261,0.797377595107408
10,38,4,0.19396604768013,-0.0195235493469,0.0433521738177126,-0.416033289212745
11,38,4,0.483600168472745,-0.0392046042539998,-0.937222572114091,-0.289715924224888
12,38,4,0.036453631884522,-0.00516155623694579,-0.00115065771892713,-0.00626830199875501
1,39,4,-0.18662703211395,0.0165981754078138,0.0400182627573375,0.352000802493661
2,39,4,0.749578667629502,-0.0456981294664181,-2.07572126296601,-0.385044176100094
3,39,4,-0.215421403663393,0.0157971695082257,0.139824691174594,0.383911943658479
4,39,4,0.234412948340785,-0.0208831215765448,-0.555441303803119,-0.027912963703134
5,39,4,-0.0347460354524347,-0.00380445817171614,-0.122431128843079,0.309596663314455
6,39,4,0.282132415666743,-0.0305491211789726,-0.213304503319548,-0.0815378207629391
7,39,4,-0.352598742538192,0.0276905226075421,0.136204739241103,0.397210637702479
8,39,4,-0.190509004340549,0.0114171548454313,0.13960194737483,0.410258530460515
9,39,4,0.727056462562884,-0.0571390631229687,-1.57341561909146,-0.345400593315469
10,39,4,-0.235785532111321,0.0173705923699041,-0.0216588435642849,0.33859998226578
11,39,4,-0.363352514326947,0.0250019085268844,0.18407379351443,0.223997844764774
12,39,4,-0.243453192561882,0.0198001561930678,0.160147026194189,0.292988560863062
1,40,4,0.0940501638552637,-0.0142504502493621,-0.270383702412938,0.246062280580872
2,40,4,0.219004296538209,-0.0272825443950927,-0.435230055128703,0.13572283318823
3,40,4,0.591115425722693,-0.0623304553589049,-1.14042698009124,-0.102749907911356
4,40,4,0.0691065446779792,-0.00927331408403431,-0.26141348235695,0.21708276873542
5,40,4,-0.260546279167928,0.0196836743903205,0.143716661752161,0.382652966166687
6,40,4,0.654651714364862,-0.0646544803430814,-0.915738960889963,-0.384183247247096
7,40,4,0.115756435711222,-0.0101104174354742,-0.246970519138263,0.00383336052036591
8,40,4,0.054884424751209,-0.0056348217237317,-0.00301920673353529,-0.00611661050529322
9,40,4,-0.126714422982518,0.00294359626739901,0.0395263970655424,0.343765740799426
10,40,4,-0.0671585033763056,0.00484387253160398,-0.0387358326447541,0.159811399169025
11,40,4,0.564193626431308,-0.066838702943441,0.0463189081502713,-0.539049925354119
12,40,4,0.0596606480752689,-0.00714807289287726,-0.178289420537244,0.0962380173286611
1,41,4,0.554846617906288,-0.0323340962299201,-1.21668969980512,-0.505575134284391
2,41,4,0.068954462539492,-0.0202042191842071,-0.131162545941534,0.355440266769734
3,41,4,0.0365013420199742,-0.00501985431657184,-0.00187262477211749,-0.0077013831117849
4,41,4,0.556074231838296,-0.0332821072659228,-1.09246748819907,-0.566893985254232
5,41,4,0.21292574296131,-0.0256063049817507,-0.352681562710172,0.0822050427483128
6,41,4,1.0887957330869,-0.157912294968299,-0.840326303721919,-1.25677437498623
7,41,4,0.480111411899623,-0.063936935837808,0.42700103193384,-0.741798546388859
8,41,4,0.558646116408977,-0.057343325043303,-0.411691646246803,-0.522803951819212
9,41,4,0.0995316540703207,-0.0203125179323999,-0.170288334169002,0.334124077792982
10,41,4,-0.0795784714491919,0.0069267571945338,0.0333101104649469,0.0817433401725012
11,41,4,0.0647935928253265,-0.0123956362066896,-0.213223684534533,0.236807318007026
12,41,4,0.0305631435714567,-0.00500837890565312,-0.00223755762796457,-0.00321971679015432
1,42,4,0.420834739591118,-0.0294580645534577,-0.955503760824792,-0.226276982910884
2,42,4,0.513441271774354,-0.0479367548759871,-0.54155771477178,-0.441907519366048
3,42,4,0.385844151438302,-0.0550090155881112,-0.530148224049705,0.252712511925296
4,42,4,0.146991208493476,-0.0134856839967253,-0.306060245319717,-0.0359737500436351
5,42,4,0.403709547295573,-0.0437611019332708,-0.651567417994367,-0.0293245040152983
6,42,4,0.0685664996590463,-0.0208876495007443,-0.0232076179009957,0.566197467350033
7,42,4,0.535435194642949,-0.0670465477104716,0.148632573582051,-0.811239945452212
8,42,4,0.362740627130324,-0.0369661398066284,-0.639085063556901,-0.0434539721179079
9,42,4,0.226050991741073,-0.0232284272342682,-0.262128974500734,-0.022954023358802
10,42,4,-0.179151703867845,0.012175261398312,-0.0435058413738287,0.279125566337239
11,42,4,0.640000928553819,-0.080658814341747,0.101104018655731,-0.651146010172035
12,42,4,0.18758639036832,-0.0177522946035013,-0.202821565264701,-0.114696141357282
1,43,4,-0.132424552274623,0.00974052377841901,-0.0281135386855736,0.205981936214001
2,43,4,0.557487613865572,-0.0456158457865861,-1.72283897400592,0.00474761486778078
3,43,4,0.439077180871103,-0.0578750185481375,-0.533535053157705,0.264908840799067
4,43,4,0.0971857144696935,-0.011022610357397,-0.338305862359439,0.111794342198023
5,43,4,0.0146816624812732,-0.00282351434441041,-0.0839578047884595,0.121200318710778
6,43,4,-0.0993355094226746,0.000702966229382648,0.0512231125034176,0.394151579484321
7,43,4,0.119109667117909,-0.00891367219553874,-0.00469200217644112,-0.00700278162796662
8,43,4,-0.557384426106818,0.0449689270510639,0.418101504778906,0.24210987371439
9,43,4,0.0075296775420896,-0.00064943708337074,0.0426069599494119,-0.0653403311057963
10,43,4,0.285548576698725,-0.0348109253137896,0.273553244549562,-0.502597893268492
11,43,4,0.138063174007049,-0.0184289894990634,-0.25145816908985,0.214822566869764
12,43,4,0.0444622339450584,-0.0127047442723618,-0.099215584553957,0.367104131072875
1,44,4,0.610727491728462,-0.0658155999572088,-0.00553490760376404,-0.665024848971431
2,44,4,-0.0207315443631356,-0.00296259311538934,-0.0802993753179921,0.268941904262271
3,44,4,0.01352932931763,-0.0125977262639502,0.00257464742265832,0.455460344147235
4,44,4,-0.293028220485574,0.0246949960132222,0.138919492865587,0.308526408221797
5,44,4,0.301637154005948,-0.0492263653716689,-0.436651490626437,0.288809269799341
6,44,4,0.535335713740476,-0.0517311674857294,-1.02338786856762,-0.145042393936177
7,44,4,0.139076578569358,-0.0132185321005571,0.0420079906096284,-0.248676256620668
8,44,4,-0.173536580019468,0.00580575786409006,0.0837275011404073,0.543361429400308
9,44,4,-0.425997867763099,0.0327187178586773,0.252314916271213,0.406386600757462
10,44,4,-0.166209656223099,0.0145096259807567,0.145194281867053,0.12278775555265
11,44,4,-0.0651055241390033,0.00653645484842418,0.00440064809964102,0.031886680281357
12,44,4,0.621881510666615,-0.0717675718581943,-0.570554021600687,-0.517861743875954
1,45,4,0.191188261239195,-0.0151760439076073,-0.406629084955979,-0.0877268387392582
2,45,4,0.369232395782681,-0.0420271546715872,-0.707296982162265,0.0392552889521432
3,45,4,0.206606240243671,-0.0366338302331791,-0.245966413265894,0.378537808669712
4,45,4,0.476382478640424,-0.0420917235482358,-0.230425067111188,-0.470054730963498
5,45,4,-0.0846777770201832,-0.00946026626555136,-0.00987730672634328,0.450697073438546
6,45,4,0.201677681106453,-0.0396502328386451,-0.150838244504827,0.508434700108502
7,45,4,0.0820118592452375,-0.00731243345746756,-0.0060734215113791,-0.102911536575489
8,45,4,-0.157066833959219,0.013920408528252,0.118247042558649,0.0777413138690781
9,45,4,-0.28098430381992,0.0240137874306399,0.125342068901314,0.25868252510272
10,45,4,0.250505952854807,-0.0204502714733291,-0.504341576663122,-0.156553537910748
11,45,4,-0.151188144952131,0.0142414511769426,-0.0306743675442556,0.227801650974038
12,45,4,0.189262091588684,-0.0217238686390052,-0.297622824021844,0.0288872190001975
1,46,4,-0.0249266101853158,-0.00461391681152072,-0.151781702672904,0.25819937344868
2,46,4,-0.447512560553069,0.03725716133196,0.443249543253878,0.320998176769312
3,46,4,0.170903194791656,-0.0244120119102611,-0.280744137936933,0.2512259678892
4,46,4,-0.260628153634675,0.0178722579840321,-0.0177846911105794,0.416383912265405
5,46,4,0.521533131723692,-0.0501835687663025,-0.671061742304448,-0.432493803172307
6,46,4,-0.285232874012922,0.0254637568002936,0.175464674610645,0.314811996337354
7,46,4,0.273519560753477,-0.0224354918184111,-0.642011246095748,-0.0921560550986736
8,46,4,0.141917626478379,-0.0150432874010416,-0.295869741363673,0.0584216325226777
9,46,4,0.287145267833395,-0.0434379728714798,-0.407532495451882,0.271864947652726
10,46,4,0.119008401037063,-0.0101110572631254,-0.0378035583323297,-0.11634777761168
11,46,4,0.245297992959859,-0.0373815501335154,-0.397396934088264,0.284954227740485
12,46,4,0.13237228342027,-0.0219577533427833,-0.257181574001348,0.273337243530625
1,47,4,0.335138728868643,-0.0256773753354281,-0.699253223497454,-0.202003794639995
2,47,4,-0.084562280296398,0.00870244438054068,0.119032308315295,-0.208870467386839
3,47,4,0.315449377909135,-0.0377994556790669,-0.482055948630495,0.241024383243909
4,47,4,0.52888340430668,-0.0504146181389453,-0.108329841862316,-0.565219973848743
5,47,4,0.0922515152436207,-0.0114376034163471,-0.220726548624434,0.121415746565087
6,47,4,0.42362929653061,-0.0492827798630752,0.150711194955948,-0.540511487187193
7,47,4,-0.132071289801427,0.0112923712315861,0.0463157949407039,0.139659692492971
8,47,4,-0.468215130787536,0.0365960278850133,0.317741634112009,0.281923669488745
9,47,4,-0.0382110770264199,-0.00617371974029773,0.0108298576238257,0.353631029669515
10,47,4,0.078898013415199,-0.00639043608937283,-0.00142038400130445,-0.0083633640578119
11,47,4,-0.0816575084564439,0.000718014250431776,-0.00432639767362364,0.32900808446812
12,47,4,0.175913751423745,-0.0249466213288476,-0.296373960333427,0.248527860728485
1,48,4,0.552084296659108,-0.0328078359518969,-1.22846823368072,-0.476433722847264
2,48,4,0.355913280800381,-0.0364871084407286,-0.633037136517545,0.143503736364823
3,48,4,0.303063524590899,-0.049991156380451,-0.421036105934673,0.27394033461569
4,48,4,0.374329831637292,-0.0357480765270467,-0.109879221439215,-0.426377981429453
5,48,4,0.664733291590341,-0.0504834724056928,-1.00194012652119,-0.57493681554747
6,48,4,0.0467561688592783,-0.0162811662590888,-0.0168719308773154,0.555139534904989
7,48,4,0.216088468498976,-0.0192010259400352,-0.548849091786332,-0.00868125630319747
8,48,4,0.172382924308489,-0.017345108911942,0.0973499387297236,-0.406457905125676
9,48,4,0.380447123500806,-0.0403198241818675,-0.023585350350758,-0.411836554430566
10,48,4,-0.115045988438107,0.00793002314582195,-0.01861047778032,0.17809425484915
11,48,4,0.470364954432695,-0.0485390654789037,-0.854243861104017,-0.114474714962118
12,48,4,-0.300134899672069,0.025026944830284,0.29627475844196,0.461833821693307
1,49,4,-0.230779522137789,0.020740293293594,0.103165618794515,0.300603498598672
2,49,4,-0.00268052401028344,-0.0095799923455963,-0.0944792414553449,0.379983469475531
3,49,4,0.333051698667214,-0.0543199890343747,-0.457408999175116,0.270515478405411
4,49,4,0.0564186477160349,-0.00678876777109506,-0.226888323388278,0.200612578430421
5,49,4,-0.0727852198643339,-0.0054047921841971,0.0153444643038391,0.396159056059276
6,49,4,0.648575841778902,-0.0693976322228119,-1.10228371630163,-0.184996907313888
7,49,4,0.0303090992620999,-0.00674187701572211,-0.198961427232361,0.224379045479314
8,49,4,0.315559631781817,-0.0384744543631907,-0.5994578478103,0.106082422937377
9,49,4,-0.281538991595737,0.0218773057212688,0.286997123193441,0.480416948628931
10,49,4,-0.390491908206499,0.0291679424741213,0.176068700182781,0.409041310679231
11,49,4,-0.120923438110183,0.00914253186538969,-0.00796058017207251,0.187753249488713
12,49,4,0.0902290888357367,-0.00835706044523743,0.0488228753180411,-0.186661589973573
1,50,4,-0.222828692580835,0.020390961093629,0.0642741288596788,0.394798884063524
2,50,4,0.343086743270616,-0.0329184434708145,-0.751561301444672,-0.0352438627353538
3,50,4,0.299002167897962,-0.0299447033173243,-0.505383656547905,-0.0214826233795635
4,50,4,-0.283565389956197,0.0240374286695112,0.270668270278129,0.146939744312634
5,50,4,-0.219827725925349,0.0177661534348798,0.111413339620001,0.228001226694998
6,50,4,0.421012158328259,-0.0468318012322935,0.0407320421075927,-0.342014977407805
7,50,4,0.411349318421871,-0.0285408217850442,-0.816634054535815,-0.336683987384005
8,50,4,0.410310131915121,-0.0351796410600154,-0.618314783322596,-0.307987788198635
9,50,4,0.475053444406756,-0.0527557215287209,-0.0756325708362486,-0.478616474846478
10,50,4,-0.200193235511246,0.0185002956292272,0.0483082528692442,0.350452049835246
11,50,4,0.121856770623449,-0.0112242454978899,-0.0656232939902255,-0.0775927932316588
12,50,4,0.428853613885634,-0.0447663378148298,-0.0225853114972002,-0.402989633688556
1,51,4,-0.214899679700712,0.0156002553011306,-0.0188588291265512,0.320815637259918
2,51,4,0.258143977445022,-0.0399080373600455,-0.395228671463602,0.26727342588698
3,51,4,0.00651177247197193,-0.0117985595757805,-0.00164460050113822,0.487046147928909
4,51,4,-0.254760918984872,0.0164190670310012,0.0654735277639182,0.474740038901856
5,51,4,0.138657576637167,-0.0283104404636435,-0.302894361722826,0.308591538092065
6,51,4,0.343546902515112,-0.0388597584730765,-0.57543486436644,0.0916634341907331
7,51,4,-0.18507025166699,0.0152408783404259,0.053719790927083,0.202242236781702
8,51,4,0.530495690684121,-0.0524029633962827,-1.02215112436494,-0.193834136225776
9,51,4,0.195195700128648,-0.0188686255657251,-0.15998186300031,-0.0890119351682048
10,51,4,0.0539394270569785,-0.00531108377914199,-0.173908192399661,0.0408708068567548
11,51,4,0.520254179866259,-0.0471002330746491,-1.06070311186837,-0.212648953745336
12,51,4,0.445913451659857,-0.0625641203848314,0.282729960389845,-0.886735945906426
1,52,4,0.388671914509826,-0.032683732848257,-0.868165439157708,-0.154747327119438
2,52,4,0.102830652501384,-0.0132229968463156,-0.282079775239363,0.147217841677997
3,52,4,-0.775543939275172,0.0487462190963122,0.0230821776241022,0.857944290928511
4,52,4,0.296042284439961,-0.0239534718164085,-0.610149747064916,-0.162078249422255
5,52,4,-0.0946865654202045,0.00574321430632532,-0.0374355098080529,0.232446193674333
6,52,4,0.026194334687579,-0.00670301978546612,-0.0989689813939433,0.261492342930668
7,52,4,-0.19223836869127,0.0145772255236449,0.00886392569559768,0.281066589906256
8,52,4,0.344691647962883,-0.0369929046032679,-0.649461668739694,-0.00514368287880311
9,52,4,-0.113176342975503,0.00627132273074602,-0.026479279371783,0.332383830641947
10,52,4,0.077361413268046,-0.00880767768344836,-0.309678335918571,0.132142954496128
11,52,4,-0.162128030531836,0.0159281713506251,0.158167049961783,-0.00921679864565251
12,52,4,-0.138487232380466,0.0129597672472578,0.109796167068412,-0.041543775813595
1,53,4,0.466137943862078,-0.0480137686936477,-0.148234556752755,-0.511631293480585
2,53,4,0.0732179302373571,-0.00653015271883104,-0.00243700116613422,-0.00685571814867665
3,53,4,0.280031289258664,-0.0284886615874951,-0.0293230142397154,-0.354103927739627
4,53,4,0.415383084153155,-0.0414393079591432,0.035347286476487,-0.627296229494977
5,53,4,-0.15592351387799,0.0131855415616947,0.032258126054377,0.164388791084289
6,53,4,0.586079869059923,-0.0740243956072435,-0.863902873388048,0.0250937985803555
7,53,4,0.309513058735044,-0.0335395740459553,0.187089301680831,-0.478287891559471
8,53,4,0.18509391183925,-0.0233761958179696,-0.368284668283315,0.139551223563914
9,53,4,0.166381384809991,-0.0202485626518732,-0.344657890903446,0.140575352603874
10,53,4,0.0994928017177421,-0.00761838029367251,-0.0029052586622341,-0.00777189557364463
11,53,4,-0.262272485251044,0.0230819332629152,0.161271742463152,0.428831646429773
12,53,4,0.260052209404062,-0.0262326268191999,-0.00505334556517285,-0.259260860787156
1,54,4,0.478699811903996,-0.0494683939372739,-0.0536913486463796,-0.570613622995616
2,54,4,0.867084069938843,-0.0512606103633475,-1.65068574580273,-0.938096893499735
3,54,4,0.243422639558445,-0.0248073326021203,-0.225794248063359,0.08031229115539
4,54,4,0.363075939160424,-0.041744711787737,0.061500740664395,-0.630324123765941
5,54,4,0.208014046219016,-0.0296854729765431,-0.334949104635486,0.242043429763193
6,54,4,0.0329293846791729,-0.00562888828572596,0.315916325082557,-0.323683600635852
7,54,4,0.303071770165883,-0.0249241817684772,-0.249065976225068,-0.280998483934546
8,54,4,-0.0996638842021078,0.00404836446984117,-0.0599652326537139,0.294885553678575
9,54,4,0.0717842015230458,-0.0187319592239621,-0.10955191639861,0.367528062804002
10,54,4,0.0184063762348013,-0.00354738093966695,0.00174144071110768,-0.0074172237414892
11,54,4,-0.158758660818695,0.0122577502097972,-0.0178469469691952,0.281514791813206
12,54,4,0.0901897514075283,-0.00929609238602284,0.127493134117519,-0.335929403623166
1,55,4,0.155762538310401,-0.0174225656788484,-0.448972716691517,0.111965083132746
2,55,4,0.390944024125593,-0.0556551093975486,-0.72846306945656,0.0711280377172552
3,55,4,0.189448770488485,-0.0384826481646572,-0.144343558866585,0.487621742438553
4,55,4,-0.0886937421002216,0.000766977833377883,-0.164187365020889,0.341792157430129
5,55,4,0.113048580107336,-0.0261571171021963,-0.269814689130524,0.326054871337644
6,55,4,0.0111425964367271,-0.00602790066840152,-0.122087679806997,0.267686347470524
7,55,4,0.452870004893758,-0.0303442007370315,-0.824892725022936,-0.423632418985516
8,55,4,-0.381494171402223,0.0298451013322666,0.245194258543353,0.313192546182944
9,55,4,0.129616690601679,-0.0113836922853868,-0.113758482402919,-0.0665165310273429
10,55,4,0.307818778538995,-0.041793828361804,0.549353650045094,-0.675618042406316
11,55,4,0.116054948807112,-0.0171465116120965,-0.272086848854988,0.228644549035791
12,55,4,0.225154482354781,-0.02224848668505,-0.191202949468682,-0.117264024294334
1,56,4,-0.354504672721073,0.0267107804676661,0.259347972561674,0.392010630053892
2,56,4,0.748800190298308,-0.0848183617990906,-0.35354059195988,-0.78780895880814
3,56,4,-0.301278942585881,0.0181893437750029,0.311097291206263,0.715231125588916
4,56,4,0.162048146348797,-0.0158333191290211,-0.438900732676484,0.0502742104773577
5,56,4,0.258463456954446,-0.0258543185169794,-0.192879885568922,-0.18896251481936
6,56,4,-0.281868749484681,0.0231200063716609,0.233736026774865,0.383967311608195
7,56,4,0.503419529297104,-0.0560846285512431,0.0769182188869626,-0.719466483682105
8,56,4,-0.818553557273358,0.0496158466472368,0.577747870771215,0.953375468545404
9,56,4,-0.172069142289409,0.00719832254498593,0.0898216885663689,-0.0193652923591634
10,56,4,0.168327776368322,-0.014437838915912,-0.0463157188924392,-0.172482053260937
11,56,4,0.267027489741681,-0.0315037193055328,0.336567608267075,-0.518450180673423
12,56,4,-0.171940082271966,0.0146089824727619,0.0415711050632796,0.200543313671668
1,57,4,-0.375611534269578,0.0278866856489363,0.262317699779763,0.403429606309592
2,57,4,0.554592055878158,-0.0605721591249045,-0.180532289877042,-0.608802029453123
3,57,4,0.295482754183464,-0.0416628603380022,-0.426016342071484,0.251212592714526
4,57,4,-0.363197467083854,0.0280275417784012,0.195047410037763,0.427521617648109
5,57,4,0.549540100000312,-0.0548947458344491,-0.993260947051789,-0.185465930312841
6,57,4,0.0498719866145138,-0.0160852486622651,-0.0654746650746699,0.476414555717287
7,57,4,0.0571562759062198,-0.00520241308279459,-0.125940398492694,0.0626796013915758
8,57,4,-0.0881568126763196,0.00500128937648432,-0.0560773605932377,0.21512506680475
9,57,4,0.368514003124116,-0.0371752583327558,-0.391143958870388,-0.184510009550814
10,57,4,0.0270134483489005,-0.00348325698830434,-0.148646326823746,0.15646576259976
11,57,4,0.624575066524114,-0.0609148290140798,-0.547122416929145,-0.608047685519669
12,57,4,0.123759822596853,-0.0124148545256829,-0.163533508930641,0.0231136776966681
1,58,4,0.232166843560814,-0.0234724878076119,-0.56614977347452,0.0549840501912306
2,58,4,0.354107848972962,-0.0366767712641285,-0.71872842702628,0.0205791420839271
3,58,4,0.294993868652585,-0.0279165740327023,-0.544952195210241,0.110609891318538
4,58,4,0.216297998386112,-0.0180477461830637,0.0114529748555308,-0.3632048270792
5,58,4,-0.0944556653860295,-0.00194209845220275,-0.0324785230755889,0.332297460958474
6,58,4,0.270474044721372,-0.03966085136767,-0.379922170952435,0.28587579844376
7,58,4,0.201675253831224,-0.0194026063789904,-0.522440206709482,0.0341592909308702
8,58,4,0.499990935031575,-0.0516442450028824,-0.222602610369946,-0.534229916186884
9,58,4,-0.171627851829577,0.0140825939457138,0.0281838141715998,0.265885649229452
10,58,4,0.297657969770948,-0.0240940983563635,-0.288939101947133,-0.27209304350633
11,58,4,-0.348408580734868,0.0284850694755955,0.200551512566524,0.236599339752006
12,58,4,-0.00129214224426877,-0.00781180320229386,-0.0678968774344701,0.369299567648526
1,59,4,-0.0779877368395394,-0.00520936241331423,-0.186039982450297,0.344804849017622
2,59,4,0.219274706632528,-0.0370058946157189,-0.374352549094228,0.299070282897858
3,59,4,0.274870969887027,-0.0376430724681208,-0.467196849322251,0.197421462851422
4,59,4,-0.0672265690335585,0.00597748307831382,0.0937272580342521,-0.0634370883053506
5,59,4,-0.182452783482309,0.019831671292332,0.223403551336051,-0.0118668188174329
6,59,4,0.753050769126052,-0.0739562042158034,-1.11005132910804,-0.49295658691327
7,59,4,0.0272439799092324,-0.00379560010489966,-0.148459059142079,0.156821076138712
8,59,4,-0.182382639180226,0.0135125580928329,-0.0106867249996406,0.330193552352503
9,59,4,0.345856839627972,-0.0353236149201655,-0.0650843016605419,-0.293184866438518
10,59,4,0.0831032564775168,-0.00706658421826827,-0.00502686586710092,-0.00487858426764252
11,59,4,-0.0176632415997179,-0.00515394914743314,-0.13534698295658,0.29502907072242
12,59,4,-0.0797315742754724,0.00318634523136865,-0.0519309749712313,0.243534675278108
1,60,4,0.0751142520222929,-0.0079420314644683,-0.270801739145621,0.101733788971341
2,60,4,0.0572529765568372,-0.0130203363733339,-0.234499344805265,0.243066535678192
3,60,4,0.403952800681842,-0.0491551216247541,-0.5200339193161,0.0397813477387952
4,60,4,0.21157695851012,-0.0259652805215121,0.218531831144189,-0.636652536784499
5,60,4,0.0363279882522027,-0.00418168770659837,0.0750297522740933,-0.16391138705322
6,60,4,0.50087177073337,-0.069620403171207,-0.634446529547,0.240012595470978
7,60,4,-0.0401802157105855,-0.00338030740608455,-0.129409179716375,0.266820262539094
8,60,4,0.00819594051515775,0.00076588292186684,0.0257442185992374,-0.0492321466373818
9,60,4,0.703352413075246,-0.0800602581889682,-0.333930435735893,-0.663994921113667
10,60,4,0.324065318625291,-0.0297500925196107,-0.149305223952863,-0.380269772389057
11,60,4,-0.273528456361759,0.0191701576606481,0.326621205263802,0.496509843354926
12,60,4,0.178285219244587,-0.0201931287274429,0.156389545978907,-0.48220302842328
1,61,4,0.443711459440957,-0.0304289730432938,-0.926013828039036,-0.349161833404269
2,61,4,0.373149044926083,-0.0372820480690343,-0.788883202812351,0.0119782289304863
3,61,4,0.404153396241796,-0.0521488137781466,-0.624147343654698,0.136524119270276
4,61,4,-0.340452001189109,0.0246111198291933,0.133649864928096,0.508862604193791
5,61,4,0.430164920216111,-0.0440350432664913,-0.256382668469167,-0.412697290397883
6,61,4,0.422076426372468,-0.0437102962146001,-0.637633635646923,-0.103033231174996
7,61,4,-0.0387647625612886,0.00276093487423247,-0.0393088827234719,0.12205115886558
8,61,4,-0.240898606591112,0.0227534214949517,0.137205468976432,0.30062232101644
9,61,4,-0.0681678043086201,0.00394358076888815,-0.0436612014211104,0.215427547092436
10,61,4,0.282118192206173,-0.0352270983980304,0.19811197234332,-0.698572082000057
11,61,4,-0.0213004566649773,-0.00607133100516496,-0.137434809886215,0.337450739684243
12,61,4,0.115072764556285,-0.0168694893232841,-0.216221927398793,0.230450882265718
1,62,4,0.282895937563156,-0.0268685216461935,-0.0854405733317457,-0.364235000159378
2,62,4,-0.140840922711768,0.00560608994475825,0.029798146359259,0.446978103647726
3,62,4,-0.295933301297455,0.0244912483322311,0.124527570669291,0.238025489620445
4,62,4,0.330088341648602,-0.0240945970720414,-0.605574071373607,-0.257022726462274
5,62,4,0.0349531005755767,-0.0151058130137907,-0.193020035236213,0.370932640283763
6,62,4,-0.0830160830230042,-0.00228199750797259,0.0711084109673061,0.401928337497816
7,62,4,-0.0397540410833264,-0.000239271589066105,-0.130230905550936,0.249425716941902
8,62,4,0.443059440611941,-0.0335194416524542,-0.772213712891254,-0.271157344786023
9,62,4,0.236950931069648,-0.022377096806049,-0.0376796117562826,-0.180968261415291
10,62,4,0.28753096224941,-0.0229322912952652,-0.634640294926181,-0.126362741796164
11,62,4,-0.47300548040971,0.0364211267621986,0.214786000143085,0.418584282612667
12,62,4,0.246083249892587,-0.0201809105043754,-0.113116956947619,-0.211715161861833
1,63,4,0.137193976193651,-0.0131019727549879,-0.407327650332583,0.0731472554916812
2,63,4,-0.0785032965091039,0.00434645736475132,-0.0613099158671678,0.207645626885708
3,63,4,0.974863735006448,-0.0603235463997502,-1.86202758586471,-0.985512830259547
4,63,4,0.309240168901125,-0.0321044080403733,-0.0244378710195466,-0.4541732431594
5,63,4,-0.131403575079259,0.0117425493518417,0.00153112146984985,0.257122848070071
6,63,4,0.444321023391559,-0.0538884341547302,0.126132903491741,-0.605498278927216
7,63,4,0.200227891333446,-0.0221316632651772,0.248972548596731,-0.397059230170215
8,63,4,0.285069793634308,-0.0317235619446809,0.315674239710279,-0.516198633746876
9,63,4,-0.184336413032529,0.0146260317560838,0.0994264449667135,0.299724698651305
10,63,4,0.297394687346106,-0.0235800419239814,-0.655486284354931,-0.138334059128597
11,63,4,0.303723203802853,-0.0291616140464723,-0.302097110081156,-0.239755822883677
12,63,4,-0.249217369847774,0.0197782319828485,0.0512836025482355,0.397125451447654
1,64,4,0.366007633877467,-0.0284491943818277,-0.573605299753815,-0.333412325372781
2,64,4,-0.295274179162302,0.0174167980932507,0.267571616582283,0.606957184976563
3,64,4,0.251562571884504,-0.0291797557625294,-0.481224049972451,0.100035213616074
4,64,4,-0.174683715774912,0.0104776164283122,-0.0620747916327263,0.302557644351722
5,64,4,-0.387365031380434,0.0312988635029164,0.206601547234182,0.366587281165183
6,64,4,0.856993485709143,-0.0891379198016618,-0.602953004918697,-0.807686082296887
7,64,4,-0.503087255730873,0.0599333941663102,0.255648274660469,0.280090460670592
8,64,4,-0.0109232367018059,-0.00396252532940516,-0.124363304366812,0.242367708301943
9,64,4,-0.24162155474776,0.0189251311159354,0.087624991644742,0.353978570455176
10,64,4,0.0677849382636285,-0.00316718649274909,0.063660026596653,-0.171005013604122
11,64,4,-0.247688272241119,0.0222326872098017,0.184633170852472,0.325068380133981
12,64,4,0.447875711689892,-0.0511654053686558,0.150459534970837,-0.544049857243537
1,65,4,-0.0510700501661572,0.00198612556140154,-0.0912862580801538,0.208516359181866
2,65,4,-0.345920151941065,0.0274205603888058,0.133525623888207,0.392840209544738
3,65,4,0.0711859260095346,-0.017474646730785,-0.100568412579241,0.382743489992588
4,65,4,0.119599602692473,-0.0154622974159414,-0.328533509312247,0.219160974537358
5,65,4,0.685553465558258,-0.0573136930357118,-1.07887498835282,-0.58970931691846
6,65,4,0.0998811900685714,-0.0147878068334213,-0.215818837615432,0.22884828276607
7,65,4,0.0121697230481539,-0.00306291221205515,0.000975397449804987,-0.00470185237388287
8,65,4,0.0489398771690971,-0.00910920802240652,-0.149704997002046,0.223700750169771
9,65,4,-0.180040173269397,0.0137306111375498,0.0146504318347191,0.213853562520732
10,65,4,0.329488094884672,-0.0401091415038937,0.329705006840542,-0.569940974776886
11,65,4,-0.169235886510832,0.0131196108253146,0.33683931391152,-0.187101502963662
12,65,4,0.116187848467902,-0.0109935123966832,0.0762452968353251,-0.266676130846048
1,66,4,0.0515834421485986,-0.00470703974932526,0.0993907928105183,-0.236125460841938
2,66,4,0.339880180015579,-0.0353199057034067,-0.651089873802024,0.123266867407372
3,66,4,0.0574644201075358,-0.0155460237986479,-0.121764726980568,0.369591480395549
4,66,4,0.254929193159525,-0.0203717417118328,-0.541860789664705,-0.119861031722653
5,66,4,0.0920804727064682,-0.00892218847885699,0.104610157472893,-0.189868999578241
6,66,4,-0.24780547137735,0.0149646926916038,0.208764519708773,0.57925826845048
7,66,4,0.129365107450731,-0.010647865294817,-0.270621811720671,-0.0394727327132743
8,66,4,0.182970659011272,-0.0215430785288139,-0.370593234572192,0.10596554060237
9,66,4,0.0913390900462258,-0.00871412825239838,0.0708490666327406,-0.109915509461239
10,66,4,0.422429596044611,-0.0530238087666017,0.398455699711529,-0.658330852110881
11,66,4,-0.0163740631255841,-0.000902404787721262,0.0103166541918691,0.000831183496217057
12,66,4,0.0181262003274495,-0.0072667184927461,-0.119866134778965,0.295706639151544
1,67,4,-0.172005264224576,0.0149754219828787,0.147806727109721,0.128047519307591
2,67,4,-0.34941257845069,0.0268554760799003,0.20390572323863,0.373160598411238
3,67,4,0.453266552143006,-0.060850933046652,-0.800460980261581,0.0517760440659201
4,67,4,0.343338618635904,-0.0355745120942872,-0.0192558928369885,-0.500048200762182
5,67,4,-0.478194680491551,0.0347030463977231,-0.0568366452311375,0.730085214789845
6,67,4,0.71421654897339,-0.0756159960988255,-1.12271105607918,-0.236514943476561
7,67,4,0.0365414481542539,-0.0054638332261194,-0.185372673708196,0.185784002150108
8,67,4,-0.185760501361272,0.000331938821059537,-0.00516801405295134,0.586230332939387
9,67,4,0.120562723600946,-0.0122258030818351,-0.109776482926046,0.0792335780587395
10,67,4,0.224303084673903,-0.0199042493811747,-0.0434187428815148,-0.235186861955795
11,67,4,0.502510677454634,-0.0468039417409754,-0.54468224382951,-0.45120925003255
12,67,4,0.298161706244766,-0.0307344759693276,-0.340305467828008,-0.119210015221188
1,68,4,0.147373667725678,-0.0126990258665128,-0.291253821496165,-0.0517683469464972
2,68,4,0.0953360678606605,-0.0154100830208161,-0.247551693698606,0.238945471990689
3,68,4,0.285045262654902,-0.0306203127869528,0.0501023465974448,-0.416163852439417
4,68,4,-0.264406593263456,0.0207359700212676,0.142614215994487,0.311018170651242
5,68,4,0.134596052458997,-0.0152858250893941,-0.263596954291315,0.0730260107694411
6,68,4,0.102685738049672,-0.0135996510826954,-0.20217345162259,0.219737269257071
7,68,4,0.0805926624887884,-0.00890975541483297,-0.307123973896815,0.121347000352473
8,68,4,-0.00262729984716779,0.000962079845587309,0.000937452526232629,-0.000509313525278896
9,68,4,0.170400944574007,-0.0175366667080476,-0.368367170765395,0.0382620545088111
10,68,4,0.270906265280409,-0.0231543008154037,-0.406701493089583,-0.242522746223164
11,68,4,0.0775250819436123,-0.00691086565348517,0.0725530274075714,-0.244194272603486
12,68,4,-0.355883602021034,0.0284665545135503,0.114209479500677,0.491206900980638
1,69,4,0.101058835069042,-0.00951396807474564,-0.263205804146511,0.143642680790665
2,69,4,-0.0535543101555505,-0.000158658147100633,-0.0922093009332191,0.222189014176348
3,69,4,0.377770187451258,-0.0534441707106424,-0.524860821930183,0.261632223408283
4,69,4,0.249098276023921,-0.0253209719969103,0.203007881428324,-0.432635982278808
5,69,4,0.00843648266915888,-0.00944867689408265,-0.160637839025657,0.337926592813456
6,69,4,0.846640054509018,-0.0763934086066307,-1.13504364324957,-0.696522584537693
7,69,4,-0.303786937212617,0.0264149295087938,0.216898013392264,0.242444830841025
8,69,4,0.0572218315426378,-0.0135493590968984,-0.213273320347301,0.254005552151605
9,69,4,0.2136842884824,-0.0284102458582853,-0.416927580676121,0.172653435011331
10,69,4,-0.452077331650522,0.0338796842586826,0.184756092034367,0.505730284556635
11,69,4,-0.368697952958003,0.0298058866251066,0.231473401056957,0.359046582115522
12,69,4,-0.0160441524907835,-0.00419603851232666,-0.109920740165403,0.281070321429882
1,70,4,0.617382691548741,-0.0306137202986804,-1.45107150944246,-0.609984453294649
2,70,4,0.401943136761882,-0.0370147277404338,-0.596470034904981,-0.242814000706221
3,70,4,-0.123843321703577,0.00513035584747094,0.102688579506308,0.476495945837704
4,70,4,0.393867360331684,-0.0350898996458529,-0.184366498898143,-0.395714095796486
5,70,4,0.0660098841012571,-0.0179014176824397,-0.242812189822997,0.299436227874424
6,70,4,-0.139577898318687,0.00223135214672002,0.0725683157960984,0.412743409716641
7,70,4,-0.581500691062284,0.0439957217259319,0.398004426521222,0.39694464130935
8,70,4,-0.12675642719997,0.00257711071863342,0.042798675502138,0.388175118191688
9,70,4,0.0313275555786773,-0.00503851206530382,-0.00231037568250349,-0.00392850058216156
10,70,4,0.267010121863664,-0.0230718443392397,-0.610205602838379,-0.0983441749716061
11,70,4,0.169626862753999,-0.030150809012768,-0.331408442862452,0.291476453048795
12,70,4,0.503320305749,-0.0486398413764884,-1.0821659593565,-0.0979341956114701
1,71,4,0.382566590970869,-0.0355905828178965,-0.0746966297632763,-0.476891752533028
2,71,4,0.159132191244492,-0.0152300785226423,0.0206662625740216,-0.234576741903707
3,71,4,0.230448820014347,-0.0388433413610082,-0.339285848587413,0.296550068695293
4,71,4,0.469959666647147,-0.0562010277802819,0.0931184440720154,-0.711204224496736
5,71,4,0.789336613753245,-0.0917308124891731,0.173220538562112,-0.832871423749645
6,71,4,0.59935612918474,-0.0621227090658745,-0.838546901088234,-0.243099174454081
7,71,4,-0.46325606678315,0.0358699947911985,0.270989387028657,0.413943681542513
8,71,4,0.194546211681951,-0.0243315683292713,0.407069477069532,-0.499017606890058
9,71,4,0.593759235892068,-0.0704717361702788,-0.190431519162018,-0.517371751444243
10,71,4,0.380217093130118,-0.0510667899683038,0.539760480545094,-0.720889107262397
11,71,4,0.0818760215471251,-0.0172954635548327,-0.215669065482282,0.273334727310075
12,71,4,0.219803599111996,-0.0320450832923961,-0.347167746715053,0.257480163334569
1,72,4,-0.238778027792602,0.0193520933527601,0.0852286580922552,0.257115397599006
2,72,4,0.113410820575632,-0.0107292851190744,0.0858720790056972,-0.27152997908105
3,72,4,0.261370622300484,-0.0344956750008017,-0.384706371891155,0.248739022320959
4,72,4,0.379631280900059,-0.0395079042317526,-0.0366913950857766,-0.526571511714888
5,72,4,0.0668735276918859,-0.0108161577774318,-0.143327347461607,0.18210900167068
6,72,4,0.0025324238480106,-0.0119033581873587,0.057548147592959,0.527526762560942
7,72,4,-0.173019125895538,0.015733073059205,0.0326825565822359,0.289143577380321
8,72,4,-0.214559730710335,0.018723577985993,0.149318247597409,0.144164509107732
9,72,4,-0.0877076621114356,-0.000590496271394241,0.0380690894999504,0.361143790349516
10,72,4,-0.568320722175587,0.0400300508356588,-0.00106298550900975,0.841923680044908
11,72,4,0.368056745081511,-0.0408459809982027,0.0285235523139593,-0.396562834159075
12,72,4,0.349743432542519,-0.036557662508061,-0.21928896919512,-0.230147659097005
1,73,4,0.565134212431169,-0.0324415661199436,-1.15110828561769,-0.52612814826053
2,73,4,0.535947193043618,-0.0393513944183987,-1.28455723709095,-0.290665908699651
3,73,4,0.728740164427977,-0.0628115462212967,-1.44383152923677,-0.393390252448311
4,73,4,0.373768392703296,-0.0398908424926311,-0.00312879032825763,-0.543058694462971
5,73,4,-0.296384208049514,0.0166521358171,0.0463261850298421,0.518920439019553
6,73,4,-0.00359364420308999,0.00127262407787451,0.000293013260095703,0.00117257546372436
7,73,4,-0.259388829107544,0.0209576776495463,0.185092875422686,0.315705260798004
8,73,4,0.442382326148244,-0.0488690788871607,-0.844798689850879,-0.062453085742811
9,73,4,-0.38767268555953,0.0310832033928357,0.187148856781624,0.462698161052661
10,73,4,0.208075352981036,-0.0180608423865044,-0.471504834727963,-0.0567077727919642
11,73,4,0.225327547146967,-0.0284349375176861,-0.466831710445538,0.149343014655918
12,73,4,0.32460029458838,-0.0559107726600941,-0.433561075793776,0.321450652038819
1,74,4,0.0680739870833059,-0.0133446156178717,-0.233635880053322,0.241252428960927
2,74,4,0.240055250623397,-0.0381133604374999,-0.39221399484298,0.26886739395603
3,74,4,0.621956839938458,-0.0705779128966818,-1.08527431194146,-0.135996213098038
4,74,4,0.538582334236377,-0.0653949817206062,0.149992658147108,-0.838363728794761
5,74,4,0.710345634339636,-0.0556919800574962,-1.08573033065713,-0.539551903966239
6,74,4,0.663697140851975,-0.0690776316016195,-0.756140941868052,-0.397937247041432
7,74,4,-0.106565221864392,0.0111549324568763,0.305641145069839,-0.118678174272674
8,74,4,-0.40200996778062,0.0311481682368673,0.366586660840031,0.378880650976626
9,74,4,-0.204346510811156,0.018308760155326,0.187757294606739,0.10632263872806
10,74,4,0.270925295474341,-0.0297430919020904,0.317960243872205,-0.51995660751486
11,74,4,0.156720124493806,-0.0191679177838172,-0.381275905078464,0.136283531014889
12,74,4,-0.442123496383629,0.0338537488577829,0.2928113877687,0.425112441614693
1,75,4,0.446230824446475,-0.0545463754259729,0.104375392544748,-0.719525833614062
2,75,4,0.27318848236544,-0.0342424343823283,-0.442675841676844,0.237782890845659
3,75,4,0.367251013754562,-0.0505120745320236,-0.471506493660487,0.257848408706455
4,75,4,-0.249818779217432,0.0219175177527142,0.135885551522494,0.329161069310294
5,75,4,0.125180148887752,-0.020077302454116,-0.254312935212498,0.24802127989557
6,75,4,0.486805074430011,-0.0599583614647057,-0.630541122908066,0.227311313858658
7,75,4,-0.0232694403067606,0.000771628137685281,-0.056708372121615,0.114195577041514
8,75,4,0.0128701626329034,-0.0035337150035385,0.0010352363834868,-0.00353552101222636
9,75,4,0.515317505068637,-0.0518025622320057,-1.13497469268177,-0.0901905475002188
10,75,4,0.100923567212721,-0.0100899446006734,-0.286124358880038,0.0350065472260586
11,75,4,0.245845546329216,-0.0269402371447547,-0.495834555450423,0.0459003322644611
12,75,4,0.071017010199182,-0.00875377640183897,-0.197817525871787,0.133872300218122
1,76,4,0.0325525334278728,-0.0102028850560114,-0.232371325449382,0.281334042891684
2,76,4,0.0825004987662449,-0.00971271475817507,-0.262548809411581,0.139390538905522
3,76,4,-0.199942846685525,0.0206081473086435,0.119822432884419,0.318470149585401
4,76,4,-0.65171997233824,0.0569585710471888,0.0256733128780263,0.903865214498489
5,76,4,-0.1290788072208,0.0061751814338535,0.0337359258806762,0.362863879377518
6,76,4,0.436705715155817,-0.0531603673701489,-0.683552565139436,0.0382970906425633
7,76,4,0.255066500878072,-0.0202089553285082,-0.448199660737476,-0.168327560435277
8,76,4,-0.0552071042300047,0.00518510145999523,0.00494295904282301,0.0218166770638458
9,76,4,0.135276958666301,-0.025421728587893,-0.231949279702973,0.302966545779334
10,76,4,0.157280222172693,-0.0152235215687499,0.0607166997764648,-0.300052392788617
11,76,4,0.595201432030747,-0.0784558922091832,0.16944545305838,-0.806807814616814
12,76,4,0.437847771451514,-0.048281087473124,-0.803927581520609,0.0393134335354933
1,77,4,0.163042776301397,-0.0161905729729581,-0.460403931461865,0.0709025855865462
2,77,4,0.54550895774716,-0.0435149989565826,-1.67745569530223,-0.0138765940831635
3,77,4,-0.00388162670176391,-0.000118613042262166,-0.0543640824779419,0.0708642311877873
4,77,4,0.128853930896872,-0.0119957971294568,-0.392511310937556,0.130715825962925
5,77,4,-0.152419401247985,0.00798157600097935,0.0516617876772566,0.403076036077464
6,77,4,0.457282440977996,-0.0690604125881607,-0.524065380929322,0.288782198543867
7,77,4,-0.347073476308316,0.0284885424211704,0.147340239810583,0.387346177905944
8,77,4,0.148576625594275,-0.0235339437399327,-0.302020477018077,0.258430083393046
9,77,4,-0.150612168265053,0.0130206048298333,0.0586290424238263,0.183768825652918
10,77,4,-0.389757827338161,0.0299990746028356,0.165476294856793,0.469976105373782
11,77,4,-0.0801016252213041,0.00525075957368244,0.322290133577961,-0.205815552085735
12,77,4,0.400727003125585,-0.0451507772272332,-0.592161367813158,0.00416921588039582
1,78,4,-0.0829891470997174,0.0026107860583249,-0.115783878189385,0.276219828740467
2,78,4,0.369837913658362,-0.0413697571129659,-0.719281118356917,0.0387979425833292
3,78,4,0.204950096080031,-0.0199719542716289,-0.17553431867839,-0.0831268309818895
4,78,4,0.526673777936286,-0.03264084288994,-1.12272879798233,-0.460178467687092
5,78,4,0.0353834823398646,-0.00872470074910179,-0.177740786028518,0.244193458878893
6,78,4,0.0731954069218682,-0.010134537317534,-0.167939174258544,0.186594133339009
7,78,4,-0.318647057163383,0.0259764898493731,0.212284558929633,0.282795936293207
8,78,4,0.0117971218498157,-0.00240767420366265,0.113398433677902,-0.199417780984299
9,78,4,0.18670995966891,-0.0204640673048845,-0.317733787294625,0.0758549491971035
10,78,4,-0.447904694855724,0.0348533617684989,0.2090646271711,0.443362115315957
11,78,4,-0.15754868180814,0.012688442279276,0.0904413273273679,0.140106458023178
12,78,4,0.335193704658455,-0.0403215298087974,0.326759477975444,-0.53256288520859
1,79,4,-0.566868539028204,0.0403114980674186,0.336739401928291,0.565486102817195
2,79,4,-0.116797432410758,-0.00244254446442113,0.088878856547577,0.508169855228573
3,79,4,0.549693739863209,-0.0590777916446955,-0.849892477207468,-0.106964509134276
4,79,4,0.295834590901801,-0.0286003849446909,-0.0560154543167129,-0.415869966907414
5,79,4,-0.229351796659471,0.0233588014755758,0.1169997287215,0.485465068428825
6,79,4,0.733646594621916,-0.0600770063635907,-1.45217159827438,-0.450841656155455
7,79,4,0.210100372447259,-0.0265345290354115,0.432452735454591,-0.521897289437653
8,79,4,0.120788144156038,-0.0117071377659002,0.101981950977512,-0.33432318852043
9,79,4,0.161904005290054,-0.0158003745970873,0.0210019768591082,-0.179787541695831
10,79,4,-0.565256571713739,0.0388971176504508,0.0285797432469191,0.690652125550791
11,79,4,0.233727769001779,-0.023691975464548,-0.0309140697923019,-0.178742409416706
12,79,4,0.82915927766586,-0.11611688481423,0.196577940145656,-0.929422858742036
1,80,4,0.32118307080328,-0.0274514459707744,-0.180895225806549,-0.328229144927712
2,80,4,0.245421529525654,-0.031489509347253,-0.395373818886485,0.237278297290821
3,80,4,0.549634986798312,-0.0553472115465978,-1.00473841221188,-0.16506462747779
4,80,4,0.375738859775176,-0.0401528063747953,0.0199528638882152,-0.569704862746405
5,80,4,0.346316435185736,-0.0501052454306714,-0.585918187339268,0.185443697851178
6,80,4,0.121440649155371,-0.0209297735965041,-0.227160423990827,0.281619432017497
7,80,4,0.257234665588283,-0.025542783448651,0.211520889374287,-0.428096188301759
8,80,4,-0.0744621050337941,-0.00156411909467808,-0.00367198740141052,0.378450519626962
9,80,4,-0.519637050000659,0.0341284373393712,0.266951036322778,0.533144489488162
10,80,4,-0.590303632136248,0.0420500547836385,0.242790823457163,0.795649564871403
11,80,4,0.213333067709688,-0.0195708786011012,-0.397408880470389,0.00896887469772501
12,80,4,-0.247096302449654,0.0205764089632364,0.0710322593416065,0.307562697629835
1,81,4,0.0121354840742138,-0.00161909809725553,-0.0881321486936924,0.0561703921522616
2,81,4,0.622660770989046,-0.0443179206009746,-1.72088364479695,-0.209305104010651
3,81,4,0.564559738251883,-0.0589109301572634,-0.976997378066,-0.123471973021633
4,81,4,0.0739257992062421,-0.0127629036191225,-0.285927644234648,0.214061647024488
5,81,4,-0.33197021946894,0.0222793282903687,0.238723931072525,0.490566628790183
6,81,4,0.0344202786026845,-0.0109603647085653,-0.103506100245862,0.37710711195018
7,81,4,0.360936637006283,-0.0441974232176462,0.377707082686034,-0.611760313372375
8,81,4,-0.927867025959242,0.0604281297223206,0.556206145899335,0.273426811432423
9,81,4,-0.140344352854652,0.0113571016026122,0.314300370985608,-0.180865316414354
10,81,4,-0.30507740632369,0.0242922770192112,0.103652345452254,0.381447525495191
11,81,4,0.136632510002552,-0.0162275520092474,-0.346034278091848,0.162057637415874
12,81,4,0.542050120818892,-0.0569763200873574,-0.833928724756129,-0.100225580507984
1,82,4,-0.020984300373796,-0.00729232679201214,-0.189882531250644,0.298378290376985
2,82,4,0.461112289159497,-0.0431653118388529,-0.939944545871953,-0.147217731025403
3,82,4,0.634037446078298,-0.0693741063391172,-1.10512743464565,-0.122900812071326
4,82,4,0.240825176287996,-0.0202353334836733,-0.565331409442873,-0.0153987960904009
5,82,4,0.510891835990798,-0.0486358574701794,-0.533324185714325,-0.408967129804704
6,82,4,0.312043032734783,-0.0435541860521991,-0.329384652709748,0.250426345929265
7,82,4,0.342462008098971,-0.0399330338930652,0.328892566807795,-0.571039496592351
8,82,4,-0.519147521403445,0.0394243837352254,0.332719518397441,0.325268811262951
9,82,4,0.248360948098989,-0.032381047200361,-0.272582722315839,0.211377809907327
10,82,4,0.342063314129979,-0.0420943248739197,0.403878742427275,-0.621781218521088
11,82,4,0.0550664891142176,-0.00551950044515268,-0.00179935417084399,-0.00719916228508514
12,82,4,0.0531222728425114,-0.00969160424617426,-0.177667277832108,0.225681348002624
1,83,4,0.454630016479531,-0.0309433297819082,-0.747628540042709,-0.45367278391447
2,83,4,-0.0325390643222655,-0.00245465270111075,-0.114977478033154,0.248157857075768
3,83,4,-0.0252183892338974,-0.00368886306352056,-0.0495675660443604,0.29818190402654
4,83,4,0.0815022570894231,-0.00984980150116222,-0.241369824210167,0.160448285361274
5,83,4,-0.173254680727416,0.0150601411402165,0.0911838852700743,0.146308478259238
6,83,4,-0.372542565858573,0.0295448295221085,0.358039051193303,0.530260318865559
7,83,4,0.0541700674647966,-0.00678087922981166,-0.261757545675102,0.105901198445247
8,83,4,0.056700932031807,-0.0131497693076849,-0.215359604040811,0.253354148253594
9,83,4,-0.16527313668149,0.0142951078364136,0.0504397163537702,0.165972890201474
10,83,4,-0.121885242905362,0.0113810713976827,0.154082534952047,-0.159230879234026
11,83,4,-0.619142606888196,0.038168036103803,0.203522541597188,0.921217016917164
12,83,4,-0.0231802010837994,-0.00460568383367921,-0.0140830399797774,0.422103737357768
1,84,4,-0.00766143620977174,-0.00112099604396863,-0.126470706972372,0.19700970879281
2,84,4,0.5562082190728,-0.0540874821902647,-1.0847332531599,-0.1752370142193
3,84,4,0.701239231833874,-0.0666287331076085,-1.20228864627063,-0.292316389319563
4,84,4,0.410594030271983,-0.04007431307944,-0.076051814388186,-0.495797939167454
5,84,4,0.449289867750421,-0.0546659539261592,-0.719075099165827,-0.0418846836104293
6,84,4,-0.0342215447536207,-0.00373054272438699,-0.0342225910156533,0.393375050048019
7,84,4,-0.15377582086361,0.0124222372762052,0.0199928921709452,0.196771755531976
8,84,4,0.0423088717306291,-0.00937951510072847,-0.19358202822338,0.224164642627146
9,84,4,-0.0697118477797893,0.00599457345323398,0.0238171479965925,0.120942974372652
10,84,4,-0.0489167233104795,0.00212404768182251,-0.0860726705227924,0.201411662611199
11,84,4,0.462638327529975,-0.0542545404297128,0.049315633242931,-0.529992446233756
12,84,4,-0.305030177517126,0.0240402621493818,0.255153840756205,0.0634672407639549
1,85,4,0.190927328092745,-0.0230443897816956,-0.474434872441396,0.101760181326388
2,85,4,-0.446925687656427,0.0362461816205012,0.338506822101382,0.324750170454521
3,85,4,0.374574180440942,-0.0445497756608675,-0.699335524679873,0.0743816597716106
4,85,4,0.0967594963616469,-0.011088628901386,-0.287257778181353,0.197273541899399
5,85,4,0.7866323257581,-0.109707387446522,0.191518591516273,-0.891215937843024
6,85,4,0.166615473217925,-0.0325650109863934,-0.127461960016959,0.487475703208391
7,85,4,-0.227361209076451,0.0163615269125874,-0.0515644054880387,0.374477271092978
8,85,4,-0.309445628612445,0.0245486828547187,0.142740910225611,0.326668403305637
9,85,4,0.168010209199761,-0.0187615866103068,-0.389446475879498,0.0888376500370377
10,85,4,0.0131965179497644,-0.00193005914389868,-0.135648905057075,0.16340224245415
11,85,4,0.350387775822064,-0.0376935050661968,0.00777707309482778,-0.419529177631308
12,85,4,-0.0286675893492348,0.00300287861747284,0.0535017401792671,-0.0423682943555988
1,86,4,0.310330608332351,-0.0258422777898235,-0.542453809185684,-0.244366033921475
2,86,4,0.165955936872798,-0.0264068242045077,-0.291198225939506,0.251004605374308
3,86,4,0.488504400380243,-0.050816406085446,-0.922179970206179,-0.0523046302832581
4,86,4,-0.197864523828665,0.0151119426090142,0.0125173686443685,0.276035435876166
5,86,4,0.328640296387452,-0.0395898350054274,-0.478686111022109,0.129032184248478
6,86,4,-0.0178864995083698,-0.00738813576285176,0.0068044385376409,0.514679195384887
7,86,4,-0.518785006948848,0.0393774539541269,0.349263874498212,0.400035473373817
8,86,4,0.2325397240328,-0.0242175079197876,-0.369093929931233,-0.0488459866172679
9,86,4,0.780458113972834,-0.0697018595914973,-1.91028712010769,-0.331572102031364
10,86,4,-0.0323465424857643,0.00161825122781933,0.152392676793729,-0.238756285285687
11,86,4,-0.124340338572318,0.0106763958117182,0.120702576244846,-0.16824355523045
12,86,4,-0.203747227675781,0.0183198388525557,0.100877870879249,0.255118275629825
1,87,4,0.266798213940887,-0.0217655678554986,-0.571999134318341,-0.0807923188926557
2,87,4,-0.0956905995315395,0.006786411212563,-0.0165547864045313,0.20646646765026
3,87,4,0.200619783357331,-0.0228866033841612,-0.301270382570512,0.101963539742888
4,87,4,-0.276942821162816,0.018148791217996,0.177824837334687,0.466267700576181
5,87,4,0.0148019004575355,-0.0092568432588919,-0.133054607916004,0.280260080758949
6,87,4,-0.0409556307233258,-0.00686861161229267,0.0882333368041497,0.504612990652247
7,87,4,-0.120750313773426,0.00659105774010687,0.00410653517143858,0.122350131877443
8,87,4,0.268658843150727,-0.0320782276192474,-0.4467357329607,0.074226740009366
9,87,4,-0.377328320911142,0.0306079347989182,0.219109791346223,0.358684448976989
10,87,4,-0.372228696689971,0.0265494444875977,0.122840276431464,0.44964885183409
11,87,4,0.0880467231225766,-0.0125209206483487,-0.164445013768674,0.193723379516129
12,87,4,-0.129685031128222,0.0120444800197881,0.13328281561865,-0.00950913387231811
1,88,4,0.410178790631237,-0.0293726666425717,-0.908473543539781,-0.259795704404674
2,88,4,0.515929563413053,-0.0428721243570091,-1.08956888331327,-0.2595557355742
3,88,4,0.50481897976315,-0.0701440996681435,-0.594934356989218,0.270528094114624
4,88,4,0.316460261635907,-0.0235807550709021,-0.575962218514528,-0.20939002025454
5,88,4,0.427097398669017,-0.0433055415154126,-0.814620708242941,-0.0569882438522861
6,88,4,-0.345218290236729,0.0270244531805063,0.375824471988584,0.249800019090579
7,88,4,-0.0673716454218677,0.00631902152642018,0.00429059907467208,0.0272430830693675
8,88,4,-0.267357002331066,0.0240757336471,0.172341588701737,0.307190566704571
9,88,4,0.0724903391202111,-0.00663842915828729,0.0232652576695581,-0.111705421554141
10,88,4,-0.160610914530424,0.0144003284690059,0.183394596688277,0.0625542313758237
11,88,4,0.565850390103788,-0.0639681034650866,-0.180481108339532,-0.580258512327106
12,88,4,-0.256684782020919,0.021476583137425,0.085232769464881,0.28679933062847
1,89,4,0.163294232344905,-0.0175224844395279,-0.455180871359742,0.0913336594540713
2,89,4,-0.107734641242624,0.00804150297276673,-0.00637883875369736,0.181105737153559
3,89,4,-0.197443396274288,0.0158287611492465,0.113949965074179,0.318087255471127
4,89,4,-0.490238843233033,0.0592072115984243,0.286303936281785,0.26045481961357
5,89,4,0.280046611793541,-0.0307496548476185,0.107657728318006,-0.388016081715343
6,89,4,-0.0594473554264593,0.00281304119823958,-0.0134360657965425,0.287137050634026
7,89,4,-0.132504593777456,0.0107415598828709,0.0193664854709214,0.166737932302817
8,89,4,-0.322668901527166,0.0253017734621655,0.152044150910924,0.323627035968051
9,89,4,0.117719860827232,-0.0112708263558454,-0.229308160142784,0.045559687827287
10,89,4,-0.0940996718492967,0.00297930025851676,-0.107733028669748,0.27734665397579
11,89,4,0.338748108807855,-0.0372321011116555,0.0686906834458453,-0.459133287669586
12,89,4,-0.304019309153014,0.0248723358918766,0.0936588760783027,0.406514286225834
1,90,4,0.253198247524049,-0.0239787645088376,-0.62551000218147,0.00647413020248216
2,90,4,0.23217122485567,-0.0297609645499855,-0.485817099992768,0.13827986871556
3,90,4,0.597655568174417,-0.0536780621929783,-0.728289635218617,-0.509264109882103
4,90,4,0.0836064255029189,-0.00784649488559036,0.0481029690828331,-0.183820966167228
5,90,4,0.149072480073211,-0.0140510364793367,-0.0151828632563889,-0.151851955442719
6,90,4,-0.608371981977069,0.0446452016216265,0.430241106661275,0.646658389092223
7,90,4,0.137972955960151,-0.0122311967330739,-0.0263591571433952,-0.153670766482775
8,90,4,0.109286264101327,-0.0138057753231435,0.408183623752555,-0.456319415565292
9,90,4,0.314292468727486,-0.0345566393219485,-0.288748849518207,-0.0239956855604324
10,90,4,0.113081571332469,-0.00856055071693012,-0.0740747993908909,-0.0999433326175824
11,90,4,0.0114277724789753,-0.00465000095257413,-0.109931374496597,0.210099075012205
12,90,4,0.329804223880153,-0.036514513744276,-0.536211233319507,0.0222793163667471
1,91,4,0.62280627432251,-0.0308266364089399,-1.38503031141409,-0.631724332820289
2,91,4,0.665453898554101,-0.045982649786471,-1.48908564016823,-0.461179087876854
3,91,4,0.219993006878503,-0.0217199759428932,-0.187759465733096,-0.0737485634112837
4,91,4,0.380904374555868,-0.0477269555523869,0.472339479536742,-0.678175372650469
5,91,4,0.0887597825072619,-0.0138377832818066,-0.111159652791371,0.156394602757899
6,91,4,0.411115358098181,-0.0548845093996814,-0.561396018188482,0.245683187296518
7,91,4,0.0912514097055432,-0.00848725563460534,0.0424786847218567,-0.189174061002621
8,91,4,0.181081670026955,-0.019870280333791,-0.381107781525378,0.0656990379648456
9,91,4,0.261108671092586,-0.0270422336380359,0.0276378891679492,-0.324964426335252
10,91,4,0.163046062973636,-0.0200375825066089,0.166786292943423,-0.348384691397705
11,91,4,-0.365840457192097,0.0295658663062139,0.19161980994801,0.330882288448954
12,91,4,-0.175891440580792,0.014030086136749,0.0974629667344032,0.368145827639665
1,92,4,0.380333800630745,-0.0263907451027755,-0.846850016000241,-0.228948601223377
2,92,4,0.12198474140378,-0.0224745857768066,-0.272783214538624,0.262675765075485
3,92,4,0.145981994039801,-0.0257843811296598,-0.264109256900324,0.302054323818326
4,92,4,-0.0373974866892217,-0.00277729950338915,-0.164983406438822,0.28796742552449
5,92,4,0.0923109437898967,-0.0230953529362738,-0.151095938093549,0.469112762730655
6,92,4,0.0450493388785575,-0.00865279893515481,-0.154979150984155,0.234705327595479
7,92,4,0.0228909073442019,-0.00429930804231935,-0.00198839025714959,-0.00353998652316696
8,92,4,0.307959937863751,-0.032036449620192,-0.52769703446809,-0.0416054518931192
9,92,4,0.10550971218955,-0.0207359938501201,-0.223854918101907,0.270444469722633
10,92,4,-0.0299792772304344,0.00393077724920363,0.0772117943347756,-0.0702986753060104
11,92,4,0.0156249540859636,-0.0103675069910711,-0.164898348997444,0.31843598548037
12,92,4,0.726246179533651,-0.0944719673074903,0.139807648730147,-0.724502330495783
1,93,4,0.170398902729381,-0.016174453850274,-0.45529768229272,0.0489435146511951
2,93,4,0.139190913212803,-0.0240061120322354,-0.298831346053503,0.270570811184889
3,93,4,-0.308609748252096,0.0243368042645128,0.209745527237107,0.41915314833316
4,93,4,0.0997518080903532,-0.015217788338565,-0.318453537176614,0.0756451207825722
5,93,4,0.314028572233643,-0.0257451942313132,-0.49192167848379,0.107811420531794
6,93,4,0.576656205756912,-0.0684967748042675,0.0826039074780987,-0.506186783532238
7,93,4,-0.17112418060096,0.0141271080539187,0.0455976586667769,0.193326396743493
8,93,4,0.10463162845977,-0.0104753019069423,0.01136101049923,-0.109485125825273
9,93,4,-0.107873824645362,0.00974228899350626,0.0167100089904888,0.155596495934484
10,93,4,0.0917875616359774,-0.00855389900732309,0.0458338044986675,-0.194384909071913
11,93,4,0.569862561502421,-0.0593386860639871,-0.10429123603825,-0.598593020109163
12,93,4,-0.0178166954961665,-0.00570091464326164,-0.0373089608801239,0.125007465111227
1,94,4,0.251306123325837,-0.0225111667316768,-0.650777990456064,0.00894043002366013
2,94,4,0.229353356076544,-0.0338058552483941,-0.383624137224973,0.272543225901174
3,94,4,0.272605047459631,-0.0340887528815007,-0.452112019762593,0.123485626664788
4,94,4,0.341642285693095,-0.0354107732394453,-0.0197057441359869,-0.503054446026816
5,94,4,-0.0371721161743055,-0.00405766811312072,-0.116923254934167,0.334781038377814
6,94,4,0.18946320177928,-0.0286725916236274,-0.241441405562126,0.37346113096911
7,94,4,-0.0609052979222331,0.00790173110652411,0.31967957223786,-0.162691794745703
8,94,4,0.209356715684906,-0.0212328574146477,0.0805471854392807,-0.354935288243128
9,94,4,-0.0126575716915888,-0.00666941503321189,0.019667452349133,0.388604356691102
10,94,4,0.184075788757302,-0.0182226011518694,0.0557149417541592,-0.319366121249653
11,94,4,0.44731530310574,-0.0415893506584097,-0.648542404852524,-0.282411600560954
12,94,4,-0.117373086123279,0.0108751735752606,0.0100213809095897,0.0281755352990477
1,95,4,0.303799878345537,-0.02464107429884,-0.703084349026577,-0.106461741918288
2,95,4,0.00205810262937725,-0.0145115523113424,-0.158353878666856,0.340680148656471
3,95,4,0.0630987981803472,-0.0216256472326155,0.0516388862731731,0.531610552580031
4,95,4,0.0712344424688257,-0.00698093270561513,-0.00377073783171826,-0.0893696355637928
5,95,4,0.0576964087096588,-0.0184042704567094,-0.162754403807523,0.408113656037683
6,95,4,0.154662384605611,-0.0207376976256123,-0.247666889073138,0.23836167324678
7,95,4,0.387595072705092,-0.0278724683838287,-0.717647724818262,-0.319195763125459
8,95,4,-0.294590202134874,0.0236861819616866,0.100774208609101,0.289314186046523
9,95,4,0.313137047964303,-0.0406555305214029,-0.339470645010426,0.21936002884393
10,95,4,-0.023066808619022,0.00154610085428305,-0.0363989516487768,0.0984832683490077
11,95,4,0.293548631338053,-0.0288382395613609,-0.106978604294531,-0.221679234628499
12,95,4,-0.374243520853254,0.0286556956559276,0.252302791384752,0.0968574049218906
1,96,4,0.40752624823081,-0.0438796636673962,-0.0436345890310742,-0.558626454492634
2,96,4,0.318138284506861,-0.0458933281056281,-0.484924256150584,0.265943388862277
3,96,4,0.702133251545891,-0.056868949704399,-1.51220423858491,-0.311121195243012
4,96,4,0.230573696868873,-0.0227891790302555,-0.54637378189112,-0.0187088033991781
5,96,4,0.000271562911627305,-0.00743279640625733,-0.123711128655383,0.301088606584978
6,96,4,0.088812325789773,-0.00903915494295845,0.123722140767941,-0.333191760871736
7,96,4,-0.422614521684899,0.0306875391877782,0.125924629219006,0.541074796316788
8,96,4,0.143412981532977,-0.0177025946770347,-0.304229308129255,0.19923997753884
9,96,4,0.00753870433719253,-0.00183979622667754,-0.013007979943981,0.139663583676578
10,96,4,0.136537549609841,-0.0135373933209059,-0.390060948380869,0.053470209796247
11,96,4,0.108238256365424,-0.0119385380990428,-0.290336054001825,0.0805563454177801
12,96,4,-0.341161337847032,0.0230228783621163,0.230120255232826,0.386569611813851
1,97,4,0.470772923307845,-0.0556334060592579,0.0929139091458873,-0.702770906941001
2,97,4,-0.2231474952853,0.0153377171328278,0.149321785920093,0.428025961470206
3,97,4,0.454253842874628,-0.0501266615128261,-0.72304771585867,-0.0206790873538403
4,97,4,0.18334395415696,-0.0159977861847087,0.0304032767007887,-0.270472418822153
5,97,4,0.306536706095963,-0.0345115401304622,-0.545982330477956,0.0320367005040748
6,97,4,0.507554719334614,-0.0520211466983342,-0.365324170781813,-0.34699126305583
7,97,4,-0.21432572623102,0.0164492756102409,0.0107375697671303,0.279099719960635
8,97,4,0.0129316919724042,-0.00416624274813202,-0.121078343779017,0.202630554631646
9,97,4,-0.00530249942339862,-0.00134682652257931,0.29881522732118,-0.25613068536027
10,97,4,0.0300900163276484,-0.00419733337845144,-0.138750786203954,0.125586180658325
11,97,4,-0.327914694649508,0.0253937699574481,0.180324791016676,0.326008680694525
12,97,4,0.325625929986575,-0.0399794777147556,-0.622026209512062,0.0882488551063738
1,98,4,0.216882100334836,-0.0206638067887708,-0.00958296508824831,-0.257832817860358
2,98,4,0.066728137584977,-0.0114508866221351,-0.172622316582077,0.206648186978227
3,98,4,0.386550193044217,-0.0476575863656747,-0.593912117616686,0.197950641232478
4,98,4,0.142240994016246,-0.0117316323630323,-0.294401686664715,0.0662541043911834
5,98,4,0.0848849665770981,-0.0105762225010248,-0.192044828469697,0.100490742064105
6,98,4,-0.263203168415249,0.0229120132074287,0.126481267052646,0.25313971601595
7,98,4,0.0736424988742618,-0.00649950048227959,-0.15777149443008,0.0764274159113496
8,98,4,-0.202378475912638,0.0182439704808091,0.102771190305893,0.256573364499934
9,98,4,0.0658577044615168,-0.00663564377531695,-0.00185036435645462,-0.00630361938962582
10,98,4,-0.00128232708705635,-0.0027577525730735,-0.150695890874839,0.130075362401721
11,98,4,0.0677944991893202,-0.00621391378013621,0.123548071488022,-0.284895481686941
12,98,4,0.0837420768620252,-0.00767845662228033,-0.00387659762513339,-0.00529889454169395
1,99,4,-0.0162068273950545,0.000966768440509281,-0.00155141036279081,0.0115836937749679
2,99,4,-0.0940383295474155,-0.00385490941462893,0.147926008284157,0.490632028678413
3,99,4,0.00475356289791215,-0.0129587759946342,0.0720523496869701,0.481074403800341
4,99,4,0.494863799458615,-0.0610379483030807,0.117484885583549,-0.773110550983648
5,99,4,0.464330503009654,-0.0462320008619463,-0.949366510325065,-0.114027737693672
6,99,4,0.50133896659677,-0.0515555649037122,-0.929633624074971,-0.0341275342177057
7,99,4,-0.356621987020225,0.0262838255647407,0.118594026333136,0.459511918569922
8,99,4,-0.0651562601065311,0.00317484706108628,-0.0662397989300618,0.210835547241602
9,99,4,-0.0362899713628286,-0.00725623154035289,0.0876676658850585,0.52137850778721
10,99,4,-0.276317404329973,0.0272560768542201,0.244457915389952,-0.0800332442174746
11,99,4,-0.205114979727227,0.0170854769482487,0.0680596010735894,0.222084125641725
12,99,4,-0.0949727170460254,-0.0032538725804717,0.013930251871001,0.411038726890729
1,100,4,0.198165099526787,-0.0180604371645134,-0.505792468386991,0.067701061847312
2,100,4,0.217793097192442,-0.0225485232545258,-0.360008874941175,-0.0140982777281959
3,100,4,0.469705726405337,-0.0555010949130569,-0.66229957959367,0.17343349677748
4,100,4,0.233992469972663,-0.0254082742912103,-0.403266694075247,0.216874276341259
5,100,4,0.189327793368906,-0.0222612551423144,-0.345815135658911,0.0863102757149805
6,100,4,-0.173255519416935,0.0136623893176759,0.0109059896936261,0.220123073671237
7,100,4,-0.018216597429039,0.000866024599219484,-0.0471782974459281,0.105703819241493
