ID,SIM,interval,ETA1,ETA2,ETA3,ETA4
1,0,3,-0.0432648235661715,0.00294266624624697,-0.0648613912586286,0.125923970284662
2,0,3,0.0585852180667991,-0.0131638058185124,-0.181889477164627,0.252671307985172
3,0,3,0.199461278266878,-0.0232448090930106,-0.423808541965612,0.109531775684015
4,0,3,-0.0339817146410545,0.00243912109185978,-0.0527448878642308,0.0971294708665614
5,0,3,0.0195798419503908,-0.00298388227414801,-0.136383466256655,0.0990794202974174
6,0,3,0.0141793541632257,-0.00202431999401671,-0.0888616905745211,0.0718393224169438
7,0,3,0.0997744325899742,-0.0124832658448869,-0.34220136559241,0.140271885890083
8,0,3,-0.224129997722324,0.0193424934938766,0.281043174995255,-0.0118311167770405
9,0,3,-0.0231843936237754,0.00198030739235585,-0.00339705064362195,0.0376426355340881
10,0,3,-0.0137646120426322,-0.000543844974705056,-0.145766038097238,0.155483749085596
11,0,3,-0.101394661726573,0.00876361401410656,0.0497742192024816,0.105356461512037
12,0,3,0.179810217767497,-0.020095960992071,-0.387692605455445,0.0876548060283257
1,1,3,-0.108086510065098,0.00774973101012606,-0.0170559723960648,0.208103757431561
2,1,3,0.147984724941188,-0.0188598046090101,-0.373241576335139,0.149421060110795
3,1,3,0.117540012576572,-0.0208610844969884,-0.204594336547964,0.270806296053428
4,1,3,0.096613216589643,-0.0110624827156094,-0.340408634010075,0.118902151168306
5,1,3,-0.157933015308267,0.0139367628987831,0.261200612131881,-0.0578352982732719
6,1,3,-0.348660644355946,0.0283224189648685,0.196246169427238,0.274390791681923
7,1,3,0.143551101994099,-0.0136469819888946,0.0504501832917807,-0.229087102909603
8,1,3,-0.205736878009767,0.0165521135240862,0.103014036738142,0.244333766443911
9,1,3,0.173067511756554,-0.0164523864240972,-0.125748732708279,-0.140207194940866
10,1,3,-0.0679523063235475,0.00616075091496004,0.112773513595399,0.00924212887619956
11,1,3,0.0845637612009087,-0.00820453890343125,-0.176387759127146,0.0118692531783108
12,1,3,-0.55631001217491,0.0397920680029823,0.119496126137237,0.62774315562667
1,2,3,0.0990833768131285,-0.0119860524853905,-0.344080563310717,0.132678866577172
2,2,3,0.621224860479598,-0.0426529730708488,-1.03526609127578,-0.636729194618598
3,2,3,0.460402539499103,-0.039910476907002,-0.910830033031117,-0.205022550547965
4,2,3,-0.112906834126136,0.00947694953600872,0.332966970321056,-0.142314866564616
5,2,3,-0.130689119874364,0.0116585685363743,0.247401969787656,-0.0711286899614723
6,2,3,-0.337309786911576,0.0276249669773019,0.184843952957998,0.2429966667381
7,2,3,0.171477874527702,-0.0159475777976788,-0.0178187337185482,-0.231369328828076
8,2,3,-0.820736059369049,0.0393287861316208,0.173416938619329,1.30740091780575
9,2,3,0.269212883289726,-0.0322984683918976,0.352094825092345,-0.517608369196727
10,2,3,0.0693573323040964,-0.00723891671627089,0.211029252802919,-0.236026569083707
11,2,3,-0.0796905588745708,0.00730316764837566,0.0911551980563818,0.0282353123943863
12,2,3,-0.510135741567721,0.038067763851473,0.17441630113819,0.501380203549508
1,3,3,0.0745626408010821,-0.010030068589197,-0.30156876412196,0.151786298879285
2,3,3,0.397544119971998,-0.0494436652805589,0.348852346786953,-0.619256519435174
3,3,3,-0.0292710409601093,-0.00101291024446106,-0.0726269707066632,0.231774810979705
4,3,3,0.450056909132659,-0.0579082207821484,0.424944549474374,-0.708250885032984
5,3,3,-0.111773863247113,0.0101647469418953,0.211699266292584,-0.0535588589528258
6,3,3,0.179524112017863,-0.0170225666882674,-0.21641511129386,-0.0922314331723133
7,3,3,-0.2517044414512,0.0190366531768044,0.150628695309311,0.312861705843505
8,3,3,0.274060689504219,-0.0308121889658647,0.227125191960021,-0.449798572396933
9,3,3,0.354893054566639,-0.0362464277949063,-0.719935666611337,-0.0138821075417973
10,3,3,-0.329041818952306,0.0258342790801459,0.215673454912885,0.334058804953058
11,3,3,-0.106819245718267,0.00922241252022924,0.0533085857680173,0.110132811207798
12,3,3,-0.140319354016735,0.0119555105030206,0.0654645363390111,0.14723392030274
1,4,3,0.331825978029435,-0.0406513068981206,0.396217017373233,-0.597588487387499
2,4,3,0.488547031246032,-0.0587395550820068,0.13871019604626,-0.615114525245489
3,4,3,0.160833499436295,-0.0200176046653113,-0.3560063803272,0.14343794618967
4,4,3,0.232119917399213,-0.0277042631687833,0.375404455997297,-0.502448598148265
5,4,3,0.650254970783865,-0.0611905137294717,-0.525333030603556,-0.721816165503799
6,4,3,0.266974402055131,-0.0273515123922446,-0.539158915509185,0.0137449074233328
7,4,3,0.309081434530443,-0.0367601473507389,0.35149115285458,-0.554683704750991
8,4,3,-0.151618522611137,0.0121975929692159,0.0540912548231912,0.201834903899819
9,4,3,0.168177755825689,-0.0172781630207676,0.126843408194049,-0.286728712204626
10,4,3,0.138621049638814,-0.0153103748350493,0.27645007259401,-0.353230293831832
11,4,3,0.161179062175073,-0.0149318836099273,-0.134119503848371,-0.136298022366699
12,4,3,0.347298608353524,-0.040706541250556,0.249026114041986,-0.517655202211363
1,5,3,0.231085833143018,-0.018832496696581,-0.538359282491595,-0.0694833371123169
2,5,3,0.0416452857476897,-0.00859705715222318,-0.202268205729885,0.205727030457242
3,5,3,0.137854799305172,-0.0188096072678138,0.423508104133928,-0.483679581828325
4,5,3,0.208935902614591,-0.0227508262453746,0.242104415590475,-0.403725708304178
5,5,3,-0.379196024425408,0.0309062753361581,0.209250992792137,0.285362445832851
6,5,3,-0.428497212687741,0.0338531425386355,0.274871358549174,0.332003624254687
7,5,3,0.132825311974659,-0.0131534054172217,0.129614108509159,-0.258752848306023
8,5,3,-0.401110106925257,0.0319933622967749,0.220624511179984,0.34032235392848
9,5,3,-0.370631243340057,0.0299136326381241,0.281619660078173,0.305415824543159
10,5,3,0.282884411448664,-0.0348350028335429,0.417259804232599,-0.57026264182936
11,5,3,0.192826855464038,-0.0194017527047917,0.0660551152271124,-0.283746238264662
12,5,3,-0.108973847860657,0.0070696359739208,0.345290960806256,-0.236600707944863
1,6,3,0.224735101172847,-0.0204124862374218,-0.582204098887707,0.00754690915122901
2,6,3,-0.0247898591838067,-0.00287326004709588,-0.094299474800004,0.255011182084801
3,6,3,0.114168239034863,-0.0196839848888582,-0.218019833901972,0.257981875129279
4,6,3,-0.434837648287651,0.0338212507438322,0.349489295787814,0.345607132598877
5,6,3,-0.420064605485922,0.0331090334931013,0.274531228247787,0.351775955212981
6,6,3,0.17341723948098,-0.0165124644402258,-0.116321215342093,-0.146406379995343
7,6,3,-0.645680560212804,0.0473575439817501,0.457758851407975,0.427555833863784
8,6,3,0.281285232870742,-0.0247055094771996,-0.451104539679631,-0.161366916737811
9,6,3,0.264809974841157,-0.032177640007359,0.373425157752274,-0.529108408976255
10,6,3,0.0392072892656841,-0.00656339056210141,-0.244197046821942,0.166129805729994
11,6,3,-0.354850250480919,0.0284626618708107,0.224983832482076,0.316386491952272
12,6,3,0.045761329703002,-0.00564246088418409,0.260015886703037,-0.272332519562631
1,7,3,0.392049000641765,-0.04601341813927,0.264813008394782,-0.590965387254167
2,7,3,0.755691556512955,-0.0418370315951866,-1.40982902376445,-0.872174708965504
3,7,3,-0.230051296859804,0.0194078993109753,0.132768066117296,0.194298020520908
4,7,3,-0.329913420288864,0.025972761076037,0.213586127093432,0.333234607220752
5,7,3,-0.111741945064542,0.0102113858936499,0.140039863460454,0.0209819557507216
6,7,3,-0.247743463620236,0.021020854877692,0.154407578671922,0.168429974592916
7,7,3,-0.095633339133422,0.00562190822450705,-0.0438608329000018,0.236720887833473
8,7,3,-0.25686323696484,0.0220186306065068,0.186026461141892,0.161129739520647
9,7,3,0.254446445692482,-0.031283155376271,0.391087786079956,-0.534459858174283
10,7,3,-0.177728931970258,0.0122872541680613,0.0683536075188934,0.291072573350663
11,7,3,0.217418692418948,-0.0232204473097405,0.170388310726564,-0.365578529477216
12,7,3,-0.0512543644473752,0.00474357680330409,0.138980762838312,-0.0682932946748642
1,8,3,0.332440665504226,-0.0257581165104933,-0.806934751253564,-0.12528800460385
2,8,3,0.527105288662886,-0.0415757994769904,-1.14654188041491,-0.279280637649551
3,8,3,-0.00664855901249373,-0.00125920754298694,-0.102389478238164,0.149849409621843
4,8,3,0.281066146573726,-0.0322082849414213,0.296650184056212,-0.501642137911181
5,8,3,0.137281612904448,-0.016829370649113,0.374634547268012,-0.430631737844069
6,8,3,-0.264983545137802,0.0224005827199439,0.169421713243164,0.16190031163085
7,8,3,-0.316279350424272,0.0259890571916639,0.203701416688461,0.278817196603785
8,8,3,0.189020435844234,-0.0174157221716601,-0.190388125646057,-0.145444078855277
9,8,3,0.245474352299458,-0.03261427640218,0.478782967826385,-0.597135300875167
10,8,3,-0.0254386405597667,0.00151303287101134,-0.0795046089449702,0.106305717992272
11,8,3,-0.212731473886527,0.0187016316058135,0.219605943568935,0.055464112199366
12,8,3,0.0612286860955962,-0.00904557409653875,0.357350499690558,-0.371826229791078
1,9,3,0.113869967872639,-0.0151878706846978,-0.344299210759109,0.151562263757332
2,9,3,-0.103973600718653,0.00693745637344881,-0.00865469769895987,0.224792386824721
3,9,3,0.444655891746894,-0.0500474185263008,0.00418424383281697,-0.505957037315244
4,9,3,0.0707839021825622,-0.00649797987652127,-0.193908138592802,0.0232182907976388
5,9,3,0.421636409960012,-0.0530765230611055,0.358148846573165,-0.643452688144156
6,9,3,0.24264853481809,-0.0250278917647878,0.0446694879716305,-0.31526358473971
7,9,3,0.427477464087506,-0.0479537050458338,0.131281364741382,-0.584400306124113
8,9,3,0.149646209101663,-0.0156210094774917,0.184112317869651,-0.306444644050561
9,9,3,0.367750682934855,-0.0333199050222379,-0.672636538278923,-0.147669112074725
10,9,3,-0.208109008510858,0.0162499149104461,0.0953158879674996,0.266241635464858
11,9,3,-0.113815717975936,0.00776096136673888,0.00308284451198033,0.232019302600816
12,9,3,-0.012993248090487,-0.00219071428143001,-0.0983493569565192,0.211318709806397
1,10,3,-0.0177570945207334,0.000177407561553021,-0.127822458622924,0.141412632981471
2,10,3,0.392078862125394,-0.032330256978532,-0.827967078501312,-0.176753223372537
3,10,3,-0.39900662714138,0.0320692991195908,0.307725212277806,0.308387288572396
4,10,3,-0.130683368093563,0.00850806150708345,0.00327798844966603,0.260654992484
5,10,3,0.456709527690817,-0.0583502220271734,0.358612439562843,-0.672479197025299
6,10,3,-0.141359178168407,0.00968690089573097,0.0748172338128542,0.278886140829472
7,10,3,-0.324409236643202,0.0248362424813729,0.250780962726745,0.334591954852655
8,10,3,0.23547318440362,-0.025264995463763,-0.539919339242266,0.0643480885245685
9,10,3,0.121538084922809,-0.0172652019281127,0.428483346195311,-0.478235683256118
10,10,3,-0.276874332433969,0.0215844410870096,0.167186170226393,0.312601283162288
11,10,3,0.291811411388685,-0.0346867781908433,0.331976959160478,-0.523638041856481
12,10,3,-0.425615866940667,0.0334235051960469,0.190851865936292,0.354575261019994
