ID,SIM,interval,ETA1,ETA2,ETA3,ETA4
1,0,4,-0.102992078591953,0.00735914304630565,-0.0199104542452937,0.183429861723467
2,0,4,0.0108403081544261,-0.0222155135359536,-0.137081429471921,0.490054257426938
3,0,4,-0.104756653588913,0.00105600938665308,-0.015826524996942,0.414818095126057
4,0,4,-0.190401800036081,0.0183706339425838,-0.0970675377594452,0.237627146144156
5,0,4,0.0283702886658911,-0.0041850573525,-0.202630076515222,0.0986475563445084
6,0,4,-0.0203652274215133,-0.000209701008559408,-0.0299815200238382,0.191720936533717
7,0,4,0.104562271262311,-0.0131023471326613,-0.338853931963678,0.16864483342569
8,0,4,0.0280568877174974,-0.00934080028012747,-0.137983329255889,0.305729317497402
9,0,4,-0.196596644210608,0.0136720717686353,0.155425433482355,0.400679758909605
10,0,4,0.087955460377373,-0.0101741819306541,-0.0875304625632606,-0.0991914245058695
11,0,4,-0.0379623584327234,0.00212200360438621,-0.0986470422742214,0.0472786469146077
12,0,4,-0.0837932433299322,0.00515835589410972,0.144640118126919,-0.0883649322350842
1,1,4,0.0546597235307076,-0.00343422474450745,-0.0607284368258549,-0.0533988212477012
2,1,4,-0.422088424137873,0.0248089210816985,0.22387850949602,0.700285325690327
3,1,4,0.167761350591863,-0.0256237058847992,-0.393968316262197,0.252722869359116
4,1,4,-0.143886781647976,0.0136616047858557,-0.0160145416082911,0.183574252864752
5,1,4,-0.402972835518879,0.0314328641755046,0.271739574117679,0.371750798494646
6,1,4,0.128514113173961,-0.0147159306919176,-0.145232233026327,0.150612120500164
7,1,4,-0.225875820876427,0.0164578041817851,0.146571266267026,0.335676898314048
8,1,4,-0.269044659273423,0.019715330896551,0.170653710239699,0.408231943148774
9,1,4,-0.450429335285317,0.0336474571483785,0.227785952636759,0.163198255458549
10,1,4,-0.0470809910529398,0.000592372376941541,-0.0984975017077259,0.252477375216843
11,1,4,0.480705313263141,-0.0415077582534115,0.0286967790357197,-0.46997907458207
12,1,4,0.61771806395397,-0.055771214301333,-0.380340724588184,-0.584356137784713
1,2,4,0.00481724290486232,0.00053541184346515,-0.0852045659241543,0.0467742703322351
2,2,4,-0.0232873549640212,-0.00383683119023113,-0.167031663330224,0.303492129183601
3,2,4,0.690233337877081,-0.0399243520860224,-1.9223603739938,-0.396840293231741
4,2,4,0.0979204093289674,-0.0129328925860134,0.0143485050487132,-0.0512306442449836
5,2,4,0.242251074139749,-0.0232605800649408,-0.467865750588156,-0.0480632846482379
6,2,4,-0.199026238091827,0.0134406823143463,0.140403784463712,0.406640247550319
7,2,4,0.191701497005923,-0.0162252653466097,-0.323765546904089,-0.113210489653837
8,2,4,0.323598475434808,-0.0325349775030862,-0.258757083865516,-0.24449691065477
9,2,4,-0.362392343054119,0.0300237367914547,0.286024703257107,0.440389454758811
10,2,4,0.427269147689632,-0.0536968203223781,0.542272357022074,-0.720889624693353
11,2,4,-0.156223657132665,0.0125230378810092,0.0345407861334314,0.187889777394926
12,2,4,-0.24375880226788,0.0193766835408478,0.16583784095604,0.00483623220169414
1,3,4,-0.0414922897957338,-0.00157236643310933,-0.143414433895729,0.282546275217758
2,3,4,-0.0488384683858039,-0.00633561455881591,-0.139485424647567,0.392854534709033
3,3,4,-0.0261316656112851,-0.0176590432571785,-0.05934992454574,0.524338306487054
4,3,4,-0.171993249304367,0.00638762525457947,-0.112070131056823,0.597908398386502
5,3,4,0.255971794427711,-0.0238331172487925,-0.479547525377245,0.00094007147455728
6,3,4,-0.341760450975722,0.0257513828448269,0.108265771460737,0.523012581406877
7,3,4,0.341956919871425,-0.035178075967522,0.41734821552882,-0.559669874398701
8,3,4,0.138061436701088,-0.0212845440959095,-0.278861460530955,0.269166887842858
9,3,4,-0.13656798299066,0.0142174792984758,0.0677336116325054,0.161009496956444
10,3,4,0.139576306229139,-0.0150167488351183,-0.323493146575904,0.0711627861900557
11,3,4,0.280023412701223,-0.0361917563952702,-0.566274672318414,0.0955203545841059
12,3,4,-0.617430542153819,0.0427358655730186,0.299354164874186,0.45357866769433
1,4,4,0.207430494558009,-0.0184580713716881,0.322352024351126,-0.356032408130551
2,4,4,0.182614824081491,-0.0146561407071062,-0.566073763858569,0.0260820845525245
3,4,4,-0.31178055251225,0.0115579914812078,0.296302564551957,0.842712824447316
4,4,4,-0.13197293606696,0.00914625324908982,-0.0119387242893519,0.282550237340404
5,4,4,0.167337353054632,-0.0196848605252903,0.159023665262451,-0.213946478477314
6,4,4,0.0847519348029001,-0.0159887555332152,-0.22899136236719,0.297900308943743
7,4,4,0.579674941214831,-0.0469588981648662,-0.251915030848214,-0.519322987243868
8,4,4,0.317057640169434,-0.0249276275252607,-0.753754114895528,-0.0452849926077747
9,4,4,0.175283901750981,-0.0208339913113469,-0.233921582662611,0.180958745168412
10,4,4,0.0858026458882652,-0.0120402810633658,-0.312183920227936,0.14413059286642
11,4,4,-0.575858456478379,0.0388524549553029,0.336658053782244,0.714189681082098
12,4,4,0.815085500955708,-0.100414058003424,-0.186950730146937,-0.832298904805158
1,5,4,0.254952638859384,-0.0143844578162462,-0.738277932031238,-0.0555000568114604
2,5,4,-0.306874690075738,0.00989270232239879,0.270654529336384,0.577388245312971
3,5,4,0.305844259325713,-0.0444848525394758,-0.586794874205418,0.266067313709516
4,5,4,0.168123855077372,-0.0230794365670206,0.104804050405281,-0.116004975595472
5,5,4,-0.611020381479329,0.0301856656523439,-0.0185751684097173,1.29977152620307
6,5,4,0.546303578693876,-0.0653505001211578,-0.165666384322868,-0.516833588707024
7,5,4,0.20898787965637,-0.0211032673646385,0.253601191555191,-0.369233621365502
8,5,4,0.0436858157300501,-0.011830380241111,-0.156521927332557,0.227918668057244
9,5,4,0.24288041621325,-0.0261059667898945,-0.355365384629997,0.116786103812676
10,5,4,-0.000695006277246536,-0.00239641505467395,-0.182319870972847,0.206155134232405
11,5,4,0.182159848751337,-0.0306366213001447,-0.305160455406545,0.326547056756441
12,5,4,-0.037357170619221,0.00210707627208353,0.168355923643617,-0.171937490318081
1,6,4,0.265823919741968,-0.0174321877163576,-0.58622019910518,-0.172919092258268
2,6,4,0.105399042001019,-0.0290866691109221,-0.274597072706043,0.403018048236834
3,6,4,0.0484336270023961,-0.0161062812194335,-0.246349288601756,0.343192314283384
4,6,4,-0.0812251778865908,0.000890351832158235,-0.0449690317321263,0.359785960902625
5,6,4,0.0231066373566526,-0.0104093408529034,-0.278428493464635,0.365616200993896
6,6,4,0.154712019773003,-0.0184743223482705,0.070039855382799,-0.0372510759317716
7,6,4,0.181734317399112,-0.0150895893023538,-0.409635289578104,-0.0308729838758636
8,6,4,0.125787685124895,-0.0197215786042059,0.422110847611339,-0.563513981189828
9,6,4,0.501992852792363,-0.0570581932879388,0.0047850872042463,-0.531974364416011
10,6,4,0.190501896246428,-0.0184547179915544,-0.494176099339366,0.0359149610458352
11,6,4,-0.0592227313182292,-0.00254011612137609,-0.0338242361474933,0.376963145198789
12,6,4,-0.195469449291837,0.0165924026260479,0.0938589715870036,0.279529690374405
1,7,4,0.258819640519751,-0.0243864396532966,0.408377407491752,-0.461011414052595
2,7,4,-0.276167557050535,0.013320180327887,0.112159067801288,0.560892226486867
3,7,4,0.232748770833675,-0.0353111479002493,-0.499036716583381,0.25279330384226
4,7,4,-1.13212357228611,0.0544566188688705,0.655768439622103,1.20747028025671
5,7,4,-0.303480982376346,0.0174042514638082,-0.0287284111434812,0.658454205932437
6,7,4,0.375286062176475,-0.044806247279652,0.239676507035631,-0.36323266796157
7,7,4,0.157063965975799,-0.0156069674454326,0.35579717901477,-0.43460298389711
8,7,4,0.507957363202171,-0.046243284308878,-1.58861521167,0.0740987186105631
9,7,4,0.746546253811864,-0.0808927493924474,-0.505818099349674,-0.689882833002117
10,7,4,0.320330728356753,-0.0244691873443202,-0.630594219154199,-0.208632078355235
11,7,4,0.35780690213113,-0.0351280619234608,-0.175513226470049,-0.460177872641409
12,7,4,0.492853910588072,-0.0589955764202524,0.126056073600509,-0.542691487968661
1,8,4,0.661418653025481,-0.0132749187349424,-1.88650844344849,-0.985806367514045
2,8,4,0.511076793648734,-0.0266502513779196,-1.4210873274795,-0.353143998616635
3,8,4,-0.395306307284814,0.0251091756130416,0.300830137645893,0.467732214608095
4,8,4,-0.377607992734525,0.025138466682257,0.169024261681283,0.616261547440995
5,8,4,-0.416532665261893,0.0310236852435324,0.229902779279212,0.480395505414605
6,8,4,0.027608520000274,-0.00599284116365745,-0.107885756454631,0.217201419821555
7,8,4,-0.487773719838567,0.0341159312479394,0.335599940499944,0.396008685378195
8,8,4,-0.166550940618133,0.0100961545132231,0.0812184114297068,0.271321257644003
9,8,4,0.298765620116298,-0.0321802559067535,-0.462189088062103,0.0752085337720243
10,8,4,-0.304726559217507,0.0220044451795659,0.222888983081129,0.451474646243423
11,8,4,0.109768832449869,-0.0112699860739129,-0.0331163252243203,-0.080400630422678
12,8,4,0.562427136316803,-0.056216479868564,-0.516507668395478,-0.456446048551894
1,9,4,0.0887172892663252,-0.00770954146708774,-0.408503584015686,0.0978457051516749
2,9,4,-0.124763669845215,-0.000298239818974717,-0.0309588779431215,0.486895700318464
3,9,4,-0.107075088524089,0.00148417764698992,-0.0471067674451526,0.403333741850913
4,9,4,0.100378213054401,-0.0142969863530287,0.0405106650909943,-0.0810191835408293
5,9,4,0.261412353936653,-0.0290692966369562,-0.339325728544441,-0.0713681174740581
6,9,4,0.258040147900565,-0.0253044056148432,-0.36602969068403,-0.015466759894331
7,9,4,0.0107298431635199,-0.00543095373583071,-0.221128850034591,0.25134937653609
8,9,4,0.0304520512781712,-0.00673667308609546,-0.127474021080353,0.205781615401116
9,9,4,-0.656364660426832,0.0437981003553379,0.404906040345101,0.267235027479916
10,9,4,-0.100875282785158,0.0106879336163713,0.0764360459545109,0.127913922599775
11,9,4,0.0668735775174321,-0.00863212164105792,-0.113940129484238,0.115184103627823
12,9,4,0.45450189666858,-0.0530071322433873,0.0440802591009435,-0.52521927682403
1,10,4,-0.419655584930103,0.0265292163911624,0.272870008354882,0.581395819164832
2,10,4,0.252169248416936,-0.0166280111917626,-0.773849134581095,-0.0629396279949475
3,10,4,0.233235689668238,-0.0291788748008541,-0.58059585553346,0.157042353872213
4,10,4,0.16940483520264,-0.0206824480111799,0.47103833668983,-0.675381434822501
5,10,4,-0.202493708759924,0.013097176028532,0.0209537350050971,0.409793028085145
6,10,4,0.0710213677817049,-0.00621490523932292,0.124660088304758,-0.189563740120115
7,10,4,-0.189892508995982,0.0180644594072925,0.132095335436605,0.198121568123179
8,10,4,0.198473689466772,-0.0208601647540052,-0.370480522865532,0.0183035668602293
9,10,4,0.0461430771078943,-0.0144341622265999,-0.135377008427848,0.369539450324933
10,10,4,-0.522950040776277,0.0430326969891432,0.38652566859024,0.425273069572218
11,10,4,-0.17805423588455,0.0102024928920211,0.0897740746918896,0.412051753169581
12,10,4,-0.12198185421116,0.00736863079547483,0.00865372814586988,0.39291113238558
1,11,4,-0.30065621217162,0.0214273101374932,0.150877870660554,0.525240622753912
2,11,4,-0.018471631913984,-0.00201250577777204,-0.100661642293076,0.228295618801032
3,11,4,0.535667637139031,-0.0473367433897278,-1.69522211943586,-0.0509194521695067
4,11,4,-0.17724467073772,0.0132041856170621,-0.0902268872007198,0.445728604407852
5,11,4,-0.323928660069536,0.0175194937313988,-0.0375830693284122,0.792926866840157
6,11,4,0.00817304458703074,-0.00161853832165407,0.0260233139171965,0.0034592615992044
7,11,4,0.254754087613009,-0.0236182089828857,0.226857846433173,-0.310814236238438
8,11,4,-0.170141911957441,0.0128408554476993,0.0672269007309874,0.292247789454875
9,11,4,0.205770443011047,-0.0197719546719607,-0.23048043828814,-0.0572077840602345
10,11,4,-0.0789991405658124,0.00400933250895897,-0.0565283741034375,0.251836700810182
11,11,4,0.129207047144257,-0.014565325791748,0.281878409863399,-0.353426628953418
12,11,4,-0.0830540366005833,0.00555707348290987,-0.00795662528879678,0.145807623370593
1,12,4,0.0669736912217122,-0.00691092106638233,-0.358336888396797,0.116185457996673
2,12,4,0.0360806694798582,-0.0169414726848992,-0.239036010744981,0.364923976556941
3,12,4,0.247565236282654,-0.0301057751553901,-0.496697707356123,0.111915658703802
4,12,4,0.0443356974123314,-0.00361571666428416,0.526182496753451,-0.473739904769201
5,12,4,-0.163831056594495,0.0140503140498336,0.0770735014844596,0.130143649037746
6,12,4,0.130912470836722,-0.0255504484126835,-0.340846193670401,0.328847455646977
7,12,4,0.159621856309173,-0.015731461636905,-0.340464103923461,0.0511778517350289
8,12,4,-0.271081033407447,0.0238967434138904,0.152431212046648,0.188529930501369
9,12,4,0.280010558892842,-0.0413737583199907,-0.446805587565758,0.2417169397271
10,12,4,-0.187185691217885,0.0127271067618491,0.117955381837397,0.261323328669211
11,12,4,0.0698778542928423,-0.013504107961855,-0.199571173933581,0.278553857435015
12,12,4,0.200665335083758,-0.0206992506751072,0.0764035033288237,-0.117038192252715
1,13,4,0.272068106391388,-0.029826035076588,0.0404567166619129,-0.464670285198669
2,13,4,-0.115277746782357,-0.00182000927564654,-0.041695936159874,0.491924690009984
3,13,4,-0.0967619560961358,-0.0135949852383755,0.039541895113969,0.637602752775178
4,13,4,0.105640782545205,-0.00511094445219485,0.242647061651933,-0.659827926521354
5,13,4,0.21888368492865,-0.0190245013219145,-0.497198820555518,-0.088089678185681
6,13,4,0.468674777884827,-0.046772751238058,-0.579317647805103,-0.289337440463221
7,13,4,-0.105501662309663,0.0112468024947598,0.0537288623583665,0.0838953960235868
8,13,4,-0.249521185414545,0.019832954295608,0.169625927938035,0.366110990425853
9,13,4,-0.444599516182377,0.0330807167284151,0.200121586786212,0.638107119893984
10,13,4,0.232286656685378,-0.0207845546183695,0.24665553717585,-0.345649514539383
11,13,4,0.0880228912341535,-0.00753065433617976,-0.0473790803632398,-0.299310400817512
12,13,4,-0.404747858846026,0.0345383802886497,0.16914858186054,0.286478977002275
1,14,4,0.520752450001671,-0.0506243541582563,0.502448031395146,-0.604053409417529
2,14,4,-0.0412064501712902,-0.00911621211690175,-0.138669079500209,0.428820201613477
3,14,4,0.0084597070285157,-0.00604973593329682,-0.13926617393604,0.191795111297699
4,14,4,0.280766877258675,-0.0340881570800914,0.209669376948175,-0.258688237166219
5,14,4,-0.0075139330822097,-0.00450188120043221,-0.203619509102233,0.291371247243635
6,14,4,-0.409569121156228,0.028741699340407,0.0843039127099822,0.672460489786034
7,14,4,-0.0496542032918932,0.00405392866423136,0.127400130472226,-0.043108519680789
8,14,4,-0.230783760738154,0.0207998800536751,0.117493063803852,0.361861460278
9,14,4,0.274808436347012,-0.033258140320971,-0.476737622793812,0.129350669270642
10,14,4,0.0155768827181532,-0.00449782712974283,-0.0985763404553936,0.184090505230283
11,14,4,-0.541607889726438,0.0380650161028788,0.217022277536733,0.632878941598579
12,14,4,0.295156556030792,-0.0408070765534127,-0.484036615576711,0.202993030342715
1,15,4,0.0429003504355037,-0.0024646280486314,-0.195013212768633,0.0533430884211174
2,15,4,-0.344184568548414,0.0185115069279453,0.236994591301482,0.603428579032481
3,15,4,-0.224163511360027,0.00857206324885253,0.132603894836286,0.541113839498752
4,15,4,-0.542837194199111,0.0326696197801494,0.0985431726321554,0.874512834779672
5,15,4,0.121927403844567,-0.0130349443338859,0.0330504529755748,-0.139262434032191
6,15,4,0.228049938326685,-0.0231986839065567,-0.394345584657684,-0.0854765559489337
7,15,4,0.466460966062369,-0.0417715388738439,0.436614403010447,-0.553552662324269
8,15,4,0.278137078815855,-0.0235043384182571,-0.110795288781277,-0.255815354452309
9,15,4,0.359968279947755,-0.0380306444454027,-0.13182722390707,-0.297451402247899
10,15,4,-0.167418000756869,0.00695204063215335,0.119775855344586,0.39053153173729
11,15,4,0.0146478518358634,-0.00394906620315727,0.253665581459307,-0.214858326650835
12,15,4,-0.61206728313283,0.0410343362931169,0.0552016052117466,0.794061747810487
1,16,4,-0.171588567254803,0.00649171701877271,0.0239120858781501,0.392519785792621
2,16,4,0.161043711383312,-0.0172876306713883,-0.0392636954206921,-0.159300227572984
3,16,4,0.441449388782063,-0.0441034264632984,-0.957986096151386,0.0101927547634501
4,16,4,-0.0161086936921428,0.00421406156896228,0.471344663870408,-0.390012076262273
5,16,4,-0.0871687820253102,0.00620241681530453,-0.0657755102918328,0.213798638077351
6,16,4,-0.342263994389217,0.0269308631041999,0.220662856077243,0.496545922875067
7,16,4,0.467080481896511,-0.0540446085131021,0.438133901438283,-0.571373669531604
8,16,4,-0.191656728134445,0.01717804998052,0.12199633816861,0.079833403386608
9,16,4,-0.120247718719765,0.00983945228547775,0.203788944152569,-0.115030816185146
10,16,4,-0.194433798177197,0.0149341919573538,0.130248699851025,0.287487763683772
11,16,4,-0.165845420130022,0.0107756406446533,0.30664846242691,-0.0813938052191068
12,16,4,0.154040609291495,-0.0144088599967871,-0.00420325413122666,-0.161949295258647
1,17,4,0.349324319694226,-0.0152422758119894,-0.923013695408324,-0.100660944441556
2,17,4,-0.142810603527094,-0.000626595556058557,-0.00833258716209064,0.537526054824708
3,17,4,0.589738260239544,-0.0411086122355334,-1.6103322770105,-0.233488276504368
4,17,4,-0.0870539654777741,0.00426698791889866,-0.0474710958743636,0.346053115019436
5,17,4,0.00386755750912756,-0.00426255889646221,-0.120251396163112,0.254091859767394
6,17,4,0.0849577407218705,-0.00535847207410972,0.0801279488036622,-0.237189717193782
7,17,4,-0.303923798043225,0.0232441892704458,0.241187841333613,0.339456807109808
8,17,4,-0.0897193092129394,0.00121285602681667,0.0021468239835939,0.381248935744277
9,17,4,0.117038314431559,-0.0196035748769897,-0.220740832945099,0.28697197320898
10,17,4,0.0271757315266171,-0.00514575105234834,-0.00114491942067301,-0.00613584861939925
11,17,4,0.222702445059131,-0.0257178721093099,-0.454145581010618,0.0476923536955504
12,17,4,-0.364733949600225,0.031238961298395,0.170385991522248,0.277796695146836
1,18,4,0.292503551295415,-0.0284567446063764,0.268561004762408,-0.452372356231063
2,18,4,-0.340563217422312,0.0277899482600626,0.225839063469498,0.280851525858548
3,18,4,0.72135840088196,-0.0682990550848171,-0.596152609369651,-0.838642625986076
4,18,4,-0.028999523727397,0.00120113562243984,-0.0692965235202191,0.261143752750623
5,18,4,-0.121516720620358,0.00530547782479764,-0.0493314180496306,0.41375618369087
6,18,4,0.079741357922068,-0.0110659474347747,-0.225415242614227,0.170544365660339
7,18,4,0.098867800938452,-0.0107139939649193,0.211213270279247,-0.301549436908077
8,18,4,0.221193580217234,-0.022110204229885,0.0402412501630791,-0.318325082323895
9,18,4,0.0522293071266397,-0.0073555404668306,-0.107925218844859,0.0864508135778347
10,18,4,0.369368325669457,-0.0364547121695899,0.363614545818952,-0.490992005655883
11,18,4,0.0450984704115386,-0.00799716880684201,0.355723217082425,-0.421286568795386
12,18,4,-0.425830755626946,0.0333428818877231,0.258104552110456,0.277278953650966
1,19,4,0.23369129585886,-0.0152220718952223,-0.689732390512292,-0.0245983090523728
2,19,4,0.499969164513721,-0.0298054388662042,-1.32559094718484,-0.407967363819757
3,19,4,0.150905596902917,-0.0145604589798824,-0.487285933605364,0.0604883272273856
4,19,4,-0.0832748484643244,0.00565077475521397,0.00519241312777542,0.15666316291694
5,19,4,0.0704968982306471,-0.00856218013358634,-0.0762381531758012,-0.112125710916507
6,19,4,0.380548003888083,-0.0468174544345827,0.365383902747265,-0.607844622884915
7,19,4,0.080099068984243,-0.0106720775231455,-0.300923826469949,0.142793909746916
8,19,4,0.219664925743006,-0.0234235154761071,-0.440849336730099,0.0619858226490121
9,19,4,-0.45881317048951,0.0373703207996052,0.216329614761,0.341492490799749
10,19,4,0.232459343521819,-0.0197201312897907,-0.293677841500702,-0.200737486694473
11,19,4,0.0528353257441299,-0.00604551583279269,0.0423105794470873,-0.0042936190451185
12,19,4,0.431343607904972,-0.0523222882192949,0.135108057262206,-0.676544991748134
1,20,4,-0.0456363698247006,-0.000878603725076547,-0.213149952535112,0.308222380919859
2,20,4,-0.367015902047773,0.0264905088301477,0.242340858082192,0.393683774038363
3,20,4,-0.470953062992995,0.0320722499023028,0.309763903078709,0.620451796586863
4,20,4,-0.569402769863175,0.0301456665407974,0.165100603745911,1.21146976912963
5,20,4,0.267307085738408,-0.0295091058427277,0.344316710878304,-0.510146547413094
6,20,4,-0.381284470716252,0.0253017729963301,0.172125671635837,0.608355249585356
7,20,4,0.117674193226546,-0.0100637310957283,0.119532724348238,-0.216003616218125
8,20,4,-0.0386492312561773,0.00120505058463719,-0.0779503120983353,0.233425112916021
9,20,4,-0.206289642514772,0.0155336575854669,0.13349573192548,0.414165357863965
10,20,4,0.213727019630622,-0.0227845300695423,0.196915231431625,-0.311692534109364
11,20,4,0.0504592581205099,-0.0135942747667676,-0.174555438804426,0.323670063352116
12,20,4,0.0195563662302185,-0.0102291613123763,0.364801266775683,-0.529733559229659
1,21,4,0.474973512918397,-0.0169579115644356,-1.51675686265597,-0.28029518092493
2,21,4,-0.60079040542544,0.0421652920745784,0.427670428508811,0.62068193875802
3,21,4,-0.0136433344636688,-0.0145349290529559,-0.132388115403066,0.470759622250826
4,21,4,0.201846097363122,-0.024261953402834,0.12922519528647,-0.168771748322134
5,21,4,0.299025261582163,-0.0320506311791171,-0.486253527845437,-0.0529444615489198
6,21,4,-0.150948434863726,0.00447024704885062,-0.0633369596448052,0.512483787848201
7,21,4,-0.0496377009795412,0.00403476082819881,0.175290569076823,-0.0750023061793334
8,21,4,-0.456127928955228,0.0359067968499175,0.282896096812454,0.363389357257097
9,21,4,0.0626646966581081,-0.0177795386557761,-0.0762447442361191,0.38410820139832
10,21,4,-0.409066919337165,0.0281693460502827,0.269997872252767,0.381372627126601
11,21,4,-0.112979010738115,0.00756557527787964,0.0183648075832401,0.154872619055132
12,21,4,-0.0228744758086984,0.00210922550543561,0.212313233270924,-0.41363899076221
1,22,4,0.211924391865944,-0.0128662028090186,-0.592964185122889,-0.00479387529957677
2,22,4,-0.416220395986183,0.0241299961934554,0.377787926790085,0.496034916984786
3,22,4,0.214287756642213,-0.0203133473714898,-0.355157222118935,-0.0950776868668096
4,22,4,-0.384497975123342,0.0294684304262159,0.345900244880527,0.362599127593742
5,22,4,-0.296907846363822,0.0205577201355277,0.0846626272039224,0.494184546615709
6,22,4,-0.183331064796987,0.00604585679889708,-0.0102781462978339,0.704115745077079
7,22,4,-0.31668703902029,0.0254222378228851,0.228954070253594,0.333115560285253
8,22,4,-0.281586118531523,0.0230984720186085,0.149204578844099,0.197205437998991
9,22,4,-0.571691121876844,0.0370102273884949,-0.0805580406001192,0.745248520361154
10,22,4,-0.288065808849589,0.0212876547758957,0.182260421326731,0.358622924951143
11,22,4,0.228223040882729,-0.0220541422066257,-0.382293597577989,-0.0580644471276316
12,22,4,-0.135979787756607,0.0103085162275944,0.0355469826849349,0.273314163455551
1,23,4,-0.148379634291052,0.00680707026805925,-0.0392537172336989,0.413995076134107
2,23,4,-0.0284866336593419,-0.00693099123081947,-0.172469944330516,0.363914770338627
3,23,4,0.0884223250463023,-0.0289789910692171,-0.251252315587098,0.451385377388685
4,23,4,0.451483166667056,-0.0571065829518316,0.435148804970757,-0.57018606639014
5,23,4,0.0671994712404881,-0.00809084419799721,0.0192856224438021,-0.0531197579786272
6,23,4,-0.0405217590007389,-0.00197493125900769,-0.111521520986759,0.365236473645491
7,23,4,0.432686953248711,-0.0392047963933285,0.400645181676242,-0.515901051207573
8,23,4,-0.519660371819178,0.040296970825892,0.30109715739189,0.400173109528743
9,23,4,-0.796490690038695,0.0399288763207416,0.514111495223901,0.00219204725297305
10,23,4,0.328193392090714,-0.0317677822340006,0.344230285252135,-0.492853339397449
11,23,4,-0.467325103522595,0.0359216194518519,0.193955946054439,0.304828414581554
12,23,4,-0.123978044449589,0.0149926916313862,0.130426069440517,0.0308499489662954
1,24,4,0.119580201731018,-0.0107588305115562,-0.506674180915398,0.115999059555188
2,24,4,0.693557943770119,-0.0260333520007945,-1.96112488779582,-0.668231268207225
3,24,4,-0.126160627418596,0.0121558885722892,0.0288921076940043,0.0797323829867765
4,24,4,-0.101592416651756,0.00921795054491509,-0.0616737138011045,0.174454038739853
5,24,4,0.313681526534018,-0.0295600380599346,-0.464843760956025,-0.184675957495474
6,24,4,0.173742334526275,-0.0369074287230319,-0.398077587764857,0.330225609362074
7,24,4,0.048061594647747,-0.00769839771888926,-0.142865345774074,0.177999565006947
8,24,4,-0.298399928844228,0.019953534082453,0.228397472253134,0.492885473256206
9,24,4,-0.439021098586462,0.0331291643536303,0.164723198825571,0.270438358843816
10,24,4,-0.197740757569408,0.0221354302332599,0.092997680700318,0.149814938542442
11,24,4,-0.206607489760677,0.017555358662551,0.0991759793695288,0.16032357432207
12,24,4,0.31837138763354,-0.0339984378753705,0.223827830697363,-0.285963869223538
1,25,4,0.103835792956086,-0.0104449142467926,-0.492882608654671,0.139045773150369
2,25,4,0.0561576686419157,-0.0255199900231565,-0.222136565636716,0.481599385211635
3,25,4,-0.422534981723236,0.0327410203633364,0.372438444447892,0.107350257948609
4,25,4,0.261543762320667,-0.026053306791795,0.133424413564845,-0.371982288156805
5,25,4,-0.278073918023562,0.0198420063588316,0.114244670586002,0.421896656901976
6,25,4,0.451745015037546,-0.0441853210350278,-0.846427013865543,-0.159510983256984
7,25,4,-0.135900905442209,0.00796895482385671,0.0631454468292404,0.267175023637338
8,25,4,-0.115951485971461,0.00421213982531055,0.0411928841007483,0.376277222729201
9,25,4,-0.0382027927850628,-0.000839377593443847,-0.0536464033913012,0.295917139078479
10,25,4,0.335974663384698,-0.0281158699658403,-0.762377227701367,-0.113787694567662
11,25,4,0.570488453385286,-0.063680049257589,-0.189041838532516,-0.596105879631876
12,25,4,-0.18865169515045,0.0145751778501279,0.136271212574833,0.0318154409996518
1,26,4,-0.00313664533304263,-0.00282843207405498,-0.273916988279138,0.213149826676942
2,26,4,0.111174067985582,-0.0158976376726567,-0.414456631094929,0.225974644787672
3,26,4,-0.215855119947191,0.014407903615621,0.05948122797162,0.287831052502215
4,26,4,0.196638092456813,-0.0307343831248234,0.0816609056651008,-0.0638433084337584
5,26,4,-0.37243199077559,0.0194587472130713,0.0286508010469931,0.796302573950287
6,26,4,-0.027808713665573,0.000404443949664284,0.295598436171023,-0.232087437840215
7,26,4,0.0809354161130341,-0.00867973936530272,0.184515693217471,-0.23885167124313
8,26,4,0.160657105818853,-0.0139313733232833,-0.0372318067782162,-0.313680654993861
9,26,4,0.407926677125334,-0.0437576548870797,-0.308019369386629,-0.224807556030151
10,26,4,0.208960288086757,-0.0172718109819856,-0.491454573831571,-0.0243661089317998
11,26,4,-0.188188638047882,0.0150028617893997,0.0896842373290665,0.232465714832391
12,26,4,0.444257982698015,-0.0374473210548541,-1.18497806159808,-0.0278303282314699
1,27,4,0.107103604627458,-0.00816454274404901,-0.418489203902187,0.0669416393797391
2,27,4,-0.312074662901368,0.0204863210770361,0.196151035918975,0.499818856364771
3,27,4,0.586763173810151,-0.0449336772670676,-1.31649441950902,-0.299231766724775
4,27,4,-0.0975417946038879,0.00602510646301205,-0.0107824853371161,0.219483522351864
5,27,4,-0.201131212872836,0.0175328929994953,0.130622635747081,0.205982825413178
6,27,4,-0.253095507068462,0.0174936150818458,0.0755747556004684,0.458811353590764
7,27,4,-0.442509823558665,0.0327665116130862,0.324072606283966,0.395875675942489
8,27,4,-0.111807276488325,0.0088014066769279,0.0444307101086256,0.186210062937589
9,27,4,-0.23198641704898,0.0190077313996403,0.128063409359059,0.327457898019339
10,27,4,0.258426572451947,-0.020744422574307,-0.398419766625108,-0.195270159906267
11,27,4,0.317226940856315,-0.0329416791052934,-0.609879960386516,0.0140868930895674
12,27,4,-0.0559055608853573,0.0035529377249237,-0.0353942515562676,0.257286900592883
1,28,4,0.221527992313415,-0.0149676065832316,-0.439947325745162,-0.181487971563954
2,28,4,-0.271143779480542,0.00981152143388359,0.0934313863012947,0.644042914878294
3,28,4,0.29415246691482,-0.028546373275788,-0.281818554493436,-0.20473187536632
4,28,4,-0.120423111363521,0.00335136201854359,-0.091936510722228,0.469295918989603
5,28,4,-0.381825516937323,0.0288512616882403,0.187929925583963,0.469460419996501
6,28,4,-0.309120941278158,0.0198649823241827,0.00729451864244749,0.654428217044103
7,28,4,0.317164962339175,-0.0435015206535237,0.533655244164033,-0.709550705094508
8,28,4,0.0927825066517383,-0.0138430605927555,-0.21932405342851,0.222516610766185
9,28,4,0.182814746394962,-0.0175368358926767,0.218039670884644,-0.354132479395961
10,28,4,0.320694051197386,-0.0375345486434188,0.44652172464307,-0.595639485091672
11,28,4,-0.673775275830179,0.0475818424242483,0.446570121262993,0.284548779698776
12,28,4,-0.772510646596298,0.0503285242832073,0.268431318695305,0.734137402994432
1,29,4,-0.121036217050822,0.00205638395728829,-0.0767136532523883,0.488580391958963
2,29,4,0.0223056972200793,-0.00429593807714365,0.0608205813799293,-0.0873201686730897
3,29,4,-0.275085434841005,0.0174162214566669,0.186686568082103,0.384586666133996
4,29,4,-0.458006567862112,0.0302959413919201,0.182167160284154,0.703267916223093
5,29,4,0.0297521560742663,-0.012533741662157,-0.259129847823849,0.346215632975189
6,29,4,0.00938376665982746,-0.00481172572559479,-0.100595085337428,0.276817382510433
7,29,4,0.1062024365889,-0.0113647221387838,-0.315471328326914,0.110511523707017
8,29,4,-0.0551553125239707,0.00497598150280231,0.104449075279912,0.00931956595712414
9,29,4,0.46671968572261,-0.0536685141765043,-0.824150035529185,0.0206993287150275
10,29,4,0.0839625339142113,-0.00707930568404737,-0.176075248979277,0.00431976884912001
11,29,4,0.270100633952871,-0.0214864333534632,-0.31014797290195,-0.217272390200961
12,29,4,0.649704098503248,-0.0770767080492922,0.0697014898742512,-0.580960510882365
1,30,4,0.226530731141623,-0.0151362658945003,-0.738923421455174,-0.0150995155587183
2,30,4,-0.353606995308637,0.0286258880275652,0.182187665421016,0.570428614263003
3,30,4,0.434637161467719,-0.0383928153038173,-0.893791383490666,-0.147933290931116
4,30,4,0.152999173643693,-0.0153565232249304,0.0114879853431697,-0.085034236391994
5,30,4,0.486594612659482,-0.057296396592831,0.193827742926426,-0.344291219508521
6,30,4,0.211453315345476,-0.0192658635008201,-0.448865080669122,-0.0233118055241782
7,30,4,-0.00858902814348044,0.000944157163981312,0.0873552269013732,-0.0625621860248277
8,30,4,-0.0475159717011355,0.000738101677348312,0.0304280439138275,0.149025550152031
9,30,4,0.342309186250639,-0.0342277283282178,-0.425835204561773,-0.109589203781042
10,30,4,-0.325329931533492,0.0235218533616211,0.236713787928612,0.268837261080786
11,30,4,0.60763875423317,-0.0782822319358767,0.113894968879743,-0.710402015569171
12,30,4,0.1236697533436,-0.0217253257864625,-0.22955426680032,0.303245823955973
1,31,4,0.166083172863228,-0.0147075044679864,-0.611818035343001,0.0905082491533407
2,31,4,0.232393941978342,-0.0161499895160094,-0.303612244845044,-0.263792421891732
3,31,4,-0.120461460864651,-0.00580904478615616,0.0876621860428211,0.525470244037095
4,31,4,-0.0619107645266952,0.00453334187104602,-0.0806510251689993,0.152166891314276
5,31,4,-0.132406194735067,0.000850050816409473,-0.193955891838084,0.52598414471871
6,31,4,-0.207261787449588,0.0143251891808429,0.0827740450769172,0.399789932094843
7,31,4,-0.045440574562009,0.00372729450088322,0.000450707499402231,0.0258093125161102
8,31,4,0.28062168186517,-0.0296223400097317,-0.499986235849468,-0.0651519207222292
9,31,4,0.189705146311335,-0.0138037199459262,-0.411356451707724,-0.145525017084534
10,31,4,-0.0566829048177378,0.00332339277442152,0.0998453349202663,-0.00447900088133743
11,31,4,-0.749888829276953,0.0504879476592008,0.538883673806757,0.259599251927182
12,31,4,-0.19189945603772,0.0159769097356317,0.0868304509024586,0.104927356619922
1,32,4,-0.20007436544491,0.00958700993718799,-0.0158995900667652,0.376255158061544
2,32,4,0.571272474712642,-0.0297155469235635,-1.38870970722936,-0.502478152663505
3,32,4,0.190183993635596,-0.0310720920827352,-0.448055568990256,0.281904005912374
4,32,4,-0.184434988850127,0.00501344658588052,-0.21347163590338,0.697532412159695
5,32,4,0.27648341680564,-0.0236029577565913,-0.509175626374428,-0.10593706624946
6,32,4,-0.234121922552025,0.0203243803292875,0.227566560868572,0.0612179929564456
7,32,4,0.0398531254216998,-0.00809837202484601,-0.262874242985477,0.189951402252765
8,32,4,-0.123200535892962,0.00839557300453675,0.0230221256347623,0.149097735516776
9,32,4,0.169427362833854,-0.0164667370777516,-0.0157738209543,-0.229108419876806
10,32,4,-0.107654829958684,0.00269880096024396,-0.0140573438651135,0.251625169676262
11,32,4,0.135975309509419,-0.013292967277724,-0.355173806270684,0.176561115339258
12,32,4,0.271679569174684,-0.0331910285533312,0.163149343371246,-0.445094885512573
1,33,4,-0.606089656568724,0.0378266538388202,0.29435814406858,0.903373400721112
2,33,4,-0.352860180953605,0.0228036187087282,0.233140801096124,0.438828212162132
3,33,4,-0.0919689808936997,-0.0072843064001243,-0.0281790254713128,0.536896186492725
4,33,4,-0.065597213974128,0.00277113645895035,-0.0204772546291244,0.252038563581548
5,33,4,0.0440260908647266,-0.00857530366760112,-0.146887926221692,0.215088017916333
6,33,4,0.843519088344693,-0.119691303573267,0.0997471372399149,-0.960396476834343
7,33,4,0.279307919436054,-0.0328958070322314,0.357982883709978,-0.489376739851132
8,33,4,0.000893112442577708,-0.00129413121498857,-0.0521950226614598,0.109923562042748
9,33,4,0.0212207006066343,-0.00214963756010858,0.0801106604881664,-0.190038139304559
10,33,4,0.0141853025504199,0.000777843713470212,-0.152274804117891,0.142203455128786
11,33,4,-0.18622091621744,0.0165475584682153,0.122250156602128,-0.112460610573552
12,33,4,0.433116686784041,-0.0475352181416471,-0.46719020303309,-0.0578308937109808
1,34,4,0.0160629264980461,-0.00420770189908925,-0.330138775711661,0.261621814335651
2,34,4,0.356951433986789,-0.0345285239205992,-0.837459296968168,-0.0529192535320905
3,34,4,-0.185038753835533,-0.00133735600816989,0.145223506837512,0.603671126130255
4,34,4,-0.00976678170937835,0.000562976596666826,-0.0032167027515944,0.0146679439941966
5,34,4,0.549357401008206,-0.0753794553111253,0.312071143179694,-0.620551236290356
6,34,4,-0.41175166054747,0.0332228522591469,0.296836864957677,0.210883227044882
7,34,4,-0.204092491117306,0.0170858258963741,0.129872710758611,0.197830218759675
8,34,4,0.10414383792593,-0.0110573913716833,-0.185636067680642,0.0663449151998043
9,34,4,0.0842743662634321,-0.0135480240279018,-0.189804147350195,0.247177750132089
10,34,4,0.358975698357074,-0.0477693964880087,0.521154272770277,-0.681807433861539
11,34,4,0.111043920532736,-0.0173981819337617,-0.265664772654716,0.239048464132271
12,34,4,0.392775521951438,-0.0488473482941283,0.303022816770565,-0.406278367558489
1,35,4,-0.0514338396851572,-0.00318899028552599,-0.129596433085395,0.332392218140033
2,35,4,-0.00410293164863032,-0.0241922087975821,-0.152416614390208,0.583372112559729
3,35,4,0.23572129494744,-0.0267139396037067,-0.577014800728206,0.115031319498936
4,35,4,0.065220660912992,-0.0122107544671647,-0.00482834218885082,0.0931231804508185
5,35,4,-0.0267816289008277,-7.75937032254399e-05,-0.0697677287883799,0.174400163035793
6,35,4,0.540622524822727,-0.0642059535922776,-0.198978083400342,-0.496168508258144
7,35,4,0.355238784507098,-0.0362830985168805,0.374686606142756,-0.496318378098418
8,35,4,0.299521734684297,-0.0237712759581896,-0.685388132609321,-0.0634450428162677
9,35,4,0.142620145647225,-0.0134298737726126,-0.0381560130142439,-0.033136952455757
10,35,4,-0.640786887556083,0.0431502367212076,0.0824887310960694,0.972335529992156
11,35,4,-0.705197621415241,0.0472806444325971,0.194924469468757,0.752089626327058
12,35,4,0.134246110519516,-0.0130754618434904,0.123732785872669,-0.27504425773853
1,36,4,0.251734028700535,-0.0248685328584214,0.282278049606736,-0.396714221226353
2,36,4,0.526742984193146,-0.0274751476786103,-1.4931122036343,-0.376237427375881
3,36,4,-0.473346452411913,0.0274741505273169,0.442334167729152,0.803894717199759
4,36,4,-0.00621339160954368,0.00940022082756745,-0.18465355367589,-0.0948722672500386
5,36,4,-0.318296542542736,0.0250390836212122,0.173608328449149,0.341782515379937
6,36,4,-0.0943352978815716,0.00233672153871861,-0.083971688824493,0.400085712939823
7,36,4,0.261884099726836,-0.0292307324717277,0.3096794213107,-0.426148543043365
8,36,4,0.209805675088323,-0.0241405060520218,0.284788945173007,-0.421226577140241
9,36,4,-0.440949190634674,0.0326574298188896,0.155419148237479,0.273910369984306
10,36,4,-0.0876393710720422,0.0038719805419875,0.00637004132660102,0.256473067935288
11,36,4,0.733976425995709,-0.0937531869766599,0.157352365945262,-0.824315756947521
12,36,4,0.15472398785417,-0.0273332316278322,-0.223486811413997,0.325513768548465
1,37,4,0.119941380394833,-0.00987377612688042,-0.224318574230961,-0.0885311133245796
2,37,4,0.377883920414585,-0.0333695544036284,-0.804075038658272,0.0266107531362004
3,37,4,-0.165660706772377,0.00348337804748532,0.0211686082663751,0.515908633323627
4,37,4,-0.162750008754432,0.0137346902620344,0.00960597092150853,0.266948523197545
5,37,4,0.28498621562159,-0.0345601166498867,0.31182066709066,-0.505607007882001
6,37,4,0.183040762403668,-0.0181007375297478,-0.0179794622745334,-0.204002766669445
7,37,4,-0.183937316557106,0.0135444733409436,0.0547039946769038,0.272193878396595
8,37,4,-0.178289663154095,0.00950269027926182,0.0707697797060602,0.455559928263186
9,37,4,-0.230342551467578,0.0183055332449977,0.156790175658454,-0.0579010188860286
10,37,4,-0.154340078010191,0.0121319317389064,0.140827542625284,0.103636210015883
11,37,4,-0.0782753293490713,-0.00710059196136608,0.0367234893187755,0.381985885089324
12,37,4,0.0775551952441191,-0.00903809835318566,-0.103910729417239,0.0898693499023653
1,38,4,0.194972386750527,-0.0163271801888187,0.251228848810546,-0.279177752942176
2,38,4,-0.0436187420453256,-0.00351941001077912,-0.113014399705364,0.349661052430908
3,38,4,0.188780056112741,-0.0241758431743277,-0.32457952317359,0.0997601687444275
4,38,4,0.381900909666315,-0.0567536088758061,-0.0391827979975674,-0.351998316722798
5,38,4,-0.554209391251124,0.0395406846426947,0.573514738269253,0.150014647319912
6,38,4,-0.0323846980264282,-0.00411564428307647,-0.154407102105441,0.388458183374655
7,38,4,-0.102844901110748,0.00850600852070627,0.278382386614388,-0.108803718683967
8,38,4,0.151819947631809,-0.0170680272891804,-0.271404573441489,0.0850224333959318
9,38,4,-0.226794512857914,0.0167403756801407,0.101271946757214,0.448250181412939
10,38,4,0.203268934321823,-0.0165159747714245,0.190708719578937,-0.312679366878647
11,38,4,0.438010601057544,-0.0377995846434514,-0.76817547272295,-0.238315833588086
12,38,4,0.320730483786743,-0.027810081893527,-0.431743108014065,-0.342186770019473
1,39,4,-0.216742693536618,0.0146734048157934,0.180673694140574,0.280404464593803
2,39,4,0.378716934755706,-0.0388944742686399,-0.152477649717656,-0.428453363339365
3,39,4,0.0149872729106341,-0.0117294868555093,-0.202192333389365,0.354709924528553
4,39,4,0.219684205001072,-0.0243867752016444,0.254599370606478,-0.35099536947677
5,39,4,-0.281021282426096,0.0196297101168149,0.0971213179500443,0.461330436239287
6,39,4,-0.0525420704144835,0.00951215338240925,0.0228863164564624,-0.0337512005410972
7,39,4,0.257976013214658,-0.0184097916258242,-0.676020351234902,-0.0458007664384431
8,39,4,-0.254316489336093,0.0212410484403589,0.172442131625301,0.0284525403685023
9,39,4,0.323314453990889,-0.0396992855383497,0.0881028375556046,-0.692447166294305
10,39,4,-0.250216550901693,0.0188371083892882,0.126791292916059,0.271598519629893
11,39,4,-0.133776610778984,0.00506831720610133,0.0125765155303455,0.432960011669185
12,39,4,0.134515354744174,-0.0125455044353105,-0.0487181513934918,-0.0623566585220873
1,40,4,-0.415433407455975,0.0267019427103433,0.321801388076255,0.533635078600664
2,40,4,0.00993646831832103,-0.00385436497536667,-0.251492078096839,0.214091040103088
3,40,4,0.217303927142023,-0.0258871789858807,-0.590897222382653,0.181534968836013
4,40,4,0.0821000362227687,-0.00137849489521325,-0.15957575222702,-0.165500585858957
5,40,4,-0.257888875169561,0.0156540013292729,-0.0019414139372729,0.568383456618696
6,40,4,0.0607312754340989,-0.00580982495309195,0.0309805788708604,-0.0599775524998564
7,40,4,0.338580348439562,-0.0266107542895363,-0.707317800912904,-0.0836208399065579
8,40,4,0.424218798047669,-0.0388977450477427,-0.757880561665696,-0.177696377511631
9,40,4,0.0491723029882497,-0.0114671693310673,-0.143988833447034,0.292078151651818
10,40,4,-0.220611468516734,0.0188299695105549,0.135349302851893,0.354992607795692
11,40,4,0.126069400493764,-0.0155538155041897,0.281759550886267,-0.414733969993699
12,40,4,0.682423199928848,-0.0812635779952689,-0.0357891509696014,-0.62178014008629
1,41,4,0.405819600952105,-0.0306733726889708,-0.243000028977394,-0.459817905893838
2,41,4,-0.0216229428287043,-0.00412801845375284,-0.144185516365894,0.308216679641516
3,41,4,-0.250090279177639,0.0150835170900724,0.101641322822724,0.513217372579783
4,41,4,-0.0228464561145907,0.0115418779519659,0.429518067992155,-0.329457926337779
5,41,4,0.185034270491871,-0.015080388959272,-0.290464051198959,-0.143031899213115
6,41,4,0.845640182217251,-0.112908774286769,-0.0787425630324359,-0.914998606408648
7,41,4,0.183805744657792,-0.0166755217533136,0.0698152531174891,-0.258511863445171
8,41,4,0.242327564547464,-0.0310699858637966,0.419401536338687,-0.599852872788929
9,41,4,0.249947858488705,-0.0279290641876172,-0.460913275728018,0.0826770376434831
10,41,4,0.245749757908949,-0.0317933379416932,0.464629264039708,-0.594205419867488
11,41,4,-0.1549842818755,0.00936623670076708,0.0487631134702182,0.356690030385354
12,41,4,-0.107409779663319,0.00994997415917332,0.0830248295562352,0.132904264599287
1,42,4,0.271594890487233,-0.0148555382521899,-0.649680358846649,-0.0214635102094074
2,42,4,0.477342501095357,-0.0364204091793908,-0.706535413956839,-0.48165853855572
3,42,4,-0.0465606224073186,-0.00523211642361195,-0.126077467163339,0.37097209654745
4,42,4,-0.0625067731178417,0.00975032310380449,-0.109910075036045,0.035293885818816
5,42,4,0.166776306938811,-0.0215416784345814,0.182967258845741,-0.182617398573999
6,42,4,-0.0115928657479961,-0.00173913135048004,-0.111632484123456,0.198384132657268
7,42,4,0.299505357221183,-0.0311325871882654,-0.0629593895133095,-0.404443930399959
8,42,4,0.0973986784516225,-0.0116793582767739,-0.253920487685479,0.0757268454964445
9,42,4,-0.00441031433343695,-0.00165047915512259,0.268826896685498,-0.234360203921753
10,42,4,-0.174414764521182,0.0166493682658202,0.117620940860824,0.170757028779651
11,42,4,0.209600720838548,-0.0203761587463105,0.160818416765987,-0.255673404223208
12,42,4,0.352326227654838,-0.0437899905680593,-0.650309904817404,0.0755412040923737
1,43,4,-0.225247012865123,0.0146462728504786,0.0719659175049131,0.394548827523571
2,43,4,0.0842730744907168,-0.0114100969901365,-0.233710356026716,0.119349878500734
3,43,4,-0.0249645460921513,-0.000247801245531386,-0.0781405691409393,0.172427469293932
4,43,4,-0.487543534001554,0.0408720130399831,0.307166465321672,0.481325326267979
5,43,4,0.165550550911415,-0.0122217348092839,-0.34885693247333,0.00614649614673531
6,43,4,-0.191035698528569,0.0160225323433505,0.19753137684312,0.115972189552553
7,43,4,-0.123171079663982,0.00833069611237609,0.0759996771869566,0.151182520905594
8,43,4,-0.773245053722307,0.0530679145598298,0.489436424903277,0.281040482694516
9,43,4,0.0557481757856714,-0.00555976065649535,0.0427682912236836,-0.180233138752861
10,43,4,-0.0446932828623852,0.00117569992280341,0.181884506894949,-0.0783909857470507
11,43,4,0.237697901257542,-0.0237865711048298,0.0835708235011271,-0.173342877189254
12,43,4,0.132000771567629,-0.0222789636454393,0.41854025319068,-0.601713643541937
1,44,4,0.170562568879324,-0.0124367623193412,-0.603044691354297,0.0556357203354317
2,44,4,-0.265842973500781,0.0207433553511402,0.146482671622262,0.262666588276251
3,44,4,-0.333355085483444,0.0223995538311748,0.28800840935876,0.445277293899548
4,44,4,-0.266421440417451,0.0250362931735053,0.173115139954075,0.16741134224328
5,44,4,0.110871495200288,-0.0113759344409726,-0.161658110370759,0.135151698013779
6,44,4,0.271629569686143,-0.0313641856649471,-0.500422354938629,0.127354794218313
7,44,4,0.287762075474135,-0.0289523882972591,0.295822149726548,-0.414723705975186
8,44,4,-0.108283224584425,0.00445263563863337,-0.00928741556945021,0.341303344269151
9,44,4,-0.561151199845028,0.0411615780500154,0.270882593291429,0.48426836431231
10,44,4,-0.264134047549384,0.0197729952304676,0.185832933999591,0.337666902319523
11,44,4,-0.0490088027556747,0.00332317572875745,0.0249800813192415,0.142449930015424
12,44,4,0.706339904626066,-0.0820483554375117,0.0460471275567252,-0.553386613186527
1,45,4,-0.261447189769586,0.0193963328144745,0.269355107407089,0.349358419866798
2,45,4,0.351036608601715,-0.0302137602088971,-0.864732227181308,-0.0862714024724421
3,45,4,-0.290319068568996,0.0281669327528461,0.324632760899812,0.0206399388052079
4,45,4,0.254525317548132,-0.0246750705157637,0.336816055221733,-0.448335774323143
5,45,4,-0.236085179105512,0.0166317165236121,0.0630241522369093,0.387325317899503
6,45,4,0.365424127403814,-0.0436284096924016,-0.623759431364288,0.0460130841918772
7,45,4,0.0799789068519813,-0.0107025471677112,-0.324463920528976,0.166706162122679
8,45,4,-0.0988651049828761,0.00749123061291106,-0.00764338848420907,0.213570818875339
9,45,4,0.0821427939890928,-0.0120550185305895,-0.195007186756587,0.22423983887829
10,45,4,0.145179369637228,-0.0133965322863058,-0.292044871898864,0.0628057638621004
11,45,4,-0.398197347568574,0.0326483752803568,0.220870779874862,0.321378566530424
12,45,4,0.282127487292392,-0.0330472918676596,-0.401748851015313,0.0528371919043163
1,46,4,-0.402098979024012,0.0267869369303089,0.241089676330778,0.463158735002506
2,46,4,-0.505389539520869,0.03057184934152,0.20477104260011,0.784619536094557
3,46,4,0.280842493876967,-0.0353080388358011,-0.629935597215057,0.165647821181917
4,46,4,-0.457223384533347,0.0300041021174751,0.141431179801796,0.709546057832689
5,46,4,0.464736815404618,-0.0501095447182828,-0.238514217717783,-0.465318942809617
6,46,4,-0.077792601969728,0.00187420852235675,-0.0754521494717334,0.347403606001536
7,46,4,0.295793678414494,-0.0292385202924888,0.274804605503952,-0.387184838130078
8,46,4,0.348913790855052,-0.0416824881116321,-0.542971230150851,0.140833443470665
9,46,4,0.4462382645142,-0.0527934046508851,-0.736002051892101,0.0404515092393567
10,46,4,0.198028758032113,-0.0138734891766649,0.305049184056292,-0.373195646541289
11,46,4,-0.067549683592438,0.00576193978090999,0.00467499977875207,0.0557221795151504
12,46,4,0.130729950828415,-0.0151934417054721,-0.196032656475706,-0.00688761225057586
1,47,4,0.0910674218063966,-0.0114597674429274,-0.446116752190005,0.197611162722583
2,47,4,0.00749356677315391,-0.0115172679393718,-0.205433424801806,0.383001579030904
3,47,4,0.199522165393275,-0.0468372035541079,-0.346351753981586,0.468309458570086
4,47,4,0.127853490619646,-0.0119432915196904,0.174244665261508,-0.302837323791642
5,47,4,0.106328968112544,-0.0103239751032162,-0.318531495032623,0.0605633453884272
6,47,4,0.199321529746902,-0.0257494341893587,0.242128361661481,-0.399399179873485
7,47,4,-0.126428159518695,0.00985592200460253,0.0130599490824336,0.169858023224779
8,47,4,-0.434441680333068,0.0333433936276024,0.260966135073221,0.2950206906895
9,47,4,0.0582441483900183,-0.00799716687099397,-0.202824006667486,0.123900326762869
10,47,4,0.306187588413121,-0.0234453734445003,-0.717089685341759,-0.093288104069564
11,47,4,-0.0962331996322141,0.00228199194134132,0.00466999819807229,0.375872082477315
12,47,4,0.172085050591349,-0.0214285382126317,-0.105894169349477,-0.029020365070829
1,48,4,0.154775506322453,-0.0146264711295593,-0.591511850339854,0.103973114398613
2,48,4,0.357741647172643,-0.0263252070535171,-0.870701251982755,-0.0741166042910768
3,48,4,0.324043725656143,-0.0334370378672638,-0.816481151605349,0.0231551138503988
4,48,4,-0.0208599720438776,0.0124552926216285,-0.176333587775535,-0.211630026556911
5,48,4,0.230019009822043,-0.0203217314895169,-0.25416052077823,-0.176833213736284
6,48,4,0.213128049194163,-0.0270451194427607,-0.290831047522497,0.234156371495812
7,48,4,0.288711168559162,-0.029501324795534,0.317036799293428,-0.435271162582752
8,48,4,0.457600788508412,-0.0497029484575689,0.0522382674113273,-0.519505833957919
9,48,4,0.158313321870531,-0.0166706162770952,-0.223605145761342,0.0293611028861577
10,48,4,0.120285002277676,-0.0152226895897917,0.226154553091175,-0.321970023149341
11,48,4,0.221734665265039,-0.0219309015083711,-0.584013926285435,0.0773065603963708
12,48,4,-0.248233360084833,0.0211114940027916,0.183004732113789,0.269380107129353
1,49,4,-0.204167096292903,0.00680713264227822,0.068167192591228,0.545067428060741
2,49,4,0.100289585653259,-0.00955618413848932,-0.131528576485433,-0.0399251983819423
3,49,4,-0.278911078289211,0.0124484519116776,0.233659983794043,0.607530561509205
4,49,4,-0.0938361925450764,0.00873124727402992,-0.0638615847220365,0.156328828304048
5,49,4,-0.319305688387485,0.0228262777522945,0.258920334395949,0.359562318190088
6,49,4,0.401218484710336,-0.0411244725524843,-0.648148292045537,-0.156092562684402
7,49,4,-0.336015048884819,0.0295233950960427,0.298081638024462,0.321030819027974
8,49,4,0.100499027101865,-0.0115052988025061,0.179347353114915,-0.306333245725665
9,49,4,-0.0176144212480455,0.00186803809135291,0.0585776340149755,0.0324921339685172
10,49,4,-0.00699104830723102,0.000175083761351752,-0.181574877478688,0.133708183764949
11,49,4,-0.200295218984421,0.0143615813700404,0.117779950257891,0.293487599241076
12,49,4,-0.154488513795929,0.0138646502134462,0.0914209507960928,0.190291266390685
1,50,4,-0.407244096575517,0.0253572514628225,0.31522839864509,0.51433677717522
2,50,4,0.330976652020382,-0.0279682156906867,-0.474036119946376,-0.270454004178978
3,50,4,0.29877057698109,-0.0377985498743241,-0.705982343284268,0.133752997983056
4,50,4,-0.0971570491904604,0.00672202993185797,0.0069814747818069,0.168904579996919
5,50,4,-0.171022652996081,0.00927930879777693,-0.0570735140722245,0.436069805953718
6,50,4,-0.0184754484169836,-0.00235634017560168,0.254373067707335,-0.339938093195295
7,50,4,0.460074334061741,-0.0444889964839053,0.461130907255576,-0.59469759548073
8,50,4,0.185335594692088,-0.0187717773062281,-0.353931883113944,0.0275432304636424
9,50,4,0.301623602859528,-0.0325324971566449,0.131362544391169,-0.502898786288462
10,50,4,-0.00200074744826628,-0.000649419726680262,0.0646941474640602,0.0135662057020633
11,50,4,0.107508640161028,-0.0113394577912357,-0.342496390463943,0.0899087247357622
12,50,4,0.663779832056406,-0.0616070441855383,-1.21420487815261,-0.270456054653687
1,51,4,-0.00968031165023217,-0.00197152904295616,-0.233580696262048,0.219844762058413
2,51,4,0.0349464822422159,-0.0141038333144499,-0.246896790274675,0.368220249546303
3,51,4,-0.214130706755926,0.016142454752282,0.125655607151087,0.31506995423003
4,51,4,-0.600151072708027,0.0352007983354991,0.103139432451898,0.958752063500503
5,51,4,0.38471620322696,-0.041682996769634,-0.0998789489951072,-0.580394800436125
6,51,4,0.0428081586202172,-0.0217563221494707,-0.182694578901349,0.52734401041252
7,51,4,-0.709632103831055,0.0491469995181555,0.397970881899865,0.542105209266892
8,51,4,0.738401249249136,-0.0714452350411485,0.0981492580914416,-0.771988785338862
9,51,4,-0.0313467398033466,0.00180681275927066,-0.108319956679325,-0.021445199395673
10,51,4,-0.0297902547331333,0.00258451453931387,0.11289038046825,-0.124655657268934
11,51,4,0.778963286430232,-0.0777661765273654,-0.652769143844803,-0.834161900757582
12,51,4,0.298117680900977,-0.0293128911579099,-0.159174275685351,-0.302764892117451
1,52,4,0.323774357325124,-0.0242089998583454,-0.151674065195925,-0.318720278600721
2,52,4,0.113653359153489,-0.012055997166795,-0.226980893945392,0.0144347903348166
3,52,4,-0.523641443853714,0.0398179002430809,0.279981104926951,0.46127846626409
4,52,4,0.275015136246407,-0.0432667044290448,0.595569683442539,-0.864991053441219
5,52,4,0.192131603771349,-0.0168553453558049,-0.292547702761033,-0.119372048380093
6,52,4,0.0387757038021203,-0.00718422051568303,-0.190629191182533,0.203799616558871
7,52,4,-0.0761409683411275,0.00480681242332672,0.110795340827726,0.0304313804064937
8,52,4,0.348384619245154,-0.0330981705120373,-0.318151655244928,-0.294005719654038
9,52,4,-0.0987015081500874,0.00788987859204539,0.00190325316820053,0.120454916499394
10,52,4,-0.0383593539546193,0.00135970787714326,0.0012647207573346,0.147083285218131
11,52,4,-0.497876152631077,0.0394798945291027,0.285990501440826,0.377354834479882
12,52,4,-0.0446498365597318,0.000356194743189166,-0.0517649545079187,0.331593042679789
1,53,4,0.409172520370768,-0.0334181002482152,-0.149929098028879,-0.501084737980959
2,53,4,-0.0727453112092264,-0.00626115533845508,-0.0769180991503221,0.387761238776045
3,53,4,0.0764096060382308,-0.00873543653790339,-0.0565847049389431,-0.0667128999915279
4,53,4,0.0487536024865457,-0.0083038102433328,-0.0343334922201028,0.107655315824388
5,53,4,-0.098391963832792,0.00650977804191002,-0.0426704283512528,0.253729605651654
6,53,4,-0.254483650148067,0.0151377339469204,-0.0835291201650518,0.65918726164471
7,53,4,0.140285873132061,-0.0168274688703137,-0.163826743566317,-0.0699007085128314
8,53,4,-0.0932301836181299,0.00185283917546623,-0.0372803061271365,0.367046302927818
9,53,4,0.213025096063733,-0.0191983103866425,-0.142174829326419,-0.241653299951447
10,53,4,0.0597330856791986,-0.00681178474967303,0.0119207565683544,-0.0691397767901812
11,53,4,-0.284902774729493,0.0227010786292082,0.282866885723997,0.0179427100784866
12,53,4,0.234993897679233,-0.0262141597853605,0.274879993427445,-0.411158171033435
1,54,4,0.502050800437387,-0.0441138436545584,0.445740291486214,-0.529998609159861
2,54,4,0.229786488091416,-0.0259060370238429,-0.557805886175598,0.173746213950494
3,54,4,0.14250792555296,-0.0291115615918502,-0.362231292456922,0.345267595499961
4,54,4,0.358051986759036,-0.0445868451777056,0.127588323013105,-0.484220315019022
5,54,4,-0.0520478630788093,0.00818506048961168,-0.129933302124509,-0.0691784137539055
6,54,4,0.0251118111668375,-0.00427291060215509,-0.194094047604925,0.114047537070997
7,54,4,0.173066335224724,-0.0202996165498929,0.276676823448756,-0.385377802008015
8,54,4,0.0109599174037432,-0.00463955524673227,-0.103535858094015,0.266419636696662
9,54,4,-0.156613280155056,0.012079700398154,0.0901233186304705,0.335348219111001
10,54,4,-0.0718449099703684,0.00320855222636256,-0.0890110462470913,0.301700101327381
11,54,4,-0.241058812133946,0.0165049158787569,0.133146984258884,0.422256843091386
12,54,4,0.210767303318408,-0.0230401103186965,-0.194766599440571,-0.0917591953242654
1,55,4,0.0680173083608394,-0.00605427646063133,-0.220795857137953,0.0167821267890626
2,55,4,-0.131796866816384,0.000938989585536464,-0.0250367553607924,0.472972508226422
3,55,4,-0.258495070262034,0.0134795323585849,0.114398964566941,0.538053332613038
4,55,4,-0.468760150428293,0.0338264873013672,0.262593020027737,0.545893614790443
5,55,4,-0.349221986927793,0.0210628795600557,0.0162030884978283,0.669471206140496
6,55,4,0.00549919970647135,-0.00360510162282323,0.238878863832495,-0.221284489551938
7,55,4,0.558839978544084,-0.0642819539399562,0.607543934112483,-0.785336548709092
8,55,4,-0.265781731545283,0.0233571198155057,0.130589981231062,0.256700510799069
9,55,4,0.119634532456003,-0.0179818600695736,-0.202551292266965,0.245431241564353
10,55,4,0.409953169495013,-0.0431732658627538,0.448475562039155,-0.598123041862314
11,55,4,-0.00643925589854842,4.93957149067277e-05,0.41228316122609,-0.432740496570573
12,55,4,0.107486699900784,-0.0111122500694195,0.244213995552441,-0.312960846643974
1,56,4,-0.0915601966814568,0.000216340258864074,-0.0605465457488389,0.367143539773422
2,56,4,0.310627051776339,-0.0236212483928062,-0.788338426170189,-0.114537946822224
3,56,4,-0.294375618950985,0.0195093717016819,0.150071830757491,0.494254796162816
4,56,4,0.1816103512137,-0.0195251556096002,0.287822813452472,-0.396820947247839
5,56,4,-0.0553292972713337,-0.0020002113287094,-0.174324179438377,0.417016974873416
6,56,4,-0.443725042395048,0.0290485303519625,0.1028953318496,0.771187538999426
7,56,4,0.019404701729431,-0.00190557684730737,-0.18650304306171,0.111461765699851
8,56,4,-0.543317054830693,0.0351479579604164,0.03674149620493,0.75782160435698
9,56,4,-0.147631681142455,0.0100396155809796,0.143371190495908,-0.11156202660422
10,56,4,0.152262799064589,-0.0111284002723469,-0.286452338408928,-0.0747802083584495
11,56,4,0.181393939617303,-0.0189736561529848,0.137740171891246,-0.263723983855526
12,56,4,0.0527452764887891,-0.00452817118316544,-0.0630751777930453,-0.248105993135696
1,57,4,-0.481450327324199,0.0355418589654349,0.311419256855433,0.509948727527528
2,57,4,0.517745630777151,-0.0361153088002332,-0.919903130061821,-0.488475369785807
3,57,4,0.520159267170867,-0.0470162246410718,-1.10988351361454,-0.0578440977183663
4,57,4,-0.493999563176162,0.0284193706547395,0.286336885232677,0.507320275776797
5,57,4,0.334125382155758,-0.0388034742278742,0.318773436645082,-0.465974493940427
6,57,4,-0.060517583978002,-0.00970856771671933,-0.148799567928886,0.512016506486526
7,57,4,0.397543671021202,-0.0278601715280523,-0.781777631640183,-0.315975824948653
8,57,4,0.0469438028495215,-0.01074870409552,-0.17915613295949,0.26744373713688
9,57,4,0.340791218781469,-0.0344172624388106,0.185733765582345,-0.298518483042893
10,57,4,0.275953818878201,-0.0202245134360572,-0.610914632683866,-0.140802374216702
11,57,4,0.276828286162072,-0.0306015844226377,-0.48916421987216,0.0178918066088791
12,57,4,0.202789802416775,-0.0306886019899029,-0.362858920011882,0.243360871498024
1,58,4,0.0386937908028321,-0.0050813890380298,-0.317074728227408,0.142462567164408
2,58,4,0.305092295099254,-0.0266841697151759,-0.750017600670948,0.00611080282828654
3,58,4,0.024630706969271,-0.0107229053180549,-0.201565813047817,0.324701058447808
4,58,4,0.124585253045707,-0.0107824003818852,0.24706225153804,-0.407338993962212
5,58,4,-0.217423769630274,0.0162896205855661,0.0965515077878771,0.314246550533746
6,58,4,-0.0858797249950918,0.0066982806405523,-0.00640642215171418,0.272243767503586
7,58,4,-0.100719804812071,0.00971288821375228,0.129744781502856,-0.0957532740200318
8,58,4,0.332514330933267,-0.0383459842776807,0.300775855636468,-0.434990905908744
9,58,4,-0.252210302308379,0.0189055222888728,0.185187921469655,0.273709680894012
10,58,4,0.302090823163811,-0.030049832986962,0.304479233661382,-0.421759660387974
11,58,4,-0.360799464274415,0.0294838010579824,0.224027582283621,0.136763201222674
12,58,4,-0.134271181169563,0.0117620559979467,0.126136687119711,-0.0555255176811176
1,59,4,0.112343155291635,-0.0116683171793371,-0.483683237046888,0.155123718092412
2,59,4,-0.309971608221142,0.0245390435433248,0.188091459960841,0.27509425574062
3,59,4,0.133877478963898,-0.0258908946004971,-0.344512037283905,0.32068079454081
4,59,4,-0.127425737943727,0.0119536485265712,0.0497003125615791,0.103001485652004
5,59,4,0.030735915462743,-0.00924998320448311,-0.240640817095372,0.32288857796281
6,59,4,0.208188557471201,-0.0207715326735224,-0.297579046932383,-0.0776168619162856
7,59,4,-0.217144240642771,0.0201436566798093,0.254174928106209,0.184711506505704
8,59,4,-0.427618389970177,0.0332693511195019,0.230076371744105,0.325736037137043
9,59,4,0.17146808900257,-0.0131742560266373,-0.162016861060237,-0.0513543373096126
10,59,4,-0.258170704190398,0.0200531519694438,0.179611101642732,0.221939745943487
11,59,4,-0.344383065724389,0.0257644958461125,0.203669944850171,0.458415328589006
12,59,4,0.105899759098715,-0.0180444210802154,-0.225399872698552,0.254515811084526
1,60,4,-0.0839075276335537,0.00338974400584472,-0.131304091811955,0.3303038246968
2,60,4,0.177957125673656,-0.0254219387614291,-0.480518434949639,0.251863894072726
3,60,4,0.202949150045084,-0.0314993620612674,-0.445401312043792,0.261303302290152
4,60,4,0.262538212483297,-0.0335630002439584,0.0458746463761022,-0.297125257735147
5,60,4,0.230228691292243,-0.0266268403614167,0.133372296099896,-0.183737801074391
6,60,4,0.226384489398794,-0.0240161196086983,-0.402513096269548,-0.0524027715273646
7,60,4,-0.27052990802842,0.022316516272568,0.163275655289381,0.264674962903931
8,60,4,0.405078154675493,-0.0373863177519478,-0.629701782653176,-0.220957413985972
9,60,4,0.634732329413205,-0.087330393984669,0.475645025053974,-0.702090674504279
10,60,4,0.455034419270063,-0.0561093947768282,0.555380533928245,-0.733358917703
11,60,4,-0.4514562752067,0.035430790831469,0.205987966943358,0.420325717614403
12,60,4,0.341714673095791,-0.0364470300400941,-0.0218630340935758,-0.419351127503902
1,61,4,0.333296741880992,-0.0167578627504437,-1.10611011973729,-0.13674985036778
2,61,4,0.20149110606796,-0.0184837099550494,-0.49461468419161,-0.0291702428286015
3,61,4,0.00138166130478529,-0.0067201339969787,-0.172759023281412,0.303619973602625
4,61,4,-0.59991926877617,0.0435868585186478,0.380891349167464,0.515923801664938
5,61,4,0.166603925390112,-0.0207759953179243,-0.441319116993847,0.0842326783687724
6,61,4,0.218007169307968,-0.0232711170998259,-0.356470636602859,0.118731523684115
7,61,4,-0.145771432918089,0.0103087179175032,0.105258453861193,0.177406815280501
8,61,4,-0.446570580204143,0.0339168532027848,0.257855275087789,0.490431084581592
9,61,4,-0.0190367055862319,-0.00321170588473,-0.0753433065162288,0.31289598593106
10,61,4,0.427433747122432,-0.0516654796672964,0.530739765925178,-0.695099620522086
11,61,4,-0.118647869800743,0.00868214893958998,0.0210451138401927,0.258230819686868
12,61,4,0.325375224455508,-0.0273567194331154,-0.330879276309433,-0.181976459626841
1,62,4,-0.137470101205195,0.00336909909233131,-0.0145511969121285,0.379051474488859
2,62,4,-0.376251693871309,0.0229083667673677,0.240309123392467,0.581677278169675
3,62,4,-0.181065977500435,0.0044793355795556,0.0879505391173249,0.481945412207936
4,62,4,0.134754512200826,-0.0151322086890556,0.0369627769026434,-0.15647737199159
5,62,4,-0.00927238393949012,-0.000711264247759303,-0.112832605142114,0.219810154754391
6,62,4,-0.124224070762757,0.00969870437013027,0.107682684135174,0.182743765627385
7,62,4,0.0713440781452177,-0.00699079917627091,0.0206069530140275,-0.102483012278549
8,62,4,0.100442479704568,-0.0121799633943912,0.031230974670764,-0.169847487533044
9,62,4,0.263423834247943,-0.0345558107541865,-0.397579765316179,0.193474889503673
10,62,4,0.177975713384176,-0.0189288017387825,-0.439357591765958,0.0705720047026728
11,62,4,-0.0298133957694978,-0.00354467510794225,-0.0835874907032189,0.326613297028233
12,62,4,0.282434776888265,-0.0418246487708995,-0.380029466775492,0.224751514105026
1,63,4,0.134513501240307,-0.00734066405996934,-0.422123601744301,-0.0320486099535185
2,63,4,-0.0418576442549371,-0.00299938625133705,-0.134723656255565,0.331463584641874
3,63,4,0.341723822768917,-0.0324794714850598,-0.790621103726563,0.00213305968439638
4,63,4,0.499324925332061,-0.0660079026658526,0.237592620118812,-0.691218479279821
5,63,4,-0.658999978847403,0.0491271798826322,0.36277775022599,0.533720942399153
6,63,4,0.315765498448528,-0.032679426085957,-0.517962978997159,-0.059795182496442
7,63,4,-0.00156924013758137,0.00259776842942678,0.014054619077543,-0.0431450000649665
8,63,4,0.55636414672461,-0.0691928750140317,0.183186688319051,-0.671320071943258
9,63,4,-0.00182312185462287,-0.0122016070042445,0.0398261222342711,0.586403156097289
10,63,4,-0.214279749231674,0.0169569253622931,0.19034113745998,0.0677617274581223
11,63,4,0.293677582835077,-0.0247351092136793,-0.420557888241849,-0.169206921099483
12,63,4,-0.167672823880536,0.0143312956102578,0.114592475954317,0.00842359621221512
1,64,4,0.133414254519999,-0.0135758013129653,0.24732763024796,-0.286766146968023
2,64,4,-0.450625462784571,0.0312130643268185,0.275554476877437,0.466664211443149
3,64,4,0.0996553288613284,-0.0184391371132665,-0.182237996998353,0.275839712087146
4,64,4,-0.169793778703612,0.00980259732912774,-0.107319435366997,0.466784411951436
5,64,4,-0.150651926538457,0.00506983090891875,-0.112157993126024,0.580267265348505
6,64,4,0.769476477217202,-0.0866865593577854,-0.468279675226568,-0.777514318196158
7,64,4,-0.462107669329347,0.037281832151294,0.207927548876905,0.346064473735868
8,64,4,0.193860514449658,-0.0202070174802305,-0.361545560471173,0.053642592142178
9,64,4,-0.448526955541536,0.0338161023445056,0.225321450183612,0.178827163667569
10,64,4,0.0302705871531752,-0.00400429027657365,-0.0465989373317538,0.0804018165694786
11,64,4,0.032432709627309,-0.0128836895523823,-0.141414650594572,0.346525310805421
12,64,4,0.289682842011262,-0.0329136048459935,0.249729592357421,-0.421371901148032
1,65,4,0.172103806385877,-0.0118961128841983,-0.584386427110666,-0.00444539650509075
2,65,4,-0.541130217356039,0.0355307129180575,0.386556444834693,0.65942230723614
3,65,4,0.0823192406358311,-0.0310263829698231,-0.236994585870882,0.466757007427266
4,65,4,0.00842406713906196,-0.000119457553036383,-0.0128149509841093,0.0835932291077157
5,65,4,0.628537527772389,-0.0806610916488694,0.250460998289904,-0.47632173795588
6,65,4,-0.241593531651081,0.0176068201804615,0.0744531482417137,0.4424673405044
7,65,4,0.126119595893696,-0.00662470622929408,-0.339642479452841,0.0913304169666141
8,65,4,-0.0820996276122601,0.0077982941514593,0.12564573839497,-0.00283033903071581
9,65,4,0.0157279537946887,-0.00127331669219567,-0.118919622425113,0.0713553916763809
10,65,4,0.156593671667449,-0.0133806898500445,0.263560698320972,-0.373027509797804
11,65,4,-0.0749760643013235,0.00639156225269668,0.0949968457111806,0.0728894752604283
12,65,4,0.0916766892166255,-0.0136648970346814,0.40144098686697,-0.577023859772906
1,66,4,0.100510108205898,-0.00912549747453408,-0.462190507230213,0.114835641687996
2,66,4,0.22538691880857,-0.0210363199675016,-0.684800796380246,0.0513081817301877
3,66,4,-0.382434628768217,0.0246350495880347,0.218247026568411,0.596059737389397
4,66,4,0.0865126842823652,-0.00909376455431,0.559803749337729,-0.525869974673995
5,66,4,0.322355414694697,-0.036542823406685,-0.100905711370191,-0.298374866627408
6,66,4,-0.255414198790457,0.0206081763976427,0.130276638840468,0.29674908217696
7,66,4,-0.0439067915795766,0.0027847207585977,0.0957798507596362,0.0181733328104029
8,66,4,0.170505988195989,-0.0190382837976694,-0.308516384652943,0.0501394887210038
9,66,4,0.192336043119173,-0.0173763140289459,-0.42122735443711,0.0599330527910609
10,66,4,0.46348285552774,-0.0429136062849691,0.449678795143986,-0.571407781143643
11,66,4,-0.0708896115547387,0.00450720655821154,-0.032514795534793,0.15252772131437
12,66,4,0.148702073381309,-0.0244659932467533,0.389327201044439,-0.537468111628436
1,67,4,0.219320590514543,-0.0133215796992578,-0.598828021245658,-0.0478041308394983
2,67,4,-0.707612444692796,0.0443864497000222,0.474041092710504,0.76205257423056
3,67,4,0.344643304794042,-0.0365943683078338,-0.851445409908019,0.0290941796673344
4,67,4,0.0937489513978178,0.00165736056277741,-0.318161986590893,-0.35855969291198
5,67,4,-0.162949129031099,0.0111805766085919,0.0225918360648512,0.329340276864085
6,67,4,0.286011374390119,-0.0276823635574701,-0.491605824222057,-0.137159766367781
7,67,4,0.125489609831398,-0.014459001403536,-0.386899110626478,0.142673387314788
8,67,4,0.0222623404892464,-0.00858460673073412,-0.144831870848404,0.287438651590516
9,67,4,0.0581281122062538,-0.00607350163759107,-0.198515948522728,0.0625604267394157
10,67,4,0.363644075667009,-0.0411608492176732,0.426242191615907,-0.563628485597998
11,67,4,0.863943534664815,-0.108357226246203,-0.196408582039012,-0.927863758647642
12,67,4,0.0649923305448395,-0.0119625498027078,0.294310085811123,-0.437924953280006
1,68,4,-0.0310189630183135,-0.00688513072731206,-0.18498815456029,0.385838908807976
2,68,4,-0.187884758077869,0.0115549608961703,0.0177397192539626,0.306417083619737
3,68,4,-0.0739557784532344,-0.00919513689656094,-0.0357226621597349,0.51438884905043
4,68,4,-0.0136481343440964,0.00670805859720572,-0.167997380155506,0.0338826962745216
5,68,4,0.117124988830521,-0.00860150857280561,-0.360192410316573,-0.0513821313927462
6,68,4,0.219580847570896,-0.0209843523244489,-0.150402575193863,-0.0536707681983033
7,68,4,0.385953350339644,-0.0382261315398122,0.398670932141718,-0.520912368961688
8,68,4,-0.253421654213248,0.0236067626085421,0.345373512756408,-0.152669989791288
9,68,4,-0.129059480784731,0.00933223523298812,0.0380543093321315,0.239984981186762
10,68,4,0.218117482844779,-0.0202307045667325,0.0730425708192118,-0.264886325557478
11,68,4,0.141400850086675,-0.025172185023591,-0.272626264843047,0.315438661692986
12,68,4,-0.0873469228284744,0.00520218329609741,0.0156631522535937,0.123898686809861
1,69,4,-0.398944889043199,0.0264713617401642,0.272578836678423,0.492598247922873
2,69,4,-0.259552574231569,0.0162735880164869,0.117252746259863,0.465968182166472
3,69,4,0.136467151737407,-0.0280419051358159,-0.354819293083597,0.337295304891583
4,69,4,0.18535015321632,-0.0208321409199881,0.369155587222692,-0.536874066563407
5,69,4,-0.0584516308406034,-0.0021101307774313,-0.173885203016737,0.397480989803937
6,69,4,0.22322741960885,-0.0202644640313305,-0.0285018953311175,-0.182756784111661
7,69,4,-0.0782111319867835,0.00587906280288312,0.0848024534314949,0.0136656071984369
8,69,4,0.298395160382669,-0.0383905844277839,-0.567227814124503,0.133840127881895
9,69,4,0.00307663135698174,9.21554589166136e-05,0.186720315620128,-0.102249132773782
10,69,4,-0.564286890054745,0.0395544388874004,0.258474468093644,0.702555271103963
11,69,4,-0.474225977246399,0.0339586498421385,0.286175965768827,0.599819413249312
12,69,4,0.18072514143124,-0.0212190671626217,-0.265906973570148,0.181139580523787
1,70,4,0.258898066507013,-0.0296136030676958,0.532343166956562,-0.61012213394704
2,70,4,0.202079291580007,-0.0272012304738223,-0.48017421499448,0.263608417431621
3,70,4,-0.20283797484056,0.0171843961453269,0.0674720600523216,0.200496500419932
4,70,4,0.191794619500455,-0.0220538242462756,0.291470960216701,-0.358890327825666
5,70,4,0.309833660845704,-0.0353145937877057,-0.528861178612564,-0.169937376724669
6,70,4,-0.284127738080146,0.0322298646813338,0.0998848664594269,0.325914089734309
7,70,4,-0.508501704734506,0.0398100945485489,0.264113798535565,0.389023572499001
8,70,4,-0.169969827169678,0.0107997994114244,0.0987815174817374,0.286916052887813
9,70,4,-0.150540555627888,0.0108505760901016,0.0657651553783588,0.320839088241653
10,70,4,0.134893439062891,-0.0123124242940186,-0.341874583784554,0.0602278473533288
11,70,4,0.134978652257406,-0.0140290961650909,-0.0690944099819712,-0.0538442915337415
12,70,4,0.467436790214582,-0.0493863361120855,-0.274914749976772,-0.390707941475059
1,71,4,0.464106219280484,-0.0150672023742745,-1.26851509688019,-0.429167511095954
2,71,4,0.33652417536162,-0.0296602154645532,-0.795251903627153,-0.00778557067199455
3,71,4,0.051464006317148,-0.0063800324175445,0.280009017535292,-0.341433161897948
4,71,4,0.285223050813375,-0.0379005200690826,0.617091710784447,-0.701651144672533
5,71,4,0.45995635778164,-0.0511881772315074,-0.174714106017151,-0.497394719148918
6,71,4,0.438087002926053,-0.0423808336126711,-0.763311020590646,-0.134438757870498
7,71,4,0.0129130932813633,-0.00264802779259234,-0.0708334218059388,0.1455664418194
8,71,4,0.276547968415634,-0.0261128838213627,-0.521216639818803,0.0204643096109446
9,71,4,0.590276482749794,-0.0574630649911031,-1.15270515705319,-0.15230184408773
10,71,4,0.405881765744724,-0.0280499726198291,-0.80554030184844,-0.323688081836034
11,71,4,0.104389102131043,-0.0170934622033575,-0.254430127579598,0.246904100937164
12,71,4,-0.0584043810944225,0.0035900556184466,0.00613189749868337,0.0859097307713129
1,72,4,-0.374092371369083,0.0243109223294435,0.250493357177853,0.473719720207209
2,72,4,0.0438023562377934,-0.00916398892140489,-0.21172579444128,0.256456020617471
3,72,4,0.532658190163874,-0.0587467992393795,-1.01408422401309,-0.0322739615487812
4,72,4,0.00068572542983475,0.0104559637335534,-0.213985611811817,-0.216087895112972
5,72,4,0.00285885317338386,0.00352527680001116,-0.231281597235177,0.0952016785191635
6,72,4,-0.212835322862637,0.00814133583128362,-0.0194776814107205,0.586778711404269
7,72,4,-0.367622568245858,0.0281875288638978,0.24855779295195,0.349691839285437
8,72,4,-0.213115132692328,0.0187385406746931,0.183269025433113,0.00492857174340508
9,72,4,-0.0133733961401422,-0.00150394860971538,-0.0496769342805313,0.243238967798214
10,72,4,-0.550417767639538,0.0432982288649802,0.268871118570671,0.545355700704634
11,72,4,0.0705733006848854,-0.00373080504907018,-0.16438815897383,-0.141633871066657
12,72,4,0.0799963190647679,-0.010291083510765,-0.173163332951665,0.161018162001514
1,73,4,0.0595224110064709,-0.00821441688586553,-0.396397989425537,0.221964717096219
2,73,4,0.371891649288662,-0.0248044581767969,-0.921304829646572,-0.209705336195609
3,73,4,0.304519092952079,-0.0434840531404055,-0.663972124183591,0.190712075846555
4,73,4,0.289766983287331,-0.0387004451877969,0.135959250463953,-0.162208477930053
5,73,4,-0.379724909188985,0.0320024811470682,0.144757133135752,0.284224632926088
6,73,4,-0.199320534877365,0.0150903192435639,0.0753891415124418,0.374266159920111
7,73,4,0.192437928579519,-0.0187361594419688,-0.476596487532559,-0.0033606931940741
8,73,4,0.144795928731525,-0.0155176865390744,-0.0965121550809959,-0.123370646064148
9,73,4,-0.124395568813813,0.0099965908146619,0.0255631033580519,0.202019162152173
10,73,4,-0.0444041789247592,-0.00055678343584438,-0.0606953405555775,0.212240182618482
11,73,4,0.0843555657389773,-0.0114307246652808,-0.11618459450137,0.204525437305873
12,73,4,0.600106921207895,-0.0547721081640324,-1.47665260282719,-0.102587176851408
1,74,4,-0.164694888890195,0.010391484553761,0.0127168739003938,0.366443388065664
2,74,4,0.218001029240053,-0.0206571990995151,-0.610540530117695,0.0675947296003897
3,74,4,0.501916159391888,-0.0350388794652279,-1.3058164192219,-0.156031435221902
4,74,4,0.452148690218497,-0.0592759021296448,-0.00704035025105527,-0.513062808942659
5,74,4,0.33714622685339,-0.0365509253361089,0.10550167037887,-0.212465891075937
6,74,4,0.594824683898012,-0.0532622298278631,-0.977379977530083,-0.376096439491575
7,74,4,0.182858506622606,-0.0163656273551263,0.185636179753283,-0.29486370764289
8,74,4,-0.0104230424756945,0.000727663399045038,0.157231867795422,-0.0581014904678204
9,74,4,0.0534713412314945,-0.0110744695104552,0.352846357697775,-0.495758114652227
10,74,4,-0.037773164163699,0.00329191111067546,0.0942075586569736,-0.0963400811855191
11,74,4,0.233755844395517,-0.0241078017538141,-0.173256519311794,-0.210912011325824
12,74,4,-0.17471027095994,0.0125470118301939,0.0841685887892935,0.257199892468518
1,75,4,0.482632139693621,-0.018406352730311,-1.16813247721287,-0.443136870235226
2,75,4,0.149501715081853,-0.0133404243113275,-0.389625154940437,0.0949317043013901
3,75,4,0.0783334861662844,-0.0143606089807342,-0.142498864252568,0.266551665864398
4,75,4,-0.407990244275151,0.0282526104231791,0.145952782873918,0.594932392939637
5,75,4,-0.124579284057458,0.00956148638599738,-0.03521777825002,0.225681216303421
6,75,4,0.0240718706377774,-0.00273631956681451,0.117925918021898,-0.104400853493556
7,75,4,0.113802048589527,-0.00988118722068235,-0.27687590502878,-0.0172318580355074
8,75,4,0.0164627651571286,-0.00266537549387675,-0.01459477239756,0.129438093053385
9,75,4,0.664312855722384,-0.0710411632284604,-0.637432749202199,-0.46331851034628
10,75,4,0.221488960108695,-0.024900676667358,0.100618436814208,-0.38118556532272
11,75,4,0.507473112237657,-0.0472391927834204,-0.50286715400054,-0.4631180599726
12,75,4,0.0448030222621861,-0.0143081266364936,0.360699658390083,-0.465624599837279
1,76,4,-0.0203008391424848,-0.00514778368741718,-0.255306112939385,0.300244657697235
2,76,4,-0.18527240309611,0.0109328757082444,0.0168298161955728,0.30548796468285
3,76,4,-0.627881620468026,0.0453248402305053,0.479068618390987,0.397306839134095
4,76,4,-0.603241721029738,0.0415902245925282,0.277309338386447,0.620283933440881
5,76,4,-0.170087549203179,0.00876339312494379,-0.0585971934176732,0.470311287679202
6,76,4,0.240203432390604,-0.0261711244239313,-0.0878053123773873,-0.292567602252967
7,76,4,0.258880140095724,-0.0281067633832402,0.291728107362003,-0.409073783520305
8,76,4,0.137684450005051,-0.0124961364442884,0.0856782927963109,-0.17493582471023
9,76,4,0.211693891850808,-0.0234055025012505,0.272399400589031,-0.420740406265128
10,76,4,0.00642324334614727,-0.000398601947326756,0.179550449651301,-0.144227917266251
11,76,4,0.393343212297195,-0.0498476509465971,0.504813176651158,-0.69210665052754
12,76,4,0.283135991600418,-0.0351931021790464,-0.567265897765174,0.067673399878513
1,77,4,-0.00973886018825097,0.000149455074747495,0.382909835368503,-0.296121561490919
2,77,4,0.343388409825797,-0.0234250157341045,-0.910529060084161,-0.163315835162601
3,77,4,0.37077380163653,-0.0271469720076293,-1.0529011118337,-0.105581006225605
4,77,4,-0.149252132500551,0.0148844100811532,-0.0411687655410313,0.277247291411562
5,77,4,-0.16740338994557,0.0209381665425982,0.0311693969802281,0.376905988872676
6,77,4,-0.0798567245155212,-0.00102874584487801,-0.153460196649642,0.458162960122756
7,77,4,-0.358459643368881,0.0259555086609902,0.298105040177605,0.374112271107751
8,77,4,0.115931257248593,-0.0246476749109538,-0.196615647768345,0.38031398053042
9,77,4,0.0883892002645883,-0.0130917600106792,-0.171869458897877,0.238766509755456
10,77,4,-0.390810684938733,0.0312419455450923,0.191871877766792,0.327523197834008
11,77,4,-0.184560001609165,0.0143405475002703,0.081708383154015,0.28331972368805
12,77,4,0.792450490046492,-0.0717020444925203,-0.837468656323994,-0.820201501345977
1,78,4,-0.17461748644166,0.0119135542096621,0.163853669825605,0.252220036826789
2,78,4,0.469335731631609,-0.0393983621463556,-1.07269407046271,-0.181407678795964
3,78,4,-0.19679424411003,0.0117768887202307,0.0457839729390826,0.339297596587514
4,78,4,0.369236395333541,-0.0470070404554394,0.0458988110082299,-0.443168228945521
5,78,4,0.0808750054745103,-0.0174023660553326,-0.345136312929422,0.356681361381055
6,78,4,0.233647704271208,-0.0258518931383138,-0.31858636004151,-0.131354178837442
7,78,4,0.128315569486911,-0.0104036877746764,-0.068697168025977,-0.043471010542483
8,78,4,0.0844523090675635,-0.0148537960534905,-0.219245038902781,0.268987487321535
9,78,4,0.489367615034042,-0.049552071553707,-0.887505936630881,-0.063469265017623
10,78,4,-0.464264568312209,0.0388902916608538,0.32586261548325,0.427343774812027
11,78,4,-0.22913550944431,0.0177768768382642,0.290017151992285,-0.0971598862438058
12,78,4,0.299745633353776,-0.0356340428300196,0.361414801567849,-0.490424409087278
1,79,4,-0.759785204877115,0.0493584605001467,0.582164119015767,0.502902763802051
2,79,4,-0.176590422520882,0.00719119466215686,0.0298410943446584,0.451308629863563
3,79,4,0.520345031458416,-0.0374152919420399,-1.0148741048295,-0.368333425465553
4,79,4,0.0311497044708722,-0.00266064758499838,-0.0816507823317191,0.082680736982609
5,79,4,-0.149440200646404,0.00848313278951408,0.138333578768592,0.117027659319098
6,79,4,0.190418178851194,-0.0198574082816166,-0.443618509673921,0.0456769072572512
7,79,4,0.415900579229834,-0.04786739173387,0.507584539920702,-0.673481247716441
8,79,4,0.232345529610586,-0.0246178342748712,0.115708626718042,-0.272818064139547
9,79,4,-0.206230239204985,0.0203773981506289,0.122477982765376,0.0417085147269166
10,79,4,-0.540698143220409,0.0395426188961147,0.334380358704808,0.498281202404855
11,79,4,-0.0137937682404833,-0.000508132954389667,-0.0594680842607609,0.153723007207221
12,79,4,0.809533462335775,-0.0814530126149753,-0.698397866293526,-0.785783546514903
1,80,4,0.188417023047229,-0.0141298353651972,-0.661711498019903,0.0375966372743546
2,80,4,-0.149942117938492,0.0146666138385348,0.0641612981264364,0.00287795993177614
3,80,4,0.233359227307157,-0.036069781055431,-0.459218358816556,0.308798463210762
4,80,4,0.115299686508301,-0.00873708669642651,0.0440854474201626,-0.160505430072545
5,80,4,-0.0540957384101584,0.00468914734741921,0.205830004240837,-0.123866935082196
6,80,4,0.0227535012766136,-0.00507357686886304,-0.155041073241119,0.183820177827901
7,80,4,0.0574867952707279,-0.00591535415081035,-0.22036105281293,0.176433378725874
8,80,4,0.0533810699165415,-0.00593301221112065,0.0303260590061807,-0.028320210169463
9,80,4,-0.341715171118415,0.0260606512496558,0.196283919211642,0.147645811864313
10,80,4,-0.590423269846638,0.0442120311892082,0.3820355739358,0.397166297595092
11,80,4,0.0684121673708645,-0.00759004732689702,0.0186610765154482,-0.116242752309065
12,80,4,-0.349172243702925,0.0301881196583853,0.193594550103396,0.32228036482912
1,81,4,-0.201614995304765,0.00356395380299844,0.0419552412164841,0.498974216328852
2,81,4,0.49351714710709,-0.0326747576500088,-1.18846373944326,-0.261833704357337
3,81,4,0.173381338109595,-0.0250551584983111,-0.239429157587201,0.24836280034818
4,81,4,0.126268730439652,-0.0165508832024533,0.0769326824290313,-0.0895683602475555
5,81,4,-0.354314188435346,0.0191292570417207,-0.0449197120886357,0.735988953501144
6,81,4,-0.24917547499566,0.0118642005424531,-0.0667798066449961,0.653057613714543
7,81,4,-0.10225392602534,0.00631099250805929,0.0777680353519368,0.0807404723892951
8,81,4,-0.761852399175457,0.0534602932028751,0.446358161777655,0.52244751499022
9,81,4,-0.173989049652678,0.00933036368048131,0.182533879407439,0.421414090179273
10,81,4,-0.472213334083388,0.0359971191110961,0.293892878529058,0.463731529899225
11,81,4,0.126539371621534,-0.011308207724209,-0.0852040596130861,-0.131852050683008
12,81,4,0.429194400677761,-0.0541968932369339,0.380671279748292,-0.585483185080161
1,82,4,-0.552100275672772,0.0399247991992027,0.413218951282127,0.498171277060472
2,82,4,0.390455653541948,-0.0304171726107045,-0.893191495963314,-0.181974178153101
3,82,4,0.178804220779909,-0.0439950096543118,-0.342464990879548,0.387079844876079
4,82,4,0.403549177926346,-0.0500603972014643,0.38721300770878,-0.518032343835564
5,82,4,0.302768027039804,-0.0273176549235092,-0.409143126914004,-0.181946441875638
6,82,4,-0.0600501246965215,-0.00684927774046761,-0.129544681419716,0.48757976837716
7,82,4,0.29414752774821,-0.0340367300571501,0.411398977424248,-0.549159567859034
8,82,4,-0.510604662399778,0.0395871387028163,0.2016448188275,0.35629493939936
9,82,4,0.041615280292022,-0.0140559903377325,-0.0733264036275385,0.303495579452202
10,82,4,-0.213797865249537,0.018056412967177,0.116240786206129,0.177207439053068
11,82,4,-0.0679214484631307,-0.00269099630568363,-0.0197542128053743,0.411787183089443
12,82,4,0.511281281876488,-0.052943736019268,-1.14079849181003,-0.0835195963215008
1,83,4,-0.0419302895893968,0.00178321156491815,-0.104064719629258,0.234425911116111
2,83,4,0.505209221162711,-0.0289214777467164,-1.2361869266241,-0.305898808353419
3,83,4,-0.0267234989156391,-0.0111833883671211,-0.137133571005858,0.404864363232364
4,83,4,0.0663780326465926,-0.0152275576449219,0.0524348670161977,0.130040766826336
5,83,4,0.051182024985826,-0.0108330153164777,-0.292987069332337,0.319867458318011
6,83,4,-0.379683931949758,0.0268562118876544,0.18541272789909,0.405074609687498
7,83,4,0.195610909882616,-0.0201303288548152,-0.413355142862777,0.0978938765401423
8,83,4,0.0784534898627624,-0.00813355368282839,-0.117804829492188,0.0970677004445963
9,83,4,0.134163831810064,-0.0155500875977658,-0.233850696702688,0.166973165067548
10,83,4,0.0396949119432174,-0.00719222555563275,-0.25453926039674,0.19614442413624
11,83,4,-0.737264660007983,0.0479240214178905,0.235023053681413,0.739924397667708
12,83,4,-0.0864497698866025,0.00226391015597797,0.0399203887693057,0.292852966565178
1,84,4,-0.067200978946114,-0.00379164194863184,-0.101716939748548,0.353239854543099
2,84,4,0.173147376556633,-0.0131935267438588,-0.575568148656646,0.00613718546053678
3,84,4,0.409598386089888,-0.0473327668641327,-0.84048083322341,0.0743456842743173
4,84,4,0.150212713631936,-0.0184646046636651,0.116955360859104,-0.154362879530074
5,84,4,0.0942516122204449,-0.010743000760597,-0.28810054161336,0.263680294382541
6,84,4,0.115710721916433,-0.0203392918344446,-0.298824739591313,0.301546516246681
7,84,4,-0.24919009675606,0.018667159927037,0.157275066225522,0.293245628381563
8,84,4,0.12648422342494,-0.0115013003669427,0.299157825552624,-0.423618693644924
9,84,4,0.0612219435521452,-0.00997977701275265,-0.140453586123835,0.234969728115168
10,84,4,0.039143316544555,-0.00413366014998607,-0.00662830200634271,-0.250407920142957
11,84,4,0.509709439441242,-0.0609670147651464,0.0922246120545364,-0.612769830201973
12,84,4,0.00291160624901254,-0.00273370255976521,-0.0812971644307481,0.153061751480265
1,85,4,0.0311691613601459,-0.00506804618176597,-0.343277582194201,0.202105082620024
2,85,4,-0.55496347044401,0.0408073604310313,0.402118029338924,0.444484648621235
3,85,4,0.619129990565427,-0.0454194443795258,-1.97674580438018,-0.0934196818189223
4,85,4,-0.392028043529379,0.0284676550012981,0.0877100329020565,0.586517102982091
5,85,4,0.515225269806196,-0.0651013685072568,0.137186759126597,-0.655666401628036
6,85,4,-0.0607198118892667,0.00135998992215034,-0.0221590921886339,0.278906387920387
7,85,4,-0.262029678461816,0.0190831093298809,0.126381499237097,0.273874063150459
8,85,4,-0.221455487803591,0.0192875430023418,0.161090164498887,0.164004207884289
9,85,4,-0.133981483393423,0.00853019115882306,0.077035682723068,-0.140007575916628
10,85,4,0.192463046169979,-0.0172232322827124,-0.234856402697518,-0.0795213404076231
11,85,4,0.262146661396329,-0.0364700843626287,0.394867357245301,-0.567728110807512
12,85,4,-0.215641333170258,0.0207337772769898,0.169465167918755,0.0956752580287861
1,86,4,0.64745266171465,-0.0168672204368788,-1.60230340003116,-0.838635189109344
2,86,4,-0.308236361422786,0.016127645792967,0.238319419980203,0.546953901789237
3,86,4,0.545085964191537,-0.0399964083484962,-1.61653971154367,-0.151769911186462
4,86,4,-0.117718315902241,0.00538522839528707,0.0129372031563442,0.295364569671891
5,86,4,0.281196620332841,-0.0196097702415004,-0.645820549194332,-0.180225870471563
6,86,4,-0.456816834585971,0.0275771143339797,0.166381957226564,0.770260169700093
7,86,4,-0.517640094288804,0.03752298574628,0.328656843913138,0.483561150842905
8,86,4,0.436896288060847,-0.0439139902791904,-0.680896406094839,-0.132833679927678
9,86,4,0.290868247240975,-0.0307836420226442,-0.345889114159376,-0.031655249707546
10,86,4,0.0599966389389294,-0.00564089125142599,-0.0800915779611048,-0.115935813207603
11,86,4,-0.153843851852227,0.000511711341659158,0.127836619946757,0.391428914497694
12,86,4,-0.177261017238515,0.0159767964528088,0.10672677270797,0.206628184006303
1,87,4,0.0170137754141584,-0.00518585747186974,-0.329136526635256,0.227949759026134
2,87,4,-0.0760055727239922,-0.0180196127069224,-0.0286165590683967,0.522941349064293
3,87,4,0.0529015079891938,-0.0156312754609404,-0.246384469994555,0.345204326339078
4,87,4,-0.391502110940273,0.0251881395511087,-0.00225136763243125,0.69223170318977
5,87,4,-0.392631872007441,0.036726680173291,0.180758119161454,0.458751582107571
6,87,4,-0.204330630440852,0.00893098181845528,-0.0125659812431007,0.550053445214796
7,87,4,0.189591970690816,-0.0190243260393599,-0.427679155079518,0.048823155071254
8,87,4,0.0297108799747472,-0.00538327805374573,-0.168611560844354,0.118106279138282
9,87,4,-0.227849901138582,0.0215947884496616,0.194229641670814,0.277729056253903
10,87,4,-0.330231950242209,0.0312975552632866,0.202576112531718,0.253278905954626
11,87,4,-0.0360014570944735,0.00386455152831828,-0.00581138131026658,-0.0038389360798377
12,87,4,0.258807701445365,-0.0250071368312165,0.0538741866978964,-0.241156322408586
1,88,4,0.23798463563118,-0.0182654164442888,-0.754008522040674,-0.0169134642092645
2,88,4,0.344876192997219,-0.0275342721909492,-0.827964478183951,-0.109375205586275
3,88,4,0.180540554600017,-0.0409093647709147,-0.316759669148279,0.425944819747617
4,88,4,-0.0572339725103458,0.00426625254350083,-0.0749983820205984,0.0955239878810698
5,88,4,0.791122284795603,-0.115859220052163,0.527316886541331,-0.798591799164498
6,88,4,-0.373426338454389,0.0291696540678802,0.203281927188049,0.429531405686641
7,88,4,-0.170485783849672,0.0183608267753123,0.22942494261022,-0.0205942372532473
8,88,4,-0.404177637775833,0.0322552489480908,0.318248004103863,0.400853725085716
9,88,4,0.437638022477747,-0.0405384657437455,-0.549801021517684,-0.31141281132926
10,88,4,0.0371087738788482,-0.00541582293655401,0.127332988397747,-0.163621820891287
11,88,4,0.744534055983108,-0.0475179960794313,-1.57225558505312,-0.641416732743266
12,88,4,-0.125771451749318,0.00978171115152175,0.0360757684478016,0.199253778463259
1,89,4,0.1003491812357,-0.0120908579959622,-0.135709676003216,-0.197249414502318
2,89,4,-0.451387571161455,0.0300129720380071,0.358659066625493,0.528310867735222
3,89,4,-0.268443750312319,0.0159059240388954,0.135326946326908,0.418842236522205
4,89,4,-0.595085291281895,0.0418140085513992,0.278623356400843,0.668957350499346
5,89,4,0.258498014866605,-0.0336558191844025,0.149812769551143,-0.185651946402986
6,89,4,-0.283458489257164,0.0106174985079933,-0.0823552313768532,0.657638310265419
7,89,4,-0.208599225752838,0.0143536827011274,0.107474711592221,0.340614799680555
8,89,4,-0.574168648603201,0.0463599553419094,0.371375763206561,0.50457466039909
9,89,4,0.122122741215678,-0.0149719874541221,-0.161350409163397,0.183803774280134
10,89,4,0.109749075727506,-0.0101866401056914,0.26407024271564,-0.33639890604678
11,89,4,0.00679935395335145,-0.00791032817566296,-0.126347464187622,0.314861472913772
12,89,4,-0.295676249699974,0.0237114778551851,0.15747647974425,0.390075720560491
1,90,4,-0.00648658645411542,-0.00172696118712872,-0.281997181070732,0.245873556931745
2,90,4,0.00085399721363451,-0.00952472249299339,-0.198257340089258,0.369071327860612
3,90,4,0.106962291739331,-0.0173082964335668,-0.382627677967517,0.227566762872481
4,90,4,0.0116815719749451,-0.00158658901384514,0.659739176020322,-0.574482109236037
5,90,4,0.218184286855398,-0.023922887873961,0.395776138596117,-0.521188034174706
6,90,4,-0.641790790442718,0.045671439279614,0.314363462952517,0.661072023458933
7,90,4,0.17086146207269,-0.0134825286886065,-0.38700601588153,-0.0343299676384846
8,90,4,0.337868070882332,-0.038603797109258,0.45752937977818,-0.617996839853378
9,90,4,0.391445164410667,-0.0419399871171827,-0.278469951055806,-0.308968165806646
10,90,4,0.0175187698903565,-0.00247457991152013,-0.1459031699334,0.0916901308256427
11,90,4,0.0923372859197176,-0.00890411295564578,0.0863941184116351,-0.239520754046008
12,90,4,0.0244478922229567,-0.0120559678601045,-0.0884006160847827,0.382227687124907
1,91,4,0.246039672228213,-0.0253905362634187,0.355971299904901,-0.41068010315846
2,91,4,0.869879114196357,-0.0942176912844538,-0.501619935289876,-1.0558064656129
3,91,4,0.326993283982631,-0.0408048248727694,-0.736289823710673,0.140807940709408
4,91,4,0.0962190688264263,-0.00795063206935015,0.215546102507081,-0.288027031170686
5,91,4,0.0251626551725399,-0.00750869588432407,-0.148251113234722,0.216607715492501
6,91,4,0.304285364337427,-0.0350058117012348,-0.0229553088477502,-0.252569332046738
7,91,4,0.518782721712083,-0.0303892893024932,-0.994508574991088,-0.421334283582764
8,91,4,0.0613006986545006,-0.00944163536769302,-0.204404597883675,0.114777106134274
9,91,4,0.0930257704229421,-0.00865925996946715,0.00152798815439089,-0.0577987138882993
10,91,4,0.0501576368477649,-0.00626838640075078,-0.232755090069039,0.107861772938999
11,91,4,-0.0632938530601393,0.00267960151017272,0.166989147739381,-0.0525393779781625
12,91,4,0.026032068568057,-0.00805485703568445,-0.125564918564689,0.281929502344464
1,92,4,0.315829091416561,-0.0181386597917055,-0.920862377958695,-0.180642620083504
2,92,4,0.0573299046854123,-0.00923175607663322,-0.289139891904172,0.150905718126779
3,92,4,-0.174711643243059,0.00492747445275703,0.0358081256693824,0.505603218688677
4,92,4,-0.127639929969053,0.00555452125758653,-0.168078178376388,0.473772798780906
5,92,4,0.0144294452447773,-0.00176254745770298,-0.130099874299055,0.165756787250599
6,92,4,-0.260776644482858,0.0176794197963196,0.055059572951173,0.479017067865444
7,92,4,0.137419910601492,-0.0123864761055402,-0.337387865571065,0.00420443821766327
8,92,4,-0.286538471508059,0.0217245974969489,0.212118837042264,0.0602095936492684
9,92,4,0.257229262840402,-0.0270785902981748,-0.317465442464218,-0.0220696924657659
10,92,4,0.131705382704095,-0.0151211895062719,0.252525674587465,-0.346587513025579
11,92,4,0.205140636178486,-0.0204426163942426,0.0499492169267899,-0.259925179167343
12,92,4,0.672395709539837,-0.0756999408148137,-0.269325721914616,-0.670489609126109
1,93,4,0.109562245751773,-0.00834098705475115,-0.45811566584751,0.0657508595739037
2,93,4,-0.0845644847584757,0.00450381898114259,-0.0389019551890222,0.229717736684421
3,93,4,-0.601985385673686,0.0423205177757137,0.535594651421089,0.697121066589664
4,93,4,-0.102641219683185,0.00640896145265876,0.0521779781058221,0.168063534916905
5,93,4,0.317068051889771,-0.0313741664642533,-0.700653177158519,-0.0141165988597842
6,93,4,0.38208777409595,-0.0380288127418795,-0.581933395240485,-0.208441784846798
7,93,4,-0.170956337252323,0.0146605252551542,0.0815829041706641,0.23980288664479
8,93,4,7.64899914335268e-05,-0.000902125268959104,0.297769368887116,-0.311667322668191
9,93,4,-0.105880144966116,0.00663281751367151,-0.00197276886448259,0.20315037532478
10,93,4,0.124974528096479,-0.014863457936094,0.233538303672365,-0.329586707029711
11,93,4,0.164144385423058,-0.0193238449864161,0.308328472683434,-0.437677264878528
12,93,4,-0.200324612300192,0.018540207673901,0.106481328113967,0.261580959254534
1,94,4,-0.0100027089517517,-0.000276853562109278,-0.213662093717464,0.143532506672317
2,94,4,0.234677134375736,-0.0199995267552876,-0.683523417240277,-0.000776062522179543
3,94,4,-0.134058740321353,-0.00129134065202256,0.0465203343469426,0.52239403174628
4,94,4,0.211409598679495,-0.021612890102944,0.164616004348613,-0.25112902766868
5,94,4,0.174552848883086,-0.0224879884872544,-0.0367371482678734,-0.0128792199014352
6,94,4,0.210081412299347,-0.0194162479586023,-0.445404200825771,-0.0922555551257815
7,94,4,0.2721407089792,-0.0232447940653054,-0.437646852974403,-0.130706099728518
8,94,4,0.0465197713223742,-0.00550103317399762,-0.00990797403573599,0.0317049304061799
9,94,4,-0.0330962333708876,0.00141369401184721,-0.0817844121085703,0.129274639331047
10,94,4,0.159237067889703,-0.011126264449716,0.191899307183497,-0.240786935130518
11,94,4,0.369702730766635,-0.0338315805631901,-0.679608383342587,-0.195382105018371
12,94,4,-0.0917844582877728,0.00855228927485125,0.0147709501623835,0.121786140766481
1,95,4,0.301924697962267,-0.016634595770833,-0.869506974723747,-0.189214408687097
2,95,4,0.0293490382205334,-0.0142962739038787,-0.248382645389472,0.350482680007212
3,95,4,-0.368205234768213,0.0191601351469848,0.317925869770913,0.681600091217244
4,95,4,0.000566929328722857,0.0109571726286449,-0.207548647272474,-0.104124721459163
5,95,4,-0.218779057216933,0.0206560324811744,0.0558445455789543,0.312448767224094
6,95,4,-0.22870989489127,0.0180627702009506,0.25904336866983,-0.108512095820497
7,95,4,0.550893911300008,-0.0583197425753748,0.400173420385434,-0.550512531694842
8,95,4,-0.276210350230074,0.0216538597356434,0.154939546287464,0.341965050852236
9,95,4,0.404239542855015,-0.0325940754277386,-0.956806330318141,-0.106899851079509
10,95,4,-0.516582587967012,0.038865729513021,0.283764558631457,0.488492324985795
11,95,4,0.526730407163606,-0.0483561602225222,-0.535890373700638,-0.503826990462707
12,95,4,-0.418541727793191,0.0349427211071157,0.279316071498732,0.467131231426754
1,96,4,-0.139691754273176,0.00578325455949312,-0.0657756963608903,0.412626790511984
2,96,4,-0.103971588812288,0.00439821610648347,-0.048666784171393,0.238487558760614
3,96,4,0.425237493436572,-0.0447729213080555,-0.239890201282154,-0.399038475309764
4,96,4,-0.117266996608952,0.00987746516898009,0.0442199296608744,0.124063925139637
5,96,4,0.0986002850579199,-0.0171306808129293,-0.360376781955746,0.333570633591194
6,96,4,0.297780534054589,-0.029202945040437,-0.348366500094605,-0.0419900468111653
7,96,4,-0.211286826866576,0.0168491163761052,0.185897162248571,0.179918841462779
8,96,4,0.191037183767493,-0.0201992805346837,-0.336790953923174,0.020516928502732
9,96,4,0.0336369825035955,-0.00293468971707627,0.0765656580572116,-0.0715095683264116
10,96,4,0.0597436141383079,-0.00728636019911648,-0.239683289637962,0.197335282521308
11,96,4,-0.0808111706579507,0.000517838719363566,0.0184352536945564,0.359955741828771
12,96,4,-0.0729902778543762,0.00588610751993462,-0.00168923039935867,0.159372507836056
1,97,4,0.269512492010524,-0.0235169687466239,0.351177580921313,-0.396721051683111
2,97,4,-0.121163875779194,0.00353211395586277,-0.0194246554147552,0.412643311494948
3,97,4,0.988676669434791,-0.125564946369335,-0.208271755224814,-1.12307177812403
4,97,4,0.0164556688581121,-0.00377798882587654,-0.0128824398291626,0.0564933710483695
5,97,4,0.176324998595171,-0.0147084663539655,-0.230428882178813,-0.0433963140838669
6,97,4,0.0908500359848087,-0.0117916030018453,0.141899686228851,-0.155302143111298
7,97,4,-0.222707100501397,0.0157755479321578,0.189422622760292,0.316273342441004
8,97,4,0.0242178588005291,-0.00692293974706613,-0.131562503606696,0.201178625093911
9,97,4,-0.0684040509294294,0.00229159801207866,-0.017868531965033,0.326363815771287
10,97,4,-0.26163524885398,0.0199215325827663,0.213156283811031,0.345453854864555
11,97,4,-0.253165642550539,0.0262679975922277,0.15285508682527,0.196706755000543
12,97,4,0.338656368925776,-0.0373067173225386,-0.0344429496773406,-0.372611157857131
1,98,4,0.615701648685945,-0.0217299257727876,-1.55338415304614,-0.820230085795474
2,98,4,-0.220818007647537,0.000246013054455629,0.0535400306515707,0.672513104379132
3,98,4,0.352948888849244,-0.0257140619518619,-0.696995222089208,-0.216598272742036
4,98,4,-0.123184732623381,0.00978720833866828,-0.0284069962228272,0.210333006506312
5,98,4,0.0407763403209876,-0.00717578268719518,-0.174701795603904,0.140161638270439
6,98,4,-0.350503056137998,0.0247060266173094,0.125862070728471,0.57106244681273
7,98,4,-0.00160790993102486,-0.00166104117566465,-0.130262560436752,0.182023021565471
8,98,4,-0.143885658553351,0.00942121776911418,0.0437205644240482,0.30874842715084
9,98,4,0.0975815522523035,-0.0119421604871311,0.0965538443182045,-0.269178131083869
10,98,4,-0.0586969188046499,0.00585706187374187,-0.00139041289542118,0.0370424904203948
11,98,4,-0.258522383496587,0.0273336773562627,0.141023202037223,0.162938535386523
12,98,4,-0.354691047212406,0.028785279748392,0.233357047585671,0.275298410796561
1,99,4,-0.149790320270321,-0.00154274786729728,-0.0307946621786004,0.454528545983361
2,99,4,-0.343426517792663,0.0251439833535865,0.203020576603632,0.368255864580121
3,99,4,0.0989527951172355,-0.0177376516806125,-0.283087315624273,0.29569924745279
4,99,4,0.0260772860995011,0.000197336522008321,0.411321678317692,-0.370067653474473
5,99,4,0.404397001094923,-0.024315074361113,-0.900460770302249,-0.390414440178125
6,99,4,0.522714569932953,-0.0631201081660202,0.148241751379376,-0.491982907704916
7,99,4,-0.0477774608398586,0.00286742569279533,0.0808590579245674,0.0790166023228557
8,99,4,-0.115740972089998,0.0102423526447026,0.0777581570095584,0.107019986711652
9,99,4,-0.0203121973530122,-0.00177225147191519,-0.0730222213206409,0.28397516073857
10,99,4,-0.140371360264205,0.0121062896418324,0.1348115943314,0.0735631185143344
11,99,4,0.0693154088250323,-0.00881935271749455,0.210015578642952,-0.239894971058387
12,99,4,0.131768625830804,-0.0127536196982508,0.109550473195861,-0.160069722722536
1,100,4,-0.172370949443992,0.00613786839111292,-0.00550437644850678,0.376073478281548
2,100,4,0.392408859058496,-0.032761910756155,-1.01629569476569,-0.0828306571232619
3,100,4,0.331847415705255,-0.045968750591895,-0.670079007105188,0.205527087819773
4,100,4,0.108721322118905,-0.0149972103495401,-0.00917817835394892,0.0973847106463164
5,100,4,0.0131928923260292,-0.00603097064651794,-0.236649962267777,0.312447652176777
6,100,4,-0.41050657443037,0.0314306800417831,-0.162930138627728,0.824695434078257
7,100,4,-0.189045423249246,0.0173482240910302,0.115518938615628,0.0607957885932072
