ID,SIM,interval,ETA1,ETA2,ETA3,ETA4
1,0,3,0.0934546848088532,-0.00765139695614784,-0.434922303433702,0.0925886096624301
2,0,3,-0.151802600460901,0.00510817468533606,-0.0828252689189707,0.339683689131099
3,0,3,-0.0997840322095283,0.00399598693633115,-0.0887523049633921,0.280792182391326
4,0,3,-0.0280174449319782,0.00256935183786132,0.0914539893553492,-0.118313456568119
5,0,3,0.0180330477681836,-0.00278586410258789,-0.107903578934835,0.137617674452928
6,0,3,0.0440106923868685,-0.00192655851366303,-0.0649422905465445,0.0399696063807238
7,0,3,0.0784429571024303,-0.00750633884014753,-0.00252106204319737,-0.00885960976436962
8,0,3,-0.0562324455253012,0.00433373520998391,-0.0317293926936146,0.140406417370845
9,0,3,-0.0838416784187493,0.00255800302450435,0.410662009172782,-0.341996678333405
10,0,3,-0.0913696684655598,0.00822881603226131,0.011939984054232,0.109981266091014
11,0,3,-0.0442091065776899,0.00671771938254599,0.202779637343421,-0.131465073106577
12,0,3,-0.114865825171172,0.012630076823603,0.00849077400187076,0.138089418679537
1,1,3,-0.407281492156648,0.0283178904142241,0.275544939251685,0.497289628555147
2,1,3,-0.48707380815001,0.035904907625458,0.354412156890397,0.492281549151958
3,1,3,0.153993817457416,-0.0227318467664488,-0.410580052796374,0.265455386652751
4,1,3,-0.127711135640069,0.0104115491706897,0.132347616042234,0.0842210858695692
5,1,3,-0.263475896718113,0.0235319233643035,0.150286120692333,0.254590891344521
6,1,3,0.00588163680784679,-0.0039191620071945,0.366934159776143,-0.340202045981743
7,1,3,0.287144955078845,-0.0216217654589493,-0.57187124537245,-0.187693121878473
8,1,3,-0.0243920408371394,0.00144066931055379,-0.0399140669650444,0.104716855705594
9,1,3,-0.213339258343601,0.0192061629758529,0.120371621633313,0.260361256601295
10,1,3,-0.170131891587931,0.0113197439292869,0.0551214173075179,0.294235357079595
11,1,3,0.279730369105452,-0.0248739471528771,-0.46978982470811,-0.164091360021016
12,1,3,0.400204254070492,-0.0472142746321319,0.102822783283402,-0.577424493888711
1,2,3,0.108397126100358,-0.00782628958088134,-0.309483979138305,-0.0218183835941874
2,2,3,0.220085452349583,-0.0238512317324977,-0.704369253277287,0.0700349466495233
3,2,3,0.307777477712211,-0.0319122361571436,0.0185762844890968,-0.398817669568066
4,2,3,0.284459655099824,-0.0223216147295832,-0.713767790941313,-0.0984317718110693
5,2,3,0.0440006419408499,-0.006146220873534,-0.174772417633058,0.0927647552251762
6,2,3,-0.098623681320838,0.00659851948206481,0.209514378936893,-0.0926031785646996
7,2,3,-0.136674830615923,0.00866424494804027,-0.0301556069552242,0.237663093199024
8,2,3,0.128314726922877,-0.0162513159111899,-0.289927595032911,0.196906060139084
9,2,3,-0.552086766263147,0.0297570603617901,-0.110390869696679,0.767638252249315
10,2,3,0.303816284298788,-0.0356796362724947,0.121365492250513,-0.556959397202216
11,2,3,-0.128301818418173,0.00934754265945734,0.104640774267211,0.0200088270821323
12,2,3,-0.284510462665305,0.0238894482004276,0.135810883017514,0.204386242132374
1,3,3,-0.315129130475757,0.0199286010365389,0.18379136231922,0.47395061625641
2,3,3,-0.0644678904028605,0.00720185719258656,0.0526331146169166,0.0543076905742862
3,3,3,0.195711661721816,-0.016816278145123,-0.287429305157232,-0.132434201259392
4,3,3,-0.190642303577923,0.0114701260961841,0.0067916892187334,0.253324173977428
5,3,3,0.232954940824543,-0.0251979868031687,0.168715196852596,-0.372699374379571
6,3,3,-0.339678113604147,0.0278510118354362,0.157512193270331,0.225207238006169
7,3,3,0.0961964580609401,-0.00982744354978317,-0.338492944670384,0.0881383206652584
8,3,3,0.0858900290126672,-0.0134647818725636,-0.240448007826214,0.213697550532963
9,3,3,-0.207897272605534,0.0183307213024487,0.100181984728997,0.176279036716663
10,3,3,0.134537191379664,-0.0116217178365956,-0.184692856820174,-0.0984875357733279
11,3,3,-0.0922434469613844,0.00756686098438073,0.24110742321912,-0.103755556202415
12,3,3,-0.46048977121686,0.0353622869848606,0.20141776138784,0.374589997844692
1,4,3,0.140980599444576,-0.0132812418383348,0.08961515642707,-0.330816126152839
2,4,3,0.538310611132731,-0.0633806151103465,0.123798875021648,-0.613135577604689
3,4,3,-0.421408729797806,0.032629289649651,0.259724456497052,0.387119349842139
4,4,3,0.0605622641014325,-0.00615580756817971,-0.212963816437434,0.0569734603336289
5,4,3,-0.113210647206824,0.00907884915841537,0.164768756978482,-0.00458111548210208
6,4,3,0.189106647686395,-0.0252890446956977,0.459966186122283,-0.544035086814705
7,4,3,0.0441989687704967,-0.00698180650901525,-0.207651284224211,0.188221456783405
8,4,3,0.0120782250099296,-0.00219522876795609,0.0756593592179788,-0.128942807138537
9,4,3,0.10509270754778,-0.00979937463346816,-0.00711342756910035,-0.0104334537084364
10,4,3,-0.0468094502002884,0.00237349009084903,-0.0793327765280376,0.185351723544051
11,4,3,-0.0627822073516976,0.00408955608200858,-0.0432179234815632,0.168510565632328
12,4,3,0.752413379507003,-0.113271904655945,0.257231488468688,-1.07068980307233
1,5,3,0.471610412399272,-0.0040522708756093,-1.48678528153744,-0.366989032450671
2,5,3,-0.444767458048233,0.0310003749773161,0.256725214757553,0.502934545982701
3,5,3,0.0788801883954592,-0.0159840810984425,-0.321856424885324,0.27724095344297
4,5,3,0.249865377701636,-0.0274243812667737,0.113944603000454,-0.38524270871385
5,5,3,-0.420149894409334,0.0325360529209384,0.299345970772255,0.352295934898424
6,5,3,0.415979116290536,-0.0368184522322991,-0.956110821132626,-0.12310787471452
7,5,3,0.213388663989334,-0.0246903260933642,0.304256835962834,-0.441836843167183
8,5,3,0.138951052409297,-0.0131647585282569,-0.269965702723402,-0.00568706250377034
9,5,3,-0.0300627147699903,0.00273997574319536,0.00172122238089975,0.0126002639297962
10,5,3,-0.0302114026586867,0.000738943492522577,-0.130003334012506,0.206441027983071
11,5,3,-0.0442920942568391,0.00130077939095575,-0.0806898747703,0.203954386327714
12,5,3,0.445587806242492,-0.0389491848287234,-1.12194523272412,-0.0584545426661379
1,6,3,0.0255570114643553,-0.00330878668390551,-0.258959493565385,0.283763089264819
2,6,3,-0.0432338978765595,-0.00641758177407252,-0.187438226560706,0.328994921054031
3,6,3,-0.0711972181923894,0.00758885774846103,0.18876484808389,-0.0645343144719059
4,6,3,-0.286298033280998,0.024182843754577,0.17553176289803,0.324820668864046
5,6,3,0.30060639888727,-0.0359274849296298,0.319014596226522,-0.523288434580128
6,6,3,-0.102153223514174,0.00938366091569524,0.0968843364660687,0.0210080433833312
7,6,3,0.161386817834664,-0.0208951146110915,0.421012623111042,-0.479632555975111
8,6,3,0.101960038961412,-0.0118060073201886,0.307027820420933,-0.348914659773209
9,6,3,0.317853276742251,-0.0362777661356334,-0.602818825826543,0.106277356179192
10,6,3,0.184896639282038,-0.0208801721449491,0.257702831793222,-0.404878990415692
11,6,3,-0.175658531339696,0.0150783450808987,0.059155988031355,0.241909410913869
12,6,3,0.0345120559949377,-0.00209254513852766,0.168209167985622,-0.203997258200976
1,7,3,0.218517546878678,-0.0146767117319657,-0.35436562526461,-0.212292852372405
2,7,3,-0.200116593633944,0.0176724271252852,0.220127703010286,0.104747430615086
3,7,3,0.369509974361981,-0.0247443851015652,-1.25613805921037,-0.014332284233204
4,7,3,-1.00918132975379,0.0521586811754376,0.567063062383605,1.13679669624101
5,7,3,-0.17397711021499,0.00758799362492073,0.0665607551555231,0.311572141552833
6,7,3,0.45545109272715,-0.0418947395674652,-1.07922118270668,-0.0565139011898928
7,7,3,0.281390843281828,-0.03621845658227,0.424770965121163,-0.577923896016462
8,7,3,0.359584639145694,-0.038088377009086,-0.0340282081423962,-0.447483856368369
9,7,3,0.469624507038985,-0.0427167812495152,-1.35644721914572,0.05214097805991
10,7,3,-0.191355771233084,0.0158160505419785,0.0460666230475874,0.223369747589166
11,7,3,0.134268053635354,-0.0129967848619526,0.0610678577940301,-0.266499008059414
12,7,3,0.804772579547259,-0.0412614482173379,-1.5041478451093,-0.929829904954438
1,8,3,0.460719342679022,-0.0579837329207727,0.217778127928628,-0.786272475457266
2,8,3,0.145997928194494,-0.011835720918941,-0.351695428578599,-0.0375021028062772
3,8,3,-0.483112360410028,0.0357503965231549,0.282983677432387,0.467051958912289
4,8,3,-0.12265311621278,0.00801472292727854,0.0893580882818746,0.0602151735690516
5,8,3,-0.499520026831911,0.0386266643968975,0.322775741392522,0.398078589318657
6,8,3,0.280318717659748,-0.0269878061256177,-0.53226941622883,-0.044660880329149
7,8,3,-0.344220985043357,0.0269942037839301,0.184796164623917,0.344849983419776
8,8,3,-0.155245940780456,0.0131065035866963,0.0484050934649196,0.158838533509667
9,8,3,0.111890041437803,-0.0128312366304139,0.295526876505577,-0.355474199670473
10,8,3,-0.211267242382022,0.0201514825850376,0.0669571705559151,0.285337322408837
11,8,3,-0.206760319066554,0.0179405388083497,0.0783163213721393,0.201482662790286
12,8,3,0.269244599286481,-0.0322552834484002,0.361184782298174,-0.52403640589592
1,9,3,-0.0468024675901,-0.00239521380672117,-0.205645945353989,0.301494580423414
2,9,3,-0.0898919909681062,0.00202617842856072,-0.127080253817601,0.308637522181275
3,9,3,-0.128010600782699,0.0021143563833619,-0.0120645772150567,0.379658629497653
4,9,3,0.246531036926643,-0.0194251550297032,-0.571896981491161,-0.0858288243355687
5,9,3,0.531767984880162,-0.0670994296602317,0.146047711008476,-0.738371273628775
6,9,3,0.239402957032549,-0.0236178852791818,-0.470451478893953,0.0265765914028022
7,9,3,0.181100974457206,-0.0167780735091268,-0.38216709393374,-0.0583269504162028
8,9,3,-0.392367210901854,0.032207784671216,0.195646918035681,0.316111707647128
9,9,3,-0.847450077209219,0.057675855982173,0.282760350541981,-0.0792202807585771
10,9,3,-0.101649523926272,0.0107715181492467,3.30419788781249e-05,0.13578229423028
11,9,3,0.0255284469504086,-0.00127446267903993,0.000625829641238455,-0.0111365984906123
12,9,3,0.446883974290328,-0.0483772292861683,-0.0368561099140714,-0.434058187707582
1,10,3,-0.351341074209149,0.0201643249473932,0.218455024748881,0.491891328301691
2,10,3,-0.146055881654232,0.00337011792626833,0.00714294190438532,0.403804579487465
3,10,3,-0.133921704365083,-0.00079688057593663,-0.0276944056752652,0.370331922819916
4,10,3,-0.11901658287711,0.00764144321206728,-0.0442525251202784,0.229627130080366
5,10,3,-0.498695073261457,0.0380335403341665,0.197275728132881,0.47360287385181
6,10,3,0.148246956982413,-0.020131793242489,0.413623769021823,-0.516247187708736
7,10,3,0.0362466311905635,-0.00546216044406021,-0.00143824636747968,-0.00792574807440021
8,10,3,0.136563852024584,-0.0115317063740488,-0.165121258581497,-0.0974600503308551
9,10,3,0.189690446467326,-0.0189283617101105,0.0584514259704627,-0.306497354498106
10,10,3,-0.484424785811548,0.0366009791895187,0.303166723381653,0.430909885385674
11,10,3,0.189988552505796,-0.0184949967293354,0.0465434617007136,-0.291692005500572
12,10,3,-0.0917857450468096,0.00753360722722045,-0.0130994166856473,0.16865840771243
1,11,3,-0.391295300654826,0.0268020739035412,0.285097138464092,0.494947739996041
2,11,3,-0.335654307308004,0.0237193253371992,0.225303333494582,0.459103045934108
3,11,3,-0.00377644247816073,-0.00844277387186453,-0.204800378356518,0.31499912017134
4,11,3,-0.491770081846029,0.0394882701163247,0.36176986939076,0.378453656303484
5,11,3,-0.165042059197731,0.0126333794236168,0.0144820865482309,0.22002719367792
6,11,3,-0.288018014845531,0.0237966073244472,0.249142059960069,0.34290866876824
7,11,3,0.232238308368446,-0.0247522793545784,0.172778799578795,-0.396612400693085
8,11,3,-0.353953596727234,0.0282669702284947,0.166071361988782,0.291361987751783
9,11,3,0.386559669506598,-0.0502573572500507,0.399513331003749,-0.656780920236569
10,11,3,0.23274710152028,-0.0187925970925693,-0.513764429365708,-0.0940480062688353
11,11,3,0.170076846249258,-0.0165692012174926,-0.000880692136356223,-0.209915064730144
12,11,3,0.0668312182145643,-0.00411017038281278,0.1252735417101,-0.197648929330389
1,12,3,0.136263152133853,-0.00976709627987501,-0.525520999866497,0.0536876517616705
2,12,3,-0.411148907904825,0.0277562075912416,0.322586140474221,0.497030106371799
3,12,3,0.0125520510116867,-0.00292525161487893,-0.162964551165173,0.209443331911804
4,12,3,0.0374752201279508,-0.00305260322724153,0.00416553084315039,-0.0600984823014878
5,12,3,-0.0714917728147896,0.00554874142999181,-0.0333462193608764,0.165522280791625
6,12,3,0.206800025248313,-0.0268529505339988,0.455164668319382,-0.554789760626906
7,12,3,-0.0697400524622447,0.00475889524946359,-0.0474704329222966,0.172308298120829
8,12,3,-0.528089444329482,0.0405083881893975,0.37961308069751,0.369005197019806
9,12,3,0.0449778916184185,-0.00314093982110027,-0.085806180662543,0.0623546337344659
10,12,3,-0.247138695867288,0.0210454749087983,0.0987268686940244,0.257521227392487
11,12,3,0.190925481217501,-0.0165946787157764,-0.360644361356872,-0.0551749026170901
12,12,3,0.0462790554073922,-0.00678820552518022,-0.13505166029922,0.144161094049979
1,13,3,0.332035163163675,-0.0155688025323351,-0.950764961818916,-0.240168631267097
2,13,3,-0.164631795134884,0.00515877032968324,-0.0192307636250412,0.362727890809774
3,13,3,-0.015662331397706,-0.00929612161769577,-0.145342667226911,0.369092448657812
4,13,3,0.276600776747074,-0.0240688896639874,-0.689082912819174,-0.0282851883898213
5,13,3,-0.142767501629598,0.0130753567914816,0.149574968620012,-0.135401940960812
6,13,3,0.591756199989724,-0.0794017787209653,-0.0674440178308473,-0.621899010601376
7,13,3,-0.0524132730710091,0.00308104037529773,-0.063266457605463,0.170790058697834
8,13,3,-0.025172454124882,0.0022611576908106,0.00109391614275091,0.0115793305907059
9,13,3,-0.350539313101563,0.0273474872966223,0.18253023306575,0.319680310936304
10,13,3,0.407115470982164,-0.0571628770318091,0.506160838149347,-0.728110387935494
11,13,3,0.684832602010995,-0.106193888994444,0.278352636523544,-1.11211117871801
12,13,3,-0.197891288660114,0.0167737064376116,0.0640730251637515,0.192871002392327
1,14,3,0.268483305928691,-0.0338040718162067,0.364779665074835,-0.567063759908846
2,14,3,-0.0857592493243011,0.00377837213489728,-0.0999817338516071,0.263661922350466
3,14,3,0.311972458735008,-0.0298406858707835,-0.889079328197835,0.00299324113603204
4,14,3,0.134995126626088,-0.0128768257704861,0.052283784130095,-0.260774343622863
5,14,3,-0.172975587171058,0.0153816064853652,0.148703468209327,0.0999702842736359
6,14,3,-0.0616300152055835,0.00782702769415208,0.130412530948026,-0.153047332099056
7,14,3,-0.252455900512923,0.0191079031647656,0.17656085160664,0.33497965385302
8,14,3,-0.269327768824272,0.0232730532140693,0.155241548787043,0.268876699311145
9,14,3,0.348026591637249,-0.0357010555228844,-0.223198405096794,-0.272952191711347
10,14,3,0.182873687084504,-0.0179566864551023,0.052832867154956,-0.316975141905654
11,14,3,-0.54035170200239,0.0400280786406452,0.214822519082467,0.52185311366511
12,14,3,0.178457730420359,-0.0200126973207802,-0.38529287387896,0.0860311460976571
1,15,3,-0.0533710806764736,0.00081027263767468,-0.159936850412074,0.282329210504173
2,15,3,-0.278767541836801,0.0170450467250805,0.1690811862091,0.450293059171563
3,15,3,-0.10772982031439,0.00660219698289104,-0.0513165614280419,0.235658367456241
4,15,3,-0.684894387184469,0.0460141374071511,0.188165006240649,0.752996707243121
5,15,3,-0.129089629496614,0.0111295351512919,0.135465180908408,0.0454801236620808
6,15,3,0.18952676505183,-0.0200372968479809,0.19470394918786,-0.387779881347004
7,15,3,0.229048452745356,-0.0253096338682406,0.349764344942377,-0.481865582081017
8,15,3,0.152201596346225,-0.0154002459080052,0.166472328245508,-0.300942310664897
9,15,3,-0.13127426442971,0.00775241584655909,0.0652325366826889,0.289733404825345
10,15,3,0.0414095136530171,-0.00619005935872242,-0.205336818544883,0.0881931375386119
11,15,3,0.0922210879629099,-0.00888097409923226,0.0513764687838222,-0.192545337946899
12,15,3,-0.49213577618082,0.0372363017282027,0.224356985458125,0.407037651884462
1,16,3,-0.300881981705992,0.0195020582462621,0.166012702842723,0.454858778834619
2,16,3,0.102351043341852,-0.011448097607151,-0.426575569978804,0.141149996487655
3,16,3,0.242341883951005,-0.0221610268119342,-0.679388280587471,0.0318274208453226
4,16,3,0.326943851241303,-0.0291145731799346,-0.335871919891083,-0.340711024849515
5,16,3,-0.0591079342191667,0.00649945578333154,0.00596674955621866,0.0300984566523531
6,16,3,-0.259709961429971,0.021752613962084,0.20711431289795,0.0956097916763711
7,16,3,0.240866062212784,-0.018996504110192,-0.340803688945455,-0.189659442526874
8,16,3,-0.30361477244819,0.0250418554202395,0.130802892912545,0.273375278641895
9,16,3,-0.378305050211138,0.0309797025598624,0.0266142840637116,0.0563854763042614
10,16,3,-0.115756401185224,0.00882835198684689,0.181696797469779,0.0114041571178385
11,16,3,0.147068595363539,-0.0179308615795117,-0.309063078269739,0.193343419794244
12,16,3,-0.0971927031647243,0.00939523236403651,0.0965563068223195,-0.0276458872305633
1,17,3,0.0711140868265093,-0.00869832324316962,-0.413366338930086,0.197309345070772
2,17,3,-0.177298306821508,0.0051249588611486,0.00821285249098786,0.378998761814206
3,17,3,0.30392354110641,-0.0284282901696391,-0.842517520218443,0.0366454276276381
4,17,3,-0.0509112947355561,0.0029401580121453,0.354864203892257,-0.228503851604498
5,17,3,-0.172519104678499,0.00627109631932625,0.212521979631832,-0.307210832833711
6,17,3,0.372661217530633,-0.0475364298217014,0.468437155343684,-0.663919689300756
7,17,3,-0.181824282519017,0.0156287354582563,-0.00697170877040925,0.248060952410774
8,17,3,-0.119004920542026,0.00888768967140529,0.0309229498213537,0.112849939777695
9,17,3,0.00239235870116054,-0.00114275001278133,0.0608612945542222,-0.0961940376248382
10,17,3,0.297771093528646,-0.0385907578623664,0.505712071329217,-0.631642618336072
11,17,3,0.200087214947111,-0.0272706965674115,0.458262504835646,-0.547994417760701
12,17,3,-0.184075149781578,0.0158821250354172,0.0614990506901249,0.18028716877567
1,18,3,0.399328573230184,-0.0477220578839587,0.152451674309414,-0.730220960481476
2,18,3,0.120539801757709,-0.0105667241636083,-0.395828115845717,0.0498172691818099
3,18,3,0.275418679329137,-0.02755577381925,-0.0332064716201059,-0.334305493791289
4,18,3,-0.0795944451853805,0.00660595721995021,-0.00276509241818508,0.12182744911378
5,18,3,-0.128506702884154,0.011782178826306,0.13206139508853,-0.0861760138022428
6,18,3,0.193348297787633,-0.0219808585853343,0.311168880220624,-0.432719427824249
7,18,3,-0.112065516622635,0.00907303093641241,0.0223696464535519,0.130880803352012
8,18,3,0.112180499440559,-0.010533039557692,-0.218288225683968,0.00897472858154428
9,18,3,0.256088351541107,-0.0252150369078549,-0.507724939996566,0.0386227904200778
10,18,3,0.340713259778576,-0.0435507765094307,0.480303773208551,-0.653896014721747
11,18,3,0.340851906804866,-0.0348200802483659,-0.078859584217924,-0.393632892041582
12,18,3,-0.533809586770479,0.0413771362925776,0.399899170028059,0.319681943973465
1,19,3,0.122601307698631,-0.00941863975785606,-0.513784974352803,0.138263427851721
2,19,3,0.0124374444490895,-0.00209871307213285,0.428733385955781,-0.344048976712155
3,19,3,-0.0284599819248618,0.0018190655254559,-0.0461813075452068,0.116743418902869
4,19,3,0.0577309978081565,-0.00638231203047169,-0.191554769178108,0.0712406524760245
5,19,3,0.0588234041087555,-0.011220437599744,-0.207866834363799,0.214604072842634
6,19,3,0.274296869599703,-0.0321589821652052,-0.551244908500187,0.0471324524894707
7,19,3,0.197165170027627,-0.0163003097024903,-0.336438704621788,-0.12007223019049
8,19,3,0.319358140570555,-0.0376667889198947,0.240274285804913,-0.499340489227402
9,19,3,-0.49089628850316,0.0371761176825708,0.18129828645645,0.425924800319842
10,19,3,0.391712212147897,-0.0268801156298764,-0.981403242159254,-0.183880698615625
11,19,3,0.195302528533067,-0.0180358812969085,0.144213885277876,-0.320245372447479
12,19,3,0.221635350140932,-0.0204504500741207,-0.190747182382344,-0.166207665791216
1,20,3,0.153626106158066,-0.010723976815366,-0.534128168443473,0.00121620526899749
2,20,3,-0.82949455614769,0.0517437345271306,0.520115327123995,0.807555591591404
3,20,3,-0.604240648559651,0.0450599501289131,0.493526835802895,0.462252090587982
4,20,3,-0.165137462312851,0.0143251707641529,-0.0141245180252982,0.233619208584676
5,20,3,0.465759159112756,-0.0644706131128986,0.432510130833533,-0.727738724689551
6,20,3,-0.407856181837631,0.03212209889578,0.244141047131628,0.335153338960846
7,20,3,-0.106201484299789,0.00709372860424042,0.0458169765625049,0.094304044887981
8,20,3,-0.275365606284514,0.0231457772143774,0.126824786019576,0.236472442188219
9,20,3,-0.0775564744702215,0.00242552651707959,0.0298298004272055,0.314140052631431
10,20,3,0.0433828675552947,0.00354495083532737,0.302616327912236,-0.355077207525922
11,20,3,-0.0531810571507608,0.00325971162746095,-0.0478386245059483,0.162235690825069
12,20,3,0.339465911383519,-0.0396225615214092,0.110493332581813,-0.441276409791889
1,21,3,0.283233752905385,-0.0330449020945924,0.422158612544185,-0.573256768384944
2,21,3,-0.773719103358157,0.0533258313475464,0.446256151987673,0.848408393566399
3,21,3,-0.0764305474997952,-0.00122699690859012,-0.140439588302708,0.323025113834031
4,21,3,0.201160830657176,-0.0207502253549214,0.146856624297098,-0.347660706522009
5,21,3,0.356300550010392,-0.0372944200308732,-0.242197922879671,-0.369086764233929
6,21,3,-0.0778794482191032,0.006077399184318,-0.0275646168266167,0.176932435860535
7,21,3,-0.14551617428556,0.0120967936748049,0.0397922668053107,0.163882344607816
8,21,3,-0.0230466192894993,0.00205959252542544,0.000970011013199637,0.0104221780481625
9,21,3,-0.150931968817933,0.00679442308175577,0.0509043467023313,0.27658081967691
10,21,3,-0.478813182354309,0.036357953901646,0.308438722313113,0.421814473570194
11,21,3,-0.208288521110546,0.0181408020431963,0.172163161760139,0.117043832787411
12,21,3,-0.110060881942096,0.0149165542930257,0.08870668460517,-0.0241712036850879
1,22,3,0.0863073906249398,-0.00687059237870817,-0.197535273241696,-0.0486212185373465
2,22,3,-0.4539585379284,0.0351807309686231,0.290677699594789,0.416600557997557
3,22,3,0.263327004366188,-0.0228552152322453,-0.729498721031388,-0.00118118574698135
4,22,3,-0.487241440191296,0.0369130846776806,0.320651021218735,0.420434825168245
5,22,3,-0.129861522703594,0.00967789907930208,-0.0112216269252108,0.212328456490969
6,22,3,-0.0324428409723787,0.000682092774040688,-0.0627480598982318,0.149970636239271
7,22,3,-0.4631048414017,0.0356713842380221,0.248436969325538,0.444929899171477
8,22,3,-0.378918207249124,0.0305927143397114,0.255833118771584,0.34769177392919
9,22,3,-0.393369886938275,0.030976698439799,0.309792375878683,0.321927377681328
10,22,3,-0.0380059708109752,0.0020010538577435,-0.0732509392280741,0.164439318212819
11,22,3,0.3752234920661,-0.0412019108502173,0.0120038522605139,-0.503548608811882
12,22,3,-0.109393552182603,0.00898188242607156,0.117298220378904,-0.105668652193969
1,23,3,0.326646792260215,-0.0157373438667556,-1.17428044691578,-0.229244542460287
2,23,3,-0.185840761479644,0.00962167729769771,0.0376500975385045,0.392458112430167
3,23,3,-0.0891127603589609,0.00225614053911954,-0.104295173463714,0.289935766739492
4,23,3,0.209852068912517,-0.0230349902664241,0.236755040650348,-0.406559368019393
5,23,3,0.333076030517772,-0.0314183641598399,-0.773551141886775,-0.0383673654714645
6,23,3,-0.300830403109254,0.0228883630098476,0.232330000377378,0.301716851678742
7,23,3,0.151341758751143,-0.0165219235467059,0.267086123845577,-0.360035079167323
8,23,3,-0.632218873132684,0.0457929982335589,0.419100513382316,0.432969762745562
9,23,3,-0.718905081812467,0.0459265515555299,0.282344726057262,0.773428227602855
10,23,3,0.10731195735178,-0.0105711492291904,0.030001325362801,-0.184351232073769
11,23,3,-0.772048019819779,0.0535347001993083,0.539779617865687,0.304759081577264
12,23,3,-0.10722736373965,0.0125882193360773,0.0940083210931005,-0.0141810009333754
1,24,3,0.0377738814088501,-0.00511194857424979,-0.347968910806075,0.172258523323342
2,24,3,0.266390642336164,-0.0232673890177523,-0.805426786637731,0.0230795922362961
3,24,3,-0.0593405628592904,-0.00623226440856598,-0.0942123205231228,0.379457453724966
4,24,3,-0.0282894886952116,0.0025082092809293,0.00139902561688863,0.0140646495469604
5,24,3,-0.0507182864527393,0.00381557592810274,-0.0241863356724908,0.11789066472472
6,24,3,0.0810779068878987,-0.00811280038447241,-0.00334823116348963,-0.00999553508115116
7,24,3,-0.124252497649183,0.0107322557729653,0.102106983712568,0.103301270291036
8,24,3,-0.337373157748936,0.0272063358881912,0.156403192065998,0.281371242691641
9,24,3,-0.435265688707804,0.0338059086235475,0.223942508641599,0.352682820055158
10,24,3,-0.191444173494289,0.016621060178785,0.144909575991933,0.155105671208424
11,24,3,-0.163733946234898,0.00898220745715798,0.110644722569876,0.331425723825162
12,24,3,0.272843730670331,-0.0273726115086362,-0.0814237111736383,-0.282364717213136
1,25,3,0.162889188537923,-0.010668926251777,-0.35719469119443,-0.0976939606588061
2,25,3,-0.345029200972271,0.0227804633138499,0.247486977325692,0.472665841495704
3,25,3,-0.627461926295845,0.0443602027737355,0.455046090948325,0.512473754449929
4,25,3,0.177025614247812,-0.0199088005062234,0.292698125112059,-0.400989384369229
5,25,3,-0.269729814545823,0.0226812378527656,0.122045222905012,0.23518680782031
6,25,3,0.272088513099097,-0.0296396022705918,0.141930860660161,-0.396355461929307
7,25,3,-0.234074988187437,0.0199521629720951,0.166256530226597,0.186373875303692
8,25,3,-0.0979628977296503,0.00854058209813112,0.0229253829518043,0.103664579082963
9,25,3,-0.171658430238531,0.0140922141278258,0.161967631243421,-0.20547004547996
10,25,3,-0.136344826085383,0.0104631012275068,0.0112462760441738,0.169200478394718
11,25,3,0.286697052967373,-0.0360961549120322,0.322203512117325,-0.53184514727796
12,25,3,-0.0935703640224295,0.00731443579399749,0.204128982043276,-0.348278644143927
1,26,3,-0.137627885477681,0.0103224542176783,-0.0129322695383082,0.213502829398836
2,26,3,0.0310909303098294,-0.00504198340858897,-0.120770947428294,0.041343945904699
3,26,3,-0.423632509780983,0.0312017922189219,0.300208417308787,0.461142210992415
4,26,3,0.0744872748442807,-0.0071162025995104,-0.229191559496064,0.0428379794655389
5,26,3,-0.332807249364267,0.0259783391307059,0.141017374967514,0.321397642663258
6,26,3,0.133765183308905,-0.0126969737628979,-0.0146148466297644,-0.141855422921407
7,26,3,0.288395985041833,-0.02404395101438,-0.241740303951367,-0.281555132575188
8,26,3,0.437567661600581,-0.0545807116483164,0.154515538995271,-0.661481174715757
9,26,3,0.119660496601395,-0.0113116579562262,-0.0102960276162297,-0.132218441778647
10,26,3,0.277768786198461,-0.0247944241872055,-0.245947917852998,-0.265160903144268
11,26,3,-0.193091988103255,0.0170718702728605,0.18924996035197,0.0683753670018092
12,26,3,-0.0165270768961807,-0.00161552198472003,0.176615770808286,-0.153949903976568
1,27,3,0.228220792343016,-0.0107467890122862,-0.771545583182688,-0.0447708523695443
2,27,3,-0.441953643716732,0.0329138664754025,0.274775478368306,0.465604571437326
3,27,3,0.0226746596669941,-0.0161434416528918,-0.189877768422618,0.363740318493378
4,27,3,-0.463963811269078,0.0361903053999217,0.229380406001768,0.456799813093572
5,27,3,-0.0266321206556278,-2.23829076402343e-05,-0.095742625533597,0.186297720455746
6,27,3,-0.205456590348551,0.0188435339479822,0.179750107365136,-0.0229213035002639
7,27,3,-0.549779658439237,0.0414306381840105,0.381025118075691,0.410092150631098
8,27,3,-0.0659427574841468,-0.000450935619946629,-0.0774685463265959,0.236265424169324
9,27,3,-0.218531799752855,0.0176412826170805,0.0666724494857143,0.225457048476914
10,27,3,0.17596369943342,-0.0212627367803564,0.375726695058118,-0.455608265910916
11,27,3,0.100517986032311,-0.00864487826390498,-0.234945296139458,0.0396385806235322
12,27,3,-0.252633891722235,0.0212831862358003,0.10285123954509,0.242455337645553
1,28,3,0.370888548470102,-0.020528278783807,-1.7328524556837,0.10388553312474
2,28,3,0.242750230602433,-0.0183735768522914,-0.734667770208764,-0.0196644321366114
3,28,3,-0.0192859577039274,-0.00786342655645761,-0.177494291807945,0.346057180274995
4,28,3,-0.00302352810513877,0.000925303840124343,-2.45523292312217e-05,0.000833429054225134
5,28,3,0.0966993609145754,-0.00899779724949148,-0.010232416403525,-0.111523885801694
6,28,3,-0.260350045246553,0.0219257306517378,0.113589742478183,0.211635649375367
7,28,3,0.297957067421293,-0.0362609560688299,0.351155856895754,-0.545406703486581
8,28,3,-0.125525860084839,0.0112812629293318,0.125210914701408,0.00370504375835349
9,28,3,0.225196231110473,-0.0210186206964727,-0.174913568134159,-0.178897542251457
10,28,3,0.0332698133026626,-0.00274401672737888,0.0151863905101082,-0.0704792431747011
11,28,3,-0.60799393734949,0.0453894533925271,0.405597276664653,0.410315115076272
12,28,3,-0.622749720137657,0.0438975224678768,0.420917563280134,0.350973685865841
1,29,3,-0.371054578329819,0.0243857047800555,0.253803697277236,0.498702500260701
2,29,3,-0.394299146839052,0.0304301594123666,0.258418996330069,0.39341653398034
3,29,3,-0.383393790950731,0.0268180779888383,0.321035078119789,0.480480951303701
4,29,3,-0.616410878552595,0.0374499204433115,0.178426361020882,0.907085520928471
5,29,3,0.265807444609661,-0.0244858344672232,-0.590860231402336,0.0187340417555219
6,29,3,0.0483913744548647,-0.00535955828776106,0.213334818306622,-0.235554702590559
7,29,3,0.175418073018286,-0.0171038505552716,0.0577570559183211,-0.31976903582044
8,29,3,0.16570844996274,-0.0174515398543169,-0.402457047944853,0.0652296414302732
9,29,3,-0.0132213658151582,-0.00159176451409786,-0.0900543037558072,0.187016277022609
10,29,3,0.0274877645386489,-0.00341777059923926,-0.142886820732863,0.148203064359235
11,29,3,-0.139407241059901,0.0118360504623432,0.0434471686004344,0.142415728273834
12,29,3,0.307416154461769,-0.0337876523287603,0.125718160113778,-0.418437377489064
1,30,3,-0.282427747290421,0.0126196780231917,0.139354593056132,0.46743822643926
2,30,3,-0.546306319888373,0.0377299770968434,0.41236827678611,0.525339198253738
3,30,3,0.265419384559669,-0.0237266746726318,-0.199710093055331,-0.278556711334977
4,30,3,-0.0360553870398742,0.0029904820442451,0.234738970436814,-0.133429207093511
5,30,3,0.271877501389602,-0.0245398574370437,-0.594619268657751,0.0380565779818123
6,30,3,0.388281268887844,-0.0487166632251329,0.367282679529748,-0.617951895743084
7,30,3,0.233414266727092,-0.0255712479418037,0.242724171269154,-0.432765086768264
8,30,3,0.236392152880413,-0.0258731054819605,0.151042317236259,-0.376989558425622
9,30,3,0.224703674522799,-0.0183057829912874,-0.181986420619454,-0.176584298385566
10,30,3,0.131767858144584,-0.0116886339255462,-0.0268932082259688,-0.146569720408368
11,30,3,0.448037684250737,-0.0661255611738713,0.669668049442463,-0.858977691908921
12,30,3,0.259145764836921,-0.0245246667019068,-0.431638252198281,-0.0866931874262993
1,31,3,-0.477235427555455,0.0330584433500821,0.316695822687937,0.547213762398309
2,31,3,0.335307689971731,-0.0266487464342288,-0.525580620463055,-0.343701313761919
3,31,3,-0.172605372845845,0.00291984121144998,0.148254325996763,0.479042945594598
4,31,3,0.18203153340151,-0.0230148551142184,0.438830405172472,-0.504834134057733
5,31,3,-0.204636607630358,0.0173048543481477,0.320950132089299,-0.0840737507112766
6,31,3,-0.191424454304268,0.0163515788253873,0.0647188541222986,0.181333375351646
7,31,3,0.204743713858043,-0.022171815147136,0.224900303260523,-0.390571388841284
8,31,3,0.156897140993786,-0.0183579777682496,0.337999825580993,-0.418064026290518
9,31,3,0.0797091770354239,-0.00750634044830293,0.0992218540466513,-0.28998256823793
10,31,3,-0.37708825105898,0.0293884480320374,0.249413053587339,0.367536597819487
11,31,3,-0.537251544663414,0.0480689599417405,0.374267677103875,0.299090874284834
12,31,3,-0.268605699229648,0.0244163350033959,0.154748190602595,0.244428094819589
1,32,3,-0.183159500085868,0.010770386999627,-0.0473940889324247,0.332468954575644
2,32,3,0.281787083611868,-0.0188116102668015,-0.833158062422917,-0.0831200425973649
3,32,3,0.156697731232128,-0.013945572748451,-0.254082570943459,-0.0839482963004773
4,32,3,-0.357732298613518,0.0267833620581579,0.346148097263793,0.323567872848245
5,32,3,0.18224836797792,-0.0158910167429009,-0.0798663002429773,-0.182547586978491
6,32,3,0.145333771572675,-0.0150155353389693,0.19252824148714,-0.325153600612315
7,32,3,-0.107753330061499,0.0086555521845317,0.357315233245907,-0.175914936779621
8,32,3,-0.135705755956594,0.0115814815349287,0.0426599431364243,0.137976382010385
9,32,3,0.0463759805224428,-0.00597012100037302,-0.000940423233876234,-0.0103977454837581
10,32,3,-0.0338546853643467,0.00716991694477262,-0.0424953423233192,0.116196185837752
11,32,3,-0.0725183297326468,0.00620325225942276,0.261775679468811,-0.14661013294998
12,32,3,0.0343039177623895,-0.00446028249086285,-0.0986880992723931,0.0822029827755183
1,33,3,-0.963144566922649,0.0470286376910347,0.557366021025573,1.26829320420737
2,33,3,-0.683214448512114,0.0530732506234446,0.549123692746468,0.432413717248244
3,33,3,0.259914376743513,-0.0250933338765367,-0.73105352931496,0.0489397396347306
4,33,3,0.207713740299545,-0.0173340876936949,-0.400493609103435,-0.122715528123536
5,33,3,-0.347554411868876,0.0263721915364219,0.259166779587033,0.347486357127225
6,33,3,0.221838552057292,-0.0315494273828433,0.529973481081162,-0.626720130566601
7,33,3,0.0710904504380855,-0.00767269603434399,0.295573437996752,-0.298648450754762
8,33,3,-0.00630743290844923,-0.000827729076118574,-0.0322979156816382,0.0594132790956975
9,33,3,-0.192595264450012,0.016827889717887,0.0529785632199747,0.216406583535356
10,33,3,0.301507992483213,-0.0232640790782391,-0.544596757134488,-0.230568610145978
11,33,3,0.213400116340484,-0.0211932121912869,0.0179504184119334,-0.282444497312541
12,33,3,0.06787391777561,-0.00861642966870391,-0.149821438444296,0.124952427911579
1,34,3,-0.297002411446664,0.0205872596297167,0.158435526761211,0.430123712196127
2,34,3,0.352523791723232,-0.0350914804961077,-0.015612852174562,-0.426386953960678
3,34,3,-0.472980147612473,0.0353056227962562,0.442865050021526,0.455321402242262
4,34,3,-0.128584764935186,0.005564758210281,-0.0556268697690783,0.253390026541597
5,34,3,0.344428193618913,-0.0435123991415123,0.373271086289348,-0.594466617677929
6,34,3,-0.191898892250448,0.0165328176478677,0.0573214312254345,0.204181159168533
7,34,3,-0.392382417661876,0.0283093828102871,0.257899422858659,0.376329389963188
8,34,3,-0.139281398011549,0.0145661969915834,-0.00689757002727378,0.193505416980682
9,34,3,-0.125501590304076,0.00682452959758811,0.0736149674349353,0.307905936515218
10,34,3,0.406533301402252,-0.0432242677849259,-0.011564814385169,-0.581875784631189
11,34,3,-0.0247594134682094,0.0017693117674428,-0.0909706766379433,0.168381605401368
12,34,3,0.136582926684804,-0.0129837297840955,-0.247553763916508,0.0204815690010477
1,35,3,-0.0340165031225565,-0.00448566895039762,-0.201387075543628,0.304637527144372
2,35,3,-0.053260675755019,-0.00336053095279129,-0.175918933515221,0.317895754827575
3,35,3,0.314438558433664,-0.0274913521380036,-0.377406790168681,-0.295951762769047
4,35,3,0.00751683724674936,-0.00392920888677439,0.152506065670683,-0.293573735524881
5,35,3,-0.0287381875240398,0.00122090785639393,0.190467178420683,-0.114904615572615
6,35,3,0.341285362268827,-0.0376966787772385,0.0582186660718615,-0.429278901043108
7,35,3,0.425546642430983,-0.0283328034917615,-1.08591723388238,-0.211613131902954
8,35,3,0.248565024166794,-0.0223681049258823,-0.504725724772733,-0.0625836086970482
9,35,3,0.192447984628501,-0.0227223831946106,-0.412094127367853,0.116700671821182
10,35,3,-0.340607459401491,0.0256854040009821,0.205101446397798,0.363172977343797
11,35,3,-0.944126901173478,0.0533319108392027,0.339714924072379,0.714207755924937
12,35,3,0.232353220249212,-0.0273451027954612,0.332664857128043,-0.476689123918963
1,36,3,0.509253178591295,-0.0785321569008404,0.293597802508021,-0.905747170266434
2,36,3,0.306142244406087,-0.0296173593542653,-0.0457966928807454,-0.404240687661721
3,36,3,-0.119607205485149,0.0103943745708912,0.0905739176852331,0.104450680512116
4,36,3,-0.375791734283419,0.029498655272783,0.232295833882741,0.366055853271338
5,36,3,-0.217689674878087,0.0189997491075414,0.197885472824203,0.0963271537055451
6,36,3,0.0729400038568247,-0.0095342441768924,-0.166361901881902,0.148056327611527
7,36,3,0.225898577312196,-0.0245321459465309,0.294598315642079,-0.461513980550441
8,36,3,0.390196124997537,-0.0490831759155575,0.449727388119171,-0.658241552031866
9,36,3,-0.6815166667694,0.049443122971195,0.154887877273693,0.616906957310852
10,36,3,-0.272990133414176,0.0211752822673679,0.163628396341193,0.319039249307008
11,36,3,0.419086334297638,-0.0509568174362553,0.0854467889305955,-0.621031913093488
12,36,3,-0.226321491041869,0.0111711281785439,0.344162041358555,-0.209350988483594
1,37,3,0.345625103412072,-0.0155168589582921,-1.53524264379283,0.0176319290637193
2,37,3,0.276753213098691,-0.0187803737232735,-0.662941106961028,-0.158689111970124
3,37,3,-0.222510274746143,0.0158184086172489,0.0960581945327347,0.355292198614182
4,37,3,0.343152016596718,-0.0344459225673329,-0.0460855647437503,-0.48788256088484
5,37,3,0.320493674348827,-0.0311036559868184,-0.732774940069607,-0.0377898875605408
6,37,3,-0.0398348946936825,0.00153245637313611,-0.0623815870929746,0.18342379635042
7,37,3,-0.206197194506581,0.0176802994808406,0.0924095547697408,0.21179705418511
8,37,3,-0.339232993823025,0.0271494522310472,0.259482191538163,0.343862379296531
9,37,3,-0.338862178686781,0.0277965936568237,0.155740306703911,0.227918290771604
10,37,3,-0.0613365200531605,0.00559448623776233,0.201854712062569,-0.0762183410094268
11,37,3,0.00141613366424984,-0.00562348295830196,-0.142655882301283,0.237415497551035
12,37,3,0.123658959521791,-0.014426751944062,0.300235812102568,-0.368516556813429
1,38,3,-0.0431246865698873,0.00493580477200281,0.125973404248519,-0.0236751826661541
2,38,3,-0.0146950958574667,-0.00701577694441577,-0.208696819784189,0.314979787798138
3,38,3,-0.158608911266624,0.00870167862468001,-0.0013993206505091,0.29692961612429
4,38,3,-0.107521085351915,0.00934967400262171,0.250751623277979,-0.06317947400965
5,38,3,-0.353075064443894,0.0278624060600957,0.157852122939101,0.331206947102245
6,38,3,0.337937700402477,-0.0346750714156923,-0.101526045958065,-0.35336187429695
7,38,3,0.0561782119477849,-0.00648242649606189,-0.191948214764728,0.0695682930276307
8,38,3,0.153993646559718,-0.010961917995158,-0.114130185356177,-0.130709217768617
9,38,3,-0.654645682982447,0.0454657353625344,0.0443378054947885,0.737863628607919
10,38,3,0.104273315135664,-0.0126104512344239,0.337905882380275,-0.362877840206332
11,38,3,0.365865895032309,-0.0365608348369844,-0.108662206471221,-0.383162151504164
12,38,3,-0.00222227534180308,-0.000696963695374485,0.0611315136381055,-0.0897239246550886
1,39,3,-0.415185207674225,0.0282022743294186,0.277252371735897,0.503566318085196
2,39,3,0.479531492493918,-0.0391888177845746,-0.247432837886436,-0.569641108121437
3,39,3,-0.430136425987949,0.0316254304215054,0.273500884185154,0.440365221580931
4,39,3,0.10183818061652,-0.00986859756878451,-0.221543931748632,0.00106888324774618
5,39,3,-0.123545573915787,0.00850441958634583,-0.0166671849163994,0.21622949820987
6,39,3,0.0952278386931446,-0.0118080671592557,0.318394496261081,-0.362333718648111
7,39,3,-0.412492675687311,0.0327530842353682,0.244131196310514,0.369609333218396
8,39,3,-0.266567903472512,0.0205852345990001,0.190290404278412,0.322715597202605
9,39,3,0.554403195931881,-0.0630851666519363,-0.0116391594846317,-0.500869469887955
10,39,3,-0.331937862785708,0.0254407187830509,0.190167035724508,0.354903826188376
11,39,3,-0.311629038751726,0.02487904844127,0.232986671465647,0.323969226996968
12,39,3,-0.253061289709748,0.0198010411395805,0.0812633870711239,0.278278694887092
1,40,3,-0.181932673812743,0.00722671468964393,0.0345537872636192,0.411766985855441
2,40,3,-0.0273792281710313,0.00066481575856294,-0.0931290686453834,0.175351518827632
3,40,3,0.352196089032127,-0.0273209563351518,-1.03188220430192,-0.0418708900394104
4,40,3,-0.0743569584610877,0.00471969581170738,-0.0599227776275541,0.194675167858911
5,40,3,-0.330026583208188,0.0262685568841216,0.141231072554816,0.303992238611789
6,40,3,0.352089308001012,-0.0420633994832502,0.110222076936898,-0.595122528469268
7,40,3,0.0469740399873287,-0.00588016901022724,-0.000421827318619261,-0.00939928661656267
8,40,3,0.0941455463735558,-0.00944776329320629,-0.258346970817049,0.0612375491325355
9,40,3,-0.184967534266689,0.0163328135828623,0.0791506569421271,0.245547017607968
10,40,3,-0.0659423876142099,0.00513656965410376,-0.0413060830151144,0.160161056160317
11,40,3,0.437939589917092,-0.0547153705506917,0.2496402092604,-0.624596270807928
12,40,3,0.0745536168928758,-0.00922288177475948,-0.162538417099487,0.136960222488232
1,41,3,0.284907724673565,-0.0160384398084553,-0.906780873762435,-0.123665351271489
2,41,3,-0.157841243261284,0.000601168349582562,0.0409731239016167,0.429099128624685
3,41,3,-0.059634101289802,0.00242995895382674,-0.0875790445475564,0.223599637065618
4,41,3,0.215576765372318,-0.022071205835407,0.133149546205781,-0.356475892242965
5,41,3,0.0420385434370442,-0.00443652557658838,0.0719898153504685,-0.167251470368944
6,41,3,0.644656188438699,-0.0913187783266196,0.499167227385818,-0.872288715928037
7,41,3,0.422541976919185,-0.0574574822452963,0.478561638525896,-0.71542116506623
8,41,3,0.320451907961329,-0.0349808376422464,0.337814738182207,-0.574950735966648
9,41,3,-0.00530825747047852,-0.00188652439986026,-0.0953595403713448,0.177291311513126
10,41,3,-0.0794576989071139,0.0069909680247353,0.0304277208569879,0.0802874673408313
11,41,3,-0.0109667299955439,-0.000691666105061897,-0.0818249062542383,0.140996477918421
12,41,3,0.0156405866633936,-0.00294031146144055,-0.000590808119326071,-0.00326011470126945
1,42,3,0.182951185494277,-0.0127610384084098,-0.66635081228351,0.0242138011699597
2,42,3,0.185874240988283,-0.0161514872132808,0.124102265309664,-0.327420165022993
3,42,3,0.108010836396272,-0.0164356750081784,-0.346466740753162,0.27661988985582
4,42,3,0.0379858106438151,-0.002924440774529,0.0140768499899142,-0.0759673004220861
5,42,3,0.153315469010548,-0.0144872264002728,0.0488294252348798,-0.262533140792861
6,42,3,-0.207632729336772,0.0180736979848827,0.120756629046615,0.138853283690606
7,42,3,0.446092881144302,-0.0581427262783524,0.176863993700187,-0.781986156184849
8,42,3,0.20104827236463,-0.0190721081787042,-0.0253794488554164,-0.210283247578267
9,42,3,0.123791103420709,-0.0119575446878287,0.0897982684299352,-0.216614665172807
10,42,3,-0.21783861441535,0.0207241815252445,0.083598661903153,0.301643850100777
11,42,3,0.461787169697383,-0.0619831169070788,0.494773742959985,-0.750045275379545
12,42,3,0.189193536601958,-0.0180013330600499,-0.204317224086549,-0.114228850724661
1,43,3,-0.225836542765518,0.0132745923818143,0.0666166256782948,0.404825165367755
2,43,3,0.377337983835733,-0.0253478923191855,-1.60538902483088,0.121935688969783
3,43,3,0.0989769782732596,-0.0166893087591651,-0.381270697346133,0.214792126792323
4,43,3,-0.0195680931501652,0.0013527410044372,-0.0482572507621939,0.105197930565865
5,43,3,-0.00796214844798033,0.00178133133285218,-0.0603906906359009,0.0906863934954001
6,43,3,-0.183703610875937,0.0142411697399108,0.0983150646096878,0.267089089632653
7,43,3,0.0198015943989766,-0.00242017134732279,0.0467909940342756,-0.0911030693782989
8,43,3,-0.475687369464179,0.0375943193968285,0.385825007139017,0.30915427705797
9,43,3,-0.0131608497605491,0.00126889936944343,0.0697339721103361,-0.109980432467785
10,43,3,0.269372414390771,-0.0304927176787903,0.305053147404926,-0.498519738044723
11,43,3,0.00878395231333558,-0.00191999600166168,-0.000872038180665675,-0.00103106793097149
12,43,3,-0.0468338483216468,0.000593854805119343,-0.0641358044631595,0.230151859315862
1,44,3,0.424181213833535,-0.0208277872749498,-1.784896624294,-0.0764027198221653
2,44,3,-0.320315239025284,0.0267505127916262,0.26894597898166,0.20335862757398
3,44,3,-0.24766497824496,0.0147611625868043,0.157570515597327,0.446646433000145
4,44,3,-0.335327308844565,0.0274025150147276,0.170807220945857,0.304623541363408
5,44,3,0.103989158235872,-0.0175058506455961,-0.247711097464024,0.238871119644384
6,44,3,0.456319404960117,-0.0405527841970093,-0.662614953150281,-0.349613408496905
7,44,3,0.142312133325883,-0.0133826521105016,0.0374633520938007,-0.246239589343064
8,44,3,-0.356495396356315,0.0280525498448756,0.16027659349411,0.333063766584947
9,44,3,-0.456823937026598,0.035442710860307,0.281533908922658,0.351622410618311
10,44,3,-0.103705707825224,0.00877887275283783,0.0148663114148885,0.126803486167329
11,44,3,-0.14417024005694,0.0106843858016532,0.202438411431967,-0.0343103267048085
12,44,3,0.396938993039389,-0.0479650930919896,0.258856305814894,-0.564354861626048
1,45,3,-0.0135401904645546,0.000567000097816826,-0.0602882407188527,0.111181227959299
2,45,3,0.124269299705028,-0.0125741444388927,-0.47240222784746,0.124412766260849
3,45,3,-0.0604164423772828,-0.00556688295254508,-0.0919045492323086,0.378496007124267
4,45,3,0.189177337529691,-0.0205565138373487,0.229936773700638,-0.375946354306473
5,45,3,-0.241494977436975,0.0215004172304637,0.126174973584552,0.284357249394629
6,45,3,-0.0961357633902192,0.00779795224485738,0.0466946218448964,0.0706530808337976
7,45,3,0.0604069429664139,-0.00542219883942039,0.0189592260172164,-0.113425799806884
8,45,3,-0.106861993698859,0.0113353163580743,0.00559725209805583,0.132941623553551
9,45,3,-0.33320158848454,0.0271951126393855,0.179705664321048,0.18033886725382
10,45,3,0.0498070406501981,-0.00513784346530596,0.0575288682317268,-0.160578112971515
11,45,3,-0.11798705228783,0.000770093187504282,0.0279955864751961,0.304736341671289
12,45,3,0.120747646541693,-0.0112787209754149,-0.0258255954060761,-0.114320994627322
1,46,3,-0.21952653896634,0.0103851322056965,0.0798500820110192,0.431530456382829
2,46,3,-0.653466684746311,0.0500465569963694,0.577367156417491,0.385642344469366
3,46,3,-0.0796809155922907,0.0047147238201868,-0.0594235665943674,0.208422765112873
4,46,3,-0.405932507556134,0.031153536988739,0.253551464731495,0.366356730682735
5,46,3,0.287422777947443,-0.0331992001740393,0.261576005493808,-0.480252933356027
6,46,3,-0.308202624877046,0.0276353117948901,0.200772325501939,0.29071909003435
7,46,3,0.225644556302474,-0.0184248548285164,-0.523796570937289,-0.0705203409946578
8,46,3,0.0916951983502469,-0.00852299945108162,-0.00358293260673478,-0.00940062353910316
9,46,3,0.135779653494607,-0.0148283073669971,-0.309067036950811,0.0740494739911582
10,46,3,0.102735718404082,-0.00913841213154559,-0.0183882650173793,-0.120598839480908
11,46,3,0.0970585667657575,-0.0108169403107418,-0.269692823014621,0.182941746471012
12,46,3,0.0537868999022253,-0.0101664961657832,-0.156562299024362,0.170016168106096
1,47,3,0.0796773114685069,-0.00617366001517588,-0.23429407014012,-0.00826916062063132
2,47,3,-0.13105781082569,0.010603983778857,0.0754280190381646,0.141560326445625
3,47,3,0.111853124409596,-0.0201543626297634,-0.35367555462873,0.284560815448527
4,47,3,0.26495853708912,-0.0299121838995527,0.202612979342414,-0.448227562434487
5,47,3,0.0122451052404743,-0.00256790097814855,-0.00040701758167892,-0.00273429038489294
6,47,3,0.311515969353783,-0.0411192843546963,0.503801344346589,-0.653250572949342
7,47,3,-0.107669440903614,0.00920584794934759,0.00964181207503534,0.137083260359978
8,47,3,-0.411101839835184,0.0303929153783974,0.271332311222623,0.357823341803618
9,47,3,-0.0786682418324084,0.00225285742546152,-0.0538985471874215,0.271213839941575
10,47,3,0.0527282482046678,-0.00261364011484424,-0.00310479796777626,-0.0692415557386742
11,47,3,-0.124012558199543,0.00491908447364987,0.0183702277166388,0.284678313210891
12,47,3,0.0976911152351755,-0.0109962450752603,-0.250441023269502,0.115318298910245
1,48,3,0.246306841932799,-0.0150139449494791,-0.824379065983744,-0.0453670722915004
2,48,3,0.112484282253055,-0.00978599569474698,-0.442057116854736,0.172798639492562
3,48,3,0.0825718307057356,-0.0202555447311883,-0.276926759521286,0.328937194851737
4,48,3,0.176292749887369,-0.0195440300520562,0.266120137785653,-0.384576824265381
5,48,3,0.365318061963901,-0.0427071117484497,0.248172586475151,-0.543528302121621
6,48,3,-0.183066130361389,0.0147434213090257,0.0410641534002532,0.210351385671519
7,48,3,0.167587019836756,-0.0146646700289801,-0.439456770912893,0.00804366556522661
8,48,3,0.233171003354487,-0.023635240904338,0.0256042967648122,-0.316984562727826
9,48,3,0.452511506943082,-0.0382722940131547,-1.23854680146813,-0.00379499055735094
10,48,3,-0.152417231754597,0.0122266062558052,0.0288673872576669,0.184679143005304
11,48,3,0.299362163745554,-0.0278583932556773,-0.237964235946529,-0.244050960012808
12,48,3,-0.399489786659337,0.0325823008261323,0.326244989177869,0.301623174870182
1,49,3,-0.368211721156714,0.0241302819816818,0.216964632031801,0.489561362412196
2,49,3,-0.274196519385598,0.0184095145861268,0.139046898731327,0.408921678170824
3,49,3,0.0220278768768377,-0.00578869432003483,-0.202051677814205,0.253104306641622
4,49,3,-0.0764984818333039,0.00630780905032371,-0.0266482149163143,0.153188487470556
5,49,3,-0.163138633667142,0.0079774283839054,0.0818393346825456,0.315004406902661
6,49,3,0.456424648648883,-0.0403744719464322,-1.23153820674765,-0.0115446956303498
7,49,3,0.00988661631473286,-0.00467103674699575,-0.169501360285333,0.22367424499075
8,49,3,0.214271638709596,-0.0206140268547903,-0.508105227956861,0.0547182513815837
9,49,3,-0.389857914881902,0.0312718454614212,0.313557374307004,0.318695650018141
10,49,3,-0.416114676108224,0.0321711779668059,0.259113560893342,0.385150389441643
11,49,3,-0.140813475175798,0.0111635441105421,0.0179811090327832,0.165790000422613
12,49,3,0.0913066113560451,-0.0087162222799116,0.0827055748806065,-0.179038216791056
1,50,3,-0.50087533477317,0.0343367370052333,0.371334498855483,0.540638440840393
2,50,3,0.177122792540878,-0.0153834497870136,-0.577427430066852,0.0659428564418291
3,50,3,0.0979788305332025,-0.00861889514612773,-0.212564325076814,-0.00621756249528726
4,50,3,-0.277293673852426,0.0226548170781454,0.263254489829973,0.147581531370341
5,50,3,-0.303457424185957,0.0246576990738349,0.262617003608705,0.115118931259006
6,50,3,0.224244787383021,-0.0305387712655927,0.486819325746724,-0.592541978085455
7,50,3,0.285420429897672,-0.0258113929219456,-0.173515482192988,-0.325409837966621
8,50,3,0.345555007653753,-0.0334557195074947,-0.147481122966487,-0.341515042602816
9,50,3,0.372413066272303,-0.0382614552589795,0.242772850903267,-0.554341385117711
10,50,3,-0.286379239101589,0.0229690594869474,0.176590117328712,0.316730767357044
11,50,3,0.0633505473823177,-0.00623086952079432,0.0505236686069437,-0.162834290783956
12,50,3,0.439399615605762,-0.0458332722584568,-0.0834598189645845,-0.403786885822954
1,51,3,-0.443506575485254,0.0316684480176071,0.302887744024884,0.50542907536201
2,51,3,-0.00949530782047632,-0.00836793752748842,-0.201653367990974,0.335450601684942
3,51,3,-0.299185496675279,0.0182142657164485,0.175384134712643,0.414071418552968
4,51,3,-0.436524395588527,0.0334560820120222,0.290024430961723,0.392220342535403
5,51,3,-0.0382271272210343,0.00200415295538013,-0.0670648232934765,0.171261788348402
6,51,3,0.254634389917406,-0.0239619719657861,-0.409928283186859,-0.0919811141825112
7,51,3,-0.165689173933872,0.0134965396090359,0.028378953639998,0.204547717070437
8,51,3,0.391813813540942,-0.0304503112514819,-0.817300825417012,-0.209387088870953
9,51,3,0.122770715305571,-0.011876919084717,0.045158453223571,-0.22563342105611
10,51,3,0.0102739305702501,-0.00224798809201146,-0.00155842413088195,-0.000778030317181277
11,51,3,0.418859744237286,-0.0336832276013167,-1.07553615894948,-0.125712566371235
12,51,3,0.446417771491943,-0.0609504291527436,0.562223907028987,-0.782036686554888
1,52,3,0.0606856500823664,-0.00776165354591512,-0.405470717695293,0.187543027129437
2,52,3,-0.085294763913092,0.00448226354364681,-0.0830746073368267,0.240995651363012
3,52,3,-0.837059141656116,0.0607758503825205,0.199813539955806,1.01905193286536
4,52,3,0.116791442240595,-0.0106594718284911,0.00211351132256296,-0.162194535245578
5,52,3,-0.138778458827126,0.0111159563681358,0.0184334436241217,0.164300488981707
6,52,3,-0.106319878396711,0.0132354640934604,0.090050470941191,-0.0160153409701374
7,52,3,-0.31040226111066,0.025123425529015,0.175416925464665,0.270889477008005
8,52,3,0.232774118636282,-0.0209808791684828,-0.334757599626946,-0.137685432117303
9,52,3,-0.204626470498459,0.0177136759045936,0.0778145126241406,0.185347792225818
10,52,3,0.0074983744483281,-0.000423992813495272,-0.123583880672748,0.141624080070373
11,52,3,-0.133002201921288,0.0117843978721069,0.135961265141316,0.0562083096827177
12,52,3,-0.113955572114394,0.00859665049027396,0.0895261152145356,0.0247280923502871
1,53,3,0.237144259525661,-0.0177700821567142,-0.225976211285693,-0.312569461196734
2,53,3,-0.096854140465475,0.00705141599014409,0.0305116563528031,0.108427113828721
3,53,3,0.223798399884768,-0.0181088938833616,-0.456178884270231,-0.0964800814109783
4,53,3,0.364697518363251,-0.0424418504042049,0.0513520794803647,-0.617805591240688
5,53,3,-0.138750107266982,0.0112603250955711,0.0158751054462293,0.175356940004829
6,53,3,0.365511949434362,-0.0336431065214563,-0.77015455583829,-0.0505465718495976
7,53,3,0.2513973242767,-0.0214636086028259,0.230318108525503,-0.487203866731738
8,53,3,0.0683706869676438,-0.00726941278198507,-0.00237397137645635,-0.00936722549066659
9,53,3,0.138774015868505,-0.0156180556953716,-0.314641621214066,0.0922349624337097
10,53,3,0.0625320422004347,-0.00510094010618552,-0.0142004539791937,-0.0705922569818072
11,53,3,-0.348809841576417,0.0272882988599432,0.162113302067,0.338712939629633
12,53,3,0.273119399926736,-0.0263728677820603,-0.0519944662668225,-0.243939464535831
1,54,3,0.263691123069735,-0.0206481588449199,-0.126252312513766,-0.347168635787609
2,54,3,0.429129867962555,-0.030478439504892,-1.77094840744129,0.151950298763834
3,54,3,-0.0883865892155088,0.00924838218947809,0.26216928797398,-0.104048737762111
4,54,3,0.259713864168091,-0.0314991984370274,0.381535019366042,-0.529681186449146
5,54,3,0.0244147741290657,-0.00211420790035339,-0.000694581764997754,-0.0068548693823347
6,54,3,0.0628289085732551,-0.00698109051924528,0.113777140613979,-0.308060583604515
7,54,3,0.200628805734403,-0.0194806773833387,0.0128905061709855,-0.281188752062144
8,54,3,-0.172445048806607,0.0143542216961922,0.0303046436037737,0.211887255225882
9,54,3,-0.00384756360810661,-0.00647381645832671,-0.121432288829415,0.255856821204245
10,54,3,-0.063352693361846,0.00571172419336603,0.220352476558842,-0.0888213280198644
11,54,3,-0.253513111153283,0.0213403455691502,0.111376847947009,0.226183194538214
12,54,3,0.0633717282096765,-0.0082555671606704,0.323343795752338,-0.348540486897642
1,55,3,-0.0949821208863863,0.00365708496325608,-0.128037548636286,0.302432391839019
2,55,3,0.133446917785671,-0.0209620530068694,-0.490368711088712,0.188052113203531
3,55,3,-0.165278710770468,0.00269805810232672,0.0143962954967352,0.379722245734404
4,55,3,-0.297828701847791,0.0234075732061207,0.107745780011819,0.310043218252875
5,55,3,-0.0544806388555862,-0.000691410357158304,-0.0745855898939772,0.211536446499333
6,55,3,-0.0442688301766376,0.000207057230022456,-0.0546826586745892,0.17787855186517
7,55,3,0.2549179556219,-0.0219668026313802,0.0442282176845293,-0.354933752608413
8,55,3,-0.360784575967875,0.0273960673350493,0.204145789118737,0.341724607378755
9,55,3,0.103467734561627,-0.00989162808622294,-0.00959898199886074,-0.11557896700277
10,55,3,0.35663930813138,-0.0472078606960009,0.521494418262743,-0.693451224678118
11,55,3,0.0908882039612257,-0.0140455969765824,-0.259038646782982,0.201472379857676
12,55,3,0.148619506057352,-0.0141749196143421,0.0482624014294761,-0.253302779182781
1,56,3,-0.562185860253059,0.0390118420918944,0.450448649097171,0.533379953705512
2,56,3,0.376253500575666,-0.0419993249996814,0.140786159210527,-0.629950758497044
3,56,3,-0.666620636037851,0.0458267444856618,0.409618119257755,0.571194235586629
4,56,3,0.038230265968282,-0.00487869399144022,-0.121139218009638,0.0670718966186909
5,56,3,0.147296701344033,-0.0150840441353327,0.181484245054034,-0.304115955811104
6,56,3,-0.328150319315199,0.0274685115810959,0.170907229841476,0.311405721206071
7,56,3,0.377701381490451,-0.0461050469277448,0.0910948721285479,-0.688865923794566
8,56,3,-0.975198664992059,0.0611726477683992,0.554586034089436,0.752217975229244
9,56,3,-0.113057471343599,0.0103128594543613,0.0620199817900018,0.0999351456380207
10,56,3,0.0765808486569116,-0.00670742812326689,0.0674820845389084,-0.202086574544689
11,56,3,0.356174061446861,-0.0386298234704423,-0.000694266262322993,-0.477605115465912
12,56,3,-0.186294604152729,0.0159555413149722,0.0627341628015886,0.177757797523185
1,57,3,-0.577580557044009,0.038648120284196,0.410049451091306,0.571501980571302
2,57,3,0.395548750371659,-0.0383571538954368,-0.1945406922181,-0.50435980213228
3,57,3,0.0172042182322408,-0.00281157945599743,-0.173557350699275,0.206114317743289
4,57,3,-0.439029895560968,0.0335615174901365,0.280679151844998,0.401121902117116
5,57,3,0.357695902439748,-0.0287999016789727,-0.646286143055569,-0.212689232581075
6,57,3,-0.149895371418585,0.0108394545342594,0.0280424461242365,0.130595649058996
7,57,3,0.040424472228786,-0.000527563562572968,-0.0846119297459503,0.0457844442524853
8,57,3,-0.0740844901618376,0.00326780827451748,-0.07030998639716,0.231268992085146
9,57,3,0.218998066951135,-0.0236991812619217,0.179693673242553,-0.367904473193904
10,57,3,-0.0326927308987467,0.00669033314185518,-0.0388484256808608,0.108522924335716
11,57,3,0.409090720304643,-0.0507684849878173,0.151280947102967,-0.580764610366558
12,57,3,0.069759646973868,-0.00638369878098035,0.00347597063223606,-0.0955034330427164
1,58,3,0.0167196663668798,-0.00564412900300431,-0.24029836066605,0.299075015267887
2,58,3,0.142604264442178,-0.0131152954344876,-0.504362226713975,0.0973411581237915
3,58,3,0.139361619170664,-0.0157775371644484,-0.457643029926674,0.145371310093675
4,58,3,0.0560925741940239,-0.00544243292082089,0.326443143265124,-0.352635680401522
5,58,3,-0.177928368618086,0.0140065106747553,0.00856612141358907,0.211606116787196
6,58,3,0.130770430512011,-0.0142702647152407,-0.293685913964465,0.0738152980992834
7,58,3,0.115600610071604,-0.0109937617465453,-0.352099400966084,0.0690054971420332
8,58,3,0.445355627874841,-0.0474534819667683,-0.00492071145848682,-0.51945717756748
9,58,3,-0.222046251320756,0.0191480330686272,0.0988010150418109,0.184577162866366
10,58,3,0.337624506423892,-0.0265178764796323,-0.701074360760667,-0.229427449218667
11,58,3,-0.339304061434545,0.0276981967501535,0.175068758173725,0.24828941935777
12,58,3,-0.0904966864635634,0.00522784257213593,-0.0372668094915652,0.222222385721138
1,59,3,-0.481064744418473,0.0330069345236039,0.39604245035366,0.50718105026275
2,59,3,-0.102942325240699,0.00319228069106219,-0.111535863686646,0.306579381736065
3,59,3,0.0829390190253895,-0.0147911857918463,-0.314741371337724,0.278330211884912
4,59,3,-0.0808266597565904,0.00695562905760022,0.185889101628826,-0.0360029881486765
5,59,3,-0.176234590053558,0.0164852336077525,0.224793476750056,0.00999693447780455
6,59,3,0.378804314694928,-0.0463807158453962,0.31549314205066,-0.580207381383185
7,59,3,-0.0563287421168273,0.00604552637816494,-0.0129665644757164,0.0966111921551088
8,59,3,-0.255038055341387,0.0231192521236254,0.141557566374954,0.246102490243371
9,59,3,0.280872744169016,-0.0299743054501569,0.0909388391888313,-0.377948084472333
10,59,3,0.0116879950982423,-0.0023028966962887,0.00103683729492319,-0.00477439333265602
11,59,3,-0.0957653020580319,0.00610161122152736,-0.0409343020737509,0.212906934592627
12,59,3,-0.0889333195428117,0.00452703394008217,-0.0408613541596347,0.230654476920245
1,60,3,-0.157072526846957,0.0110679259002669,-0.0165884221708618,0.230343729652636
2,60,3,-0.168234590762464,0.00715323927028578,-0.00408446376716435,0.315778852556373
3,60,3,0.017420132020901,-0.00525341571332327,0.182152209015359,-0.178753007917437
4,60,3,0.134162095050622,-0.0178297598061941,0.266236116698085,-0.615774964994916
5,60,3,0.00156020520059687,-0.000747131751963634,0.230413679171675,-0.193453892588758
6,60,3,0.261478943786874,-0.0270458972140518,-0.532075249055603,0.0453485390736742
7,60,3,-0.112902098075539,0.0144113511231509,-0.072626028897966,0.233246162492724
8,60,3,-0.00164248123174756,-0.000178312235637647,0.0452303824543217,-0.0648259762906755
9,60,3,0.510047028736553,-0.0645626736243749,0.144765543317843,-0.706722266082302
10,60,3,0.379542199746107,-0.0333767298598435,-0.483109167197569,-0.397646233481419
11,60,3,-0.441668431544735,0.0352155647356295,0.41095024287898,0.284521424909297
12,60,3,0.141011823515054,-0.0186763226136145,0.418326155446392,-0.483384246348371
1,61,3,0.167865522150831,-0.0113009361564156,-0.400032085328527,-0.098265437398355
2,61,3,0.193785875212994,-0.0191535496348264,-0.632888317152355,0.0953459923016808
3,61,3,0.120336057766106,-0.0124865104018496,-0.383189073747639,0.0891523162709719
4,61,3,-0.514646674073982,0.0391700791833025,0.387593306580115,0.373966422919316
5,61,3,0.308502195051811,-0.0325297100409752,0.0512154543682383,-0.496106282801919
6,61,3,0.277591137094876,-0.02831763003331,-0.061313042846585,-0.334841349579363
7,61,3,-0.0628012960473876,0.00684841206583311,-0.00804680688451772,0.0990433493418954
8,61,3,-0.218938442351073,0.0172405164029621,0.135469088620854,0.32023223613668
9,61,3,-0.0925584557996618,0.00757483971096334,-0.0142072905502044,0.172202157345179
10,61,3,0.23175934224916,-0.0307794636247813,0.495666026222136,-0.585395952159261
11,61,3,-0.139547035476622,0.0143633329563635,-0.00619801241566558,0.193319193522498
12,61,3,0.0398572426442743,-0.00499752214236275,-0.106458341218004,0.086369430653145
1,62,3,0.0524007200517706,-0.00460106852175782,0.134923982066852,-0.165784667800788
2,62,3,-0.434332065727826,0.0322060721881468,0.263330690478394,0.45459422714083
3,62,3,-0.42028681330916,0.0309075285857526,0.256911859315462,0.433155990127778
4,62,3,0.267007623000264,-0.0232997496643575,-0.219886021466225,-0.26675520630889
5,62,3,-0.130698861160127,0.00966920205867917,-0.0124995778913432,0.215514641003698
6,62,3,-0.164655956749781,0.0110897473066446,0.0910466796841231,0.289836953922049
7,62,3,-0.107829179997811,0.00661011617556422,-0.0558363017096455,0.229240587145557
8,62,3,0.347454592402409,-0.0339694547530017,-0.136129826962438,-0.351058787285867
9,62,3,0.190811249274723,-0.0192566516360384,0.0272088139352292,-0.261021237025849
10,62,3,0.194965741011604,-0.0165832458478061,-0.336517092480746,-0.11548875957465
11,62,3,-0.47453781781094,0.0365680726443292,0.228504885552262,0.414374842501147
12,62,3,0.204397400745352,-0.0204367669739451,0.0251118454470768,-0.268830738857111
1,63,3,-0.0562650667980239,0.00176672937827808,-0.134548352733054,0.257281306745215
2,63,3,-0.202871027297185,0.0120902941402818,0.0571414277320098,0.389456659307411
3,63,3,0.522782634479378,-0.0551165066718375,-1.9525058585379,0.38187221013245
4,63,3,0.201635630286861,-0.0223203701378328,0.267017920880115,-0.405661709285429
5,63,3,-0.28144942677723,0.0235259739233344,0.25278894300121,0.0970775002972906
6,63,3,0.492437723285336,-0.0570075223237847,0.0399090491939961,-0.555557914009679
7,63,3,0.177876034814285,-0.0199252584446538,0.285569496598785,-0.39406710841648
8,63,3,0.343453914666964,-0.0378142618470346,0.0364031794519426,-0.509459963459742
9,63,3,-0.210714292995068,0.0201809493628697,0.102773749258244,0.254142894245026
10,63,3,0.203445189011537,-0.016744134385984,-0.352288943209342,-0.122619195925525
11,63,3,0.24751760097513,-0.0243669964073646,-0.00844835699981823,-0.28180871976968
12,63,3,-0.331924921628478,0.0271803316680563,0.144270013967026,0.278615897300312
1,64,3,0.168176421904332,-0.0115750286267625,-0.292778245698233,-0.145363792335553
2,64,3,-0.629068220293924,0.0436422975495251,0.4658947140977,0.535795236951527
3,64,3,0.0645787831828702,-0.00891697098826699,-0.300995861626555,0.153992200939138
4,64,3,-0.26166624764513,0.0207662717642722,0.151013270666088,0.313416142938904
5,64,3,-0.407165845728557,0.0324783757515419,0.228376769198981,0.344814849156831
6,64,3,0.525953523173935,-0.07024592742145,0.372610100810613,-0.725749651614267
7,64,3,-0.417969898482052,0.0317609774907282,0.266723356404679,0.388146400526449
8,64,3,-0.0428512566191769,0.00111824242602339,-0.0833142984965862,0.205141562122033
9,64,3,-0.344535896242597,0.0279251403980198,0.179886454167254,0.186808501055108
10,64,3,0.0253961142841187,-0.00236625362321527,0.190317359140079,-0.167645300474427
11,64,3,-0.244986149517895,0.015483083611298,0.21630521357546,0.365875946560279
12,64,3,0.299214728828128,-0.0415608211218397,0.571345688896431,-0.709553208495016
1,65,3,-0.180414376343248,0.00723375238723413,-0.0193959303199654,0.370397114812145
2,65,3,-0.536630938334752,0.0393078589835609,0.32012756975681,0.537615790140524
3,65,3,-0.155125043638516,0.00494958839432454,0.0468861788591016,0.415840615965702
4,65,3,-0.0530229103184095,0.00232543037644404,-0.0930747677882825,0.208987284816632
5,65,3,0.311947562322155,-0.0376907108080995,0.346104515879835,-0.549469113459099
6,65,3,0.0563939044354786,-0.00797568873969588,-0.153548861661792,0.159207485480243
7,65,3,0.0017926909034771,-0.00041917013347145,0.0394027341652552,-0.0546455077931514
8,65,3,-0.108664429710188,0.00983481226053737,0.113224880522951,-0.0379460185599827
9,65,3,-0.151475319021021,0.00768167330281725,0.0513716036862276,0.272181469828682
10,65,3,0.35215850253449,-0.0381567735877095,0.0960898436155388,-0.636281256320082
11,65,3,-0.0523304735249951,0.00500710404901607,0.130680804362878,-0.0447411867683169
12,65,3,0.132314680732198,-0.0127958486444323,0.0457320437051992,-0.236392475438567
1,66,3,-0.151523159181219,0.0141980601375828,0.333712912097921,-0.0387850861827989
2,66,3,0.138782549052487,-0.0168258491898825,-0.50827695112727,0.169409403328655
3,66,3,-0.204943767915971,0.0154421141311183,0.0564200447840045,0.344859878962515
4,66,3,0.192354803518221,-0.0136857269282334,-0.273750242464354,-0.113550359364709
5,66,3,-0.0315357844432973,0.000720433080522738,0.396652535002201,-0.315934619401397
6,66,3,-0.401789619696224,0.0321533561524757,0.250796061773339,0.330225199010838
7,66,3,0.124116906580565,-0.0105447434295164,-0.251685949204941,-0.0390271504595939
8,66,3,0.0916971149667949,-0.0083017486162775,-0.00480320699997774,-0.0106389096316577
9,66,3,-0.0367564426483193,0.000611248744044838,0.363375021652666,-0.304185071342198
10,66,3,0.447346180271164,-0.0578450288335669,0.307802294359588,-0.667387980210311
11,66,3,-0.113804312765943,0.00953727749617005,0.288344497213191,-0.132474787758483
12,66,3,-0.0719457053717263,0.0056164611102863,-0.014500099176608,0.13893147866379
1,67,3,-0.269299914902286,0.0206040234896154,0.184953121726464,0.312727783654259
2,67,3,-0.511085228582647,0.0369167882733851,0.41436593671696,0.484220757460206
3,67,3,0.279768801698051,-0.036536497097063,-0.686543131208948,0.12546603962658
4,67,3,0.242294606781311,-0.0269582740859448,0.267868542147239,-0.448459266906642
5,67,3,-0.607129655824615,0.0409949491007338,0.00880853648592775,0.864818823916137
6,67,3,0.440729741353288,-0.0428419778129199,-0.345840933526492,-0.403274942048308
7,67,3,-0.0541979042000276,0.00385234235704154,-0.0423207372141387,0.144278104932402
8,67,3,-0.397027604991884,0.0314880952513878,0.225405684838241,0.350492280092485
9,67,3,0.0209441028598752,-0.00272285855556535,0.0695236857303289,-0.142324282637789
10,67,3,0.173494157734439,-0.0164320655794922,0.0102353440776415,-0.246030344413549
11,67,3,0.352873920928291,-0.0386537897088185,0.0105286562805271,-0.485456996315047
12,67,3,0.206948382733697,-0.0214373522322643,0.0211787138559749,-0.267664172272176
1,68,3,-0.0735907988976294,0.00550355431067188,0.00527626526582811,0.106432584386975
2,68,3,-0.124107736580924,0.00609088411718035,-0.0798224466456574,0.29326475400986
3,68,3,0.125731691369026,-0.0119057009729703,0.0862852266084405,-0.28100861957944
4,68,3,-0.270062631975338,0.0229610514708147,0.154525068787116,0.320424512292082
5,68,3,0.0489105141822145,-0.00403957933372658,-0.0013946341121391,-0.0648539779409772
6,68,3,0.0419701053146796,-0.005857664843398,-0.118288240463527,0.103616731681376
7,68,3,-0.0118429191148462,0.000766201563258278,-0.0759192877177174,0.120464624412313
8,68,3,-0.0424464867812884,0.00588524545440393,0.102076799049333,-0.0974060970515527
9,68,3,0.184496344169059,-0.0199052682733643,-0.392584464466758,0.0666928247902435
10,68,3,0.195964647530568,-0.0183176686331239,-0.0160175744188135,-0.234937595402913
11,68,3,0.126861270312514,-0.0119844899942072,0.00223055118213968,-0.164928882083907
12,68,3,-0.446701144153906,0.0348064472269687,0.159466264227879,0.353642127981323
1,69,3,-0.200162152509105,0.0171932469573878,0.0981065107419636,0.267092035670317
2,69,3,-0.146438968232736,-0.000711942097917202,0.011215642490684,0.416551586411147
3,69,3,0.124094892948015,-0.0240392729946978,-0.376459442083702,0.282117935169457
4,69,3,0.21647562109778,-0.0266859713040276,0.239590432911529,-0.415224518990594
5,69,3,-0.105441428583814,0.00576831692243927,-0.0465425973506417,0.237759928562315
6,69,3,0.405822392371139,-0.0535293253661581,0.207160251385557,-0.757307119904217
7,69,3,-0.308488968115451,0.0251361961276683,0.194366981854138,0.251363845604485
8,69,3,0.0290765828420395,-0.00899559482084195,-0.180248263833923,0.23738926183332
9,69,3,0.219423275700245,-0.0262953673218064,-0.380510808975297,0.197329215955521
10,69,3,-0.494253188408483,0.0373250336338064,0.24243747628469,0.491421015165138
11,69,3,-0.390633359165751,0.0312663433201356,0.243186423504035,0.339034769699521
12,69,3,-0.0581750096868917,0.00243464496982209,-0.0648760743331251,0.22206561264788
1,70,3,0.365723731719639,-0.0140113415952506,-1.32387953989883,-0.150780085548039
2,70,3,0.12277166570083,-0.0114193776381492,0.0279747204466886,-0.185233643695222
3,70,3,-0.406327911806691,0.0295814275718042,0.249796426785991,0.442717973528413
4,70,3,0.198700172961633,-0.020773725821602,0.182890898427018,-0.361893692027251
5,70,3,-0.0815801189411649,0.00676486273508566,-0.0120043803685405,0.142641246876565
6,70,3,-0.236884332635979,0.0188003573293032,0.0709421762030055,0.255594118106236
7,70,3,-0.498641503530393,0.0375516928282034,0.31471927202196,0.438079490792782
8,70,3,-0.216314504069927,0.0166029446189861,0.121664500655784,0.292260991064514
9,70,3,0.0395561996106088,-0.00166536215584202,-0.0555261664949068,0.0336656546265074
10,70,3,0.226803755493113,-0.0180576367412544,-0.499778087716403,-0.0920417483303796
11,70,3,0.0139299168779003,-0.00343003274294297,-0.130421040167728,0.173837875179522
12,70,3,0.469861801077503,-0.0428876061201996,-1.12425276025189,-0.0461119635274163
1,71,3,0.176134380328637,-0.0152406802376626,0.0283078743542426,-0.260750825010314
2,71,3,0.0519440235074126,-0.00613891233168219,0.000297032682018449,-0.00861595639394112
3,71,3,-0.00805516206018982,-0.00985696226986501,-0.195564164819108,0.336260443939629
4,71,3,0.364158896005294,-0.0446339657787831,0.368776939310974,-0.610415645289717
5,71,3,0.556367393488317,-0.0833588355100154,0.737135742375363,-0.963014022446345
6,71,3,0.305313479543398,-0.0331546146500753,0.251847499535938,-0.492081630741315
7,71,3,-0.447385763493653,0.0342595544244268,0.271409917531508,0.41210768602959
8,71,3,0.201900387554727,-0.02360706371815,0.391773936846741,-0.495016351729836
9,71,3,0.355092101850784,-0.0467442375699988,0.495083398022727,-0.679328525212302
10,71,3,0.371583603537051,-0.0498096378075728,0.544107432978508,-0.718157450604021
11,71,3,-0.115177150255644,0.0127950574775726,0.119690028473349,0.00315986007957861
12,71,3,0.121771491613757,-0.0132929329470258,-0.284178475648544,0.0937395227810704
1,72,3,-0.442957862655753,0.0348944037101124,0.319879472446609,0.438342323697379
2,72,3,-0.0444339223727496,0.00421258267671216,0.217325559237279,-0.100704062039172
3,72,3,0.0531230443459954,-0.0123938341721502,-0.276906579073195,0.285226164872835
4,72,3,0.296795424537973,-0.0302018983287731,0.222032564792966,-0.478353760343995
5,72,3,-0.054425108674666,0.00539725402301987,0.0660778806760785,-0.0365822018900427
6,72,3,-0.160296176985695,0.0102559019395871,0.102810311408898,0.312391988760739
7,72,3,-0.186404077373109,0.0133470194700909,0.0688660522128611,0.291720225660631
8,72,3,-0.218525082721573,0.0189514018462402,0.162693767860582,0.137213980727299
9,72,3,-0.151323116850724,0.00737306044838962,0.050681572832675,0.273840747008574
10,72,3,-0.582600479749883,0.0369300105288469,0.00297469298544733,0.923037921862394
11,72,3,0.22235848846702,-0.0257705155665013,0.411342110002084,-0.513918140245052
12,72,3,0.206609784644467,-0.0230589865923801,0.256854279500279,-0.403836907488849
1,73,3,0.266673908464192,-0.013181810809008,-0.690058133236974,-0.203392528496755
2,73,3,0.338170776370478,-0.0266050369465658,-0.517676601040447,-0.348874799665158
3,73,3,0.401490534044896,-0.0328903212055985,-1.52806145418713,0.133418349004076
4,73,3,0.289589382782843,-0.0326013330626334,0.251039495471674,-0.486222620348481
5,73,3,-0.437154983168703,0.0334181173694155,0.250818897766316,0.370515108880043
6,73,3,-0.0455394110934431,0.00351481205227076,0.124520379359799,-0.0690342015492709
7,73,3,-0.22257664043006,0.0111966224862498,0.144568303006005,0.341489546246619
8,73,3,0.329301308810063,-0.0287161965221384,-0.743326626023994,-0.0858536445074806
9,73,3,-0.453930331213687,0.0346488685340158,0.227699717710844,0.36366978424635
10,73,3,0.109801492738303,-0.00845939332362155,-0.14931365218179,-0.0699571265543351
11,73,3,0.155157329839401,-0.0172653362298183,-0.390627791731684,0.0937100210268018
12,73,3,0.149453143842648,-0.019317481625374,-0.286157716624363,0.207212540317736
1,74,3,-0.179982889920406,0.00344387645755171,0.0269485532593128,0.399979734490729
2,74,3,-0.0371084032729067,-0.00576007220760162,-0.196319631711673,0.326869038004734
3,74,3,0.330620917401598,-0.0263131054978,-0.941553806359633,-0.0292485556831186
4,74,3,0.4056993025635,-0.0523041962246352,0.47105785737249,-0.704549324040532
5,74,3,0.272050394427557,-0.0332080000522066,0.387961247770016,-0.542869066991314
6,74,3,0.29975098629191,-0.0382295679470124,0.443635995598234,-0.60413192616189
7,74,3,-0.0861397892054035,0.0028164946738507,0.279572440650746,-0.126672332558852
8,74,3,-0.45925878419375,0.0340084787667722,0.396663517279442,0.310085190326212
9,74,3,-0.263802339239653,0.0225717980787017,0.213945200577871,-0.0387741783065903
10,74,3,0.249634451999527,-0.0286126275819516,0.339715046891357,-0.5205923308454
11,74,3,0.132868940340552,-0.0153672084440207,-0.353967570173382,0.112827178340469
12,74,3,-0.490108823109807,0.0400035483349209,0.360674178365046,0.321357489912313
1,75,3,0.234291926362466,-0.0245665762938334,0.278690684881065,-0.465876761310851
2,75,3,-0.00257140061351603,-0.00625653114547808,-0.21492066207605,0.298978235092526
3,75,3,0.146697218453987,-0.0271533647659048,-0.371589371578177,0.289853565137707
4,75,3,-0.285177989540236,0.0218611018053756,0.176858578062873,0.320734121947523
5,75,3,-0.0322423958711147,0.00292172875029273,0.00122510760140843,0.0155371289229054
6,75,3,0.283589567816641,-0.0282199692735435,-0.576779707774455,0.0259327311500991
7,75,3,-0.0727813919206729,0.00888283160023379,0.0104331387064227,0.0777197927615669
8,75,3,-0.0667307332089722,0.00591132421498209,0.23576119683635,-0.127783256820292
9,75,3,0.508405663777459,-0.0522818453592114,-1.1330598527673,-0.0547330750195096
10,75,3,0.0630550043396479,-0.00595994063172509,-0.177930990904752,0.0247885625392608
11,75,3,0.17381726930527,-0.0150608226685258,-0.298100073462495,-0.0592104567169121
12,75,3,0.0602432947107791,-0.00789546377435701,-0.142390649332137,0.124841270589557
1,76,3,-0.275529239630482,0.0140708685163942,0.133460042379429,0.444899833264762
2,76,3,-0.0715766247874783,0.00211088148445367,-0.122988533540165,0.274371811913299
3,76,3,-0.367102393791137,0.0267929421103847,0.266298652605866,0.452231149257313
4,76,3,-0.770349991493714,0.0502229414523356,-0.0979649931606115,0.968888195555132
5,76,3,-0.207617242678194,0.0199773258321078,0.0979723365357671,0.265802861978236
6,76,3,0.295113370273336,-0.027838414612537,-0.344925704966546,-0.19714369037904
7,76,3,0.181101400787262,-0.0117599012402652,-0.113070826067959,-0.190010224313964
8,76,3,-0.0561749529017246,0.00596443206794491,0.00729368367613555,0.025102549330426
9,76,3,0.0773270837689068,-0.0153128841667168,-0.196977090597395,0.251401911985042
10,76,3,0.121830566613,-0.011698020707422,0.0899595443165245,-0.311766154246318
11,76,3,0.514145366782929,-0.069244818446282,0.512561582589528,-0.803494987698482
12,76,3,0.37406448725378,-0.0400821974726105,-0.796219245054897,-0.0261986072317453
1,77,3,0.00335504985264875,-0.00288130901739527,-0.303236811418193,0.226556679630026
2,77,3,0.441292829314888,-0.028940559888889,-0.753533292584615,-0.48723808283133
3,77,3,-0.13719163632152,0.00940787472860668,-0.0273158080878312,0.241411843290065
4,77,3,0.107489430202921,-0.0127472391774185,-0.333824069213007,0.151318947563062
5,77,3,-0.262049935889107,0.0240201962387918,0.142826014933109,0.261451691867694
6,77,3,0.176269573151526,-0.0181070919342835,-0.363212629174666,0.0406405066236094
7,77,3,-0.384501534819611,0.0299903874147928,0.243972270965254,0.372317982896762
8,77,3,0.0252984283834558,-0.00428324755195351,-0.156626254598264,0.114883697490676
9,77,3,-0.208500195415778,0.0180202619546703,0.181414483060784,0.0689673517950299
10,77,3,-0.47458067836341,0.036183321636179,0.309226622479293,0.417680897804355
11,77,3,-0.0685525208129825,0.00568636931388464,0.171869212330844,-0.228424271083928
12,77,3,0.229198326781174,-0.0233327928957064,0.0118059227971097,-0.276679607749309
1,78,3,-0.327308277905393,0.0214199327718525,0.192874950396784,0.440057567901903
2,78,3,0.146063297777334,-0.0121554954717105,-0.515519521504942,0.147546131731499
3,78,3,-0.0312899574893289,0.00411965067926833,0.0853009115128198,-0.0977667948568388
4,78,3,0.30012631411005,-0.022392053866964,-0.592925817543282,-0.194639647810641
5,78,3,-0.0281482835941734,0.000475032789236693,-0.0806106949125496,0.168290959188741
6,78,3,0.0409306933143918,-0.00605451393137182,-0.120806716928978,0.128184517585652
7,78,3,-0.263622583700751,0.023133632913543,0.129947127401717,0.287344431383603
8,78,3,-0.0440991865154795,0.00255374033551584,0.327806536070128,-0.240816449635029
9,78,3,0.120605835895513,-0.0108112978286229,-0.090775135454572,-0.0796453624806824
10,78,3,-0.458633106921666,0.0363340307079269,0.22249404286556,0.449232524058994
11,78,3,-0.20100337782822,0.0178047413947324,0.198857728244813,0.0600903554401047
12,78,3,0.272627116679928,-0.0362514203152829,0.486381972290372,-0.617970864324141
1,79,3,-0.770841868258841,0.0486711908840673,0.470536334898564,0.767674916006074
2,79,3,-0.423993105502178,0.0290869440715017,0.301947809433913,0.49947859798688
3,79,3,0.201894324444242,-0.0155160684132962,-0.114912671545379,-0.22473693781828
4,79,3,0.209763637601016,-0.0223289315176394,0.206795058934499,-0.386443545440669
5,79,3,-0.371735387749149,0.02906848665391,0.255850453225761,0.352675055553109
6,79,3,0.516980922194149,-0.0581134359907405,0.0111511438066296,-0.54674412351669
7,79,3,0.235284531705123,-0.0289717796825135,0.415948979616402,-0.531390991835977
8,79,3,0.143738377395515,-0.0143066662500865,0.0700934048169895,-0.299175766922356
9,79,3,0.108441105700493,-0.0102903570209183,0.0854027791865998,-0.286234264801933
10,79,3,-0.666714790620623,0.0465425937492893,0.199190806356542,0.701263174211324
11,79,3,0.105164100245549,-0.0117722534942042,0.272504260545127,-0.326358988444722
12,79,3,0.725090083001104,-0.108279775672526,0.269168231750646,-1.07475746511571
1,80,3,0.0505523631467616,-0.00450714994748542,0.0520888083176112,-0.143858787603936
2,80,3,0.029603764955046,-0.0105518047811074,-0.23907487726492,0.319247462616981
3,80,3,0.316591134106886,-0.0237759557750597,-0.757091955373654,-0.154914659831348
4,80,3,0.280591525965448,-0.0322296248462724,0.300592657644184,-0.502982431441417
5,80,3,0.156565262276205,-0.0186573010632897,-0.39238760611612,0.135824883248895
6,80,3,-0.0212103171775594,0.00128328006888648,-0.000849899743935482,0.0128121330274362
7,80,3,0.266964908783121,-0.0274557472421935,0.00670632124838049,-0.47721765802352
8,80,3,-0.163645428117216,0.00930142293808653,0.052412650674779,0.289006867978348
9,80,3,-0.570238488732194,0.0425156919361449,0.311695166323014,0.436104825073984
10,80,3,-0.574356090197763,0.0729319800989063,0.118496695548965,0.504193104476582
11,80,3,0.157303694500687,-0.0125209804742541,-0.219419663504546,-0.0939967662455861
12,80,3,-0.293135937858556,0.0244463786580238,0.127390173914492,0.239081583213694
1,81,3,-0.168709933764187,0.0126556862429994,0.0478418277437403,0.222794927233661
2,81,3,0.426925965376066,-0.0342051497486315,-0.471860213237716,-0.513134258529527
3,81,3,0.280024351236737,-0.0232074816408126,-0.421419367474192,-0.21829757948521
4,81,3,-0.0451926401609332,0.00140613557731869,-0.102061216280886,0.210046732947171
5,81,3,-0.444269554582172,0.0339170943400942,0.30382439903152,0.363020698540985
6,81,3,-0.137233468998596,0.0122567416347044,0.10874078540734,0.0762810892067909
7,81,3,0.314035139369939,-0.0387856861831481,0.416016886154945,-0.594498336463011
8,81,3,-0.887893522382305,0.0555146632514532,0.581160509067719,0.363931089085668
9,81,3,-0.131868529504064,0.00552042439031332,0.255610729461682,-0.171271681140124
10,81,3,-0.377202708440075,0.0292082694898075,0.281023944456215,0.350538006409497
11,81,3,0.113618665045062,-0.0144054104656539,-0.323929534545987,0.141530399657233
12,81,3,0.32679168138955,-0.0340079144070825,-0.0573996489072303,-0.386560538126993
1,82,3,-0.323973325516771,0.0205719899131008,0.200681410772842,0.467789048436894
2,82,3,0.242132638564474,-0.0176254336666604,-0.685683131963456,-0.0367718962789631
3,82,3,0.346515116132088,-0.0290490503467246,-0.95828184286269,-0.0314986573819166
4,82,3,0.110899973130113,-0.0107611351465684,-0.29867677078338,0.0205434038199105
5,82,3,0.253783908190255,-0.0373603145991887,0.269692013763664,-0.510757163645605
6,82,3,0.0407614044867402,-0.0045983187209701,0.196327515082132,-0.208065077253036
7,82,3,0.282142850760887,-0.0338334253954757,0.385671586696023,-0.55252796155203
8,82,3,-0.468139738983019,0.0360584535179516,0.295332726609525,0.383112905837838
9,82,3,0.0239204389446406,-0.00283737062975694,0.204112192289995,-0.202687839042492
10,82,3,0.371837236242914,-0.043863990743914,0.108480920130913,-0.701845636153645
11,82,3,0.078254412298916,-0.00774971659029865,-0.149360358936798,0.0133568785471617
12,82,3,0.0378435232398305,-0.00702393690267926,-0.156171822191746,0.203410973240913
1,83,3,0.225749802654153,-0.0183445718174806,-0.341234514510463,-0.235061235475107
2,83,3,-0.164702978205907,0.00561753550794709,0.0301292105898326,0.414946093815818
3,83,3,-0.191509588040134,0.00837778647233296,0.076986018436218,0.404805070558446
4,83,3,-0.0319040418854927,0.00621591552389169,-0.0352893682779809,0.101373319681411
5,83,3,-0.186286889742465,0.0164816111128137,0.134229884492982,0.128151634567413
6,83,3,-0.518157437018428,0.04003283604857,0.398688005336351,0.240332722460884
7,83,3,0.0648047659249875,-0.00907095759035183,-0.273514915456943,0.116757275860581
8,83,3,0.023357523961337,-0.00767464604931066,-0.168099296386305,0.234536788082076
9,83,3,-0.175065902663775,0.014422273328201,0.0681355035956123,0.152530884815101
10,83,3,-0.169775496948369,0.0136444871408291,0.29493065230611,-0.142665632158096
11,83,3,-0.772809067571654,0.0478114230724279,-0.108794356416015,0.934204587170166
12,83,3,-0.172386552515263,0.0143481478889651,0.0518953604693951,0.172675332507139
1,84,3,-0.253314127087442,0.0184918764156023,0.143595351891017,0.336497240817376
2,84,3,0.315209499538989,-0.0279759132263343,-0.884105248080548,-0.0143373142737494
3,84,3,0.335725838997921,-0.0284589372044853,-0.264584485974354,-0.358406779981511
4,84,3,0.238298913086309,-0.0265110330720143,0.242265133131582,-0.434675743008425
5,84,3,0.143665103318774,-0.0135330183315062,0.0529233636509267,-0.259430524477383
6,84,3,-0.153798572629775,0.0122966435081712,0.0254416281424007,0.1788892315916
7,84,3,-0.177539946838083,0.0149457599766579,0.0562672702787842,0.195181458648704
8,84,3,0.0594601464065306,-0.0119317673270626,-0.211231512967514,0.236569842377586
9,84,3,-0.12549082883574,0.0105239825574265,0.121535100294904,-0.00564519319998119
10,84,3,-0.0658662999109848,0.00392296219352879,-0.0673449149443088,0.193448509627465
11,84,3,0.365977833956817,-0.0399556342650517,0.318200637571932,-0.585315537056063
12,84,3,-0.297771221385527,0.023605525671126,0.24417357250788,0.0772775063692855
1,85,3,-0.00659815156446355,-0.00615088091404282,-0.222635603175691,0.306517589110911
2,85,3,-0.572971894001901,0.0401983038923903,0.434012342674029,0.529236527392387
3,85,3,0.216312902122443,-0.0304578179255911,-0.588995367951039,0.167174462783224
4,85,3,-0.00264286447560007,-0.00210732599541052,-0.138771212202455,0.19332381529178
5,85,3,0.594106428217196,-0.0895147737334656,0.728890673903535,-1.00045191408902
6,85,3,-0.112974837726639,0.00986534266387211,0.103213286097691,0.0510410699669895
7,85,3,-0.371773135023581,0.0299334061020416,0.237211346486931,0.354520364908075
8,85,3,-0.319289233883594,0.0257449802538012,0.129738198642206,0.308170231560265
9,85,3,0.186841665098952,-0.0216818423579923,-0.395150246212054,0.113240066368284
10,85,3,-0.0715761318482607,0.00596579626014091,-0.00612267058639424,0.115611432024067
11,85,3,0.28590014371304,-0.0325960154935654,0.213508958511656,-0.459696781117268
12,85,3,-0.0414411081816059,0.00372950273316898,0.113895540070109,-0.0546110499173325
1,86,3,0.0624177425081566,-0.00650690109378296,-0.077861865791131,-0.057542835232777
2,86,3,-0.0077301904857196,-0.0108256896833694,-0.194974717240418,0.338463221113786
3,86,3,0.286406843191922,-0.0223269337777302,-0.760912985755175,0.0140641168578825
4,86,3,-0.280091372262619,0.0227641824413731,0.131417682388584,0.268047910970351
5,86,3,0.0779880660271868,-0.00725917732922959,0.0376518104278917,-0.151802522420811
6,86,3,-0.225673904979433,0.019420045786987,0.103140268023834,0.181544684669346
7,86,3,-0.483910227098243,0.0367962672304243,0.325233983278074,0.413378111003777
8,86,3,0.137821566287419,-0.0131159298915438,0.0049072129829925,-0.181845167956634
9,86,3,0.631838329712246,-0.0725139564503429,-0.229861622127106,-0.667679190427397
10,86,3,-0.00825228122999071,0.000512430588233832,0.258284101311971,-0.185372097608922
11,86,3,-0.020332997527933,0.00181987458607069,0.00107321908301704,0.00839929339537016
12,86,3,-0.281264394345687,0.0227685997680717,0.235643030765349,0.068357739910114
1,87,3,-0.0424242234506276,0.00508802300757341,-0.0205678548114415,0.0869985896699698
2,87,3,-0.294970432641181,0.0233112344113801,0.194907187896329,0.305138871971263
3,87,3,-0.0620320878991224,0.006053519340992,0.00608812340718836,0.0257192700414902
4,87,3,-0.505663010370739,0.0466500458768362,0.385195322743636,0.279413073388627
5,87,3,-0.128994574158716,0.0111135299577977,0.0936130202840438,0.0946238691495461
6,87,3,-0.183133791399569,0.0130347769873652,0.131020389710852,0.310708316683655
7,87,3,-0.0419098897800179,0.00260901745202475,-0.0831740767944339,0.183149790248797
8,87,3,0.0798459748443586,-0.00824161816666246,0.0517397590552499,-0.177998420222962
9,87,3,-0.405473978229516,0.0322316139555769,0.21110707984896,0.329748658474306
10,87,3,-0.447533658646666,0.0342561296355847,0.256806224655567,0.420050680896619
11,87,3,-0.0649658887787213,0.00538280706590999,0.103547068997718,-0.0632573528705191
12,87,3,-0.143031229920913,0.0128791548482317,0.145531756062574,-0.0389008558790046
1,88,3,0.160874039017577,-0.0102294757289251,-0.551478057518666,0.00812226040931801
2,88,3,0.293458079955968,-0.0210760867574891,-0.557703740109978,-0.237982571769585
3,88,3,0.148769265183969,-0.0244969360579802,-0.402073219930813,0.277822505363214
4,88,3,0.131683923021684,-0.0124023983466912,0.0341729562839009,-0.229247176912801
5,88,3,0.308063784631727,-0.0264148863928079,-0.635344881481271,-0.114157743744805
6,88,3,-0.298220707885702,0.0243418449883798,0.356790112986831,0.316521441348555
7,88,3,-0.0742042636231129,0.00946028168860312,0.0653906609345314,0.0454632060723271
8,88,3,-0.252208753980288,0.0208590905798653,0.1661368920326,0.312150739776185
9,88,3,0.0520323786412669,-0.00588220688850474,0.0550785871655763,-0.153533422051724
10,88,3,-0.105510858185566,0.00675560970402499,0.0541409512606556,0.0902419149402705
11,88,3,0.37489122219448,-0.0462403397442456,0.384689515386894,-0.615473621192796
12,88,3,-0.295731121900026,0.0246845523245814,0.133056735848537,0.227329679472785
1,89,3,0.0310262183778626,-0.00395835813968642,-0.264621307688695,0.284964406209214
2,89,3,-0.252155562582407,0.0190713262302096,0.124485085987017,0.345232078527789
3,89,3,-0.389026242072026,0.0296134760205295,0.234306975833744,0.415461081139118
4,89,3,-0.547720561287475,0.044554441820089,0.420375756724295,0.292588187383029
5,89,3,0.248204036740084,-0.0275810554975338,0.197408493348256,-0.423633785234216
6,89,3,-0.21315376729712,0.0195804630893277,0.181984951153357,-0.0343558006197271
7,89,3,-0.14960681980589,0.012473517047099,0.0455582574145123,0.165885141701089
8,89,3,-0.338423210684156,0.0268389533974821,0.14870862382272,0.304207464345139
9,89,3,0.130599254868068,-0.0142243290689297,-0.293443983278006,0.0742444306356536
10,89,3,-0.179219958350778,0.0129484732234483,0.0590803504299018,0.280859682550083
11,89,3,0.257454197474502,-0.030067780715413,0.34434324206774,-0.506264401900375
12,89,3,-0.37539698949024,0.0297887750370211,0.162331615730872,0.301226326353651
1,90,3,0.0763708226297309,-0.0110186888171608,-0.436889226112281,0.164492688517977
2,90,3,0.0699723538976573,-0.0146352703296839,-0.326709997602644,0.275022498931437
3,90,3,0.371781517168804,-0.0337699335070484,-0.310402379580558,-0.399313327207155
4,90,3,-0.00733602171697793,0.000173304926840516,0.257923965266131,-0.185287254490316
5,90,3,0.130395634119748,-0.0123939387298053,0.00897232068971022,-0.17961777792137
6,90,3,-0.703539500973629,0.0501616844300712,0.340766765728898,0.492795181907076
7,90,3,0.146167008722005,-0.0126957191349438,-0.0396187213914997,-0.1533622051631
8,90,3,0.221803863009485,-0.0228902913247762,0.0530837163279723,-0.352845872068639
9,90,3,0.110410782029932,-0.0132860841219445,0.296457784490438,-0.351574247320372
10,90,3,0.154931099445513,-0.0133250187040676,-0.296379526532614,-0.0666351211115702
11,90,3,-0.0756443585762026,0.00691793993046176,0.0345691674443429,0.0746550882184095
12,90,3,0.231000351500031,-0.0163975650895284,-0.141589272278352,-0.192493614400085
1,91,3,0.337551282112153,-0.0149481989533203,-1.14814228798252,-0.185130490625436
2,91,3,0.411919718141021,-0.0289793505248809,-0.648651968801097,-0.44361586789864
3,91,3,-0.0552224226320283,0.00486844282565077,0.118157535520903,-0.153619987318171
4,91,3,0.372086755337984,-0.046059630781656,0.477639243055131,-0.67539717252356
5,91,3,-0.112569566363204,0.00239513553677758,0.25167872306685,-0.138468126544441
6,91,3,0.274935808266941,-0.0241919673888405,-0.464596338481609,0.186242083115953
7,91,3,0.0730516920671412,-0.00655798322668505,0.0686472003480777,-0.198313837292016
8,91,3,0.128363595869433,-0.012409780906215,-0.235859024878323,-0.0109411304686605
9,91,3,0.222343055386505,-0.0239226440971118,0.0791082816266656,-0.392935672061247
10,91,3,0.16573125725684,-0.0169424063864848,0.193153366041272,-0.333748898816125
11,91,3,-0.357712054356431,0.0274545854883797,0.198215386794589,0.338721650986092
12,91,3,-0.250144059195921,0.0218169811486454,0.0999460448338032,0.251848002794549
1,92,3,0.162223816787805,-0.0109005000881189,-0.534977802928607,-0.0175525700391495
2,92,3,-0.0952053525771005,-0.000224781988695817,-0.130921797540762,0.342504925210259
3,92,3,-0.103451442384491,0.00189517110017958,-0.103505191684073,0.31183933348799
4,92,3,-0.18105045769231,0.0151955243568324,0.0509089564636895,0.281467127635034
5,92,3,-0.135870005436893,0.00692293844111915,0.0198824132121251,0.261568051190425
6,92,3,-0.0116102685919989,-0.000223952325233536,-0.0635517069394191,0.132971814609607
7,92,3,0.037379346366474,-0.00435253843287291,-0.104988626028541,0.0564493791111602
8,92,3,0.169208777381197,-0.0165424885155335,0.00545983644143036,-0.218179748987168
9,92,3,0.083147279391012,-0.0172556220852219,-0.204479280510952,0.252583998145168
10,92,3,-0.0569468480341924,0.00556894054899976,0.177782406088021,-0.0592301483307145
11,92,3,-0.0847221917817947,0.00453980904057118,-0.0561512242271655,0.223012337762448
12,92,3,0.619254675428114,-0.0829780530120358,0.362190749233517,-0.789272762229541
1,93,3,-0.0975237944621977,0.00624815652135244,-0.0624983461711584,0.231723430107325
2,93,3,-0.0982284648144428,0.00110610204190406,-0.129157777961013,0.329631992505067
3,93,3,-0.526153560559672,0.0388776867477004,0.3125827417824,0.50411571560112
4,93,3,-0.0304669588715846,0.0025404850047859,-0.00177724085377756,0.0204033435244655
5,93,3,0.194020366065856,-0.0179890635393879,-0.268552508938916,-0.113392106247358
6,93,3,0.389127964018044,-0.050054439150958,0.501584949242978,-0.69953612834726
7,93,3,-0.187896668769924,0.0161647409140369,0.0772823269194626,0.1938235034327
8,93,3,0.0355356346899458,-0.00216684264617138,0.199508176451848,-0.202461755250525
9,93,3,-0.148250453780183,0.0124303009403964,0.0930299838230206,0.100484860539335
10,93,3,0.0607110370578903,-0.00614235476067723,0.157259184005484,-0.189812484708868
11,93,3,0.390831271939291,-0.0485556509315557,0.395985751825991,-0.643082238116246
12,93,3,-0.0565306691706155,0.00576279696972728,0.00299408215496793,0.0260095698055577
1,94,3,-0.0331383340806163,-0.00167872610203017,-0.202156745795304,0.260592250165151
2,94,3,-0.0752246634449008,0.00191427546275021,-0.1270968961089,0.286217446145344
3,94,3,0.0259977500808999,-0.00238845855371219,-0.134455890751917,0.0707627083632484
4,94,3,0.264504784909581,-0.0292527121785376,0.234845117765163,-0.457600082171906
5,94,3,-0.1772669370524,0.0143531024271393,0.0634219695437608,0.172288023191153
6,94,3,-0.0380226950697698,0.00345837887022687,0.00147512426117287,0.017471847798467
7,94,3,-0.0913975219233378,0.0114674220894358,0.217366931568758,-0.233946720338261
8,94,3,0.180772807790686,-0.0190729458620659,0.192533996612105,-0.380515124781082
9,94,3,-0.0733368960451132,0.000727579068988314,-0.055401088006772,0.277103449937194
10,94,3,0.0903053331677036,-0.0101029619240836,0.276827948264954,-0.302012802273339
11,94,3,0.258588643896818,-0.0282112860037161,0.146820048779977,-0.394950166056367
12,94,3,-0.0944537615194321,0.00834441325252118,0.0282350909207236,0.0881120070811295
1,95,3,0.103870342497563,-0.0114064787763294,-0.484833126427411,0.119225201127991
2,95,3,-0.244356580022517,0.0149936985303472,0.147096126708322,0.455161898071291
3,95,3,-0.23980310517898,0.0102448779685045,0.214695937211662,0.489602816327949
4,95,3,-0.00468735227555042,-0.000463529277653888,0.161001426557329,-0.112625600180418
5,95,3,-0.124744494197802,0.0088477561097425,-0.00876436868773822,0.206736759846553
6,95,3,0.0550164384550288,-0.00222981823027947,-0.0758690664107961,0.0371592551470709
7,95,3,0.242478169845441,-0.0228975897922676,-0.0685407631839502,-0.294680915936243
8,95,3,-0.278751572402517,0.0261555080448715,0.162152217901891,0.308391950751832
9,95,3,0.0740656302687465,-0.00693703331240638,0.0818782139199972,-0.238977550492585
10,95,3,-0.0985339173281782,0.00790999613769434,0.0915560163832096,0.0661804172819478
11,95,3,0.184229979119533,-0.0186882755581802,0.176382036847033,-0.33781488075128
12,95,3,-0.326541425302796,0.0268237612147127,0.173815595235135,0.184148715969409
1,96,3,0.271390665189906,-0.021476768150068,-0.120251340602148,-0.356419880873096
2,96,3,-0.00718407393645991,-0.00566553294308999,-0.212694999256179,0.299750316521433
3,96,3,0.419014485629333,-0.032682915701349,-1.52003833741707,0.103782943539415
4,96,3,0.035449126392897,-0.00540504479124577,-0.00129572607935516,-0.00800868964117658
5,96,3,-0.16458672531844,0.014609672616942,0.15898258004399,0.0745953643023221
6,96,3,0.0756557262378263,-0.00890745938087223,0.284861588285271,-0.313763990342151
7,96,3,-0.513602156818413,0.0382901783096496,0.261349070343183,0.501782900884996
8,96,3,0.145071186030899,-0.0181785280895328,-0.30741949921683,0.203460997017267
9,96,3,-0.128816474829871,0.0111776095936317,0.135682065172674,-0.151534381521528
10,96,3,0.0728567984066361,-0.00696193809537577,-0.233881423354891,0.0502746832756842
11,96,3,0.115477065611367,-0.0127308779666423,-0.312586353164958,0.0948786008550032
12,96,3,-0.386173725800197,0.0312097083338409,0.226013605915745,0.329905837867996
1,97,3,0.325608111247887,-0.0311416184759452,0.0323369277790952,-0.518312202345822
2,97,3,-0.464354577425229,0.0343580118281542,0.317504612091179,0.50284979618055
3,97,3,0.159831166403489,-0.0103122120278622,-0.151245625295847,-0.128936928422545
4,97,3,-0.0106093691681282,-0.00188048872981295,0.176625170591576,-0.32630667644511
5,97,3,0.154109360031167,-0.0143429402158052,-0.0279599932785417,-0.157468905406185
6,97,3,0.271925692839367,-0.0328285599536933,0.383599401979816,-0.535763786112027
7,97,3,-0.240571509832964,0.0189725366779892,0.128027084605801,0.284885945836118
8,97,3,-0.040099193868104,0.00285920417509424,-0.0352658680192837,0.121611632265536
9,97,3,-0.00602944227113631,-0.00120698784274102,0.295612101701485,-0.262104933586985
10,97,3,-0.00678941072833355,0.0023388184380451,-0.0722807300391319,0.115503693621703
11,97,3,-0.317176130133043,0.0251122995801965,0.209108712037574,0.306203806153946
12,97,3,0.29664660832094,-0.0316710730871445,-0.611536744794201,0.0557571847621773
1,98,3,-0.0205256586139907,-0.000591447785026396,0.164992386534812,-0.0916402358701517
2,98,3,-0.179104630998661,0.0142466008737946,0.05726361826135,0.211634821722
3,98,3,0.137857206118534,-0.0205239518905993,-0.458891696186348,0.191578628629986
4,98,3,0.0227378043972218,-0.00447307321528307,-0.000420001298563624,-0.00590156810482744
5,98,3,0.0100672475031329,-0.00195473593354401,0.000236352238725097,-0.00316725318931068
6,98,3,-0.33547304190078,0.0265053376459312,0.216737334461952,0.144579081289796
7,98,3,-0.0258781543219791,0.00227020184041164,0.00223675640703926,0.0112627349352988
8,98,3,-0.162303667407743,0.0104020588459299,0.0784590233954712,0.30513482573007
9,98,3,-0.0315340410401946,0.00289799293231312,0.233061645283675,-0.176874091968754
10,98,3,-0.0300832835708393,0.00114333673458947,-0.0630603945863741,0.138318231497656
11,98,3,0.0281592791616951,-0.00390062201638432,0.327231423509381,-0.294536506177637
12,98,3,-0.00077717556449311,-0.000866006221571286,0.164658600502641,-0.144595705770096
1,99,3,-0.156806592572278,0.0144714898586773,0.0673578249215652,0.214668334892676
2,99,3,-0.38795094390243,0.0291204227240666,0.353233274602001,0.510599004909639
3,99,3,-0.248497793186293,0.0141662634886262,0.211573162446301,0.486902152925194
4,99,3,0.353949112960126,-0.0449923241424144,0.449639561260801,-0.646449649260713
5,99,3,0.379622618776015,-0.0346342523536985,-0.913246253129561,-0.0912010416723316
6,99,3,0.417946375404478,-0.0384589239192669,-0.95431213149907,-0.0874878534667071
7,99,3,-0.471756956213416,0.0362477129592537,0.322993032471962,0.404828446628671
8,99,3,-0.0685282514964996,0.00379540268088777,-0.0614304388309431,0.207554503096969
9,99,3,-0.192080923944011,0.0150109884624676,0.118564380614352,0.304907113498553
10,99,3,-0.187177308675374,0.0182314922616689,0.280788646841495,0.00345225160252636
11,99,3,-0.235537920941642,0.0201508750744173,0.123278899946713,0.188845811444723
12,99,3,-0.200965124685191,0.0186719405964209,0.0934868462024758,0.234483639786949
1,100,3,-0.0560653933356924,0.000765187910106062,-0.161535786492816,0.289468622227077
2,100,3,-0.0169874151531452,0.00145519636449624,0.000119114783966447,0.00930157938059287
3,100,3,0.144377647667916,-0.0135969826293954,-0.378473323058225,0.0230464100660119
4,100,3,0.0294218530258459,-0.00852561490034695,-0.192621857018446,0.225725763645459
5,100,3,0.0604046678109032,-0.00544986760726751,0.0166592649103133,-0.107839294132968
6,100,3,-0.150846693189936,0.0102175704227192,0.0602715871353709,0.271235046679512
