ID,SIM,interval,ETA1,ETA2,ETA3,ETA4
1,0,4,-0.102992078591953,0.00735914304630565,-0.0199104542452937,0.183429861723467
2,0,4,0.0108403081544261,-0.0222155135359536,-0.137081429471921,0.490054257426938
3,0,4,-0.103710510090202,0.000340543472088496,-0.0469689903645596,0.441974446858585
4,0,4,-0.190401800036081,0.0183706339425838,-0.0970675377594452,0.237627146144156
5,0,4,0.0283702886658911,-0.0041850573525,-0.202630076515222,0.0986475563445084
6,0,4,-0.0200753029565127,-0.000195972376334796,-0.0321107900898452,0.194228668097873
7,0,4,0.10618089771997,-0.0126424881016184,-0.325179003431996,0.167829853218561
8,0,4,0.0295703701606131,-0.0104000688793965,-0.172700855752915,0.333401231901684
9,0,4,-0.196596644210608,0.0136720717686353,0.155425433482355,0.400679758909605
10,0,4,0.087955460377373,-0.0101741819306541,-0.0875304625632606,-0.0991914245058695
11,0,4,-0.0399546439118031,0.00357319347232589,-0.0817185499667108,0.034222296096963
12,0,4,-0.0841697365719983,0.00486995082731862,0.140670049278367,-0.088127404054919
1,1,4,0.0555234589779638,-0.00352499091919363,-0.0642553625215718,-0.0527865160120776
2,1,4,-0.421812757803253,0.0245965925173956,0.217827785241374,0.70731230184061
3,1,4,0.167761350591863,-0.0256237058847992,-0.393968316262197,0.252722869359116
4,1,4,-0.143886781647976,0.0136616047858557,-0.0160145416082911,0.183574252864752
5,1,4,-0.402972835518879,0.0314328641755046,0.271739574117679,0.371750798494646
6,1,4,0.129653731938142,-0.0145902983403387,-0.153038648163317,0.15847189301001
7,1,4,-0.225875820876427,0.0164578041817851,0.146571266267026,0.335676898314048
8,1,4,-0.269086498662503,0.0197104404599958,0.16973111459995,0.409530456611038
9,1,4,-0.421801596664382,0.0326478958167996,0.223572256651188,0.19524954246931
10,1,4,-0.0473837736857343,0.000586570953120752,-0.0971768503986531,0.252822330618903
11,1,4,0.480421581560482,-0.0414695763058205,0.0286364963675309,-0.470443350471227
12,1,4,0.61771806395397,-0.055771214301333,-0.380340724588184,-0.584356137784713
1,2,4,0.00481724290486232,0.00053541184346515,-0.0852045659241543,0.0467742703322351
2,2,4,-0.0232873549640212,-0.00383683119023113,-0.167031663330224,0.303492129183601
3,2,4,0.690233337877081,-0.0399243520860224,-1.9223603739938,-0.396840293231741
4,2,4,0.0980762200995669,-0.0128981751926863,0.0143549697382071,-0.0514762111028846
5,2,4,0.242547635703361,-0.0233085175634534,-0.481333003854756,-0.0415916730894093
6,2,4,-0.199026238091827,0.0134406823143463,0.140403784463712,0.406640247550319
7,2,4,0.191701497005923,-0.0162252653466097,-0.323765546904089,-0.113210489653837
8,2,4,0.327549878301315,-0.0296183420603551,-0.278705293211412,-0.250102375016141
9,2,4,-0.362405178688695,0.0299662566766765,0.283926770821137,0.443931516957437
10,2,4,0.427269147689632,-0.0536968203223781,0.542272357022074,-0.720889624693353
11,2,4,-0.156288406213837,0.0125242311787447,0.0345759212903754,0.187838071496323
12,2,4,-0.242375125909509,0.0197516601075993,0.167514902458149,0.00481959937146721
1,3,4,-0.0468995388443195,-0.00117133573926561,-0.120785061918121,0.262994507906222
2,3,4,-0.0501531767326721,-0.00699832245638288,-0.134917024064487,0.389679477992397
3,3,4,-0.0261316656112851,-0.0176590432571785,-0.05934992454574,0.524338306487054
4,3,4,-0.187535272232942,0.00351958713128684,-0.322680782186076,0.788048882731061
5,3,4,0.255971794427711,-0.0238331172487925,-0.479547525377245,0.00094007147455728
6,3,4,-0.341508606605705,0.0253898743540012,0.103012294171419,0.532389758286621
7,3,4,0.341955350808482,-0.0351781476318647,0.417347968435673,-0.559669913254485
8,3,4,0.139267211418662,-0.0214663295939947,-0.288705153211742,0.276826703391321
9,3,4,-0.136380247810186,0.0142848399098414,0.0681018178914945,0.161211531239819
10,3,4,0.139576306229139,-0.0150167488351183,-0.323493146575904,0.0711627861900557
11,3,4,0.280023412701223,-0.0361917563952702,-0.566274672318414,0.0955203545841059
12,3,4,-0.621019898954758,0.0445050159120794,0.320331354903572,0.387798658983947
1,4,4,0.207430494558009,-0.0184580713716881,0.322352024351126,-0.356032408130551
2,4,4,0.182614824081491,-0.0146561407071062,-0.566073763858569,0.0260820845525245
3,4,4,-0.311249702566536,0.011074453868911,0.290177612441018,0.855602304298339
4,4,4,-0.128277797978721,0.0148989662128923,-0.0207644463766164,0.277585039206823
5,4,4,0.170927780882221,-0.020194227827833,0.15249999564022,-0.212184798722539
6,4,4,0.0847519348029001,-0.0159887555332152,-0.22899136236719,0.297900308943743
7,4,4,0.579674941214831,-0.0469588981648662,-0.251915030848214,-0.519322987243868
8,4,4,0.317057640169434,-0.0249276275252607,-0.753754114895528,-0.0452849926077747
9,4,4,0.175637384623053,-0.020907351780779,-0.242205477339803,0.18799357129771
10,4,4,0.0846375264851594,-0.011513512243855,-0.286963769349581,0.125436440908855
11,4,4,-0.578668296627683,0.0398447797652138,0.34866790844457,0.6889385559976
12,4,4,0.822776004880678,-0.103858800820294,-0.200103741228379,-0.8315363316985
1,5,4,0.254952638859384,-0.0143844578162462,-0.738277932031238,-0.0555000568114604
2,5,4,-0.306874690075738,0.00989270232239879,0.270654529336384,0.577388245312971
3,5,4,0.305844259325713,-0.0444848525394758,-0.586794874205418,0.266067313709516
4,5,4,0.168123855077372,-0.0230794365670206,0.104804050405281,-0.116004975595472
5,5,4,-0.611020381479329,0.0301856656523439,-0.0185751684097173,1.29977152620307
6,5,4,0.546303578693876,-0.0653505001211578,-0.165666384322868,-0.516833588707024
7,5,4,0.209553130581809,-0.0211174323781166,0.253648536324216,-0.369228909206229
8,5,4,0.0436380777947974,-0.0117583665973646,-0.152214911194264,0.221435647816683
9,5,4,0.242943175736895,-0.0260230431159093,-0.359174508233983,0.119957981233058
10,5,4,0.00426382904020093,-0.0020114668948598,-0.17531361362382,0.227749328327872
11,5,4,0.182225180621775,-0.0306168830917196,-0.308296502488347,0.329119135435556
12,5,4,-0.0428728587117454,0.00179677870247125,0.0168393549933691,-0.188475433781066
1,6,4,0.265823919741968,-0.0174321877163576,-0.58622019910518,-0.172919092258268
2,6,4,0.106665761373945,-0.026795538921036,-0.276740649765149,0.401348197105161
3,6,4,0.0497177916004916,-0.0159760793529802,-0.235933873380266,0.332320526774321
4,6,4,-0.0749600796147667,0.00207503989553181,-0.0327845224972651,0.338913692207765
5,6,4,0.0234974865914773,-0.010682420946125,-0.334979233340795,0.404368427852042
6,6,4,0.154712019773003,-0.0184743223482705,0.070039855382799,-0.0372510759317716
7,6,4,0.182115194565479,-0.014623940979487,-0.409261412955396,-0.0306778763002291
8,6,4,0.125787685124895,-0.0197215786042059,0.422110847611339,-0.563513981189828
9,6,4,0.501767833879475,-0.0570342849844272,0.00541010575308307,-0.532083652022879
10,6,4,0.190501896246428,-0.0184547179915544,-0.494176099339366,0.0359149610458352
11,6,4,-0.0592227313182292,-0.00254011612137609,-0.0338242361474933,0.376963145198789
12,6,4,-0.194737059783526,0.0164678965395343,0.0874183178929868,0.290021189047054
1,7,4,0.258819640519751,-0.0243864396532966,0.408377407491752,-0.461011414052595
2,7,4,-0.276174394402548,0.0132985512138962,0.110937881940516,0.562259082960584
3,7,4,0.232748770833675,-0.0353111479002493,-0.499036716583381,0.25279330384226
4,7,4,-1.13212357228611,0.0544566188688705,0.655768439622103,1.20747028025671
5,7,4,-0.304255279890321,0.0170715332973478,-0.0539768092545174,0.691255966604466
6,7,4,0.378585590635507,-0.0447640312465734,0.0708156446588963,-0.437414017800889
7,7,4,0.157164980913187,-0.0156091186440489,0.355804082220259,-0.434602702164698
8,7,4,0.507957363202171,-0.046243284308878,-1.58861521167,0.0740987186105631
9,7,4,0.746854484787465,-0.0808079529115698,-0.506600426401286,-0.689980528274759
10,7,4,0.320330728356753,-0.0244691873443202,-0.630594219154199,-0.208632078355235
11,7,4,0.35780690213113,-0.0351280619234608,-0.175513226470049,-0.460177872641409
12,7,4,0.492853910588072,-0.0589955764202524,0.126056073600509,-0.542691487968661
1,8,4,0.661418653025481,-0.0132749187349424,-1.88650844344849,-0.985806367514045
2,8,4,0.511076793648734,-0.0266502513779196,-1.4210873274795,-0.353143998616635
3,8,4,-0.395306307284814,0.0251091756130416,0.300830137645893,0.467732214608095
4,8,4,-0.377866296701142,0.0251984521908739,0.169653241552149,0.613773522482895
5,8,4,-0.416425451460529,0.0309978201423681,0.228704646059145,0.481908010249274
6,8,4,0.0294963925874183,-0.00620514128572359,-0.109088579673449,0.228121732676473
7,8,4,-0.480716736932731,0.0388000309685812,0.331200180965753,0.401490004724085
8,8,4,-0.166472865267284,0.0100726635289739,0.0812057986501984,0.271321562794752
9,8,4,0.298767821920047,-0.0321481133089492,-0.464689300470445,0.0775501410535986
10,8,4,-0.304726559217507,0.0220044451795659,0.222888983081129,0.451474646243423
11,8,4,0.10971375782199,-0.011268845790386,-0.0330790825945466,-0.0804548850180805
12,8,4,0.562324578281997,-0.056210305382931,-0.516358879149483,-0.45643836313614
1,9,4,0.0887172892663252,-0.00770954146708774,-0.408503584015686,0.0978457051516749
2,9,4,-0.130090445167018,-0.000347082673561645,-0.0547385941470118,0.475445971961008
3,9,4,-0.106889141236475,0.00138196567279267,-0.0489453698393344,0.405015939753018
4,9,4,0.100378213054401,-0.0142969863530287,0.0405106650909943,-0.0810191835408293
5,9,4,0.260580992095201,-0.028549466864124,-0.348795975907265,-0.0768075633952604
6,9,4,0.275271455573805,-0.0311627467173415,-0.450112654848381,0.0554428924358973
7,9,4,0.0107298431635199,-0.00543095373583071,-0.221128850034591,0.25134937653609
8,9,4,0.0309886426303158,-0.00638979619700252,-0.136938109142627,0.220569949165114
9,9,4,-0.656908399439044,0.0460818866527436,0.406265535204715,0.259428607894207
10,9,4,-0.102005558974805,0.00828575941173166,0.0963527600062695,0.123681888886453
11,9,4,0.0691523835762278,-0.00819157598664826,-0.124934046854396,0.118043124495613
12,9,4,0.454488813382907,-0.0530005187824949,0.0440801925410104,-0.525216906349227
1,10,4,-0.419655584930103,0.0265292163911624,0.272870008354882,0.581395819164832
2,10,4,0.252169248416936,-0.0166280111917626,-0.773849134581095,-0.0629396279949475
3,10,4,0.233235689668238,-0.0291788748008541,-0.58059585553346,0.157042353872213
4,10,4,0.16940483520264,-0.0206824480111799,0.47103833668983,-0.675381434822501
5,10,4,-0.202428941548291,0.0131784379516637,0.018589103900162,0.412655396612498
6,10,4,0.0779008212424872,-0.00657865021384354,0.121262585654215,-0.180931116171037
7,10,4,-0.189470332473432,0.0178327946386052,0.129420588213186,0.205549564986958
8,10,4,0.198745306206402,-0.0210495339593489,-0.372200284086347,0.0200008772079556
9,10,4,0.0462853733063963,-0.0147159695192685,-0.141992497220231,0.375698760303638
10,10,4,-0.522950040776277,0.0430326969891432,0.38652566859024,0.425273069572218
11,10,4,-0.178055450329415,0.0101787781504045,0.0882805499201327,0.413681864411282
12,10,4,-0.12198185421116,0.00736863079547483,0.00865372814586988,0.39291113238558
1,11,4,-0.30065621217162,0.0214273101374932,0.150877870660554,0.525240622753912
2,11,4,-0.0181698675296574,-0.00204892067496991,-0.10171390206422,0.229257749054723
3,11,4,0.535667637139031,-0.0473367433897278,-1.69522211943586,-0.0509194521695067
4,11,4,-0.174591276694418,0.0130288095205161,-0.0968992812340987,0.441711578842969
5,11,4,-0.323928660069536,0.0175194937313988,-0.0375830693284122,0.792926866840157
6,11,4,0.00971961745411025,-0.00222381520015027,0.0256452063889122,0.00806796064722996
7,11,4,0.254754087613009,-0.0236182089828857,0.226857846433173,-0.310814236238438
8,11,4,-0.169663520796795,0.0127584491907915,0.0626462762540718,0.297922064136964
9,11,4,0.209247517228434,-0.0200672439394782,-0.237714715460384,-0.048965838684592
10,11,4,-0.0786219493244876,0.00399161646062608,-0.0558292801559274,0.25045211803034
11,11,4,0.129207047144257,-0.014565325791748,0.281878409863399,-0.353426628953418
12,11,4,-0.0866392167347491,0.0066387863879464,0.00476261290486313,0.112675902763933
1,12,4,0.0669736912217122,-0.00691092106638233,-0.358336888396797,0.116185457996673
2,12,4,0.0370957161369398,-0.0162641254619287,-0.232185274005509,0.358922163774252
3,12,4,0.247617667711709,-0.0303975294579181,-0.501987194003027,0.11446979285612
4,12,4,0.0443356974123314,-0.00361571666428416,0.526182496753451,-0.473739904769201
5,12,4,-0.161676198924834,0.0155463908689917,0.0779928692369821,0.137654750914854
6,12,4,0.131499310313456,-0.0262938953877415,-0.401370487139774,0.374195350970234
7,12,4,0.159621856309173,-0.015731461636905,-0.340464103923461,0.0511778517350289
8,12,4,-0.271171641558296,0.0239239573603215,0.152428719880195,0.188552126580774
9,12,4,0.280010558892842,-0.0413737583199907,-0.446805587565758,0.2417169397271
10,12,4,-0.187121012418394,0.0127241953009303,0.117936652888763,0.261330146888023
11,12,4,0.0708559629342029,-0.01352881599328,-0.202820074273913,0.280992299150011
12,12,4,0.200665335083758,-0.0206992506751072,0.0764035033288237,-0.117038192252715
1,13,4,0.272068106391388,-0.029826035076588,0.0404567166619129,-0.464670285198669
2,13,4,-0.114685180667757,-0.00195084712826771,-0.043724213077842,0.493617746615533
3,13,4,-0.0967619560961358,-0.0135949852383755,0.039541895113969,0.637602752775178
4,13,4,0.105640782545205,-0.00511094445219485,0.242647061651933,-0.659827926521354
5,13,4,0.21888368492865,-0.0190245013219145,-0.497198820555518,-0.088089678185681
6,13,4,0.46947199730599,-0.0460441384175992,-0.595862597110482,-0.287701866172168
7,13,4,-0.100877498186947,0.0108238249762159,0.00480847090541538,0.11056678079553
8,13,4,-0.249521185414545,0.019832954295608,0.169625927938035,0.366110990425853
9,13,4,-0.444498591374639,0.0323356474813718,0.171146383966033,0.681684538760993
10,13,4,0.232271544457663,-0.0207840884837122,0.246653931109959,-0.345649658065118
11,13,4,0.088082915119612,-0.00752987945470596,-0.0474058888690399,-0.299246299438295
12,13,4,-0.404747858846026,0.0345383802886497,0.16914858186054,0.286478977002275
1,14,4,0.520752450001671,-0.0506243541582563,0.502448031395146,-0.604053409417529
2,14,4,-0.0407414742401315,-0.00910146606351796,-0.137928943102376,0.426962791816027
3,14,4,0.0084597070285157,-0.00604973593329682,-0.13926617393604,0.191795111297699
4,14,4,0.280808133472986,-0.0340423241498401,0.210349019421172,-0.259692807456986
5,14,4,-0.00636463697630878,-0.00438912257640837,-0.229338228369318,0.32933111968203
6,14,4,-0.402806036747449,0.0271738434434878,0.0554487787381999,0.706580400948724
7,14,4,-0.0497936260514438,0.00405918564344286,0.127397856637784,-0.0431073362426126
8,14,4,-0.230617292051745,0.0209827130542499,0.115886132814465,0.363968519667508
9,14,4,0.276140482798342,-0.0335493151568768,-0.480030271671466,0.132833349029842
10,14,4,0.0149390577823908,-0.00333955213536955,-0.0901218600914818,0.179927380961709
11,14,4,-0.541607889726438,0.0380650161028788,0.217022277536733,0.632878941598579
12,14,4,0.295156556030792,-0.0408070765534127,-0.484036615576711,0.202993030342715
1,15,4,0.0429003504355037,-0.0024646280486314,-0.195013212768633,0.0533430884211174
2,15,4,-0.344184568548414,0.0185115069279453,0.236994591301482,0.603428579032481
3,15,4,-0.224163511360027,0.00857206324885253,0.132603894836286,0.541113839498752
4,15,4,-0.54282593801727,0.0323103568553462,0.0779587624453747,0.893321017123482
5,15,4,0.12191773862953,-0.0130326758609922,0.0330574877756361,-0.139262739002582
6,15,4,0.228947125456559,-0.0233612656698993,-0.394760361004981,-0.085287860466525
7,15,4,0.466460966062369,-0.0417715388738439,0.436614403010447,-0.553552662324269
8,15,4,0.278202402405187,-0.0234697024403988,-0.11011740347311,-0.255413751306413
9,15,4,0.359734550831751,-0.0378688688308878,-0.13162962054072,-0.2972886153243
10,15,4,-0.167418000756869,0.00695204063215335,0.119775855344586,0.39053153173729
11,15,4,0.0146267835726125,-0.00398009546289113,0.253739498199909,-0.214884476487272
12,15,4,-0.61206728313283,0.0410343362931169,0.0552016052117466,0.794061747810487
1,16,4,-0.171588567254803,0.00649171701877271,0.0239120858781501,0.392519785792621
2,16,4,0.16102959533201,-0.0172839893483577,-0.039332251736984,-0.159291823551665
3,16,4,0.441449388782063,-0.0441034264632984,-0.957986096151386,0.0101927547634501
4,16,4,-0.0161086936921428,0.00421406156896228,0.471344663870408,-0.390012076262273
5,16,4,-0.0875417174276169,0.005892825085275,-0.0628010222429628,0.211264888571439
6,16,4,-0.342263994389217,0.0269308631041999,0.220662856077243,0.496545922875067
7,16,4,0.467080481896511,-0.0540446085131021,0.438133901438283,-0.571373669531604
8,16,4,-0.183717481862005,0.013339165522971,0.119031403674629,0.0814957108033178
9,16,4,-0.108613781282872,0.0108478418709467,0.171799826173521,-0.064680638600396
10,16,4,-0.194433798177197,0.0149341919573538,0.130248699851025,0.287487763683772
11,16,4,-0.152962358951255,0.0140048981797006,0.244726250890541,-0.0132868948874782
12,16,4,0.153994507008397,-0.0143906054549196,-0.00420030675505112,-0.161944784842657
1,17,4,0.349324319694226,-0.0152422758119894,-0.923013695408324,-0.100660944441556
2,17,4,-0.142836381287619,-0.000663350985569466,-0.00994823477513016,0.538947415235845
3,17,4,0.589738260239544,-0.0411086122355334,-1.6103322770105,-0.233488276504368
4,17,4,-0.0859570831089519,0.00439766953818208,-0.0515666583214422,0.352288178906482
5,17,4,0.00976549704683412,-0.00564415016754608,-0.137074662309726,0.269056062676545
6,17,4,0.0849577407218705,-0.00535847207410972,0.0801279488036622,-0.237189717193782
7,17,4,-0.303923798043225,0.0232441892704458,0.241187841333613,0.339456807109808
8,17,4,-0.0897193092129394,0.00121285602681667,0.0021468239835939,0.381248935744277
9,17,4,0.117516328766436,-0.0198449621458375,-0.230120758018778,0.295572783606313
10,17,4,0.0278307058404987,-0.00518213040706687,-0.00117866813528172,-0.00627046978439484
11,17,4,0.222702445059131,-0.0257178721093099,-0.454145581010618,0.0476923536955504
12,17,4,-0.364733949600225,0.031238961298395,0.170385991522248,0.277796695146836
1,18,4,0.292503551295415,-0.0284567446063764,0.268561004762408,-0.452372356231063
2,18,4,-0.340672130173776,0.027432180911129,0.227547638657201,0.277940367615172
3,18,4,0.72135840088196,-0.0682990550848171,-0.596152609369651,-0.838642625986076
4,18,4,-0.0202077278796626,0.00140386814686468,-0.0894063095894186,0.261494670798027
5,18,4,-0.133643066042203,0.00266540195641632,-0.317515212232748,0.65225986199669
6,18,4,0.0800419934311408,-0.0112341146155807,-0.227592104942385,0.172838576387329
7,18,4,0.0988536099688073,-0.0107069345283837,0.211212236771594,-0.301545247789158
8,18,4,0.221193580217234,-0.022110204229885,0.0402412501630791,-0.318325082323895
9,18,4,0.0523015884580269,-0.00733182456484766,-0.101629509385062,0.0819896455657083
10,18,4,0.369368325669457,-0.0364547121695899,0.363614545818952,-0.490992005655883
11,18,4,0.0461438663057862,-0.0034650515736151,0.356075810502655,-0.420820382537757
12,18,4,-0.410895572858498,0.0342327974245899,0.241861668346003,0.307036230465954
1,19,4,0.23369129585886,-0.0152220718952223,-0.689732390512292,-0.0245983090523728
2,19,4,0.499969164513721,-0.0298054388662042,-1.32559094718484,-0.407967363819757
3,19,4,0.150905596902917,-0.0145604589798824,-0.487285933605364,0.0604883272273856
4,19,4,-0.0836222183990468,0.00608302737164999,0.00432342497336668,0.158104469023458
5,19,4,0.0704465488483815,-0.00855971518771874,-0.0762221636124433,-0.112130546362422
6,19,4,0.380548003888083,-0.0468174544345827,0.365383902747265,-0.607844622884915
7,19,4,0.079466386680344,-0.0111337668525942,-0.269622437492678,0.124901901761772
8,19,4,0.219664925743006,-0.0234235154761071,-0.440849336730099,0.0619858226490121
9,19,4,-0.457253495376249,0.0370120146035641,0.216266044084848,0.341350893622656
10,19,4,0.235113594944905,-0.0204274492829314,-0.298877912745129,-0.199162641287124
11,19,4,0.0528694653188999,-0.0060517832709361,0.0419765514127297,-0.00389548663651076
12,19,4,0.431407440842595,-0.0523242392288397,0.13504327585235,-0.676445387222987
1,20,4,-0.0446101758927282,-0.000183665548127211,-0.218446315577315,0.312628281234323
2,20,4,-0.363203475751424,0.0258740499202456,0.241784976248424,0.393613986091781
3,20,4,-0.470963251366809,0.0320160211332867,0.307373704726762,0.623891515084448
4,20,4,-0.569402769863175,0.0301456665407974,0.165100603745911,1.21146976912963
5,20,4,0.267307085738408,-0.0295091058427277,0.344316710878304,-0.510146547413094
6,20,4,-0.379990334637244,0.0235730892042223,0.176826075340564,0.625300235067642
7,20,4,0.117674193226546,-0.0100637310957283,0.119532724348238,-0.216003616218125
8,20,4,-0.0381597430272283,0.00122274740467716,-0.0769085786075767,0.232660132258687
9,20,4,-0.206339400735872,0.0155146527810376,0.130533395458715,0.418159053475642
10,20,4,0.213727019630622,-0.0227845300695423,0.196915231431625,-0.311692534109364
11,20,4,0.0517639584046428,-0.0140063127248036,-0.186235139746657,0.333052068540794
12,20,4,0.0195563662302185,-0.0102291613123763,0.364801266775683,-0.529733559229659
1,21,4,0.474973512918397,-0.0169579115644356,-1.51675686265597,-0.28029518092493
2,21,4,-0.600779745357362,0.0421594355147317,0.427664752405682,0.620736530518317
3,21,4,-0.0141431149478761,-0.0145077538698593,-0.131808604719727,0.470165003780623
4,21,4,0.201998808368961,-0.0244212708698064,0.129717488229205,-0.169448934536528
5,21,4,0.299025261582163,-0.0320506311791171,-0.486253527845437,-0.0529444615489198
6,21,4,-0.145523599661959,0.00299924632036281,-0.0836705160545513,0.539005259033229
7,21,4,-0.052528431611662,0.00388321380495379,0.118849130196456,-0.101864591603794
8,21,4,-0.455922698502816,0.0358325681869508,0.282883691099795,0.363370950712324
9,21,4,0.0626646966581081,-0.0177795386557761,-0.0762447442361191,0.38410820139832
10,21,4,-0.409113261533802,0.0281836664922765,0.269992878887204,0.381391262095424
11,21,4,-0.111432042764902,0.00715445316690091,0.0181804221009008,0.154895239375078
12,21,4,-0.0228744758086984,0.00210922550543561,0.212313233270924,-0.41363899076221
1,22,4,0.211924391865944,-0.0128662028090186,-0.592964185122889,-0.00479387529957677
2,22,4,-0.416220395986183,0.0241299961934554,0.377787926790085,0.496034916984786
3,22,4,0.214287756642213,-0.0203133473714898,-0.355157222118935,-0.0950776868668096
4,22,4,-0.384497975123342,0.0294684304262159,0.345900244880527,0.362599127593742
5,22,4,-0.296475604482899,0.0204235102527961,0.0802215726076264,0.499643434610612
6,22,4,-0.200972799283637,0.00212518438070917,-0.131195242737057,0.691486123141027
7,22,4,-0.31668703902029,0.0254222378228851,0.228954070253594,0.333115560285253
8,22,4,-0.272834444939321,0.0225280202913688,0.148528946036723,0.196523197176983
9,22,4,-0.571691121876844,0.0370102273884949,-0.0805580406001192,0.745248520361154
10,22,4,-0.288065808849589,0.0212876547758957,0.182260421326731,0.358622924951143
11,22,4,0.228227490868605,-0.0220504648803464,-0.383071661311953,-0.0577501583372341
12,22,4,-0.135355713418831,0.0102103918141357,0.0326709673461717,0.277436278770854
1,23,4,-0.148379634291052,0.00680707026805925,-0.0392537172336989,0.413995076134107
2,23,4,-0.028287025313507,-0.00678432432269998,-0.164762540239172,0.356277121718592
3,23,4,0.0877301446140189,-0.0289112935017054,-0.250955890234612,0.450861460447608
4,23,4,0.451497421344588,-0.0571018076217662,0.435082843807554,-0.570127613983445
5,23,4,0.0675048324437338,-0.00822345677673637,0.0191239074626026,-0.0532197338318155
6,23,4,-0.0360111314978298,-0.00275351598860431,-0.166217307757275,0.436401486535333
7,23,4,0.432686953248711,-0.0392047963933285,0.400645181676242,-0.515901051207573
8,23,4,-0.519491856064197,0.0402372328153557,0.301092549610147,0.400152865110661
9,23,4,-0.796568895406855,0.0398367649354317,0.514650462978266,0.000284696333324962
10,23,4,0.328193392090714,-0.0317677822340006,0.344230285252135,-0.492853339397449
11,23,4,-0.458400026739467,0.0402178257949898,0.24286584248115,0.234647848276954
12,23,4,-0.12308195590465,0.0154050807258745,0.124772784496229,0.0369460178026326
1,24,4,0.119580201731018,-0.0107588305115562,-0.506674180915398,0.115999059555188
2,24,4,0.693557943770119,-0.0260333520007945,-1.96112488779582,-0.668231268207225
3,24,4,-0.125621138741292,0.0121724986521491,0.0285145428683862,0.080490896697591
4,24,4,-0.0943560003894408,0.00916917937930281,-0.0522242767377028,0.200864739421751
5,24,4,0.314670250837016,-0.0292966726324404,-0.474574047581105,-0.18049828188811
6,24,4,0.173742334526275,-0.0369074287230319,-0.398077587764857,0.330225609362074
7,24,4,0.0471779294986062,-0.00737515343514246,-0.12860384823878,0.167518179812712
8,24,4,-0.298399928844228,0.019953534082453,0.228397472253134,0.492885473256206
9,24,4,-0.439021098586462,0.0331291643536303,0.164723198825571,0.270438358843816
10,24,4,-0.210070744249098,0.0181737484115559,0.130030931819552,0.123834026429963
11,24,4,-0.206766457917814,0.0175012255624309,0.0996235267611577,0.15968100433894
12,24,4,0.31837138763354,-0.0339984378753705,0.223827830697363,-0.285963869223538
1,25,4,0.103835792956086,-0.0104449142467926,-0.492882608654671,0.139045773150369
2,25,4,0.0563186959095745,-0.0254493982207055,-0.221359610103023,0.478527892505183
3,25,4,-0.425581186094759,0.0410104974252098,0.300038019654107,0.0679469819111637
4,25,4,0.261543762320667,-0.026053306791795,0.133424413564845,-0.371982288156805
5,25,4,-0.276835738240977,0.0197486836942401,0.111281465699647,0.424359059470673
6,25,4,0.451745015037546,-0.0441853210350278,-0.846427013865543,-0.159510983256984
7,25,4,-0.135900905442209,0.00796895482385671,0.0631454468292404,0.267175023637338
8,25,4,-0.115951485971461,0.00421213982531055,0.0411928841007483,0.376277222729201
9,25,4,-0.0328991084808692,-0.00110467407854202,-0.0643971352140625,0.306087528612389
10,25,4,0.335974663384698,-0.0281158699658403,-0.762377227701367,-0.113787694567662
11,25,4,0.570477883274387,-0.063682477244796,-0.189001108630962,-0.596099658059331
12,25,4,-0.187633030061384,0.01606886495967,0.13196328357198,0.0335747367481277
1,26,4,-0.00313664533304263,-0.00282843207405498,-0.273916988279138,0.213149826676942
2,26,4,0.111174067985582,-0.0158976376726567,-0.414456631094929,0.225974644787672
3,26,4,-0.214844326750221,0.0140799193663051,0.0583303110813819,0.288378539722068
4,26,4,0.201437237711219,-0.0310198715932951,0.0877619080013124,-0.0653576428082889
5,26,4,-0.375320273085117,0.0229998874330322,0.0275872044286842,0.8017364061743
6,26,4,-0.0280605225621609,0.00134838737609616,0.289104904782847,-0.234802089849021
7,26,4,0.0809226106845942,-0.00867901722343608,0.18451546775249,-0.238851462286152
8,26,4,0.16067492170249,-0.0139319189810973,-0.0370900200601033,-0.313623018509662
9,26,4,0.407926677125334,-0.0437576548870797,-0.308019369386629,-0.224807556030151
10,26,4,0.208960288086757,-0.0172718109819856,-0.491454573831571,-0.0243661089317998
11,26,4,-0.188188638047882,0.0150028617893997,0.0896842373290665,0.232465714832391
12,26,4,0.444257982698015,-0.0374473210548541,-1.18497806159808,-0.0278303282314699
1,27,4,0.107103604627458,-0.00816454274404901,-0.418489203902187,0.0669416393797391
2,27,4,-0.312074662901368,0.0204863210770361,0.196151035918975,0.499818856364771
3,27,4,0.586763173810151,-0.0449336772670676,-1.31649441950902,-0.299231766724775
4,27,4,-0.091218368090289,0.00546669659529853,-0.0332784584579249,0.251735410336318
5,27,4,-0.201131212872836,0.0175328929994953,0.130622635747081,0.205982825413178
6,27,4,-0.253508633114502,0.017317401734313,0.0714972606307166,0.464810120385008
7,27,4,-0.440242357497972,0.0325947655000736,0.323805163587096,0.395708388950403
8,27,4,-0.110949669778426,0.00886552560280461,0.0352955061448244,0.194780151587721
9,27,4,-0.231521151047903,0.0189253164731341,0.124360210069048,0.332537352640903
10,27,4,0.258426572451947,-0.020744422574307,-0.398419766625108,-0.195270159906267
11,27,4,0.317226940856315,-0.0329416791052934,-0.609879960386516,0.0140868930895674
12,27,4,-0.055995075322378,0.00359538788291808,-0.0357343919081768,0.257619036302968
1,28,4,0.221527992313415,-0.0149676065832316,-0.439947325745162,-0.181487971563954
2,28,4,-0.271252520436104,0.00956153857867873,0.0852568096350633,0.651787345317745
3,28,4,0.294163345047337,-0.0285381612504321,-0.282144755736063,-0.204687360354632
4,28,4,-0.116577024062004,0.0019286220060036,-0.18112196909088,0.475294692340353
5,28,4,-0.381483837608821,0.0287627645451404,0.186814610897856,0.470952125731885
6,28,4,-0.310692302679051,0.0191166979640256,-0.0193136472255089,0.69744407004524
7,28,4,0.317136556573333,-0.0434986704150576,0.533653085844996,-0.709540922658647
8,28,4,0.0924081937996597,-0.0137497754114301,-0.229984953034193,0.23008286395681
9,28,4,0.182915980669707,-0.0176810047177671,0.218039630101409,-0.354190534102578
10,28,4,0.320817542236219,-0.0375368301652709,0.446535968730327,-0.595639708627035
11,28,4,-0.673786536377467,0.0475908204787514,0.446552788602387,0.284590260671893
12,28,4,-0.772510646596298,0.0503285242832073,0.268431318695305,0.734137402994432
1,29,4,-0.121036217050822,0.00205638395728829,-0.0767136532523883,0.488580391958963
2,29,4,0.0432395433330021,-0.00381740401670768,0.0209647005076803,-0.0319083502564339
3,29,4,-0.275085434841005,0.0174162214566669,0.186686568082103,0.384586666133996
4,29,4,-0.45860712735936,0.0303442131028447,0.182930430770481,0.703196613972296
5,29,4,0.0196282885338092,-0.0150819218071317,-0.335493196993288,0.3977326156459
6,29,4,0.00938376665982746,-0.00481172572559479,-0.100595085337428,0.276817382510433
7,29,4,0.1062024365889,-0.0113647221387838,-0.315471328326914,0.110511523707017
8,29,4,-0.0551448956681018,0.00496180797550801,0.104043029104246,0.0098907603462993
9,29,4,0.46671968572261,-0.0536685141765043,-0.824150035529185,0.0206993287150275
10,29,4,0.0837852472746331,-0.00720362945104536,-0.178592834826944,0.00410449732962894
11,29,4,0.270100633952871,-0.0214864333534632,-0.31014797290195,-0.217272390200961
12,29,4,0.64963063350657,-0.0770706538965719,0.069773712511086,-0.581023871157965
1,30,4,0.226530731141623,-0.0151362658945003,-0.738923421455174,-0.0150995155587183
2,30,4,-0.358229725908239,0.023946669597675,0.188468540317321,0.561665488751774
3,30,4,0.434637161467719,-0.0383928153038173,-0.893791383490666,-0.147933290931116
4,30,4,0.153065401706825,-0.0153482384713037,0.0112576939258982,-0.0851575284681718
5,30,4,0.485970948375946,-0.0569980536864106,0.194338684020793,-0.344819111773227
6,30,4,0.211453315345476,-0.0192658635008201,-0.448865080669122,-0.0233118055241782
7,30,4,-0.00845591059402739,0.000886285988670856,0.0873560729560871,-0.0625939965096733
8,30,4,-0.0416405581104292,0.0014878291528109,-0.00747436258054754,0.19798707451815
9,30,4,0.342153979990768,-0.0343262650582888,-0.432648454226068,-0.108349708234267
10,30,4,-0.325329931533492,0.0235218533616211,0.236713787928612,0.268837261080786
11,30,4,0.608274689379518,-0.0778379653403178,0.114607747034302,-0.711182960801528
12,30,4,0.12278192462908,-0.0216150182837924,-0.227571754023302,0.303720421171005
1,31,4,0.166083172863228,-0.0147075044679864,-0.611818035343001,0.0905082491533407
2,31,4,0.232393941978342,-0.0161499895160094,-0.303612244845044,-0.263792421891732
3,31,4,-0.120461460864651,-0.00580904478615616,0.0876621860428211,0.525470244037095
4,31,4,-0.061977958885752,0.00490065937440106,-0.0740575050429907,0.14869737014496
5,31,4,-0.132987891519534,0.000370063873424896,-0.229388375237541,0.547301676169332
6,31,4,-0.206197751646991,0.0142669584095966,0.0795135153472081,0.403535281547131
7,31,4,-0.0454285296289035,0.00371967591637507,0.000439921839304351,0.0258013232423981
8,31,4,0.28062168186517,-0.0296223400097317,-0.499986235849468,-0.0651519207222292
9,31,4,0.189705146311335,-0.0138037199459262,-0.411356451707724,-0.145525017084534
10,31,4,-0.0563056574556642,0.00330617657535095,0.0998247192045225,-0.00447517321924196
11,31,4,-0.749888829276953,0.0504879476592008,0.538883673806757,0.259599251927182
12,31,4,-0.191780369366353,0.016041484163951,0.0878610535532186,0.104486785300998
1,32,4,-0.20007436544491,0.00958700993718799,-0.0158995900667652,0.376255158061544
2,32,4,0.571272474712642,-0.0297155469235635,-1.38870970722936,-0.502478152663505
3,32,4,0.190183993635596,-0.0310720920827352,-0.448055568990256,0.281904005912374
4,32,4,-0.188559815977121,0.00575540700285638,-0.23083570670665,0.711572024774827
5,32,4,0.27648341680564,-0.0236029577565913,-0.509175626374428,-0.10593706624946
6,32,4,-0.232840438873376,0.0211430774126426,0.0681619222709617,0.0777201485025324
7,32,4,0.0402206871394372,-0.00754621030809682,-0.260064272415849,0.193397023458538
8,32,4,-0.122837131632913,0.00838592228973914,0.0224787263002659,0.149532135029489
9,32,4,0.170130913272586,-0.0165389999030928,-0.0186684094312487,-0.227998887119876
10,32,4,-0.105749812979219,0.00195814206867271,-0.0556362573618383,0.283548306647993
11,32,4,0.134844156607046,-0.0131026404677155,-0.331679846609318,0.15851525798281
12,32,4,0.282872973646198,-0.0313065491570575,0.151721316209305,-0.426888246961591
1,33,4,-0.606089656568724,0.0378266538388202,0.29435814406858,0.903373400721112
2,33,4,-0.352907877178368,0.0228171990459843,0.233142949003798,0.438836783860508
3,33,4,-0.0914876574392345,-0.00751047497812722,-0.0308542868701324,0.539565077277566
4,33,4,-0.0646809739326055,0.00268471112313685,-0.0240762064301946,0.252523529265225
5,33,4,0.0365751347752266,-0.00662822921575348,-0.273298172290936,0.212923938361621
6,33,4,0.843519088344693,-0.119691303573267,0.0997471372399149,-0.960396476834343
7,33,4,0.279307919436054,-0.0328958070322314,0.357982883709978,-0.489376739851132
8,33,4,0.00213492883303757,-0.00183296570773839,-0.0602797181977712,0.121135141997725
9,33,4,0.0267296585652128,-0.00224670033468784,0.076193303732569,-0.178179506950239
10,33,4,0.0117953901517274,0.000772518814655793,-0.132970972082774,0.128551461935512
11,33,4,-0.190792221088063,0.0167977463128873,0.135752675761798,-0.123191311657263
12,33,4,0.433116686784041,-0.0475352181416471,-0.46719020303309,-0.0578308937109808
1,34,4,0.0148354510027554,-0.0062493812271664,-0.350520143504148,0.265553494558163
2,34,4,0.356951433986789,-0.0345285239205992,-0.837459296968168,-0.0529192535320905
3,34,4,-0.185038753835533,-0.00133735600816989,0.145223506837512,0.603671126130255
4,34,4,-0.00899553822551542,0.00162998631750696,-0.00477449546970705,0.0161327447190908
5,34,4,0.549597460916782,-0.0753399136460345,0.311897169085335,-0.620430581143818
6,34,4,-0.41175166054747,0.0332228522591469,0.296836864957677,0.210883227044882
7,34,4,-0.203252644798295,0.0170332302028518,0.122646240255974,0.204754960325977
8,34,4,0.105549658285948,-0.0114546604913666,-0.19213732799444,0.0716670339018685
9,34,4,0.0853367448405693,-0.0137078718717324,-0.192014670977782,0.249624506554184
10,34,4,0.358975698357074,-0.0477693964880087,0.521154272770277,-0.681807433861539
11,34,4,0.113743977733596,-0.017491627032674,-0.257333501153477,0.255736697357932
12,34,4,0.392775521951438,-0.0488473482941283,0.303022816770565,-0.406278367558489
1,35,4,-0.0516243258338419,-0.00366342435249443,-0.123033326968646,0.3263765989524
2,35,4,-0.00410293164863032,-0.0241922087975821,-0.152416614390208,0.583372112559729
3,35,4,0.23572129494744,-0.0267139396037067,-0.577014800728206,0.115031319498936
4,35,4,0.0759732828692027,-0.0124931016734639,-0.0150347492372064,0.0779150333614065
5,35,4,-0.0215205126733354,0.00275692094859622,-0.0756356592695878,0.172391734341793
6,35,4,0.540622524822727,-0.0642059535922776,-0.198978083400342,-0.496168508258144
7,35,4,0.355238784507098,-0.0362830985168805,0.374686606142756,-0.496318378098418
8,35,4,0.299521734684297,-0.0237712759581896,-0.685388132609321,-0.0634450428162677
9,35,4,0.15353996994506,-0.0141527261305189,-0.065117141771145,-0.0104147087007637
10,35,4,-0.640786887556083,0.0431502367212076,0.0824887310960694,0.972335529992156
11,35,4,-0.705197621415241,0.0472806444325971,0.194924469468757,0.752089626327058
12,35,4,0.133754993273138,-0.0136435152812375,0.122928786222109,-0.276820865406755
1,36,4,0.251734028700535,-0.0248685328584214,0.282278049606736,-0.396714221226353
2,36,4,0.526742984193146,-0.0274751476786103,-1.4931122036343,-0.376237427375881
3,36,4,-0.4718319360722,0.0272602375252277,0.440253100178783,0.811075634294142
4,36,4,-0.00411681648154944,0.00851806060014522,-0.190954804315363,-0.0871068074995279
5,36,4,-0.31919498919456,0.0250126757475092,0.174793908468074,0.340631813614428
6,36,4,-0.0935960391764325,0.00234896454997251,-0.0866272222467855,0.398650271400809
7,36,4,0.261884099726836,-0.0292307324717277,0.3096794213107,-0.426148543043365
8,36,4,0.211202992034683,-0.0242024476018406,0.284833990385245,-0.421520027081618
9,36,4,-0.440949190634674,0.0326574298188896,0.155419148237479,0.273910369984306
10,36,4,-0.0876393710720422,0.0038719805419875,0.00637004132660102,0.256473067935288
11,36,4,0.73453023706195,-0.099059110876825,0.149923876868042,-0.823739744319857
12,36,4,0.152707606444052,-0.0264289215200361,-0.200963214572876,0.286119009428466
1,37,4,0.119941380394833,-0.00987377612688042,-0.224318574230961,-0.0885311133245796
2,37,4,0.377883920414585,-0.0333695544036284,-0.804075038658272,0.0266107531362004
3,37,4,-0.163545500696243,0.00339559933020799,0.0240051448940967,0.521008828919798
4,37,4,-0.161192682018837,0.0122817914945857,-0.00144942463165239,0.287994553255839
5,37,4,0.28498621562159,-0.0345601166498867,0.31182066709066,-0.505607007882001
6,37,4,0.182944365822357,-0.0180861573902887,-0.0175416668059741,-0.204126393446669
7,37,4,-0.183937316557106,0.0135444733409436,0.0547039946769038,0.272193878396595
8,37,4,-0.174596415313586,0.00830195995479308,0.0610198575254546,0.464559390967649
9,37,4,-0.229552738628845,0.0183339660180691,0.153483994709012,-0.0508839894698062
10,37,4,-0.147999471759037,0.0146556455143382,0.10152660688524,0.133331992946196
11,37,4,-0.0782753293490713,-0.00710059196136608,0.0367234893187755,0.381985885089324
12,37,4,0.0802279934288125,-0.00971143632378048,-0.110417881852462,0.0968724416992916
1,38,4,0.194972386750527,-0.0163271801888187,0.251228848810546,-0.279177752942176
2,38,4,-0.0427053229667854,-0.00367559166081822,-0.116758254009603,0.352711355301618
3,38,4,0.189634229107202,-0.023744992790089,-0.332784005721816,0.104390648352841
4,38,4,0.382734489277237,-0.0544349252893612,-0.0357712613788016,-0.372682440064934
5,38,4,-0.554209391251124,0.0395406846426947,0.573514738269253,0.150014647319912
6,38,4,-0.0309308878818343,-0.0056079844057118,-0.195825880835417,0.434759731907867
7,38,4,-0.102519063772432,0.00847829888788294,0.278373442541866,-0.108931671019367
8,38,4,0.147768658664445,-0.0196809274704562,-0.298348753227156,0.0750939727677363
9,38,4,-0.226603375093659,0.0163927751521158,0.086542456526239,0.470443122188348
10,38,4,0.203262965325084,-0.0165156729610065,0.190708241780269,-0.312679604024987
11,38,4,0.438010601057544,-0.0377995846434514,-0.76817547272295,-0.238315833588086
12,38,4,0.320730483786743,-0.027810081893527,-0.431743108014065,-0.342186770019473
1,39,4,-0.215094070896886,0.015310405141572,0.173753161026382,0.282369702549734
2,39,4,0.378762437985912,-0.0389074605208019,-0.152584033685511,-0.428413605058634
3,39,4,0.0152054780446857,-0.0117000529753454,-0.198096666350658,0.351074761343801
4,39,4,0.219472345646101,-0.0244636431875717,0.255316734480939,-0.352516512874624
5,39,4,-0.280943309392138,0.0195644503335353,0.0951683680711612,0.463376635945688
6,39,4,-0.0550534947891836,0.00586716740079462,0.0616601186942336,-0.0286618104340636
7,39,4,0.257976013214658,-0.0184097916258242,-0.676020351234902,-0.0458007664384431
8,39,4,-0.254174105664217,0.0219059098538659,0.170339193321888,0.0255793632562457
9,39,4,0.323308435514997,-0.0397006522255516,0.0881094344192231,-0.692456858950134
10,39,4,-0.250212638737064,0.0188361334627894,0.126788734681083,0.271601004600601
11,39,4,-0.133322043793938,0.00481071805279547,0.00292333020416141,0.443070054938487
12,39,4,0.134264208798385,-0.0124994422980426,-0.0482570725626793,-0.0627710853528885
1,40,4,-0.415433407455975,0.0267019427103433,0.321801388076255,0.533635078600664
2,40,4,0.00993646831832103,-0.00385436497536667,-0.251492078096839,0.214091040103088
3,40,4,0.217303927142023,-0.0258871789858807,-0.590897222382653,0.181534968836013
4,40,4,0.0821000362227687,-0.00137849489521325,-0.15957575222702,-0.165500585858957
5,40,4,-0.256835722088558,0.0151978262083781,-0.0175558648099809,0.590347827116784
6,40,4,0.0608519243779022,-0.00581404958234226,0.0307296536557815,-0.0599629108651032
7,40,4,0.338580348439562,-0.0266107542895363,-0.707317800912904,-0.0836208399065579
8,40,4,0.424218798047669,-0.0388977450477427,-0.757880561665696,-0.177696377511631
9,40,4,0.0509676823305169,-0.0117369351738389,-0.147092251942381,0.294440947612347
10,40,4,-0.220611468516734,0.0188299695105549,0.135349302851893,0.354992607795692
11,40,4,0.126221580133535,-0.0155599098955442,0.281755393290217,-0.414719204543817
12,40,4,0.682423199928848,-0.0812635779952689,-0.0357891509696014,-0.62178014008629
1,41,4,0.405819600952105,-0.0306733726889708,-0.243000028977394,-0.459817905893838
2,41,4,-0.0216229428287043,-0.00412801845375284,-0.144185516365894,0.308216679641516
3,41,4,-0.249148666434915,0.0145767766158887,0.0881118995730031,0.528005351951339
4,41,4,0.0405505969120242,0.00551204063449761,-0.272904140988134,-0.294182227943252
5,41,4,0.185034270491871,-0.015080388959272,-0.290464051198959,-0.143031899213115
6,41,4,0.845640182217251,-0.112908774286769,-0.0787425630324359,-0.914998606408648
7,41,4,0.18380459937128,-0.0166751251277033,0.0698147567125527,-0.258511601653501
8,41,4,0.242318046345852,-0.0310675808479961,0.419422742364344,-0.599862808912945
9,41,4,0.249947858488705,-0.0279290641876172,-0.460913275728018,0.0826770376434831
10,41,4,0.245749757908949,-0.0317933379416932,0.464629264039708,-0.594205419867488
11,41,4,-0.154969295255214,0.00935839808999437,0.0478372964092304,0.357840696564794
12,41,4,-0.106300303407599,0.00981195509454671,0.0758320712651635,0.141292521005047
1,42,4,0.271594890487233,-0.0148555382521899,-0.649680358846649,-0.0214635102094074
2,42,4,0.477342501095357,-0.0364204091793908,-0.706535413956839,-0.48165853855572
3,42,4,-0.0463758459892755,-0.00516780551458842,-0.122850417964491,0.367264965407188
4,42,4,-0.0625635688131862,0.00877429975182011,-0.111268381031966,0.03565402303373
5,42,4,0.166724599842892,-0.0215941232346609,0.182976840593347,-0.182614591040519
6,42,4,-0.0115357769224141,-0.00172733387994126,-0.114431177843219,0.197950592364536
7,42,4,0.299505357221183,-0.0311325871882654,-0.0629593895133095,-0.404443930399959
8,42,4,0.0973986784516225,-0.0116793582767739,-0.253920487685479,0.0757268454964445
9,42,4,-0.00441031433343695,-0.00165047915512259,0.268826896685498,-0.234360203921753
10,42,4,-0.173109762115572,0.0160641919606643,0.113952923715596,0.180635801988205
11,42,4,0.209894976847766,-0.0202883460548267,0.160444647469067,-0.255312853218565
12,42,4,0.352326227654838,-0.0437899905680593,-0.650309904817404,0.0755412040923737
1,43,4,-0.226348257871385,0.0149094443224141,0.072681795372049,0.396320514506464
2,43,4,0.0866872463162407,-0.00965404339289554,-0.248393824840968,0.122235991621013
3,43,4,-0.0249760642916674,-0.000247617257698787,-0.0783472978670361,0.172643490198981
4,43,4,-0.487543534001554,0.0408720130399831,0.307166465321672,0.481325326267979
5,43,4,0.164661663038753,-0.0146703587008248,-0.343164294534106,0.0137165598982978
6,43,4,-0.191035698528569,0.0160225323433505,0.19753137684312,0.115972189552553
7,43,4,-0.12245895891627,0.00826958210042847,0.0721796501736138,0.154525217397753
8,43,4,-0.772484264334189,0.0530346961160483,0.489259868020585,0.281528991457636
9,43,4,0.0561907813831178,-0.00597248948102944,0.035888360901571,-0.179227721512041
10,43,4,-0.04268161439017,0.00109161374465419,0.181855220432411,-0.0783817385900905
11,43,4,0.236716032434421,-0.0236971753588734,0.0854141555753288,-0.174567362891977
12,43,4,0.132000771567629,-0.0222789636454393,0.41854025319068,-0.601713643541937
1,44,4,0.170562568879324,-0.0124367623193412,-0.603044691354297,0.0556357203354317
2,44,4,-0.267882995522093,0.0231952820671759,0.152080725107899,0.26056736983498
3,44,4,-0.333355085483444,0.0223995538311748,0.28800840935876,0.445277293899548
4,44,4,-0.266421440417451,0.0250362931735053,0.173115139954075,0.16741134224328
5,44,4,0.112338247436186,-0.0111908687571155,-0.168275579296791,0.140733145919353
6,44,4,0.271789362339298,-0.0313124640748543,-0.507094702949626,0.133711683683712
7,44,4,0.287762075474135,-0.0289523882972591,0.295822149726548,-0.414723705975186
8,44,4,-0.105697902803843,0.00396869366641741,-0.0187477057765661,0.350947839410742
9,44,4,-0.561151199845028,0.0411615780500154,0.270882593291429,0.48426836431231
10,44,4,-0.264259024819407,0.019779722513644,0.185817678658336,0.337683383980506
11,44,4,-0.0469878605712339,0.00312851344008476,0.00732066643751161,0.161350672824698
12,44,4,0.706344214356307,-0.0820495820994278,0.0460388488288006,-0.553385045495521
1,45,4,-0.258821915878654,0.0189871824742802,0.24431487236013,0.376617230338003
2,45,4,0.351036608601715,-0.0302137602088971,-0.864732227181308,-0.0862714024724421
3,45,4,-0.291155741091616,0.0278982376737921,0.32915647062374,0.0204617191441737
4,45,4,0.254490366161695,-0.0246754176824872,0.336807753302842,-0.448333639170869
5,45,4,-0.236291835347715,0.0168020535631448,0.0625872359549678,0.38790995516164
6,45,4,0.363462221861063,-0.0436648533673275,-0.661911800536128,0.0683800979131582
7,45,4,0.0803917246217491,-0.0114465216333441,-0.329226366727941,0.172462168257429
8,45,4,-0.0989260178936006,0.00748646919410217,-0.00757256193963211,0.213465737583102
9,45,4,0.0818642842382728,-0.0119440805644183,-0.189950839328447,0.221795502766082
10,45,4,0.145179369637228,-0.0133965322863058,-0.292044871898864,0.0628057638621004
11,45,4,-0.394980277394489,0.0318727980782298,0.220484729042669,0.321147398289927
12,45,4,0.281451803431069,-0.031985273360128,-0.420872425236975,0.0571349043094344
1,46,4,-0.402107541127567,0.0267880361382866,0.241079825267735,0.46317430071382
2,46,4,-0.492481692567648,0.027085894884937,0.188066350318164,0.826611630341779
3,46,4,0.280842493876967,-0.0353080388358011,-0.629935597215057,0.165647821181917
4,46,4,-0.457213909053899,0.0298945203370303,0.137773337576882,0.714812745857259
5,46,4,0.464558075746944,-0.0500226527481907,-0.238087871326143,-0.46552508533928
6,46,4,-0.0777180892007191,0.00216330323094088,-0.0761395811194706,0.349270244733755
7,46,4,0.295793678414494,-0.0292385202924888,0.274804605503952,-0.387184838130078
8,46,4,0.348869030411257,-0.0416019057727673,-0.546001466649101,0.142663123006333
9,46,4,0.4462382645142,-0.0527934046508851,-0.736002051892101,0.0404515092393567
10,46,4,0.197867092911787,-0.0138697388547879,0.305039545745953,-0.373199207901831
11,46,4,-0.0709314381314935,0.00616734761743362,0.011192250802868,0.0482839755233662
12,46,4,0.130839705262914,-0.0152365615120351,-0.19604548149683,-0.00689236358516999
1,47,4,0.0851240618475083,-0.0109273754504441,-0.423978982522666,0.166599024046913
2,47,4,0.00906976556771702,-0.0118688581190339,-0.221674774187618,0.394658612372177
3,47,4,0.19987536429246,-0.0468820245393901,-0.350313731682223,0.469677379575472
4,47,4,0.127853490619646,-0.0119432915196904,0.174244665261508,-0.302837323791642
5,47,4,0.106328968112544,-0.0103239751032162,-0.318531495032623,0.0605633453884272
6,47,4,0.199314761213596,-0.0257494007672547,0.242130471292647,-0.399402006111125
7,47,4,-0.127399457882991,0.00865302335049271,0.0171453060039894,0.168814349693603
8,47,4,-0.433853767191727,0.0368132692377163,0.268727679635616,0.286674389740229
9,47,4,0.0567127373663541,-0.00753474851407029,-0.184863916933904,0.11417976790856
10,47,4,0.306187588413121,-0.0234453734445003,-0.717089685341759,-0.093288104069564
11,47,4,-0.0956722497649967,0.00213350081035061,0.00289864685439962,0.377549726017241
12,47,4,0.17150058466075,-0.0178914339628393,-0.14973714128147,-0.0187097710967407
1,48,4,0.154775506322453,-0.0146264711295593,-0.591511850339854,0.103973114398613
2,48,4,0.357741647172643,-0.0263252070535171,-0.870701251982755,-0.0741166042910768
3,48,4,0.324043725656143,-0.0334370378672638,-0.816481151605349,0.0231551138503988
4,48,4,-0.024781652712604,0.012552369438573,-0.16181459690574,-0.226094727619829
5,48,4,0.230019009822043,-0.0203217314895169,-0.25416052077823,-0.176833213736284
6,48,4,0.213248025597896,-0.0267931212246213,-0.283641329001545,0.226872406696284
7,48,4,0.288709361628904,-0.0295013533050152,0.317036608938347,-0.435271190788962
8,48,4,0.451483335194199,-0.0527061705770553,0.0619649088223955,-0.526995557951819
9,48,4,0.158678815198342,-0.0163549365884901,-0.230607941559584,0.032106935899553
10,48,4,0.120749664540566,-0.0152426734498339,0.226185214507674,-0.321976680695071
11,48,4,0.221734665265039,-0.0219309015083711,-0.584013926285435,0.0773065603963708
12,48,4,-0.248269331645097,0.0211200205369982,0.183012743476786,0.269373852520632
1,49,4,-0.204167096292903,0.00680713264227822,0.068167192591228,0.545067428060741
2,49,4,0.101486119371725,-0.00864934771911714,-0.129303911132149,-0.0390718314959446
3,49,4,-0.278911078289211,0.0124484519116776,0.233659983794043,0.607530561509205
4,49,4,-0.0912247521019859,0.00861781243670044,-0.0752198364231904,0.164531135276095
5,49,4,-0.319305688387485,0.0228262777522945,0.258920334395949,0.359562318190088
6,49,4,0.40241231338227,-0.0391912444838237,-0.663983013586125,-0.144607806501735
7,49,4,-0.336015048884819,0.0295233950960427,0.298081638024462,0.321030819027974
8,49,4,0.100682674196594,-0.0117439691269856,0.179354110931094,-0.306395622341084
9,49,4,-0.00693896012955684,0.000873349266394943,0.047642044845124,0.078701633298504
10,49,4,-0.00967120636393447,0.00455617166165925,-0.169760971339183,0.118417481476919
11,49,4,-0.200295218984421,0.0143615813700404,0.117779950257891,0.293487599241076
12,49,4,-0.15396193382236,0.0138346409526973,0.0911169737424683,0.18564311897635
1,50,4,-0.407244096575517,0.0253572514628225,0.31522839864509,0.51433677717522
2,50,4,0.330976652020382,-0.0279682156906867,-0.474036119946376,-0.270454004178978
3,50,4,0.29877057698109,-0.0377985498743241,-0.705982343284268,0.133752997983056
4,50,4,-0.0971405068894163,0.00682846065758349,0.00662782935481782,0.169258793127042
5,50,4,-0.170838065236891,0.00900126803327238,-0.0622751227328338,0.443026591766052
6,50,4,-0.00660700766192464,-0.00259050453235338,0.251049735714665,-0.337027903969849
7,50,4,0.460074334061741,-0.0444889964839053,0.461130907255576,-0.59469759548073
8,50,4,0.185945376375764,-0.0193562030478471,-0.357057946901856,0.0290497318622669
9,50,4,0.301867719054041,-0.0325211817983548,0.130742814319796,-0.502138868454134
10,50,4,-0.00201575056880275,-0.000648890579955289,0.0646891478926327,0.0135691672407009
11,50,4,0.107508640161028,-0.0113394577912357,-0.342496390463943,0.0899087247357622
12,50,4,0.663779832056406,-0.0616070441855383,-1.21420487815261,-0.270456054653687
1,51,4,-0.00968031165023217,-0.00197152904295616,-0.233580696262048,0.219844762058413
2,51,4,0.0358836159252404,-0.0145258024418904,-0.249349290691107,0.369703214908288
3,51,4,-0.206481754179241,0.0149893077539264,0.0868618083205285,0.337043609533988
4,51,4,-0.600151072708027,0.0352007983354991,0.103139432451898,0.958752063500503
5,51,4,0.38471620322696,-0.041682996769634,-0.0998789489951072,-0.580394800436125
6,51,4,0.042570166594855,-0.0220056243076057,-0.18933158228765,0.533442836970931
7,51,4,-0.70975645802578,0.0489856677389819,0.398650522729596,0.540916774074426
8,51,4,0.738302571431381,-0.0714565440943264,0.097931871082394,-0.77231733145895
9,51,4,-0.0322753771048536,0.00196578771751832,-0.0937436140623971,-0.0324360116506714
10,51,4,-0.0291927464021849,0.00250979555726749,0.112805807129979,-0.124820213708088
11,51,4,0.778963286430232,-0.0777661765273654,-0.652769143844803,-0.834161900757582
12,51,4,0.299977650569113,-0.0306991771947297,-0.166973621511601,-0.29648069819304
1,52,4,0.323774357325124,-0.0242089998583454,-0.151674065195925,-0.318720278600721
2,52,4,0.113682079871829,-0.0120504300649875,-0.227453587089732,0.0146563254529089
3,52,4,-0.524329498650933,0.0401778424800556,0.283912728335562,0.458661907900628
4,52,4,0.275015136246407,-0.0432667044290448,0.595569683442539,-0.864991053441219
5,52,4,0.192131603771349,-0.0168553453558049,-0.292547702761033,-0.119372048380093
6,52,4,0.0396303076628989,-0.00729468654742693,-0.202455624624337,0.211801911838318
7,52,4,-0.0756971034145754,0.00478579104757067,0.110768555475385,0.0303553738457372
8,52,4,0.348369544753542,-0.0330979486937279,-0.318169398529751,-0.294006098820406
9,52,4,-0.0989385888712363,0.00843265125365084,0.00205393983764936,0.116674454782604
10,52,4,-0.0328151718227259,0.000928530019824056,-0.104899879104333,0.202605681379235
11,52,4,-0.497952433944428,0.0395055128347872,0.286000630449632,0.377352383880292
12,52,4,-0.0448832735827882,0.000613734908894294,-0.0453934218401207,0.323831677041902
1,53,4,0.409172520370768,-0.0334181002482152,-0.149929098028879,-0.501084737980959
2,53,4,-0.0727453112092264,-0.00626115533845508,-0.0769180991503221,0.387761238776045
3,53,4,0.0777429435310724,-0.0100903191434508,-0.0608673503911317,-0.0641526583365047
4,53,4,0.0491783752662101,-0.00828477519953188,-0.0355541691522141,0.109026467584834
5,53,4,-0.098391963832792,0.00650977804191002,-0.0426704283512528,0.253729605651654
6,53,4,-0.254483650148067,0.0151377339469204,-0.0835291201650518,0.65918726164471
7,53,4,0.140285873132061,-0.0168274688703137,-0.163826743566317,-0.0699007085128314
8,53,4,-0.0924021689663099,0.0016210786673707,-0.0429782737024304,0.373399649320374
9,53,4,0.216277371424257,-0.0196951085872409,-0.149346391955534,-0.234560335075398
10,53,4,0.0596526837814698,-0.00680849953134632,0.0119221439227,-0.0691393300624681
11,53,4,-0.291937113609752,0.0238428632759658,0.19449430563461,-0.0163762821268209
12,53,4,0.234993897679233,-0.0262141597853605,0.274879993427445,-0.411158171033435
1,54,4,0.502050800437387,-0.0441138436545584,0.445740291486214,-0.529998609159861
2,54,4,0.229786488091416,-0.0259060370238429,-0.557805886175598,0.173746213950494
3,54,4,0.144086385174298,-0.0286663327392127,-0.34424618743267,0.333357814130509
4,54,4,0.35804562402312,-0.0446126807767808,0.127527419727925,-0.48427475642545
5,54,4,-0.0543787084492036,0.00861177890216566,-0.11967458691766,-0.0814437987000294
6,54,4,0.0250802425449449,-0.00411208607399832,-0.185258308452763,0.109322102546511
7,54,4,0.173965418707494,-0.0203262293702519,0.276754022047629,-0.385382829850078
8,54,4,0.00988414783924507,-0.00725655747987885,-0.141879251741344,0.303169456939596
9,54,4,-0.152339964672262,0.0122708824593279,0.0864241112621203,0.341902737968501
10,54,4,-0.0713428984819339,0.00309762692858909,-0.0923632576735896,0.304179182488022
11,54,4,-0.24102722289013,0.0164411217866638,0.130362955867827,0.425626792952878
12,54,4,0.210699560551869,-0.0229928158626,-0.196093061606407,-0.091412478057697
1,55,4,0.0680173083608394,-0.00605427646063133,-0.220795857137953,0.0167821267890626
2,55,4,-0.130920979928079,0.000752425998739331,-0.0280176373926649,0.474677933557016
3,55,4,-0.258152837625561,0.0133260620592057,0.111013195664906,0.542054093339143
4,55,4,-0.467240335517124,0.0337464675431161,0.260480551255424,0.545490387081107
5,55,4,-0.349195793948878,0.0204400739524666,-0.00421757595967361,0.699906753169065
6,55,4,0.00549919970647135,-0.00360510162282323,0.238878863832495,-0.221284489551938
7,55,4,0.558839978544084,-0.0642819539399562,0.607543934112483,-0.785336548709092
8,55,4,-0.264548531863793,0.0229953858935445,0.130496433182769,0.256587576924556
9,55,4,0.120959262037298,-0.019112284475103,-0.244481930751741,0.282922463487685
10,55,4,0.409953169495013,-0.0431732658627538,0.448475562039155,-0.598123041862314
11,55,4,-0.00643925589854842,4.93957149067277e-05,0.41228316122609,-0.432740496570573
12,55,4,0.107486699900784,-0.0111122500694195,0.244213995552441,-0.312960846643974
1,56,4,-0.0915601966814568,0.000216340258864074,-0.0605465457488389,0.367143539773422
2,56,4,0.310627051776339,-0.0236212483928062,-0.788338426170189,-0.114537946822224
3,56,4,-0.294362195874757,0.0193565980911004,0.144509389171428,0.501429784356963
4,56,4,0.1816103512137,-0.0195251556096002,0.287822813452472,-0.396820947247839
5,56,4,-0.0671062092299617,-0.00374587567051342,-0.338912525548208,0.530307390390095
6,56,4,-0.447632927968971,0.0283964833280871,0.0633640271118084,0.801809323945484
7,56,4,0.0192178655283751,-0.00128686923052834,-0.169049654368562,0.100502491106426
8,56,4,-0.543317054830693,0.0351479579604164,0.03674149620493,0.75782160435698
9,56,4,-0.147570783493129,0.0101409193353163,0.14150035406827,-0.107667696709906
10,56,4,0.152262799064589,-0.0111284002723469,-0.286452338408928,-0.0747802083584495
11,56,4,0.181381922002686,-0.0189745565398386,0.137755811941837,-0.263739499641837
12,56,4,0.0579785954179554,-0.00461071054755404,-0.0661155627329644,-0.236043546837536
1,57,4,-0.481450327324199,0.0355418589654349,0.311419256855433,0.509948727527528
2,57,4,0.517745630777151,-0.0361153088002332,-0.919903130061821,-0.488475369785807
3,57,4,0.520159267170867,-0.0470162246410718,-1.10988351361454,-0.0578440977183663
4,57,4,-0.493999563176162,0.0284193706547395,0.286336885232677,0.507320275776797
5,57,4,0.334125382155758,-0.0388034742278742,0.318773436645082,-0.465974493940427
6,57,4,-0.0620628035788394,-0.0105885283120331,-0.168517840620824,0.528357917410974
7,57,4,0.397543671021202,-0.0278601715280523,-0.781777631640183,-0.315975824948653
8,57,4,0.0472231118580489,-0.0107478835844551,-0.176423736934717,0.264769731823351
9,57,4,0.340791218781469,-0.0344172624388106,0.185733765582345,-0.298518483042893
10,57,4,0.275953818878201,-0.0202245134360572,-0.610914632683866,-0.140802374216702
11,57,4,0.276887284714908,-0.0304026507625654,-0.494684470826629,0.0207562424161847
12,57,4,0.204162265503363,-0.0306252688501834,-0.354564776424241,0.239990588496462
1,58,4,0.0386937908028321,-0.0050813890380298,-0.317074728227408,0.142462567164408
2,58,4,0.305092295099254,-0.0266841697151759,-0.750017600670948,0.00611080282828654
3,58,4,0.024630706969271,-0.0107229053180549,-0.201565813047817,0.324701058447808
4,58,4,0.124585253045707,-0.0107824003818852,0.24706225153804,-0.407338993962212
5,58,4,-0.217423769630274,0.0162896205855661,0.0965515077878771,0.314246550533746
6,58,4,-0.0858797249950918,0.0066982806405523,-0.00640642215171418,0.272243767503586
7,58,4,-0.0893091536618403,0.00721345577477365,0.198368906694294,-0.04228681258697
8,58,4,0.332809203730363,-0.0383833616823625,0.300402770384318,-0.434596551123644
9,58,4,-0.25184783809046,0.0188093858262268,0.185147503368577,0.273707921003186
10,58,4,0.302090823163811,-0.030049832986962,0.304479233661382,-0.421759660387974
11,58,4,-0.360309002851608,0.0295177358276328,0.225119072130134,0.135438658758909
12,58,4,-0.133725626884245,0.0117898011775784,0.124465384781778,-0.0532850139572472
1,59,4,0.112343155291635,-0.0116683171793371,-0.483683237046888,0.155123718092412
2,59,4,-0.307729270657445,0.0245111999801897,0.186344780289984,0.27630156449518
3,59,4,0.133877478963898,-0.0258908946004971,-0.344512037283905,0.32068079454081
4,59,4,-0.133765079474616,0.00969301808685185,0.0320318917874944,0.0871693398555231
5,59,4,0.0262347391890023,-0.00951674840526861,-0.398774215217814,0.431956066496491
6,59,4,0.208188557471201,-0.0207715326735224,-0.297579046932383,-0.0776168619162856
7,59,4,-0.212620701212794,0.018100216162374,0.206069001952363,0.221450181215478
8,59,4,-0.428930376802203,0.0328644836632387,0.232706890758623,0.322386021473384
9,59,4,0.17186114486295,-0.0131531906555699,-0.164381867671872,-0.0501438309531888
10,59,4,-0.257091415082457,0.0197168993808487,0.179536924835696,0.22178427066418
11,59,4,-0.34389501975141,0.0256190208244188,0.19906048366582,0.464726628313191
12,59,4,0.105109473738494,-0.0173465073832916,-0.220118358940895,0.250528810542513
1,60,4,-0.0827154924953331,0.0033026625044845,-0.163032812056773,0.344396929702059
2,60,4,0.177957125673656,-0.0254219387614291,-0.480518434949639,0.251863894072726
3,60,4,0.202949150045084,-0.0314993620612674,-0.445401312043792,0.261303302290152
4,60,4,0.262538212483297,-0.0335630002439584,0.0458746463761022,-0.297125257735147
5,60,4,0.232136605865553,-0.0266850818291248,0.131217802241362,-0.183285768520671
6,60,4,0.226386252213268,-0.0240267654312407,-0.402622019388742,-0.0522650056529422
7,60,4,-0.27046488989454,0.0223084578915764,0.163260240385667,0.26457109479836
8,60,4,0.40507465387651,-0.0373475741363535,-0.634965635379039,-0.220003273765934
9,60,4,0.634732329413205,-0.087330393984669,0.475645025053974,-0.702090674504279
10,60,4,0.455034419270063,-0.0561093947768282,0.555380533928245,-0.733358917703
11,60,4,-0.4514562752067,0.035430790831469,0.205987966943358,0.420325717614403
12,60,4,0.341714673095791,-0.0364470300400941,-0.0218630340935758,-0.419351127503902
1,61,4,0.333296741880992,-0.0167578627504437,-1.10611011973729,-0.13674985036778
2,61,4,0.20149110606796,-0.0184837099550494,-0.49461468419161,-0.0291702428286015
3,61,4,0.00138166130478529,-0.0067201339969787,-0.172759023281412,0.303619973602625
4,61,4,-0.59991926877617,0.0435868585186478,0.380891349167464,0.515923801664938
5,61,4,0.170589071339712,-0.0190169405657419,-0.44071177076722,0.0888324975703843
6,61,4,0.218807004293547,-0.0233417194037263,-0.3640279248046,0.125976058059972
7,61,4,-0.145736859202449,0.010566862162718,0.0987359464695541,0.180527249620369
8,61,4,-0.445419192717934,0.033939697503659,0.251574789961365,0.499009792827959
9,61,4,-0.0191178200194613,-0.00329047608666455,-0.0801736148197157,0.318445832697339
10,61,4,0.427433747122432,-0.0516654796672964,0.530739765925178,-0.695099620522086
11,61,4,-0.118647869800743,0.00868214893958998,0.0210451138401927,0.258230819686868
12,61,4,0.325194323579495,-0.0277517856602361,-0.335550257270656,-0.180155655339353
1,62,4,-0.137470101205195,0.00336909909233131,-0.0145511969121285,0.379051474488859
2,62,4,-0.376251693871309,0.0229083667673677,0.240309123392467,0.581677278169675
3,62,4,-0.181065977500435,0.0044793355795556,0.0879505391173249,0.481945412207936
4,62,4,0.134754183548434,-0.0151327778114962,0.0369549672824295,-0.156463132882148
5,62,4,-0.00979148350190803,-0.000149272539233281,-0.109974267745344,0.211754927954681
6,62,4,-0.105659106849858,0.00395514714463346,-0.298645402033194,0.566189860969735
7,62,4,0.071335441305231,-0.00699040696612361,0.0206061200840145,-0.102482522728379
8,62,4,0.10046194411353,-0.0121828802985477,0.0312287227517154,-0.169848590271207
9,62,4,0.263298100907282,-0.0344999766368552,-0.40420818501451,0.198860556699603
10,62,4,0.177975713384176,-0.0189288017387825,-0.439357591765958,0.0705720047026728
11,62,4,-0.0297021082997942,-0.0035621519404824,-0.0846650820523248,0.32770666768349
12,62,4,0.283492413234851,-0.0415911029780093,-0.39648244262464,0.235120212787047
1,63,4,0.134513501240307,-0.00734066405996934,-0.422123601744301,-0.0320486099535185
2,63,4,-0.0418576442549371,-0.00299938625133705,-0.134723656255565,0.331463584641874
3,63,4,0.341723822768917,-0.0324794714850598,-0.790621103726563,0.00213305968439638
4,63,4,0.499324925332061,-0.0660079026658526,0.237592620118812,-0.691218479279821
5,63,4,-0.65909512876831,0.0491323549360456,0.362836655558139,0.533615546635354
6,63,4,0.316407079858171,-0.032871423463155,-0.536330047083845,-0.0518644240306858
7,63,4,-0.00158498485178974,0.00251713142371083,0.0140934609860219,-0.0431795809298728
8,63,4,0.556256165154121,-0.069203392350102,0.183448197492884,-0.671347970121033
9,63,4,-0.00183486091903146,-0.0121448243427877,0.0278608147352037,0.606219835066637
10,63,4,-0.211125447782317,0.0167063211360492,0.190964807192357,0.0894528428992135
11,63,4,0.293677582835077,-0.0247351092136793,-0.420557888241849,-0.169206921099483
12,63,4,-0.167936550676192,0.0142612417747292,0.115556875343607,0.00645083170885258
1,64,4,0.133414254519999,-0.0135758013129653,0.24732763024796,-0.286766146968023
2,64,4,-0.449057968667111,0.0307959088889848,0.275379035784237,0.466557887795829
3,64,4,0.110204928731506,-0.0203751904923088,-0.214579050628346,0.294050884075005
4,64,4,-0.167648939661657,0.00989304156302739,-0.156604832132484,0.499882115472416
5,64,4,-0.167481254641221,0.00100586657464138,-0.299097479105953,0.759057331171311
6,64,4,0.766307887434813,-0.0874658092199399,-0.461176536601977,-0.775810083152095
7,64,4,-0.45119634958963,0.0362844314483566,0.207035877579954,0.343980726912737
8,64,4,0.193860514449658,-0.0202070174802305,-0.361545560471173,0.053642592142178
9,64,4,-0.436543328486375,0.0332971401935096,0.229558396326426,0.185206907590205
10,64,4,0.0302705871531752,-0.00400429027657365,-0.0465989373317538,0.0804018165694786
11,64,4,0.032432709627309,-0.0128836895523823,-0.141414650594572,0.346525310805421
12,64,4,0.317431281213631,-0.0329206535550249,0.21819645122699,-0.376153513941661
1,65,4,0.172103806385877,-0.0118961128841983,-0.584386427110666,-0.00444539650509075
2,65,4,-0.541130217356039,0.0355307129180575,0.386556444834693,0.65942230723614
3,65,4,0.0827523860093873,-0.0309943365043211,-0.236878969606479,0.465167016483152
4,65,4,0.00813064514481585,-0.000250478393840279,-0.0127150549308194,0.0833978092293827
5,65,4,0.628533890835131,-0.0806324637354508,0.250417729030063,-0.476347485638217
6,65,4,-0.237893774222731,0.0161203989004502,0.0445693760803631,0.477867657068641
7,65,4,0.126119595893696,-0.00662470622929408,-0.339642479452841,0.0913304169666141
8,65,4,-0.0821480661372252,0.00780055879527541,0.125558296508289,-0.00270804080997861
9,65,4,0.0154054507039084,-0.00312222840058335,-0.109100504780395,0.0673354801018002
10,65,4,0.156591310626947,-0.0133792301895493,0.263560303337185,-0.37302533831579
11,65,4,-0.071075654351233,0.00587649009595939,0.0776501709289165,0.0983553046872408
12,65,4,0.0916766892166255,-0.0136648970346814,0.40144098686697,-0.577023859772906
1,66,4,0.100510108205898,-0.00912549747453408,-0.462190507230213,0.114835641687996
2,66,4,0.22538691880857,-0.0210363199675016,-0.684800796380246,0.0513081817301877
3,66,4,-0.378864376653318,0.0238469072769234,0.211310705205767,0.607614595961386
4,66,4,0.0865126842823652,-0.00909376455431,0.559803749337729,-0.525869974673995
5,66,4,0.322305993656162,-0.036509364166421,-0.100752211982703,-0.298454689617418
6,66,4,-0.255482735829968,0.0206191238091919,0.130252028822522,0.296809832631093
7,66,4,-0.0439367798193512,0.00278624449856871,0.0957750086541791,0.0181764408176462
8,66,4,0.170676539727278,-0.0190760525120379,-0.312120485196939,0.0512564805615145
9,66,4,0.192336043119173,-0.0173763140289459,-0.42122735443711,0.0599330527910609
10,66,4,0.46348285552774,-0.0429136062849691,0.449678795143986,-0.571407781143643
11,66,4,-0.071764637979008,0.00457740211180204,-0.0270948622905141,0.148265570017283
12,66,4,0.148702073381309,-0.0244659932467533,0.389327201044439,-0.537468111628436
1,67,4,0.219320590514543,-0.0133215796992578,-0.598828021245658,-0.0478041308394983
2,67,4,-0.709012390400534,0.0449330689012011,0.477351777103571,0.748514790768555
3,67,4,0.344643304794042,-0.0365943683078338,-0.851445409908019,0.0290941796673344
4,67,4,0.0937489513978178,0.00165736056277741,-0.318161986590893,-0.35855969291198
5,67,4,-0.159476253547923,0.0103873423560399,0.00468393695529995,0.356549771974961
6,67,4,0.286011374390119,-0.0276823635574701,-0.491605824222057,-0.137159766367781
7,67,4,0.123482838754187,-0.0153133854959068,-0.395047469304853,0.138238763209198
8,67,4,0.0222872230659201,-0.00854069486349364,-0.143508383374758,0.286009984511917
9,67,4,0.0576447302548463,-0.00618358817493365,-0.176621322395644,0.0499714705295373
10,67,4,0.363644075667009,-0.0411608492176732,0.426242191615907,-0.563628485597998
11,67,4,0.863943534664815,-0.108357226246203,-0.196408582039012,-0.927863758647642
12,67,4,0.0649923305448395,-0.0119625498027078,0.294310085811123,-0.437924953280006
1,68,4,-0.0308259309455689,-0.00679273513163356,-0.18335321956083,0.384808991862798
2,68,4,-0.187916137016613,0.0115347016321749,0.019445364782472,0.305631805280028
3,68,4,-0.0739557784532344,-0.00919513689656094,-0.0357226621597349,0.51438884905043
4,68,4,-0.00722111669813332,0.0112519384383557,-0.198550006982687,0.0512470651769229
5,68,4,0.117124988830521,-0.00860150857280561,-0.360192410316573,-0.0513821313927462
6,68,4,0.219488078623466,-0.0210453568485827,-0.152332600925796,-0.0532385657252156
7,68,4,0.385953350339644,-0.0382261315398122,0.398670932141718,-0.520912368961688
8,68,4,-0.253421654213248,0.0236067626085421,0.345373512756408,-0.152669989791288
9,68,4,-0.129093915466132,0.00933226322914507,0.0380533927613293,0.239990919980821
10,68,4,0.218130095515889,-0.020231558230812,0.0730434564646534,-0.264885416832671
11,68,4,0.137293542400757,-0.0265979324201819,-0.286989039197134,0.331473475291718
12,68,4,-0.0870466518919671,0.00510494389752028,0.0156551686153073,0.123849943364456
1,69,4,-0.399061605391951,0.0264773812223331,0.27259286830149,0.492594787074545
2,69,4,-0.259532126262075,0.0162697320480557,0.116329929513653,0.46702812171241
3,69,4,0.137557694261096,-0.028159235788141,-0.338699804974173,0.323052632969733
4,69,4,0.18535015321632,-0.0208321409199881,0.369155587222692,-0.536874066563407
5,69,4,-0.0632337209464887,-0.00318489354179345,-0.290181746138525,0.491650187612032
6,69,4,0.223764904932242,-0.0204158563343174,-0.0279780880533689,-0.180499831921931
7,69,4,-0.0782704667221591,0.00590020450893068,0.0848042065274852,0.0136778471059793
8,69,4,0.298395160382669,-0.0383905844277839,-0.567227814124503,0.133840127881895
9,69,4,0.00307663135698174,9.21554589166136e-05,0.186720315620128,-0.102249132773782
10,69,4,-0.563697572087509,0.0378580551570127,0.249877339620927,0.712475305074408
11,69,4,-0.473299851157221,0.0336690316028574,0.280089783748563,0.607625522685403
12,69,4,0.181395382557528,-0.0213499482947723,-0.272390693744459,0.186813936701537
1,70,4,0.258895450623138,-0.029613615892278,0.532342802826825,-0.610122154054147
2,70,4,0.202079291580007,-0.0272012304738223,-0.48017421499448,0.263608417431621
3,70,4,-0.202253431046408,0.0167545574893551,0.0680714698092016,0.203597949063593
4,70,4,0.191794619500455,-0.0220538242462756,0.291470960216701,-0.358890327825666
5,70,4,0.312628055819895,-0.0284784028844784,-0.615889295479268,-0.132532564424153
6,70,4,-0.277516049231716,0.0222581350000484,0.100170019961305,0.383906029600097
7,70,4,-0.508627379886717,0.039773289131629,0.264473295030232,0.388505956681412
8,70,4,-0.169969827169678,0.0107997994114244,0.0987815174817374,0.286916052887813
9,70,4,-0.149976229578943,0.0107477831948059,0.0631199004871559,0.324393389205009
10,70,4,0.134893439062891,-0.0123124242940186,-0.341874583784554,0.0602278473533288
11,70,4,0.134995305545193,-0.0140390365800944,-0.0694851623322798,-0.0536973695922195
12,70,4,0.467354477024421,-0.049387429486767,-0.27470380105437,-0.390679472659902
1,71,4,0.464106219280484,-0.0150672023742745,-1.26851509688019,-0.429167511095954
2,71,4,0.33652417536162,-0.0296602154645532,-0.795251903627153,-0.00778557067199455
3,71,4,0.0511614774960214,-0.0065557527435349,0.279982968836885,-0.3419888737739
4,71,4,0.285223050813375,-0.0379005200690826,0.617091710784447,-0.701651144672533
5,71,4,0.455241570540531,-0.0538622255343443,-0.161733460616827,-0.497382451286949
6,71,4,0.434621972133414,-0.0431289502060281,-0.786145174221437,-0.133329087525729
7,71,4,0.00673927446299165,-0.00235240210909728,-0.187668292120417,0.150477410658084
8,71,4,0.276858749344396,-0.0255939577585406,-0.520177908875302,0.020161958828428
9,71,4,0.590276482749794,-0.0574630649911031,-1.15270515705319,-0.15230184408773
10,71,4,0.405881765744724,-0.0280499726198291,-0.80554030184844,-0.323688081836034
11,71,4,0.103218877122316,-0.0162061871925623,-0.247127368945673,0.245354619613426
12,71,4,-0.0527984505950685,0.00330598167825761,0.00530107695270287,0.0861283202799816
1,72,4,-0.374092371369083,0.0243109223294435,0.250493357177853,0.473719720207209
2,72,4,0.0438023562377934,-0.00916398892140489,-0.21172579444128,0.256456020617471
3,72,4,0.532658190163874,-0.0587467992393795,-1.01408422401309,-0.0322739615487812
4,72,4,-0.00828712385422306,0.00780135752900415,-0.190608408497647,-0.257220218716136
5,72,4,0.00285885317338386,0.00352527680001116,-0.231281597235177,0.0952016785191635
6,72,4,-0.212356439611916,0.00729148852520526,-0.0419930227816338,0.609105439071758
7,72,4,-0.367284174661167,0.0280822835882671,0.248533371752721,0.349647379037999
8,72,4,-0.212177913025896,0.0172949085911609,0.198039243398835,0.0124070043411866
9,72,4,-0.0123654087585721,-0.00176754862260265,-0.0682559464357904,0.262608602466451
10,72,4,-0.550715773542911,0.0435855533684665,0.268913551753423,0.545349130646347
11,72,4,0.0705733006848854,-0.00373080504907018,-0.16438815897383,-0.141633871066657
12,72,4,0.0797091949802351,-0.010220551836642,-0.168413336639286,0.162903152848842
1,73,4,0.0587316104896635,-0.00990464877888427,-0.380815998913794,0.204025946559898
2,73,4,0.371891649288662,-0.0248044581767969,-0.921304829646572,-0.209705336195609
3,73,4,0.304519092952079,-0.0434840531404055,-0.663972124183591,0.190712075846555
4,73,4,0.281313510805145,-0.0379618383902824,-0.00580675947345887,-0.244404710541072
5,73,4,-0.3799324714703,0.0320030741697859,0.14499261312496,0.28389380553884
6,73,4,-0.199177181893271,0.0149451948107492,0.0662367893501643,0.384933744974099
7,73,4,0.192437928579519,-0.0187361594419688,-0.476596487532559,-0.0033606931940741
8,73,4,0.144538511324823,-0.0154336146551122,-0.0964894394035738,-0.123343667760427
9,73,4,-0.119452762992226,0.00838094453655224,0.0251557167074817,0.201713798983599
10,73,4,-0.0452527314904892,6.37452768882091e-05,-0.0520024501228647,0.206529141793436
11,73,4,0.0929382025884366,-0.0152059249337051,-0.158866279449879,0.244671492864271
12,73,4,0.600106921207895,-0.0547721081640324,-1.47665260282719,-0.102587176851408
1,74,4,-0.162732019689544,0.0092689262939632,-0.00959529283601824,0.380166883261213
2,74,4,0.218001029240053,-0.0206571990995151,-0.610540530117695,0.0675947296003897
3,74,4,0.501916159391888,-0.0350388794652279,-1.3058164192219,-0.156031435221902
4,74,4,0.458584320395612,-0.0588031304367569,0.00690005020095987,-0.507683790581334
5,74,4,0.324220054841666,-0.0375231333685628,-0.0859520570649796,-0.309881873163429
6,74,4,0.592945313573796,-0.0541172683294688,-1.02952997852835,-0.354790973771421
7,74,4,0.185072032858038,-0.0164311410765285,0.185768907726906,-0.294833819903447
8,74,4,0.00440417501654153,-0.000797805048375407,0.129395357604829,-0.0339383366434371
9,74,4,0.0534713412314945,-0.0110744695104552,0.352846357697775,-0.495758114652227
10,74,4,-0.0380977286376043,0.00323250569080466,0.0947310243530023,-0.0968363294958357
11,74,4,0.23394831747545,-0.024173091922425,-0.173273351093743,-0.210934520777076
12,74,4,-0.17474782730358,0.012520450392467,0.0842624652641245,0.257049327821099
1,75,4,0.482632139693621,-0.018406352730311,-1.16813247721287,-0.443136870235226
2,75,4,0.149501715081853,-0.0133404243113275,-0.389625154940437,0.0949317043013901
3,75,4,0.0822016827737814,-0.0153328121306042,-0.161325482806011,0.280506451467058
4,75,4,-0.407722837973768,0.0279395201191009,0.142973189476816,0.597871014431232
5,75,4,-0.126220894542354,0.0112476569789914,-0.00551164616900785,0.205864178445486
6,75,4,0.0262477614018771,-0.00268677929500481,0.109600624936054,-0.101122412197516
7,75,4,0.113802048589527,-0.00988118722068235,-0.27687590502878,-0.0172318580355074
8,75,4,0.0173691945017048,-0.00270131510342643,-0.0190595598071818,0.13360223061463
9,75,4,0.664312855722384,-0.0710411632284604,-0.637432749202199,-0.46331851034628
10,75,4,0.221488960108695,-0.024900676667358,0.100618436814208,-0.38118556532272
11,75,4,0.511792298357384,-0.0473149273773154,-0.526772363411648,-0.464016680833837
12,75,4,0.0448030222621861,-0.0143081266364936,0.360699658390083,-0.465624599837279
1,76,4,-0.0198401079489406,-0.00590605666948601,-0.244306145897777,0.294314752626928
2,76,4,-0.185600288389396,0.0109109596923005,0.0192451513104965,0.304661650407272
3,76,4,-0.627881620468026,0.0453248402305053,0.479068618390987,0.397306839134095
4,76,4,-0.603241721029738,0.0415902245925282,0.277309338386447,0.620283933440881
5,76,4,-0.169397829603503,0.00851115203876767,-0.0695349395140089,0.483872163042932
6,76,4,0.240182506556945,-0.0261694954589786,-0.0877964726558381,-0.292574062120414
7,76,4,0.258880140095724,-0.0281067633832402,0.291728107362003,-0.409073783520305
8,76,4,0.136221133933261,-0.0132278355483463,0.0767625490686746,-0.184247350951732
9,76,4,0.211686347199735,-0.0234035114876626,0.272400380697116,-0.42074082935091
10,76,4,0.00650082336672851,-0.000429224111600295,0.179552244980386,-0.144247085959271
11,76,4,0.393341459275086,-0.0498464783854383,0.504812963779512,-0.692105810641405
12,76,4,0.283135991600418,-0.0351931021790464,-0.567265897765174,0.067673399878513
1,77,4,-0.00974099015528063,0.000149754127396461,0.382909501426694,-0.296121376070907
2,77,4,0.343388409825797,-0.0234250157341045,-0.910529060084161,-0.163315835162601
3,77,4,0.37077380163653,-0.0271469720076293,-1.0529011118337,-0.105581006225605
4,77,4,-0.148956627883778,0.0126794306844167,-0.0475320475876584,0.286145353960398
5,77,4,-0.16740338994557,0.0209381665425982,0.0311693969802281,0.376905988872676
6,77,4,-0.0763502532423844,-0.00375973999827747,-0.207726936116899,0.499440439622571
7,77,4,-0.358459643368881,0.0259555086609902,0.298105040177605,0.374112271107751
8,77,4,0.115931257248593,-0.0246476749109538,-0.196615647768345,0.38031398053042
9,77,4,0.0895907850455998,-0.0135633850980193,-0.194630702310792,0.260999602377372
10,77,4,-0.390872994311162,0.031217537474467,0.192071868957779,0.327264678623648
11,77,4,-0.184516503461614,0.0143116412387864,0.0809464309928685,0.284148442657527
12,77,4,0.792450490046492,-0.0717020444925203,-0.837468656323994,-0.820201501345977
1,78,4,-0.174433794215759,0.0118711068535323,0.162009110176354,0.253438587880945
2,78,4,0.469335731631609,-0.0393983621463556,-1.07269407046271,-0.181407678795964
3,78,4,-0.19679424411003,0.0117768887202307,0.0457839729390826,0.339297596587514
4,78,4,0.370363915001762,-0.0446926811438085,0.0428343875546159,-0.444291687277176
5,78,4,0.0710581352473934,-0.0136787525096557,-0.479613103313213,0.448447532803088
6,78,4,0.233647704271208,-0.0258518931383138,-0.31858636004151,-0.131354178837442
7,78,4,0.128315569486911,-0.0104036877746764,-0.068697168025977,-0.043471010542483
8,78,4,0.0817790832162795,-0.014475306302375,-0.215069495173315,0.272058391673554
9,78,4,0.489367615034042,-0.049552071553707,-0.887505936630881,-0.063469265017623
10,78,4,-0.463994540557027,0.038916230720205,0.3253609991669,0.427883983755582
11,78,4,-0.22941881212627,0.0169320976951741,0.286301599103654,-0.0843941036265698
12,78,4,0.299745633353776,-0.0356340428300196,0.361414801567849,-0.490424409087278
1,79,4,-0.759785204877115,0.0493584605001467,0.582164119015767,0.502902763802051
2,79,4,-0.17692831042433,0.00722383568061053,0.0300762547552524,0.451308263745824
3,79,4,0.520345031458416,-0.0374152919420399,-1.0148741048295,-0.368333425465553
4,79,4,0.0311497044708722,-0.00266064758499838,-0.0816507823317191,0.082680736982609
5,79,4,-0.138078099781492,0.0102577774688789,0.137167261620665,0.144384571485986
6,79,4,0.190418178851194,-0.0198574082816166,-0.443618509673921,0.0456769072572512
7,79,4,0.415887473000412,-0.0478672897606324,0.507583007856513,-0.673481285193274
8,79,4,0.232324841580152,-0.0246120171074333,0.115279404203007,-0.273027244682429
9,79,4,-0.205154469997657,0.0210032116368667,0.120035738537564,0.0464222048226858
10,79,4,-0.540476776251992,0.039599613908431,0.334225701295828,0.498463856893731
11,79,4,-0.0126198703161965,-0.000651555156562152,-0.0660966761581537,0.160103559567901
12,79,4,0.809533462335775,-0.0814530126149753,-0.698397866293526,-0.785783546514903
1,80,4,0.188417023047229,-0.0141298353651972,-0.661711498019903,0.0375966372743546
2,80,4,-0.149942117938492,0.0146666138385348,0.0641612981264364,0.00287795993177614
3,80,4,0.235619179560261,-0.038855973649589,-0.435191390327473,0.292943037379972
4,80,4,0.115299686508301,-0.00873708669642651,0.0440854474201626,-0.160505430072545
5,80,4,-0.0442051470740291,0.0033753369728038,0.205352141519966,-0.108886855619777
6,80,4,0.0230057566379124,-0.00510949942657721,-0.154027089344178,0.182375589660422
7,80,4,0.0586200344542143,-0.00664312826197623,-0.237215284118912,0.192540899915715
8,80,4,0.0550883238605237,-0.00611312831420086,0.029588547125707,-0.0244593105321215
9,80,4,-0.341715171118415,0.0260606512496558,0.196283919211642,0.147645811864313
10,80,4,-0.590157874729617,0.0441723609996552,0.382109830492873,0.39694049607565
11,80,4,0.0685752793305492,-0.00765526603943584,0.0186540129241344,-0.116267808492384
12,80,4,-0.335545691851166,0.0267109446425777,0.195367986573335,0.399533323713488
1,81,4,-0.201614995304765,0.00356395380299844,0.0419552412164841,0.498974216328852
2,81,4,0.49351714710709,-0.0326747576500088,-1.18846373944326,-0.261833704357337
3,81,4,0.177695470918285,-0.0270616093137039,-0.270881666510831,0.270440054957574
4,81,4,0.126922851735988,-0.0155111630273597,0.0780701709062636,-0.0906669717674633
5,81,4,-0.357453040016467,0.0158692393239738,-0.0732121733765695,0.779146734681486
6,81,4,-0.24917547499566,0.0118642005424531,-0.0667798066449961,0.653057613714543
7,81,4,-0.101628284723783,0.00872493355860395,0.0570722587735965,0.0918454096065034
8,81,4,-0.761615670778292,0.0533835725120286,0.446352224342892,0.522438187728716
9,81,4,-0.173989049652678,0.00933036368048131,0.182533879407439,0.421414090179273
10,81,4,-0.472061370699426,0.0360140841768714,0.292789668965102,0.465176483563071
11,81,4,0.126466319009916,-0.011298600801372,-0.0849147595106803,-0.132103031103101
12,81,4,0.43630151858666,-0.0550305868407025,0.380823811318073,-0.586632430650263
1,82,4,-0.552100275672772,0.0399247991992027,0.413218951282127,0.498171277060472
2,82,4,0.390455653541948,-0.0304171726107045,-0.893191495963314,-0.181974178153101
3,82,4,0.178223478491716,-0.0457566595955545,-0.360314127473068,0.405160644244104
4,82,4,0.403549177926346,-0.0500603972014643,0.38721300770878,-0.518032343835564
5,82,4,0.30319853644991,-0.0272946482822852,-0.416460056388073,-0.181311190191783
6,82,4,-0.0614144243660117,-0.00693581410053922,-0.143220097046417,0.499313497575647
7,82,4,0.294157848228928,-0.0340369275468696,0.411400193529931,-0.549159632032931
8,82,4,-0.510604662399778,0.0395871387028163,0.2016448188275,0.35629493939936
9,82,4,0.041615280292022,-0.0140559903377325,-0.0733264036275385,0.303495579452202
10,82,4,-0.214943946022058,0.01818714572148,0.116786910887045,0.176536125349793
11,82,4,-0.0674781011661414,-0.00279556882726519,-0.021542997747387,0.413596270335884
12,82,4,0.511281281876488,-0.052943736019268,-1.14079849181003,-0.0835195963215008
1,83,4,-0.0419302895893968,0.00178321156491815,-0.104064719629258,0.234425911116111
2,83,4,0.505209221162711,-0.0289214777467164,-1.2361869266241,-0.305898808353419
3,83,4,-0.0266488512093837,-0.0111242276556009,-0.136459634343944,0.403043012040105
4,83,4,0.0664335673306416,-0.0152329766467827,0.0523245823844679,0.130105282525377
5,83,4,0.0529239147970081,-0.0113642181351644,-0.370361542854557,0.379986640800464
6,83,4,-0.370516351423468,0.0361578080963828,0.166612668504535,0.397606305993418
7,83,4,0.187232041719159,-0.0187671729175591,-0.447344702779866,0.0825553676194001
8,83,4,0.079072081019796,-0.00815405115122837,-0.120842410055557,0.0990949981756379
9,83,4,0.134400361367516,-0.0156057957155684,-0.236590112477826,0.169691234038465
10,83,4,0.0399406612838754,-0.00761326950220684,-0.261248967653441,0.195930271899363
11,83,4,-0.737264660007983,0.0479240214178905,0.235023053681413,0.739924397667708
12,83,4,-0.0864497698866025,0.00226391015597797,0.0399203887693057,0.292852966565178
1,84,4,-0.067200978946114,-0.00379164194863184,-0.101716939748548,0.353239854543099
2,84,4,0.173147376556633,-0.0131935267438588,-0.575568148656646,0.00613718546053678
3,84,4,0.409598386089888,-0.0473327668641327,-0.84048083322341,0.0743456842743173
4,84,4,0.150212713631936,-0.0184646046636651,0.116955360859104,-0.154362879530074
5,84,4,0.0909687845707332,-0.0166855907219749,-0.360292312684079,0.310988308167287
6,84,4,0.114391821713767,-0.0204600840804694,-0.331527970433232,0.329752435087322
7,84,4,-0.24919009675606,0.018667159927037,0.157275066225522,0.293245628381563
8,84,4,0.126393914734338,-0.0113834662615321,0.299158157032085,-0.423557762106568
9,84,4,0.0645769266879204,-0.0107127303183546,-0.165917280858523,0.261855241273286
10,84,4,0.039143316544555,-0.00413366014998607,-0.00662830200634271,-0.250407920142957
11,84,4,0.509709439441242,-0.0609670147651464,0.0922246120545364,-0.612769830201973
12,84,4,0.00302171655665059,-0.00268578212503287,-0.078025821445475,0.149669409727853
1,85,4,0.0311691613601459,-0.00506804618176597,-0.343277582194201,0.202105082620024
2,85,4,-0.555049053545185,0.0408714351836054,0.402480539050861,0.444254954828329
3,85,4,0.619129990565427,-0.0454194443795258,-1.97674580438018,-0.0934196818189223
4,85,4,-0.391876678183839,0.0284735535924318,0.0838321032853698,0.590156279956231
5,85,4,0.51520938665996,-0.0651012493296725,0.137114762241431,-0.655711740811532
6,85,4,-0.0607198118892667,0.00135998992215034,-0.0221590921886339,0.278906387920387
7,85,4,-0.26215890268339,0.0190936202169543,0.126359591408646,0.273937183630299
8,85,4,-0.220251772158798,0.019341262232923,0.154092179095112,0.170464384835637
9,85,4,-0.134445299853338,0.0101285804017925,0.0673287747606584,-0.144391036040437
10,85,4,0.192463046169979,-0.0172232322827124,-0.234856402697518,-0.0795213404076231
11,85,4,0.262886968847531,-0.0364966717544484,0.39490080612983,-0.567812423771493
12,85,4,-0.215900081323329,0.0206638347235681,0.167726273602918,0.0962601319603483
1,86,4,0.64745266171465,-0.0168672204368788,-1.60230340003116,-0.838635189109344
2,86,4,-0.308236361422786,0.016127645792967,0.238319419980203,0.546953901789237
3,86,4,0.545085964191537,-0.0399964083484962,-1.61653971154367,-0.151769911186462
4,86,4,-0.117827881268081,0.0053910794770135,0.0130820935811006,0.29526320420049
5,86,4,0.281196620332841,-0.0196097702415004,-0.645820549194332,-0.180225870471563
6,86,4,-0.454287521356411,0.0248849675455733,0.128182634868819,0.799147484824214
7,86,4,-0.517830195827389,0.0376070647616241,0.328537418736597,0.483790030140548
8,86,4,0.435670763695664,-0.0460167145169236,-0.696671608954108,-0.125186479535244
9,86,4,0.291035745384108,-0.0308250033124191,-0.355028930852533,-0.0279501155106027
10,86,4,0.0599966389389294,-0.00564089125142599,-0.0800915779611048,-0.115935813207603
11,86,4,-0.153843851852227,0.000511711341659158,0.127836619946757,0.391428914497694
12,86,4,-0.177261017238515,0.0159767964528088,0.10672677270797,0.206628184006303
1,87,4,0.0170137754141584,-0.00518585747186974,-0.329136526635256,0.227949759026134
2,87,4,-0.0760055727239922,-0.0180196127069224,-0.0286165590683967,0.522941349064293
3,87,4,0.053957892098037,-0.0155693373317079,-0.239365509395443,0.338384409169319
4,87,4,-0.392129016218948,0.0241641968826907,-0.0106852191459191,0.703132529183065
5,87,4,-0.38581735798519,0.0356054108771668,0.173916822277797,0.469408955896341
6,87,4,-0.204449235488466,0.00852063999813683,-0.0278042752777915,0.568830084347178
7,87,4,0.189591970690816,-0.0190243260393599,-0.427679155079518,0.048823155071254
8,87,4,0.0296233774923853,-0.00506729494949871,-0.152125132261643,0.106503592721136
9,87,4,-0.227699652366229,0.0214697038898971,0.194214303001994,0.277667295738747
10,87,4,-0.33036671501579,0.0312920616419186,0.203309364928636,0.252254943249359
11,87,4,-0.0398188947719695,0.00328468427077353,0.00339357595256667,0.0178187616257238
12,87,4,0.259670445630378,-0.0250577324011916,0.0518250665342794,-0.239794266503072
1,88,4,0.23798463563118,-0.0182654164442888,-0.754008522040674,-0.0169134642092645
2,88,4,0.344876192997219,-0.0275342721909492,-0.827964478183951,-0.109375205586275
3,88,4,0.180779940226344,-0.0409735577258574,-0.318280524674946,0.425721456265757
4,88,4,-0.0451541976942365,0.00336936509884791,-0.113952071965182,0.144284672126686
5,88,4,0.799581168982409,-0.114927003633414,0.527237877177782,-0.786299958193917
6,88,4,-0.372826211781942,0.0294564542171561,0.201450588444155,0.432673094249125
7,88,4,-0.162425261887793,0.0176198163366859,0.26183647584988,0.0219551296609672
8,88,4,-0.40437731222057,0.0322297579954364,0.317990657119824,0.401281117344814
9,88,4,0.437895578756574,-0.040605279924331,-0.553290372460504,-0.310955646438496
10,88,4,0.041517182334141,-0.00556601714884059,0.127339959088249,-0.163558686340041
11,88,4,0.744534055983108,-0.0475179960794313,-1.57225558505312,-0.641416732743266
12,88,4,-0.125960761134052,0.00979898078741586,0.0360423814920299,0.198616159084152
1,89,4,0.1003491812357,-0.0120908579959622,-0.135709676003216,-0.197249414502318
2,89,4,-0.451387571161455,0.0300129720380071,0.358659066625493,0.528310867735222
3,89,4,-0.268443750312319,0.0159059240388954,0.135326946326908,0.418842236522205
4,89,4,-0.59493815062305,0.0417425511527851,0.277278598536726,0.670728835177054
5,89,4,0.258498014866605,-0.0336558191844025,0.149812769551143,-0.185651946402986
6,89,4,-0.283458489257164,0.0106174985079933,-0.0823552313768532,0.657638310265419
7,89,4,-0.208599225752838,0.0143536827011274,0.107474711592221,0.340614799680555
8,89,4,-0.573002511069422,0.0464393769968081,0.368776585457456,0.50873060208257
9,89,4,0.122906445912607,-0.015045587439357,-0.1711155710851,0.192945658286354
10,89,4,0.109732478304238,-0.0101859718334666,0.264069022704253,-0.336398703456082
11,89,4,0.00698297373157448,-0.00824476214562779,-0.136697957506753,0.324882728300122
12,89,4,-0.287255715787453,0.022988646748426,0.14412225012157,0.412315424030321
1,90,4,-0.0125652150673093,-0.00218611933751845,-0.274569751136806,0.255406121429555
2,90,4,0.00157096116115443,-0.0101309694197266,-0.210855601756925,0.379084397145473
3,90,4,0.106962291739331,-0.0173082964335668,-0.382627677967517,0.227566762872481
4,90,4,0.0116815719749451,-0.00158658901384514,0.659739176020322,-0.574482109236037
5,90,4,0.218184286855398,-0.023922887873961,0.395776138596117,-0.521188034174706
6,90,4,-0.641958023148406,0.0453162416685545,0.308330299254737,0.664518783857003
7,90,4,0.17086146207269,-0.0134825286886065,-0.38700601588153,-0.0343299676384846
8,90,4,0.342235388333618,-0.0387327153391019,0.457765046202936,-0.617971459194994
9,90,4,0.391625052134032,-0.0395814101338945,-0.271741051113936,-0.307479679527365
10,90,4,0.0180945332648445,-0.00260947295520919,-0.153634022388026,0.0930341742769021
11,90,4,0.0923860411942747,-0.00890993205260768,0.0863682101529702,-0.239468288067413
12,90,4,0.0243648308244694,-0.0120802500291121,-0.0897573250058353,0.383651864431817
1,91,4,0.246039672228213,-0.0253905362634187,0.355971299904901,-0.41068010315846
2,91,4,0.869879114196357,-0.0942176912844538,-0.501619935289876,-1.0558064656129
3,91,4,0.326993283982631,-0.0408048248727694,-0.736289823710673,0.140807940709408
4,91,4,0.0962190688264263,-0.00795063206935015,0.215546102507081,-0.288027031170686
5,91,4,0.0217945408860381,0.00102275903143952,-0.248705882966664,0.210217366548343
6,91,4,0.304285364337427,-0.0350058117012348,-0.0229553088477502,-0.252569332046738
7,91,4,0.518782721712083,-0.0303892893024932,-0.994508574991088,-0.421334283582764
8,91,4,0.0616807654515543,-0.00954919777484162,-0.139230403850721,0.123930802685355
9,91,4,0.0930511001267446,-0.0086563247706283,0.00126068994760699,-0.0575038982271451
10,91,4,0.059151435476525,-0.00378082135853181,-0.258773207880873,0.183853851943997
11,91,4,-0.0633835403296805,0.0027135230481472,0.166990855007451,-0.0525246421913519
12,91,4,0.0266744223422915,-0.00809380692583859,-0.128815958946656,0.28517038817628
1,92,4,0.315829091416561,-0.0181386597917055,-0.920862377958695,-0.180642620083504
2,92,4,0.0573299046854123,-0.00923175607663322,-0.289139891904172,0.150905718126779
3,92,4,-0.174816399949358,0.00488828781380474,0.0338019117342074,0.507830007111446
4,92,4,-0.141167727949284,0.00570541859712141,-0.345841808548977,0.581969806417977
5,92,4,0.019336088779354,-0.00413635652258165,-0.235823100962902,0.229143824939673
6,92,4,-0.260117393953011,0.0176886668013109,0.0489706002485895,0.489930357217491
7,92,4,0.137419910601492,-0.0123864761055402,-0.337387865571065,0.00420443821766327
8,92,4,-0.285774421950218,0.0244238021996429,0.221007567831191,0.0587840612937068
9,92,4,0.263098577248103,-0.0244410288318072,-0.337835424318732,0.000679097654032024
10,92,4,0.131705382704095,-0.0151211895062719,0.252525674587465,-0.346587513025579
11,92,4,0.207715599706911,-0.02166243979765,0.0298946679058081,-0.254386760714213
12,92,4,0.672395709539837,-0.0756999408148137,-0.269325721914616,-0.670489609126109
1,93,4,0.109562245751773,-0.00834098705475115,-0.45811566584751,0.0657508595739037
2,93,4,-0.0845504016941973,0.00450467627607446,-0.0391147843322281,0.229957309607513
3,93,4,-0.602024467996134,0.042758111825751,0.533234620645164,0.692617519028939
4,93,4,-0.102146042548442,0.00458886767916491,0.0256542981855327,0.186921837599111
5,93,4,0.309588197579818,-0.0385524621808195,-0.750718461592041,-0.00291678151842761
6,93,4,0.38208777409595,-0.0380288127418795,-0.581933395240485,-0.208441784846798
7,93,4,-0.170956337252323,0.0146605252551542,0.0815829041706641,0.23980288664479
8,93,4,0.012326799273668,-0.00204380667296074,0.284366142272702,-0.296302272658391
9,93,4,-0.105970082258457,0.00659911232700545,-0.00183354251578362,0.202953183729435
10,93,4,0.128680425376832,-0.014360209358066,0.233511248700247,-0.32902984922358
11,93,4,0.175907354938227,-0.019518764299732,0.278480880876452,-0.406824258848442
12,93,4,-0.195463285579672,0.0164624040703811,0.105838826793491,0.261157432420789
1,94,4,-0.0100027089517517,-0.000276853562109278,-0.213662093717464,0.143532506672317
2,94,4,0.234677134375736,-0.0199995267552876,-0.683523417240277,-0.000776062522179543
3,94,4,-0.134058740321353,-0.00129134065202256,0.0465203343469426,0.52239403174628
4,94,4,0.211057064184387,-0.0221718825616789,0.168266070619135,-0.249235587374132
5,94,4,0.174552848883086,-0.0224879884872544,-0.0367371482678734,-0.0128792199014352
6,94,4,0.210081412299347,-0.0194162479586023,-0.445404200825771,-0.0922555551257815
7,94,4,0.2721407089792,-0.0232447940653054,-0.437646852974403,-0.130706099728518
8,94,4,0.0465905581807845,-0.00555370346812968,-0.0106925452170356,0.0322601534062941
9,94,4,-0.0334619531060007,0.00150441102833009,-0.0770903850643814,0.124210719269571
10,94,4,0.159187324948591,-0.0111243163778905,0.191897088348086,-0.240787906039648
11,94,4,0.369702730766635,-0.0338315805631901,-0.679608383342587,-0.195382105018371
12,94,4,-0.0918464221951362,0.00856234416019457,0.0148397145146587,0.12169196466495
1,95,4,0.301924697962267,-0.016634595770833,-0.869506974723747,-0.189214408687097
2,95,4,0.0299078053031352,-0.0141220581427522,-0.236341272879548,0.341617341573063
3,95,4,-0.368205234768213,0.0191601351469848,0.317925869770913,0.681600091217244
4,95,4,0.0046420573157275,0.0109118733070012,-0.223911089263524,-0.0934336277460919
5,95,4,-0.217382671205225,0.0209390373103582,0.0541745526035701,0.314911380210742
6,95,4,-0.22870989489127,0.0180627702009506,0.25904336866983,-0.108512095820497
7,95,4,0.550893911300008,-0.0583197425753748,0.400173420385434,-0.550512531694842
8,95,4,-0.27586170697498,0.0219157852891084,0.15383322619522,0.342754035919199
9,95,4,0.404239542855015,-0.0325940754277386,-0.956806330318141,-0.106899851079509
10,95,4,-0.516718411392659,0.0388716803897097,0.283615215977243,0.488711899344703
11,95,4,0.526730407163606,-0.0483561602225222,-0.535890373700638,-0.503826990462707
12,95,4,-0.418576956450971,0.0332161839426912,0.276429313931147,0.475010484989729
1,96,4,-0.137654837645784,0.0050104272649402,-0.070085239153049,0.423314026399539
2,96,4,-0.1116244244796,0.00461498055659003,-0.0298974504043326,0.229668638561728
3,96,4,0.433233529293858,-0.0447243261858247,-0.273738242957367,-0.403000246612265
4,96,4,-0.116879705664343,0.0100650443124164,0.0481164771706282,0.123376483727801
5,96,4,0.0980807011153646,-0.0165073285191288,-0.411608657933959,0.372334825007803
6,96,4,0.298769001845423,-0.029205870651553,-0.352229636524047,-0.0387011870723102
7,96,4,-0.208280602121224,0.016573167498416,0.181625048109109,0.191953641875563
8,96,4,0.190981610285763,-0.0200522686793888,-0.340061503213666,0.0216470979647767
9,96,4,0.0336369825035955,-0.00293468971707627,0.0765656580572116,-0.0715095683264116
10,96,4,0.0628298527456174,-0.00701063444269878,-0.246259107796979,0.208391947375742
11,96,4,-0.0808111706579507,0.000517838719363566,0.0184352536945564,0.359955741828771
12,96,4,-0.0703821507564599,0.00591323280725859,-0.0034212224647282,0.159927456464452
1,97,4,0.269512492010524,-0.0235169687466239,0.351177580921313,-0.396721051683111
2,97,4,-0.124681698445974,0.00344832539433957,-0.0372827891332802,0.428130180382272
3,97,4,0.988676669434791,-0.125564946369335,-0.208271755224814,-1.12307177812403
4,97,4,0.0164556688581121,-0.00377798882587654,-0.0128824398291626,0.0564933710483695
5,97,4,0.176570376899847,-0.0147968025645235,-0.230881618525574,-0.0428940427914813
6,97,4,0.0952851355985721,-0.01289438102354,0.134297333554896,-0.148914915944291
7,97,4,-0.222707100501397,0.0157755479321578,0.189422622760292,0.316273342441004
8,97,4,0.0245654228226614,-0.00684201921225993,-0.123081002176901,0.193995275895675
9,97,4,-0.0682904961748331,0.00217688851425727,-0.0245080807254371,0.334418883516783
10,97,4,-0.261722988858017,0.0199259133044262,0.213130588922294,0.345474870769314
11,97,4,-0.253165642550539,0.0262679975922277,0.15285508682527,0.196706755000543
12,97,4,0.338649534639517,-0.0373058583334638,-0.0344426786803371,-0.372610276099439
1,98,4,0.615701648685945,-0.0217299257727876,-1.55338415304614,-0.820230085795474
2,98,4,-0.220675759659073,0.000144323965290243,0.0516030255068375,0.674502174320829
3,98,4,0.352948888849244,-0.0257140619518619,-0.696995222089208,-0.216598272742036
4,98,4,-0.117078892132499,0.0111626066106474,-0.0183959227740382,0.231040572726757
5,98,4,0.0409262964198544,-0.00713406291969023,-0.176996699691969,0.141391277379705
6,98,4,-0.349731920046065,0.0237180074554463,0.116619449653922,0.583210687740084
7,98,4,-0.000125343227959862,-0.00188234147202556,-0.142012559441751,0.191002929149926
8,98,4,-0.143187444526019,0.00931899344123407,0.0421032935436195,0.310599162807713
9,98,4,0.0973528044392197,-0.0120171338670589,0.0961215846109381,-0.269583140723942
10,98,4,-0.0586830831826947,0.00588194587195857,-0.00140000013370694,0.0370292322846691
11,98,4,-0.259043481015665,0.0270910861028003,0.143034823849457,0.159741672144657
12,98,4,-0.35018746849831,0.0303553508660991,0.199477005848788,0.309287092763602
1,99,4,-0.149790320270321,-0.00154274786729728,-0.0307946621786004,0.454528545983361
2,99,4,-0.335436065623961,0.0271973296605231,0.197065094761774,0.373210685934216
3,99,4,0.0989527951172355,-0.0177376516806125,-0.283087315624273,0.29569924745279
4,99,4,0.0260772860995011,0.000197336522008321,0.411321678317692,-0.370067653474473
5,99,4,0.404397001094923,-0.024315074361113,-0.900460770302249,-0.390414440178125
6,99,4,0.522661155485717,-0.0631174588010929,0.149821538577396,-0.491389699666674
7,99,4,-0.0476972651253976,0.00329311547527906,0.0622774634452772,0.0784998844842333
8,99,4,-0.113666517050538,0.0111139331826296,0.0788513089147018,0.11009265314233
9,99,4,-0.0205292212797213,-0.00229280655864734,-0.073305188336445,0.284369889840916
10,99,4,-0.148156452524361,0.0126079914216204,0.108498921376082,0.04896265676802
11,99,4,0.0692811603269486,-0.00880462028801436,0.210015643608124,-0.239888960545213
12,99,4,0.131768625830804,-0.0127536196982508,0.109550473195861,-0.160069722722536
1,100,4,-0.172370949443992,0.00613786839111292,-0.00550437644850678,0.376073478281548
2,100,4,0.392408859058496,-0.032761910756155,-1.01629569476569,-0.0828306571232619
3,100,4,0.331847415705255,-0.045968750591895,-0.670079007105188,0.205527087819773
4,100,4,0.108721322118905,-0.0149972103495401,-0.00917817835394892,0.0973847106463164
5,100,4,0.0135513553438318,-0.0065526871733046,-0.261539135262709,0.333408633875429
6,100,4,-0.41050657443037,0.0314306800417831,-0.162930138627728,0.824695434078257
7,100,4,-0.189990449881728,0.0200036897042235,0.182920167211603,0.0478879206712499
